SVM-light Version V6.02
0 # kernel type
3 # kernel parameter -d 
1 # kernel parameter -g 
1 # kernel parameter -s 
1 # kernel parameter -r 
empty# kernel parameter -u 
5211 # highest feature index 
512 # number of training documents 
397 # number of support vectors plus 1 
0.1862808 # threshold b, each following line is a SV (starting with alpha*y)
0.044702159757888333679876069481907 1:0.35159877 2:0.14273238 5:0.085622579 10:0.0087885056 11:0.10673603 13:0.041011918 21:0.52237296 22:0.01892801 24:0.087400362 25:0.010050336 43:0.20242025 49:0.22608185 50:0.4411577 71:0.26245552 73:0.085296571 88:0.52739811 90:0.14439721 92:0.093164787 93:0.041735113 98:0.076546386 107:0.31601918 112:0.19345377 167:0.33667228 173:0.29583839 179:0.19962692 192:0.40392688 198:0.055395566 199:0.25454625 206:0.20586737 230:0.2907877 242:0.16956465 258:0.54343808 329:0.19893344 332:0.8126561 359:0.51247066 410:0.85662878 424:0.38283002 429:0.26514855 501:0.66039014 545:0.5917809 606:0.55467588 607:0.61262631 611:0.367419 627:1.1512926 648:0.50766283 678:0.7308529 679:0.73673552 701:0.79702604 728:0.61262631 818:0.5985381 837:0.4523536 954:1.2232131 1398:1.0299156 1411:0.67390692 2054:0.79702604 2077:1.1512926 2141:0.89839232 2789:0.62373924 #
-0.046494486946536017768494275514968 5:0.03424903 10:0.0061519542 11:0.085388824 13:0.016404767 16:0.23408063 22:0.0075712041 24:0.011653381 25:0.010050336 29:0.068072468 43:0.080968097 44:0.10973631 46:0.16032073 49:0.18086548 73:0.022745753 84:0.189712 87:0.2752786 90:0.057758883 91:0.39765614 92:0.055898875 93:0.050082136 94:0.13813068 95:0.1913927 96:0.10899004 97:0.5075174 98:0.09185566 99:0.17429693 100:0.47387016 101:0.41997051 102:0.19932638 103:0.66846114 104:0.34265152 105:0.5075174 106:0.11551826 107:0.12640767 108:0.29957321 109:0.3388775 110:0.46051702 111:0.23538783 112:0.077381507 113:0.43820265 114:0.46051702 115:0.35491174 116:0.52983171 117:0.40455544 118:0.36400893 119:0.265926 120:0.18094145 121:0.22072749 122:0.52983171 123:0.26241687 124:0.28559703 125:0.33173159 126:0.25737378 127:0.22302644 128:0.5075174 129:0.66846114 130:0.59914643 131:0.52983171 132:0.13862944 133:0.66846114 134:0.35935694 135:0.43820265 136:0.36888793 137:0.47387016 138:0.22072749 139:0.33524072 #
0.085955435741166971719273703911313 1:0.26369905 5:0.042811289 10:0.0065913796 11:0.16010405 12:0.093918368 13:0.071770854 17:0.10914221 18:0.13672116 21:0.26118648 22:0.011830006 24:0.014566727 25:0.010050336 29:0.085090585 34:0.073880248 46:0.20040092 51:0.23405342 69:0.29756832 73:0.042648286 88:0.087899692 90:0.072198607 92:0.023291197 96:0.13623755 98:0.11481958 106:0.14439783 107:0.15800959 120:0.2261768 121:0.55181873 163:0.38421172 173:0.14791919 183:0.12598224 188:0.18855774 198:0.055395566 202:0.17709419 204:0.096388593 206:0.051466841 210:0.14340968 220:0.70861602 230:0.14539385 238:0.11690234 242:0.084782325 265:0.13122776 268:0.16898662 283:0.21348475 305:0.44919616 329:0.39786687 363:0.23924088 381:0.15800959 424:0.19141501 429:0.13257428 442:0.40632805 489:0.4104268 506:0.26634187 549:0.28627032 583:0.31377804 585:0.21876723 654:0.33019507 655:0.34909892 716:0.29423481 776:0.39115795 827:0.23104122 837:0.2261768 873:0.74275994 885:0.36542645 889:0.3569963 934:0.31571609 946:0.26118648 962:0.32171723 1013:0.49707019 1150:0.59233767 1160:0.36255276 1362:0.45501116 1380:0.41466448 1521:0.49707019 1578:0.3876366 1942:0.50569427 2008:0.52496314 2621:0.5609234 3011:0.59233767 3097:0.63439673 3175:0.63439673 3259:0.69824994 3301:0.45501116 5170:0.83557647 5171:0.83557647 5172:0.74893308 5173:0.83557647 #
0.011360748519044382501275158858789 2:0.11418591 10:0.0052731037 13:0.016404767 18:0.10937694 22:0.003785602 24:0.023306763 25:0.010050336 34:0.11820839 36:0.29393518 43:0.16193619 49:0.090432741 64:0.38278541 73:0.022745753 88:0.281279 93:0.033388089 94:0.27626136 95:0.38278541 98:0.12247422 106:0.23103653 112:0.15476301 198:0.044316456 206:0.082346946 242:0.13565171 258:0.43475044 267:0.32567319 302:0.32823732 329:0.31829351 361:0.49598381 460:0.39501631 469:0.41992885 482:0.33083475 494:0.44374073 506:0.42614695 522:0.57558984 627:0.92103404 694:0.89747745 733:0.41192779 759:0.51474756 775:0.4369604 1006:0.5354557 1513:0.58468235 1578:0.62021858 1694:0.77027971 4911:1.0150348 5201:1.3369223 #
-0.012966320292452889959000650321741 1:0.087899692 3:0.10578001 12:0.046959184 13:0.041011918 17:0.054571107 22:0.014196008 24:0.11653382 25:0.0075377519 44:0.13717039 49:0.056520462 73:0.042648286 88:0.26369905 90:0.072198607 93:0.041735113 98:0.038273193 106:0.28879565 107:0.15800959 149:0.26914123 151:0.42016634 162:0.25383142 188:0.18855774 194:0.30451456 204:0.096388593 210:0.14340968 222:0.23104122 233:0.15636122 238:0.11690234 277:0.32802108 290:0.20434447 295:0.25993019 312:0.33695346 329:0.29840016 368:0.63439673 416:0.54775333 420:0.44919616 427:0.24576411 430:0.57564628 443:0.38087821 494:0.27733794 560:0.26118648 573:0.34167099 583:0.31377804 635:0.37763125 716:0.29423481 759:0.32171723 856:0.28473657 864:0.46752161 871:0.57564628 937:0.47428 946:0.26118648 962:0.32171723 1023:0.53583956 1169:1.9303035 1170:0.43321699 1181:0.42359686 1188:0.40235949 1281:0.37763125 1367:0.52496314 1414:0.74893308 1445:0.59233767 1490:0.47428 1502:0.37446654 1597:0.41466448 1740:0.57564628 2038:0.63439673 2161:0.63439673 2209:0.54775333 2234:0.5609234 2362:0.83557647 2363:0.83557647 2364:0.83557647 2365:0.69824994 2366:0.63439673 2367:0.74893308 2368:0.74893308 2369:0.83557647 2370:0.69824994 2371:0.83557647 2372:0.83557647 2373:0.74893308 2374:0.54775333 2375:0.74893308 2376:0.74893308 2377:0.46110994 2378:0.50569427 2379:0.83557647 #
0.032597793366863886399542593608203 1:0.26369905 2:0.071366191 3:0.052890006 4:0.33019507 5:0.042811289 7:0.25868639 10:0.0054928162 11:0.053368017 12:0.046959184 18:0.068360582 22:0.011830006 24:0.072833635 25:0.010050336 34:0.073880248 44:0.13717039 46:0.20040092 50:0.22057885 60:0.48900288 73:0.014216095 92:0.023291197 93:0.041735113 98:0.076546386 105:0.63439673 106:0.28879565 121:0.27590936 140:0.53006589 144:0.40235949 149:0.067285307 150:0.27590936 198:0.083093353 199:0.12727313 206:0.10293368 212:0.1602418 216:0.3569963 228:0.24801642 230:0.14539385 249:0.23203725 279:0.18785352 306:0.57564628 313:0.40632805 329:0.099466719 361:0.3099899 364:0.14539385 386:0.22713466 403:0.26900154 406:0.49707019 412:0.53583956 424:0.19141501 466:0.13439249 469:0.26245552 473:0.27878305 506:0.53268373 611:0.1837095 624:0.27733794 648:0.25383142 854:0.35974365 946:0.26118648 1037:0.4436397 1262:0.47428 1480:0.25868639 1485:0.35430801 2489:0.63439673 2789:0.31186962 4031:0.4436397 4151:0.83557647 4152:0.74893308 4153:0.74893308 #
0.0090580866647142002645587410825101 1:0.1406395 4:0.52831209 10:0.0035154023 11:0.085388824 12:0.075134695 13:0.032809533 22:0.003785602 24:0.11653382 25:0.0040201345 29:0.13614494 34:0.11820839 46:0.32064146 49:0.090432741 64:0.38278541 71:0.20996442 72:0.44374073 73:0.11372876 84:0.37942401 94:0.27626136 117:0.80911088 119:0.53185201 120:0.3618829 167:0.13466892 174:0.35292616 186:0.44605288 194:0.4872233 196:0.21067999 204:0.15422174 206:0.16469389 217:0.50829542 230:0.46526033 238:0.37408748 265:0.20996442 267:0.32567319 291:0.27037859 329:0.63658702 335:0.41389823 344:0.65668285 381:0.25281534 382:0.34020102 386:0.36341545 397:0.4930208 427:0.39322257 469:0.41992885 473:0.44605288 496:0.56268215 599:0.40804416 687:0.3712596 701:0.63762081 733:0.41192779 800:0.58468235 963:0.72801787 1072:0.92103404 1268:0.47342473 1289:0.77027971 1646:0.65012491 1928:0.63165027 4154:1.3369223 4155:1.3369223 4156:1.1982929 4157:1.3369223 #
0.1691679486968849788208757445318 1:0.35159877 5:0.11416344 10:0.0087885056 13:0.041011918 15:0.31618667 17:0.072761476 22:0.0063093365 25:0.010050336 43:0.13494684 46:0.26720122 49:0.075360619 69:0.39675778 73:0.018954795 74:0.5168488 75:0.60668153 84:0.31618667 87:0.45879769 88:0.23439917 89:0.29410514 90:0.096264809 92:0.093164787 93:0.13911705 95:0.31898785 98:0.10206185 106:0.19253044 112:0.12896918 125:0.55288601 166:0.47241068 179:0.13308461 198:0.036930379 199:0.16969751 205:0.4289563 206:0.13724491 278:0.15908532 335:0.34491521 362:0.29410514 387:0.63237333 466:0.17918999 496:0.46890178 611:0.24494599 624:0.36978394 687:0.309383 689:0.29904377 714:0.49928871 724:0.4289563 796:0.57762265 1338:0.7303378 1607:0.69995087 1656:0.50350833 1788:0.7303378 2388:0.48340368 2789:0.41582617 4158:1.114102 #
0.086210201745442124887652823872486 3:0.038465459 4:0.24014185 5:0.093406446 10:0.0047937306 11:0.038813103 12:0.085380338 22:0.010324369 24:0.031781949 25:0.010050336 29:0.061884061 36:0.13360691 41:0.17322621 44:0.099760279 73:0.031016937 88:0.063927047 94:0.12557335 98:0.027835049 149:0.097869538 167:0.12242628 179:0.14518322 182:0.19370316 183:0.091623448 196:0.095763631 198:0.060431529 199:0.092562273 206:0.037430428 212:0.23307897 222:0.16802998 224:0.1617579 230:0.21148196 232:0.37451476 238:0.17003977 242:0.061659869 243:0.55885345 266:0.22820222 278:0.086773813 321:0.14351511 329:0.14467886 375:0.15716225 381:0.11491606 384:0.23249795 460:0.17955287 538:0.23700675 662:0.3150669 680:0.3150669 703:0.37451476 712:0.25205353 721:0.21398894 901:0.17476708 962:0.46795234 1100:0.34001571 1156:0.22681427 1317:0.40794429 1351:0.46137944 1524:0.54467857 1536:0.2557646 2131:0.46137944 2618:0.40794429 3456:0.68003142 3938:0.5078181 4159:0.607692 4160:0.5078181 4161:0.54467857 4162:0.607692 4163:1.215384 4164:0.607692 4165:0.607692 4166:0.607692 4167:0.607692 4168:0.607692 4169:0.607692 4170:0.607692 #
0.04605523143440818506499923046249 1:0.10045679 2:0.081561364 4:1.1320974 5:0.14678156 6:0.42796177 10:0.0037665025 11:0.060992021 12:0.053667638 13:0.058588453 17:0.062366977 18:0.078126378 22:0.010816006 24:0.099886127 25:0.010050336 26:0.38508967 31:0.40799576 32:0.40799576 34:0.084434569 35:0.36885262 49:0.12918963 58:0.41434601 74:0.44301325 82:0.34801665 88:0.10045679 92:0.053237021 93:0.047697272 94:0.19732955 96:0.15570004 98:0.17496316 99:0.49799123 106:0.1650261 140:0.3028948 166:0.40492344 167:0.19238415 173:0.1690505 193:0.34801665 204:0.11015839 206:0.11763849 241:0.30406025 242:0.096894078 247:0.74487835 329:0.2273525 337:0.2698316 363:0.27341816 364:0.1661644 420:0.51336706 422:0.37989429 423:0.27101713 424:0.21876001 466:0.6143657 482:0.23631054 507:0.35427415 684:0.49799123 728:0.35007218 770:0.64105529 784:0.5343104 901:0.27463397 1177:0.67695737 1189:0.48411068 1284:0.52001274 1418:1.0400255 1521:0.56808025 1724:0.45544344 1746:0.61238807 1835:0.52001274 1948:0.79799992 2195:0.6989789 2461:0.6989789 2609:0.72502482 4094:0.79799992 4171:0.79799992 4172:0.95494455 4173:0.6989789 4174:0.95494455 #
-0.025274509827278600349043102823998 1:0.1406395 2:0.11418591 10:0.0070308046 11:0.085388824 14:0.59914643 22:0.011356806 24:0.093227051 25:0.010050336 34:0.23641679 35:0.51639366 43:0.16193619 46:0.32064146 49:0.090432741 71:0.20996442 73:0.090983011 88:0.281279 89:0.70585233 90:0.11551777 92:0.11179775 93:0.066776179 107:0.25281534 127:0.44605288 144:0.64377517 167:0.13466892 170:0.3862043 173:0.47334141 182:0.42614695 193:0.97444659 212:0.51277375 238:0.18704374 262:0.91115701 278:0.19090238 291:0.54075718 362:0.35292616 422:1.063704 424:0.61252803 466:0.64508396 496:0.56268215 582:0.58008444 589:0.53185201 627:0.46051702 724:0.51474756 832:1.1171999 1028:0.79531229 1169:0.51474756 1188:0.64377517 1268:0.94684947 1941:0.7824046 1956:1.0150348 1958:1.0150348 1959:0.94774032 1960:0.82393247 1961:1.0150348 1962:0.70982349 1963:0.89747745 #
-0.082733873988931630472087874750287 1:0.11719958 3:0.14104001 5:0.22832687 10:0.0087885056 11:0.071157359 12:0.062612243 13:0.068353198 14:0.49928871 17:0.072761476 22:0.01892801 24:0.11653382 25:0.010050336 34:0.098506995 46:0.26720122 60:0.65200382 73:0.056864381 88:0.11719958 89:0.29410514 90:0.096264809 92:0.062109858 93:0.027823409 96:0.18165006 98:0.051030923 119:0.44321001 120:0.30156907 140:0.35337725 147:0.33844191 177:0.38586065 192:0.26928458 198:0.036930379 199:0.16969751 204:0.12851812 224:0.29655614 242:0.11304309 264:0.2724593 265:0.17497036 278:0.15908532 293:0.28350085 301:0.6418997 337:0.31480354 347:0.62336212 382:0.28350085 390:0.6418997 481:0.67425907 498:0.51228231 516:0.30413321 540:0.6866104 589:0.44321001 606:0.36978394 611:0.24494599 642:0.6418997 689:0.29904377 741:0.62336212 777:0.53647929 796:0.57762265 860:0.26616922 959:0.67425907 1023:0.71445274 1271:0.56479579 1375:0.57108587 1395:0.6418997 1487:0.67425907 1488:0.7897836 1499:0.61481327 1501:0.8154754 1519:0.60668153 1520:1.114102 1521:0.66276026 1522:1.114102 1523:0.71445274 1524:0.99857742 1525:0.93099993 #
-0.1225068748968100307283890515464 1:0.10045679 2:0.16312273 3:0.12089144 5:0.097854376 10:0.0087885056 11:0.12198404 12:0.053667638 13:0.046870764 22:0.008112004 24:0.033295374 25:0.0071788114 35:0.18442631 41:0.54442519 43:0.23133743 49:0.064594813 71:0.14997458 73:0.048740901 88:0.10045679 90:0.082512692 92:0.079855531 93:0.071545906 98:0.13122238 107:0.54174715 111:0.33626834 192:0.23081537 199:0.145455 206:0.058819246 210:0.32779357 212:0.18313348 242:0.096894078 243:0.4390991 249:0.26518542 265:0.14997458 268:0.19312756 297:0.22210185 321:0.22552375 356:0.36767682 362:0.25209013 391:0.40492344 403:0.30743033 424:0.43752003 446:0.55886042 455:0.37989429 466:0.46077424 545:0.33816051 627:0.32894072 645:0.39325514 685:0.50701678 702:0.41113561 728:0.35007218 763:0.36306813 778:0.52001274 934:0.36081839 987:0.50701678 989:0.50701678 1315:0.48950216 1480:0.5912832 1656:0.43157858 1960:0.58852321 1962:0.50701678 2042:0.45544344 2043:0.4598394 2084:0.85592353 2085:0.95494455 2086:0.64105529 2087:0.79799992 2088:0.95494455 2089:0.95494455 2090:0.85592353 #
-0.12010425724778411860071969385899 1:0.21095926 2:0.11418591 3:0.084624007 4:0.26415604 5:0.06849806 10:0.0061519542 13:0.032809533 15:0.189712 22:0.017035209 24:0.034960143 25:0.010050336 29:0.068072468 34:0.17731258 35:0.12909842 49:0.13564911 68:0.26241687 73:0.011372876 90:0.23103553 92:0.055898875 93:0.033388089 98:0.12247422 102:0.19932638 106:0.11551826 144:0.32188758 149:0.053828247 177:0.23151639 179:0.15970154 198:0.022158228 202:0.14167535 204:0.077110872 206:0.041173473 207:0.63165027 210:0.22945549 212:0.12819344 238:0.18704374 243:0.30736938 256:0.17867719 265:0.31494665 267:0.48850977 268:0.13518929 278:0.19090238 279:0.15028282 284:0.14323384 297:0.31094259 302:0.16411866 329:0.079573378 380:0.40455544 381:0.12640767 386:0.18170772 403:0.21520123 423:0.189712 429:0.21211885 440:0.55859995 442:0.32506245 466:0.10751399 473:0.22302644 475:0.48438638 480:0.35935694 514:0.30210501 539:0.23025851 568:0.31582513 616:0.41196623 648:0.20306514 701:0.3188104 715:0.32834142 752:0.47387016 763:0.25414771 764:0.35935694 765:0.59914643 766:0.30736938 767:0.37942401 768:0.28779492 769:0.55859995 770:0.44873872 771:0.66846114 772:0.59914643 773:0.40455544 774:0.44873872 775:0.2184802 776:0.31292635 777:0.32188758 778:0.36400893 779:0.59914643 780:0.66846114 781:0.66846114 782:0.5075174 783:0.66846114 784:0.37401727 785:0.66846114 786:0.42867166 787:0.47387016 788:0.66846114 789:0.66846114 790:0.48928523 791:0.66846114 792:0.46051702 793:0.31292635 #
-0.10792803817257609622082270561805 3:0.10578001 10:0.0087885056 22:0.009464005 25:0.0075377519 34:0.29552099 49:0.22608185 71:0.26245552 73:0.02843219 82:0.60902911 88:0.17579938 90:0.14439721 93:0.041735113 106:0.28879565 109:0.84719372 149:0.26914123 166:0.70861602 167:0.16833614 173:0.29583839 191:0.5917809 195:1.0113885 196:0.26334998 199:0.25454625 202:0.35418838 210:0.57363874 222:0.46208245 242:0.16956465 279:0.37570703 291:0.33797324 403:0.53800309 435:0.48060945 507:0.6199798 662:0.86643398 1145:1.1218468 1234:0.74893308 1528:1.3964999 2461:1.2232131 2575:1.1512926 2789:0.62373924 #
0.0064521484438475433520476798321397 5:0.057081718 8:0.42624623 10:0.0087885056 11:0.071157359 12:0.031306121 13:0.041011918 17:0.072761476 18:0.091147445 22:0.0063093365 25:0.0083752796 29:0.11345411 34:0.098506995 37:0.42357951 43:0.13494684 49:0.075360619 57:0.4289563 58:0.96680737 64:0.31898785 66:0.49517328 73:0.056864381 92:0.062109858 98:0.20412369 112:0.12896918 121:0.36787915 132:0.23104906 134:0.59892821 142:0.44927129 149:0.26914123 151:0.2801109 177:0.38586065 188:0.25141034 196:0.17556666 198:0.11079113 204:0.12851812 278:0.15908532 329:0.2652446 330:0.6866104 356:0.4289563 384:0.42624623 424:0.25522003 428:0.57108587 429:0.17676571 473:0.37171075 498:0.51228231 573:0.45556134 600:0.37762851 689:0.29904377 694:0.74789786 818:0.39902538 827:0.30805498 837:0.30156907 855:0.7897836 885:0.48723528 928:0.60668153 1042:0.7303378 1215:0.63237333 1234:0.99857742 1392:0.76752836 1669:0.46890178 1860:0.95931643 2084:0.99857742 2309:0.84586233 2324:0.88305289 2502:0.55288601 2943:0.69995087 3181:0.65200382 3538:0.6866104 4798:1.114102 4799:1.114102 4800:1.114102 4801:1.114102 4802:1.114102 4803:1.114102 4804:1.114102 #
0.052277104452977778137334752273091 10:0.0087885056 12:0.046959184 13:0.041011918 17:0.10914221 22:0.014196008 25:0.010050336 34:0.1477605 35:0.32274604 44:0.27434078 49:0.22608185 73:0.056864381 88:0.52739811 90:0.14439721 92:0.046582393 93:0.041735113 106:0.28879565 141:0.34408602 163:0.76842344 190:0.72510552 197:1.0113885 242:0.16956465 264:0.40868893 265:0.26245552 297:0.38867825 527:0.74893308 704:0.93504322 728:0.61262631 1403:0.86643398 1726:0.67390692 1791:0.88727939 2296:1.1218468 2330:1.3245794 2678:0.96284962 4312:1.2687935 #
-0.02749677511405447874470731051133 3:0.070520006 5:0.11416344 8:0.21312311 10:0.0051266286 11:0.10673603 12:0.078265309 13:0.068353198 15:0.15809333 17:0.14552295 18:0.045573723 22:0.011041339 24:0.087400362 25:0.010050336 29:0.17018117 43:0.13494684 46:0.13360061 49:0.075360619 50:0.14705257 51:0.15603562 59:0.25047135 68:0.21868072 71:0.087485179 79:0.3948918 92:0.015527464 98:0.051030923 107:0.10533973 112:0.064484589 115:0.2957598 117:0.33712953 119:0.221605 147:0.16922095 153:0.35165012 167:0.056112047 170:0.16091846 179:0.066542305 192:0.13464229 198:0.1846519 204:0.19277719 212:0.10682786 214:0.4077377 220:0.47241068 233:0.10424081 238:0.077934898 241:0.088684238 242:0.056521546 258:0.18114603 265:0.087485179 271:0.35722637 278:0.15908532 279:0.12523568 285:0.3433052 289:0.2158556 290:0.13622965 291:0.11265775 312:0.22463565 336:0.23982911 359:0.17082356 375:0.14406539 377:0.57108587 378:0.557051 379:0.38376418 380:0.33712953 381:0.10533973 382:0.14175043 383:0.24964435 384:0.21312311 385:0.557051 386:0.30284622 387:0.31618667 388:0.49928871 389:0.3948918 390:0.32094985 391:0.47241068 392:0.35722637 393:0.46549997 394:0.4077377 395:0.38376418 396:0.46549997 397:0.20542534 398:0.22463565 399:0.49928871 400:0.32094985 401:0.557051 402:0.32094985 403:0.17933436 404:0.46549997 405:0.2957598 406:0.33138013 407:0.52154392 408:0.31168106 409:0.38376418 410:0.28554294 411:0.44152644 412:0.35722637 413:0.28881133 414:0.30740663 415:0.557051 416:0.3651689 417:0.49928871 418:0.38376418 419:0.49928871 420:0.29946411 421:0.3433052 422:0.221605 423:0.15809333 424:0.12761001 425:0.276443 426:0.27936727 #
0.13144669654491200616597268435726 1:0.043949846 2:0.071366191 3:0.026445003 5:0.042811289 8:0.15984233 10:0.0043942528 11:0.10673603 12:0.046959184 13:0.035885427 15:0.11857 17:0.054571107 18:0.034180291 19:0.14878416 21:0.13059324 22:0.014196008 24:0.11653382 25:0.0056533138 26:0.16847673 31:0.17849815 32:0.17849815 34:0.11082037 36:0.1837095 43:0.050605062 44:0.068585195 49:0.028260231 57:0.16085862 58:0.18127638 73:0.042648286 88:0.087899692 90:0.10829791 92:0.034936797 93:0.010433778 94:0.086331673 98:0.019136596 99:0.10893558 102:0.24915798 108:0.18723327 112:0.048363443 121:0.27590936 135:0.27387667 138:0.13795468 141:0.086021505 148:0.12457899 149:0.20185593 151:0.10504159 152:0.20117974 167:0.084168069 179:0.049906731 190:0.18127638 195:0.25284714 196:0.26334998 198:0.18003559 204:0.14458288 205:0.16085862 206:0.051466841 207:0.39478141 210:0.14340968 212:0.080120899 221:0.17454946 238:0.058451172 241:0.13302636 247:0.16294214 261:0.21660849 264:0.10217223 265:0.19684164 268:0.16898662 284:0.089521147 291:0.084493309 300:0.23055497 306:0.28782314 329:0.099466719 330:0.25747889 331:0.094989106 335:0.1293432 339:0.29616883 375:0.21609809 377:0.21415719 429:0.066287138 443:0.19043911 466:0.067196243 470:0.22459808 503:0.34912497 506:0.26634187 516:0.11404996 521:0.21179843 573:0.17083549 585:0.10938361 588:0.177154 611:0.091854751 656:0.46498483 676:0.20952545 689:0.22428283 749:0.43321699 799:0.13585952 803:0.18127638 810:0.26791978 826:0.25284714 827:0.11552061 837:0.1130884 856:0.14236829 885:0.18271323 889:0.17849815 1096:0.19739071 1123:0.16509753 1187:0.28782314 1283:0.30580327 1411:0.33695346 1433:0.18568999 1459:0.19739071 1475:0.31719837 1512:0.23055497 1584:0.33114484 1603:0.30580327 1725:0.16964498 1855:0.22750558 2073:0.2407124 2222:0.27387667 2377:0.23055497 2388:0.18127638 2802:0.28782314 2839:0.2804617 2856:0.28782314 3452:0.30580327 3578:0.30580327 3958:0.34912497 4424:0.34912497 4496:0.33114484 4530:0.41778824 4531:0.41778824 4532:0.41778824 4533:0.41778824 4534:0.37446654 #
0.15456448276372533601197289954143 1:0.35159877 3:0.042312004 7:0.20694911 10:0.0043942528 11:0.042694412 12:0.018783674 13:0.016404767 17:0.043656886 18:0.054688469 19:0.23805466 22:0.013249607 24:0.046613526 25:0.010050336 29:0.068072468 34:0.059104197 41:0.38109764 43:0.16193619 44:0.32920891 46:0.16032073 73:0.022745753 92:0.055898875 93:0.050082136 98:0.09185566 107:0.12640767 109:0.3388775 110:0.46051702 112:0.15476301 132:0.13862944 148:0.19932638 149:0.053828247 161:0.35935694 167:0.20200336 170:0.19310215 182:0.42614695 198:0.022158228 202:0.28335071 204:0.077110872 206:0.041173473 216:0.28559703 217:0.25414771 238:0.093521871 249:0.1856298 260:0.46051702 262:0.91115701 278:0.095451191 279:0.15028282 295:0.20794415 297:0.1554713 302:0.16411866 329:0.23872013 423:0.189712 429:0.21211885 453:0.20402208 600:0.45315424 611:0.14696759 616:0.41196623 648:0.40613028 670:0.33173159 672:0.38513985 684:0.34859386 946:0.20894919 962:0.25737378 1096:0.31582513 1160:0.29004222 1173:0.35491174 1291:0.35935694 1301:0.35065579 1500:1.138272 1669:0.28134108 1680:0.41997051 1935:0.42867166 1936:0.37942401 1941:0.3912023 2334:0.48928523 2565:0.3912023 3499:0.52983171 4432:0.52983171 4433:0.59914643 4434:0.66846114 4435:0.55859995 4436:0.55859995 4437:0.66846114 4438:0.59914643 #
-0.13905725134344998350499622574716 1:0.562558 2:0.11418591 3:0.16924801 5:0.13699612 10:0.0052731037 11:0.085388824 12:0.18783674 13:0.032809533 17:0.17462754 22:0.01892801 24:0.023306763 25:0.0060302014 29:0.13614494 31:0.57119405 32:0.57119405 34:0.11820839 35:0.25819683 73:0.045491505 94:0.55252272 98:0.061237108 112:0.15476301 121:0.88290995 123:0.52483374 141:0.27526879 167:0.13466892 173:0.2366707 183:0.20157158 192:0.32314152 196:0.21067999 199:0.203637 200:0.27329835 222:0.36966595 230:0.23263016 233:0.25017795 238:0.18704374 265:0.20996442 273:0.64377517 278:0.19090238 293:0.34020102 329:0.47744027 375:0.34575695 381:0.25281534 429:0.21211885 469:0.41992885 489:0.65668285 494:0.44374073 585:0.35002756 599:0.40804416 654:0.52831209 720:0.79531229 947:0.5354557 996:0.70131159 1032:0.7824046 1038:0.69314718 1122:0.8764053 1123:0.52831209 1341:0.92103404 1449:0.83994102 1486:0.6258527 1755:1.0150348 1835:0.72801787 2008:0.83994102 2446:0.8764053 2629:1.1982929 2653:0.69314718 2722:1.1171999 2723:1.0596634 2724:0.74803454 #
-0.082260889971588230240584493913047 2:0.11418591 10:0.0087885056 11:0.17077765 12:0.11270204 13:0.016404767 17:0.087313771 22:0.015142408 24:0.093227051 25:0.0040201345 29:0.13614494 34:0.11820839 49:0.18086548 50:0.70585233 59:0.30056563 73:0.090983011 92:0.074531831 93:0.033388089 96:0.21798007 142:0.53912556 173:0.2366707 193:0.4872233 196:0.21067999 198:0.17726582 199:0.203637 200:0.27329835 233:0.25017795 238:0.18704374 250:0.50204492 273:0.64377517 284:0.28646767 293:0.34020102 329:0.31829351 381:0.25281534 398:0.53912556 429:0.21211885 444:0.58938843 473:0.44605288 479:0.4872233 506:0.42614695 567:0.68530303 585:0.35002756 588:0.5668928 599:0.40804416 661:0.37776423 860:0.31940308 901:0.38448757 1084:0.97857046 1175:0.89747745 1486:0.6258527 2032:0.94774032 2214:0.94774032 2653:0.69314718 2664:1.1171999 2665:0.89747745 2777:1.3369223 2778:1.0596634 2779:1.3369223 #
-0.015357111988695541782146136711162 2:0.14273238 3:0.10578001 5:0.25686774 10:0.0043942528 11:0.10673603 13:0.020505959 19:0.59513664 22:0.01892801 24:0.058266908 25:0.0075377519 49:0.11304092 57:0.64343446 58:0.72510552 59:0.37570703 61:0.52237296 71:0.26245552 84:0.47428 88:0.17579938 90:0.14439721 92:0.046582393 96:0.27247509 106:0.5775913 112:0.38690755 121:1.1036375 173:0.29583839 198:0.055395566 242:0.16956465 265:0.52491105 297:0.38867825 329:0.19893344 337:0.47220528 382:0.42525128 426:0.8381018 605:0.66931963 661:0.47220528 685:0.88727939 689:0.44856566 712:0.69314718 901:0.48060945 946:0.52237296 1031:0.74275994 1189:0.84719372 1633:1.3964999 1835:0.91002232 3143:0.8126561 3203:1.2687935 3273:1.4978662 #
-0.0646036467253360141560492024837 1:0.17579938 10:0.0087885056 12:0.093918368 13:0.020505959 17:0.10914221 18:0.13672116 22:0.014196008 24:0.058266908 25:0.0075377519 73:0.085296571 88:0.17579938 90:0.14439721 92:0.093164787 93:0.041735113 96:0.27247509 98:0.076546386 167:0.5050084 173:0.29583839 179:0.19962692 192:0.80785376 198:0.055395566 206:0.10293368 222:0.46208245 242:0.3391293 247:0.65176857 273:0.80471897 297:0.38867825 391:0.70861602 400:0.96284962 424:0.38283002 429:0.26514855 453:0.51005518 473:1.1151322 573:0.68334198 585:0.43753445 599:1.0201104 799:0.54343808 837:0.4523536 946:0.52237296 974:1.1512926 1571:1.0299156 2093:1.2232131 2377:0.92221987 2887:0.99414039 3417:1.1512926 3418:1.2687935 #
-0.041402719722484562780984163055109 3:0.10578001 10:0.0087885056 12:0.093918368 13:0.020505959 17:0.10914221 22:0.0047320025 24:0.087400362 25:0.0050251679 29:0.34036234 44:0.27434078 46:0.40080184 50:0.4411577 88:0.17579938 90:0.28879443 93:0.041735113 98:0.15309277 141:0.68817204 198:0.11079113 206:0.10293368 228:0.49603283 278:0.23862799 363:0.47848177 423:0.94856 430:1.1512926 466:0.26878497 499:1.1512926 538:0.65176857 561:1.32963 684:0.87148464 1006:0.66931963 1087:1.0499263 1166:1.1512926 1191:0.93504322 1715:0.8381018 1716:1.0716791 #
0.12195509152495459526122090210265 2:0.087835312 3:0.032547697 10:0.0087885056 11:0.032841858 13:0.012619051 18:0.042068053 22:0.0072800037 24:0.01792828 25:0.0046386165 29:0.10472687 34:0.090929531 43:0.062283155 44:0.084412545 49:0.1391273 57:0.19797984 58:0.22310939 73:0.043741833 92:0.028666088 93:0.038524721 98:0.023552734 107:0.097236671 112:0.059524238 121:0.16979037 132:0.10663803 141:0.31761786 148:0.15332799 149:0.12421903 151:0.12928195 166:0.2180357 169:0.31991407 170:0.14854012 188:0.23207107 189:0.15919164 192:0.12428519 196:0.081030764 198:0.08522395 199:0.078321926 204:0.059316054 205:0.19797984 206:0.0316719 212:0.098610334 222:0.14217922 224:0.13687207 238:0.21581972 256:0.13744399 265:0.32302219 266:0.19309419 283:0.13137522 284:0.22035974 330:0.31689709 350:0.22310939 359:0.15768328 364:0.17894627 374:0.23438658 375:0.13298343 381:0.097236671 398:0.20735598 408:0.2877056 421:0.31689709 424:0.11779386 435:0.14787982 466:0.24810922 516:0.14036918 550:0.24071258 577:0.2764284 578:0.15995704 689:0.1380202 721:0.18106757 827:0.14217922 837:0.13918573 910:0.2385456 915:0.2877056 947:0.20594451 986:0.28375995 992:0.30588934 1028:0.30588934 1052:0.37637326 1093:0.75771099 1372:0.2918646 1395:0.2962614 1461:0.32305422 1490:0.2918646 1536:0.21641621 1605:0.32974741 1928:0.24294239 1950:0.390398 1978:0.2764284 2040:0.31119651 2042:0.24523878 2043:0.24760583 2107:0.30092484 2272:0.46088189 2868:0.2877056 2887:0.30588934 2977:0.37637326 3418:0.390398 4053:0.75274652 4095:0.37637326 4341:0.36451551 4669:0.51420093 4670:0.51420093 4671:0.51420093 4672:0.51420093 4673:0.51420093 4674:0.51420093 4675:0.51420093 4676:0.51420093 #
0.047227211133477650650824841704889 1:0.281279 5:0.06849806 10:0.0087885056 11:0.085388824 12:0.11270204 13:0.032809533 17:0.087313771 22:0.0075712041 25:0.0040201345 49:0.090432741 73:0.022745753 92:0.037265915 93:0.033388089 94:0.27626136 147:0.40613028 150:0.44145498 169:0.41588831 196:0.21067999 200:0.27329835 224:0.35586739 241:0.21284217 252:0.50204492 265:0.20996442 267:0.32567319 347:0.74803454 356:0.51474756 424:0.30626401 429:0.4242377 475:0.48438638 508:0.51474756 573:0.5466736 635:0.60421002 656:0.49598381 702:0.57558984 768:0.57558984 867:0.92103404 1114:0.8764053 1301:0.70131159 1487:1.6182218 1502:0.59914643 1726:0.53912556 1798:0.97857046 4095:0.97857046 4808:1.1171999 4834:1.3369223 4835:1.3369223 4836:1.3369223 4837:1.3369223 #
0.13975459796498465592229365483945 1:0.21636847 3:0.032547697 5:0.026345408 10:0.0074364282 11:0.032841858 12:0.02889796 13:0.012619051 14:0.23044094 17:0.10074666 18:0.16827221 20:0.28000686 21:0.16073014 22:0.0043680021 24:0.0448207 25:0.010050336 29:0.10472687 34:0.045464765 43:0.18684946 49:0.034781825 59:0.11560217 72:0.17066951 73:0.061238565 88:0.10818423 89:0.13574083 92:0.014333044 93:0.025683146 96:0.083838485 98:0.094210938 99:0.40222368 107:0.097236671 111:0.18106757 136:0.28375995 140:0.16309719 149:0.041406345 152:0.24760583 167:0.051795736 179:0.12284734 189:0.15919164 193:0.18739358 198:0.06817916 200:0.10511475 204:0.059316054 206:0.063343801 210:0.088252112 212:0.098610334 224:0.13687207 242:0.10434747 279:0.11560217 291:0.10399176 311:0.26973522 329:0.12242058 331:0.11690968 351:0.19672902 364:0.089473136 382:0.13084655 383:0.23044094 403:0.1655394 407:0.24071258 429:0.16316834 435:0.14787982 466:0.082703069 468:0.1715588 479:0.18739358 484:0.20054418 532:0.24294239 578:0.15995704 583:0.19309419 588:0.2180357 589:0.20455846 627:0.17712194 642:0.2962614 644:0.21483012 708:0.23643799 728:0.1885004 751:0.33707896 799:0.16721171 827:0.14217922 856:0.1752225 986:0.28375995 1080:0.25517815 1099:0.26659507 1111:0.26659507 1181:0.26067498 1234:0.23044094 1284:0.28000686 1289:0.2962614 1337:0.390398 1380:0.25517815 1413:0.37637326 1495:0.24071258 1502:0.23044094 1558:0.32305422 1667:0.42969227 2042:0.24523878 2043:0.49521166 2052:0.31119651 2123:0.37637326 2377:0.28375995 2414:0.40756288 2623:0.42969227 2628:0.390398 3571:0.46088189 3737:0.46088189 3871:0.40756288 4637:0.51420093 4638:0.51420093 4639:0.51420093 4640:0.51420093 4641:0.51420093 4642:0.51420093 4643:0.51420093 4644:0.51420093 #
0.14406936135422099276581775484374 1:0.562558 2:0.22837181 5:0.06849806 10:0.0087885056 11:0.085388824 12:0.037567347 13:0.016404767 22:0.015142408 25:0.0020100672 34:0.23641679 46:0.32064146 73:0.022745753 88:0.1406395 89:0.35292616 138:0.44145498 139:0.67048144 147:0.40613028 148:0.39865276 167:0.13466892 173:0.2366707 192:0.32314152 200:0.54659671 206:0.082346946 267:0.65134639 268:0.54075718 278:0.19090238 279:0.90169692 291:0.27037859 391:0.5668928 435:0.38448757 506:0.42614695 578:0.41588831 585:0.35002756 996:0.70131159 1160:0.58008444 2214:0.94774032 3508:1.1171999 4869:1.1171999 4870:1.3369223 #
0.069882919580389224467609210478258 3:0.14104001 10:0.0058590039 12:0.062612243 13:0.027341278 22:0.012618673 24:0.038844604 25:0.010050336 44:0.36578768 49:0.15072124 68:0.8747229 88:0.23439917 89:0.58821028 92:0.062109858 93:0.055646818 98:0.10206185 177:0.7717213 188:0.50282067 198:0.073860757 206:0.13724491 230:0.38771695 238:0.31173959 242:0.22608618 268:0.45063099 283:1.1385853 284:0.47744611 444:0.98231405 740:1.0336976 823:0.89854258 1941:1.3040076 2242:1.0627013 4507:1.9971548 #
-0.032604990350291677969618575616551 1:0.46879834 2:0.19030985 5:0.11416344 10:0.0029295019 11:0.14231472 13:0.082023837 15:0.63237333 22:0.01892801 25:0.0067002238 49:0.15072124 71:0.34994072 73:0.075819179 88:0.23439917 90:0.38505924 92:0.12421972 93:0.055646818 98:0.20412369 99:1.1619796 112:0.25793836 167:0.22444819 179:0.26616922 198:0.073860757 200:0.45549724 202:0.47225118 230:0.38771695 233:0.41696325 238:0.31173959 265:0.34994072 268:0.45063099 279:0.50094271 302:0.54706222 424:0.51044005 445:0.91759539 473:0.74342149 494:0.73956788 521:1.1295916 591:0.89242619 654:0.88052016 712:0.92419624 740:1.0336976 801:1.2296265 837:0.60313815 860:0.53233844 1139:1.1421717 1153:0.9309305 1237:1.6917247 1285:1.7661058 1459:1.0527503 1670:1.6917247 2463:2.228204 2464:2.228204 2465:2.228204 2466:1.9971548 2467:1.6917247 2468:1.4957957 #
-0.17809631508859180559767310114694 2:0.057092953 3:0.12693602 10:0.0061519542 11:0.042694412 12:0.15026939 13:0.032809533 15:0.189712 17:0.087313771 18:0.10937694 22:0.009464005 24:0.034960143 25:0.0070352349 34:0.23641679 36:0.29393518 43:0.16193619 44:0.21947262 59:0.15028282 71:0.10498221 73:0.022745753 88:0.21095926 90:0.057758883 92:0.037265915 93:0.10016427 96:0.21798007 98:0.09185566 107:0.12640767 112:0.077381507 115:0.35491174 126:0.25737378 127:0.22302644 149:0.053828247 167:0.067334458 173:0.11833535 176:0.37942401 179:0.079850771 188:0.3016924 196:0.10534 198:0.22158226 200:0.27329835 206:0.082346946 212:0.12819344 221:0.27927914 231:0.30470255 242:0.067825854 249:0.1856298 265:0.20996442 268:0.13518929 290:0.16347557 293:0.17010051 302:0.32823732 331:0.45594773 335:0.41389823 359:0.20498827 386:0.18170772 423:0.189712 435:0.38448757 449:0.26956278 460:0.19750816 468:0.22302644 479:0.24361165 498:0.30736938 508:0.25737378 532:0.31582513 547:0.37401727 578:0.41588831 604:0.32834142 629:0.33524072 676:1.0057222 704:0.37401727 860:0.15970154 864:0.37401727 901:0.19224378 962:0.25737378 1045:0.36888793 1085:0.35065579 1160:0.29004222 1189:0.3388775 1307:0.34657359 1348:0.32506245 1477:0.30470255 1480:0.20694911 1495:0.31292635 1573:0.40455544 1646:0.32506245 1656:0.30210501 1855:0.72801787 1926:0.66346318 1928:0.31582513 1932:0.66846114 1933:0.66846114 1934:0.66846114 1935:0.42867166 1936:0.37942401 1937:0.66846114 1938:0.66846114 1939:0.66846114 1940:0.41997051 1941:0.3912023 1942:0.40455544 1943:0.5075174 #
-0.15279500730957820686661818854191 1:0.35159877 2:0.095154926 3:0.14104001 10:0.0065913796 12:0.015653061 13:0.013670639 17:0.036380738 22:0.0063093365 25:0.010050336 36:0.12247299 39:0.23104906 43:0.067473419 73:0.047386985 92:0.031054929 93:0.027823409 112:0.064484589 138:0.36787915 139:0.27936727 148:0.16610532 149:0.044856872 167:0.16833614 204:0.06425906 206:0.068622455 210:0.095606454 228:0.16534428 246:0.4077377 268:0.11265775 289:0.2158556 290:0.13622965 291:0.11265775 331:0.12665215 351:0.21312311 386:0.15142311 429:0.26514855 435:0.16020314 446:0.32600191 494:0.18489197 506:0.35512248 578:0.1732868 587:0.23445089 648:0.16922095 656:0.20665993 666:0.2823979 716:0.39231306 827:0.15402749 831:0.33138013 860:0.13308461 946:0.17412433 947:0.22310655 1422:0.33138013 1468:0.4077377 1477:0.2539188 1500:0.31618667 1606:0.4077377 1752:0.27088538 1820:0.35722637 2038:0.42293116 2414:0.44152644 2502:0.55288601 2545:0.49928871 2546:0.49928871 2547:0.49928871 2548:0.557051 2549:0.557051 #
-0.21777763053130938519785786411376 1:0.23439917 10:0.0029295019 11:0.071157359 12:0.031306121 13:0.013670639 17:0.072761476 22:0.009464005 25:0.010050336 29:0.11345411 90:0.096264809 92:0.062109858 93:0.027823409 138:0.36787915 139:0.55873454 148:0.33221063 149:0.089713745 150:0.36787915 167:0.22444819 179:0.13308461 196:0.17556666 238:0.1558698 283:0.28464633 329:0.1326223 375:0.28813079 381:0.21067946 384:0.42624623 407:0.52154392 429:0.17676571 441:0.8154754 506:0.35512248 548:0.58442634 657:1.1295916 676:0.55873454 684:0.29049489 721:0.39231306 741:0.62336212 827:0.30805498 1501:0.8154754 1536:0.46890178 1537:0.99857742 1538:1.114102 1539:0.74789786 1540:0.74789786 #
-0.19163540728027905757357984839473 1:0.078133054 5:0.11416344 10:0.0068355049 11:0.047438238 12:0.041741498 13:0.0091137597 18:0.12152993 21:0.23216577 22:0.0084124487 24:0.051792808 25:0.010050336 34:0.13134266 41:0.21172091 43:0.17992911 58:0.32226911 59:0.16698091 69:0.26450518 71:0.2332938 73:0.03790959 92:0.020703286 93:0.018548939 95:0.21265857 96:0.24220008 98:0.034020618 99:0.19366325 107:0.14045297 112:0.085979454 121:0.24525277 140:0.23558484 147:0.22562793 149:0.059809163 163:0.34152153 167:0.14963213 179:0.088723078 183:0.11198422 200:0.15183242 210:0.12747528 216:0.31733003 224:0.19770411 230:0.12923898 237:0.39928547 264:0.18163952 268:0.15021032 278:0.10605688 279:0.33396181 283:0.18976422 291:0.15021032 294:0.48689184 355:0.44950604 386:0.20189747 414:0.40987548 429:0.2356876 455:0.29547334 479:0.27067962 482:0.18379709 506:0.23674831 522:0.31977212 523:0.45774028 584:0.30806541 589:0.29547334 609:0.46663389 648:0.45125586 686:0.43466923 724:0.28597087 759:0.28597087 830:0.32226911 854:0.63954425 915:0.41557476 1043:0.40987548 1161:0.39928547 1262:0.42158222 1353:0.31977212 1493:0.5265224 1494:0.5887019 1495:0.34769598 1496:0.54365027 1497:0.46663389 1498:0.45774028 1499:0.81975096 1500:0.42158222 1501:0.54365027 1502:0.33285913 1503:0.46663389 1504:0.74273461 1505:0.74273461 #
0.040213204124899454283692534772854 10:0.0058590039 11:0.14231472 12:0.062612243 13:0.027341278 17:0.14552295 22:0.012618673 24:0.038844604 25:0.010050336 34:0.39402798 35:0.43032807 36:0.48989198 49:0.15072124 50:0.58821028 73:0.03790959 88:0.23439917 90:0.19252962 92:0.12421972 93:0.11129364 170:0.64367384 173:0.39445117 192:0.53856915 198:0.22158226 199:0.33939502 242:0.22608618 268:0.45063099 284:0.47744611 329:0.79573375 362:0.58821028 398:0.89854258 545:0.78904122 599:0.68007362 611:0.48989198 685:1.1830392 901:0.64081258 2788:3.1591344 2863:1.8619999 5077:1.8619999 #
0.14524281029726296421422659932432 3:0.079335012 4:0.16509753 10:0.0054928162 11:0.053368017 12:0.011739796 13:0.030758938 18:0.068360582 22:0.0059150029 24:0.043700181 25:0.010050336 29:0.21272646 35:0.08068651 41:0.11909302 44:0.068585195 57:0.16085862 73:0.014216095 82:0.15225728 83:0.18568999 88:0.087899692 90:0.036099304 92:0.023291197 93:0.052168891 98:0.095682986 106:0.072198913 113:0.27387667 120:0.1130884 123:0.16401054 132:0.086643398 141:0.086021505 142:0.16847673 149:0.033642653 152:0.20117974 179:0.049906731 186:0.13939153 188:0.094278872 195:0.25284714 198:0.19388449 202:0.088547096 203:0.1732868 204:0.096388593 221:0.17454946 224:0.11120856 230:0.14539385 233:0.15636122 241:0.13302636 268:0.084493309 278:0.17897099 302:0.10257416 312:0.16847673 364:0.072696924 375:0.10804904 382:0.10631282 384:0.15984233 413:0.21660849 423:0.23714 424:0.095707506 455:0.16620375 466:0.067196243 481:0.25284714 482:0.20677173 511:0.21179843 561:0.49861127 591:0.16732991 599:0.1275138 603:0.1938183 616:0.25747889 676:0.20952545 686:0.24450144 768:0.17987183 778:0.22750558 818:0.14963453 837:0.1130884 852:0.18723327 856:0.14236829 873:0.18568999 885:0.18271323 888:0.20117974 889:0.17849815 934:0.15785804 1022:0.25284714 1038:0.43321699 1069:0.33114484 1082:0.33114484 1266:0.19557898 1353:0.17987183 1362:0.22750558 1375:0.85662878 1471:0.25747889 1580:0.27387667 1632:0.20733224 1670:0.31719837 1694:0.2407124 1860:0.17987183 2024:0.29616883 2064:0.21660849 2204:0.25747889 2277:0.2804617 2335:0.29616883 2436:0.34912497 2525:0.5609234 2568:0.33114484 3181:0.24450144 3225:0.34912497 3270:0.33114484 3683:0.30580327 3703:0.34912497 3771:0.27387667 4038:0.37446654 4364:0.37446654 4365:0.37446654 4366:0.41778824 4367:0.41778824 4368:0.41778824 #
0.31932057207336039805767313737306 3:0.10578001 4:0.16509753 5:0.085622579 10:0.0087885056 11:0.053368017 12:0.011739796 13:0.030758938 16:0.14630039 17:0.027285554 21:0.13059324 22:0.0047320025 24:0.050983544 25:0.0062814597 29:0.38290763 49:0.028260231 50:0.11028942 56:0.20733224 64:0.11962044 66:0.55706996 67:0.29616883 69:0.14878416 71:0.19684164 73:0.02843219 88:0.043949846 93:0.062602669 96:0.068118773 98:0.076546386 104:0.21415719 106:0.21659675 132:0.34657359 141:0.086021505 151:0.21008317 162:0.25383142 167:0.042084035 170:0.2413777 173:0.073959596 183:0.12598224 194:0.15225728 196:0.065837495 198:0.083093353 200:0.08540573 202:0.088547096 204:0.14458288 210:0.071704842 230:0.072696924 265:0.39368328 278:0.059656996 279:0.093926758 284:0.089521147 291:0.084493309 295:0.1299651 302:0.10257416 329:0.049733359 337:0.11805132 348:0.37137997 359:0.12811767 362:0.11028942 364:0.072696924 381:0.23701438 382:0.21262564 423:0.59284997 426:0.20952545 427:0.12288205 460:0.1234426 463:0.18723327 501:0.33019507 516:0.11404996 522:0.17987183 561:0.3324075 582:0.18127638 583:0.47066709 599:0.1275138 600:0.1416107 606:0.55467588 607:0.45946974 625:0.27878305 627:0.14391157 684:0.21787116 687:0.11601862 793:0.19557898 800:0.36542645 820:0.25284714 841:0.14630039 907:0.48900288 915:0.2337608 960:0.30580327 976:0.26791978 992:0.2485351 1006:0.16732991 1007:0.21660849 1048:0.23055497 1156:0.31186962 1170:0.64982545 1171:0.26248157 1191:0.2337608 1214:0.48900288 1257:0.2407124 1271:0.21179843 1273:0.2337608 1368:0.2804617 1411:0.16847673 1536:0.17583817 1578:0.1938183 1618:0.28782314 1704:0.23055497 1860:0.17987183 2004:0.26791978 2114:0.26791978 2248:0.23714 2277:0.2804617 2309:0.31719837 2760:0.31719837 2868:0.2337608 2936:0.30580327 3294:0.37446654 3301:0.22750558 3457:0.33114484 5191:0.41778824 5192:0.41778824 5193:0.41778824 5194:0.41778824 #
0.14022697788975982402526199166459 2:0.16312273 3:0.12089144 5:0.048927188 10:0.007533005 11:0.060992021 17:0.062366977 22:0.005408003 25:0.010050336 29:0.29173914 34:0.16886914 36:0.20995371 37:0.36306813 49:0.19378445 73:0.048740901 82:0.34801665 93:0.047697272 106:0.1650261 112:0.11054501 120:0.25848776 149:0.15379499 173:0.1690505 183:0.1439797 191:0.33816051 196:0.30097142 198:0.22158226 204:0.11015839 206:0.058819246 233:0.17869852 238:0.26720536 242:0.096894078 278:0.13635884 290:0.46707305 291:0.19312756 348:0.42443424 356:0.36767682 364:0.1661644 381:0.18058239 410:0.48950216 423:0.27101713 435:0.27463397 485:0.48411068 498:0.4390991 561:0.75978857 606:0.31695765 607:0.35007218 684:0.24899562 687:0.26518542 721:0.33626834 724:0.36767682 797:0.45117873 800:0.41763023 1116:0.54203427 1156:0.35642242 1321:0.55886042 1447:0.3960841 1632:0.47390229 1646:0.46437493 1653:0.4598394 2356:0.6260038 2536:0.79799992 3667:0.75690246 4245:0.95494455 4246:0.85592353 4247:0.85592353 #
0.03756713118626166941771415963558 2:0.14273238 3:0.10578001 5:0.042811289 10:0.0043942528 11:0.053368017 12:0.046959184 13:0.020505959 17:0.16371332 18:0.13672116 22:0.01892801 24:0.043700181 25:0.0075377519 29:0.17018117 31:0.3569963 32:0.3569963 43:0.20242025 49:0.056520462 57:0.32171723 73:0.042648286 92:0.023291197 93:0.10433778 98:0.076546386 107:0.15800959 112:0.096726887 149:0.13457061 166:0.35430801 167:0.084168069 168:0.32802108 170:0.2413777 173:0.14791919 183:0.12598224 198:0.083093353 206:0.15440053 209:0.36836776 210:0.14340968 212:0.3204836 222:0.23104122 238:0.11690234 241:0.13302636 258:0.27171904 262:0.28473657 265:0.26245552 268:0.16898662 284:0.17904229 297:0.38867825 321:0.19733328 362:0.22057885 364:0.14539385 381:0.15800959 403:0.26900154 423:0.23714 466:0.26878497 473:0.55756611 627:0.57564628 689:0.22428283 721:0.58846962 723:0.61160654 859:0.8126561 871:0.57564628 934:0.31571609 998:0.39478141 1039:0.50569427 1075:0.40235949 1188:0.40235949 1367:0.52496314 1416:0.53583956 1443:0.51495779 1480:0.25868639 1536:0.35167634 1669:0.35167634 1835:0.45501116 2024:0.59233767 2093:0.61160654 2256:0.69824994 2351:0.5609234 2653:0.86643398 2735:1.4978662 3121:0.59233767 3948:0.74893308 4286:0.63439673 4873:0.74893308 4926:0.83557647 4927:0.83557647 4928:0.83557647 4929:0.83557647 4930:0.83557647 #
-0.1592165306297550764202952677806 3:0.084624007 5:0.06849806 10:0.0052731037 13:0.0492143 17:0.087313771 22:0.003785602 24:0.046613526 25:0.010050336 29:0.40843481 41:0.38109764 49:0.18086548 71:0.20996442 73:0.022745753 74:0.62021858 92:0.074531831 93:0.033388089 98:0.24494843 132:0.27725887 135:0.8764053 149:0.10765649 167:0.26933783 193:0.4872233 198:0.13294937 204:0.30844349 206:0.082346946 238:0.18704374 248:0.6094051 256:0.35735437 278:0.19090238 293:0.34020102 329:0.15914676 377:1.3706061 381:0.50563067 484:0.52141488 501:0.52831209 545:0.47342473 606:0.44374073 607:0.49010104 749:0.69314718 776:0.6258527 856:0.45557851 901:0.38448757 928:0.72801787 1003:0.52831209 1305:0.70131159 1371:0.77027971 1480:0.41389823 1726:0.53912556 1752:0.65012491 2385:0.97857046 2522:0.97857046 2816:0.677755 2830:0.77027971 2913:0.67048144 2914:0.80911088 #
-0.0039289607359674662279136470033336 2:0.095154926 3:0.14104001 10:0.0029295019 11:0.21347207 12:0.093918368 13:0.068353198 21:0.34824866 22:0.009464005 24:0.019422302 25:0.010050336 29:0.45381644 34:0.098506995 46:0.26720122 49:0.15072124 73:0.056864381 92:0.062109858 93:0.027823409 98:0.051030923 102:0.33221063 107:0.42135891 112:0.25793836 132:0.69314718 161:0.59892821 180:0.61481327 183:0.50392896 188:0.25141034 193:0.40601942 196:0.17556666 198:0.14772151 199:0.16969751 200:0.22774862 204:0.51407248 206:0.068622455 212:0.21365573 221:0.46546525 233:0.20848162 241:0.17736848 249:0.309383 298:0.56479579 302:0.27353111 329:0.2652446 337:0.31480354 382:0.28350085 397:0.82170135 409:0.76752836 444:0.49115703 466:0.89594996 484:0.43451238 508:0.4289563 560:0.34824866 561:0.44321001 600:0.37762851 603:0.5168488 606:0.36978394 622:0.53647929 624:0.36978394 638:0.5168488 712:0.92419624 834:0.66276026 856:0.37964875 937:0.63237333 1088:0.58442634 1189:0.56479579 1209:0.50350833 1275:0.84586233 1367:0.69995087 1487:0.67425907 1574:0.84586233 1597:0.55288601 1936:0.63237333 2309:0.84586233 2498:0.99857742 2499:1.114102 2500:0.7897836 2501:0.99857742 2502:0.55288601 2503:0.93099993 2504:0.88305289 2505:0.99857742 #
-0.095286447827930872978008380869142 5:0.085622579 10:0.0087885056 13:0.041011918 18:0.13672116 22:0.014196008 24:0.029133454 25:0.002512584 34:0.1477605 44:0.27434078 49:0.33912277 71:0.26245552 90:0.14439721 93:0.041735113 94:0.34532669 174:0.8823154 264:0.40868893 265:0.26245552 267:0.40709147 279:0.37570703 293:0.42525128 364:0.2907877 469:0.52491105 482:0.41354346 539:0.57564628 603:0.7752732 606:0.55467588 607:0.61262631 686:0.97800577 687:0.46407449 688:1.3245794 689:0.44856566 690:1.6711529 691:1.0955067 692:1.4978662 693:1.4978662 694:1.1218468 695:1.2232131 696:0.67857993 697:1.6711529 #
-0.10699072377878739159573484585053 1:0.15626611 4:0.29350671 5:0.076108955 10:0.0087885056 11:0.14231472 13:0.018227519 17:0.048507649 18:0.060764965 22:0.0084124487 24:0.064741008 25:0.0078169275 29:0.15127215 46:0.17813416 49:0.050240412 69:0.26450518 73:0.03790959 81:0.34456587 88:0.078133054 90:0.12835307 92:0.020703286 93:0.018548939 96:0.12110004 98:0.10206185 112:0.085979454 120:0.20104605 132:0.30806541 138:0.24525277 142:0.29951417 153:0.23443341 162:0.22562793 167:0.074816063 170:0.21455795 174:0.19607009 190:0.32226911 198:0.024620252 199:0.11313167 201:0.26154205 206:0.091496602 210:0.38242581 224:0.39540821 238:0.1039132 241:0.23649131 265:0.1166469 267:0.18092954 278:0.10605688 279:0.16698091 344:0.36482382 359:0.22776476 374:0.33855841 375:0.19208719 382:0.18900056 386:0.20189747 397:0.27390045 416:0.48689184 423:0.42158222 424:0.17014669 463:0.33285913 466:0.11945999 586:0.71530575 588:0.31494045 600:0.25175235 606:0.24652262 607:0.27227837 687:0.20625533 714:0.33285913 837:0.20104605 947:0.2974754 949:0.48689184 1001:0.37653053 1006:0.5949508 1059:0.5265224 1203:0.49859858 1418:0.40445438 1684:0.43466923 1716:0.47630182 1720:0.44184017 1731:0.36859065 1928:0.3509168 1968:0.62066662 1988:0.56390822 2052:0.44950604 2377:0.81975096 2564:0.74273461 2565:0.86933845 2566:0.74273461 2567:0.74273461 2568:0.5887019 2569:0.74273461 2570:0.62066662 2571:0.66571826 2572:1.4854692 2573:0.48689184 #
-0.23998614515316593620575247314264 1:0.087899692 10:0.0087885056 11:0.053368017 12:0.093918368 13:0.020505959 17:0.10914221 22:0.009464005 24:0.014566727 25:0.010050336 29:0.25527176 34:0.073880248 43:0.10121012 49:0.056520462 59:0.18785352 61:0.26118648 72:0.27733794 73:0.056864381 88:0.17579938 90:0.21659581 92:0.093164787 93:0.083470225 98:0.038273193 102:0.24915798 107:0.31601918 111:0.29423481 120:0.2261768 149:0.067285307 156:0.54775333 159:0.53583956 160:0.61160654 173:0.14791919 198:0.083093353 199:0.12727313 206:0.051466841 241:0.13302636 278:0.23862799 279:0.18785352 290:0.20434447 291:0.16898662 362:0.22057885 482:0.20677173 498:0.38421172 504:0.53583956 545:0.29589045 561:0.66481501 606:0.27733794 607:0.30631316 611:0.1837095 624:0.27733794 625:0.27878305 655:0.34909892 656:0.3099899 687:0.23203725 963:0.45501116 1019:0.5609234 1273:0.46752161 1656:0.37763125 1827:0.61160654 2550:0.69824994 2786:0.69824994 2787:0.61160654 2788:0.59233767 2789:0.31186962 #
0.093523682840411195837937441410759 2:0.081561364 3:0.060445722 5:0.048927188 8:0.36535391 10:0.0087885056 12:0.16100292 13:0.035153072 17:0.12473395 22:0.010816006 24:0.066590749 25:0.010050336 29:0.19449276 43:0.11566871 69:0.34007809 73:0.032493934 93:0.023848636 96:0.15570004 126:0.36767682 127:0.31860921 141:0.19662057 147:0.29009306 148:0.28475198 149:0.15379499 173:0.338101 193:0.34801665 198:0.094963834 210:0.16389678 230:0.1661644 238:0.26720536 273:0.4598394 284:0.20461975 293:0.24300073 329:0.11367625 337:0.2698316 350:0.41434601 363:0.27341816 375:0.24696924 381:0.18058239 442:0.46437493 455:0.37989429 502:0.49510512 539:0.32894072 585:0.2500197 696:0.38775998 830:0.41434601 860:0.22814506 901:0.27463397 909:0.48411068 936:0.6260038 1080:0.47390229 1113:0.55886042 1396:0.61238807 1397:0.72502482 1473:0.55019975 1508:0.45117873 1533:0.45117873 1680:0.59995788 1855:1.0400255 1992:0.59995788 2821:0.75690246 4173:0.6989789 #
0.19463010329197710790438691219606 10:0.0087885056 12:0.15653062 13:0.041011918 14:0.49928871 17:0.21828443 18:0.091147445 22:0.012618673 24:0.038844604 25:0.0067002238 26:0.44927129 31:0.47599506 32:0.47599506 34:0.29552099 35:0.21516404 44:0.18289384 46:0.26720122 88:0.23439917 92:0.031054929 107:0.42135891 179:0.26616922 194:0.40601942 198:0.073860757 212:0.21365573 233:0.20848162 242:0.11304309 279:0.25047135 290:0.2724593 291:0.2253155 331:0.2533043 407:0.52154392 427:0.32768548 702:0.47965822 947:0.4462131 981:0.59151959 1234:0.99857742 1449:0.69995087 1495:0.52154392 1755:0.84586233 2446:0.7303378 2943:0.69995087 3366:0.62336212 4650:0.88305289 #
0.076887595845697973007126790889743 1:0.17579938 10:0.0087885056 12:0.093918368 22:0.01892801 24:0.058266908 25:0.002512584 34:0.1477605 35:0.32274604 71:0.52491105 73:0.02843219 81:0.7752732 92:0.046582393 93:0.041735113 98:0.076546386 107:0.31601918 111:0.58846962 167:0.33667228 173:0.29583839 242:0.3391293 331:0.37995642 482:0.41354346 523:1.0299156 687:0.46407449 903:1.0955067 946:0.52237296 1055:0.85662878 1460:1.1846753 1499:0.92221987 1535:1.3964999 1603:1.2232131 1833:0.91002232 1971:0.82085359 2493:1.0716791 3329:1.0499263 #
0.076591826162412279810354220899171 1:0.35159877 2:0.057092953 3:0.042312004 5:0.03424903 10:0.0087885056 11:0.042694412 12:0.075134695 13:0.057416685 18:0.054688469 21:0.20894919 22:0.009464005 24:0.034960143 25:0.0080402689 29:0.13614494 34:0.059104197 43:0.16193619 49:0.04521637 50:0.17646308 71:0.10498221 73:0.022745753 84:0.189712 88:0.070319749 90:0.11551777 92:0.055898875 93:0.033388089 98:0.030618554 107:0.25281534 112:0.15476301 138:0.22072749 139:0.33524072 147:0.20306514 148:0.19932638 149:0.053828247 167:0.20200336 173:0.11833535 178:0.3912023 179:0.079850771 183:0.10078579 188:0.1508462 198:0.066474684 202:0.28335071 204:0.077110872 205:0.25737378 206:0.041173473 219:0.26415604 222:0.18483298 233:0.25017795 238:0.093521871 239:0.29469422 241:0.10642108 242:0.067825854 249:0.3712596 250:0.25102246 252:0.25102246 265:0.10498221 278:0.095451191 284:0.28646767 290:0.16347557 293:0.17010051 317:0.29957321 329:0.23872013 362:0.17646308 364:0.11631508 375:0.17287847 386:0.18170772 429:0.4242377 445:0.5505572 469:0.20996442 472:0.2479919 496:0.28134108 516:0.18247993 539:0.23025851 547:0.37401727 587:0.28134108 603:0.31010929 625:0.22302644 639:0.34657359 684:0.17429693 702:0.28779492 716:0.23538783 751:0.43820265 759:0.25737378 768:0.28779492 778:0.36400893 796:0.34657359 799:0.21737522 827:0.18483298 856:0.22778925 934:0.25257286 937:0.37942401 948:0.2494957 1003:0.26415604 1099:0.34657359 1477:0.30470255 1597:0.33173159 1610:0.59914643 1752:0.32506245 1833:0.36400893 2139:0.39765614 2355:0.55859995 2506:0.5075174 2829:0.47387016 2993:0.42867166 4064:0.59914643 4933:0.52983171 #
0.022313296336553434251470662275096 2:0.25374648 3:0.047013339 5:0.038054477 10:0.0087885056 12:0.041741498 13:0.027341278 18:0.18229489 22:0.010515561 24:0.077689208 25:0.010050336 36:0.16329733 46:0.17813416 50:0.39214018 73:0.03790959 92:0.041406572 93:0.018548939 98:0.034020618 108:0.33285913 109:0.37653053 110:0.51168555 118:0.80890876 119:0.59094667 141:0.15292712 149:0.29904583 167:0.22444819 180:0.40987548 198:0.12310126 206:0.091496602 222:0.20536998 242:0.15072413 252:0.55782765 267:0.18092954 268:0.30042064 283:0.18976422 289:0.28780746 297:0.17274588 358:0.68913174 364:0.38771695 400:0.42793316 421:0.45774028 424:0.17014669 466:0.23891999 491:0.42793316 611:0.16329733 733:0.22884877 759:0.28597087 768:0.31977212 827:0.20536998 845:0.44184017 854:0.31977212 860:0.17744616 910:0.34456587 977:0.39434639 986:0.40987548 1003:0.58701342 1372:0.42158222 1396:0.47630182 1966:0.49859858 2111:0.56390822 2141:0.39928547 2142:0.54365027 2193:0.45774028 2475:0.62066662 2778:0.5887019 2816:1.1295916 3614:0.5887019 3837:0.62066662 4386:0.62066662 4934:0.74273461 4935:0.74273461 4936:0.66571826 4937:0.74273461 4938:0.74273461 4939:0.74273461 4940:0.74273461 4941:0.66571826 4942:0.66571826 #
-0.032493301592959357437795375744827 3:0.094026677 5:0.038054477 7:0.22994347 10:0.0087885056 12:0.10435374 13:0.036455039 16:0.26008958 17:0.097015299 18:0.30382481 19:0.52901036 21:0.23216577 22:0.012618673 24:0.064741008 25:0.0089336317 26:0.59902835 31:0.63466007 32:0.63466007 34:0.13134266 35:0.28688538 46:0.17813416 49:0.050240412 70:0.28597087 71:0.1166469 73:0.012636529 84:0.21079111 92:0.041406572 93:0.037097879 96:0.12110004 98:0.10206185 106:0.12835363 107:0.14045297 112:0.085979454 123:0.2915743 167:0.074816063 173:0.13148372 174:0.19607009 179:0.17744616 182:0.47349662 192:0.17952307 193:0.27067962 196:0.35113332 198:0.024620252 228:0.22045904 238:0.1039132 241:0.23649131 242:0.075362064 249:0.20625533 262:0.25309917 278:0.10605688 279:0.16698091 283:0.18976422 306:0.51168555 307:0.56390822 310:0.66571826 312:0.29951417 362:0.58821028 375:0.38417438 458:0.34769598 485:0.37653053 573:0.30370757 578:0.23104906 600:0.25175235 608:0.40987548 624:0.24652262 703:0.45774028 718:0.40987548 797:0.3509168 873:0.33011553 911:0.5887019 1045:0.40987548 1076:0.40445438 1077:0.66571826 1098:0.40987548 1113:0.43466923 1267:0.54365027 1268:0.26301372 1269:0.3248235 1270:0.48689184 1271:0.37653053 1272:0.54365027 1273:0.41557476 1274:0.43466923 1275:0.56390822 1276:0.51168555 1277:0.49859858 1278:0.74273461 1279:0.5887019 1280:0.48689184 1281:0.33567223 1282:0.74273461 1283:0.54365027 1284:0.40445438 1285:0.5887019 1286:0.74273461 1287:0.74273461 1288:0.66571826 1289:0.42793316 1290:0.66571826 #
-0.050573039274826633859838409534859 2:0.095154926 5:0.11416344 10:0.0058590039 11:0.14231472 12:0.062612243 13:0.027341278 17:0.072761476 18:0.091147445 22:0.009464005 24:0.038844604 25:0.010050336 29:0.11345411 34:0.098506995 49:0.075360619 57:0.8579126 66:0.99034655 73:0.056864381 88:0.11719958 92:0.031054929 93:0.027823409 112:0.25793836 121:0.36787915 132:0.23104906 151:0.56022179 167:0.11222409 168:0.43736145 169:0.34657359 179:0.13308461 188:0.25141034 192:0.26928458 198:0.036930379 204:0.12851812 208:0.61481327 212:0.21365573 224:0.29655614 230:0.19385847 238:0.31173959 242:0.11304309 265:0.52491105 267:0.27139431 279:0.25047135 291:0.2253155 374:0.50783759 423:0.31618667 462:1.3040076 588:0.47241068 624:0.36978394 714:0.49928871 740:0.5168488 775:0.36413369 818:0.39902538 891:0.88305289 892:0.8154754 1158:0.66276026 1169:0.4289563 1234:0.99857742 1281:0.50350833 1385:0.93099993 1519:0.60668153 1548:1.4289055 1978:0.59892821 2248:0.63237333 2480:0.69995087 2868:0.62336212 2869:0.99857742 2870:0.93099993 2871:1.114102 2872:1.114102 #
-0.32097018187632186947411128130625 2:0.043917656 3:0.065095395 5:0.10538163 10:0.0060843504 11:0.032841858 12:0.11559184 13:0.037857156 17:0.13432887 22:0.010192005 24:0.07171312 25:0.0069579249 34:0.045464765 35:0.099306479 43:0.062283155 49:0.06956365 73:0.052490201 83:0.22854151 90:0.088859819 92:0.042999133 93:0.051366292 94:0.21250874 96:0.083838485 98:0.047105469 99:0.13407457 107:0.097236671 149:0.082812689 151:0.38784587 167:0.051795736 168:0.20185913 174:0.13574083 177:0.17808953 179:0.061423671 182:0.16390269 186:0.1715588 189:0.31838328 198:0.22158226 201:0.18106757 202:0.10898104 204:0.11863211 205:0.19797984 210:0.088252112 230:0.4473657 233:0.28866687 238:0.21581972 241:0.24558713 242:0.052173737 258:0.16721171 264:0.12575044 265:0.16151109 267:0.12525892 268:0.10399176 283:0.13137522 284:0.11017987 321:0.12143587 329:0.30605146 337:0.14529394 356:0.19797984 382:0.13084655 386:0.13977517 398:0.20735598 424:0.11779386 458:0.24071258 472:0.19076301 497:0.25257033 507:0.19076301 516:0.14036918 521:0.52134997 525:0.21327606 535:0.25257033 562:0.28375995 567:0.26357809 583:0.19309419 585:0.13462599 638:0.2385456 654:0.40639392 655:0.21483012 661:0.14529394 730:0.34518364 763:0.19549823 830:0.22310939 834:0.30588934 835:0.34518364 836:0.92176378 837:0.27837145 838:0.85938454 839:0.46088189 840:0.2918646 841:0.36012405 842:0.36451551 843:0.42969227 844:0.26659507 845:0.30588934 846:0.2962614 847:0.34518364 848:0.40756288 849:0.37637326 850:0.46088189 851:0.35424387 852:0.23044094 853:0.42969227 854:0.22138071 855:0.36451551 856:0.1752225 857:0.40756288 858:0.36451551 859:0.25004804 860:0.12284734 #
-0.097033528379714836797909072174662 1:0.16227634 2:0.087835312 3:0.13019079 5:0.026345408 10:0.0074364282 11:0.065683715 12:0.02889796 13:0.018928578 14:0.23044094 22:0.013104007 24:0.03585656 25:0.010050336 29:0.052363437 34:0.090929531 41:0.14657602 43:0.062283155 49:0.10434547 71:0.16151109 72:0.34133902 73:0.069986932 82:0.18739358 88:0.054092117 90:0.044429909 92:0.028666088 93:0.051366292 96:0.083838485 107:0.097236671 112:0.11904848 123:0.40371826 124:0.43938005 149:0.082812689 164:0.20455846 167:0.15538721 179:0.061423671 183:0.07752753 186:0.1715588 188:0.11603554 192:0.24857038 198:0.10226874 199:0.15664385 200:0.10511475 202:0.21796209 204:0.059316054 206:0.063343801 212:0.19722067 220:0.2180357 230:0.089473136 241:0.081862375 242:0.052173737 258:0.16721171 264:0.12575044 267:0.25051785 279:0.11560217 284:0.33053961 290:0.12575044 302:0.12624513 321:0.12143587 331:0.11690968 336:0.44276142 351:0.19672902 362:0.13574083 386:0.13977517 391:0.2180357 413:0.26659507 428:0.26357809 429:0.08158417 453:0.15694006 460:0.15192935 466:0.082703069 475:0.18630245 506:0.16390269 539:0.17712194 558:0.36451551 598:0.2918646 604:0.25257033 608:0.28375995 624:0.17066951 644:0.21483012 696:0.20879383 760:0.37637326 773:0.31119651 799:0.33442342 805:0.32305422 827:0.28435844 837:0.13918573 852:0.23044094 901:0.14787982 910:0.2385456 948:0.19191977 950:0.31689709 986:0.28375995 1038:0.26659507 1055:0.26357809 1221:0.35424387 1234:0.46088189 1247:0.35424387 1268:0.18208644 1269:0.22487782 1508:0.24294239 1609:0.53947043 1786:0.70848775 1793:0.51420093 1794:0.31119651 1795:0.32974741 1796:0.390398 1797:0.40756288 1798:0.37637326 1799:0.42969227 1800:0.51420093 1801:0.51420093 1802:0.37637326 1803:0.46088189 1804:0.40756288 1805:0.36451551 1806:0.36451551 1807:0.51420093 #
-0.10257179666261442840813344901107 3:0.052890006 5:0.17124516 7:0.25868639 10:0.0054928162 12:0.14087756 13:0.030758938 16:0.58520156 17:0.054571107 18:0.13672116 22:0.009464005 25:0.010050336 34:0.073880248 41:0.23818603 51:0.23405342 88:0.17579938 92:0.023291197 93:0.041735113 95:0.47848177 96:0.13623755 98:0.038273193 138:0.27590936 139:0.4190509 172:0.43321699 174:0.22057885 182:0.26634187 183:0.12598224 193:0.30451456 198:0.11079113 202:0.17709419 204:0.096388593 206:0.051466841 212:0.1602418 217:0.31768462 238:0.11690234 252:0.31377804 277:0.32802108 278:0.11931399 356:0.32171723 361:0.3099899 364:0.43618155 386:0.22713466 427:0.24576411 482:0.20677173 489:0.4104268 594:0.46752161 610:0.44919616 759:0.32171723 854:0.35974365 876:0.57564628 948:0.31186962 1096:0.39478141 1234:0.74893308 1726:0.33695346 1760:0.61160654 2816:0.42359686 2919:0.5609234 2990:0.66228968 2991:0.83557647 #
0.21593720955482553769400055898586 2:0.095154926 3:0.14104001 10:0.0029295019 12:0.062612243 13:0.013670639 22:0.0031546683 24:0.077689208 25:0.010050336 44:0.18289384 49:0.075360619 72:0.36978394 73:0.03790959 84:0.31618667 90:0.096264809 92:0.031054929 96:0.18165006 98:0.051030923 106:0.19253044 120:0.30156907 138:0.36787915 149:0.17942749 198:0.036930379 206:0.13724491 265:0.17497036 283:0.28464633 295:0.34657359 297:0.25911883 329:0.1326223 427:0.32768548 545:0.39452061 605:0.4462131 611:0.24494599 642:0.6418997 992:0.66276026 1115:0.59151959 1217:0.62336212 1656:0.50350833 1828:0.69995087 1829:0.6866104 1928:0.52637517 2502:1.105772 2787:0.8154754 #
0.11745008346496596529640044082043 2:0.15570806 3:0.076930918 5:0.031135483 10:0.0087885056 11:0.11643931 12:0.034152135 13:0.02982685 15:0.17246546 17:0.039688077 21:0.1899538 22:0.0051621846 24:0.052969918 25:0.0091366693 34:0.053731088 37:0.23104337 43:0.14721473 46:0.29149225 49:0.24663475 51:0.17022067 56:0.30157417 64:0.17399338 70:0.23397617 71:0.095438376 72:0.20170033 73:0.051694892 83:0.27009451 87:0.25025329 88:0.12785409 90:0.10501615 92:0.084695265 93:0.015176405 94:0.12557335 96:0.099081852 98:0.055670097 106:0.21003321 107:0.11491606 112:0.14069365 141:0.25024438 149:0.1468043 153:0.38361832 162:0.18460467 167:0.061213139 169:0.18904014 170:0.35109481 179:0.07259161 183:0.1832469 186:0.20275131 188:0.13713291 190:0.26367474 194:0.22146514 196:0.095763631 198:0.10071921 204:0.14020158 210:0.10429795 212:0.11653949 221:0.25389013 230:0.52870494 238:0.085019886 241:0.096746445 256:0.16243382 257:0.27009451 264:0.29722831 265:0.28631511 266:0.22820222 275:0.28447852 281:0.37451476 291:0.12289936 293:0.30927366 300:0.33535269 301:0.35012713 305:0.32668811 329:0.14467886 331:0.13816598 359:0.18635298 361:0.22544719 362:0.16042098 364:0.10574098 403:0.19563748 423:0.17246546 424:0.13921092 453:0.18547462 498:0.27942672 648:0.18460467 676:0.3047643 684:0.15845175 698:0.41865185 775:0.59585512 776:0.28447852 806:0.35012713 837:0.16449222 844:0.3150669 885:0.26576468 986:0.33535269 1038:0.3150669 1189:0.30807045 1262:0.34493092 1301:0.31877798 1437:0.30807045 1449:0.38179138 1480:0.18813556 1523:0.38970149 1548:0.77940297 1653:0.29262507 1829:0.37451476 1848:0.54467857 2324:0.48166522 2502:0.90472251 2723:0.48166522 3659:0.48166522 3997:0.54467857 4189:0.48166522 4290:0.48166522 4350:0.5078181 4847:0.607692 4848:0.607692 4849:0.607692 4850:0.607692 4851:0.607692 4852:0.607692 4853:0.607692 #
0.21101936680309618665773996326607 1:0.23439917 5:0.11416344 7:0.34491521 10:0.0087885056 11:0.071157359 12:0.093918368 13:0.027341278 22:0.009464005 24:0.038844604 25:0.0067002238 34:0.19701399 44:0.18289384 49:0.075360619 56:0.55288601 71:0.17497036 92:0.062109858 94:0.2302178 106:0.19253044 120:0.30156907 167:0.11222409 173:0.19722559 174:0.58821028 183:0.16797632 199:0.16969751 200:0.22774862 238:0.1558698 278:0.15908532 364:0.19385847 403:0.35866871 405:0.59151959 435:0.32040629 481:0.67425907 516:0.30413321 525:0.46209812 578:0.34657359 585:0.29168963 683:0.76752836 747:0.63237333 749:0.57762265 1115:0.59151959 1160:0.48340368 1262:0.63237333 1716:0.71445274 2239:0.67425907 2750:0.88305289 4502:0.99857742 #
0.09381033666681294624911657820121 5:0.085622579 10:0.0087885056 11:0.3202081 12:0.14087756 13:0.020505959 17:0.10914221 22:0.01892801 25:0.0050251679 34:0.1477605 49:0.11304092 72:0.55467588 73:0.056864381 84:0.47428 88:0.17579938 90:0.14439721 92:0.046582393 111:0.58846962 147:0.50766283 149:0.13457061 150:0.55181873 190:0.72510552 192:0.40392688 198:0.11079113 199:0.25454625 206:0.10293368 233:0.31272244 242:0.16956465 258:0.54343808 278:0.23862799 279:0.37570703 329:0.19893344 382:0.42525128 466:0.26878497 473:0.55756611 474:1.2687935 506:0.53268373 605:0.66931963 611:0.367419 678:0.7308529 679:0.73673552 860:0.39925385 1656:0.75526249 1830:0.80471897 2789:0.62373924 2914:1.0113885 #
0.20987653725816410310578419284866 1:0.054092117 2:0.043917656 3:0.065095395 5:0.052690815 10:0.0047322726 11:0.16420929 12:0.043346938 13:0.04416668 18:0.084136106 22:0.0072800037 24:0.05378484 25:0.010050336 34:0.18185906 43:0.062283155 46:0.12332364 49:0.24347277 50:0.13574083 69:0.18311897 72:0.17066951 73:0.043741833 88:0.10818423 90:0.13328974 92:0.042999133 96:0.083838485 98:0.11776367 112:0.059524238 120:0.13918573 126:0.19797984 127:0.1715588 149:0.041406345 151:0.12928195 179:0.061423671 189:0.15919164 192:0.12428519 198:0.03408958 204:0.11863211 210:0.088252112 224:0.27374414 230:0.089473136 233:0.096222289 238:0.071939901 258:0.16721171 264:0.25150087 265:0.16151109 267:0.37577674 268:0.10399176 283:0.13137522 289:0.19925132 291:0.20798352 293:0.13084655 322:0.34518364 382:0.13084655 429:0.16316834 446:0.30092484 466:0.16540614 508:0.19797984 510:0.26973522 539:0.17712194 591:0.20594451 599:0.15694006 678:0.22487782 679:0.22668785 744:0.22854151 763:0.19549823 775:0.1680617 786:0.32974741 793:0.24071258 826:0.31119651 841:0.36012405 1001:0.26067498 1074:0.33707896 1085:0.26973522 1153:0.21483012 1189:0.26067498 1761:0.34518364 1860:0.22138071 1936:0.2918646 1962:0.27300903 2221:0.40756288 2388:0.22310939 2516:0.30588934 2517:0.30588934 2535:0.37637326 2616:0.30588934 2621:0.34518364 2878:0.37637326 3011:0.36451551 3429:0.40756288 3956:0.390398 4189:0.40756288 4252:0.40756288 4479:0.46088189 4480:0.51420093 4481:0.51420093 #
0.0044671588373617118067349096577345 3:0.047013339 5:0.11416344 10:0.0087885056 11:0.14231472 12:0.12522449 13:0.063796319 17:0.048507649 18:0.060764965 22:0.0021031122 24:0.090637416 25:0.010050336 29:0.075636074 43:0.089964554 44:0.12192923 49:0.050240412 50:0.19607009 69:0.52901036 73:0.03790959 88:0.31253222 90:0.064176537 92:0.10351643 93:0.074195758 98:0.034020618 149:0.11961833 151:0.18674061 153:0.23443341 164:0.29547334 167:0.074816063 174:0.19607009 183:0.11198422 193:0.27067962 198:0.14772151 199:0.22626334 203:0.30806541 204:0.085678749 205:0.28597087 206:0.045748301 230:0.12923898 249:0.20625533 252:0.27891383 265:0.2332938 268:0.15021032 297:0.17274588 321:0.17540736 329:0.088414863 359:0.22776476 364:0.12923898 375:0.19208719 381:0.14045297 382:0.18900056 397:0.27390045 414:0.40987548 443:0.33855841 470:0.39928547 482:0.18379709 506:0.71024495 538:0.28967491 550:0.69539195 567:0.38072392 585:0.19445975 611:0.16329733 653:0.5265224 728:0.27227837 733:0.22884877 775:0.24275579 800:0.3248235 823:0.29951417 824:0.75306106 854:0.31977212 926:0.56390822 1007:0.38508177 1153:0.31031016 1403:0.38508177 1453:0.47630182 1473:0.42793316 1480:0.22994347 1542:0.62066662 1632:0.36859065 1641:0.44184017 1855:0.40445438 2004:0.47630182 2492:0.62066662 2530:0.5265224 2750:0.5887019 2788:0.5265224 3068:0.66571826 3098:0.66571826 3614:0.5887019 4514:0.74273461 4515:0.74273461 4516:0.5887019 #
-0.13259064906878573197879234157881 3:0.084624007 8:0.51149547 10:0.0070308046 12:0.037567347 18:0.10937694 22:0.0075712041 24:0.11653382 25:0.010050336 34:0.11820839 43:0.16193619 71:0.20996442 73:0.090983011 93:0.033388089 98:0.061237108 149:0.10765649 167:0.26933783 173:0.2366707 191:0.47342473 198:0.13294937 217:0.50829542 242:0.13565171 268:0.27037859 278:0.19090238 283:0.34157559 329:0.15914676 331:0.30396515 405:0.70982349 435:0.38448757 455:0.53185201 473:0.44605288 578:0.41588831 810:0.85734332 933:0.94774032 950:0.82393247 1120:0.94774032 1560:0.79531229 1698:1.0150348 1911:0.63165027 1993:0.89747745 2502:1.3269264 2574:1.3369223 2575:0.92103404 #
-0.028013355573977227058746208854245 1:0.13184953 2:0.071366191 3:0.10578001 5:0.12843387 7:0.1293432 10:0.0087885056 11:0.053368017 12:0.058698982 13:0.071770854 14:0.18723327 15:0.11857 16:0.14630039 17:0.081856661 18:0.034180291 20:0.22750558 21:0.13059324 22:0.010647005 24:0.058266908 25:0.0062814597 29:0.042545293 34:0.073880248 35:0.08068651 36:0.091854751 43:0.050605062 44:0.068585195 46:0.10020046 49:0.056520462 51:0.11702671 59:0.18785352 68:0.16401054 73:0.02843219 84:0.11857 88:0.043949846 90:0.036099304 92:0.011645598 93:0.020867556 94:0.086331673 98:0.057409789 99:0.21787116 106:0.072198913 114:0.28782314 127:0.13939153 142:0.16847673 147:0.12691571 149:0.033642653 162:0.12691571 167:0.042084035 170:0.12068885 173:0.14791919 179:0.099813461 180:0.23055497 183:0.18897337 192:0.10098172 196:0.065837495 198:0.055395566 199:0.063636564 200:0.08540573 201:0.14711741 204:0.048194297 206:0.025733421 212:0.080120899 228:0.12400821 230:0.14539385 238:0.058451172 241:0.066513181 249:0.11601862 261:0.43321699 262:0.28473657 265:0.13122776 267:0.10177287 278:0.059656996 279:0.093926758 284:0.089521147 290:0.10217223 291:0.084493309 302:0.10257416 321:0.098666638 348:0.18568999 381:0.079004794 382:0.10631282 390:0.2407124 403:0.40350229 426:0.20952545 429:0.13257428 435:0.12015236 443:0.19043911 468:0.13939153 479:0.30451456 513:0.23714 525:0.1732868 527:0.18723327 568:0.19739071 586:0.20117974 593:0.34912497 605:0.16732991 628:0.23055497 646:0.20952545 715:0.2052134 751:0.27387667 798:0.50569427 800:0.18271323 873:0.18568999 890:0.37446654 901:0.12015236 1026:0.30580327 1048:0.46110994 1093:0.2052134 1113:0.24450144 1114:0.27387667 1116:0.23714 1155:0.28782314 1268:0.14794523 1277:0.2804617 1301:0.43831974 1303:0.59233767 1399:0.23714 1418:0.22750558 1423:0.51495779 1446:0.28782314 1483:0.24450144 1495:0.19557898 1499:0.23055497 1630:0.31719837 1662:0.24450144 1829:0.25747889 1830:0.20117974 1871:0.33114484 1943:0.31719837 1971:0.2052134 2048:0.31719837 2054:0.19925651 2055:0.22459808 2217:0.41778824 2218:0.41778824 2219:0.37446654 2220:0.33114484 2221:0.33114484 2222:0.27387667 2223:0.33114484 2224:0.34912497 2225:0.31719837 2226:0.41778824 2227:0.37446654 2228:1.0473748 2229:0.37446654 2230:0.31719837 2231:0.37446654 2232:0.83557647 2233:0.41778824 2234:0.5609234 2235:0.41778824 2236:0.41778824 2237:0.41778824 2238:0.41778824 2239:0.25284714 2240:0.29616883 #
-0.069635824501185328294639020896284 3:0.18133716 5:0.048927188 10:0.0062775044 11:0.060992021 12:0.08050146 13:0.070306145 17:0.12473395 18:0.15625276 22:0.010816006 24:0.099886127 25:0.010050336 29:0.19449276 35:0.18442631 36:0.20995371 37:0.36306813 44:0.31353229 63:0.31371078 68:0.37488124 71:0.14997458 73:0.081234835 82:0.34801665 89:0.25209013 90:0.082512692 92:0.02661851 93:0.095394544 98:0.087481581 100:0.67695737 106:0.1650261 108:0.85592353 112:0.22109002 120:0.25848776 138:0.31532499 142:0.38508967 149:0.076897494 151:0.48019013 153:0.3014144 155:0.48411068 168:0.37488124 169:0.29706308 173:0.1690505 198:0.22158226 199:0.29091001 204:0.44063357 212:0.18313348 217:0.36306813 219:0.37736577 227:0.52698278 233:0.17869852 238:0.66801339 241:0.15203013 242:0.096894078 249:0.53037083 264:0.23353653 265:0.14997458 266:0.35860351 278:0.13635884 291:0.19312756 293:0.24300073 295:0.29706308 321:0.22552375 329:0.34102875 351:0.36535391 381:0.36116478 382:0.24300073 386:0.25958246 423:0.54203427 425:0.94780457 445:0.39325514 466:0.15359142 511:0.48411068 527:0.42796177 528:0.52698278 529:0.65788144 532:0.45117873 577:0.51336706 587:0.40191582 599:0.29146013 611:0.20995371 645:0.39325514 687:0.26518542 712:0.3960841 721:0.33626834 800:0.41763023 826:0.57793635 856:0.3254132 888:0.4598394 946:0.29849884 948:0.35642242 1093:0.9381184 1156:0.35642242 1371:0.55019975 1646:0.46437493 1716:0.61238807 1757:0.72502482 2295:0.67695737 2474:0.67695737 3027:0.95494455 3028:0.95494455 3029:0.85592353 3030:0.64105529 3031:0.85592353 3032:0.79799992 #
-0.23160224383939984060809536003944 2:0.047577463 3:0.070520006 10:0.0051266286 11:0.035578679 12:0.031306121 13:0.027341278 17:0.036380738 22:0.0031546683 24:0.029133454 25:0.010050336 34:0.049253497 35:0.10758202 43:0.13494684 46:0.13360061 49:0.037680309 88:0.11719958 92:0.015527464 93:0.055646818 96:0.090825029 98:0.10206185 106:0.096265219 112:0.064484589 126:0.21447815 127:0.18585537 140:0.17668863 149:0.044856872 151:0.14005545 179:0.066542305 183:0.08398816 198:0.018465189 204:0.06425906 206:0.068622455 217:0.21178976 230:0.096929237 242:0.056521546 257:0.24758664 284:0.11936153 302:0.13676555 318:0.34997544 329:0.066311151 336:0.23982911 363:0.31898785 451:0.28881133 491:0.32094985 492:0.30334076 536:0.33712953 573:0.22778067 578:0.1732868 611:0.12247299 622:0.26823965 648:0.33844191 728:0.20420876 805:0.34997544 837:0.30156907 860:0.13308461 998:0.26318759 1139:0.28554294 1202:0.4077377 1228:0.31168106 1446:0.38376418 1691:0.49928871 1828:0.34997544 1829:0.3433052 1962:0.2957598 2042:0.26567534 2043:0.26823965 2055:0.29946411 2066:0.44152644 2067:0.69995087 2079:0.46549997 2080:0.49928871 2081:0.46549997 2082:0.44152644 2083:0.46549997 #
0.064678136613517567266029573147534 1:0.42191851 2:0.11418591 3:0.12693602 5:0.10274709 10:0.0087885056 12:0.018783674 13:0.0492143 17:0.043656886 22:0.009464005 24:0.081573673 25:0.0060302014 29:0.27228987 34:0.059104197 36:0.14696759 43:0.080968097 47:0.41196623 49:0.04521637 50:0.17646308 71:0.10498221 73:0.056864381 88:0.070319749 90:0.11551777 92:0.074531831 93:0.033388089 94:0.13813068 98:0.09185566 99:0.17429693 119:0.53185201 121:0.22072749 142:0.26956278 179:0.15970154 183:0.20157158 188:0.1508462 193:0.24361165 196:0.10534 197:0.40455544 198:0.11079113 199:0.1018185 201:0.23538783 204:0.077110872 206:0.12352042 210:0.11472774 222:0.18483298 230:0.34894523 233:0.25017795 236:0.34265152 238:0.37408748 252:0.25102246 265:0.10498221 266:0.25102246 268:0.13518929 270:0.35491174 278:0.19090238 326:0.5075174 329:0.079573378 359:0.61496484 375:0.17287847 381:0.50563067 382:0.17010051 386:0.18170772 397:0.2465104 414:0.36888793 422:0.265926 427:0.19661129 429:0.5302971 451:0.34657359 457:0.36400893 458:0.31292635 466:0.21502799 469:0.41992885 482:0.16541737 506:0.21307348 539:0.23025851 545:0.23671237 549:0.22901626 556:0.44873872 585:0.17501378 599:0.20402208 648:0.20306514 654:0.26415604 663:0.48928523 681:1.0150348 687:0.1856298 689:0.17942625 696:0.27143198 708:0.30736938 710:0.67048144 733:0.20596389 740:0.31010929 764:0.71871388 778:0.36400893 799:0.21737522 800:0.29234117 801:0.36888793 846:0.38513985 854:0.28779492 856:0.22778925 933:0.47387016 934:0.25257286 944:0.48928523 977:0.35491174 987:0.35491174 998:0.31582513 1003:0.26415604 1150:0.47387016 1170:0.34657359 1235:0.677755 1268:0.23671237 1305:0.35065579 1341:0.46051702 1353:0.57558984 1480:0.62084734 1533:0.31582513 1536:0.28134108 1825:0.29469422 1962:0.35491174 2141:0.35935694 2727:0.38513985 2816:1.0166324 2861:0.52983171 3231:0.97857046 3245:0.52983171 3514:0.52983171 3786:0.55859995 4124:0.5075174 4398:0.5075174 4991:0.66846114 4992:1.0596634 4993:0.66846114 4994:0.66846114 4995:0.66846114 4996:0.66846114 #
-0.092705106035139886455631597073079 3:0.12089144 10:0.007533005 11:0.060992021 12:0.026833819 17:0.062366977 18:0.078126378 24:0.11653382 25:0.0057430491 29:0.097246379 35:0.18442631 44:0.15676615 49:0.064594813 56:0.47390229 63:0.31371078 70:0.36767682 73:0.016246967 88:0.10045679 89:0.25209013 90:0.082512692 93:0.047697272 96:0.15570004 98:0.04374079 112:0.11054501 149:0.076897494 167:0.096192077 170:0.27586022 177:0.33073771 182:0.3043907 183:0.1439797 192:0.23081537 198:0.063309222 206:0.058819246 210:0.16389678 238:0.13360268 242:0.096894078 250:0.35860351 272:0.85592353 275:1.341113 278:0.27271768 423:0.27101713 504:0.61238807 506:0.3043907 516:0.26068562 584:0.3960841 585:0.2500197 684:0.24899562 733:0.29423413 784:0.5343104 823:0.38508967 876:0.65788144 1080:0.47390229 1156:0.35642242 1268:0.33816051 1375:0.97900432 1438:0.95494455 1439:0.95494455 1440:0.79799992 1441:0.95494455 #
0.061782548498199994779778165820971 2:0.10380537 3:0.15386184 5:0.093406446 10:0.0047937306 11:0.038813103 12:0.10245641 13:0.014913425 15:0.17246546 17:0.19844039 18:0.049716789 21:0.1899538 22:0.01892801 24:0.074157886 25:0.0091366693 34:0.053731088 36:0.13360691 39:0.25205353 43:0.14721473 44:0.19952056 49:0.082211584 64:0.69597352 73:0.041355915 88:0.063927047 90:0.10501615 92:0.067756213 93:0.075882025 96:0.099081852 98:0.027835049 138:0.20066136 141:0.12512219 149:0.048934769 168:0.2385608 173:0.10757759 174:0.48126295 179:0.14518322 193:0.22146514 196:0.19152726 198:0.080575369 202:0.12879577 206:0.037430428 210:0.10429795 212:0.11653949 221:0.25389013 233:0.2274345 238:0.34007955 241:0.19349289 242:0.061659869 256:0.16243382 267:0.14803326 268:0.12289936 302:0.14919879 321:0.14351511 329:0.14467886 331:0.27633196 337:0.17171101 362:0.16042098 364:0.10574098 373:0.33535269 375:0.15716225 453:0.18547462 458:0.28447852 468:0.60825396 469:0.19087675 514:0.54928184 520:0.29551134 522:0.52326351 545:0.64557916 550:0.28447852 585:0.15910344 588:0.25767857 598:0.34493092 625:0.20275131 634:0.44480476 642:0.35012713 661:0.17171101 684:0.15845175 685:0.32264704 715:0.29849222 740:0.56383502 763:0.46208674 830:0.26367474 852:0.81701791 854:0.78489524 942:0.39836606 974:0.41865185 1043:0.33535269 1171:0.38179138 1375:0.31150138 1499:0.33535269 1503:0.38179138 1533:0.28711376 1656:0.27464092 1731:0.30157417 1941:0.35563844 2073:0.35012713 2075:0.5078181 2141:0.32668811 2493:0.38970149 2646:0.46137944 2838:0.44480476 3116:0.39836606 3317:0.48166522 3485:0.46137944 3869:0.43079105 4114:0.46137944 4229:0.46137944 4380:0.54467857 4381:0.607692 4382:0.607692 #
0.096517119898455835946826653071184 3:0.21156003 10:0.0070308046 11:0.042694412 12:0.018783674 13:0.02460715 15:0.37942401 17:0.043656886 18:0.054688469 22:0.013249607 24:0.023306763 25:0.010050336 29:0.27228987 43:0.080968097 44:0.10973631 59:0.15028282 61:0.20894919 73:0.03411863 90:0.17327665 92:0.11179775 93:0.016694045 96:0.10899004 98:0.030618554 120:0.18094145 132:0.27725887 141:0.1376344 149:0.053828247 151:0.16806655 159:0.42867166 179:0.15970154 183:0.10078579 187:0.94774032 198:0.15510759 210:0.11472774 230:0.11631508 233:0.12508897 241:0.31926325 268:0.13518929 278:0.28635359 279:0.15028282 284:0.14323384 290:0.16347557 302:0.32823732 329:0.31829351 335:0.20694911 362:0.17646308 386:0.18170772 416:0.43820265 423:0.189712 506:0.21307348 507:0.2479919 508:0.25737378 558:0.47387016 561:0.53185201 600:0.22657712 606:0.22187036 607:0.24505052 625:0.22302644 644:0.27927914 684:0.34859386 721:0.23538783 733:0.41192779 837:0.3618829 852:0.59914643 901:0.19224378 1066:0.59914643 1153:0.27927914 1214:0.3912023 1374:0.36888793 1489:0.47387016 1658:0.52983171 2055:0.35935694 2616:0.39765614 4197:0.55859995 4496:0.52983171 4659:0.66846114 4660:1.3369223 4661:0.66846114 4662:0.66846114 4663:0.66846114 4664:0.66846114 4665:0.66846114 4666:0.66846114 4667:0.66846114 4668:0.66846114 #
0.042268299280543125684417304910312 1:0.23439917 2:0.28546476 3:0.070520006 5:0.11416344 10:0.007323755 12:0.12522449 13:0.054682557 15:0.31618667 17:0.14552295 22:0.012618673 24:0.038844604 25:0.010050336 34:0.29552099 35:0.21516404 49:0.075360619 59:0.25047135 69:0.39675778 73:0.056864381 87:0.45879769 92:0.062109858 93:0.083470225 94:0.2302178 98:0.051030923 99:0.29049489 149:0.089713745 163:0.51228231 167:0.22444819 177:0.38586065 192:0.26928458 196:0.17556666 198:0.036930379 199:0.16969751 203:0.46209812 204:0.38555437 206:0.068622455 217:0.42357951 241:0.17736848 242:0.22608618 294:0.7303378 311:0.58442634 329:0.1326223 362:0.29410514 363:0.31898785 383:0.49928871 400:0.6418997 429:0.5302971 442:0.54177076 458:0.52154392 466:0.17918999 485:0.56479579 489:0.54723573 611:0.24494599 648:0.33844191 657:0.56479579 776:0.52154392 837:0.30156907 844:0.57762265 860:0.26616922 884:0.46890178 934:0.42095476 1153:0.46546525 1234:0.49928871 1316:0.67425907 1353:0.95931643 1365:0.58442634 1375:1.1421717 1467:0.84586233 1502:0.49928871 1720:0.66276026 2415:0.6418997 2592:0.84586233 2789:0.41582617 4243:0.8154754 4425:1.114102 4426:1.114102 4427:1.114102 #
-0.18398175573086539280609486013418 1:0.25570819 2:0.10380537 10:0.0039947755 11:0.077626206 12:0.085380338 13:0.02982685 15:0.17246546 17:0.039688077 22:0.0051621846 24:0.010593983 25:0.010050336 29:0.061884061 34:0.053731088 35:0.1173622 44:0.099760279 49:0.082211584 63:0.19963412 64:0.34798676 73:0.020677958 90:0.052508075 92:0.033878107 93:0.03035281 95:0.17399338 98:0.11134019 109:0.30807045 112:0.14069365 132:0.12602676 141:0.25024438 148:0.18120581 149:0.048934769 150:0.20066136 151:0.15278776 152:0.87787521 163:0.27942672 179:0.14518322 192:0.1468825 198:0.060431529 202:0.12879577 204:0.14020158 206:0.074860856 242:0.061659869 278:0.086773813 279:0.13662075 291:0.12289936 321:0.14351511 331:0.13816598 345:0.26790383 346:0.35563844 364:0.10574098 375:0.3143245 384:0.23249795 429:0.096417658 453:0.55642384 460:0.17955287 465:0.33091721 506:0.19370316 584:0.25205353 588:0.25767857 776:0.28447852 1037:0.32264704 1156:0.22681427 1188:0.29262507 1192:0.46137944 1299:0.3047643 1353:0.26163176 1375:0.62300277 1379:0.46137944 1480:0.18813556 1556:0.31150138 1577:0.5078181 1578:0.28191751 1579:0.44480476 1580:0.39836606 1581:0.39836606 1582:0.54467857 1583:0.5078181 1584:0.48166522 1585:0.40794429 1586:0.607692 1587:0.46137944 1588:0.54467857 1589:0.54467857 #
-0.13574832775205769586079895816511 1:0.70319754 3:0.14104001 4:0.44026008 10:0.0029295019 11:0.071157359 12:0.093918368 13:0.013670639 14:0.49928871 21:0.34824866 22:0.012618673 24:0.019422302 25:0.0067002238 41:0.31758139 92:0.12421972 98:0.051030923 162:0.33844191 167:0.33667228 170:0.32183692 173:0.19722559 179:0.13308461 183:0.16797632 188:0.25141034 189:0.34491521 190:0.48340368 192:0.26928458 198:0.036930379 233:0.20848162 241:0.17736848 242:0.11304309 295:0.34657359 331:0.2533043 398:0.44927129 423:0.31618667 429:0.17676571 457:0.60668153 458:0.52154392 459:0.65200382 460:0.32918024 461:0.66276026 462:0.65200382 463:0.49928871 464:0.99857742 465:0.60668153 466:0.17918999 467:0.7303378 468:0.37171075 469:0.34994072 470:0.59892821 471:0.7897836 472:0.41331986 473:0.37171075 474:0.84586233 #
-0.25377613733162557307920792482037 1:0.12785409 2:0.10380537 5:0.031135483 10:0.0087885056 12:0.068304271 13:0.0074567124 15:0.34493092 18:0.049716789 22:0.013765825 24:0.010593983 25:0.0091366693 34:0.053731088 35:0.1173622 49:0.12331738 51:0.17022067 73:0.031016937 92:0.050817158 93:0.045529217 94:0.12557335 98:0.027835049 149:0.048934769 179:0.14518322 192:0.1468825 196:0.095763631 198:0.060431529 199:0.092562273 200:0.12422652 206:0.074860856 233:0.34115174 241:0.096746445 242:0.061659869 267:0.29606652 329:0.07233943 335:0.18813556 403:0.19563748 424:0.13921092 429:0.096417658 469:0.3817535 501:0.24014185 545:0.21519306 572:0.38970149 600:0.4119584 606:0.20170033 607:0.22277321 627:0.20932592 687:0.16875437 716:0.21398894 852:0.27233928 860:0.14518322 873:0.27009451 917:0.27700233 946:0.1899538 954:0.44480476 1031:0.27009451 1044:0.38970149 1228:0.34001571 1578:0.8457526 1867:0.43079105 1926:0.30157417 1928:0.28711376 2054:0.28982764 2623:0.5078181 2642:0.46137944 3301:0.9927516 3346:0.48166522 3370:0.54467857 3371:0.48166522 3372:0.54467857 3373:0.607692 3374:0.607692 3375:0.607692 3376:0.54467857 3377:0.607692 #
-0.075420286513472559186688215504546 1:0.30137035 2:0.081561364 3:0.24178289 10:0.0062775044 13:0.035153072 17:0.062366977 18:0.078126378 22:0.010816006 24:0.083238438 25:0.0086145736 49:0.4521637 51:0.26748961 57:0.36767682 90:0.16502538 92:0.02661851 93:0.023848636 95:0.27341816 96:0.15570004 98:0.087481581 106:0.1650261 142:0.77017933 178:0.55886042 179:0.11407253 191:0.33816051 192:0.23081537 202:0.20239337 204:0.11015839 206:0.058819246 229:0.42796177 230:0.1661644 236:0.48950216 238:0.26720536 242:0.096894078 265:0.14997458 277:0.37488124 278:0.13635884 297:0.22210185 329:0.11367625 358:0.44301325 364:0.3323288 374:0.43528935 429:0.15151346 435:0.27463397 469:0.29994917 507:0.35427415 567:0.48950216 578:0.29706308 591:0.38246837 707:0.4390991 708:0.4390991 712:0.3960841 716:0.33626834 775:0.31211457 852:0.42796177 981:0.50701678 1125:0.58852321 1235:0.48411068 1419:0.65788144 1512:0.52698278 1515:0.65788144 1632:0.47390229 1653:0.4598394 1731:0.47390229 1870:0.51336706 1871:0.75690246 1928:0.45117873 1966:0.64105529 2062:0.75690246 2335:0.67695737 2397:0.64105529 3181:0.55886042 3239:0.95494455 3240:0.95494455 3241:0.85592353 3242:0.85592353 3243:0.85592353 3244:0.85592353 3245:0.75690246 3246:0.95494455 #
-0.25170086471349983892054069656297 2:0.19030985 5:0.057081718 10:0.0058590039 12:0.062612243 13:0.013670639 18:0.091147445 22:0.0063093365 24:0.038844604 25:0.010050336 29:0.11345411 73:0.018954795 90:0.096264809 92:0.031054929 93:0.027823409 106:0.19253044 141:0.22939067 147:0.33844191 149:0.089713745 179:0.13308461 189:0.34491521 190:0.48340368 198:0.14772151 206:0.068622455 210:0.19121291 212:0.21365573 213:0.99857742 238:0.1558698 242:0.11304309 256:0.29779533 265:0.17497036 268:0.2253155 295:0.34657359 297:0.25911883 348:0.49517328 359:0.34164712 381:0.21067946 422:0.44321001 426:0.55873454 482:0.27569562 568:0.52637517 586:0.53647929 661:0.31480354 666:0.56479579 684:0.58098978 685:0.59151959 794:1.114102 795:0.8154754 796:0.57762265 797:0.52637517 798:0.67425907 799:0.36229205 800:0.48723528 801:0.61481327 #
0.092076962638774073610647974419408 3:0.12089144 5:0.048927188 10:0.0050220033 12:0.10733528 13:0.011717691 14:0.42796177 17:0.062366977 22:0.005408003 24:0.049943063 25:0.010050336 35:0.18442631 44:0.15676615 49:0.064594813 73:0.032493934 87:0.39325514 92:0.02661851 101:0.59995788 149:0.076897494 167:0.096192077 183:0.1439797 198:0.031654611 204:0.11015839 232:0.58852321 242:0.096894078 262:0.65082639 355:0.57793635 466:0.30718285 689:0.25632322 733:0.29423413 811:0.5343104 978:0.65788144 1006:0.38246837 1270:0.6260038 1348:0.46437493 1502:0.42796177 1694:0.55019975 2042:0.91088688 2043:0.91967881 2055:0.51336706 2101:0.64105529 2234:0.64105529 2913:0.4789153 2964:0.6989789 4598:0.75690246 4656:0.95494455 4657:0.95494455 4658:0.79799992 #
0.098966060533025784762273246997211 3:0.084624007 10:0.0070308046 12:0.11270204 21:0.41789839 22:0.0075712041 24:0.046613526 25:0.010050336 34:0.47283357 44:0.21947262 71:0.20996442 73:0.022745753 90:0.11551777 92:0.037265915 95:0.38278541 107:0.25281534 123:0.52483374 124:0.57119405 140:0.42405272 167:0.26933783 192:0.32314152 198:0.088632911 206:0.082346946 210:0.22945549 242:0.13565171 268:0.27037859 364:0.23263016 410:0.68530303 460:0.39501631 860:0.31940308 946:0.41789839 978:0.92103404 1461:0.83994102 1609:0.70131159 #
0.047006388119977829398443702757504 3:0.032547697 4:0.60959089 5:0.052690815 6:0.23044094 7:0.15919164 8:0.19672902 10:0.0047322726 12:0.043346938 13:0.056785733 16:0.18006203 18:0.042068053 22:0.011648006 24:0.05378484 25:0.010050336 28:0.40756288 29:0.052363437 34:0.045464765 35:0.099306479 49:0.10434547 73:0.0262451 74:0.2385456 93:0.038524721 98:0.070658199 124:0.21969002 140:0.16309719 148:0.15332799 149:0.041406345 151:0.12928195 159:0.32974741 164:0.20455846 179:0.12284734 181:0.390398 198:0.11931353 202:0.10898104 206:0.095015705 207:0.24294239 212:0.19722067 230:0.089473136 231:0.23438658 242:0.052173737 258:0.16721171 264:0.37725133 273:0.24760583 278:0.14684799 279:0.11560217 283:0.13137522 287:0.40756288 289:0.19925132 290:0.12575044 292:0.36451551 293:0.13084655 295:0.15995704 298:0.26067498 305:0.2764284 331:0.11690968 333:0.61177868 335:0.15919164 342:0.40756288 343:0.390398 361:0.19076301 362:0.13574083 364:0.53683883 375:0.13298343 427:0.15123945 435:0.14787982 455:0.20455846 466:0.082703069 470:0.2764284 516:0.14036918 538:0.20054418 578:0.15995704 582:0.22310939 594:0.2877056 618:0.31689709 620:0.46088189 627:0.17712194 638:0.2385456 639:0.26659507 654:0.20319696 716:0.18106757 731:0.30588934 766:0.23643799 889:0.21969002 1043:0.28375995 1200:0.35424387 1314:0.32974741 1456:0.36451551 1911:0.24294239 2107:0.30092484 2208:0.46088189 2314:0.42969227 2374:0.33707896 2524:0.35424387 2727:0.2962614 2974:0.390398 3108:0.42969227 3371:0.40756288 3419:0.42969227 4031:0.27300903 4206:0.51420093 4207:0.51420093 4208:0.51420093 4209:0.51420093 4210:0.51420093 4211:0.32974741 4212:0.51420093 4213:0.46088189 4214:0.46088189 4215:0.46088189 4216:0.51420093 #
0.086336751129357458545143799710786 2:0.16312273 5:0.048927188 10:0.0087885056 12:0.1341691 13:0.011717691 17:0.062366977 22:0.005408003 24:0.016647687 25:0.010050336 34:0.084434569 36:0.20995371 43:0.11566871 46:0.22902963 49:0.19378445 50:0.25209013 57:0.36767682 73:0.016246967 89:0.25209013 91:0.56808025 92:0.02661851 93:0.023848636 107:0.18058239 112:0.22109002 117:0.57793635 119:0.37989429 149:0.23069249 179:0.11407253 183:0.1439797 188:0.21549457 194:0.34801665 198:0.094963834 203:0.3960841 264:0.46707305 279:0.42937949 290:0.23353653 291:0.57938266 333:0.56808025 364:0.1661644 386:0.25958246 402:0.55019975 445:0.39325514 567:0.48950216 606:0.31695765 607:0.35007218 648:0.29009306 689:0.25632322 811:0.5343104 841:0.33440089 1048:0.52698278 1188:0.4598394 1367:0.59995788 1418:0.52001274 1799:0.79799992 1835:0.52001274 2557:0.6260038 4176:0.95494455 4177:0.95494455 4178:0.95494455 #
0.089535524124606261087144787325087 5:0.048927188 10:0.0050220033 11:0.060992021 12:0.10733528 13:0.035153072 18:0.078126378 19:0.34007809 22:0.005408003 24:0.049943063 25:0.010050336 26:0.38508967 34:0.084434569 35:0.18442631 49:0.064594813 59:0.21468975 71:0.14997458 73:0.048740901 88:0.10045679 92:0.02661851 93:0.047697272 98:0.04374079 149:0.076897494 151:0.24009506 167:0.096192077 173:0.1690505 183:0.1439797 189:0.2956416 198:0.15827306 204:0.22031678 210:0.16389678 212:0.18313348 222:0.26404712 230:0.3323288 234:0.4789153 238:0.13360268 242:0.096894078 256:0.25525314 264:0.23353653 268:0.19312756 290:0.23353653 329:0.34102875 331:0.21711797 358:0.44301325 383:0.42796177 424:0.21876001 435:0.27463397 514:0.43157858 535:0.4690592 578:0.29706308 655:0.39897022 685:0.50701678 714:0.42796177 823:0.38508967 841:0.33440089 846:0.55019975 873:0.42443424 965:0.72502482 1078:0.50093687 1088:0.50093687 1273:0.5343104 1461:0.59995788 1499:0.52698278 1653:0.4598394 1752:0.46437493 1942:0.57793635 1952:0.85592353 2253:0.6260038 2271:0.6989789 2552:0.67695737 2565:0.55886042 3436:0.79799992 4813:0.95494455 4814:0.95494455 4815:0.95494455 4816:0.95494455 4817:0.95494455 #
-0.13088105086203355442719953316555 2:0.22837181 10:0.0052731037 13:0.032809533 16:0.46816126 18:0.21875387 21:0.41789839 22:0.015142408 23:0.68530303 24:0.11653382 25:0.010050336 36:0.29393518 43:0.16193619 49:0.18086548 71:0.20996442 73:0.11372876 93:0.10016427 98:0.061237108 106:0.23103653 112:0.15476301 123:0.52483374 124:0.57119405 140:0.42405272 148:0.39865276 149:0.10765649 169:0.83177662 173:0.47334141 179:0.15970154 188:0.3016924 198:0.17726582 204:0.15422174 206:0.24704084 230:0.46526033 238:0.18704374 265:0.41992885 266:0.50204492 293:0.34020102 359:0.40997654 364:0.23263016 430:0.92103404 446:0.7824046 450:0.60421002 455:0.53185201 466:0.21502799 583:0.50204492 599:0.40804416 627:0.46051702 684:0.34859386 775:0.4369604 796:0.69314718 841:0.46816126 856:0.91115701 901:0.38448757 915:0.74803454 990:0.80911088 992:0.79531229 996:0.70131159 1153:0.55855829 1169:0.51474756 1273:0.74803454 1605:0.85734332 1606:0.97857046 1607:0.83994102 1608:1.1982929 1609:0.70131159 1610:1.1982929 #
-0.053656308968108634704918813440599 1:0.078133054 2:0.06343662 3:0.047013339 5:0.038054477 10:0.0058590039 12:0.041741498 13:0.018227519 18:0.12152993 22:0.014721786 24:0.077689208 25:0.010050336 49:0.050240412 61:0.23216577 69:0.26450518 71:0.1166469 73:0.012636529 90:0.064176537 92:0.020703286 93:0.018548939 94:0.30695707 96:0.12110004 98:0.10206185 106:0.12835363 120:0.20104605 123:0.2915743 153:0.23443341 174:0.19607009 179:0.088723078 198:0.024620252 199:0.11313167 220:0.31494045 233:0.13898775 237:0.39928547 238:0.20782639 242:0.075362064 279:0.16698091 297:0.17274588 321:0.17540736 364:0.38771695 373:0.81975096 410:0.38072392 455:0.29547334 466:0.35837999 529:0.51168555 662:0.38508177 721:0.26154205 744:0.33011553 747:0.42158222 773:0.44950604 841:0.26008958 845:0.44184017 888:0.35765287 934:0.28063652 1096:0.3509168 1281:0.33567223 1316:0.44950604 1381:0.44950604 1531:0.56390822 1565:0.41557476 1591:0.62066662 1680:0.46663389 1743:0.5265224 1841:0.48689184 1951:0.62066662 2008:0.46663389 2187:0.62066662 2568:0.5887019 2584:0.56390822 2593:0.54365027 2638:1.2413332 2819:0.74273461 2820:0.54365027 2821:0.5887019 2822:0.74273461 2823:0.74273461 2824:0.74273461 2825:0.62066662 2826:0.74273461 2827:0.74273461 2828:0.74273461 #
0.014229157166018139429874977963664 1:0.35159877 2:0.095154926 3:0.070520006 4:0.88052016 5:0.057081718 10:0.0043942528 11:0.071157359 12:0.12522449 13:0.027341278 15:0.31618667 21:0.34824866 22:0.0031546683 25:0.010050336 29:0.56727058 34:0.098506995 35:0.21516404 36:0.24494599 72:0.36978394 73:0.075819179 92:0.031054929 93:0.083470225 96:0.18165006 107:0.21067946 111:0.39231306 132:0.23104906 167:0.11222409 198:0.11079113 202:0.23612559 204:0.12851812 206:0.13724491 210:0.38242581 233:0.41696325 242:0.11304309 270:0.59151959 293:0.28350085 321:0.26311105 329:0.2652446 350:0.48340368 359:0.34164712 381:0.42135891 397:0.41085067 429:0.17676571 466:0.17918999 549:0.38169375 629:0.55873454 654:0.44026008 687:0.309383 763:0.42357951 818:0.39902538 827:0.30805498 830:0.96680737 1075:0.53647929 1080:0.55288601 1156:0.41582617 1461:0.69995087 1620:0.76752836 2073:0.6418997 2186:0.66276026 4173:0.8154754 4181:1.114102 4182:0.99857742 #
-0.23938801288397185129674937797972 1:0.12785409 3:0.038465459 5:0.031135483 10:0.0087885056 11:0.038813103 12:0.017076068 13:0.014913425 17:0.039688077 18:0.049716789 21:0.37990761 22:0.0051621846 24:0.031781949 25:0.010050336 34:0.16119327 35:0.1173622 41:0.17322621 46:0.29149225 49:0.082211584 62:0.5078181 71:0.095438376 72:0.20170033 73:0.031016937 92:0.050817158 93:0.015176405 96:0.099081852 98:0.055670097 106:0.42006642 107:0.11491606 112:0.070346825 120:0.32898444 138:0.20066136 167:0.061213139 168:0.2385608 183:0.091623448 188:0.27426583 196:0.095763631 198:0.060431529 199:0.092562273 204:0.14020158 210:0.10429795 230:0.10574098 238:0.085019886 241:0.096746445 242:0.061659869 265:0.095438376 291:0.12289936 331:0.13816598 337:0.17171101 362:0.16042098 424:0.13921092 429:0.19283532 506:0.19370316 611:0.13360691 624:0.20170033 625:0.20275131 629:0.3047643 635:0.27464092 701:0.28982764 731:0.3615056 740:0.28191751 946:0.1899538 1007:0.3150669 1169:0.23397617 1234:0.27233928 1273:0.34001571 1429:0.44480476 2222:0.39836606 2502:0.30157417 2510:0.54467857 2530:0.43079105 2613:0.46137944 2614:0.607692 2615:0.46137944 2616:0.3615056 2617:0.54467857 2618:0.40794429 2619:0.48166522 2620:0.54467857 2621:0.40794429 2622:0.48166522 2623:0.5078181 2624:0.48166522 #
-0.2554706510961730625552945639356 1:0.20091358 2:0.027187122 3:0.080594294 5:0.016309062 10:0.0066960044 11:0.081322692 12:0.089446068 13:0.027341278 17:0.041577987 18:0.078126378 22:0.009013338 24:0.077689208 25:0.010050336 29:0.032415461 34:0.05628971 35:0.061475437 36:0.06998457 43:0.038556237 44:0.10451077 49:0.064594813 51:0.089163207 72:0.10565256 73:0.043325245 81:0.14767109 83:0.14147808 87:0.13108505 88:0.10045679 90:0.05500846 92:0.044364184 93:0.047697272 94:0.13155302 96:0.10380004 98:0.04374079 99:0.082998537 112:0.073696673 132:0.066014014 141:0.065540195 149:0.051264998 166:0.13497448 167:0.096192077 168:0.12496042 174:0.08403004 179:0.11407253 183:0.1439797 188:0.071831524 190:0.13811533 192:0.07693845 194:0.11600555 196:0.1003238 198:0.031654611 204:0.18359731 212:0.061044492 221:0.13299006 233:0.059566177 238:0.22267114 241:0.050676707 247:0.12414639 264:0.077845514 265:0.049991529 278:0.045452949 331:0.14474531 346:0.18628681 364:0.38771695 373:0.17566092 386:0.086527489 391:0.26994896 407:0.2980251 427:0.18724884 428:0.16316739 429:0.10100897 435:0.091544658 468:0.10620307 469:0.099983059 513:0.1806781 514:0.14385952 516:0.086895205 545:0.22544034 578:0.099021025 583:0.1195345 599:0.097153373 625:0.10620307 645:0.13108505 656:0.11809139 661:0.089943863 666:0.16137023 671:0.26599997 683:0.21929382 684:0.082998537 714:0.14265391 732:0.18628681 778:0.17333758 796:0.16503504 797:0.15039292 864:0.17810346 884:0.13397194 910:0.14767109 934:0.12027279 935:0.43858764 936:0.20866793 937:0.1806781 938:0.28530782 939:0.31831485 940:0.2136851 941:0.20866793 942:0.20866793 943:0.31831485 944:0.23299296 945:0.26599997 946:0.099499613 947:0.12748945 948:0.23761494 949:0.41733587 950:0.1961744 951:0.24167494 952:0.24167494 953:0.25230083 954:0.23299296 955:0.21929382 956:0.31831485 957:0.22565246 958:0.24167494 959:0.19264545 960:0.23299296 961:0.21929382 962:0.12255894 963:0.17333758 964:0.25230083 965:0.24167494 966:0.31831485 967:0.31831485 968:0.28530782 969:0.31831485 970:0.31831485 971:0.31831485 972:0.31831485 973:0.25230083 974:0.21929382 975:0.28530782 976:0.20412935 977:0.1690056 978:0.43858764 979:0.25230083 980:0.31831485 981:0.1690056 982:0.1961744 983:0.28530782 984:0.31831485 985:0.17333758 986:0.17566092 987:0.1690056 988:0.25230083 #
0.11931186500862345223339389121975 1:0.70319754 2:0.11418591 3:0.084624007 10:0.0070308046 12:0.075134695 13:0.0492143 18:0.10937694 22:0.003785602 24:0.023306763 25:0.0080402689 29:0.13614494 73:0.022745753 88:0.1406395 90:0.11551777 92:0.037265915 93:0.066776179 98:0.12247422 141:0.27526879 149:0.10765649 202:0.56670141 204:0.15422174 210:0.22945549 238:0.18704374 242:0.13565171 248:0.6094051 267:0.32567319 268:0.27037859 278:0.19090238 381:0.25281534 522:0.57558984 585:0.35002756 656:0.49598381 801:0.73777586 827:0.36966595 830:0.58008444 925:0.92103404 1156:0.4989914 1485:0.5668928 1515:0.92103404 1527:0.77027971 1536:0.56268215 1571:0.82393247 1794:0.80911088 2231:1.1982929 4383:1.3369223 #
0.099796011974588982873513032245683 2:0.071366191 3:0.052890006 10:0.0087885056 12:0.07043878 13:0.020505959 17:0.10914221 18:0.20508175 19:0.29756832 22:0.0070980038 24:0.014566727 25:0.0087940441 31:0.3569963 32:0.3569963 43:0.10121012 51:0.23405342 73:0.02843219 93:0.020867556 97:0.63439673 98:0.11481958 125:0.41466448 126:0.32171723 141:0.17204301 149:0.13457061 177:0.28939548 198:0.16618671 199:0.12727313 204:0.096388593 206:0.051466841 233:0.31272244 253:0.4436397 258:0.27171904 291:0.16898662 335:0.25868639 337:0.23610264 359:0.25623533 361:0.3099899 363:0.23924088 460:0.2468852 501:0.33019507 550:0.39115795 572:0.53583956 584:0.34657359 611:0.1837095 627:0.28782314 646:0.4190509 648:0.25383142 680:0.43321699 712:0.34657359 793:0.39115795 873:0.37137997 917:0.76175642 928:0.45501116 947:0.33465981 962:0.64343446 1353:0.71948731 1362:0.45501116 1485:0.35430801 1513:0.36542645 1534:0.53583956 1578:0.7752732 1870:0.44919616 2077:0.57564628 2575:0.57564628 3301:0.45501116 4031:0.4436397 4408:0.5609234 4911:0.63439673 5199:0.83557647 5200:0.83557647 #
