SVM-light Version V6.02
0 # kernel type
3 # kernel parameter -d 
1 # kernel parameter -g 
1 # kernel parameter -s 
1 # kernel parameter -r 
empty# kernel parameter -u 
5682 # highest feature index 
512 # number of training documents 
399 # number of support vectors plus 1 
0.0042608115 # threshold b, each following line is a SV (starting with alpha*y)
-0.66439540018249487740575887073646 1:0.014649948 2:0.035683095 3:0.0088150008 5:0.014270429 10:0.0040778108 11:0.0088946698 12:0.019566327 13:0.011961809 15:0.039523333 18:0.011393431 22:0.0023660013 24:0.038844604 25:0.0035594939 29:0.028363528 34:0.073880248 43:0.03373671 44:0.11430866 45:0.10193443 49:0.037680309 69:0.049594723 71:0.021871295 72:0.092445984 73:0.0071080476 82:0.050752427 88:0.029299896 90:0.0027603349 91:0 92:0.0010429709 93:0.061010662 94:0.0071526417 95:0.0015664194 96:0.0040459228 97:0.00070356485 98:0.0013061694 99:0.025578083 100:0.028363528 101:0.00078222819 103:0.03719059 104:0.033062764 105:0.0071080476 106:0.0070791263 107:0.0082053216 110:0.019409331 111:0.013911705 114:0.022706257 116:0.012757731 120:0.041526329 124:0.072198913 125:0.026334932 129:0.049039133 130:0.016121147 141:0.054670181 142:0.059499383 145:0.046463843 150:0.057762265 161:0.056158911 167:0.041526329 168:0.022428436 170:0.035013862 172:0.08541178 183:0.055401251 186:0.014028012 193:0.14705257 199:0.076851659 201:0.088780619 202:0.08398816 207:0.031426292 215:0.021945832 217:0.013848891 219:0.028468577 223:0.03212953 225:0.021945832 226:0.013255887 228:0.0085778069 230:0.15370332 261:0.061394628 263:0.02217106 270:0.063479699 287:0.021871295 292:0.073939949 300:0.017582709 301:0.034191389 310:0.029840382 316:0.034057412 328:0.034191389 355:0.033155575 362:0.059957277 385:0.04270589 423:0.051356334 449:0.039523333 498:0.051664982 501:0.050456915 510:0.10862809 534:0.053619538 565:0.047970522 608:0.06042546 613:0.058612723 713:0.11601862 740:0.062411088 812:0.089306593 823:0.13159379 828:0.10573279 829:0.06042546 830:0.12482218 831:0.087493859 832:0.080237463 833:0.13926275 834:0.10193443 835:0.12482218 836:0.089306593 837:0.077920265 838:0.13926275 839:0.12482218 840:0.13926275 841:0.13926275 842:0.13926275 843:0.082845032 844:0.049878173 845:0.13926275 846:0.084282383 847:0.11637499 848:0.082845032 849:0.056158911 850:0.070599474 851:0.095941044 852:0.084282383 853:0.038506873 854:0.12482218 855:0.10193443 856:0.06042546 857:0.082845032 858:0.11637499 859:0.093487233 #
-0.34876445986363185935985598007392 5:0.013699613 10:0.0042158291 11:0.034155533 13:0.006561907 16:0.093632251 22:0.0030284815 24:0.0093227057 25:0.0040201345 29:0.027228987 43:0.032387242 44:0.043894522 46:0.064128295 49:0.072346196 73:0.0090983016 84:0.075884797 87:0.11011145 90:0.0022713612 91:0 92:0.0012015025 94:0.0096131498 95:0.00080200669 96:0.0021185922 97:0.00070043787 98:0.0010031381 100:0.027228987 101:0.00040050084 103:0.017851485 104:0.079350635 105:0.0090983016 106:0.0067959614 107:0.0078771086 108:0.023103554 109:0.15906246 110:0.02235955 111:0.020032855 112:0.055252273 113:0.076557085 114:0.043596014 115:0.20300695 116:0.036742266 117:0.069718771 118:0.18954806 119:0.1679882 120:0.079730555 121:0.26738447 122:0.13706061 123:0.20300695 124:0.046207305 125:0.050563071 126:0.11982929 127:0.13555099 128:0.18420681 129:0.094155133 130:0.030952603 131:0.17528106 132:0.18420681 133:0.1419647 134:0.21193269 135:0.16182217 136:0.14560357 137:0.1063704 138:0.072376579 139:0.088290997 140:0.21193269 141:0.10496675 142:0.11423881 143:0.13269264 144:0.10294951 145:0.089210577 146:0.20300695 147:0.26738447 148:0.23965858 149:0.21193269 150:0.055451773 151:0.26738447 152:0.14374277 153:0.17528106 154:0.14755517 155:0.18954806 156:0.088290997 157:0.13409629 158:0.049001049 #
-0.76308465435729089243466205516597 1:0.07212282 3:0.054246161 10:0.0034745845 11:0.032841858 12:0.0048163268 13:0.0084127011 16:0.060020674 17:0.011194074 18:0.042068053 22:0.0019413343 24:0.023904372 25:0.0028347101 26:0.069118656 29:0.017454479 43:0.02076105 46:0.082215764 47:0.10563236 49:0.023187883 51:0.048010956 63:0.11261412 66:0.070835926 73:0.0029161221 90:0.0043680021 91:0 92:0.0014120222 94:0.0026409754 95:0.0007711603 96:0.0054322877 97:0.00054521265 98:0.00080379652 99:0.047221076 100:0.017454479 101:0.00064182829 103:0.011443259 104:0.020346316 105:0.0029161221 106:0.0043563857 107:0.010098857 111:0.0042805243 125:0.032412224 137:0.068186156 168:0.013802115 172:0.21024439 177:0.094586655 186:0.017265245 188:0.053319015 189:0.049513374 196:0.059363175 198:0.040949114 202:0.02584251 207:0.038678512 215:0.027010255 217:0.011363193 218:0.026107309 223:0.019772019 224:0.025407169 225:0.027010255 226:0.0081574684 228:0.0105573 232:0.029417371 238:0.073230006 250:0.050875165 255:0.096222289 259:0.092142805 260:0.023979967 264:0.017391246 278:0.045814663 286:0.083833627 300:0.043280516 303:0.083833627 304:0.024474666 310:0.036726624 316:0.041916814 317:0.034663923 328:0.042081706 347:0.080957241 357:0.038969889 358:0.083349347 389:0.049075052 390:0.05964876 401:0.04432781 403:0.17571872 407:0.032412224 492:0.11027076 501:0.062100817 507:0.10373216 534:0.065993279 542:0.046789724 548:0.073793568 561:0.084190108 564:0.066848062 571:0.060695477 575:0.058722116 586:0.053576715 599:0.07008636 613:0.072138734 626:0.058096696 674:0.052067984 687:0.048431311 696:0.17011876 706:0.088865027 750:0.065993279 792:0.078812659 829:0.074369796 1033:0.088865027 1141:0.091003016 1241:0.097288206 1243:0.095901862 1261:0.086891666 1325:0.085959159 1409:0.10991581 1424:0.10563236 1851:0.075562619 1969:0.13013266 1994:0.14323075 2167:0.092142805 2226:0.11506121 2240:0.12150517 2452:0.13013266 2652:0.11808129 2659:0.12150517 2952:0.12545775 3685:0.14323075 4100:0.088865027 4164:0.17140029 4165:0.17140029 4166:0.15362729 4167:0.17140029 #
-0.085848475914827346300306487592024 5:0.028540859 7:0.086228803 10:0.0012547111 12:0.039132655 13:0.0034176598 22:0.0023660013 24:0.097111516 25:0.0016750559 27:0.19188209 43:0.067473419 46:0.066800304 51:0.078017808 66:0.057554193 72:0.092445984 73:0.023693493 90:0.0015773341 91:0 92:0.0013558622 93:0.12202132 94:0.0085831694 95:0.00062656775 96:0.0058849785 97:0.00036481139 98:0.0010449355 99:0.076734252 101:0.00073007966 103:0.018595295 105:0.023693493 106:0.0070791263 107:0.0082053216 110:0.0077637322 111:0.0069558523 116:0.012757731 117:0.072623722 130:0.032242294 181:0.084610477 188:0.1732868 189:0.08045923 205:0.18585537 207:0.12570517 212:0.10150485 215:0.043891665 224:0.041286651 225:0.043891665 226:0.013255887 227:0.10723908 246:0.074139036 252:0.048464619 263:0.088684238 264:0.028260773 271:0.077345751 272:0.10459269 288:0.10459269 300:0.035165418 304:0.079542659 305:0.062617838 309:0.071161583 323:0.064779706 363:0.078700885 395:0.21146558 412:0.075711556 492:0.089594997 520:0.092445984 527:0.11006502 581:0.1716526 612:0.13411982 626:0.094407126 671:0.11469942 713:0.1546915 715:0.074760944 819:0.13038598 844:0.099756345 849:0.22463565 960:0.10523869 988:0.10723908 1033:0.14440566 1049:0.17861319 1081:0.14277147 1293:0.20386885 1297:0.14119895 1298:0.20386885 1299:0.15584053 1365:0.1716526 2221:0.20386885 2397:0.23274998 2445:0.23274998 2520:0.17861319 2564:0.22076322 3352:0.23274998 3353:0.2785255 3354:0.24964435 3355:0.23274998 #
-0.33262588368715823028409772632585 1:0.046111312 3:0.0069363941 5:0.005614595 10:0.0032087693 12:0.024634326 13:0.0067232652 16:0.038373873 17:0.0071568666 18:0.017930645 19:0.039025355 22:0.0040338384 24:0.011462343 25:0.0019771152 26:0.044190619 29:0.044637684 31:0.046819184 32:0.046819184 34:0.038756851 43:0.026546918 44:0.017989559 49:0.01482504 50:0.028928373 73:0.0093220295 90:0.0021720666 91:0 92:0.00065655872 93:0.024004195 94:0.0067539695 95:0.00082172814 96:0.0057885032 97:0.00043059705 98:0.0014389276 99:0.020127017 100:0.044637684 101:0.00049241906 103:0.0073161819 104:0.0130083 105:0.0093220295 106:0.0083556902 107:0.0032283231 110:0.0030545832 111:0.0054734577 112:0.022644375 113:0.06275171 114:0.017867219 116:0.015058305 117:0.028573267 125:0.02072257 133:0.058182254 140:0.086857662 146:0.083199568 148:0.098220728 150:0.045452274 152:0.058910973 166:0.033289365 172:0.067209274 178:0.14054808 186:0.011038436 188:0.034089204 193:0.057856746 198:0.052361161 200:0.083199568 215:0.017268851 221:0.023225468 223:0.012641126 225:0.017268851 226:0.0052154306 238:0.046819184 251:0.098220728 253:0.04995124 260:0.015331455 261:0.048310526 264:0.011118993 272:0.041151222 278:0.029291343 287:0.034420397 293:0.07027404 297:0.051299404 304:0.015647737 305:0.024636528 306:0.1095838 307:0.067535445 308:0.086857662 309:0.027998 310:0.023480956 311:0.067535445 312:0.098220728 313:0.17371532 314:0.19644146 315:0.042463396 316:0.026799275 317:0.044324357 318:0.077683635 319:0.027885329 320:0.071836501 321:0.034089204 322:0.086857662 323:0.025487099 324:0.055553686 325:0.09157376 326:0.060473435 327:0.06313768 328:0.026904698 329:0.1095838 330:0.1095838 331:0.058910973 332:0.075494595 333:0.083199568 334:0.1095838 335:0.1095838 336:0.098220728 337:0.057484556 338:0.044190619 339:0.053288925 340:0.098220728 341:0.071836501 342:0.09157376 343:0.049110364 344:0.068847626 345:0.1095838 346:0.060473435 347:0.025879774 348:0.073563725 349:0.077683635 350:0.1095838 351:0.1095838 352:0.083199568 353:0.098220728 354:0.098220728 355:0.039134447 356:0.067535445 357:0.024915176 358:0.053288925 359:0.13037907 360:0.09157376 361:0.033926085 362:0.047179494 363:0.030964281 364:0.077683635 365:0.077683635 366:0.059673596 367:0.066320561 368:0.086857662 369:0.083199568 370:0.053826466 371:0.048310526 372:0.064131528 373:0.061314307 #
0.34122538324569701151389722326712 1:0.082039714 2:0.028546477 3:0.028208002 5:0.011416344 10:0.0040150755 11:0.014231471 12:0.025044898 13:0.0054682558 17:0.014552295 18:0.018229488 22:0.001892801 24:0.023306763 25:0.0041876398 34:0.0098506995 41:0.031758137 43:0.026989367 44:0.018289385 49:0.015072124 66:0.046043355 73:0.013268356 89:0.029410513 90:0.0047320025 91:0 92:0.0012098462 94:0.0028610565 95:0.0017543896 96:0.0067677251 97:0.00070877641 98:0.00062696129 101:0.00054234487 103:0.029752474 104:0.013225106 105:0.013268356 106:0.028316505 107:0.016410643 108:0.0096264808 109:0.066276029 110:0.003105493 111:0.016694045 112:0.04604356 116:0.025515461 117:0.029049488 124:0.019253043 125:0.021067945 158:0.081668414 159:0.035337724 167:0.033221062 168:0.017942749 171:0.053647932 192:0.019722559 197:0.065200381 198:0.026616924 208:0.03449152 210:0.039452061 213:0.040601943 216:0.067425907 217:0.014772152 219:0.022774862 221:0.023612559 223:0.012851812 226:0.0053023547 228:0.013724491 238:0.047599506 250:0.033068854 252:0.019385846 254:0.068661042 255:0.020848162 260:0.015586979 264:0.022608619 288:0.041837074 299:0.043736145 300:0.028132336 310:0.047744609 311:0.068661042 319:0.028350085 328:0.02735311 355:0.053048916 357:0.02533043 382:0.04289563 387:0.041331984 449:0.031618666 450:0.025522003 455:0.053029712 475:0.044927128 492:0.035837997 508:0.027569564 523:0.054723572 564:0.043451238 594:0.052637521 650:0.073956788 651:0.037171073 661:0.050350834 674:0.033844188 682:0.082663968 687:0.031480353 694:0.069995083 710:0.029049488 729:0.068661042 754:0.040841755 759:0.034327317 793:0.063237332 863:0.030156907 867:0.039013438 882:0.075929746 883:0.088305287 973:0.044621307 988:0.04289563 1012:0.061481323 1015:0.059151959 1029:0.044026006 1122:0.052637521 1139:0.065200381 1226:0.076752834 1260:0.04992887 1297:0.056479581 1333:0.057762265 1379:0.047965821 1506:0.03449152 1512:0.052154396 1539:0.048723526 1653:0.074789785 1695:0.093780354 1766:0.076752834 1830:0.088305287 1846:0.071445271 1856:0.053647932 1908:0.09985774 1937:0.052637521 1954:0.052637521 2066:0.067425907 2144:0.07897836 2165:0.066276029 2206:0.054723572 2219:0.068661042 2366:0.076752834 2429:0.093099989 2510:0.093099989 2543:0.066276029 2544:0.066276029 2600:0.07303378 2604:0.084586233 2754:0.06418997 2834:0.15795672 3080:0.065200381 3302:0.084586233 3324:0.18619998 3462:0.081547536 3549:0.1753279 4008:0.07897836 4081:0.081547536 4201:0.081547536 4306:0.093099989 4405:0.088305287 4533:0.09985774 4903:0.09985774 4937:0.09985774 4979:0.09985774 5178:0.19971548 5291:0.093099989 5597:0.11141019 5598:0.11141019 5599:0.11141019 5600:0.11141019 5601:0.11141019 5602:0.11141019 5603:0.11141019 5604:0.11141019 5605:0.11141019 5606:0.11141019 5607:0.11141019 #
0.97491757898046937924618760007434 1:0.030573806 4:0.11485045 10:0.0013092638 11:0.018562788 12:0.016333628 13:0.0071325074 22:0.00082295696 24:0.050666876 25:0.00087394222 29:0.029596724 34:0.025697477 46:0.069704667 49:0.019659292 64:0.083214223 66:0.030028274 71:0.04564444 72:0.096465372 73:0.024723645 84:0.082483478 90:0.0041147848 91:0 92:0.0002176635 94:0.0044781757 95:0.001089683 96:0.0030704236 97:0.00038067275 98:0.00027259186 100:0.029596724 101:0.00076182222 103:0.038807575 104:0.034500275 105:0.024723645 106:0.0073869145 112:0.060056817 135:0.17589366 137:0.11562 138:0.078670189 186:0.029275849 193:0.076723076 205:0.096968018 213:0.10591811 215:0.045799997 223:0.033526465 224:0.043081719 225:0.045799997 226:0.013832229 228:0.03580302 239:0.110499 252:0.10114355 260:0.08132337 287:0.04564444 289:0.070798516 317:0.058777954 355:0.13838848 361:0.089977875 370:0.14275715 407:0.054959856 408:0.073956743 412:0.079003356 423:0.10717843 453:0.085483171 495:0.09128888 499:0.096968018 522:0.1223222 625:0.088705257 713:0.080708608 727:0.13861322 759:0.089549519 826:0.12710485 989:0.15826476 1098:0.20022479 1294:0.10291842 1315:0.1674521 1672:0.14133149 1954:0.13731527 4182:0.29063529 4183:0.29063529 4184:0.26049846 4185:0.29063529 #
1.2098227339472582553270285643521 1:0.10547963 5:0.03424903 10:0.0045169597 13:0.012303575 15:0.094856001 17:0.021828443 22:0.001892801 25:0.0030151007 43:0.040484048 46:0.080160365 49:0.022608185 66:0.034532513 69:0.11902733 73:0.0056864382 74:0.15505464 75:0.18200447 84:0.094856001 87:0.1376393 88:0.070319749 89:0.088231541 90:0.003785602 91:0 92:0.0015018781 94:0.0017166339 95:0.0010025083 96:0.0035309871 97:0.00068793003 98:0.00062696129 101:0.00075093907 103:0.022314355 104:0.019837659 105:0.0056864382 106:0.0084949518 107:0.0098463856 108:0.028879441 110:0.027949437 111:0.041735113 113:0.095696352 116:0.030618554 124:0.057759132 130:0.038690753 143:0.16586579 158:0.061251312 185:0.1417232 198:0.039925385 217:0.011079114 218:0.050909251 226:0.015907064 227:0.12868689 228:0.041173473 304:0.047725596 361:0.10347456 388:0.088231541 413:0.189712 492:0.053756997 522:0.14067054 637:0.073483795 650:0.11093518 713:0.0928149 715:0.089713126 740:0.14978661 750:0.12868689 822:0.1732868 1364:0.21910132 1633:0.20998526 1682:0.1510525 1814:0.21910132 2415:0.14502111 2816:0.12474785 4186:0.33423057 #
0.28416745444232455186650554423977 3:0.018396523 4:0.11485045 5:0.044672649 10:0.003927791 11:0.018562788 12:0.040834073 22:0.0049377419 24:0.030400125 25:0.0048066825 29:0.029596724 36:0.063898958 41:0.082847312 44:0.047711439 73:0.014834187 88:0.030573806 90:0.0057606986 91:0 92:0.00087065401 94:0.0089563513 95:0.0015255562 96:0.0076760589 97:0.00070696371 98:0.0021807349 100:0.029596724 101:0.00065299048 102:0.049371116 103:0.038807575 105:0.014834187 106:0.022160744 107:0.017124148 112:0.060056817 116:0.013312415 168:0.04680717 186:0.058551699 198:0.069435455 201:0.092640646 202:0.043819908 215:0.045799997 217:0.028902035 218:0.044268914 224:0.043081719 225:0.045799997 226:0.013832229 228:0.01790151 234:0.11147255 244:0.080362163 246:0.077362478 252:0.10114355 254:0.17911576 260:0.08132337 264:0.029489502 265:0.26727772 288:0.10914019 300:0.073388703 302:0.064374134 304:0.04150052 347:0.068637662 355:0.069194242 401:0.075164549 407:0.054959856 410:0.11119467 486:0.085873112 564:0.11335105 688:0.15068416 706:0.15068416 729:0.17911576 738:0.12054734 747:0.10234254 927:0.083584249 988:0.2238033 1126:0.16261621 1182:0.10847639 1343:0.19510379 1377:0.22065973 1550:0.26049846 1562:0.1223222 2157:0.22065973 2645:0.19510379 3483:0.32523242 3966:0.24286954 4187:0.29063529 4188:0.24286954 4189:0.26049846 4190:0.29063529 4191:0.58127058 4192:0.29063529 4193:0.29063529 4194:0.29063529 4195:0.29063529 4196:0.29063529 4197:0.29063529 4198:0.29063529 #
0.42445801005519728787973576800141 1:0.027046058 2:0.021958828 4:0.30479544 5:0.039518114 6:0.11522047 10:0.0017372923 11:0.016420929 12:0.01444898 13:0.015773814 17:0.016791109 18:0.021034027 22:0.0029120015 24:0.05378484 25:0.0027058597 26:0.10367799 31:0.10984501 32:0.10984501 34:0.022732383 35:0.099306479 49:0.034781825 58:0.1115547 66:0.10625389 74:0.1192728 82:0.093696788 88:0.027046058 90:0.0029120015 91:0 92:0.0011552909 93:0.056317534 94:0.007922926 95:0.0011567405 96:0.0033951798 97:0.00091403292 98:0.00096455583 101:0.00096274237 103:0.017164888 104:0.030519474 106:0.019603735 110:0.014333044 111:0.012841573 112:0.053127185 114:0.041919243 116:0.047105469 117:0.13407457 124:0.044430103 158:0.094232783 159:0.081548594 185:0.10901785 186:0.051795736 192:0.045513596 212:0.093696788 223:0.029658027 224:0.038110752 228:0.0316719 263:0.081862375 264:0.026086869 269:0.20054418 301:0.12624513 355:0.06121029 363:0.072646968 389:0.073612578 390:0.044736568 446:0.1382142 448:0.10227923 449:0.072966151 450:0.058896929 492:0.16540614 508:0.063622072 533:0.095381506 710:0.13407457 754:0.094250202 796:0.17259182 810:0.1438528 927:0.073939912 1203:0.18225776 1215:0.13033749 1310:0.14000343 1444:0.28000686 1547:0.15294467 1750:0.12261939 1772:0.1648737 1861:0.14000343 1974:0.21484613 2221:0.18818663 2488:0.18818663 2636:0.195199 4122:0.21484613 4199:0.21484613 4200:0.25710046 4201:0.18818663 4202:0.25710046 #
-0.10187319969915570316842945430835 2:0.051902685 3:0.076930918 5:0.031135483 10:0.0068438784 22:0.0086036408 25:0.0054820012 34:0.053731088 44:0.099760279 49:0.12331738 71:0.095438376 73:0.020677958 88:0.063927047 90:0.0034414562 91:0 92:0.0011377864 94:0.024969222 95:0.0022784281 96:0.0016049941 97:0.0011370744 98:0.002849824 101:0.0006826719 103:0.081143111 104:0.10820541 105:0.020677958 106:0.030890735 110:0.016939053 114:0.099081852 116:0.027835049 122:0.31150138 124:0.1050166 125:0.11491606 156:0.20066136 185:0.51535714 205:0.20275131 217:0.040287685 223:0.070100792 226:0.028921934 260:0.085019886 263:0.096746445 304:0.086773813 319:0.15463683 449:0.17246546 479:0.18547462 527:0.24014185 565:0.20932592 571:0.21519306 632:0.20170033 633:0.22277321 635:0.38179138 637:0.13360691 715:0.32622957 822:0.3150669 823:0.28711376 927:0.17476708 1317:0.32668811 1318:0.44480476 1319:0.48166522 1320:0.607692 1321:0.5078181 #
-0.40216091208513332633245340730355 3:0.052890006 10:0.0075282664 22:0.0047320025 25:0.003768876 34:0.1477605 49:0.11304092 66:0.086331286 71:0.13122776 73:0.014216095 82:0.30451456 88:0.087899692 91:0 92:0.00062578253 94:0.017166339 95:0.0031328388 96:0.0022068669 97:0.00078173866 98:0.0015674032 99:0.076734252 101:0.0018773477 103:0.055785887 104:0.099188291 105:0.014216095 107:0.049231928 108:0.072198607 111:0.020867556 124:0.14439783 127:0.42359686 168:0.13457061 185:0.35430801 186:0.084168069 192:0.14791919 210:0.29589045 214:0.50569427 215:0.13167499 218:0.12727313 221:0.17709419 225:0.13167499 226:0.03976766 232:0.28681937 244:0.23104122 264:0.084782325 300:0.21099252 305:0.18785352 317:0.16898662 429:0.26900154 461:0.24030472 533:0.3099899 688:0.43321699 1171:0.5609234 1260:0.37446654 1554:0.69824994 2488:0.61160654 2602:0.57564628 2816:0.31186962 #
-0.49126501849350812101135943521513 3:0.042312004 10:0.006022613 12:0.037567347 13:0.0082023833 17:0.043656886 22:0.001892801 24:0.069920287 25:0.0020100672 29:0.13614494 44:0.10973631 46:0.16032073 50:0.17646308 66:0.069065027 88:0.070319749 90:0.003785602 91:0 92:0.0010012521 94:0.010299804 95:0.0015037626 96:0.0070619741 97:0.00062539097 98:0.00062696129 99:0.1227748 100:0.13614494 101:0.00050062605 107:0.019692771 108:0.11551777 111:0.016694045 116:0.061237108 158:0.24500525 160:0.27526879 217:0.044316456 224:0.099087961 228:0.041173473 250:0.19841313 304:0.095451191 389:0.1913927 449:0.37942401 456:0.46051702 492:0.10751399 525:0.46051702 564:0.26070744 587:0.53185201 710:0.34859386 1032:0.26772785 1113:0.41997051 1192:0.46051702 1217:0.37401727 1741:0.33524072 1742:0.42867166 #
-0.45966540527798982473939304327359 1:0.058599792 10:0.0050188443 12:0.031306121 13:0.0068353196 17:0.036380738 18:0.045573723 22:0.0047320025 24:0.038844604 25:0.002512584 73:0.02843219 88:0.058599792 90:0.0031546683 91:0 92:0.0014601593 95:0.0033416946 96:0.0088274674 97:0.00072962279 98:0.0015674032 101:0.0014601593 105:0.02843219 107:0.016410643 108:0.048132405 110:0.031054929 111:0.013911705 114:0.090825029 116:0.025515461 186:0.16833614 192:0.098612793 198:0.066542305 211:0.26928458 217:0.018465189 226:0.026511773 228:0.034311228 244:0.15402749 264:0.11304309 269:0.21725619 295:0.26823965 301:0.13676555 323:0.12955941 417:0.23620534 426:0.32094985 450:0.12761001 455:0.088382855 479:0.1700184 499:0.37171075 599:0.22778067 611:0.14584482 625:0.34003681 825:0.18114603 863:0.15078454 972:0.17412433 1000:0.38376418 1597:0.3433052 2119:0.4077377 2404:0.30740663 2914:0.33138013 3444:0.38376418 3445:0.42293116 #
-0.36379545719257400104851285504992 5:0.038054477 10:0.0050188443 16:0.13004479 22:0.0042062243 24:0.077689208 31:0.15866502 32:0.15866502 34:0.032835666 35:0.071721345 49:0.050240412 57:0.14298543 66:0.038369462 71:0.1166469 73:0.012636529 75:0.20222719 88:0.11719958 90:0.0010515561 91:0 92:0.00083437673 94:0.013351598 95:0.0033416946 96:0.0019616594 97:6.9487884e-05 98:0.0017415591 101:0.00055625115 103:0.049587455 104:0.044083685 105:0.012636529 110:0.010351643 111:0.0092744697 114:0.060550019 116:0.034020618 124:0.12835363 125:0.070226483 139:0.12262639 143:0.18429533 145:0.12390358 205:0.12390358 211:0.089761533 226:0.017674515 228:0.02287415 246:0.098852053 263:0.059122827 264:0.037681032 287:0.05832345 316:0.090819761 366:0.20222719 367:0.22475302 412:0.10094874 461:0.1068021 565:0.12792139 615:0.14773667 692:0.18826526 713:0.10312767 715:0.099681258 822:0.19254088 960:0.14031826 1195:0.14298543 1294:0.13150686 1507:0.2632612 1589:0.20493774 1604:0.17228293 1846:0.23815091 1848:0.29435095 1856:0.17882644 1861:0.20222719 1952:0.18429533 3224:0.24929929 3225:0.33285913 #
1.5707852043991346047135948538198 1:0.037010394 2:0.030048924 10:0.0039622453 11:0.022470744 12:0.039544575 13:0.0043170438 22:0.0029886332 24:0.049066871 25:0.0021158601 29:0.035827614 34:0.12442989 43:0.042614788 49:0.023798089 56:0.17459558 73:0.0059857243 90:0.0049810554 91:0 92:0.00065871846 94:0.0018069831 95:0.0010552719 96:0.00650445 97:0.00039498377 98:0.0013199185 99:0.064618319 100:0.035827614 101:0.0010539496 104:0.020881746 105:0.0059857243 106:0.0089420546 107:0.041458465 108:0.030399412 110:0.01961364 130:0.040727109 137:0.13996105 141:0.13811414 150:0.072962858 161:0.14187515 168:0.028330656 169:0.11617237 172:0.21577713 202:0.053045154 211:0.085037239 215:0.055442102 217:0.034986675 218:0.053588685 219:0.071920618 225:0.055442102 226:0.016744278 228:0.021670248 255:0.065836303 272:0.13211708 317:0.21345678 323:0.081827 347:0.083087698 387:0.13052206 455:0.16746224 461:0.10118093 511:0.17835657 536:0.18455568 604:0.10944429 644:0.21682434 651:0.11738234 653:0.12118869 770:0.15637051 848:0.20929271 1111:0.18455568 1214:0.16941452 1254:0.39370239 1730:0.19415155 2070:0.24237739 2202:0.2671144 4050:0.31534025 #
0.96188505104206689644286143447971 1:0.13523029 2:0.021958828 3:0.016273849 5:0.026345408 6:0.11522047 8:0.09836451 10:0.0040536821 11:0.016420929 13:0.018928578 17:0.016791109 18:0.063102081 19:0.091559485 22:0.0029120015 24:0.01792828 25:0.0038655137 29:0.078545153 44:0.042206272 51:0.07201644 64:0.073612578 66:0.026563473 73:0.01312255 88:0.054092117 90:0.0050960025 91:0 92:0.0012515651 93:0.11263507 94:0.019807315 95:0.0013495305 96:0.0061113238 97:0.00091403292 98:0.00096455583 100:0.078545153 101:0.00048137119 102:0.043674447 105:0.01312255 106:0.0065345783 107:0.037870713 110:0.0071665221 111:0.012841573 116:0.011776367 150:0.10663803 166:0.15620396 168:0.062109515 186:0.025897868 198:0.061423671 223:0.029658027 228:0.0316719 231:0.11334392 263:0.081862375 284:0.087611251 286:0.062875219 299:0.10092957 303:0.062875219 328:0.063122563 359:0.15294467 381:0.15559825 407:0.048618335 409:0.11522047 455:0.040792085 463:0.20378144 471:0.10587639 508:0.063622072 594:0.24294239 668:0.1481307 683:0.39101249 687:0.072646968 696:0.12758908 756:0.34518364 764:0.16853948 789:0.097749114 823:0.1214712 853:0.07108961 918:0.18818663 1100:0.16853948 1124:0.14187998 1148:0.16853948 1149:0.10159848 1437:0.10367799 1449:0.15844855 1492:0.18818663 1605:0.18818663 1616:0.17712194 1954:0.1214712 1956:0.195199 2133:0.15046242 2645:0.17259182 2745:0.195199 2801:0.20378144 3705:0.21484613 4105:0.18818663 4293:0.25710046 4294:0.23044094 4295:0.25710046 4296:0.25710046 4297:0.23044094 4298:0.23044094 4299:0.25710046 4300:0.23044094 4301:0.25710046 4302:0.23044094 #
-0.054138349959414938661339533609862 1:0.033485595 2:0.027187122 6:0.14265391 7:0.098547198 10:0.0021509333 11:0.020330673 12:0.026833819 13:0.003905897 17:0.041577987 22:0.0018026676 24:0.011098458 25:0.0019143497 29:0.032415461 34:0.05628971 41:0.090737537 64:0.091139384 66:0.065776221 90:0.0018026676 91:0 92:0.00083437673 93:0.069726475 94:0.003269779 95:0.0014321548 96:0.005044267 97:0.00053604937 98:0.00089565897 100:0.032415461 101:0.0010727701 103:0.021251766 106:0.040452152 107:0.05626506 108:0.05500846 110:0.017745674 111:0.01589909 116:0.014580264 125:0.060194131 130:0.036848336 186:0.032064028 198:0.038024176 202:0.047993235 211:0.07693845 215:0.050161902 218:0.048485003 225:0.050161902 226:0.03029917 227:0.12255894 255:0.059566177 263:0.050676707 264:0.032298028 283:0.16503504 302:0.070505001 305:0.071563244 355:0.075784169 357:0.072372653 362:0.1370452 381:0.38529089 407:0.060194131 412:0.086527489 455:0.30302691 486:0.094051503 492:0.10239428 508:0.078770183 511:0.16137023 515:0.15635307 520:0.10565256 549:0.1961744 575:0.10905536 635:0.19998595 637:0.06998457 827:0.17566092 863:0.086162589 974:0.11880747 1003:0.1690056 1149:0.1257886 1187:0.17112234 1346:0.26599997 1379:0.1370452 1527:0.23299296 1532:0.26599997 1533:0.31831485 1534:0.15039292 1535:0.28530782 1536:0.31831485 1537:0.31831485 1538:0.17566092 1539:0.13921008 #
1.9924807057908617835551012831274 2:0.02154451 3:0.015966794 5:0.012924163 8:0.048254289 10:0.0022726841 11:0.00805555 12:0.014176358 13:0.0046428586 14:0.056523252 17:0.0082371486 18:0.020637158 22:0.0010713967 24:0.061565034 25:0.0017066608 29:0.038531583 34:0.011151735 36:0.05545947 39:0.052312996 43:0.045830999 49:0.0085313907 51:0.035328817 66:0.039093412 73:0.0064374772 83:0.056057353 84:0.035794716 88:0.013267878 90:0.0046427194 91:0 92:0.00099180627 94:0.003238932 95:0.00075661007 96:0.0029980079 97:0.00033039521 98:0.00047317834 99:0.023165056 100:0.038531583 101:0.00037783096 102:0.042850401 103:0.016841022 104:0.0074859089 105:0.0064374772 106:0.0064112842 107:0.022293704 108:0.010897903 110:0.0035156524 111:0.0062996396 116:0.017331257 130:0.029200569 146:0.095757999 158:0.023113701 163:0.060733505 166:0.038314179 167:0.03760875 168:0.03046882 170:0.031710669 172:0.077354066 182:0.057994224 187:0.049512617 198:0.015066183 202:0.019016188 206:0.089409463 207:0.028461548 217:0.033446379 221:0.026731199 223:0.014549221 224:0.018695841 226:0.012005331 228:0.01553716 232:0.021646744 253:0.057491049 260:0.035291273 264:0.012797331 287:0.019807965 290:0.025507415 292:0.066964485 300:0.015923964 310:0.027025251 319:0.032094438 328:0.030965785 347:0.059572313 355:0.030027689 358:0.061332539 407:0.023850504 423:0.046511397 434:0.070569299 479:0.038494732 486:0.037265688 492:0.060856976 561:0.061951213 574:0.066161469 575:0.043210614 611:0.033021469 670:0.052694179 704:0.055158708 705:0.055602681 710:0.032886215 715:0.033854011 730:0.070569299 801:0.082445361 804:0.068680927 829:0.054724947 848:0.075029463 853:0.034874149 856:0.054724947 863:0.034139894 910:0.053083222 1039:0.075029463 1049:0.080881439 1106:0.062590867 1119:0.12390243 1186:0.054724947 1218:0.095757999 1295:0.055158708 1340:0.080881439 1374:0.061332539 1429:0.065391243 1448:0.075029463 1522:0.092317969 1565:0.084667683 1730:0.069601499 1741:0.12650593 1851:0.055602681 1886:0.05430093 1901:0.086890005 1966:0.079239719 2226:0.084667683 2254:0.10539622 2281:0.084667683 2904:0.1130465 3148:0.089409463 4249:0.1130465 4365:0.10539622 5079:0.1130465 5446:0.1130465 5471:0.12612475 5472:0.12612475 5473:0.12612475 5474:0.12612475 5475:0.12612475 5476:0.12612475 5477:0.12612475 #
0.069372007979423999657342392310966 3:0.038465459 10:0.004106327 12:0.034152135 13:0.0074567124 22:0.0034414562 24:0.063563898 25:0.0036546676 41:0.17322621 46:0.14574613 64:0.17399338 66:0.062786393 71:0.095438376 73:0.020677958 90:0.0017207281 91:0 92:0.0013653438 94:0.0062423055 95:0.0018227425 96:0.008024971 97:0.001023367 98:0.0017098945 101:0.00091022917 103:0.081143111 105:0.020677958 106:0.015445367 108:0.052508075 110:0.016939053 111:0.015176405 112:0.12557335 124:0.1050166 130:0.070346825 189:0.17554741 198:0.07259161 202:0.091623448 217:0.020143842 221:0.12879577 224:0.090079963 228:0.037430428 263:0.096746445 264:0.061659869 289:0.14803326 309:0.15526164 339:0.29551134 357:0.13816598 486:0.17955287 492:0.097739995 565:0.20932592 715:0.16311479 794:0.26163176 823:0.28711376 844:0.2176502 927:0.17476708 962:0.39836606 1023:0.38179138 1506:0.37627113 1886:0.26163176 2066:0.36777768 2099:0.35012713 2892:0.48166522 4339:0.54467857 4340:0.46137944 #
-0.93858267289503494179569997868384 1:0.12785409 10:0.0027375515 11:0.038813103 12:0.017076068 13:0.0074567124 17:0.039688077 22:0.0051621846 25:0.0054820012 29:0.061884061 90:0.0051621846 91:0 92:0.00045511458 94:0.0093634576 95:0.0013670569 96:0.012839952 97:0.00090965955 98:0.0017098945 100:0.061884061 101:0.0006826719 103:0.040571555 106:0.015445367 107:0.035805039 108:0.052508075 110:0.033878107 111:0.015176405 156:0.20066136 157:0.3047643 158:0.11136602 167:0.18120581 168:0.048934769 169:0.20066136 186:0.12242628 198:0.07259161 215:0.095763631 224:0.090079963 225:0.095763631 260:0.085019886 302:0.13460046 309:0.15526164 355:0.07233943 401:0.15716225 407:0.11491606 410:0.23249795 433:0.28447852 455:0.096417658 467:0.44480476 532:0.19370316 574:0.31877798 683:0.6161409 702:0.3047643 710:0.15845175 747:0.21398894 767:0.34001571 853:0.16802998 1527:0.44480476 1562:0.2557646 1563:0.54467857 1564:0.607692 1565:0.40794429 1566:0.40794429 #
-0.96776959219852920490723136026645 1:0.081138171 2:0.021958828 3:0.016273849 4:0.10159848 5:0.013172704 10:0.0046327794 12:0.01444898 13:0.02208334 16:0.090031013 17:0.016791109 18:0.063102081 22:0.00072800036 24:0.0448207 25:0.0027058597 43:0.031141577 49:0.017390912 64:0.073612578 68:0.10092957 71:0.040377773 73:0.0087483665 88:0.054092117 90:0.0050960025 91:0 92:0.0018292106 94:0.007922926 95:0.0007711603 96:0.0095065041 97:0.00072160497 98:0.00024113896 101:0.00038509697 104:0.015259737 105:0.0087483665 106:0.013069157 107:0.0075741429 108:0.022214955 110:0.0071665221 111:0.01926236 114:0.041919243 116:0.0353291 117:0.20111184 174:0.13033749 177:0.14187998 186:0.025897868 188:0.079978518 194:0.18225776 198:0.092135504 215:0.040515382 218:0.039160963 219:0.052557375 225:0.040515382 226:0.012236203 228:0.01583595 229:0.1214712 252:0.044736568 286:0.12575044 289:0.062629461 303:0.12575044 310:0.055089936 371:0.11334392 387:0.095381506 390:0.089473136 401:0.066491716 402:0.18225776 453:0.075619727 455:0.040792085 461:0.073939912 480:0.17259182 483:0.14000343 486:0.075964674 532:0.081951343 558:0.1214712 602:0.21484613 613:0.21641621 668:0.1481307 683:0.13033749 727:0.12261939 770:0.11427075 789:0.097749114 914:0.12380292 927:0.073939912 1015:0.13650452 1072:0.195199 1111:0.13486761 1149:0.10159848 1165:0.13178904 2004:0.1382142 2787:0.195199 3252:0.21484613 4104:0.21484613 4105:0.18818663 4106:0.25710046 4107:0.25710046 4108:0.25710046 4109:0.25710046 #
-0.48942586056758435875124746416986 2:0.076123938 5:0.022832688 10:0.0050188443 11:0.056925885 12:0.012522449 13:0.0054682558 18:0.036458977 22:0.0025237347 24:0.046613526 25:0.0020100672 34:0.078805596 49:0.12057699 50:0.11764205 73:0.0075819176 88:0.046879835 90:0.010094939 91:0 92:0.0011681274 93:0.09761706 94:0.0045776907 95:0.0023391861 96:0.0047079828 97:0.00066708366 98:0.0012539226 101:0.0013350028 103:0.059504949 104:0.10580084 105:0.0075819176 106:0.011326603 107:0.026257029 108:0.077011846 110:0.037265915 111:0.011129363 130:0.051587671 166:0.13537675 168:0.035885498 181:0.13537675 201:0.14204898 202:0.067190528 215:0.070226662 217:0.088632911 218:0.067879006 219:0.091099449 223:0.1028145 225:0.070226662 226:0.021209419 231:0.19646281 234:0.085462287 245:0.22591832 260:0.062347915 305:0.10018855 321:0.13862944 424:0.17970851 428:0.25675988 448:0.177284 455:0.070706278 486:0.1316721 487:0.26510412 489:0.19971548 493:0.29213512 494:0.14868429 532:0.14204898 742:0.15692523 768:0.35322115 844:0.15961015 886:0.10646769 1364:0.29213512 1463:0.22591832 1511:0.18896428 1512:0.20861758 1513:0.26970363 1514:0.31591344 1515:0.31591344 1516:0.25294933 1517:0.35322115 1518:0.37239996 #
-0.27954563010334076977869699476287 5:0.024463594 10:0.0010754666 12:0.01341691 13:0.0058588455 22:0.005408003 25:0.0021536434 29:0.048623189 41:0.1361063 49:0.032297406 51:0.13374481 59:0.10734487 61:0.14924942 71:0.074987292 90:0.0027040015 91:0 92:0.00053638505 94:0.014714005 95:0.0007160774 96:0.0025221335 97:0.00053604937 98:0.0022391474 100:0.048623189 104:0.028339513 106:0.024271291 107:0.02813253 108:0.041256346 110:0.02661851 130:0.055272505 139:0.1576625 168:0.038448747 192:0.08452525 202:0.071989849 217:0.031654611 317:0.096563779 387:0.17713708 407:0.090291195 455:0.075756729 574:0.25046843 681:0.19948511 683:0.24205534 738:0.19804205 826:0.20881511 866:0.27101713 927:0.13731699 2005:0.26349139 2141:0.39899996 2245:0.42796177 3452:0.47747228 3453:0.47747228 3454:0.47747228 3455:0.47747228 3456:0.37845123 #
-2.1418046589927239864437069627456 1:0.043949846 3:0.013222502 5:0.021405645 8:0.079921164 10:0.0065872329 11:0.066710025 12:0.029349491 13:0.0076897345 17:0.027285554 22:0.0035490019 24:0.0072833635 25:0.003454803 29:0.10636323 34:0.036940124 43:0.025302531 59:0.046963379 61:0.06529662 73:0.017770119 84:0.059285 88:0.021974923 90:0.0065065036 91:0 92:0.00086045102 94:0.0096560661 95:0.00093985157 96:0.0066206008 97:0.000586304 98:0.0013714778 100:0.10636323 101:0.0010951195 105:0.017770119 106:0.031856071 107:0.012307982 110:0.011645598 111:0.010433778 114:0.034059387 116:0.0095682982 125:0.039502397 130:0.024181722 133:0.11090992 143:0.10366612 150:0.1732868 156:0.068977341 163:0.10058987 167:0.062289495 168:0.033642653 169:0.13795468 186:0.042084035 198:0.024953365 202:0.03149556 205:0.069695763 211:0.05049086 217:0.020773338 223:0.024097148 228:0.01286671 231:0.09209194 234:0.040060449 241:0.082548767 253:0.095219553 264:0.021195581 278:0.055836622 300:0.026374064 309:0.053371187 316:0.051086117 355:0.02486668 361:0.1940148 362:0.089935914 363:0.05902566 389:0.059810221 407:0.039502397 408:0.053156409 491:0.11375279 532:0.066585466 534:0.080429308 631:0.083664954 637:0.091854751 661:0.094407812 794:0.089935914 863:0.0565442 973:0.083664954 974:0.077967405 980:0.15290163 989:0.11375279 1011:0.11375279 1030:0.097789489 1114:0.10957994 1214:0.10058987 1393:0.13124079 1473:0.086643398 1562:0.087919086 1961:0.13395989 1962:0.11857 2161:0.17456248 2212:0.12426755 2680:0.21660849 2720:0.16557242 2721:0.20889412 2722:0.17456248 2723:0.15859918 2724:0.18723327 2725:0.20889412 #
0.99913823082382979823279356423882 5:0.017124515 10:0.0045169597 11:0.021347206 13:0.0082023833 22:0.0075712041 24:0.069920287 25:0.0050251679 29:0.034036234 43:0.080968097 49:0.11304092 66:0.034532513 73:0.022745753 90:0.001892801 91:0 92:0.0013767217 94:0.013733071 95:0.0012531355 96:0.0017654935 97:0.0010006255 98:0.0025078452 99:0.030693701 100:0.034036234 101:0.0012515651 103:0.022314355 104:0.13886361 105:0.022745753 106:0.033979807 108:0.057758883 110:0.055898875 111:0.016694045 113:0.095696352 116:0.015309277 124:0.057759132 129:0.11769392 133:0.17745587 138:0.18094145 143:0.16586579 144:0.12868689 145:0.11151322 150:0.069314718 153:0.21910132 160:0.068817198 181:0.10153257 189:0.096551076 217:0.011079114 218:0.050909251 223:0.038555436 224:0.049543981 226:0.031814128 228:0.041173473 244:0.18483298 263:0.053210542 264:0.033912927 280:0.10868761 290:0.067594647 309:0.085393898 310:0.071616918 343:0.14978661 361:0.20694911 363:0.094441056 389:0.095696352 391:0.19560115 477:0.1732868 492:0.053756997 561:0.16417071 565:0.11512925 571:0.11835618 611:0.08750689 625:0.10201104 637:0.073483795 654:0.18444397 785:0.12868689 823:0.47373769 846:0.20227772 1057:0.14855199 1149:0.13207802 1186:0.14502111 1214:0.16094379 1497:0.20598312 1752:0.13478139 1988:0.17745587 2604:0.2537587 2651:0.26491585 3393:0.18700863 4359:0.29957321 4360:0.22436936 #
0.081560900811387837539001566256047 3:0.030222861 6:0.21398088 10:0.0075282664 11:0.060992021 12:0.026833819 13:0.011717691 22:0.005408003 25:0.0035894057 34:0.042217284 37:0.18153407 49:0.064594813 71:0.074987292 73:0.0081234835 90:0.0067600035 91:0 92:0.0012515651 93:0.10458971 94:0.0049046683 95:0.0010741161 96:0.0088274674 97:0.00071473251 98:0.0017913179 99:0.087696284 101:0.0014303601 103:0.063755304 104:0.056679025 105:0.0081234835 106:0.024271291 107:0.02813253 110:0.013309255 111:0.011924318 116:0.04374079 117:0.12449781 158:0.17500375 160:0.19662057 168:0.038448747 186:0.048096038 217:0.031654611 218:0.072727501 221:0.10119668 226:0.022724377 228:0.029409623 234:0.091566741 260:0.066801339 264:0.048447039 270:0.21764468 278:0.12762657 304:0.068179421 305:0.10734487 449:0.13550857 455:0.075756729 499:0.1593046 548:0.20556781 611:0.12500985 722:0.19387999 793:0.27101713 794:0.20556781 850:0.24205534 886:0.11407253 941:0.2671552 1089:0.32894072 1146:0.33847868 1207:0.24205534 1400:0.26349139 1513:0.28896818 1526:0.27101713 1528:0.21398088 2077:0.36251241 2336:0.32052764 2495:0.32052764 3549:0.25046843 3722:0.42796177 4081:0.34948945 4115:0.36251241 4143:0.36251241 4860:0.36251241 4861:0.37845123 #
0.70514958926293691554576525959419 1:0.014350969 2:0.023303246 3:0.034540411 10:0.0024582094 11:0.0087131457 12:0.015333612 13:0.0050218673 16:0.047771558 17:0.017819136 18:0.011160912 22:0.0023177154 24:0.023782412 25:0.0034868512 31:0.05828511 32:0.05828511 34:0.012062081 37:0.051866878 44:0.022395164 71:0.085699767 73:0.0069629857 88:0.014350969 89:0.036012873 90:0.0015451437 91:0 92:0.0010727701 94:0.0063060024 95:0.0010229677 96:0.005404572 97:0.00061262789 98:0.00089565897 99:0.025056081 101:0.00040867433 103:0.0091078999 105:0.0069629857 106:0.010401982 107:0.032151464 110:0.019013222 111:0.020441689 112:0.028189935 113:0.078119472 116:0.031243423 117:0.0355708 130:0.015792144 158:0.025000535 159:0.043270685 160:0.056177307 166:0.041441865 168:0.054926783 169:0.045046426 186:0.068708628 187:0.053554464 189:0.039408602 192:0.024150072 198:0.016296076 213:0.049716663 215:0.021497957 217:0.0045220871 219:0.027887587 224:0.020222032 225:0.021497957 226:0.012985358 228:0.016805498 232:0.046827652 246:0.036312997 251:0.061137393 263:0.02171859 290:0.055179302 300:0.034447759 304:0.019479835 305:0.030669963 311:0.084074743 343:0.061137393 347:0.032217678 355:0.032478929 361:0.042234514 389:0.039059736 436:0.13985777 449:0.038716733 455:0.064934343 499:0.045515601 565:0.046991531 609:0.051229071 611:0.035717096 648:0.065691344 687:0.038547371 710:0.0355708 736:0.13683295 759:0.12610035 775:0.070729308 782:0.10357498 790:0.073338151 803:0.065691344 886:0.032592151 977:0.10357498 988:0.052525263 1472:0.093983062 1506:0.042234514 1752:0.055012811 2207:0.17141654 2210:0.093983062 2360:0.099854127 2652:0.093983062 2751:0.076330058 2956:0.11399999 3356:0.085708268 3457:0.13985777 3479:0.099854127 4105:0.099854127 4239:0.08748401 5064:0.36682436 5196:0.12227479 5247:0.12227479 5248:0.13642065 5249:0.12227479 5250:0.13642065 5251:0.13642065 5252:0.13642065 5253:0.12227479 5254:0.13642065 #
1.6476073284387757755808934234665 10:0.0050188443 12:0.05217687 13:0.013670639 14:0.16642956 17:0.072761476 18:0.030382482 22:0.0042062243 24:0.025896404 25:0.0022334079 26:0.14975709 31:0.15866502 32:0.15866502 34:0.098506995 35:0.071721345 44:0.060964614 46:0.089067079 66:0.076738924 88:0.078133054 90:0.0021031122 91:0 92:0.00027812558 95:0.0019493218 96:0.0098082973 97:0.00048641517 98:0.0013932473 101:0.0012515651 110:0.010351643 125:0.14045297 198:0.088723078 213:0.13533981 217:0.024620252 234:0.071218573 255:0.069493875 264:0.037681032 305:0.083490454 316:0.090819761 317:0.07510516 357:0.084434763 433:0.17384799 453:0.10922849 728:0.15988606 973:0.1487377 1007:0.19717319 1260:0.33285913 1475:0.23331694 1521:0.17384799 1781:0.28195411 2473:0.24344592 2970:0.23331694 3393:0.20778738 4678:0.29435095 #
1.3870717462642101480696510407142 3:0.027594786 4:0.057425227 10:0.0032731593 11:0.018562788 12:0.0040834071 13:0.010698761 18:0.023777595 22:0.0020573924 24:0.030400125 25:0.0034957689 29:0.073991813 35:0.028064873 41:0.041423656 44:0.02385572 57:0.055950824 66:0.030028274 73:0.0049447292 82:0.052959055 83:0.064587817 88:0.030573806 90:0.0074066124 91:0 92:0.0012515651 94:0.0059709009 95:0.001089683 96:0.0053732414 97:0.00076134549 98:0.00081777561 99:0.013345087 100:0.073991813 101:0.00054415874 103:0.02910568 104:0.0086250687 105:0.0049447292 106:0.0073869145 107:0.004281037 108:0.012556279 110:0.0081012864 111:0.018145701 116:0.033281036 124:0.025112666 131:0.095261447 138:0.039335094 141:0.057047147 150:0.030136835 160:0.029920522 161:0.058600601 168:0.011701792 171:0.069975562 198:0.017358864 205:0.048484009 207:0.032792654 214:0.087946832 217:0.067438081 221:0.03079899 222:0.06027367 223:0.033526465 226:0.013832229 243:0.060712855 246:0.038681239 252:0.050571773 255:0.054386511 263:0.046270039 290:0.029388977 304:0.062250778 328:0.035677969 338:0.058600601 390:0.025285887 401:0.037582275 408:0.036978371 410:0.055597335 439:0.075342081 449:0.082483478 450:0.033289567 481:0.057810001 492:0.023372607 507:0.087946832 508:0.071920604 537:0.073669016 587:0.17343 617:0.058201708 625:0.044352628 629:0.067415059 642:0.089557879 702:0.07287842 712:0.085043982 794:0.062564112 804:0.079132378 844:0.052046787 863:0.039335094 878:0.065124616 882:0.049519401 899:0.064587817 911:0.063552424 914:0.069975562 915:0.06208631 960:0.054907143 1048:0.087946832 1064:0.15068416 1095:0.11518081 1108:0.11518081 1292:0.068027474 1379:0.062564112 1388:0.079132378 1401:0.29795784 1497:0.089557879 1606:0.095261447 1658:0.072115563 1696:0.11032987 1720:0.083726048 1886:0.062564112 2050:0.10301525 2090:0.075342081 2230:0.089557879 2303:0.097551897 2361:0.10301525 2463:0.12143477 2552:0.19510379 2595:0.11518081 3208:0.085043982 3252:0.12143477 3297:0.11518081 3711:0.10636635 3731:0.12143477 3799:0.095261447 4066:0.13024923 4392:0.13024923 4393:0.13024923 4394:0.14531764 4395:0.14531764 4396:0.14531764 #
-0.32921247361722888458146485390898 1:0.035159875 2:0.028546477 10:0.0045169597 12:0.0093918368 22:0.001892801 24:0.034960143 25:0.0020100672 29:0.034036234 34:0.059104197 35:0.064549208 51:0.093621366 66:0.069065027 71:0.052491106 73:0.011372876 82:0.12180582 90:0.0047320025 91:0 92:0.00050062605 94:0.010299804 95:0.0015037626 96:0.0044137337 97:0.00037523458 98:0.00062696129 100:0.034036234 101:0.0015018781 103:0.022314355 105:0.011372876 106:0.016989904 107:0.0098463856 108:0.057758883 110:0.018632958 111:0.016694045 113:0.095696352 150:0.069314718 186:0.067334458 193:0.17646308 211:0.080785379 215:0.052669998 217:0.044316456 218:0.1018185 219:0.068324588 225:0.052669998 226:0.047721192 228:0.041173473 264:0.067825854 269:0.13035372 278:0.089338593 301:0.082059331 319:0.085050255 323:0.077735648 357:0.075991288 381:0.20227772 417:0.1417232 455:0.053029712 481:0.132963 492:0.053756997 515:0.16417071 637:0.073483795 643:0.16762036 648:0.32188758 651:0.11151322 829:0.14502111 882:0.11389463 886:0.079850771 899:0.14855199 962:0.21910132 1007:0.17745587 1039:0.19882807 1260:0.14978661 1297:0.16943875 1377:0.2537587 1526:0.189712 1534:0.15791257 1613:0.2537587 2007:0.29957321 2816:0.12474785 3012:0.20998526 3379:0.29957321 3628:0.29957321 3987:0.2537587 3988:0.33423057 3989:0.33423057 #
-2.2368203596604137040060322760837 2:0.024294874 3:0.0090025542 5:0.021861084 10:0.00096105528 13:0.010471128 17:0.0092886994 18:0.011635844 19:0.05064993 21:0.044457275 22:0.0024163418 24:0.0049588857 25:0.0025660433 29:0.028967006 37:0.054073978 43:0.017227255 49:0.0096205045 50:0.037545335 58:0.06171111 63:0.18689153 69:0.05064993 71:0.022336641 73:0.0096790437 75:0.15489742 88:0.074808247 90:0.0032217889 91:0 92:0.0012249361 93:0.031154381 94:0.01168772 95:0.0012797979 96:0.00037563691 97:0.00053224759 98:0.00093377213 100:0.028967006 101:0.00021303236 103:0.037981883 104:0.025324671 105:0.0096790437 106:0.014459493 107:0.0083799027 108:0.024578249 110:0.0079289181 111:0.021311548 116:0.019543758 122:0.072904579 124:0.073735066 125:0.026895249 130:0.016464151 138:0.038498178 168:0.011452818 202:0.021443786 217:0.0047145165 218:0.021663511 226:0.013537927 228:0.0087603135 232:0.024410158 252:0.024747889 271:0.039495703 278:0.038016424 284:0.096931592 286:0.034782037 287:0.13401985 290:0.02876368 300:0.01795681 303:0.034782037 323:0.033079002 388:0.037545335 389:0.081443705 391:0.083234534 449:0.040364254 507:0.086075626 508:0.070390373 510:0.055469666 530:0.091206729 536:0.074607618 539:0.080728509 561:0.069859877 608:0.06171111 625:0.043408953 637:0.031269703 687:0.040187683 713:0.039495703 754:0.052138411 770:0.12642722 785:0.054760382 824:0.086075626 899:0.063213609 1002:0.091206729 1104:0.074607618 1347:0.083234534 1379:0.061232962 1497:0.087652393 1582:0.072904579 1606:0.093234606 1705:0.10410324 1751:0.057751484 1780:0.11885105 1859:0.077448711 1954:0.13439366 1986:0.087652393 2000:0.074607618 2208:0.20164688 2228:0.14580916 2356:0.11273016 2872:0.12747797 2875:0.11885105 3230:0.10798242 3270:0.12747797 3393:0.079578146 3537:0.11885105 3711:0.10410324 3787:0.14580916 3799:0.27970383 3860:0.10410324 3898:0.14222579 3899:0.11273016 3900:0.11885105 3901:0.14222579 3902:0.14222579 3903:0.11885105 3904:0.14222579 #
-0.13917558430787879686363339715172 1:0.11103119 3:0.066808425 5:0.018025806 10:0.0063395929 11:0.044941489 12:0.0098861437 13:0.012951132 15:0.099848419 22:0.0049810554 25:0.0021158601 29:0.071655229 34:0.031107472 46:0.084379338 64:0.100733 69:0.12529193 70:0.13545989 73:0.017957173 88:0.037010394 90:0.0049810554 91:0 92:0.0018444117 94:0.014455865 95:0.0010552719 96:0.00650445 97:0.00052664499 98:0.0019798777 99:0.096927471 100:0.071655229 101:0.0011856933 105:0.017957173 106:0.026826164 107:0.020729233 108:0.030399412 111:0.0087863393 114:0.057363175 130:0.040727109 150:0.072962858 158:0.064475067 168:0.028330656 215:0.055442102 219:0.071920618 225:0.055442102 226:0.016744278 228:0.021670248 239:0.13376194 246:0.093649313 253:0.16036977 255:0.13167261 271:0.097699896 280:0.11440801 295:0.16941452 304:0.050237469 310:0.15077245 319:0.089526586 331:0.18913522 347:0.083087698 382:0.13545989 389:0.100733 407:0.066530354 408:0.089526586 452:0.35288498 476:0.15900263 486:0.10395166 532:0.11214394 558:0.16622375 608:0.1526538 611:0.092112519 613:0.14807425 625:0.10738004 710:0.091735229 740:0.15767013 742:0.24777667 770:0.15637051 812:0.22561665 851:0.24237739 1294:0.12458545 1552:0.27885881 1605:0.25751853 1653:0.23617826 1691:0.24940534 1837:0.27885881 2060:0.29399997 2242:0.23063298 2600:0.23063298 2808:0.55771762 3080:0.20589595 3116:0.2671144 3170:0.17108551 3171:0.27885881 3172:0.27885881 3173:0.35182166 3174:0.29399997 #
-0.64874636435174293236372022875003 2:0.021958828 3:0.016273849 5:0.013172704 10:0.0034745845 11:0.049262784 12:0.01444898 13:0.0063095256 18:0.042068053 21:0.16073014 22:0.0043680021 24:0.080677256 25:0.004252065 29:0.15709031 41:0.073288009 43:0.031141577 66:0.10625389 72:0.085334755 73:0.0087483665 84:0.072966151 90:0.0080080042 91:0 92:0.0016366621 94:0.021127803 95:0.0019279007 96:0.004753252 97:0.00081781892 98:0.0014468337 100:0.15709031 101:0.00086646818 103:0.017164888 105:0.0087483665 110:0.021499567 111:0.032103933 114:0.041919243 116:0.023552734 125:0.048618335 150:0.15995704 186:0.025897868 196:0.17808953 205:0.085779399 217:0.05113437 223:0.029658027 226:0.012236203 228:0.01583595 252:0.044736568 263:0.081862375 264:0.026086869 274:0.096547097 286:0.062875219 287:0.040377773 303:0.062875219 304:0.036711998 305:0.057801083 309:0.065687612 310:0.11017987 317:0.051995881 323:0.059796654 327:0.1481307 357:0.058454838 390:0.089473136 450:0.058896929 475:0.10367799 476:0.11619423 492:0.12405461 510:0.10027209 611:0.067312993 629:0.1192728 631:0.10297225 634:0.14187998 651:0.085779399 664:0.2385456 670:0.10741506 674:0.078101978 680:0.10159848 823:0.24294239 863:0.069592863 867:0.090031013 882:0.087611251 886:0.061423671 899:0.11427075 1117:0.195199 1273:0.17712194 1274:0.390398 1275:0.25710046 1276:0.25710046 1277:0.25710046 1278:0.1481307 1279:0.23044094 1280:0.23044094 1281:0.25710046 1282:0.21484613 1283:0.1481307 1284:0.16152711 1285:0.18818663 1286:0.21484613 1287:0.23044094 1288:0.1459323 1289:0.23044094 1290:0.25710046 1291:0.25710046 1292:0.12035629 #
-0.51036976737302364171000590431504 1:0.033485595 5:0.016309062 11:0.020330673 12:0.0089446064 13:0.003905897 18:0.026042128 22:0.0027040015 24:0.044393834 25:0.0019143497 29:0.032415461 34:0.084434569 43:0.038556237 51:0.089163207 65:0.26599997 66:0.49332166 71:0.049991529 73:0.010831311 78:0.26599997 88:0.033485595 90:0.0027040015 91:0 92:0.00059598341 94:0.021253563 95:0.0014321548 96:0.005044267 97:0.0004169273 98:0.00089565897 100:0.032415461 101:0.00059598341 102:0.054073125 105:0.010831311 107:0.018755021 108:0.02750423 110:0.0088728368 116:0.029160528 166:0.096697688 168:0.025632499 185:0.13497448 192:0.056350168 211:0.07693845 215:0.1003238 217:0.010551536 225:0.1003238 227:0.12255894 243:0.13299006 264:0.032298028 269:0.12414639 301:0.07815174 304:0.045452949 309:0.08132752 338:0.12836322 355:0.15156834 357:0.072372653 370:0.15635307 408:0.081000246 424:0.12836322 461:0.091544658 492:0.15359142 496:0.17112234 604:0.099021025 648:0.1532798 668:0.18339992 727:0.15181449 878:0.14265391 1064:0.16503504 1145:0.16697894 1179:0.13299006 1224:0.24167494 1292:0.14901255 1335:0.23299296 1503:0.14509645 1593:0.20866793 1672:0.15479164 1952:0.15796742 2080:0.15181449 2246:0.25230083 2651:0.25230083 2847:0.23299296 3294:0.25230083 3447:0.26599997 3590:0.26599997 3981:0.31831485 3982:0.31831485 #
0.93465859621758273778624470651266 1:0.052088704 10:0.0033458963 11:0.015812745 12:0.020870749 13:0.0060758395 17:0.016169216 22:0.0042062243 24:0.043160673 25:0.0029778774 29:0.025212025 44:0.040643077 69:0.088168398 71:0.0388823 73:0.012636529 87:0.10195504 88:0.026044352 90:0.004907262 91:0 92:0.00055625115 94:0.0089010652 95:0.00074259879 96:0.0052310918 97:0.00060222833 98:0.0016254552 99:0.045472149 100:0.025212025 101:0.00055625115 103:0.016529152 105:0.012636529 106:0.0062925569 107:0.043761712 108:0.02139218 110:0.013802191 112:0.051159512 113:0.070886187 116:0.022680411 117:0.12910883 124:0.042784542 137:0.09849111 150:0.051344234 160:0.10195141 166:0.075209312 168:0.039872777 185:0.10498016 186:0.024938688 209:0.10742304 212:0.090226538 217:0.0082067512 219:0.050610807 226:0.01178301 264:0.025120689 265:0.11384051 272:0.092971273 278:0.066176735 286:0.06054651 287:0.0388823 290:0.050070107 297:0.11589865 303:0.06054651 357:0.056289844 449:0.070263706 455:0.1178438 495:0.077764601 508:0.061265696 532:0.078916103 570:0.14052741 611:0.064819917 625:0.075563736 671:0.10195504 682:0.091848858 750:0.19064724 825:0.16101868 863:0.06701535 899:0.1100385 1032:0.099158466 1052:0.18121675 1069:0.13662517 1111:0.12987252 1165:0.12690797 1217:0.13852492 1327:0.12987252 1473:0.10268847 1658:0.12286355 2004:0.13309516 2265:0.14983535 2723:0.1879694 2847:0.18121675 3091:0.19623397 3457:0.25381595 5271:0.24757822 5272:0.24757822 5273:0.24757822 #
0.79058612032934572066977807480725 1:0.06697119 2:0.013593561 3:0.010074287 5:0.040772654 7:0.049273599 10:0.0039433776 11:0.010165337 12:0.031306121 13:0.021482432 14:0.071326956 17:0.041577987 18:0.039063189 22:0.0031546683 24:0.033295374 25:0.0016750559 29:0.048623189 40:0.087830462 43:0.019278118 44:0.026127692 49:0.010765803 50:0.08403004 51:0.044581603 64:0.091139384 73:0.0081234835 88:0.033485595 90:0.0063093365 91:0 92:0.0013111634 94:0.0040872237 95:0.0022675784 96:0.0088274674 97:0.00059561041 98:0.0010449355 100:0.048623189 101:0.00077477843 103:0.010625883 104:0.0094465036 105:0.0081234835 106:0.01618086 107:0.018755021 108:0.013752115 110:0.013309255 111:0.007949545 116:0.014580264 117:0.041499268 120:0.047458664 125:0.030097065 130:0.018424168 139:0.052554164 150:0.066014014 168:0.025632499 189:0.045976702 207:0.035915762 211:0.038469225 215:0.025080951 217:0.036930379 221:0.033732228 222:0.066014014 223:0.018359732 224:0.047184743 225:0.025080951 226:0.0075747925 228:0.019606415 260:0.022267113 264:0.016149014 269:0.062073197 301:0.03907587 304:0.022726474 315:0.061673027 316:0.038922757 355:0.018946042 357:0.036186326 361:0.049273599 363:0.044971932 390:0.027694067 407:0.030097065 412:0.043263745 423:0.058692954 431:0.084502801 454:0.081583694 455:0.050504487 461:0.045772329 486:0.094051503 508:0.078770183 523:0.078176536 558:0.15039292 565:0.054823454 604:0.049510513 613:0.066985972 614:0.06748724 637:0.034992285 655:0.079819217 661:0.07192976 674:0.048348844 681:0.066495031 785:0.061279472 853:0.088015705 973:0.063744724 974:0.059403736 988:0.061279472 1011:0.086668789 1027:0.080685116 1030:0.074506275 1104:0.08348947 1120:0.099992976 1125:0.08251752 1163:0.10206468 1229:0.10684255 1261:0.080685116 1307:0.07192976 1348:0.10964691 1405:0.12083747 1486:0.11282623 1492:0.11649648 1562:0.066985972 1571:0.11649648 1582:0.081583694 1589:0.087830462 1682:0.07192976 1741:0.079819217 1851:0.070165291 1856:0.076639898 2112:0.10684255 2206:0.078176536 2279:0.10433397 3444:0.10964691 3679:0.14265391 4286:0.091699958 4436:0.10684255 4460:0.25230083 4892:0.14265391 4971:0.12615041 5015:0.14265391 5253:0.14265391 5466:0.15915743 5467:0.15915743 5468:0.13299999 5469:0.15915743 5470:0.14265391 #
1.3244697559391580554688516713213 1:0.20091358 2:0.081561364 5:0.024463594 10:0.0053773331 11:0.030496011 12:0.01341691 13:0.0058588455 22:0.005408003 25:0.00071788114 34:0.084434569 46:0.11451481 73:0.0081234835 88:0.050228395 89:0.12604506 90:0.0067600035 91:0 92:0.00035759003 94:0.0024523342 95:0.0014321548 96:0.0063053342 97:0.00017868313 98:0.0017913179 101:0.0019667451 105:0.0081234835 156:0.1576625 157:0.23945765 166:0.14504653 167:0.14237599 186:0.048096038 192:0.08452525 211:0.11540768 219:0.19521311 226:0.045448754 228:0.029409623 289:0.2326237 290:0.19312756 304:0.068179421 305:0.3220346 317:0.096563779 417:0.20246172 461:0.13731699 532:0.15219535 604:0.14853154 611:0.12500985 1022:0.25046843 1186:0.207173 2240:0.33847868 3535:0.39899996 4897:0.39899996 4898:0.47747228 #
0.46311822295747762101569833248504 1:0.058599792 2:0.023788732 3:0.052890006 5:0.014270429 8:0.10656156 10:0.0043914886 12:0.0078265304 13:0.0068353196 18:0.022786861 22:0.0031546683 24:0.009711151 25:0.003768876 34:0.024626749 43:0.03373671 49:0.018840155 50:0.14705257 68:0.10934036 73:0.018954795 90:0.009464005 91:0 92:0.0015644564 93:0.061010662 94:0.0042915847 95:0.0016708473 96:0.0080918455 97:0.00078173866 98:0.0013061694 99:0.025578083 101:0.0012515651 103:0.07438118 104:0.016531382 105:0.018954795 107:0.016410643 108:0.072198607 110:0.038818661 111:0.013911705 116:0.025515461 158:0.051042758 160:0.057347666 163:0.13411982 166:0.084610477 168:0.022428436 169:0.091969788 186:0.028056024 188:0.086643398 198:0.033271153 202:0.04199408 207:0.062852584 211:0.067321144 217:0.083093353 218:0.042424377 221:0.059031397 223:0.03212953 226:0.03976766 228:0.034311228 232:0.095606454 234:0.053413931 260:0.11690234 261:0.12278926 264:0.028260773 274:0.10459269 278:0.074448831 287:0.04374259 290:0.056328874 300:0.070330836 304:0.03977133 309:0.14232317 319:0.070875213 390:0.048464619 449:0.079046667 450:0.063805006 453:0.081921369 455:0.044191428 494:0.092927687 533:0.10332996 604:0.086643398 611:0.072922409 614:0.11810267 650:0.092445984 651:0.092927687 671:0.11469942 680:0.11006502 715:0.074760944 722:0.11309666 849:0.11231782 882:0.094912186 886:0.066542305 1013:0.1478799 1502:0.1974459 1511:0.23620534 1644:0.19188209 1694:0.19188209 2206:0.13680893 2219:0.1716526 2550:0.17861319 2592:0.16300096 2914:0.16569006 3020:0.17861319 3170:0.27088538 4166:0.24964435 4450:0.23274998 5133:0.2785255 #
1.4959464776067332714148960803868 5:0.011048075 7:0.066757783 10:0.002428473 11:0.027544783 12:0.042414747 13:0.015875582 17:0.014082866 18:0.035282884 22:0.0024423238 24:0.022554932 25:0.0022694308 29:0.065876581 35:0.041644651 36:0.047408901 44:0.035398807 73:0.025680689 90:0.0085481331 91:0 92:0.00088820752 94:0.0011075058 95:0.0006467796 96:0.0068341685 97:0.00052452146 98:0.00080898235 99:0.039604776 100:0.065876581 101:0.00056522293 102:0.073260367 103:0.043189075 105:0.025680689 106:0.010961228 107:0.012705013 110:0.024042526 111:0.010770352 116:0.0098769534 160:0.044398196 166:0.065504886 167:0.064298831 168:0.034727901 170:0.21686006 192:0.038172696 193:0.056923576 198:0.025758313 217:0.04288689 221:0.091403455 228:0.039845295 252:0.037520994 260:0.090505041 264:0.021879308 286:0.052734055 300:0.027224841 303:0.052734055 310:0.046204463 324:0.10931532 371:0.095062651 401:0.11153449 407:0.12233 410:0.082499266 429:0.069419749 469:0.098291144 491:0.11742224 534:0.083023801 560:0.13050176 575:0.22162864 614:0.09143433 623:0.11592159 625:0.065813579 681:0.090090044 687:0.060929716 689:0.15783395 1032:0.086363822 1149:0.085211627 1179:0.090090044 1216:0.13828118 1217:0.12065073 1421:0.12423865 1463:0.10931532 1485:0.10187907 1856:0.1038347 2167:0.11592159 3170:0.10485885 3553:0.19327305 4597:0.19327305 5137:0.21563263 5138:0.21563263 5139:0.21563263 5140:0.21563263 #
-1.4113471197537201806682105598156 3:0.030222861 10:0.0075282664 12:0.026833819 13:0.011717691 17:0.062366977 18:0.039063189 24:0.049943063 25:0.0021536434 35:0.092213154 44:0.078383073 50:0.12604506 88:0.10045679 90:0.0027040015 91:0 92:0.0010727701 94:0.0049046683 95:0.0017901935 96:0.0037832004 97:0.00080407411 101:0.00053638505 103:0.031877652 106:0.024271291 110:0.02661851 111:0.035772953 112:0.098664775 217:0.031654611 223:0.055079196 260:0.066801339 263:0.076015063 301:0.11722761 304:0.068179421 310:0.20461975 385:0.1464202 461:0.13731699 495:0.14997458 508:0.11815527 571:0.16908026 586:0.14924942 604:0.14853154 632:0.15847883 634:0.26349139 750:0.18383841 856:0.207173 1512:0.22351883 2108:0.37845123 2123:0.2942616 2405:0.28896818 3170:0.23218746 3276:0.47747228 #
-1.6818873120804087584190256166039 1:0.12229522 2:0.024823023 3:0.036793046 5:0.029781766 10:0.0019638955 11:0.018562788 12:0.040834073 13:0.0071325074 17:0.037962507 22:0.0041147848 24:0.010133375 25:0.0013109134 29:0.029596724 31:0.12417262 32:0.12417262 34:0.025697477 35:0.056129746 73:0.0098894583 90:0.0057606986 91:0 92:0.00097948569 95:0.0017434928 96:0.0069084531 97:0.00038067275 98:0.0016355512 99:0.026690174 100:0.029596724 101:0.00076182222 103:0.019403787 105:0.0098894583 106:0.014773829 107:0.008562074 112:0.12011363 116:0.013312415 130:0.033644132 139:0.19193695 141:0.11409429 160:0.059841044 186:0.029275849 192:0.051450152 202:0.043819908 211:0.070248157 215:0.045799997 218:0.044268914 219:0.059412684 224:0.043081719 225:0.045799997 226:0.027664458 244:0.080362163 252:0.050571773 255:0.054386511 260:0.040661685 287:0.04564444 295:0.13995112 304:0.04150052 319:0.073956743 355:0.10379136 401:0.075164549 407:0.054959856 455:0.046112791 495:0.09128888 515:0.14275715 520:0.096465372 611:0.076092951 625:0.088705257 680:0.11485045 746:0.17289399 973:0.11640342 1022:0.15245904 1058:0.17008796 1064:0.15068416 1148:0.19052289 1149:0.11485045 1367:0.20022479 1475:0.18259588 1512:0.13605495 1781:0.22065973 1861:0.15826476 2034:0.18259588 2473:0.19052289 2656:0.26049846 2680:0.15068416 2749:0.24286954 2750:0.23036163 2751:0.16261621 #
-1.9147052164463285173212625522865 1:0.031675562 2:0.010287018 3:0.015247569 5:0.0092564952 6:0.026988579 10:0.0031198221 11:0.030770749 12:0.013537783 13:0.0081284884 17:0.0078661051 18:0.0098537775 21:0.018824251 22:0.0032399297 24:0.033595335 25:0.0018108713 29:0.05519389 31:0.025729463 32:0.025729463 34:0.015974106 35:0.011630489 36:0.039720971 41:0.034333121 43:0.0072944234 44:0.019772308 49:0.012220641 50:0.031795148 59:0.027077986 61:0.018824251 66:0.043554522 71:0.028373571 73:0.0071720844 90:0.0054567237 91:0 92:0.00081182603 93:0.052765977 94:0.0055674613 95:0.0011289509 96:0.0039763367 97:0.00049580546 98:0.0011296601 99:0.033182379 100:0.05519389 101:0.00054121733 102:0.030690152 103:0.032164834 104:0.017871764 105:0.0071720844 106:0.013775597 107:0.010644741 108:0.010407006 110:0.013429158 111:0.004511904 112:0.024888411 114:0.019637844 115:0.045722287 116:0.0027584282 117:0.031404853 124:0.031221153 125:0.011388078 130:0.034856535 138:0.032602061 144:0.023186827 145:0.020092472 150:0.024978276 157:0.030201867 158:0.022072544 159:0.019101473 160:0.037198488 163:0.086996645 170:0.015141129 181:0.018294157 189:0.034793179 192:0.010660842 196:0.020857332 198:0.028775051 202:0.0090798009 207:0.013589747 208:0.018644065 209:0.026129929 210:0.021325437 211:0.014555924 212:0.021946995 213:0.021946995 215:0.018980179 217:0.019962367 218:0.027518515 219:0.024621472 223:0.034734625 224:0.026780529 225:0.018980179 226:0.014330688 232:0.010335833 234:0.023097916 244:0.016651619 255:0.033807829 258:0.030869506 259:0.032374498 260:0.025276182 263:0.019174971 264:0.0061104377 270:0.027450681 271:0.033446811 278:0.032194089 283:0.031222846 286:0.014727529 287:0.028373571 299:0.02364116 300:0.0076033338 302:0.040016353 303:0.014727529 307:0.037114076 309:0.015386288 317:0.012179215 319:0.03064874 347:0.042666655 352:0.091444574 355:0.014337545 370:0.02958031 371:0.026549028 377:0.023040336 390:0.010478836 406:0.036446437 407:0.06832847 408:0.01532437 439:0.031222846 448:0.047914594 450:0.027591353 453:0.017712729 455:0.028664708 471:0.049599748 483:0.032793596 492:0.038743783 495:0.018915715 510:0.046974313 540:0.027216667 542:0.032879267 551:0.024978276 553:0.026988579 566:0.074228153 573:0.033695251 575:0.020632096 599:0.024624936 611:0.015767008 615:0.023957297 616:0.044079751 617:0.048239253 637:0.026480649 641:0.053977158 651:0.040184945 661:0.027216667 687:0.017016407 696:0.029885728 710:0.015702426 734:0.027690936 740:0.026988579 741:0.05916062 744:0.033233147 747:0.042412221 753:0.037835181 766:0.027937774 790:0.032374498 826:0.052674085 834:0.044079751 844:0.021568939 849:0.072854802 850:0.030529503 863:0.01630103 867:0.021088345 882:0.020521553 894:0.053977158 933:0.035243452 936:0.027937774 954:0.032793596 988:0.023186827 1012:0.033233147 1022:0.031590611 1029:0.023797842 1047:0.039477717 1070:0.038619068 1078:0.044079751 1101:0.028998882 1119:0.05916062 1123:0.033695251 1139:0.070486903 1145:0.031590611 1186:0.026129929 1232:0.037835181 1252:0.036446437 1261:0.030529503 1283:0.034697283 1288:0.034182344 1294:0.06397631 1307:0.027216667 1332:0.03582488 1344:0.050324321 1362:0.050324321 1391:0.031590611 1461:0.04042691 1485:0.028452713 1516:0.034182344 1582:0.030869506 1586:0.03582488 1697:0.042691004 1722:0.034697283 1773:0.044079751 1805:0.042691004 1846:0.038619068 1853:0.044079751 1934:0.032374498 1987:0.045722287 2009:0.050324321 2010:0.050324321 2030:0.038619068 2207:0.037835181 2256:0.045722287 2372:0.047732588 2415:0.026129929 2455:0.037835181 2557:0.042691004 2616:0.04042691 2646:0.047732588 2785:0.053977158 2867:0.047732588 3218:0.053977158 3230:0.045722287 3306:0.053977158 3309:0.050324321 3349:0.053977158 3457:0.030869506 3463:0.050324321 3500:0.060221728 3501:0.060221728 3502:0.053977158 3503:0.060221728 3504:0.060221728 3505:0.060221728 3506:0.044079751 3507:0.060221728 3508:0.060221728 3509:0.053977158 3510:0.050324321 3511:0.053977158 3512:0.045722287 3513:0.060221728 3514:0.060221728 3515:0.060221728 3516:0.060221728 3517:0.060221728 3518:0.060221728 3519:0.10064864 3520:0.060221728 3521:0.060221728 3522:0.050324321 #
-1.5986400022262172715414862977923 1:0.060274072 2:0.032624546 3:0.024178289 4:0.07547316 5:0.019570874 10:0.0030113065 13:0.0093741529 15:0.054203428 22:0.0048672026 24:0.019977225 25:0.0028715245 29:0.019449277 34:0.050660741 35:0.036885262 49:0.038756888 66:0.019732866 68:0.074976251 73:0.0032493933 90:0.003785602 91:0 92:0.0011442881 94:0.0088284034 95:0.0011457239 96:0.0035309871 97:0.00071473251 98:0.0016121862 99:0.017539257 100:0.019449277 101:0.00092973409 103:0.038253181 104:0.034007415 105:0.0032493933 106:0.0097085163 107:0.02813253 108:0.066010155 110:0.015971107 111:0.0095394542 116:0.034992635 120:0.056950394 124:0.033005219 163:0.091967881 168:0.015379499 196:0.066147536 198:0.04562901 217:0.0063309222 221:0.040478673 223:0.022031678 226:0.018179502 228:0.011763849 229:0.18047149 232:0.065558709 234:0.036626697 260:0.05344107 265:0.087819822 278:0.051050626 287:0.089984752 289:0.13957421 290:0.038625512 300:0.048226859 304:0.05454354 305:0.042937949 310:0.040923953 323:0.088840745 328:0.046891045 355:0.022735251 406:0.11558727 407:0.036116477 412:0.051916495 429:0.061486065 449:0.054203428 455:0.060605384 466:0.15959999 468:0.092874989 492:0.030718284 499:0.063721843 501:0.1383961 506:0.10267341 540:0.086315714 565:0.065788142 594:0.090235747 642:0.11770464 674:0.05801861 727:0.09108869 741:0.09381184 778:0.13539147 789:0.072613627 790:0.10267341 791:0.1711847 792:0.087819822 793:0.10840686 794:0.082227118 795:0.15959999 796:0.12821107 797:0.19098891 798:0.1711847 799:0.11558727 800:0.12821107 801:0.062422916 802:0.089407533 803:0.091967881 804:0.10400255 805:0.1711847 806:0.19098891 807:0.19098891 808:0.14500497 809:0.19098891 810:0.10686208 811:0.19098891 812:0.12247761 813:0.13539147 814:0.19098891 815:0.19098891 816:0.13979578 817:0.19098891 818:0.13157628 819:0.089407533 #
-0.2557368015456121801420863448584 1:0.10045679 2:0.040780682 3:0.030222861 5:0.048927188 7:0.2956416 10:0.0032263999 11:0.030496011 12:0.01341691 13:0.011717691 17:0.031183489 18:0.078126378 24:0.066590749 25:0.0028715245 26:0.19254483 31:0.20399788 39:0.19804205 43:0.057834357 69:0.17003904 90:0.004056002 91:0 92:0.0016091551 93:0.20917942 94:0.012261671 95:0.0007160774 96:0.0037832004 97:0.00053604937 99:0.043848142 101:0.00035759003 116:0.021870395 130:0.055272505 141:0.18744062 142:0.20399788 183:0.37989429 188:0.14853154 198:0.057036266 224:0.070777111 228:0.029409623 250:0.14172366 310:0.10230988 317:0.096563779 355:0.056838125 428:0.27509987 429:0.15371516 539:0.27101713 1307:0.21578929 1635:0.50093687 1809:0.39899996 1834:0.47747228 1835:0.24755256 1836:0.47747228 1837:0.37845123 #
2.7432529438837747193247196264565 3:0.033185884 4:0.051795304 5:0.026861984 10:0.0051664575 11:0.016742907 12:0.0036830732 13:0.0096498625 16:0.045898162 17:0.0085601732 21:0.04097043 22:0.0014845498 24:0.031989675 25:0.0019706541 29:0.12012788 49:0.0088659553 50:0.034600604 56:0.065045409 64:0.037527982 66:0.081252977 67:0.092915714 69:0.046677385 71:0.061754242 73:0.0089199031 88:0.013788187 90:0.0063093365 91:0 92:0.0015705915 94:0.013463796 95:0.00098285137 96:0.0013847008 97:0.00046597756 98:0.00073760154 99:0.036110234 100:0.12012788 101:0.00049080985 102:0.022265404 103:0.026252182 104:0.0077794739 105:0.0089199031 106:0.016656768 111:0.019640053 114:0.021370595 116:0.024014553 122:0.067186572 124:0.067951918 150:0.10872897 158:0.096080489 160:0.026987137 170:0.065908447 181:0.079633385 186:0.013202834 189:0.075726338 192:0.02320301 202:0.03952384 213:0.047766991 215:0.0206549 217:0.026068503 219:0.026793955 221:0.027779482 223:0.045359336 224:0.077716045 225:0.0206549 232:0.022495637 252:0.022806879 287:0.12350848 300:0.016548432 301:0.03218013 304:0.01871592 305:0.029467219 310:0.028085064 317:0.026507705 321:0.040773362 328:0.03218013 355:0.015602623 363:0.037035711 374:0.11651136 385:0.040193778 388:0.034600604 390:0.022806879 407:0.074357457 408:0.066706084 449:0.18599215 452:0.065733477 453:0.038551234 486:0.03872709 489:0.058739848 527:0.10359061 542:0.035780378 548:0.056430377 587:0.1042847 608:0.056871023 609:0.14766026 625:0.040004332 626:0.044426885 632:0.17401597 633:0.14414737 651:0.087461352 653:0.045148727 710:0.068351738 713:0.036398001 819:0.061358113 826:0.1146436 846:0.079324596 867:0.045898162 933:0.15341267 941:0.07333672 986:0.09593828 1002:0.084053263 1018:0.077971794 1032:0.052495658 1033:0.067955606 1074:0.072330967 1182:0.097841449 1196:0.20386682 1197:0.082347162 1217:0.07333672 1240:0.15341267 1283:0.075517617 1297:0.066446565 1299:0.07333672 1394:0.087987982 1437:0.052855443 1562:0.055164915 1604:0.060805742 1644:0.090297453 1730:0.072330967 1886:0.056430377 2030:0.084053263 2140:0.084053263 2274:0.074396864 2303:0.087987982 2335:0.09951321 2787:0.09951321 2895:0.07333672 2963:0.09593828 3321:0.1174797 3328:0.071374297 3484:0.10388858 5219:0.13107082 5220:0.13107082 5221:0.13107082 5222:0.13107082 #
0.16756433995659775204600805409427 2:0.023788732 5:0.014270429 10:0.0050188443 11:0.01778934 13:0.013670639 17:0.018190369 18:0.091147445 22:0.00078866706 24:0.048555758 25:0.002931348 43:0.03373671 49:0.056520462 66:0.057554193 71:0.13122776 73:0.0094773974 80:0.3948918 88:0.058599792 90:0.0039433353 91:0 92:0.0014601593 94:0.010013698 95:0.0010442795 96:0.0014712446 97:0.0008338546 98:0.00026123389 99:0.025578083 101:0.00052148546 103:0.07438118 104:0.049594145 105:0.0094773974 106:0.056633011 107:0.0082053216 108:0.048132405 110:0.031054929 111:0.020867556 112:0.05755445 116:0.012757731 124:0.19253044 159:0.088344313 160:0.057347666 181:0.084610477 189:0.08045923 215:0.13167499 217:0.0092325946 218:0.042424377 224:0.041286651 225:0.13167499 226:0.026511773 232:0.047803227 234:0.053413931 263:0.044342119 271:0.077345751 287:0.087485179 292:0.1478799 300:0.035165418 310:0.059680764 319:0.070875213 355:0.033155575 387:0.10332996 492:0.089594997 508:0.068923905 586:0.087062165 625:0.085009202 637:0.061236497 715:0.074760944 775:0.14440566 785:0.10723908 793:0.15809333 802:0.13038598 886:0.066542305 943:0.1269594 972:0.087062165 1029:0.11006502 1174:0.21146558 1261:0.14119895 1398:0.15809333 1506:0.086228803 1539:0.12180882 1597:0.1716526 1830:0.22076322 1835:0.14440566 1886:0.11991455 2066:0.16856477 2090:0.14440566 2290:0.21146558 2321:0.1974459 2360:0.20386885 2825:0.23274998 3080:0.16300096 3246:0.21146558 4352:0.23274998 4357:0.20386885 5030:0.23274998 5619:0.2785255 5620:0.2785255 5621:0.2785255 5622:0.2785255 #
2.3970054814054000402734345698263 5:0.014471422 10:0.0031809576 11:0.048106384 13:0.0069315918 14:0.042193413 17:0.012297714 18:0.0077026011 22:0.0021327336 24:0.042674355 25:0.0029726345 26:0.075933173 29:0.0095876716 31:0.040224936 32:0.040224936 34:0.0083245346 41:0.080513589 44:0.015455818 46:0.04516077 49:0.031842515 50:0.024853954 51:0.026372217 57:0.036249828 63:0.03092923 66:0.029182406 71:0.014786227 72:0.09374804 73:0.009610882 75:0.051268864 82:0.1029345 84:0.02672 87:0.038771637 88:0.029712571 90:0.0042654672 91:0 92:0.00095189462 94:0.011605413 95:0.0014119836 96:0.00074598315 97:0.00065181591 98:0.0007064353 99:0.017292226 100:0.0095876716 101:0.00045831961 103:0.037714403 104:0.055880729 105:0.009610882 106:0.014357665 107:0.0083208894 108:0.0081350543 110:0.015746161 111:0.016458917 112:0.019455025 114:0.015350709 116:0.025874835 124:0.081350893 126:0.042193413 130:0.010898804 138:0.12742355 139:0.093265139 145:0.031412177 150:0.019525273 158:0.10352334 160:0.019385127 182:0.043291461 192:0.016666951 195:0.053440001 196:0.032607943 205:0.031412177 206:0.066742279 210:0.033339769 217:0.0062417542 218:0.014340634 221:0.019954275 223:0.021721372 226:0.013442589 228:0.017397242 234:0.018055413 251:0.042193413 252:0.032764811 260:0.013172095 264:0.019105876 286:0.069074184 287:0.044358682 288:0.070710547 289:0.022934731 290:0.019040745 300:0.023773804 303:0.069074184 328:0.023115305 341:0.061718684 363:0.053206231 384:0.043677364 388:0.049707908 390:0.032764811 401:0.02434908 403:0.048260778 418:0.060376287 447:0.058023416 449:0.02672 450:0.021567889 453:0.027691731 461:0.027076589 492:0.045428447 499:0.031412177 548:0.040534496 560:0.056979638 580:0.066742279 586:0.029429464 599:0.038498141 615:0.037454367 625:0.028735505 629:0.043677364 637:0.020699661 643:0.047217004 648:0.04533628 650:0.031249346 698:0.054245047 710:0.12274431 715:0.025271304 749:0.068913415 799:0.056979638 867:0.032969102 878:0.042193413 885:0.045783445 886:0.022493174 910:0.039625503 911:0.04117481 1003:0.099975139 1030:0.044074137 1068:0.061718684 1126:0.052678488 1283:0.10849009 1295:0.04117481 1315:0.054245047 1379:0.081068993 1398:0.053440001 1429:0.048813183 1507:0.066742279 1679:0.04533628 1694:0.064861551 1741:0.047217004 1751:0.038229857 1762:0.068913415 1817:0.049987569 1837:0.074624188 1870:0.074624188 1906:0.084386826 1952:0.046722759 1954:0.08896482 1992:0.063202634 2011:0.063202634 2080:0.044902876 2219:0.058023416 2322:0.063202634 2330:0.084386826 2439:0.074624188 2642:0.071481325 2717:0.066742279 3012:0.11830155 3051:0.071481325 3356:0.059150774 3374:0.074624188 3446:0.078676045 3583:0.074624188 3810:0.084386826 3909:0.064861551 3935:0.066742279 4136:0.066742279 5072:0.084386826 5261:0.084386826 5333:0.084386826 5344:0.084386826 5514:0.094149463 5515:0.094149463 5516:0.094149463 5517:0.094149463 5518:0.094149463 5519:0.094149463 5520:0.094149463 5521:0.094149463 5522:0.094149463 #
0.37226415171853488583764146824251 2:0.06343662 3:0.047013339 10:0.0050188443 11:0.047438238 13:0.0091137597 17:0.048507649 21:0.69649732 22:0.0042062243 24:0.025896404 25:0.0044668159 34:0.13134266 49:0.050240412 66:0.076738924 71:0.1166469 90:0.0021031122 91:0 92:0.00055625115 94:0.01907371 95:0.0033416946 96:0.0058849785 97:0.0012507819 98:0.0013932473 101:0.0022250046 103:0.049587455 104:0.088167369 107:0.021880856 108:0.064176537 110:0.041406572 112:0.15347853 124:0.12835363 125:0.14045297 138:0.20104605 186:0.074816063 189:0.21455795 208:0.22994347 220:0.26154205 223:0.085678749 224:0.11009773 234:0.14243715 302:0.16451167 328:0.18235406 357:0.16886953 565:0.25584278 626:0.25175235 794:0.31977212 801:0.24275579 867:0.26008958 929:0.48689184 1032:0.2974754 1203:0.5265224 1260:0.33285913 1261:0.37653053 1284:0.46663389 1342:0.44950604 1565:0.49859858 1715:0.51168555 1780:0.62066662 2018:0.46663389 #
1.0613454735319498567491791618522 2:0.030048924 5:0.018025806 10:0.0055471435 12:0.0098861437 13:0.0086340876 22:0.0019924222 24:0.036800154 25:0.0026448253 29:0.10748284 34:0.031107472 49:0.095192358 72:0.11677387 73:0.011971449 90:0.0059772665 91:0 92:0.00065871846 95:0.00079145399 96:0.0055752429 97:0.00059247564 98:0.00065995927 100:0.10748284 101:0.00065871846 104:0.083526984 105:0.011971449 106:0.0089420546 108:0.030399412 110:0.01961364 111:0.0087863393 114:0.057363175 130:0.040727109 139:0.11617237 158:0.12895013 181:0.10687639 189:0.10163271 198:0.042026721 217:0.034986675 224:0.10430311 228:0.021670248 232:0.060383026 287:0.11050759 300:0.044419479 323:0.081827 424:0.14187515 469:0.16036977 493:0.23063298 494:0.11738234 586:0.10997326 611:0.092112519 626:0.11925111 710:0.18347046 713:0.097699896 715:0.094434872 746:0.20929271 754:0.12897396 927:0.10118093 936:0.16321541 1004:0.24237739 1101:0.33882904 1106:0.17459558 1120:0.2210371 2228:0.1803429 2680:0.36481431 2754:0.20270517 3209:0.29399997 3260:0.31534025 3561:0.31534025 4507:0.31534025 4941:0.35182166 #
-1.8987016407139485352217889158055 2:0.03171831 5:0.019027239 10:0.0041823704 12:0.020870749 13:0.013670639 16:0.13004479 17:0.024253825 22:0.0031546683 24:0.051792808 25:0.00279176 46:0.089067079 51:0.10402374 66:0.076738924 71:0.05832345 73:0.012636529 90:0.0052577807 91:0 92:0.00083437673 94:0.005722113 95:0.0022277965 96:0.0029424892 97:0.00069487881 98:0.0010449355 101:0.00083437673 103:0.07438118 105:0.012636529 107:0.032821286 108:0.064176537 111:0.0092744697 113:0.10632928 116:0.017010309 124:0.064176813 125:0.070226483 168:0.029904582 186:0.037408032 189:0.10727897 207:0.083803445 211:0.089761533 221:0.078708529 222:0.15403271 224:0.055048864 226:0.017674515 228:0.02287415 242:0.15747023 252:0.19385847 260:0.1039132 264:0.037681032 271:0.10312767 272:0.13945691 280:0.12076401 287:0.1166469 288:0.27891383 300:0.18754891 309:0.094882108 319:0.094500281 387:0.13777329 439:0.19254088 479:0.1133456 492:0.11945999 510:0.14483745 534:0.28597087 615:0.14773667 625:0.1133456 664:0.17228293 687:0.10493451 713:0.10312767 715:0.099681258 801:0.12137789 853:0.10268499 867:0.13004479 915:0.15866502 974:0.13860872 1283:0.21396658 1388:0.20222719 1736:0.1754584 3394:0.33285913 3395:0.37136731 3396:0.37136731 #
-0.66931175723743041583446711229044 2:0.030048924 3:0.044538952 10:0.0039622453 12:0.039544575 13:0.0043170438 17:0.045954615 22:0.0049810554 24:0.036800154 25:0.0058186157 29:0.035827614 34:0.031107472 35:0.067946538 44:0.057755951 59:0.07909622 61:0.10997326 66:0.072700031 73:0.0059857243 88:0.037010394 90:0.00099621108 91:0 92:0.00079046219 94:0.0036139663 95:0.00052763597 96:0.0055752429 97:0.00078996754 98:0.0016498981 99:0.03230916 100:0.035827614 101:0.00092220586 105:0.0059857243 106:0.026826164 107:0.020729233 111:0.017572679 116:0.016115028 158:0.064475067 160:0.072439156 168:0.056661312 195:0.19969684 198:0.042026721 201:0.11214394 217:0.011662225 221:0.074565977 264:0.035697818 302:0.077926584 388:0.092875302 542:0.096042067 548:0.15147102 587:0.13996105 710:0.091735229 713:0.097699896 757:0.20929271 823:0.16622375 927:0.10118093 928:0.35182166 929:0.23063298 930:0.2671144 931:0.29399997 932:0.35182166 933:0.20589595 934:0.35182166 935:0.17835657 936:0.16321541 937:0.27885881 938:0.35182166 939:0.27885881 940:0.35182166 941:0.19685119 942:0.29399997 #
-2.6211958145180216384062532597454 1:0.050228395 3:0.030222861 5:0.012231797 10:0.0026886666 12:0.0067084548 13:0.0058588455 14:0.10699044 18:0.019531595 22:0.0033800018 24:0.0083238436 25:0.0021536434 29:0.024311595 34:0.042217284 35:0.046106577 36:0.052488428 43:0.028917179 49:0.016148703 57:0.091919206 71:0.037493646 72:0.079239413 73:0.0081234835 84:0.067754284 89:0.063022532 90:0.004056002 91:0 92:0.0010727701 94:0.0024523342 95:0.0007160774 96:0.0037832004 97:0.0004913786 98:0.0011195737 100:0.024311595 101:0.00044698754 102:0.040554844 103:0.015938826 104:0.028339513 105:0.0081234835 106:0.030339114 107:0.021099398 108:0.041256346 110:0.0066546276 111:0.017886477 116:0.021870395 117:0.062248904 125:0.045145597 129:0.084067084 130:0.027636252 138:0.06462194 139:0.078831248 159:0.0757237 166:0.072523266 168:0.038448747 198:0.028518133 215:0.037621427 217:0.015827306 223:0.027539598 224:0.035388555 225:0.037621427 228:0.014704811 258:0.12237554 260:0.03340067 264:0.024223519 287:0.037493646 288:0.089650877 300:0.030141788 357:0.054279491 363:0.067457899 382:0.091919206 389:0.13670908 407:0.045145597 424:0.096272416 449:0.067754284 455:0.037878364 503:0.16026382 522:0.10047895 551:0.099021025 642:0.1471308 682:0.088568538 713:0.066296354 742:0.084067084 792:0.10977478 846:0.14448409 867:0.16720045 1003:0.25350839 1113:0.14998947 1197:0.14998947 1213:0.16447036 1295:0.10440756 1459:0.10610856 1778:0.11609373 1988:0.12675419 1998:0.16447036 2296:0.1812562 2550:0.15309702 2680:0.12377628 #
-2.1003489501898946478775087598478 3:0.031734005 5:0.017124515 10:0.0018820666 11:0.010673603 12:0.0046959184 13:0.01025298 21:0.052237298 22:0.0033124017 24:0.029133454 25:0.0035176175 29:0.034036234 43:0.080968097 44:0.054868154 49:0.04521637 66:0.017266257 70:0.064343445 71:0.026245553 73:0.02843219 84:0.047428001 85:0.13964999 90:0.0028392016 91:0 92:0.0010012521 94:0.0068665356 95:0.00062656775 96:0.0052964804 97:0.00068793003 98:0.0010971823 99:0.01534685 100:0.034036234 101:0.00043804778 104:0.039675318 105:0.02843219 106:0.021237379 107:0.019692771 108:0.028879441 110:0.0046582394 111:0.0083470223 116:0.0076546385 117:0.043574233 126:0.14978661 130:0.019345377 150:0.069314718 159:0.053006589 160:0.034408599 166:0.15229885 168:0.026914123 169:0.055181872 186:0.016833615 198:0.019962693 217:0.022158228 223:0.019277718 224:0.02477199 228:0.010293368 232:0.028681936 234:0.03204836 256:0.08381018 264:0.067825854 283:0.086643398 288:0.062755615 300:0.063297756 301:0.041029666 302:0.11104538 305:0.037570704 355:0.039786689 357:0.075991288 358:0.081265613 376:0.072510555 385:0.051247068 423:0.0616276 435:0.11512925 454:0.085662879 455:0.053029712 461:0.048060946 475:0.067390695 491:0.091002233 492:0.026878498 496:0.089839235 548:0.071948729 560:0.10113886 594:0.078956284 604:0.051986039 632:0.055467591 633:0.06126263 747:0.058846958 754:0.06126263 823:0.15791257 870:0.086643398 939:0.26491585 958:0.14978661 1032:0.066931963 1125:0.086643398 1133:0.2537587 1134:0.2537587 1197:0.10499263 1198:0.13245793 1199:0.17745587 1200:0.14978661 1201:0.11218468 1202:0.16711529 1203:0.11846754 1204:0.16711529 1205:0.12232131 1206:0.13245793 1207:0.084719375 1208:0.16711529 1209:0.14978661 1210:0.14978661 1211:0.14978661 1212:0.16711529 1213:0.11512925 1214:0.080471896 1215:0.084719375 1216:0.10716791 1217:0.093504317 1218:0.12687935 #
-0.47831921461074866641638436703943 2:0.03171831 5:0.038054477 10:0.0033458963 11:0.047438238 12:0.020870749 13:0.0091137597 17:0.024253825 18:0.030382482 22:0.0031546683 24:0.025896404 25:0.0033501119 29:0.037818037 34:0.032835666 49:0.025120206 57:0.28597087 66:0.26858622 73:0.018954795 88:0.039066527 90:0.010515561 91:0 92:0.00097343954 94:0.0095368549 95:0.0019493218 96:0.0058849785 97:0.00062539097 98:0.0013932473 100:0.037818037 101:0.00055625115 103:0.07438118 104:0.022041842 105:0.018954795 106:0.01887767 107:0.010940428 110:0.010351643 111:0.0092744697 130:0.085979454 139:0.12262639 150:0.077016354 158:0.068057016 170:0.18674061 186:0.037408032 187:0.14578715 188:0.11552453 198:0.044361539 207:0.083803445 211:0.089761533 217:0.012310126 223:0.042839374 224:0.055048864 226:0.017674515 230:0.20493774 234:0.071218573 246:0.098852053 252:0.064619489 260:0.1039132 264:0.037681032 287:0.17497036 289:0.090464771 305:0.083490454 317:0.07510516 400:0.1692792 449:0.10539556 488:0.43466923 614:0.15747023 650:0.12326131 740:0.16642956 766:0.17228293 801:0.12137789 844:0.13300847 917:0.29435095 918:0.27182513 1184:0.22092009 1195:0.14298543 1260:0.33285913 1307:0.16783611 1411:0.31033331 1545:0.20222719 1574:0.47630182 2004:0.19964273 2274:0.21079111 2507:0.23331694 2895:0.20778738 2896:0.33285913 2897:0.31033331 2898:0.37136731 2899:0.37136731 #
0.32156630124858670560783480141254 5:0.048927188 10:0.0021509333 12:0.026833819 13:0.011717691 18:0.078126378 22:0.005408003 25:0.0028715245 50:0.25209013 71:0.14997458 77:0.56808025 88:0.10045679 90:0.0027040015 91:0 92:0.00071518007 94:0.0049046683 95:0.003580387 96:0.0075664008 97:0.00053604937 98:0.0017913179 101:0.00035759003 106:0.024271291 107:0.02813253 110:0.02661851 125:0.18058239 168:0.076897494 186:0.096192077 198:0.11407253 252:0.1661644 264:0.096894078 309:0.24398257 355:0.2273525 401:0.24696924 972:0.29849884 1058:0.55886042 3833:0.6989789 4246:0.85592353 #
1.7309444004619680690382210741518 1:0.072744571 5:0.023620021 8:0.088188872 10:0.0010383816 12:0.0064771287 13:0.01414204 18:0.018858092 19:0.082087815 22:0.00326345 24:0.024110444 25:0.0020793797 29:0.046946529 36:0.05067848 43:0.027920034 44:0.037840106 66:0.047631055 90:0.0039161402 91:0 92:0.001035778 93:0.10098317 94:0.0035516564 95:0.00051853881 96:0.0042615361 97:0.00047443452 98:0.0010809677 100:0.046946529 101:0.00051788898 102:0.0391564 103:0.015389211 106:0.017575763 107:0.013581221 110:0.025700631 111:0.017269703 130:0.026683278 133:0.12238336 154:0.12720273 159:0.073112532 164:0.1827006 168:0.037122928 186:0.069656335 217:0.022922304 224:0.034168262 226:0.010970389 228:0.014197749 260:0.032248922 264:0.023388226 278:0.061612826 295:0.11099572 302:0.051055346 305:0.05182166 319:0.058655348 355:0.10975638 357:0.052407786 382:0.08874958 407:0.087177709 452:0.11560025 481:0.091698624 495:0.072401524 507:0.13950187 553:0.10330112 578:0.16871904 713:0.064010277 738:0.095606506 754:0.084500179 849:0.092952676 850:0.23370861 853:0.063735507 880:0.19847926 923:0.19262066 1069:0.12720273 1182:0.086033002 1248:0.15473749 1278:0.26561368 1343:0.15473749 1399:0.1634035 1459:0.10244964 1562:0.097014159 1584:0.14481741 2001:0.1634035 2093:0.14481741 3787:0.1181557 3860:0.16871904 4142:0.17500599 4369:0.1634035 5445:0.23050386 #
1.1578755182640725340803555809543 1:0.087899692 2:0.035683095 5:0.021405645 10:0.0037641332 11:0.026684009 13:0.01025298 21:0.13059324 22:0.0047320025 24:0.043700181 25:0.002512584 43:0.050605062 49:0.056520462 50:0.11028942 71:0.065613881 73:0.021324143 88:0.13184953 90:0.0059150029 91:0 92:0.0012515651 94:0.0085831694 95:0.002506271 96:0.0044137337 97:0.00054721709 98:0.0015674032 101:0.00062578253 102:0.070970975 103:0.027892943 104:0.049594145 105:0.021324143 106:0.021237379 107:0.012307982 108:0.036099304 110:0.023291197 111:0.010433778 116:0.019136596 125:0.079004794 130:0.048363443 186:0.084168069 192:0.073959596 198:0.049906731 211:0.10098172 217:0.013848891 218:0.063636564 224:0.061929975 226:0.01988383 228:0.051466841 252:0.072696924 264:0.042391162 280:0.13585952 301:0.10257416 355:0.049733359 358:0.20316403 385:0.12811767 436:0.21415719 450:0.095707506 455:0.066287138 527:0.16509753 571:0.14794523 632:0.13866897 633:0.15315658 637:0.091854751 653:0.28782314 674:0.12691571 704:0.18271323 705:0.18418388 727:0.19925651 754:0.15315658 844:0.14963453 863:0.1130884 980:0.30580327 1424:0.25747889 1437:0.16847673 2080:0.19925651 2103:0.28782314 2167:0.22459808 2816:0.15593481 #
0.41686924224202437372355234401766 2:0.035683095 3:0.026445003 5:0.010702822 10:0.0018820666 11:0.013342004 12:0.011739796 13:0.0051264898 17:0.04092833 18:0.034180291 22:0.0047320025 24:0.02185009 25:0.001884438 29:0.042545293 31:0.089249074 32:0.089249074 43:0.050605062 49:0.014130116 57:0.080429308 66:0.043165643 73:0.010662071 90:0.0035490019 91:0 92:0.0014862336 94:0.0042915847 95:0.0012531355 96:0.0038620171 97:0.00046904321 98:0.0017633287 99:0.038367126 100:0.042545293 101:0.00070400536 103:0.013946472 104:0.012398536 105:0.010662071 106:0.010618689 107:0.012307982 110:0.0058227992 111:0.026084445 116:0.019136596 125:0.039502397 130:0.024181722 168:0.033642653 185:0.088577002 186:0.021042017 187:0.08200527 189:0.060344424 192:0.036979798 202:0.03149556 217:0.020773338 224:0.030964987 226:0.0099419151 228:0.038600132 231:0.09209194 232:0.035852421 234:0.080120899 244:0.057760306 260:0.029225586 263:0.03325659 280:0.06792976 284:0.071184143 287:0.065613881 290:0.042246655 300:0.026374064 302:0.13880672 310:0.044760574 323:0.097169563 347:0.049333319 388:0.055144712 390:0.036348462 407:0.039502397 429:0.067250386 449:0.059285 492:0.067196243 499:0.13939153 653:0.14391157 715:0.056070708 747:0.14711741 749:0.15290163 885:0.20316403 897:0.14391157 960:0.078929022 1024:0.098695353 1065:0.12642357 1101:0.10058987 1214:0.10058987 1393:0.13124079 1442:0.13395989 1469:0.12873945 1506:0.064671598 1562:0.087919086 1695:0.087919086 1861:0.11375279 2050:0.14808442 2119:0.15290163 2282:0.17456248 2378:0.14023085 2680:0.21660849 2762:0.37446654 3148:0.14808442 3976:0.18723327 4314:0.15859918 4901:0.18723327 4954:0.20889412 4955:0.20889412 4956:0.20889412 4957:0.20889412 4958:0.20889412 #
0.44735514453795421907500440283911 1:0.056255803 5:0.013699613 10:0.001806784 13:0.0098428605 17:0.017462755 18:0.021875387 22:0.0030284815 24:0.0093227057 25:0.0028140941 43:0.032387242 44:0.087789044 49:0.018086549 59:0.060113128 61:0.083579674 66:0.055252023 73:0.0045491508 88:0.028127901 90:0.0045427224 91:0 92:0.00080100168 94:0.0041199215 95:0.00040100334 96:0.0021185922 97:0.00050031277 98:0.0010031381 101:0.00050062605 103:0.03570297 104:0.015870126 105:0.0045491508 106:0.020387884 107:0.0078771086 110:0.014906366 111:0.013355237 116:0.012247422 124:0.046207305 126:0.11982929 166:0.081226058 168:0.021531299 169:0.088290997 186:0.026933782 215:0.042135999 217:0.026589872 222:0.11090355 225:0.042135999 226:0.012725651 228:0.032938778 264:0.027130343 280:0.17390017 287:0.041992884 317:0.054075718 328:0.065647468 355:0.03182935 363:0.075552851 388:0.070585229 389:0.076557085 408:0.068040207 492:0.086011194 527:0.10566242 614:0.11337856 629:0.12404371 632:0.088748142 633:0.098020211 637:0.05878704 674:0.081226058 683:0.13555099 882:0.091115698 910:0.11253643 927:0.076897509 1122:0.12633005 1513:0.16182217 1522:0.39142817 1695:0.11253643 1741:0.26819259 2816:0.099798277 3987:0.20300695 #
-0.97622123696895124478345451279893 1:0.026044352 2:0.021145539 3:0.015671114 10:0.0027882468 12:0.013913833 13:0.0060758395 22:0.0028041496 24:0.069057077 25:0.001116704 34:0.043780886 50:0.065356694 63:0.081332423 72:0.082174204 73:0.025273059 74:0.11485529 87:0.10195504 88:0.026044352 90:0.0014020748 91:0 92:0.00092708529 94:0.0076294844 95:0.0016708473 96:0.0026155459 97:0.00027795153 98:0.0011610395 101:0.00064895971 105:0.025273059 106:0.0062925569 107:0.014587237 110:0.0069010956 111:0.018548939 114:0.080733359 130:0.028659819 135:0.14983535 136:0.13481812 142:0.10577668 144:0.095323622 145:0.082602389 158:0.045371342 175:0.16229728 185:0.10498016 192:0.043827906 213:0.090226538 217:0.0082067512 218:0.037710559 219:0.050610807 224:0.036699243 226:0.01178301 227:0.095323622 228:0.030498868 297:0.11589865 305:0.055660304 317:0.050070107 321:0.077016354 328:0.06078469 355:0.029471621 374:0.1100385 388:0.065356694 389:0.070886187 390:0.043079659 451:0.12286355 455:0.039281268 508:0.061265696 509:0.17550747 527:0.097835571 554:0.13662517 632:0.082174204 633:0.090759456 650:0.082174204 680:0.097835571 727:0.11807793 738:0.10268847 762:0.36243349 765:0.19623397 825:0.080509342 852:0.14983535 1042:0.14264439 1389:0.1879694 1633:0.15554464 2095:0.16619952 2103:0.17056186 2212:0.14728005 3088:0.2219061 3089:0.1879694 3090:0.24757822 3091:0.19623397 3092:0.24757822 #
-0.63520602597713615722341273794882 1:0.033485595 5:0.048927188 10:0.0050188443 11:0.020330673 12:0.017889213 13:0.003905897 18:0.052084256 21:0.099499613 22:0.0036053353 24:0.044393834 25:0.0043072868 34:0.05628971 41:0.090737537 43:0.077112474 58:0.13811533 59:0.071563244 66:0.032888111 69:0.11335936 71:0.099983059 73:0.016246967 90:0.0036053353 91:0 92:0.0015495569 94:0.013079116 95:0.0026256172 96:0.0092478236 97:0.00065517146 98:0.0017913179 101:0.0013111634 105:0.016246967 106:0.01618086 107:0.037510041 110:0.0088728368 111:0.007949545 113:0.091139384 114:0.10380004 116:0.014580264 117:0.082998537 125:0.060194131 130:0.036848336 139:0.10510833 159:0.10096493 166:0.096697688 168:0.025632499 182:0.14636637 186:0.064128056 198:0.038024176 202:0.047993235 219:0.065071031 226:0.03029917 232:0.054632261 238:0.13599859 246:0.084730335 252:0.055388134 259:0.17112234 286:0.077845514 290:0.064375855 300:0.04018905 303:0.077845514 304:0.045452949 305:0.14312649 309:0.08132752 317:0.064375855 320:0.20866793 381:0.19264545 412:0.086527489 440:0.17566092 455:0.10100897 481:0.12663142 505:0.11600555 508:0.078770183 532:0.10146356 548:0.1370452 549:0.1961744 610:0.13202803 615:0.12663142 635:0.19998595 674:0.19339538 712:0.18628681 750:0.12255894 785:0.12255894 856:0.13811533 880:0.27409041 941:0.17810346 1069:0.17566092 1187:0.17112234 1288:0.1806781 1379:0.1370452 1519:0.22565246 1520:0.25230083 1521:0.14901255 1522:0.23299296 1523:0.19998595 1524:0.1961744 1525:0.35132185 1526:0.1806781 1527:0.23299296 1528:0.14265391 1529:0.19998595 1530:0.31831485 1531:0.31831485 #
-1.8572579303008858175871864659712 1:0.056255803 2:0.045674365 5:0.013699613 10:0.0066248747 12:0.030053878 13:0.0032809535 15:0.15176959 18:0.021875387 22:0.006056963 24:0.0093227057 25:0.0040201345 34:0.023641678 35:0.051639367 49:0.054259647 51:0.074897096 73:0.013647452 90:0.003785602 91:0 92:0.0012015025 94:0.015106379 95:0.00080200669 96:0.0077681714 97:0.00065040658 98:0.0020062763 99:0.02455496 101:0.00090112688 104:0.04761038 105:0.013647452 106:0.033979807 107:0.015754217 110:0.02235955 111:0.020032855 112:0.055252273 116:0.012247422 168:0.021531299 198:0.063880615 211:0.064628303 215:0.042135999 217:0.026589872 218:0.040727403 219:0.054659668 225:0.042135999 226:0.012725651 228:0.032938778 255:0.15010677 263:0.042568434 264:0.027130343 289:0.13026927 355:0.03182935 361:0.082779646 429:0.086080492 450:0.061252806 455:0.04242377 495:0.16797154 527:0.10566242 571:0.094684944 598:0.17146866 626:0.18126169 632:0.088748142 633:0.098020211 653:0.092103407 713:0.07425192 742:0.094155133 878:0.11982929 886:0.063880615 899:0.11884159 943:0.12188102 972:0.083579674 980:0.19571409 1057:0.11884159 1070:0.17146866 1254:0.14960691 1604:0.37213114 1893:0.18954806 1952:0.13269264 1954:0.12633005 2080:0.12752417 2650:0.22343998 2669:0.20300695 3328:0.4368107 3373:0.21193269 3397:0.23965858 3398:0.21193269 3399:0.23965858 3400:0.26738447 3401:0.26738447 3402:0.26738447 3403:0.23965858 3404:0.26738447 #
-0.13649611089146976294905755366926 5:0.022832688 8:0.34099698 10:0.006022613 11:0.056925885 12:0.012522449 13:0.027341278 15:0.12647466 18:0.072917953 22:0.003785602 24:0.077689208 25:0.0060302014 34:0.039402798 49:0.060288496 71:0.069988139 73:0.0075819176 82:0.16240777 88:0.093759671 90:0.0063093365 91:0 92:0.0018356289 94:0.0068665356 95:0.0020050167 96:0.0094159655 97:0.0012507819 98:0.0016718968 99:0.040924933 101:0.0013350028 104:0.13225105 105:0.0075819176 106:0.033979807 110:0.024843944 111:0.022258727 114:0.072660021 116:0.020412369 120:0.13288425 130:0.051587671 138:0.3618829 166:0.13537675 172:0.27331769 186:0.044889636 189:0.12873477 202:0.067190528 215:0.070226662 217:0.044316456 219:0.091099449 220:0.15692523 224:0.066058636 225:0.070226662 234:0.085462287 239:0.16943181 244:0.12322199 302:0.296121 304:0.12726825 305:0.10018855 347:0.21048884 390:0.077543385 409:0.19971548 477:0.46209812 495:0.13997628 498:0.16532794 527:0.17610402 542:0.12165329 614:0.18896428 632:0.14791358 633:0.16336702 642:0.27464417 657:0.35322115 678:0.27998033 696:0.22115439 747:0.47077566 1027:0.22591832 1126:0.24934486 1472:0.30701134 1757:0.22115439 2000:0.23377052 2140:0.28578109 4170:0.44564077 4171:0.44564077 4172:0.44564077 #
-0.58213776828494456783147370515508 5:0.022832688 8:0.17049849 10:0.0070263818 11:0.085388824 13:0.0054682558 22:0.0063093365 23:0.22843434 24:0.046613526 25:0.0020100672 29:0.13614494 46:0.10688049 71:0.069988139 72:0.14791358 73:0.0075819176 88:0.046879835 90:0.0088330712 91:0 92:0.00083437673 94:0.0068665356 95:0.0036758641 96:0.0058849785 97:0.00050031277 98:0.0020898711 99:0.040924933 100:0.13614494 101:0.0013350028 105:0.0075819176 106:0.011326603 108:0.077011846 110:0.037265915 111:0.022258727 114:0.072660021 145:0.14868429 150:0.092419624 156:0.14715166 160:0.091756269 166:0.13537675 186:0.13466892 192:0.15778047 211:0.10771383 212:0.16240777 217:0.059088606 264:0.045217238 304:0.063634127 309:0.11385854 347:0.10524442 380:0.26510412 407:0.084271781 410:0.17049849 532:0.14204898 637:0.1959568 653:0.15350567 886:0.10646769 972:0.2785989 1235:0.20140333 1292:0.20861758 1400:0.24592529 1534:0.21055008 1562:0.18756071 1684:0.35322115 1692:0.35322115 1757:0.22115439 1984:0.33834493 3060:0.44564077 #
0.43312137117905191718847390802694 2:0.020390341 3:0.015111431 5:0.012231797 10:0.0037641332 11:0.015248005 13:0.029294226 22:0.0033800018 24:0.049943063 25:0.0021536434 29:0.048623189 44:0.039191537 46:0.057257406 49:0.048446111 68:0.093720309 90:0.0013520007 91:0 92:0.0010727701 94:0.011035504 95:0.0017901935 96:0.00063053338 97:0.00084874488 98:0.0011195737 99:0.021924071 100:0.048623189 101:0.00044698754 103:0.031877652 104:0.042509269 106:0.030339114 107:0.02813253 108:0.041256346 110:0.02661851 111:0.005962159 116:0.032805596 122:0.24475108 124:0.041256525 129:0.084067084 130:0.055272505 144:0.091919206 145:0.079652302 150:0.099021025 182:0.10977478 205:0.079652302 223:0.027539598 226:0.011362188 228:0.044114433 252:0.0415411 260:0.03340067 271:0.066296354 288:0.089650877 290:0.048281889 300:0.030141788 317:0.048281889 348:0.16026382 363:0.067457899 387:0.088568538 479:0.14573006 525:0.16447036 539:0.13550857 562:0.14448409 564:0.093109794 645:0.16447036 661:0.10789464 715:0.064080805 721:0.17474473 729:0.1471308 733:0.10977478 761:0.12102767 770:0.10610856 801:0.078028642 825:0.077634007 863:0.06462194 885:0.11609373 915:0.10199894 1057:0.10610856 1093:0.19949998 1111:0.12523422 1327:0.12523422 1559:0.11279468 1580:0.14998947 1695:0.10047895 1817:0.12675419 1835:0.12377628 1837:0.18922561 1954:0.11279468 2173:0.18922561 2308:0.14998947 2550:0.15309702 2604:0.1812562 2940:0.11972883 3080:0.13971511 3549:0.12523422 3610:0.21398088 4059:0.12675419 4784:0.19949998 5595:0.23873614 5596:0.23873614 #
0.58896848532498846662264213591698 3:0.024889415 5:0.020146489 10:0.0053140703 12:0.0552461 13:0.0048249313 17:0.025680522 22:0.0044536493 24:0.027419722 25:0.0035471774 29:0.040042628 34:0.034767173 35:0.075940244 49:0.05319573 73:0.013379855 88:0.082729116 91:0 92:0.00044172886 94:0.0040391386 95:0.001474277 96:0.0062311534 97:0.00051502784 98:0.0014752031 100:0.040042628 101:0.00073621474 104:0.046676844 105:0.013379855 106:0.029982183 107:0.011583983 110:0.010960563 127:0.1993397 128:0.27089235 130:0.045518536 150:0.081546724 186:0.039608505 192:0.069609031 221:0.083338447 228:0.02421969 254:0.24233308 264:0.039897561 271:0.109194 300:0.049645297 348:0.26396394 387:0.1458776 495:0.12350848 514:0.24704148 624:0.22319059 927:0.11308458 1379:0.16929114 1409:0.2521598 1545:0.21412291 2198:0.27874714 2888:0.31166571 3080:0.230119 4008:0.27874714 4059:0.20877162 5579:0.39321247 5580:0.39321247 5581:0.39321247 5582:0.39321247 5583:0.39321247 #
1.8821911445233288073808353146887 1:0.033485595 2:0.054374244 4:0.1257886 10:0.002867911 11:0.040661346 12:0.035778426 13:0.015623588 17:0.020788994 22:0.0027040015 25:0.0043072868 29:0.032415461 43:0.038556237 49:0.043063212 73:0.016246967 88:0.13394238 90:0.005408003 91:0 92:0.00059598341 94:0.0016348895 95:0.0023869246 96:0.0058849785 97:0.00089341565 98:0.00089565897 100:0.032415461 101:0.00035759003 103:0.021251766 104:0.037786014 105:0.016246967 107:0.0093775103 108:0.02750423 110:0.017745674 111:0.007949545 116:0.014580264 143:0.15796742 186:0.064128056 192:0.056350168 196:0.1102459 211:0.07693845 215:0.1003238 217:0.010551536 221:0.067464456 223:0.036719464 225:0.1003238 226:0.03029917 228:0.019606415 264:0.032298028 278:0.085084379 287:0.049991529 289:0.15508246 319:0.16200049 343:0.14265391 407:0.060194131 455:0.050504487 508:0.15754037 542:0.086895205 615:0.12663142 713:0.088395141 819:0.14901255 863:0.086162589 882:0.10847107 989:0.17333758 1007:0.1690056 1030:0.14901255 1294:0.11272017 1473:0.13202803 1506:0.098547198 2133:0.18628681 2565:0.20866793 2783:0.28530782 4203:0.31831485 #
