SVM-light Version V6.02
0 # kernel type
3 # kernel parameter -d 
1 # kernel parameter -g 
1 # kernel parameter -s 
1 # kernel parameter -r 
empty# kernel parameter -u 
5654 # highest feature index 
800 # number of training documents 
620 # number of support vectors plus 1 
0.071343526 # threshold b, each following line is a SV (starting with alpha*y)
-0.012990222938223924820100307897519 1:0.13184953 2:0.071366191 3:0.10578001 5:0.12843387 7:0.1293432 10:0.0087885056 11:0.053368017 12:0.058698982 13:0.071770854 14:0.18723327 15:0.11857 16:0.14630039 17:0.081856661 18:0.034180291 20:0.22750558 21:0.13059324 22:0.010647005 24:0.058266908 25:0.0062814597 29:0.042545293 34:0.073880248 35:0.08068651 36:0.091854751 43:0.050605062 44:0.068585195 46:0.10020046 49:0.056520462 51:0.11702671 59:0.18785352 68:0.16401054 73:0.02843219 84:0.11857 88:0.043949846 90:0.036099304 92:0.011645598 93:0.020867556 94:0.086331673 98:0.057409789 99:0.21787116 106:0.072198913 114:0.28782314 127:0.13939153 142:0.16847673 147:0.12691571 149:0.033642653 162:0.12691571 167:0.042084035 170:0.12068885 173:0.14791919 179:0.099813461 180:0.23055497 183:0.18897337 192:0.10098172 196:0.065837495 198:0.055395566 199:0.063636564 200:0.08540573 201:0.14711741 204:0.048194297 206:0.025733421 212:0.080120899 228:0.12400821 230:0.14539385 238:0.058451172 241:0.066513181 249:0.11601862 261:0.43321699 262:0.28473657 265:0.13122776 267:0.10177287 278:0.059656996 279:0.093926758 284:0.089521147 290:0.10217223 291:0.084493309 302:0.10257416 321:0.098666638 348:0.18568999 381:0.079004794 382:0.10631282 390:0.2407124 403:0.40350229 426:0.20952545 429:0.13257428 435:0.12015236 443:0.19043911 468:0.13939153 479:0.30451456 513:0.23714 525:0.1732868 527:0.18723327 568:0.19739071 586:0.20117974 593:0.34912497 605:0.16732991 628:0.23055497 646:0.20952545 715:0.2052134 751:0.27387667 798:0.50569427 800:0.18271323 873:0.18568999 890:0.37446654 901:0.12015236 1026:0.30580327 1048:0.46110994 1093:0.2052134 1113:0.24450144 1114:0.27387667 1116:0.23714 1155:0.28782314 1268:0.14794523 1277:0.2804617 1301:0.43831974 1303:0.59233767 1399:0.23714 1418:0.22750558 1423:0.51495779 1446:0.28782314 1483:0.24450144 1495:0.19557898 1499:0.23055497 1630:0.31719837 1662:0.24450144 1829:0.25747889 1830:0.20117974 1871:0.33114484 1943:0.31719837 1971:0.2052134 2048:0.31719837 2054:0.19925651 2055:0.22459808 2217:0.41778824 2218:0.41778824 2219:0.37446654 2220:0.33114484 2221:0.33114484 2222:0.27387667 2223:0.33114484 2224:0.34912497 2225:0.31719837 2226:0.41778824 2227:0.37446654 2228:1.0473748 2229:0.37446654 2230:0.31719837 2231:0.37446654 2232:0.83557647 2233:0.41778824 2234:0.5609234 2235:0.41778824 2236:0.41778824 2237:0.41778824 2238:0.41778824 2239:0.25284714 2240:0.29616883 #
-0.089636719040095180766059002053225 5:0.03424903 10:0.0061519542 11:0.085388824 13:0.016404767 16:0.23408063 22:0.0075712041 24:0.011653381 25:0.010050336 29:0.068072468 43:0.080968097 44:0.10973631 46:0.16032073 49:0.18086548 73:0.022745753 84:0.189712 87:0.2752786 90:0.057758883 91:0.39765614 92:0.055898875 93:0.050082136 94:0.13813068 95:0.1913927 96:0.10899004 97:0.5075174 98:0.09185566 99:0.17429693 100:0.47387016 101:0.41997051 102:0.19932638 103:0.66846114 104:0.34265152 105:0.5075174 106:0.11551826 107:0.12640767 108:0.29957321 109:0.3388775 110:0.46051702 111:0.23538783 112:0.077381507 113:0.43820265 114:0.46051702 115:0.35491174 116:0.52983171 117:0.40455544 118:0.36400893 119:0.265926 120:0.18094145 121:0.22072749 122:0.52983171 123:0.26241687 124:0.28559703 125:0.33173159 126:0.25737378 127:0.22302644 128:0.5075174 129:0.66846114 130:0.59914643 131:0.52983171 132:0.13862944 133:0.66846114 134:0.35935694 135:0.43820265 136:0.36888793 137:0.47387016 138:0.22072749 139:0.33524072 #
0.085544518256944049316992106923863 1:0.084383704 2:0.045674365 3:0.033849604 5:0.095897287 10:0.0035154023 11:0.017077766 12:0.037567347 13:0.016404767 17:0.017462755 18:0.021875387 22:0.0083283242 24:0.11653382 25:0.0060302014 29:0.10891595 43:0.097161718 49:0.018086549 66:0.11884159 71:0.041992884 73:0.018196603 83:0.11884159 87:0.66066867 90:0.092414215 91:0.15906246 92:0.037265915 93:0.053420946 94:0.16575682 98:0.085731953 102:0.079730555 108:0.11982929 112:0.061905205 132:0.22180709 147:0.081226058 149:0.021531299 151:0.067226619 152:0.25751007 167:0.053867564 173:0.047334142 183:0.080628633 186:0.089210577 193:0.19488932 194:0.097444661 198:0.035453163 200:0.054659668 204:0.061688699 206:0.082346946 207:0.2526601 208:0.14755517 210:0.045891099 224:0.071173482 227:0.14755517 230:0.046526033 233:0.050035588 243:0.36884326 249:0.07425192 252:0.10040898 266:0.10040898 267:0.065134637 268:0.054075718 293:0.068040207 295:0.16635533 302:0.26258987 329:0.03182935 331:0.060793031 344:0.26267314 358:0.24808742 360:0.15405594 363:0.076557085 364:0.18610413 413:0.13862944 424:0.061252806 427:0.23593354 429:0.04242377 466:0.12901679 473:0.17842115 508:0.10294951 539:0.18420681 587:0.11253643 588:0.11337856 599:0.081608832 608:0.14755517 624:0.088748142 684:0.069718771 691:0.17528106 696:0.1085728 717:0.14755517 720:0.15906246 763:0.10165908 767:0.15176959 786:0.17146866 797:0.50532019 799:0.086950086 820:0.32364434 837:0.072376579 845:0.15906246 847:0.17949548 859:0.13002498 860:0.063880615 865:0.16478649 928:0.14560357 935:0.18420681 986:0.14755517 990:0.16182217 1115:0.1419647 1122:0.17528106 1144:0.13862944 1235:0.13555099 1321:0.15648092 1334:0.21193269 1413:0.19571409 1503:0.1679882 1653:0.12875503 1669:0.22507286 1680:0.1679882 1681:0.19571409 1710:0.12633005 1725:0.1085728 1779:0.18954806 1928:0.12633005 1935:0.17146866 1936:0.15176959 2149:0.17949548 2221:0.21193269 2388:0.11601689 2432:0.22343998 2468:0.17949548 2521:0.22343998 2596:0.23965858 2618:0.17949548 2696:0.20300695 2856:0.18420681 2895:0.22343998 2913:0.26819259 2951:0.22343998 2977:0.19571409 3150:0.21193269 3379:0.1679882 3530:0.23965858 3539:0.23965858 3860:0.23965858 4025:0.23965858 4124:0.20300695 4281:0.23965858 4282:0.26738447 4283:0.22343998 4284:0.26738447 4285:0.23965858 4286:0.20300695 4287:0.26738447 4288:0.23965858 4289:0.26738447 4290:0.21193269 4291:0.26738447 4292:0.26738447 4293:0.26738447 4294:0.23965858 4295:0.26738447 4296:0.23965858 4297:0.26738447 4298:0.26738447 4299:0.23965858 4300:0.26738447 4301:0.26738447 4302:0.26738447 4303:0.26738447 4304:0.26738447 4305:0.26738447 4306:0.26738447 4307:0.26738447 #
-0.02930014584939368699201267531862 1:0.15068518 3:0.060445722 4:0.37736577 5:0.14678156 7:0.2956416 10:0.0069052549 11:0.091488034 12:0.053667638 13:0.029294226 17:0.031183489 18:0.078126378 22:0.005408003 23:0.24475108 24:0.024971532 25:0.010050336 29:0.048623189 34:0.084434569 43:0.17350307 46:0.11451481 49:0.16148704 51:0.26748961 56:0.23695114 73:0.016246967 84:0.4065257 88:0.050228395 92:0.013309255 93:0.047697272 96:0.077850021 98:0.065611191 107:0.090291195 111:0.16813417 112:0.055272505 113:0.3130019 119:0.18994714 141:0.098310284 144:0.2299197 159:0.30619404 162:0.29009306 167:0.096192077 168:0.18744062 169:0.44559461 170:0.13793011 174:0.37813517 181:0.36251241 182:0.3043907 188:0.10774729 189:0.2956416 198:0.079136528 199:0.2181825 202:0.10119668 204:0.055079196 206:0.058819246 219:0.18868288 224:0.12709549 238:0.066801339 239:0.21049586 241:0.076015063 264:0.23353653 278:0.068179421 284:0.10230988 287:0.37845123 290:0.23353653 297:0.11105093 318:0.29997894 320:0.26349139 329:0.11367625 336:0.20556781 337:0.1349158 386:0.12979123 387:0.27101713 403:0.15371516 445:0.19662757 466:0.15359142 467:0.3130019 489:0.2345296 501:0.18868288 502:0.24755256 516:0.13034281 520:0.23218746 573:0.19524057 585:0.12500985 586:0.2299197 587:0.20095791 588:0.20246172 589:0.18994714 590:0.34948945 591:0.19123419 592:0.36251241 593:0.39899996 594:0.2671552 595:0.47747228 596:0.47747228 597:0.25668353 598:0.27101713 599:0.14573006 600:0.1618408 601:0.47747228 602:0.37845123 603:0.44301325 604:0.2345296 605:0.57370257 606:0.15847883 607:0.17503609 608:0.26349139 609:0.29997894 610:0.25668353 611:0.20995371 612:0.47747228 613:0.42796177 614:0.47747228 615:0.42796177 616:0.2942616 617:0.23945765 618:0.2942616 619:0.32894072 620:0.42796177 621:0.34948945 622:0.2299197 623:0.32894072 624:0.15847883 625:0.1593046 626:0.32052764 627:0.16447036 628:0.26349139 629:0.23945765 #
-0.0056483718079947406801033515932886 5:0.085622579 10:0.0087885056 11:0.10673603 13:0.01025298 18:0.068360582 22:0.0070980038 24:0.043700181 25:0.0075377519 29:0.085090585 34:0.1477605 36:0.367419 49:0.056520462 63:0.54899383 71:0.13122776 73:0.042648286 75:0.45501116 84:0.23714 88:0.087899692 89:0.22057885 92:0.046582393 93:0.083470225 96:0.13623755 98:0.038273193 102:0.24915798 112:0.19345377 120:0.2261768 126:0.32171723 127:0.27878305 132:0.1732868 135:0.54775333 141:0.17204301 149:0.067285307 173:0.14791919 174:0.22057885 182:0.26634187 183:0.12598224 206:0.15440053 238:0.11690234 278:0.23862799 279:0.37570703 283:0.21348475 321:0.19733328 337:0.23610264 354:0.49707019 364:0.14539385 384:0.31968465 466:0.13439249 584:0.34657359 638:0.3876366 689:0.44856566 768:0.35974365 770:0.5609234 792:0.57564628 827:0.46208245 946:0.26118648 1006:0.33465981 1247:0.57564628 1269:0.36542645 1571:0.51495779 1581:0.54775333 2573:0.54775333 2649:0.74893308 2667:0.54775333 3293:0.74893308 #
0.015129654768089920852114360627638 1:0.26369905 2:0.071366191 3:0.052890006 4:0.33019507 5:0.042811289 7:0.25868639 10:0.0054928162 11:0.053368017 12:0.046959184 18:0.068360582 22:0.011830006 24:0.072833635 25:0.010050336 34:0.073880248 44:0.13717039 46:0.20040092 50:0.22057885 60:0.48900288 73:0.014216095 92:0.023291197 93:0.041735113 98:0.076546386 105:0.63439673 106:0.28879565 121:0.27590936 140:0.53006589 144:0.40235949 149:0.067285307 150:0.27590936 198:0.083093353 199:0.12727313 206:0.10293368 212:0.1602418 216:0.3569963 228:0.24801642 230:0.14539385 249:0.23203725 279:0.18785352 306:0.57564628 313:0.40632805 329:0.099466719 361:0.3099899 364:0.14539385 386:0.22713466 403:0.26900154 406:0.49707019 412:0.53583956 424:0.19141501 466:0.13439249 469:0.26245552 473:0.27878305 506:0.53268373 611:0.1837095 624:0.27733794 648:0.25383142 854:0.35974365 946:0.26118648 1037:0.4436397 1262:0.47428 1480:0.25868639 1485:0.35430801 2489:0.63439673 2789:0.31186962 4031:0.4436397 4151:0.83557647 4152:0.74893308 4153:0.74893308 #
0.021260865750065055523876367260527 1:0.1406395 4:0.52831209 10:0.0035154023 11:0.085388824 12:0.075134695 13:0.032809533 22:0.003785602 24:0.11653382 25:0.0040201345 29:0.13614494 34:0.11820839 46:0.32064146 49:0.090432741 64:0.38278541 71:0.20996442 72:0.44374073 73:0.11372876 84:0.37942401 94:0.27626136 117:0.80911088 119:0.53185201 120:0.3618829 167:0.13466892 174:0.35292616 186:0.44605288 194:0.4872233 196:0.21067999 204:0.15422174 206:0.16469389 217:0.50829542 230:0.46526033 238:0.37408748 265:0.20996442 267:0.32567319 291:0.27037859 329:0.63658702 335:0.41389823 344:0.65668285 381:0.25281534 382:0.34020102 386:0.36341545 397:0.4930208 427:0.39322257 469:0.41992885 473:0.44605288 496:0.56268215 599:0.40804416 687:0.3712596 701:0.63762081 733:0.41192779 800:0.58468235 963:0.72801787 1072:0.92103404 1268:0.47342473 1289:0.77027971 1646:0.65012491 1928:0.63165027 4154:1.3369223 4155:1.3369223 4156:1.1982929 4157:1.3369223 #
0.091608680822010957189860391736147 1:0.35159877 5:0.11416344 10:0.0087885056 13:0.041011918 15:0.31618667 17:0.072761476 22:0.0063093365 25:0.010050336 43:0.13494684 46:0.26720122 49:0.075360619 69:0.39675778 73:0.018954795 74:0.5168488 75:0.60668153 84:0.31618667 87:0.45879769 88:0.23439917 89:0.29410514 90:0.096264809 92:0.093164787 93:0.13911705 95:0.31898785 98:0.10206185 106:0.19253044 112:0.12896918 125:0.55288601 166:0.47241068 179:0.13308461 198:0.036930379 199:0.16969751 205:0.4289563 206:0.13724491 278:0.15908532 335:0.34491521 362:0.29410514 387:0.63237333 466:0.17918999 496:0.46890178 611:0.24494599 624:0.36978394 687:0.309383 689:0.29904377 714:0.49928871 724:0.4289563 796:0.57762265 1338:0.7303378 1607:0.69995087 1656:0.50350833 1788:0.7303378 2388:0.48340368 2789:0.41582617 4158:1.114102 #
0.078676762719693024705769346383022 3:0.038465459 4:0.24014185 5:0.093406446 10:0.0047937306 11:0.038813103 12:0.085380338 22:0.010324369 24:0.031781949 25:0.010050336 29:0.061884061 36:0.13360691 41:0.17322621 44:0.099760279 73:0.031016937 88:0.063927047 94:0.12557335 98:0.027835049 149:0.097869538 167:0.12242628 179:0.14518322 182:0.19370316 183:0.091623448 196:0.095763631 198:0.060431529 199:0.092562273 206:0.037430428 212:0.23307897 222:0.16802998 224:0.1617579 230:0.21148196 232:0.37451476 238:0.17003977 242:0.061659869 243:0.55885345 266:0.22820222 278:0.086773813 321:0.14351511 329:0.14467886 375:0.15716225 381:0.11491606 384:0.23249795 460:0.17955287 538:0.23700675 662:0.3150669 680:0.3150669 703:0.37451476 712:0.25205353 721:0.21398894 901:0.17476708 962:0.46795234 1100:0.34001571 1156:0.22681427 1317:0.40794429 1351:0.46137944 1524:0.54467857 1536:0.2557646 2131:0.46137944 2618:0.40794429 3456:0.68003142 3938:0.5078181 4159:0.607692 4160:0.5078181 4161:0.54467857 4162:0.607692 4163:1.215384 4164:0.607692 4165:0.607692 4166:0.607692 4167:0.607692 4168:0.607692 4169:0.607692 4170:0.607692 #
0.04514427275000225392442843030949 1:0.10045679 2:0.081561364 4:1.1320974 5:0.14678156 6:0.42796177 10:0.0037665025 11:0.060992021 12:0.053667638 13:0.058588453 17:0.062366977 18:0.078126378 22:0.010816006 24:0.099886127 25:0.010050336 26:0.38508967 31:0.40799576 32:0.40799576 34:0.084434569 35:0.36885262 49:0.12918963 58:0.41434601 74:0.44301325 82:0.34801665 88:0.10045679 92:0.053237021 93:0.047697272 94:0.19732955 96:0.15570004 98:0.17496316 99:0.49799123 106:0.1650261 140:0.3028948 166:0.40492344 167:0.19238415 173:0.1690505 193:0.34801665 204:0.11015839 206:0.11763849 241:0.30406025 242:0.096894078 247:0.74487835 329:0.2273525 337:0.2698316 363:0.27341816 364:0.1661644 420:0.51336706 422:0.37989429 423:0.27101713 424:0.21876001 466:0.6143657 482:0.23631054 507:0.35427415 684:0.49799123 728:0.35007218 770:0.64105529 784:0.5343104 901:0.27463397 1177:0.67695737 1189:0.48411068 1284:0.52001274 1418:1.0400255 1521:0.56808025 1724:0.45544344 1746:0.61238807 1835:0.52001274 1948:0.79799992 2195:0.6989789 2461:0.6989789 2609:0.72502482 4094:0.79799992 4171:0.79799992 4172:0.95494455 4173:0.6989789 4174:0.95494455 #
0.023477390106193464502926104842118 2:0.11418591 3:0.12693602 8:0.25574774 10:0.0026365519 12:0.018783674 13:0.032809533 18:0.054688469 22:0.0056784032 24:0.11653382 25:0.0080402689 29:0.068072468 37:0.25414771 43:0.080968097 49:0.04521637 57:0.25737378 71:0.10498221 73:0.011372876 88:0.070319749 90:0.11551777 92:0.037265915 93:0.033388089 98:0.030618554 112:0.077381507 120:0.18094145 142:0.26956278 144:0.32188758 148:0.19932638 149:0.053828247 179:0.079850771 198:0.13294937 199:0.1018185 206:0.16469389 207:0.31582513 224:0.17793369 230:0.23263016 238:0.093521871 241:0.10642108 265:0.31494665 267:0.65134639 276:0.52983171 283:0.1707878 297:0.1554713 329:0.23872013 354:0.39765614 361:0.2479919 363:0.38278541 375:0.17287847 386:0.18170772 446:0.3912023 453:0.20402208 472:0.2479919 583:0.25102246 611:0.14696759 689:0.17942625 712:0.27725887 835:0.44873872 837:0.18094145 858:0.47387016 860:0.15970154 1004:0.31292635 1048:0.73777586 1059:0.47387016 1075:0.32188758 1519:0.36400893 1533:0.31582513 1835:0.36400893 2083:0.55859995 2216:0.43820265 2388:0.29004222 2620:0.59914643 3143:0.65012491 3181:0.3912023 3379:0.41997051 4031:0.35491174 4114:0.5075174 4254:0.59914643 4329:0.48928523 4954:0.48928523 4970:0.52983171 5123:0.66846114 #
-0.010375427320222108812375338970924 5:0.057081718 10:0.0029295019 11:0.071157359 13:0.054682557 18:0.27344233 22:0.012618673 24:0.058266908 25:0.0016750559 29:0.22690822 34:0.19701399 35:0.43032807 46:0.26720122 59:0.50094271 71:0.17497036 73:0.018954795 88:0.11719958 90:0.096264809 92:0.062109858 94:0.4604356 112:0.12896918 132:0.23104906 173:0.19722559 179:0.13308461 183:0.16797632 198:0.036930379 206:0.068622455 230:0.38771695 242:0.11304309 362:0.29410514 363:0.31898785 375:0.28813079 429:0.17676571 442:0.54177076 449:0.44927129 466:1.0751399 475:0.40365532 506:0.35512248 525:0.46209812 845:0.66276026 974:0.76752836 1006:0.4462131 1063:0.76752836 1075:0.53647929 1076:0.60668153 1284:0.60668153 1365:1.1688527 1508:0.52637517 1631:0.7897836 1656:0.50350833 1731:0.55288601 1957:0.93099993 2065:0.74789786 2066:0.88305289 2493:0.71445274 2619:0.88305289 3587:0.88305289 3817:1.114102 3818:1.114102 3819:1.114102 3820:1.114102 3821:0.93099993 3822:1.114102 3823:1.114102 #
-0.083520316813828501811833859846956 3:0.10578001 10:0.0087885056 22:0.009464005 25:0.0075377519 34:0.29552099 49:0.22608185 71:0.26245552 73:0.02843219 82:0.60902911 88:0.17579938 90:0.14439721 93:0.041735113 106:0.28879565 109:0.84719372 149:0.26914123 166:0.70861602 167:0.16833614 173:0.29583839 191:0.5917809 195:1.0113885 196:0.26334998 199:0.25454625 202:0.35418838 210:0.57363874 222:0.46208245 242:0.16956465 279:0.37570703 291:0.33797324 403:0.53800309 435:0.48060945 507:0.6199798 662:0.86643398 1145:1.1218468 1234:0.74893308 1528:1.3964999 2461:1.2232131 2575:1.1512926 2789:0.62373924 #
-0.056761281544502190099521499178081 1:0.46879834 3:0.14104001 10:0.0058590039 12:0.062612243 22:0.0063093365 24:0.077689208 25:0.010050336 34:0.19701399 43:0.26989368 44:0.36578768 71:0.34994072 73:0.03790959 84:0.63237333 89:1.1764206 90:0.19252962 92:0.062109858 96:0.36330011 98:0.20412369 99:0.58098978 106:0.38506088 149:0.17942749 167:0.44889638 179:0.26616922 198:0.073860757 233:0.41696325 302:0.54706222 329:0.2652446 482:0.55139124 496:0.93780357 560:0.69649732 698:1.5350567 767:1.2647467 1006:0.89242619 1169:0.8579126 1191:1.2467242 1239:1.3732208 3116:1.4606756 3572:1.4289055 3719:2.228204 #
-0.091608680822010957189860391736147 1:0.21095926 2:0.11418591 3:0.084624007 4:0.26415604 5:0.06849806 10:0.0061519542 13:0.032809533 15:0.189712 22:0.017035209 24:0.034960143 25:0.010050336 29:0.068072468 34:0.17731258 35:0.12909842 49:0.13564911 68:0.26241687 73:0.011372876 90:0.23103553 92:0.055898875 93:0.033388089 98:0.12247422 102:0.19932638 106:0.11551826 144:0.32188758 149:0.053828247 177:0.23151639 179:0.15970154 198:0.022158228 202:0.14167535 204:0.077110872 206:0.041173473 207:0.63165027 210:0.22945549 212:0.12819344 238:0.18704374 243:0.30736938 256:0.17867719 265:0.31494665 267:0.48850977 268:0.13518929 278:0.19090238 279:0.15028282 284:0.14323384 297:0.31094259 302:0.16411866 329:0.079573378 380:0.40455544 381:0.12640767 386:0.18170772 403:0.21520123 423:0.189712 429:0.21211885 440:0.55859995 442:0.32506245 466:0.10751399 473:0.22302644 475:0.48438638 480:0.35935694 514:0.30210501 539:0.23025851 568:0.31582513 616:0.41196623 648:0.20306514 701:0.3188104 715:0.32834142 752:0.47387016 763:0.25414771 764:0.35935694 765:0.59914643 766:0.30736938 767:0.37942401 768:0.28779492 769:0.55859995 770:0.44873872 771:0.66846114 772:0.59914643 773:0.40455544 774:0.44873872 775:0.2184802 776:0.31292635 777:0.32188758 778:0.36400893 779:0.59914643 780:0.66846114 781:0.66846114 782:0.5075174 783:0.66846114 784:0.37401727 785:0.66846114 786:0.42867166 787:0.47387016 788:0.66846114 789:0.66846114 790:0.48928523 791:0.66846114 792:0.46051702 793:0.31292635 #
0.091608680822010957189860391736147 1:0.1406395 2:0.11418591 10:0.0087885056 11:0.085388824 12:0.15026939 13:0.016404767 22:0.011356806 24:0.093227051 25:0.0080402689 29:0.13614494 34:0.47283357 43:0.16193619 49:0.090432741 56:0.66346318 73:0.022745753 90:0.11551777 92:0.074531831 112:0.15476301 119:0.53185201 123:0.52483374 132:0.27725887 142:0.53912556 149:0.10765649 150:0.44145498 153:0.42198014 183:0.20157158 192:0.32314152 196:0.21067999 198:0.13294937 199:0.203637 200:0.27329835 206:0.082346946 233:0.25017795 250:0.50204492 291:0.81113577 297:0.31094259 321:0.31573325 361:0.49598381 429:0.63635653 435:0.38448757 485:0.677755 510:0.70131159 578:0.41588831 618:0.82393247 625:0.44605288 627:0.46051702 744:0.59420794 822:0.79531229 1085:0.70131159 1188:0.64377517 1228:1.4960691 1704:0.73777586 2044:0.92103404 2176:1.0150348 4022:1.1982929 #
0.0023420120350259678899951243380428 5:0.057081718 8:0.42624623 10:0.0087885056 11:0.071157359 12:0.031306121 13:0.041011918 17:0.072761476 18:0.091147445 22:0.0063093365 25:0.0083752796 29:0.11345411 34:0.098506995 37:0.42357951 43:0.13494684 49:0.075360619 57:0.4289563 58:0.96680737 64:0.31898785 66:0.49517328 73:0.056864381 92:0.062109858 98:0.20412369 112:0.12896918 121:0.36787915 132:0.23104906 134:0.59892821 142:0.44927129 149:0.26914123 151:0.2801109 177:0.38586065 188:0.25141034 196:0.17556666 198:0.11079113 204:0.12851812 278:0.15908532 329:0.2652446 330:0.6866104 356:0.4289563 384:0.42624623 424:0.25522003 428:0.57108587 429:0.17676571 473:0.37171075 498:0.51228231 573:0.45556134 600:0.37762851 689:0.29904377 694:0.74789786 818:0.39902538 827:0.30805498 837:0.30156907 855:0.7897836 885:0.48723528 928:0.60668153 1042:0.7303378 1215:0.63237333 1234:0.99857742 1392:0.76752836 1669:0.46890178 1860:0.95931643 2084:0.99857742 2309:0.84586233 2324:0.88305289 2502:0.55288601 2943:0.69995087 3181:0.65200382 3538:0.6866104 4798:1.114102 4799:1.114102 4800:1.114102 4801:1.114102 4802:1.114102 4803:1.114102 4804:1.114102 #
0.082352913995670282143457541224052 1:0.46879834 5:0.11416344 10:0.0058590039 11:0.14231472 12:0.062612243 13:0.027341278 15:0.63237333 17:0.2910459 22:0.012618673 24:0.077689208 25:0.010050336 35:0.43032807 36:0.48989198 44:0.36578768 59:0.50094271 61:0.69649732 69:0.79351556 90:0.19252962 92:0.062109858 93:0.055646818 94:0.4604356 112:0.25793836 121:0.7357583 136:1.2296265 138:0.7357583 139:1.1174691 149:0.17942749 150:0.7357583 167:0.22444819 198:0.073860757 242:0.22608618 329:0.2652446 429:0.35353142 442:1.0835415 506:0.71024495 707:1.0245646 733:0.68654633 1113:1.3040076 1459:1.0527503 5293:2.228204 #
0.091608680822010957189860391736147 2:0.081561364 3:0.060445722 5:0.048927188 8:0.18267696 10:0.0050220033 11:0.030496011 12:0.053667638 13:0.017576536 14:0.21398088 17:0.031183489 18:0.078126378 22:0.004056002 24:0.11653382 25:0.0064609302 29:0.14586957 34:0.042217284 36:0.20995371 39:0.19804205 43:0.17350307 49:0.032297406 51:0.13374481 73:0.024370451 83:0.21221712 84:0.13550857 88:0.050228395 90:0.041256346 92:0.013309255 93:0.023848636 98:0.065611191 112:0.11054501 128:0.36251241 144:0.2299197 147:0.14504653 148:0.14237599 149:0.11534625 151:0.12004753 153:0.1507072 163:0.21954955 168:0.18744062 179:0.057036266 183:0.071989849 187:0.33847868 188:0.10774729 198:0.12661844 202:0.10119668 204:0.055079196 206:0.058819246 210:0.081948392 231:0.21764468 238:0.13360268 242:0.048447039 265:0.074987292 268:0.096563779 270:0.25350839 284:0.10230988 293:0.12150037 302:0.11722761 321:0.22552375 329:0.11367625 332:0.23218746 381:0.090291195 397:0.17607886 408:0.2671552 453:0.14573006 460:0.14107725 466:0.23038712 535:0.2345296 548:0.25046843 549:0.16358304 585:0.12500985 644:0.19948511 678:0.20881511 679:0.21049586 684:0.12449781 689:0.12816161 704:0.2671552 775:0.31211457 778:0.26000637 803:0.207173 822:0.28404012 827:0.13202356 830:0.207173 837:0.12924388 884:0.20095791 1013:0.28404012 1023:0.30619404 1080:0.23695114 1093:0.4690592 1160:0.207173 1192:0.36251241 1269:0.20881511 1314:0.30619404 1348:0.23218746 1403:0.24755256 1422:0.28404012 1496:0.34948945 1539:0.32052764 1704:0.26349139 1715:0.4789153 1825:0.21049586 1860:0.20556781 1875:0.32894072 1940:0.29997894 2200:0.32052764 2228:0.39899996 2255:0.32052764 2877:0.42796177 3121:0.33847868 4221:0.42796177 4337:0.39899996 5051:0.42796177 5418:0.42796177 5443:0.47747228 5444:0.47747228 5445:0.47747228 5446:0.47747228 5447:0.47747228 5448:0.47747228 5449:0.47747228 #
0.091608680822010957189860391736147 1:0.043949846 2:0.071366191 3:0.026445003 5:0.042811289 8:0.15984233 10:0.0043942528 11:0.10673603 12:0.046959184 13:0.035885427 15:0.11857 17:0.054571107 18:0.034180291 19:0.14878416 21:0.13059324 22:0.014196008 24:0.11653382 25:0.0056533138 26:0.16847673 31:0.17849815 32:0.17849815 34:0.11082037 36:0.1837095 43:0.050605062 44:0.068585195 49:0.028260231 57:0.16085862 58:0.18127638 73:0.042648286 88:0.087899692 90:0.10829791 92:0.034936797 93:0.010433778 94:0.086331673 98:0.019136596 99:0.10893558 102:0.24915798 108:0.18723327 112:0.048363443 121:0.27590936 135:0.27387667 138:0.13795468 141:0.086021505 148:0.12457899 149:0.20185593 151:0.10504159 152:0.20117974 167:0.084168069 179:0.049906731 190:0.18127638 195:0.25284714 196:0.26334998 198:0.18003559 204:0.14458288 205:0.16085862 206:0.051466841 207:0.39478141 210:0.14340968 212:0.080120899 221:0.17454946 238:0.058451172 241:0.13302636 247:0.16294214 261:0.21660849 264:0.10217223 265:0.19684164 268:0.16898662 284:0.089521147 291:0.084493309 300:0.23055497 306:0.28782314 329:0.099466719 330:0.25747889 331:0.094989106 335:0.1293432 339:0.29616883 375:0.21609809 377:0.21415719 429:0.066287138 443:0.19043911 466:0.067196243 470:0.22459808 503:0.34912497 506:0.26634187 516:0.11404996 521:0.21179843 573:0.17083549 585:0.10938361 588:0.177154 611:0.091854751 656:0.46498483 676:0.20952545 689:0.22428283 749:0.43321699 799:0.13585952 803:0.18127638 810:0.26791978 826:0.25284714 827:0.11552061 837:0.1130884 856:0.14236829 885:0.18271323 889:0.17849815 1096:0.19739071 1123:0.16509753 1187:0.28782314 1283:0.30580327 1411:0.33695346 1433:0.18568999 1459:0.19739071 1475:0.31719837 1512:0.23055497 1584:0.33114484 1603:0.30580327 1725:0.16964498 1855:0.22750558 2073:0.2407124 2222:0.27387667 2377:0.23055497 2388:0.18127638 2802:0.28782314 2839:0.2804617 2856:0.28782314 3452:0.30580327 3578:0.30580327 3958:0.34912497 4424:0.34912497 4496:0.33114484 4530:0.41778824 4531:0.41778824 4532:0.41778824 4533:0.41778824 4534:0.37446654 #
-0.091608680822010957189860391736147 1:0.23439917 10:0.0029295019 11:0.071157359 12:0.031306121 13:0.013670639 17:0.072761476 22:0.009464005 25:0.010050336 29:0.11345411 90:0.096264809 92:0.062109858 93:0.027823409 138:0.36787915 139:0.55873454 148:0.33221063 149:0.089713745 150:0.36787915 167:0.22444819 179:0.13308461 196:0.17556666 238:0.1558698 283:0.28464633 329:0.1326223 375:0.28813079 381:0.21067946 384:0.42624623 407:0.52154392 429:0.17676571 441:0.8154754 506:0.35512248 548:0.58442634 657:1.1295916 676:0.55873454 684:0.29049489 721:0.39231306 741:0.62336212 827:0.30805498 1501:0.8154754 1536:0.46890178 1537:0.99857742 1538:1.114102 1539:0.74789786 1540:0.74789786 #
-0.091608680822010957189860391736147 1:0.562558 2:0.11418591 3:0.16924801 5:0.13699612 10:0.0052731037 11:0.085388824 12:0.18783674 13:0.032809533 17:0.17462754 22:0.01892801 24:0.023306763 25:0.0060302014 29:0.13614494 31:0.57119405 32:0.57119405 34:0.11820839 35:0.25819683 73:0.045491505 94:0.55252272 98:0.061237108 112:0.15476301 121:0.88290995 123:0.52483374 141:0.27526879 167:0.13466892 173:0.2366707 183:0.20157158 192:0.32314152 196:0.21067999 199:0.203637 200:0.27329835 222:0.36966595 230:0.23263016 233:0.25017795 238:0.18704374 265:0.20996442 273:0.64377517 278:0.19090238 293:0.34020102 329:0.47744027 375:0.34575695 381:0.25281534 429:0.21211885 469:0.41992885 489:0.65668285 494:0.44374073 585:0.35002756 599:0.40804416 654:0.52831209 720:0.79531229 947:0.5354557 996:0.70131159 1032:0.7824046 1038:0.69314718 1122:0.8764053 1123:0.52831209 1341:0.92103404 1449:0.83994102 1486:0.6258527 1755:1.0150348 1835:0.72801787 2008:0.83994102 2446:0.8764053 2629:1.1982929 2653:0.69314718 2722:1.1171999 2723:1.0596634 2724:0.74803454 #
-0.01923083036851919863652327080672 2:0.14273238 3:0.10578001 5:0.25686774 10:0.0043942528 11:0.10673603 13:0.020505959 19:0.59513664 22:0.01892801 24:0.058266908 25:0.0075377519 49:0.11304092 57:0.64343446 58:0.72510552 59:0.37570703 61:0.52237296 71:0.26245552 84:0.47428 88:0.17579938 90:0.14439721 92:0.046582393 96:0.27247509 106:0.5775913 112:0.38690755 121:1.1036375 173:0.29583839 198:0.055395566 242:0.16956465 265:0.52491105 297:0.38867825 329:0.19893344 337:0.47220528 382:0.42525128 426:0.8381018 605:0.66931963 661:0.47220528 685:0.88727939 689:0.44856566 712:0.69314718 901:0.48060945 946:0.52237296 1031:0.74275994 1189:0.84719372 1633:1.3964999 1835:0.91002232 3143:0.8126561 3203:1.2687935 3273:1.4978662 #
-0.091608680822010957189860391736147 2:0.06343662 3:0.094026677 5:0.076108955 7:0.22994347 10:0.0058590039 12:0.083482996 13:0.018227519 15:0.21079111 22:0.0084124487 24:0.012948202 25:0.010050336 34:0.065671332 35:0.14344269 43:0.089964554 70:0.28597087 73:0.050546117 88:0.078133054 90:0.064176537 93:0.018548939 96:0.12110004 98:0.068041235 112:0.085979454 121:0.49050555 136:0.40987548 149:0.059809163 162:0.22562793 164:0.29547334 170:0.21455795 189:0.22994347 196:0.11704444 198:0.098481007 210:0.12747528 242:0.15072413 264:0.18163952 278:0.10605688 290:0.18163952 293:0.18900056 335:0.22994347 355:0.44950604 364:0.25847796 466:0.11945999 573:0.30370757 666:0.37653053 687:0.20625533 689:0.19936252 716:0.26154205 827:0.20536998 847:0.49859858 917:0.33855841 928:0.40445438 1088:0.38961753 1433:0.33011553 1480:0.22994347 1726:0.29951417 1740:0.51168555 1860:0.31977212 1911:0.3509168 2502:0.36859065 2516:0.44184017 2517:0.44184017 2606:0.74273461 2607:0.74273461 2608:0.74273461 2609:0.56390822 2610:0.51168555 2611:0.74273461 2612:0.62066662 #
-0.032776256148099654208483144657293 5:0.085622579 10:0.0021971264 12:0.046959184 13:0.020505959 22:0.01892801 25:0.0075377519 29:0.17018117 41:0.47637206 49:0.11304092 51:0.46810684 59:0.37570703 61:0.52237296 71:0.26245552 90:0.14439721 92:0.093164787 112:0.19345377 121:0.55181873 149:0.13457061 173:0.29583839 183:0.25196448 198:0.11079113 291:0.33797324 361:0.6199798 381:0.31601918 429:0.26514855 548:0.87663949 655:0.69819784 657:0.84719372 712:0.69314718 800:0.7308529 840:0.94856 901:0.48060945 1979:0.92221987 2115:1.3964999 2219:1.4978662 3425:1.6711529 3426:1.6711529 3427:1.6711529 3428:1.6711529 3429:1.3245794 #
0.075024878486200666238836731736228 3:0.14104001 10:0.0058590039 12:0.062612243 13:0.027341278 22:0.012618673 24:0.038844604 25:0.010050336 44:0.36578768 49:0.15072124 68:0.8747229 88:0.23439917 89:0.58821028 92:0.062109858 93:0.055646818 98:0.10206185 177:0.7717213 188:0.50282067 198:0.073860757 206:0.13724491 230:0.38771695 238:0.31173959 242:0.22608618 268:0.45063099 283:1.1385853 284:0.47744611 444:0.98231405 740:1.0336976 823:0.89854258 1941:1.3040076 2242:1.0627013 4507:1.9971548 #
0.091608680822010957189860391736147 1:0.35159877 3:0.042312004 7:0.20694911 10:0.0043942528 11:0.042694412 12:0.018783674 13:0.016404767 17:0.043656886 18:0.054688469 19:0.23805466 22:0.013249607 24:0.046613526 25:0.010050336 29:0.068072468 34:0.059104197 41:0.38109764 43:0.16193619 44:0.32920891 46:0.16032073 73:0.022745753 92:0.055898875 93:0.050082136 98:0.09185566 107:0.12640767 109:0.3388775 110:0.46051702 112:0.15476301 132:0.13862944 148:0.19932638 149:0.053828247 161:0.35935694 167:0.20200336 170:0.19310215 182:0.42614695 198:0.022158228 202:0.28335071 204:0.077110872 206:0.041173473 216:0.28559703 217:0.25414771 238:0.093521871 249:0.1856298 260:0.46051702 262:0.91115701 278:0.095451191 279:0.15028282 295:0.20794415 297:0.1554713 302:0.16411866 329:0.23872013 423:0.189712 429:0.21211885 453:0.20402208 600:0.45315424 611:0.14696759 616:0.41196623 648:0.40613028 670:0.33173159 672:0.38513985 684:0.34859386 946:0.20894919 962:0.25737378 1096:0.31582513 1160:0.29004222 1173:0.35491174 1291:0.35935694 1301:0.35065579 1500:1.138272 1669:0.28134108 1680:0.41997051 1935:0.42867166 1936:0.37942401 1941:0.3912023 2334:0.48928523 2565:0.3912023 3499:0.52983171 4432:0.52983171 4433:0.59914643 4434:0.66846114 4435:0.55859995 4436:0.55859995 4437:0.66846114 4438:0.59914643 #
0.024292710508838084859650763291938 1:0.1406395 3:0.084624007 10:0.0087885056 12:0.11270204 13:0.065619066 15:0.75884801 18:0.10937694 22:0.01892801 24:0.023306763 25:0.010050336 34:0.11820839 35:0.25819683 36:0.29393518 38:1.0150348 43:0.16193619 44:0.21947262 49:0.090432741 71:0.20996442 73:0.045491505 82:0.4872233 84:0.37942401 89:0.70585233 90:0.11551777 92:0.11179775 93:0.066776179 99:0.34859386 106:0.46207306 108:0.59914643 141:0.27526879 149:0.10765649 150:0.44145498 167:0.13466892 177:0.46303278 198:0.044316456 204:0.15422174 206:0.082346946 212:0.25638688 224:0.35586739 284:0.28646767 295:0.41588831 337:0.37776423 382:0.34020102 429:0.21211885 442:0.65012491 469:0.41992885 496:0.56268215 523:0.82393247 585:0.35002756 661:0.37776423 817:0.79531229 852:0.59914643 1006:0.5354557 1191:0.74803454 1301:0.70131159 1322:0.92103404 1393:1.0150348 1527:0.77027971 1984:1.1171999 3054:0.94774032 5319:1.3369223 5320:1.3369223 #
0.046781195823080191920073644951117 1:0.70319754 2:0.14273238 10:0.0087885056 12:0.14087756 13:0.020505959 17:0.10914221 21:0.52237296 22:0.014196008 24:0.029133454 25:0.010050336 34:0.1477605 35:0.32274604 73:0.02843219 88:0.17579938 89:0.4411577 90:0.14439721 92:0.046582393 93:0.083470225 98:0.076546386 107:0.31601918 147:0.50766283 149:0.13457061 167:0.33667228 169:0.51986039 173:0.29583839 179:0.19962692 192:0.40392688 200:0.34162292 202:0.35418838 206:0.30880105 242:0.16956465 268:0.33797324 279:0.37570703 520:0.8126561 589:0.66481501 648:0.50766283 763:0.63536924 827:0.46208245 837:0.4523536 860:0.39925385 1160:0.72510552 #
0.002957955136693722272833717568119 10:0.0087885056 11:0.10673603 13:0.041011918 18:0.13672116 22:0.01892801 24:0.029133454 25:0.002512584 34:0.29552099 44:0.27434078 49:0.11304092 50:0.4411577 89:0.4411577 95:0.47848177 107:0.31601918 108:0.74893308 173:0.29583839 198:0.055395566 242:0.16956465 290:0.40868893 702:0.71948731 824:0.84719372 1028:0.99414039 1513:0.7308529 1726:0.67390692 1971:0.82085359 2052:1.0113885 4202:1.4978662 #
-0.091608680822010957189860391736147 1:0.42191851 5:0.06849806 10:0.0087885056 11:0.085388824 12:0.11270204 13:0.0492143 18:0.21875387 21:0.41789839 22:0.0075712041 25:0.010050336 36:0.29393518 44:0.21947262 73:0.090983011 88:0.1406395 90:0.11551777 92:0.074531831 93:0.066776179 95:0.38278541 98:0.061237108 106:0.23103653 141:0.27526879 149:0.10765649 151:0.67226619 167:0.13466892 179:0.15970154 198:0.044316456 209:0.58938843 212:0.25638688 230:0.23263016 232:0.82393247 233:0.25017795 278:0.19090238 283:0.34157559 291:0.27037859 297:0.31094259 329:0.31829351 350:0.58008444 382:0.34020102 508:1.0294951 516:0.36495987 520:0.65012491 583:0.50204492 625:0.44605288 627:0.46051702 661:0.37776423 732:0.7824046 733:0.41192779 837:0.72376579 942:0.8764053 1485:0.5668928 1641:0.79531229 2074:1.1982929 2124:2.2343998 2204:0.82393247 2220:1.0596634 2627:1.0596634 3581:0.677755 3616:1.0596634 #
-0.042279205710095156545147432325393 3:0.18133716 5:0.048927188 10:0.0062775044 11:0.060992021 12:0.08050146 13:0.070306145 17:0.12473395 18:0.15625276 22:0.010816006 24:0.099886127 25:0.010050336 29:0.19449276 35:0.18442631 36:0.20995371 37:0.36306813 44:0.31353229 63:0.31371078 68:0.37488124 71:0.14997458 73:0.081234835 82:0.34801665 89:0.25209013 90:0.082512692 92:0.02661851 93:0.095394544 98:0.087481581 100:0.67695737 106:0.1650261 108:0.85592353 112:0.22109002 120:0.25848776 138:0.31532499 142:0.38508967 149:0.076897494 151:0.48019013 153:0.3014144 155:0.48411068 168:0.37488124 169:0.29706308 173:0.1690505 198:0.22158226 199:0.29091001 204:0.44063357 212:0.18313348 217:0.36306813 219:0.37736577 227:0.52698278 233:0.17869852 238:0.66801339 241:0.15203013 242:0.096894078 249:0.53037083 264:0.23353653 265:0.14997458 266:0.35860351 278:0.13635884 291:0.19312756 293:0.24300073 295:0.29706308 321:0.22552375 329:0.34102875 351:0.36535391 381:0.36116478 382:0.24300073 386:0.25958246 423:0.54203427 425:0.94780457 445:0.39325514 466:0.15359142 511:0.48411068 527:0.42796177 528:0.52698278 529:0.65788144 532:0.45117873 577:0.51336706 587:0.40191582 599:0.29146013 611:0.20995371 645:0.39325514 687:0.26518542 712:0.3960841 721:0.33626834 800:0.41763023 826:0.57793635 856:0.3254132 888:0.4598394 946:0.29849884 948:0.35642242 1093:0.9381184 1156:0.35642242 1371:0.55019975 1646:0.46437493 1716:0.61238807 1757:0.72502482 2295:0.67695737 2474:0.67695737 3027:0.95494455 3028:0.95494455 3029:0.85592353 3030:0.64105529 3031:0.85592353 3032:0.79799992 #
-0.091608680822010957189860391736147 1:0.41019854 2:0.047577463 3:0.035260003 5:0.028540859 8:0.21312311 10:0.007323755 11:0.071157359 12:0.078265309 13:0.020505959 17:0.072761476 18:0.045573723 22:0.014196008 24:0.038844604 25:0.010050336 34:0.19701399 39:0.23104906 44:0.091446921 49:0.037680309 64:0.15949392 70:0.21447815 73:0.047386985 88:0.058599792 90:0.048132405 92:0.015527464 93:0.027823409 96:0.090825029 98:0.076546386 99:0.14524744 106:0.096265219 107:0.10533973 118:0.30334076 119:0.221605 147:0.16922095 149:0.044856872 150:0.18393958 167:0.16833614 173:0.098612793 174:0.14705257 179:0.066542305 191:0.19726031 192:0.13464229 196:0.087783329 198:0.018465189 200:0.11387431 203:0.23104906 206:0.034311228 207:0.26318759 212:0.10682786 217:0.21178976 228:0.16534428 249:0.1546915 268:0.11265775 278:0.079542659 279:0.25047135 290:0.13622965 297:0.12955941 301:0.32094985 302:0.13676555 321:0.13155553 337:0.15740177 364:0.096929237 382:0.14175043 446:0.65200382 450:0.25175416 453:0.1700184 460:0.16459012 468:0.18585537 520:0.27088538 550:0.26077196 594:0.31168106 610:0.29946411 624:0.18489197 625:0.18585537 628:0.30740663 636:0.30334076 661:0.15740177 672:0.32094985 678:0.7308529 679:0.49115703 749:0.28881133 837:0.30156907 852:0.24964435 854:0.23982911 917:0.2539188 946:0.17412433 948:0.20791309 1038:0.28881133 1096:0.26318759 1153:0.23273262 1392:0.38376418 1447:0.23104906 1523:0.35722637 1724:0.26567534 2487:0.557051 2488:0.46549997 2489:0.42293116 2490:0.557051 2491:0.49928871 2492:0.46549997 2493:0.35722637 2494:0.49928871 2495:0.49928871 2496:0.557051 2497:0.33712953 #
-0.091608680822010957189860391736147 2:0.057092953 3:0.12693602 10:0.0061519542 11:0.042694412 12:0.15026939 13:0.032809533 15:0.189712 17:0.087313771 18:0.10937694 22:0.009464005 24:0.034960143 25:0.0070352349 34:0.23641679 36:0.29393518 43:0.16193619 44:0.21947262 59:0.15028282 71:0.10498221 73:0.022745753 88:0.21095926 90:0.057758883 92:0.037265915 93:0.10016427 96:0.21798007 98:0.09185566 107:0.12640767 112:0.077381507 115:0.35491174 126:0.25737378 127:0.22302644 149:0.053828247 167:0.067334458 173:0.11833535 176:0.37942401 179:0.079850771 188:0.3016924 196:0.10534 198:0.22158226 200:0.27329835 206:0.082346946 212:0.12819344 221:0.27927914 231:0.30470255 242:0.067825854 249:0.1856298 265:0.20996442 268:0.13518929 290:0.16347557 293:0.17010051 302:0.32823732 331:0.45594773 335:0.41389823 359:0.20498827 386:0.18170772 423:0.189712 435:0.38448757 449:0.26956278 460:0.19750816 468:0.22302644 479:0.24361165 498:0.30736938 508:0.25737378 532:0.31582513 547:0.37401727 578:0.41588831 604:0.32834142 629:0.33524072 676:1.0057222 704:0.37401727 860:0.15970154 864:0.37401727 901:0.19224378 962:0.25737378 1045:0.36888793 1085:0.35065579 1160:0.29004222 1189:0.3388775 1307:0.34657359 1348:0.32506245 1477:0.30470255 1480:0.20694911 1495:0.31292635 1573:0.40455544 1646:0.32506245 1656:0.30210501 1855:0.72801787 1926:0.66346318 1928:0.31582513 1932:0.66846114 1933:0.66846114 1934:0.66846114 1935:0.42867166 1936:0.37942401 1937:0.66846114 1938:0.66846114 1939:0.66846114 1940:0.41997051 1941:0.3912023 1942:0.40455544 1943:0.5075174 #
-0.016522536152548426141573045811128 1:0.58599794 2:0.047577463 3:0.070520006 5:0.11416344 10:0.0087885056 11:0.10673603 12:0.062612243 13:0.047847237 14:0.24964435 15:0.15809333 17:0.072761476 18:0.091147445 22:0.014196008 24:0.077689208 25:0.0083752796 29:0.056727055 41:0.31758139 43:0.13494684 46:0.26720122 49:0.037680309 53:0.33138013 68:0.21868072 71:0.087485179 73:0.02843219 84:0.15809333 87:0.22939885 88:0.11719958 90:0.048132405 93:0.041735113 94:0.1151089 96:0.090825029 98:0.15309277 102:0.16610532 107:0.10533973 147:0.16922095 149:0.044856872 153:0.35165012 161:0.29946411 162:0.16922095 167:0.11222409 169:0.1732868 179:0.19962692 183:0.16797632 196:0.087783329 198:0.055395566 199:0.084848754 200:0.11387431 206:0.034311228 212:0.10682786 228:0.16534428 233:0.20848162 238:0.1558698 239:0.24557851 241:0.088684238 264:0.40868893 266:0.20918538 279:0.12523568 283:0.14232317 284:0.11936153 295:0.1732868 329:0.1326223 335:0.17245761 337:0.15740177 340:0.30334076 344:0.27361786 351:0.21312311 356:0.21447815 386:0.15142311 387:0.31618667 397:0.20542534 417:0.49928871 423:0.15809333 429:0.088382855 446:0.32600191 539:0.19188209 540:0.3433052 545:0.19726031 648:0.16922095 654:0.22013004 661:0.15740177 712:0.23104906 716:0.19615653 721:0.19615653 724:0.21447815 733:0.17163658 822:0.66276026 823:0.22463565 826:0.33712953 860:0.13308461 910:0.2584244 989:0.2957598 1045:0.30740663 1091:0.42293116 1157:0.33138013 1196:0.44152644 1266:0.26077196 1269:0.24361764 1315:0.28554294 1339:0.3433052 1353:0.23982911 1456:0.3948918 1467:0.42293116 1471:0.3433052 1502:0.24964435 1508:0.26318759 1512:0.30740663 1515:0.38376418 1597:0.276443 1602:0.3948918 1614:0.4077377 1680:0.34997544 1694:0.32094985 1716:0.35722637 1894:0.32600191 1922:0.3948918 1926:0.276443 2024:0.3948918 2042:0.26567534 2043:0.26823965 2055:0.29946411 2087:0.46549997 2121:0.35722637 2162:0.557051 2163:0.46549997 2164:0.49928871 2165:0.3948918 2166:0.49928871 2167:0.46549997 2168:0.46549997 2169:0.557051 2170:0.557051 2171:0.42293116 2172:0.3948918 2173:0.46549997 2174:0.557051 2175:0.557051 2176:0.42293116 2177:0.3948918 2178:0.49928871 2179:0.557051 #
0.091608680822010957189860391736147 1:0.35159877 2:0.057092953 3:0.042312004 5:0.06849806 6:0.29957321 8:0.25574774 10:0.0061519542 11:0.042694412 13:0.0492143 17:0.043656886 18:0.16406541 19:0.23805466 22:0.0075712041 24:0.023306763 25:0.010050336 29:0.2042174 44:0.10973631 51:0.18724273 64:0.1913927 73:0.03411863 88:0.1406395 92:0.018632958 93:0.033388089 98:0.030618554 132:0.27725887 147:0.40613028 149:0.16148475 167:0.067334458 179:0.15970154 204:0.077110872 206:0.082346946 209:0.29469422 241:0.21284217 262:0.22778925 264:0.16347557 277:0.26241687 302:0.16411866 333:0.39765614 355:0.40455544 381:0.12640767 383:0.29957321 429:0.10605942 437:0.52983171 445:0.2752786 482:0.16541737 568:0.63165027 642:0.38513985 657:1.0166324 661:0.18888211 670:0.33173159 730:0.89747745 738:0.43820265 763:0.25414771 797:0.31582513 827:0.18483298 892:0.48928523 1074:0.43820265 1098:0.36888793 1122:0.43820265 1123:0.26415604 1411:0.26956278 1423:0.41196623 1466:0.48928523 1579:0.48928523 1590:0.46051702 1928:0.31582513 1930:0.5075174 2107:0.3912023 2618:0.44873872 2718:0.5075174 2774:0.52983171 3677:0.55859995 4077:0.48928523 4265:0.66846114 4266:0.59914643 4267:0.66846114 4268:0.66846114 4269:0.59914643 4270:0.59914643 4271:0.66846114 4272:0.59914643 4273:0.66846114 4274:0.59914643 #
0.050283979735637078511967246186032 3:0.094026677 5:0.076108955 10:0.0087885056 11:0.047438238 13:0.027341278 18:0.12152993 22:0.0042062243 24:0.090637416 25:0.010050336 29:0.075636074 34:0.065671332 37:0.28238633 43:0.26989368 44:0.12192923 49:0.15072124 51:0.20804748 71:0.1166469 73:0.063182645 83:0.33011553 88:0.078133054 90:0.12835307 92:0.062109858 93:0.018548939 106:0.12835363 112:0.17195891 120:0.20104605 121:0.49050555 132:0.15403271 141:0.15292712 163:0.34152153 170:0.21455795 174:0.19607009 182:0.23674831 198:0.049240503 199:0.11313167 201:0.26154205 202:0.15741706 224:0.19770411 229:0.33285913 238:0.1039132 241:0.23649131 250:0.27891383 264:0.18163952 265:0.58323449 267:0.18092954 293:0.37800112 297:0.17274588 321:0.17540736 331:0.16886953 364:0.12923898 382:0.18900056 460:0.2194535 466:0.23891999 475:0.26910353 494:0.24652262 522:0.31977212 583:0.27891383 585:0.19445975 600:0.50350469 611:0.16329733 689:0.39872503 728:0.27227837 775:0.24275579 793:0.69539195 818:0.26601693 873:0.33011553 885:0.3248235 889:0.63466007 1012:0.86933845 1031:0.33011553 1039:0.44950604 1043:0.40987548 1116:0.42158222 1349:0.5887019 1353:0.31977212 1374:0.40987548 1545:0.54365027 1715:0.37248969 1791:0.39434639 1809:0.38508177 2040:0.44950604 2452:0.54365027 2516:0.44184017 2517:0.44184017 2678:0.42793316 2727:0.42793316 3010:1.2413332 3535:0.66571826 4190:0.56390822 5068:0.66571826 5431:0.74273461 5432:0.74273461 5433:0.74273461 5434:0.74273461 5435:0.74273461 5436:0.74273461 #
0.091608680822010957189860391736147 2:0.15570806 3:0.076930918 5:0.031135483 10:0.0087885056 11:0.11643931 12:0.034152135 13:0.02982685 15:0.17246546 17:0.039688077 21:0.1899538 22:0.0051621846 24:0.052969918 25:0.0091366693 34:0.053731088 37:0.23104337 43:0.14721473 46:0.29149225 49:0.24663475 51:0.17022067 56:0.30157417 64:0.17399338 70:0.23397617 71:0.095438376 72:0.20170033 73:0.051694892 83:0.27009451 87:0.25025329 88:0.12785409 90:0.10501615 92:0.084695265 93:0.015176405 94:0.12557335 96:0.099081852 98:0.055670097 106:0.21003321 107:0.11491606 112:0.14069365 141:0.25024438 149:0.1468043 153:0.38361832 162:0.18460467 167:0.061213139 169:0.18904014 170:0.35109481 179:0.07259161 183:0.1832469 186:0.20275131 188:0.13713291 190:0.26367474 194:0.22146514 196:0.095763631 198:0.10071921 204:0.14020158 210:0.10429795 212:0.11653949 221:0.25389013 230:0.52870494 238:0.085019886 241:0.096746445 256:0.16243382 257:0.27009451 264:0.29722831 265:0.28631511 266:0.22820222 275:0.28447852 281:0.37451476 291:0.12289936 293:0.30927366 300:0.33535269 301:0.35012713 305:0.32668811 329:0.14467886 331:0.13816598 359:0.18635298 361:0.22544719 362:0.16042098 364:0.10574098 403:0.19563748 423:0.17246546 424:0.13921092 453:0.18547462 498:0.27942672 648:0.18460467 676:0.3047643 684:0.15845175 698:0.41865185 775:0.59585512 776:0.28447852 806:0.35012713 837:0.16449222 844:0.3150669 885:0.26576468 986:0.33535269 1038:0.3150669 1189:0.30807045 1262:0.34493092 1301:0.31877798 1437:0.30807045 1449:0.38179138 1480:0.18813556 1523:0.38970149 1548:0.77940297 1653:0.29262507 1829:0.37451476 1848:0.54467857 2324:0.48166522 2502:0.90472251 2723:0.48166522 3659:0.48166522 3997:0.54467857 4189:0.48166522 4290:0.48166522 4350:0.5078181 4847:0.607692 4848:0.607692 4849:0.607692 4850:0.607692 4851:0.607692 4852:0.607692 4853:0.607692 #
0.091608680822010957189860391736147 2:0.081561364 5:0.048927188 10:0.0087885056 12:0.026833819 13:0.023435382 22:0.005408003 24:0.049943063 25:0.0071788114 29:0.29173914 34:0.084434569 49:0.25837925 72:0.31695765 73:0.032493934 90:0.082512692 92:0.053237021 93:0.023848636 96:0.15570004 112:0.11054501 121:0.31532499 162:0.29009306 170:0.27586022 179:0.11407253 198:0.094963834 206:0.058819246 210:0.16389678 265:0.29994917 297:0.22210185 398:0.38508967 443:0.43528935 467:0.6260038 468:0.31860921 560:0.29849884 585:0.2500197 600:0.32368159 684:0.49799123 687:0.26518542 689:0.25632322 720:0.56808025 728:0.35007218 901:0.27463397 910:0.44301325 978:0.65788144 1075:0.91967881 1080:0.47390229 1094:0.59995788 2202:0.48950216 2653:0.99021024 2727:0.55019975 3182:0.79799992 3233:0.85592353 3534:0.85592353 4479:0.85592353 4913:0.95494455 #
0.091608680822010957189860391736147 10:0.0087885056 12:0.15653062 13:0.041011918 14:0.49928871 17:0.21828443 18:0.091147445 22:0.012618673 24:0.038844604 25:0.0067002238 26:0.44927129 31:0.47599506 32:0.47599506 34:0.29552099 35:0.21516404 44:0.18289384 46:0.26720122 88:0.23439917 92:0.031054929 107:0.42135891 179:0.26616922 194:0.40601942 198:0.073860757 212:0.21365573 233:0.20848162 242:0.11304309 279:0.25047135 290:0.2724593 291:0.2253155 331:0.2533043 407:0.52154392 427:0.32768548 702:0.47965822 947:0.4462131 981:0.59151959 1234:0.99857742 1449:0.69995087 1495:0.52154392 1755:0.84586233 2446:0.7303378 2943:0.69995087 3366:0.62336212 4650:0.88305289 #
-0.021811713455305407893813907094227 1:0.10045679 2:0.081561364 3:0.060445722 5:0.048927188 10:0.007533005 12:0.053667638 13:0.046870764 17:0.12473395 18:0.23437914 21:0.29849884 22:0.016224008 24:0.049943063 25:0.010050336 29:0.58347827 34:0.084434569 43:0.11566871 46:0.22902963 51:0.26748961 88:0.40182716 90:0.082512692 92:0.079855531 93:0.071545906 98:0.17496316 107:0.18058239 112:0.11054501 132:0.99021024 138:0.31532499 141:0.39324114 149:0.076897494 164:0.37989429 174:0.25209013 176:0.54203427 192:0.23081537 198:0.063309222 199:0.145455 206:0.058819246 228:0.28344733 229:0.42796177 230:0.1661644 242:0.096894078 243:0.4390991 249:0.26518542 256:0.25525314 277:0.37488124 283:0.24398257 284:0.20461975 294:0.6260038 311:0.50093687 312:0.38508967 321:0.22552375 322:0.64105529 429:0.15151346 473:0.63721842 489:0.4690592 494:0.31695765 561:0.37989429 611:0.20995371 624:0.63391531 625:0.31860921 648:0.58018613 656:0.35427415 687:0.26518542 901:0.27463397 973:0.75690246 989:0.50701678 1034:0.6989789 1149:0.67695737 1273:0.5343104 1321:0.55886042 1344:0.6989789 1411:0.38508967 1710:0.45117873 1712:0.64105529 1715:0.95783061 1928:0.45117873 3052:0.79799992 3370:0.85592353 3804:0.79799992 3937:0.95494455 3938:0.79799992 3939:0.95494455 3940:0.95494455 #
-0.091608680822010957189860391736147 1:0.11719958 2:0.095154926 5:0.057081718 10:0.0087885056 11:0.071157359 12:0.15653062 13:0.027341278 18:0.091147445 25:0.0083752796 49:0.075360619 51:0.31207123 73:0.018954795 90:0.28879443 92:0.062109858 93:0.027823409 98:0.051030923 99:0.29049489 112:0.12896918 123:0.43736145 141:0.22939067 192:0.26928458 199:0.16969751 200:0.22774862 204:0.12851812 241:0.17736848 250:0.41837075 262:0.37964875 266:0.41837075 283:0.56929266 284:0.23872305 290:0.2724593 291:0.2253155 407:0.52154392 424:0.51044005 429:0.35353142 472:0.41331986 510:0.58442634 538:0.43451238 627:0.76752836 680:0.57762265 684:0.29049489 777:0.53647929 860:0.26616922 947:0.4462131 1037:0.59151959 1062:0.74789786 1098:0.61481327 2274:0.93099993 #
-0.024499967036846561491136853305761 1:0.11719958 2:0.095154926 10:0.0087885056 12:0.031306121 22:0.0063093365 24:0.058266908 25:0.0067002238 29:0.11345411 34:0.19701399 35:0.21516404 51:0.31207123 71:0.17497036 73:0.03790959 82:0.40601942 90:0.19252962 92:0.062109858 93:0.055646818 95:0.31898785 132:0.23104906 167:0.22444819 174:0.58821028 192:0.26928458 196:0.17556666 198:0.14772151 199:0.33939502 200:0.22774862 206:0.13724491 242:0.22608618 247:0.43451238 256:0.29779533 293:0.28350085 297:0.25911883 331:0.2533043 355:0.67425907 391:0.47241068 429:0.17676571 455:0.44321001 466:0.17918999 489:0.54723573 611:0.24494599 617:0.55873454 622:1.0729586 625:0.37171075 803:0.48340368 856:0.37964875 860:0.26616922 873:0.49517328 936:0.7303378 981:0.59151959 1013:0.66276026 1234:0.49928871 1271:0.56479579 1351:0.84586233 1500:0.63237333 1508:0.52637517 1587:0.84586233 1981:0.99857742 2789:0.41582617 2985:0.69995087 3352:0.99857742 3600:0.99857742 3959:0.84586233 3960:1.114102 3961:1.114102 #
-0.073064873212929509760371615811891 1:0.15626611 4:0.29350671 5:0.076108955 10:0.0087885056 11:0.14231472 13:0.018227519 17:0.048507649 18:0.060764965 22:0.0084124487 24:0.064741008 25:0.0078169275 29:0.15127215 46:0.17813416 49:0.050240412 69:0.26450518 73:0.03790959 81:0.34456587 88:0.078133054 90:0.12835307 92:0.020703286 93:0.018548939 96:0.12110004 98:0.10206185 112:0.085979454 120:0.20104605 132:0.30806541 138:0.24525277 142:0.29951417 153:0.23443341 162:0.22562793 167:0.074816063 170:0.21455795 174:0.19607009 190:0.32226911 198:0.024620252 199:0.11313167 201:0.26154205 206:0.091496602 210:0.38242581 224:0.39540821 238:0.1039132 241:0.23649131 265:0.1166469 267:0.18092954 278:0.10605688 279:0.16698091 344:0.36482382 359:0.22776476 374:0.33855841 375:0.19208719 382:0.18900056 386:0.20189747 397:0.27390045 416:0.48689184 423:0.42158222 424:0.17014669 463:0.33285913 466:0.11945999 586:0.71530575 588:0.31494045 600:0.25175235 606:0.24652262 607:0.27227837 687:0.20625533 714:0.33285913 837:0.20104605 947:0.2974754 949:0.48689184 1001:0.37653053 1006:0.5949508 1059:0.5265224 1203:0.49859858 1418:0.40445438 1684:0.43466923 1716:0.47630182 1720:0.44184017 1731:0.36859065 1928:0.3509168 1968:0.62066662 1988:0.56390822 2052:0.44950604 2377:0.81975096 2564:0.74273461 2565:0.86933845 2566:0.74273461 2567:0.74273461 2568:0.5887019 2569:0.74273461 2570:0.62066662 2571:0.66571826 2572:1.4854692 2573:0.48689184 #
0.018093265452114502822578145924126 5:0.11416344 10:0.0058590039 11:0.071157359 13:0.054682557 18:0.27344233 22:0.012618673 24:0.019422302 25:0.010050336 49:0.075360619 71:0.17497036 73:0.03790959 90:0.19252962 92:0.031054929 93:0.027823409 96:0.18165006 98:0.10206185 106:0.38506088 125:0.55288601 204:0.12851812 206:0.068622455 224:0.29655614 230:0.19385847 241:0.17736848 267:0.27139431 284:0.23872305 362:0.29410514 363:0.31898785 516:0.30413321 668:0.69995087 689:0.59808755 702:0.47965822 749:0.57762265 853:0.93099993 901:0.32040629 946:0.34824866 1277:0.74789786 1321:1.3040076 1371:0.6418997 1597:0.55288601 1621:0.76752836 2178:0.99857742 2468:0.74789786 2960:0.93099993 4296:0.99857742 4735:0.99857742 5330:1.114102 5331:1.114102 5332:1.114102 5333:1.114102 5334:1.114102 5335:1.114102 #
0.091608680822010957189860391736147 2:0.11418591 5:0.06849806 10:0.0087885056 11:0.17077765 12:0.037567347 13:0.032809533 18:0.10937694 22:0.0075712041 24:0.11653382 25:0.0060302014 29:0.27228987 34:0.11820839 43:0.16193619 44:0.21947262 70:0.51474756 71:0.20996442 73:0.022745753 88:0.1406395 96:0.21798007 107:0.25281534 120:0.3618829 126:0.51474756 127:0.44605288 132:0.27725887 173:0.2366707 179:0.15970154 193:0.4872233 196:0.42135999 198:0.044316456 199:0.203637 200:0.27329835 210:0.22945549 228:0.39682627 241:0.21284217 257:0.59420794 258:0.43475044 267:0.32567319 284:0.28646767 329:0.15914676 381:0.25281534 382:0.34020102 391:0.5668928 422:0.53185201 427:0.39322257 475:0.48438638 521:0.677755 586:0.64377517 678:0.58468235 679:0.58938843 768:0.57558984 837:0.3618829 860:0.31940308 901:0.38448757 1156:0.4989914 1295:1.1171999 1487:0.80911088 1536:0.56268215 #
0.091608680822010957189860391736147 1:0.42191851 3:0.12693602 5:0.10274709 10:0.0035154023 12:0.018783674 13:0.032809533 15:0.189712 17:0.13097066 18:0.054688469 22:0.013249607 25:0.010050336 29:0.2042174 34:0.059104197 36:0.29393518 43:0.080968097 44:0.10973631 59:0.15028282 61:0.20894919 73:0.06823726 89:0.17646308 93:0.050082136 94:0.13813068 98:0.030618554 99:0.69718772 107:0.12640767 132:0.41588831 139:0.33524072 167:0.13466892 179:0.079850771 189:0.20694911 202:0.14167535 204:0.15422174 206:0.082346946 284:0.14323384 290:0.32695115 291:0.13518929 302:0.16411866 321:0.15786663 329:0.23872013 335:0.20694911 359:0.20498827 384:0.25574774 429:0.4242377 435:0.19224378 443:0.30470255 457:0.36400893 466:0.21502799 508:0.25737378 532:0.63165027 578:0.20794415 597:0.35935694 629:0.33524072 648:0.40613028 661:0.18888211 687:0.1856298 721:0.23538783 833:0.44873872 916:0.55859995 962:0.25737378 989:0.35491174 998:0.31582513 1123:0.26415604 1188:0.32188758 1235:0.3388775 1270:0.43820265 1281:0.30210501 1341:0.46051702 1353:0.28779492 1447:0.27725887 1508:0.31582513 1725:0.27143198 1795:0.42867166 1893:0.55859995 1908:0.35935694 2024:0.47387016 2064:0.34657359 2103:0.47387016 2135:0.55859995 2165:0.47387016 2204:0.41196623 2390:0.52983171 2684:0.52983171 2729:0.5075174 2852:0.59914643 2963:0.59914643 2978:0.59914643 3153:0.59914643 3503:0.39765614 3576:1.0150348 3581:0.677755 4714:0.55859995 #
0.023817862682585223127462725756232 1:0.52739811 2:0.095154926 3:0.070520006 5:0.028540859 10:0.0058590039 11:0.21347207 12:0.10957143 13:0.041011918 17:0.036380738 18:0.091147445 21:0.17412433 22:0.015773341 24:0.077689208 25:0.010050336 29:0.34036234 35:0.10758202 36:0.12247299 43:0.20242025 46:0.13360061 49:0.075360619 50:0.29410514 59:0.25047135 73:0.085296571 83:0.24758664 88:0.058599792 90:0.14439721 92:0.046582393 93:0.11129364 94:0.1151089 95:0.15949392 98:0.30618554 102:0.16610532 112:0.12896918 116:0.44152644 119:0.221605 132:0.23104906 141:0.34408602 149:0.13457061 150:0.55181873 152:0.26823965 167:0.33667228 168:0.21868072 173:0.098612793 179:0.066542305 183:0.08398816 193:0.40601942 194:0.20300971 196:0.35113332 198:0.11079113 200:0.11387431 202:0.11806279 204:0.19277719 206:0.068622455 209:0.24557851 210:0.095606454 212:0.10682786 216:0.47599506 220:0.23620534 222:0.30805498 230:0.096929237 233:0.31272244 241:0.17736848 242:0.056521546 249:0.1546915 261:0.28881133 262:0.37964875 266:0.20918538 277:0.21868072 284:0.23872305 290:0.13622965 293:0.14175043 321:0.26311105 329:0.66311145 331:0.12665215 364:0.096929237 365:0.32600191 374:0.2539188 381:0.31601918 384:0.42624623 388:0.49928871 403:0.17933436 429:0.35353142 443:0.76175642 444:0.24557851 445:0.22939885 450:0.25175416 455:0.221605 466:0.17918999 469:0.17497036 470:0.29946411 472:0.20665993 479:0.40601942 482:0.13784781 489:0.54723573 508:0.4289563 514:0.50350833 516:0.1520666 520:0.27088538 532:0.26318759 535:0.27361786 549:0.19084688 552:0.4077377 591:0.4462131 599:0.34003681 648:0.16922095 687:0.309383 689:0.14952189 705:0.4077377 710:0.27936727 712:0.23104906 718:0.30740663 774:0.37394893 800:0.24361764 827:0.30805498 837:0.30156907 852:0.24964435 884:0.23445089 926:0.42293116 934:0.21047738 941:0.3651689 985:0.30334076 1163:0.35722637 1169:0.4289563 1179:0.4077377 1209:0.25175416 1228:0.31168106 1266:0.26077196 1305:0.29221317 1316:0.33712953 1353:0.23982911 1435:0.37394893 1477:0.2539188 1480:0.34491521 1486:0.26077196 1508:0.52637517 1512:0.30740663 1513:0.24361764 1548:0.35722637 1556:0.28554294 1558:0.34997544 1585:0.37394893 1678:0.44152644 1693:0.4077377 1725:0.45238665 1752:0.27088538 1768:0.4077377 1860:0.23982911 1870:0.29946411 1908:0.59892821 1942:0.33712953 2019:1.1846753 2054:0.26567534 2097:0.3433052 2177:0.3948918 2204:0.6866104 2209:0.3651689 2282:0.34997544 2388:0.24170184 2531:0.42293116 2557:0.3651689 2816:0.2823979 2901:0.44152644 3259:0.46549997 3525:0.49928871 3567:0.88305289 4063:0.4077377 4229:0.42293116 4564:0.46549997 4733:0.49928871 4945:0.46549997 4963:0.46549997 5001:0.557051 5002:0.46549997 5003:0.557051 5004:0.557051 5005:0.557051 5006:0.557051 5007:1.114102 5008:0.557051 5009:0.557051 5010:0.557051 5011:0.49928871 5012:0.557051 5013:0.557051 5014:0.557051 5015:0.557051 5016:0.557051 #
0.088336729320339105187009920427954 5:0.042811289 10:0.0065913796 11:0.37357613 13:0.030758938 18:0.068360582 22:0.014196008 24:0.029133454 25:0.0062814597 29:0.17018117 41:0.23818603 43:0.10121012 46:0.20040092 49:0.11304092 71:0.13122776 73:0.11372876 81:0.3876366 90:0.43319163 92:0.069873594 93:0.020867556 98:0.076546386 101:0.52496314 112:0.096726887 120:0.4523536 132:0.34657359 141:0.51612902 149:0.13457061 179:0.099813461 198:0.16618671 199:0.25454625 212:0.1602418 220:0.35430801 238:0.23380469 241:0.13302636 250:0.31377804 251:0.51495779 256:0.22334649 265:0.13122776 297:0.19433913 302:0.20514832 398:0.33695346 408:0.46752161 424:0.38283002 445:0.34409827 454:0.5609234 473:0.27878305 539:0.57564628 545:0.29589045 577:0.44919616 599:0.25502759 625:0.27878305 654:0.33019507 661:0.23610264 684:0.21787116 687:0.46407449 732:0.48900288 747:0.47428 776:0.39115795 777:0.40235949 778:0.45501116 801:0.46110994 837:0.4523536 841:0.29260078 993:0.69824994 1022:0.50569427 1145:0.5609234 1329:0.63439673 1646:0.40632805 1845:0.51495779 2158:0.59233767 2523:0.53583956 3913:0.74893308 4774:0.74893308 5252:0.83557647 5253:0.83557647 5254:0.74893308 #
0.012494341713463303147890748334703 1:0.1406395 2:0.11418591 3:0.16924801 5:0.13699612 10:0.0070308046 12:0.075134695 13:0.065619066 18:0.21875387 22:0.015142408 24:0.11653382 25:0.010050336 49:0.090432741 50:0.35292616 57:0.51474756 73:0.090983011 90:0.11551777 92:0.11179775 98:0.18371132 112:0.15476301 149:0.10765649 150:0.44145498 183:0.20157158 191:0.47342473 192:0.32314152 195:0.80911088 196:0.21067999 198:0.17726582 206:0.41173473 217:0.50829542 238:0.18704374 241:0.21284217 249:0.3712596 267:0.32567319 268:0.27037859 329:0.15914676 330:0.82393247 332:0.65012491 382:0.34020102 386:0.36341545 435:0.38448757 445:0.5505572 468:0.44605288 480:1.4374278 501:0.52831209 538:0.52141488 582:0.58008444 606:0.44374073 607:0.49010104 611:0.29393518 684:0.34859386 733:0.41192779 735:0.677755 852:1.1982929 917:0.6094051 1019:0.89747745 1398:0.82393247 1416:0.85734332 1480:0.41389823 1527:0.77027971 1653:0.64377517 1845:0.82393247 2054:0.63762081 2139:0.79531229 2397:0.89747745 2404:0.97857046 2519:0.94774032 2895:1.1171999 3388:1.1982929 3581:1.35551 4275:1.1982929 4780:1.1982929 5294:1.3369223 5295:1.3369223 5296:1.3369223 5297:1.3369223 #
-0.091608680822010957189860391736147 1:0.19178113 2:0.051902685 3:0.038465459 5:0.031135483 10:0.0063916408 11:0.15525241 13:0.014913425 22:0.0068829125 24:0.11653382 25:0.0082230018 29:0.12376812 49:0.041105792 59:0.27324149 61:0.37990761 73:0.051694892 82:0.22146514 90:0.052508075 92:0.016939053 93:0.015176405 98:0.027835049 106:0.21003321 112:0.070346825 120:0.16449222 183:0.1832469 202:0.12879577 206:0.037430428 212:0.11653949 221:0.25389013 238:0.34007955 241:0.19349289 242:0.061659869 251:0.74902952 253:0.32264704 262:0.41416228 265:0.66806865 268:0.36869806 278:0.086773813 295:0.18904014 297:0.28267509 302:0.29839757 329:0.07233943 359:0.18635298 373:0.67070538 375:0.15716225 381:0.11491606 397:0.22410037 423:0.17246546 424:0.27842185 429:0.096417658 443:1.3850117 445:0.25025329 473:0.20275131 550:0.28447852 585:0.15910344 648:0.18460467 661:0.17171101 687:0.16875437 710:0.3047643 735:0.30807045 775:0.79447347 799:0.39522767 800:0.26576468 818:0.2176502 827:0.16802998 831:0.7230112 846:0.35012713 910:0.28191751 986:0.33535269 1003:0.24014185 1080:0.30157417 1157:0.3615056 1160:0.26367474 1166:0.41865185 1169:0.23397617 1170:0.63013381 1190:0.38970149 1257:0.35012713 1307:0.3150669 1315:0.62300277 1393:0.46137944 1399:0.34493092 1539:0.40794429 1562:0.44480476 1563:0.33535269 1641:0.3615056 1720:1.4460224 1809:0.3150669 1928:0.28711376 2239:0.73555535 2535:0.44480476 2648:0.48166522 2729:0.46137944 3257:0.5078181 3430:0.62300277 3522:0.31877798 3523:0.607692 3524:0.54467857 3525:0.54467857 3526:0.54467857 3527:0.5078181 3528:0.607692 3529:0.48166522 #
-0.035690547745866718631901903791004 1:0.46879834 2:0.19030985 5:0.11416344 10:0.0029295019 11:0.14231472 13:0.082023837 15:0.63237333 22:0.01892801 25:0.0067002238 49:0.15072124 71:0.34994072 73:0.075819179 88:0.23439917 90:0.38505924 92:0.12421972 93:0.055646818 98:0.20412369 99:1.1619796 112:0.25793836 167:0.22444819 179:0.26616922 198:0.073860757 200:0.45549724 202:0.47225118 230:0.38771695 233:0.41696325 238:0.31173959 265:0.34994072 268:0.45063099 279:0.50094271 302:0.54706222 424:0.51044005 445:0.91759539 473:0.74342149 494:0.73956788 521:1.1295916 591:0.89242619 654:0.88052016 712:0.92419624 740:1.0336976 801:1.2296265 837:0.60313815 860:0.53233844 1139:1.1421717 1153:0.9309305 1237:1.6917247 1285:1.7661058 1459:1.0527503 1670:1.6917247 2463:2.228204 2464:2.228204 2465:2.228204 2466:1.9971548 2467:1.6917247 2468:1.4957957 #
-0.087623382180947284592065216202172 2:0.19030985 5:0.057081718 10:0.007323755 11:0.14231472 12:0.031306121 13:0.013670639 18:0.091147445 22:0.0063093365 24:0.058266908 25:0.0050251679 34:0.19701399 49:0.30144247 50:0.29410514 73:0.018954795 88:0.11719958 90:0.19252962 92:0.093164787 93:0.027823409 112:0.12896918 147:0.33844191 149:0.089713745 162:0.33844191 182:0.35512248 183:0.16797632 196:0.17556666 198:0.22158226 199:0.16969751 200:0.22774862 204:0.25703624 209:0.49115703 212:0.21365573 223:0.56479579 238:0.1558698 279:0.25047135 295:0.34657359 398:0.44927129 402:0.6418997 422:0.44321001 429:0.17676571 460:0.32918024 461:0.66276026 463:0.49928871 467:0.7303378 468:0.37171075 506:0.35512248 716:0.39231306 742:0.88305289 818:0.39902538 860:0.26616922 1338:0.7303378 1437:0.56479579 1485:0.47241068 1486:0.52154392 1487:0.67425907 1488:0.7897836 1489:0.7897836 1490:0.63237333 1491:0.88305289 1492:0.93099993 #
-0.091608680822010957189860391736147 3:0.084624007 5:0.06849806 10:0.0087885056 11:0.085388824 12:0.11270204 13:0.0492143 14:0.59914643 15:0.37942401 17:0.087313771 22:0.015142408 24:0.023306763 25:0.0080402689 29:0.13614494 34:0.11820839 36:0.29393518 37:0.50829542 43:0.16193619 44:0.21947262 49:0.18086548 84:0.37942401 88:0.1406395 93:0.066776179 96:0.21798007 98:0.12247422 141:0.27526879 142:0.53912556 167:0.13466892 173:0.2366707 183:0.20157158 198:0.22158226 204:0.15422174 220:0.5668928 230:0.23263016 236:0.68530303 258:0.43475044 264:0.32695115 331:0.30396515 337:0.37776423 359:0.40997654 381:0.25281534 468:0.44605288 494:0.44374073 549:0.45803252 610:0.71871388 687:0.3712596 885:0.58468235 888:0.64377517 889:0.57119405 1012:0.7824046 1206:0.83994102 1269:0.58468235 1459:0.63165027 1477:0.6094051 1479:0.80911088 1534:0.85734332 1935:0.85734332 2040:0.80911088 2097:0.82393247 3060:1.1982929 #
-0.091608680822010957189860391736147 2:0.095154926 3:0.14104001 5:0.057081718 10:0.007323755 22:0.015773341 25:0.010050336 34:0.098506995 44:0.18289384 49:0.22608185 71:0.17497036 73:0.03790959 88:0.11719958 92:0.031054929 96:0.18165006 98:0.051030923 104:0.57108587 106:0.19253044 107:0.21067946 138:0.36787915 166:0.94482136 186:0.37171075 198:0.073860757 204:0.12851812 238:0.1558698 241:0.17736848 278:0.15908532 293:0.28350085 423:0.31618667 453:0.34003681 501:0.44026008 539:0.38376418 545:0.39452061 606:0.36978394 607:0.40841752 609:0.69995087 611:0.24494599 689:0.59808755 796:0.57762265 797:0.52637517 901:0.32040629 1291:0.59892821 1292:0.8154754 1293:0.88305289 1294:1.114102 1295:0.93099993 #
0.031244219393614155316774017023818 1:0.42191851 2:0.11418591 10:0.0087885056 12:0.037567347 13:0.0492143 18:0.21875387 22:0.0075712041 24:0.023306763 25:0.0040201345 43:0.16193619 73:0.090983011 90:0.23103553 92:0.074531831 112:0.15476301 148:0.39865276 149:0.10765649 151:0.33613309 167:0.26933783 174:0.35292616 179:0.15970154 189:0.41389823 198:0.088632911 202:0.28335071 206:0.16469389 212:0.25638688 238:0.18704374 252:0.50204492 266:0.50204492 273:0.64377517 283:0.34157559 293:0.34020102 302:0.32823732 329:0.15914676 423:0.37942401 424:0.30626401 429:0.4242377 453:0.81608832 455:0.53185201 460:0.39501631 545:0.94684947 548:0.70131159 656:0.49598381 856:0.45557851 947:0.5354557 981:0.70982349 1169:0.51474756 1291:0.71871388 1646:0.65012491 1662:0.7824046 1751:1.0150348 2193:0.82393247 2388:0.58008444 2868:0.74803454 3116:0.8764053 3136:1.1982929 3329:0.83994102 3430:0.68530303 4541:1.0596634 5137:1.0150348 5241:1.3369223 5242:1.3369223 #
0.091608680822010957189860391736147 10:0.0087885056 12:0.18783674 17:0.087313771 22:0.003785602 24:0.023306763 25:0.0080402689 73:0.022745753 90:0.3465533 92:0.11179775 98:0.061237108 112:0.15476301 138:0.44145498 149:0.10765649 173:0.2366707 198:0.044316456 242:0.13565171 283:0.34157559 302:0.32823732 313:0.65012491 373:0.73777586 516:0.36495987 639:0.69314718 684:0.34859386 733:0.41192779 1238:0.83994102 2575:0.92103404 2830:0.77027971 3001:0.92103404 3616:1.0596634 #
0.049175170566245082759415652162716 2:0.12687324 3:0.094026677 5:0.15221791 7:0.22994347 10:0.0068355049 11:0.047438238 12:0.083482996 13:0.045568798 17:0.14552295 22:0.0063093365 23:0.38072392 24:0.077689208 25:0.010050336 29:0.15127215 34:0.26268533 35:0.14344269 44:0.12192923 49:0.15072124 59:0.33396181 61:0.23216577 72:0.24652262 73:0.03790959 84:0.21079111 90:0.12835307 92:0.062109858 93:0.018548939 98:0.068041235 106:0.12835363 107:0.14045297 148:0.22147375 149:0.23923665 151:1.1204436 167:0.074816063 171:0.42793316 179:0.088723078 183:0.11198422 189:0.22994347 198:0.19696201 200:0.15183242 204:0.085678749 206:0.091496602 222:0.20536998 228:0.22045904 230:0.12923898 241:0.11824565 242:0.15072413 256:0.19853021 264:0.5449186 267:0.18092954 268:0.15021032 278:0.10605688 297:0.17274588 302:0.18235406 329:0.088414863 331:0.16886953 362:0.19607009 363:0.21265857 382:0.18900056 383:0.33285913 397:0.27390045 398:0.59902835 453:0.2266912 469:0.2332938 472:0.27554658 479:0.27067962 482:0.18379709 506:0.23674831 605:0.2974754 625:0.24780716 661:0.20986903 799:0.24152802 805:0.46663389 837:0.4020921 841:0.26008958 1003:0.29350671 1016:0.42793316 1179:0.54365027 1187:0.51168555 1266:0.69539195 1291:0.39928547 1350:0.5887019 1418:0.40445438 1611:0.54365027 1789:0.5265224 1791:0.39434639 1959:0.5265224 1978:0.39928547 2180:0.36482382 2199:0.95260364 2206:0.49859858 2385:0.54365027 2502:0.36859065 2529:0.5887019 2530:0.5265224 2754:0.66571826 3483:0.62066662 3567:2.3548076 4728:0.66571826 4818:0.74273461 4819:0.74273461 4820:0.74273461 #
0.023037646422640369048284725295161 5:0.17124516 10:0.0043942528 12:0.093918368 13:0.041011918 18:0.27344233 22:0.01892801 25:0.010050336 50:0.8823154 71:0.52491105 77:1.9882808 88:0.35159877 92:0.093164787 107:0.63203835 149:0.26914123 167:0.33667228 179:0.39925385 230:0.58157539 242:0.3391293 283:0.853939 329:0.79573375 375:0.86439234 946:1.0447459 1032:1.9560115 3805:2.4464262 4218:2.9957323 #
0.091608680822010957189860391736147 1:0.30137035 5:0.048927188 7:0.2956416 8:0.36535391 10:0.0087885056 11:0.060992021 12:0.026833819 13:0.058588453 15:0.54203427 17:0.062366977 18:0.23437914 22:0.005408003 24:0.066590749 25:0.010050336 46:0.22902963 49:0.064594813 53:0.56808025 66:0.42443424 69:0.34007809 73:0.032493934 87:0.39325514 89:0.25209013 92:0.10647404 93:0.11924318 95:0.27341816 111:0.33626834 126:0.36767682 147:0.29009306 149:0.076897494 151:0.24009506 153:0.3014144 174:0.50418025 196:0.15048571 198:0.094963834 199:0.145455 204:0.11015839 206:0.17645773 242:0.096894078 248:0.43528935 278:0.13635884 331:0.43423593 359:0.29284039 365:0.55886042 403:0.30743033 466:0.30718285 584:0.3960841 611:0.20995371 646:0.4789153 656:0.35427415 670:0.47390229 767:0.54203427 799:0.31053603 888:0.4598394 982:0.58852321 988:0.75690246 1012:0.55886042 1302:0.64105529 1353:0.41113561 1493:0.67695737 1534:0.61238807 1669:0.40191582 1686:0.75690246 1715:0.95783061 1789:0.67695737 2131:0.72502482 2633:0.6989789 3273:0.85592353 3890:0.79799992 4516:0.75690246 4878:0.85592353 5468:0.85592353 5503:0.95494455 5504:0.95494455 5505:0.95494455 5506:0.95494455 #
-0.091608680822010957189860391736147 2:0.06343662 10:0.0039060027 11:0.047438238 12:0.062612243 13:0.0091137597 17:0.048507649 22:0.012618673 24:0.064741008 25:0.010050336 26:0.29951417 31:0.31733003 32:0.31733003 43:0.089964554 46:0.17813416 59:0.16698091 70:0.28597087 71:0.1166469 73:0.025273059 84:0.21079111 88:0.23439917 89:0.19607009 90:0.064176537 92:0.020703286 138:0.24525277 139:0.37248969 141:0.15292712 149:0.11961833 167:0.22444819 179:0.088723078 191:0.26301372 194:0.27067962 198:0.024620252 206:0.045748301 241:0.11824565 242:0.15072413 278:0.10605688 283:0.18976422 300:0.40987548 302:0.18235406 329:0.44207433 424:0.17014669 435:0.2136042 492:0.40445438 494:0.24652262 516:0.20275548 578:0.23104906 656:0.55109316 687:0.20625533 734:0.5265224 824:0.37653053 837:0.4020921 946:0.23216577 951:0.56390822 1003:0.29350671 1022:0.44950604 1086:0.56390822 1169:0.28597087 1189:0.37653053 1269:0.3248235 2180:0.36482382 2193:0.45774028 2209:0.48689184 2327:0.5887019 2780:0.62066662 3250:0.74273461 3251:0.66571826 3252:0.66571826 3253:0.74273461 3254:0.62066662 #
-0.091608680822010957189860391736147 1:0.078133054 2:0.12687324 3:0.047013339 10:0.0068355049 11:0.047438238 12:0.10435374 13:0.0091137597 17:0.048507649 22:0.0084124487 25:0.010050336 35:0.14344269 73:0.012636529 88:0.078133054 89:0.19607009 90:0.064176537 92:0.041406572 93:0.018548939 96:0.12110004 98:0.068041235 107:0.14045297 149:0.059809163 150:0.24525277 179:0.088723078 192:0.17952307 198:0.049240503 200:0.15183242 206:0.045748301 233:0.13898775 242:0.075362064 256:0.39706042 262:0.50619835 268:0.15021032 275:0.34769598 278:0.10605688 279:0.16698091 283:0.18976422 290:0.18163952 329:0.17682973 331:0.33773905 364:0.25847796 427:0.21845698 429:0.1178438 480:0.39928547 496:0.31260118 567:0.38072392 584:0.30806541 678:0.3248235 679:0.32743803 684:0.19366325 687:0.20625533 856:0.25309917 981:0.39434639 1271:0.37653053 1410:0.54365027 1885:0.5887019 2202:0.38072392 2429:0.54365027 2550:0.62066662 2631:0.66571826 3581:0.75306106 #
-0.027611362612737180843858197931695 1:0.17579938 2:0.14273238 5:0.17124516 10:0.0087885056 11:0.21347207 12:0.14087756 13:0.061517876 18:0.27344233 22:0.01892801 25:0.010050336 34:0.1477605 44:0.27434078 53:0.99414039 69:0.59513664 73:0.056864381 84:0.47428 90:0.14439721 92:0.13974719 93:0.041735113 95:0.47848177 98:0.076546386 99:0.43574232 111:0.58846962 112:0.38690755 149:0.13457061 151:0.42016634 188:0.37711549 191:0.5917809 196:0.26334998 198:0.055395566 201:0.58846962 204:0.19277719 206:0.10293368 210:0.28681937 265:0.26245552 278:0.23862799 279:0.37570703 284:0.35808459 291:0.33797324 293:0.85050255 302:0.41029665 317:1.4978662 329:0.19893344 335:0.51737279 426:0.8381018 429:0.5302971 435:0.48060945 442:0.8126561 444:0.73673552 494:0.55467588 508:0.64343446 578:0.51986039 587:0.70335269 589:0.66481501 648:0.50766283 715:0.82085359 775:0.54620051 837:0.4523536 977:0.88727939 1037:0.88727939 1043:0.92221987 1044:1.0716791 1074:1.0955067 1153:0.69819784 1232:1.3245794 1269:0.7308529 1493:1.1846753 1707:1.0499263 1761:1.1218468 1978:0.89839232 2185:1.1512926 2242:0.79702604 2246:1.3245794 2380:1.4978662 2381:1.6711529 2382:1.1512926 2383:1.6711529 2384:1.6711529 2385:1.2232131 2386:1.6711529 2387:1.3245794 2388:0.72510552 2389:1.6711529 #
-0.091608680822010957189860391736147 2:0.043917656 3:0.065095395 5:0.10538163 10:0.0060843504 11:0.032841858 12:0.11559184 13:0.037857156 17:0.13432887 22:0.010192005 24:0.07171312 25:0.0069579249 34:0.045464765 35:0.099306479 43:0.062283155 49:0.06956365 73:0.052490201 83:0.22854151 90:0.088859819 92:0.042999133 93:0.051366292 94:0.21250874 96:0.083838485 98:0.047105469 99:0.13407457 107:0.097236671 149:0.082812689 151:0.38784587 167:0.051795736 168:0.20185913 174:0.13574083 177:0.17808953 179:0.061423671 182:0.16390269 186:0.1715588 189:0.31838328 198:0.22158226 201:0.18106757 202:0.10898104 204:0.11863211 205:0.19797984 210:0.088252112 230:0.4473657 233:0.28866687 238:0.21581972 241:0.24558713 242:0.052173737 258:0.16721171 264:0.12575044 265:0.16151109 267:0.12525892 268:0.10399176 283:0.13137522 284:0.11017987 321:0.12143587 329:0.30605146 337:0.14529394 356:0.19797984 382:0.13084655 386:0.13977517 398:0.20735598 424:0.11779386 458:0.24071258 472:0.19076301 497:0.25257033 507:0.19076301 516:0.14036918 521:0.52134997 525:0.21327606 535:0.25257033 562:0.28375995 567:0.26357809 583:0.19309419 585:0.13462599 638:0.2385456 654:0.40639392 655:0.21483012 661:0.14529394 730:0.34518364 763:0.19549823 830:0.22310939 834:0.30588934 835:0.34518364 836:0.92176378 837:0.27837145 838:0.85938454 839:0.46088189 840:0.2918646 841:0.36012405 842:0.36451551 843:0.42969227 844:0.26659507 845:0.30588934 846:0.2962614 847:0.34518364 848:0.40756288 849:0.37637326 850:0.46088189 851:0.35424387 852:0.23044094 853:0.42969227 854:0.22138071 855:0.36451551 856:0.1752225 857:0.40756288 858:0.36451551 859:0.25004804 860:0.12284734 #
-0.033240080532191039475176097539588 1:0.10045679 10:0.0062775044 11:0.12198404 12:0.08050146 13:0.023435382 17:0.062366977 18:0.078126378 22:0.008112004 24:0.016647687 25:0.010050336 35:0.18442631 43:0.11566871 44:0.15676615 49:0.25837925 50:0.25209013 73:0.016246967 77:0.56808025 92:0.02661851 93:0.047697272 98:0.13122238 102:0.28475198 111:0.33626834 182:0.3043907 192:0.23081537 206:0.058819246 217:0.36306813 233:0.35739705 257:0.42443424 275:0.44703767 283:0.24398257 284:0.20461975 382:0.24300073 505:0.55886042 506:0.3043907 536:0.57793635 537:0.85592353 589:0.37989429 702:0.41113561 787:0.67695737 830:0.41434601 944:0.6989789 947:0.38246837 1226:0.57793635 1302:0.64105529 1583:0.79799992 1828:0.59995788 1829:0.58852321 2042:0.45544344 2043:0.4598394 2055:0.51336706 2067:0.59995788 2078:0.95494455 2079:0.79799992 #
0.091608680822010957189860391736147 3:0.10578001 4:0.16509753 5:0.085622579 10:0.0087885056 11:0.053368017 12:0.011739796 13:0.030758938 16:0.14630039 17:0.027285554 21:0.13059324 22:0.0047320025 24:0.050983544 25:0.0062814597 29:0.38290763 49:0.028260231 50:0.11028942 56:0.20733224 64:0.11962044 66:0.55706996 67:0.29616883 69:0.14878416 71:0.19684164 73:0.02843219 88:0.043949846 93:0.062602669 96:0.068118773 98:0.076546386 104:0.21415719 106:0.21659675 132:0.34657359 141:0.086021505 151:0.21008317 162:0.25383142 167:0.042084035 170:0.2413777 173:0.073959596 183:0.12598224 194:0.15225728 196:0.065837495 198:0.083093353 200:0.08540573 202:0.088547096 204:0.14458288 210:0.071704842 230:0.072696924 265:0.39368328 278:0.059656996 279:0.093926758 284:0.089521147 291:0.084493309 295:0.1299651 302:0.10257416 329:0.049733359 337:0.11805132 348:0.37137997 359:0.12811767 362:0.11028942 364:0.072696924 381:0.23701438 382:0.21262564 423:0.59284997 426:0.20952545 427:0.12288205 460:0.1234426 463:0.18723327 501:0.33019507 516:0.11404996 522:0.17987183 561:0.3324075 582:0.18127638 583:0.47066709 599:0.1275138 600:0.1416107 606:0.55467588 607:0.45946974 625:0.27878305 627:0.14391157 684:0.21787116 687:0.11601862 793:0.19557898 800:0.36542645 820:0.25284714 841:0.14630039 907:0.48900288 915:0.2337608 960:0.30580327 976:0.26791978 992:0.2485351 1006:0.16732991 1007:0.21660849 1048:0.23055497 1156:0.31186962 1170:0.64982545 1171:0.26248157 1191:0.2337608 1214:0.48900288 1257:0.2407124 1271:0.21179843 1273:0.2337608 1368:0.2804617 1411:0.16847673 1536:0.17583817 1578:0.1938183 1618:0.28782314 1704:0.23055497 1860:0.17987183 2004:0.26791978 2114:0.26791978 2248:0.23714 2277:0.2804617 2309:0.31719837 2760:0.31719837 2868:0.2337608 2936:0.30580327 3294:0.37446654 3301:0.22750558 3457:0.33114484 5191:0.41778824 5192:0.41778824 5193:0.41778824 5194:0.41778824 #
0.017207215709529394970234150719079 1:0.17579938 2:0.14273238 5:0.17124516 10:0.0065913796 11:0.21347207 12:0.046959184 13:0.020505959 15:0.47428 18:0.13672116 22:0.009464005 25:0.010050336 34:0.1477605 59:0.37570703 73:0.056864381 93:0.083470225 140:0.53006589 147:0.50766283 149:0.40371186 162:0.50766283 170:0.48275539 198:0.11079113 199:0.50909251 200:0.34162292 206:0.10293368 223:0.84719372 265:0.52491105 275:1.5646318 278:0.23862799 279:0.75141406 359:0.51247066 362:0.4411577 375:0.43219617 382:0.42525128 506:0.53268373 538:0.65176857 611:0.367419 656:1.2399596 708:0.76842344 768:0.71948731 860:0.39925385 990:1.0113885 1076:0.91002232 1115:0.88727939 1155:1.1512926 1234:0.74893308 1323:1.4978662 1485:0.70861602 1664:1.4978662 1696:0.96284962 1720:0.99414039 1870:0.89839232 1996:1.3245794 2158:1.1846753 2248:0.94856 2271:1.2232131 2724:0.93504322 2789:0.62373924 5415:1.6711529 5416:1.6711529 #
0.051128543581455007660530043267499 3:0.090668581 5:0.048927188 10:0.0056497538 11:0.15248005 12:0.18783674 13:0.023435382 17:0.031183489 18:0.039063189 22:0.012168006 24:0.0083238436 25:0.0093324548 26:0.19254483 29:0.14586957 31:0.20399788 32:0.20399788 34:0.16886914 35:0.092213154 43:0.057834357 44:0.15676615 50:0.25209013 57:0.18383841 70:0.18383841 73:0.032493934 77:0.28404012 88:0.050228395 89:0.12604506 90:0.041256346 91:0.28404012 92:0.066546276 93:0.011924318 94:0.19732955 98:0.065611191 108:0.21398088 112:0.11054501 120:0.12924388 140:0.1514474 142:0.19254483 149:0.038448747 151:0.12004753 167:0.048096038 173:0.08452525 179:0.057036266 183:0.071989849 186:0.1593046 193:0.17400832 196:0.37621427 198:0.14244574 199:0.072727501 201:0.16813417 206:0.058819246 233:0.17869852 238:0.13360268 241:0.15203013 243:0.21954955 249:0.13259271 252:0.17930175 264:0.23353653 273:0.2299197 293:0.12150037 297:0.11105093 300:0.26349139 320:0.26349139 329:0.39786687 375:0.37045386 381:0.18058239 383:0.21398088 386:0.12979123 403:0.15371516 424:0.10938001 453:0.14573006 468:0.1593046 492:0.26000637 498:0.21954955 506:0.3043907 520:0.46437493 539:0.16447036 549:0.16358304 585:0.12500985 599:0.14573006 644:0.19948511 645:0.19662757 654:0.18868288 696:0.19387999 702:0.20556781 741:0.2671552 841:0.16720045 845:0.56808025 859:0.23218746 872:0.32894072 915:0.2671552 947:0.19123419 1006:0.19123419 1028:0.28404012 1032:0.55886042 1151:0.39899996 1239:0.2942616 1274:0.55886042 1281:0.21578929 1455:0.26349139 1485:0.40492344 1486:0.22351883 1573:0.28896818 1689:0.32894072 1726:0.38508967 1835:0.26000637 2141:0.25668353 2153:0.33847868 2388:0.207173 2415:0.27509987 2426:0.39899996 3181:0.27943021 3805:0.34948945 4283:0.39899996 4653:0.37845123 5305:0.42796177 5306:0.47747228 #
0.014401414965935811773878327812781 1:0.42191851 2:0.057092953 3:0.042312004 5:0.13699612 10:0.0061519542 11:0.085388824 12:0.11270204 13:0.032809533 17:0.13097066 18:0.054688469 22:0.011356806 24:0.023306763 25:0.010050336 34:0.059104197 50:0.17646308 73:0.056864381 88:0.070319749 90:0.057758883 91:0.39765614 93:0.050082136 99:0.17429693 107:0.12640767 112:0.077381507 149:0.053828247 150:0.22072749 167:0.13466892 168:0.26241687 173:0.11833535 188:0.3016924 198:0.022158228 200:0.13664918 202:0.14167535 206:0.082346946 209:0.29469422 210:0.11472774 219:0.26415604 233:0.12508897 256:0.17867719 264:0.16347557 266:0.25102246 268:0.13518929 279:0.15028282 283:0.1707878 284:0.14323384 329:0.079573378 359:0.40997654 362:0.17646308 364:0.23263016 384:0.25574774 424:0.15313201 425:0.33173159 427:0.19661129 429:0.4242377 460:0.39501631 466:0.10751399 539:0.23025851 554:0.47387016 578:0.20794415 584:0.27725887 587:0.28134108 588:0.2834464 627:0.23025851 635:0.30210501 638:0.31010929 661:0.18888211 684:0.17429693 730:0.44873872 733:0.20596389 759:0.25737378 837:0.18094145 860:0.15970154 864:0.37401727 885:0.29234117 889:0.28559703 917:0.30470255 946:0.20894919 962:0.51474756 977:0.35491174 1153:0.27927914 1248:0.5075174 1258:0.41997051 1307:0.34657359 1480:0.20694911 1519:0.72801787 1565:0.37401727 1680:0.41997051 1710:0.31582513 1795:0.42867166 2388:0.58008444 2428:0.41997051 2684:0.52983171 2818:0.47387016 2878:0.48928523 2919:0.44873872 2994:0.37942401 3080:0.59914643 3700:0.43820265 5021:0.66846114 5022:0.55859995 5023:0.66846114 5024:0.66846114 #
0.091608680822010957189860391736147 3:0.084624007 10:0.0070308046 12:0.11270204 21:0.41789839 22:0.0075712041 24:0.046613526 25:0.010050336 34:0.47283357 44:0.21947262 71:0.20996442 73:0.022745753 90:0.11551777 92:0.037265915 95:0.38278541 107:0.25281534 123:0.52483374 124:0.57119405 140:0.42405272 167:0.26933783 192:0.32314152 198:0.088632911 206:0.082346946 210:0.22945549 242:0.13565171 268:0.27037859 364:0.23263016 410:0.68530303 460:0.39501631 860:0.31940308 946:0.41789839 978:0.92103404 1461:0.83994102 1609:0.70131159 #
-0.013218389303594554537446548181379 2:0.095154926 5:0.11416344 10:0.0058590039 11:0.14231472 12:0.062612243 13:0.027341278 17:0.072761476 18:0.091147445 22:0.009464005 24:0.038844604 25:0.010050336 29:0.11345411 34:0.098506995 49:0.075360619 57:0.8579126 66:0.99034655 73:0.056864381 88:0.11719958 92:0.031054929 93:0.027823409 112:0.25793836 121:0.36787915 132:0.23104906 151:0.56022179 167:0.11222409 168:0.43736145 169:0.34657359 179:0.13308461 188:0.25141034 192:0.26928458 198:0.036930379 204:0.12851812 208:0.61481327 212:0.21365573 224:0.29655614 230:0.19385847 238:0.31173959 242:0.11304309 265:0.52491105 267:0.27139431 279:0.25047135 291:0.2253155 374:0.50783759 423:0.31618667 462:1.3040076 588:0.47241068 624:0.36978394 714:0.49928871 740:0.5168488 775:0.36413369 818:0.39902538 891:0.88305289 892:0.8154754 1158:0.66276026 1169:0.4289563 1234:0.99857742 1281:0.50350833 1385:0.93099993 1519:0.60668153 1548:1.4289055 1978:0.59892821 2248:0.63237333 2480:0.69995087 2868:0.62336212 2869:0.99857742 2870:0.93099993 2871:1.114102 2872:1.114102 #
-0.020958689688200630996117723725547 1:0.17579938 3:0.10578001 5:0.25686774 10:0.0087885056 12:0.046959184 13:0.041011918 17:0.10914221 22:0.009464005 24:0.11653382 25:0.0075377519 35:0.32274604 50:0.4411577 61:0.52237296 73:0.056864381 88:0.35159877 92:0.046582393 93:0.041735113 99:0.87148464 120:0.4523536 140:0.53006589 149:0.13457061 189:0.51737279 192:0.40392688 196:0.26334998 199:0.25454625 200:1.0248688 201:0.58846962 210:0.28681937 224:0.44483423 242:0.3391293 266:0.62755609 275:0.78231591 283:0.4269695 295:0.51986039 359:1.0249413 384:0.63936931 427:0.49152821 429:0.26514855 435:0.48060945 465:0.91002232 568:0.78956282 578:0.51986039 599:0.51005518 645:0.68819654 684:0.43574232 728:0.61262631 784:0.93504322 803:0.72510552 901:0.48060945 915:0.93504322 962:0.64343446 986:0.92221987 992:0.99414039 996:0.87663949 1094:1.0499263 1169:0.64343446 1195:1.1512926 1252:1.9256992 1574:1.2687935 1710:0.78956282 1974:0.87663949 2139:0.99414039 3793:1.2687935 3918:3.3423059 3919:1.4978662 3920:1.6711529 3921:1.6711529 #
-0.091608680822010957189860391736147 10:0.0043942528 13:0.01025298 17:0.054571107 22:0.0070980038 25:0.010050336 26:0.33695346 29:0.17018117 49:0.22608185 73:0.02843219 92:0.046582393 93:0.041735113 98:0.11481958 132:0.34657359 141:0.17204301 149:0.13457061 190:0.36255276 198:0.027697783 210:0.14340968 222:0.46208245 228:0.24801642 290:0.20434447 293:0.21262564 321:0.19733328 359:0.25623533 364:0.14539385 561:0.3324075 625:0.27878305 629:0.4190509 632:0.45501116 684:0.43574232 707:0.38421172 872:0.57564628 1222:0.5609234 1238:0.52496314 1328:0.5609234 1486:0.39115795 1521:0.49707019 1609:0.43831974 1748:0.74893308 1749:0.74893308 1750:0.74893308 1751:0.63439673 1752:0.40632805 1753:0.61160654 1754:0.69824994 1755:0.63439673 1756:0.83557647 1757:0.63439673 1758:0.83557647 1759:0.83557647 #
0.091608680822010957189860391736147 3:0.070520006 5:0.076108955 7:0.11497173 10:0.0058590039 11:0.023719119 12:0.062612243 13:0.013670639 17:0.048507649 21:0.11608288 22:0.009464005 24:0.038844604 25:0.010050336 29:0.037818037 36:0.16329733 39:0.15403271 43:0.044982277 44:0.060964614 46:0.089067079 49:0.025120206 50:0.098035045 73:0.031591322 74:0.17228293 81:0.17228293 90:0.064176537 92:0.051758215 93:0.0092744697 98:0.051030923 99:0.096831627 112:0.042989727 115:0.19717319 138:0.12262639 141:0.076463558 149:0.20933208 151:0.18674061 163:0.17076077 167:0.037408032 179:0.088723078 182:0.11837415 186:0.12390358 192:0.089761533 198:0.22158226 202:0.078708529 204:0.042839374 205:0.14298543 206:0.045748301 209:0.16371901 210:0.063737638 217:0.28238633 238:0.1039132 241:0.059122827 242:0.037681032 258:0.12076401 265:0.1166469 273:0.17882644 278:0.053028442 293:0.094500281 302:0.18235406 335:0.11497173 347:0.20778738 351:0.14208208 364:0.25847796 381:0.070226483 422:0.14773667 444:0.32743803 455:0.14773667 457:0.20222719 460:0.438907 468:0.12390358 470:0.19964273 501:0.14675336 511:0.18826526 522:0.15988606 523:0.22887014 535:0.18241191 545:0.13150686 547:0.20778738 573:0.15185378 578:0.11552453 588:0.15747023 594:0.20778738 600:0.12587617 603:0.17228293 611:0.081648663 629:0.18624485 639:0.19254088 655:0.15515508 661:0.10493451 684:0.096831627 724:0.14298543 759:0.14298543 777:0.17882644 811:0.20778738 823:0.14975709 860:0.088723078 867:0.25584278 901:0.1068021 1006:0.1487377 1013:0.22092009 1123:0.14675336 1149:0.2632612 1153:0.15515508 1243:0.24344592 1314:0.23815091 1317:0.24929929 1348:0.18059026 1433:0.16505776 1479:0.22475302 1499:0.20493774 1500:0.42158222 1513:0.16241175 1573:0.22475302 1575:0.28195411 1583:0.31033331 2073:0.21396658 2101:0.24929929 2242:0.3542338 2764:0.33285913 2830:0.21396658 2868:0.20778738 2913:0.18624485 3622:0.31033331 4182:0.33285913 4312:0.28195411 4774:0.33285913 4775:0.31033331 4776:0.37136731 4777:0.31033331 4778:0.33285913 4779:0.27182513 4780:0.33285913 #
-0.08567997001670102363846126536373 1:0.11719958 3:0.035260003 5:0.028540859 6:0.24964435 10:0.0087885056 11:0.071157359 13:0.075188518 17:0.072761476 18:0.18229489 22:0.009464005 24:0.009711151 25:0.0075377519 35:0.10758202 49:0.26376218 73:0.047386985 82:0.20300971 88:0.23439917 90:0.14439721 92:0.046582393 93:0.055646818 94:0.1151089 96:0.18165006 98:0.20412369 106:0.28879565 120:0.15078454 141:0.11469533 163:0.25614116 183:0.08398816 186:0.18585537 196:0.17556666 204:0.12851812 206:0.034311228 212:0.10682786 230:0.19385847 238:0.23380469 241:0.17736848 243:0.25614116 249:0.309383 264:0.13622965 265:0.34994072 267:0.13569716 279:0.25047135 284:0.23872305 295:0.1732868 297:0.25911883 302:0.13676555 317:0.24964435 331:0.12665215 332:0.27088538 364:0.19385847 403:0.17933436 423:0.31618667 449:0.22463565 469:0.17497036 482:0.13784781 484:0.21725619 507:0.20665993 544:0.31618667 625:0.18585537 648:0.16922095 668:0.34997544 684:0.43574232 740:0.2584244 747:0.31618667 768:0.23982911 775:0.18206684 823:0.22463565 824:0.2823979 827:0.15402749 837:0.15078454 855:0.3948918 884:0.23445089 888:0.26823965 996:0.29221317 1076:0.30334076 1081:0.4077377 1187:0.38376418 1258:0.34997544 1314:0.35722637 1353:0.47965822 1372:0.31618667 1411:0.22463565 1422:0.33138013 1488:0.3948918 1492:0.46549997 1499:0.30740663 1516:0.32600191 1716:0.35722637 1941:0.32600191 1966:0.37394893 2064:0.28881133 2582:0.46549997 2587:0.37394893 2678:0.32094985 2724:0.31168106 2953:0.49928871 3087:0.46549997 3100:0.3948918 3479:0.4077377 3759:0.28554294 3769:0.557051 3770:0.49928871 3771:0.3651689 3772:0.49928871 3773:0.42293116 3774:0.557051 3775:0.557051 3776:1.6711529 3777:0.46549997 3778:0.46549997 3779:0.557051 3780:0.557051 3781:0.557051 3782:0.49928871 3783:0.44152644 3784:0.557051 3785:0.49928871 3786:0.46549997 #
0.061931928733864820280086149750787 3:0.12089144 5:0.048927188 10:0.0050220033 12:0.10733528 13:0.011717691 14:0.42796177 17:0.062366977 22:0.005408003 24:0.049943063 25:0.010050336 35:0.18442631 44:0.15676615 49:0.064594813 73:0.032493934 87:0.39325514 92:0.02661851 101:0.59995788 149:0.076897494 167:0.096192077 183:0.1439797 198:0.031654611 204:0.11015839 232:0.58852321 242:0.096894078 262:0.65082639 355:0.57793635 466:0.30718285 689:0.25632322 733:0.29423413 811:0.5343104 978:0.65788144 1006:0.38246837 1270:0.6260038 1348:0.46437493 1502:0.42796177 1694:0.55019975 2042:0.91088688 2043:0.91967881 2055:0.51336706 2101:0.64105529 2234:0.64105529 2913:0.4789153 2964:0.6989789 4598:0.75690246 4656:0.95494455 4657:0.95494455 4658:0.79799992 #
0.091608680822010957189860391736147 2:0.12687324 3:0.094026677 5:0.038054477 10:0.0087885056 11:0.047438238 12:0.10435374 13:0.045568798 14:0.33285913 17:0.097015299 18:0.12152993 22:0.0063093365 25:0.0089336317 36:0.16329733 41:0.21172091 46:0.17813416 71:0.1166469 73:0.075819179 84:0.21079111 88:0.078133054 92:0.020703286 93:0.037097879 136:0.40987548 141:0.15292712 149:0.17942749 151:0.37348121 167:0.074816063 168:0.2915743 169:0.23104906 173:0.13148372 188:0.16760689 198:0.14772151 206:0.045748301 209:0.32743803 230:0.12923898 242:0.075362064 267:0.18092954 283:0.18976422 306:0.51168555 317:0.33285913 331:0.16886953 337:0.20986903 345:0.32743803 356:0.28597087 359:0.22776476 375:0.19208719 383:0.33285913 398:0.29951417 435:0.2136042 455:0.29547334 456:0.62066662 458:0.34769598 465:0.40445438 482:0.18379709 506:0.47349662 508:0.57194173 519:0.5265224 520:0.36118051 578:0.23104906 591:0.2974754 605:0.2974754 627:0.25584278 661:0.20986903 676:0.37248969 728:0.27227837 777:0.35765287 986:0.40987548 1187:0.51168555 1437:0.37653053 2042:0.7084676 2043:0.71530575 2055:0.39928547 2190:0.66571826 2672:0.5265224 4605:0.74273461 4606:0.74273461 #
0.091608680822010957189860391736147 1:0.11719958 3:0.035260003 5:0.028540859 10:0.0058590039 11:0.071157359 12:0.046959184 13:0.054682557 17:0.036380738 18:0.091147445 22:0.014196008 24:0.067978062 25:0.010050336 44:0.091446921 49:0.075360619 59:0.25047135 71:0.087485179 73:0.075819179 81:0.2584244 84:0.15809333 88:0.11719958 89:0.29410514 92:0.015527464 93:0.027823409 94:0.1151089 95:0.15949392 96:0.090825029 98:0.10206185 102:0.16610532 112:0.12896918 127:0.18585537 148:0.16610532 149:0.044856872 166:0.23620534 167:0.11222409 173:0.098612793 174:0.29410514 198:0.018465189 204:0.06425906 206:0.068622455 209:0.24557851 210:0.095606454 212:0.10682786 224:0.14827807 233:0.10424081 238:0.1558698 241:0.17736848 265:0.087485179 278:0.079542659 284:0.11936153 329:0.066311151 335:0.17245761 337:0.15740177 356:0.21447815 382:0.28350085 422:0.221605 425:0.55288601 427:0.16384274 449:0.22463565 479:0.20300971 482:0.13784781 501:0.22013004 509:0.46549997 510:0.29221317 516:0.1520666 573:0.22778067 584:0.23104906 589:0.221605 606:0.18489197 607:0.20420876 608:0.30740663 621:0.4077377 645:0.22939885 708:0.25614116 713:0.3948918 714:0.49928871 721:0.19615653 724:0.21447815 818:0.19951269 827:0.30805498 852:0.24964435 901:0.16020314 934:0.21047738 946:0.34824866 998:0.26318759 1003:0.22013004 1024:0.35722637 1123:0.22013004 1169:0.21447815 1247:0.38376418 1268:0.19726031 1269:0.24361764 1299:0.27936727 1307:0.28881133 1563:0.30740663 1653:0.26823965 1761:0.37394893 1926:0.276443 1971:0.27361786 1990:0.42293116 2054:0.26567534 2156:0.49928871 2240:0.3948918 2248:0.31618667 2262:0.44152644 2365:0.46549997 2366:0.42293116 2392:0.44152644 2404:0.4077377 2506:0.42293116 2547:0.49928871 3121:0.3948918 3742:0.46549997 4494:0.46549997 5025:0.557051 5026:0.557051 #
0.091608680822010957189860391736147 2:0.11418591 3:0.084624007 4:0.52831209 10:0.0052731037 12:0.18783674 13:0.016404767 17:0.087313771 22:0.0075712041 24:0.023306763 25:0.010050336 34:0.11820839 35:0.25819683 43:0.16193619 73:0.022745753 94:0.27626136 96:0.21798007 138:0.44145498 139:0.67048144 173:0.2366707 177:0.46303278 192:0.32314152 203:0.55451775 206:0.082346946 242:0.13565171 291:0.27037859 329:0.15914676 429:0.21211885 606:0.44374073 796:0.69314718 996:0.70131159 1037:0.70982349 1181:0.677755 2601:1.1982929 4214:1.1982929 #
0.048149417049340233198950755877377 3:0.070520006 10:0.0087885056 11:0.071157359 12:0.031306121 17:0.072761476 24:0.058266908 25:0.010050336 49:0.22608185 71:0.17497036 73:0.018954795 88:0.11719958 90:0.096264809 92:0.12421972 93:0.027823409 106:0.19253044 140:0.35337725 149:0.089713745 182:0.35512248 198:0.11079113 206:0.068622455 267:0.27139431 297:0.25911883 331:0.2533043 460:0.32918024 469:0.34994072 521:0.56479579 599:0.34003681 625:0.74342149 712:0.46209812 733:0.34327316 775:0.36413369 1153:0.46546525 1170:0.57762265 1632:0.55288601 2004:0.71445274 2042:1.0627013 2043:1.0729586 2055:0.59892821 2377:0.61481327 4655:0.99857742 #
-0.091608680822010957189860391736147 1:0.42191851 2:0.057092953 3:0.084624007 5:0.03424903 10:0.0052731037 11:0.042694412 12:0.075134695 13:0.0082023833 17:0.043656886 21:0.20894919 22:0.0056784032 24:0.046613526 25:0.010050336 35:0.12909842 36:0.14696759 37:0.25414771 43:0.080968097 44:0.10973631 49:0.090432741 59:0.15028282 73:0.045491505 89:0.17646308 90:0.17327665 92:0.018632958 93:0.016694045 96:0.10899004 107:0.12640767 109:0.3388775 126:0.25737378 127:0.22302644 148:0.19932638 167:0.067334458 170:0.19310215 174:0.17646308 199:0.1018185 200:0.13664918 202:0.28335071 206:0.041173473 210:0.11472774 212:0.12819344 233:0.12508897 262:0.45557851 268:0.13518929 290:0.16347557 295:0.20794415 329:0.31829351 363:0.1913927 364:0.11631508 375:0.17287847 391:0.2834464 392:0.42867166 397:0.2465104 423:0.189712 426:0.33524072 429:0.31817827 438:0.52983171 445:0.2752786 466:0.10751399 469:0.20996442 473:0.22302644 482:0.16541737 545:0.23671237 560:0.20894919 585:0.17501378 611:0.14696759 625:0.22302644 677:0.59914643 678:0.29234117 679:0.29469422 684:0.17429693 712:0.27725887 811:0.37401727 860:0.15970154 947:0.26772785 1024:0.42867166 1028:0.39765614 1160:0.29004222 1173:0.35491174 1307:0.34657359 1338:0.43820265 1418:0.36400893 1455:1.1066638 1506:0.55859995 1534:0.42867166 1646:0.32506245 1852:0.48928523 2573:0.43820265 2796:0.55859995 3064:0.52983171 3088:0.55859995 3720:0.55859995 3721:0.66846114 #
-0.091608680822010957189860391736147 5:0.085622579 10:0.0087885056 13:0.041011918 18:0.13672116 22:0.014196008 24:0.029133454 25:0.002512584 34:0.1477605 44:0.27434078 49:0.33912277 71:0.26245552 90:0.14439721 93:0.041735113 94:0.34532669 174:0.8823154 264:0.40868893 265:0.26245552 267:0.40709147 279:0.37570703 293:0.42525128 364:0.2907877 469:0.52491105 482:0.41354346 539:0.57564628 603:0.7752732 606:0.55467588 607:0.61262631 686:0.97800577 687:0.46407449 688:1.3245794 689:0.44856566 690:1.6711529 691:1.0955067 692:1.4978662 693:1.4978662 694:1.1218468 695:1.2232131 696:0.67857993 697:1.6711529 #
-0.091608680822010957189860391736147 1:0.12785409 2:0.10380537 5:0.031135483 10:0.0087885056 12:0.068304271 13:0.0074567124 15:0.34493092 18:0.049716789 22:0.013765825 24:0.010593983 25:0.0091366693 34:0.053731088 35:0.1173622 49:0.12331738 51:0.17022067 73:0.031016937 92:0.050817158 93:0.045529217 94:0.12557335 98:0.027835049 149:0.048934769 179:0.14518322 192:0.1468825 196:0.095763631 198:0.060431529 199:0.092562273 200:0.12422652 206:0.074860856 233:0.34115174 241:0.096746445 242:0.061659869 267:0.29606652 329:0.07233943 335:0.18813556 403:0.19563748 424:0.13921092 429:0.096417658 469:0.3817535 501:0.24014185 545:0.21519306 572:0.38970149 600:0.4119584 606:0.20170033 607:0.22277321 627:0.20932592 687:0.16875437 716:0.21398894 852:0.27233928 860:0.14518322 873:0.27009451 917:0.27700233 946:0.1899538 954:0.44480476 1031:0.27009451 1044:0.38970149 1228:0.34001571 1578:0.8457526 1867:0.43079105 1926:0.30157417 1928:0.28711376 2054:0.28982764 2623:0.5078181 2642:0.46137944 3301:0.9927516 3346:0.48166522 3370:0.54467857 3371:0.48166522 3372:0.54467857 3373:0.607692 3374:0.607692 3375:0.607692 3376:0.54467857 3377:0.607692 #
-0.028223042938677257718271818021094 2:0.11418591 3:0.084624007 5:0.20549418 10:0.0070308046 11:0.25616649 13:0.016404767 17:0.087313771 22:0.015142408 24:0.11653382 25:0.0020100672 43:0.16193619 44:0.21947262 49:0.090432741 73:0.06823726 88:0.1406395 93:0.033388089 96:0.21798007 112:0.15476301 126:0.51474756 127:0.44605288 144:0.64377517 149:0.10765649 166:0.5668928 179:0.15970154 182:0.42614695 183:0.20157158 196:0.21067999 198:0.044316456 199:0.61091101 203:0.55451775 210:0.22945549 242:0.13565171 253:0.70982349 284:0.28646767 297:0.31094259 321:0.31573325 475:0.48438638 516:0.36495987 560:0.41789839 582:0.58008444 585:0.35002756 611:0.58787036 701:0.63762081 707:0.61473876 792:0.92103404 793:0.6258527 818:0.47883046 823:0.53912556 825:0.92103404 860:0.31940308 1153:0.55855829 1170:0.69314718 1411:0.53912556 1423:0.82393247 1447:0.55451775 1675:1.0150348 1686:1.0596634 1926:0.66346318 2185:0.92103404 2718:1.0150348 3020:1.0150348 3143:0.65012491 3148:1.3369223 3149:1.3369223 3150:1.0596634 3151:0.92103404 3152:1.3369223 #
-0.091608680822010957189860391736147 2:0.095154926 3:0.10578001 5:0.057081718 6:0.24964435 7:0.17245761 10:0.0021971264 11:0.035578679 12:0.062612243 13:0.041011918 14:0.24964435 17:0.036380738 18:0.045573723 22:0.011041339 24:0.029133454 25:0.010050336 29:0.17018117 34:0.098506995 43:0.13494684 59:0.25047135 69:0.19837889 71:0.087485179 73:0.056864381 90:0.048132405 92:0.046582393 93:0.013911705 94:0.1151089 96:0.18165006 98:0.051030923 102:0.16610532 112:0.064484589 127:0.18585537 132:0.23104906 141:0.11469533 149:0.044856872 162:0.16922095 186:0.18585537 189:0.17245761 196:0.087783329 198:0.055395566 206:0.034311228 210:0.095606454 351:0.21312311 361:0.20665993 375:0.14406539 377:1.1421717 459:0.32600191 479:0.20300971 485:0.2823979 498:0.25614116 520:0.27088538 589:0.221605 591:0.22310655 618:0.6866104 661:0.15740177 725:0.42293116 1024:0.35722637 1145:0.37394893 1268:0.19726031 1411:0.22463565 1437:0.2823979 1468:0.4077377 1761:0.37394893 1787:0.3948918 1911:0.26318759 2033:0.4077377 2176:0.42293116 2216:0.3651689 2240:0.3948918 2468:0.37394893 3452:0.4077377 3522:0.29221317 3797:0.46549997 4024:0.46549997 4025:0.49928871 4026:0.557051 4027:0.557051 4028:0.46549997 4029:0.557051 4030:0.49928871 4031:0.2957598 4032:0.557051 4033:0.557051 4034:0.557051 4035:0.557051 4036:0.49928871 #
