SVM-light Version V6.02
0 # kernel type
3 # kernel parameter -d 
1 # kernel parameter -g 
1 # kernel parameter -s 
1 # kernel parameter -r 
empty# kernel parameter -u 
33 # highest feature index 
800 # number of training documents 
548 # number of support vectors plus 1 
-0.37526491 # threshold b, each following line is a SV (starting with alpha*y)
-54.912763711368249630595528287813 1:0.0042534852 2:0 3:0.00092812692 4:0.032904629 5:0.0073294481 6:0.00078848971 7:0.0018609198 8:0.006347842 9:0.00051998801 10:0.00070445088 11:0.017021794 12:0.020692382 13:0.038242958 14:0.00045000092 17:0.0089158015 18:0.015520232 19:0.012778513 20:0.003817956 21:0.013276026 24:0.033400435 25:0.047343817 26:0.0035746212 27:0.028448429 #
-54.912763711368249630595528287813 1:0.0022713612 2:0 3:0.0012015025 5:0.0096131498 6:0.00080200669 7:0.0021079145 8:0.0021185922 9:0.00070043787 10:0.0010031381 11:0.0046613528 13:0.027228987 14:0.00040050084 16:0.017851485 17:0.079350635 19:0.0090983016 20:0.0067959614 21:0.0078771086 22:0.049001049 #
-54.912763711368249630595528287813 1:0.0023660013 2:0 3:0.00062578253 5:0.0042915847 6:0.0031328388 7:0.0037641332 8:0.0066206008 9:0.00046904321 10:0.0039185081 14:0.00062578253 16:0.055785887 19:0.014216095 #
-54.912763711368249630595528287813 1:0.0025578393 2:0 3:0.0012853912 4:0.039574485 5:0.0083511919 6:0.0018966375 7:0.0020346667 8:0.0047716042 9:0.00050707377 10:0.00084724498 11:0.028346064 12:0.066364758 14:0.00047356519 15:0.030690152 17:0.021446116 18:0.018666225 19:0.015368752 20:0.0091837319 21:0.026611853 24:0.026780529 26:0.0085984133 29:0.040016353 #
-54.912763711368249630595528287813 1:0.0021720666 2:0 3:0.00065655872 4:0.024004195 5:0.0067539695 6:0.00082172814 7:0.0016043846 8:0.0057885032 9:0.00043059705 10:0.0014389276 11:0.0057311715 12:0.020127017 13:0.044637684 14:0.00049241906 16:0.0073161819 17:0.0130083 19:0.0093220295 20:0.0083556902 21:0.0032283231 23:0.033604637 25:0.017268851 26:0.0052154306 #
54.912763711368249630595528287813 1:0.0021031122 2:0 3:0.00041718836 5:0.0019073711 6:0.002506271 7:0.0025094221 8:0.0078466376 9:0.00062539097 10:0.0013932473 11:0.025896404 14:0.0011125023 16:0.024793727 17:0.044083685 19:0.0063182646 20:0.01887767 21:0.010940428 26:0.03534903 27:0.046887226 #
54.912763711368249630595528287813 1:0.0041147848 2:0 3:0.0002176635 5:0.0044781757 6:0.001089683 7:0.00065463188 8:0.0030704236 9:0.00038067275 10:0.00027259186 11:0.025333438 13:0.029596724 14:0.00076182222 16:0.038807575 17:0.034500275 18:0.030028274 19:0.024723645 20:0.0073869145 24:0.043081719 25:0.045799997 26:0.013832229 #
54.912763711368249630595528287813 1:0.003785602 2:0 3:0.0015018781 5:0.0017166339 6:0.0010025083 7:0.0022584798 8:0.0035309871 9:0.00068793003 10:0.00062696129 14:0.00075093907 16:0.022314355 17:0.019837659 18:0.034532513 19:0.0056864382 20:0.0084949518 21:0.0098463856 22:0.061251312 26:0.015907064 #
-6.6561989972245427793495764490217 1:0.0016459139 2:0 3:0.00076182222 5:0.0029854504 6:0.001089683 7:0.00098194776 8:0.0023028175 9:5.4381821e-05 10:0.00054518372 11:0.015200063 12:0.053380348 14:0.00076182222 18:0.090084821 19:0.0049447292 20:0.0073869145 21:0.025686223 24:0.043081719 26:0.013832229 #
54.912763711368249630595528287813 1:0.0029120015 2:0 3:0.0011552909 4:0.056317534 5:0.007922926 6:0.0011567405 7:0.00086864614 8:0.0033951798 9:0.00091403292 10:0.00096455583 11:0.02689242 14:0.00096274237 16:0.017164888 17:0.030519474 18:0.10625389 20:0.019603735 22:0.094232783 24:0.038110752 28:0.12624513 #
-54.912763711368249630595528287813 1:0.0051621846 2:0 3:0.00045511458 5:0.0093634576 6:0.0013670569 7:0.0013687757 8:0.012839952 9:0.00090965955 10:0.0017098945 13:0.061884061 14:0.0006826719 16:0.040571555 20:0.015445367 21:0.035805039 22:0.11136602 24:0.090079963 25:0.095763631 29:0.13460046 #
-54.912763711368249630595528287813 1:0.0044829496 2:0 3:0.0010210136 4:0.019266525 5:0.0049692034 6:0.00098931743 7:0.0012877298 8:0.0041814321 9:0.00060893327 10:0.0011549287 11:0.0076666987 12:0.0080772899 13:0.044784516 14:0.00059284666 15:0.014941258 16:0.011744398 17:0.010440873 18:0.054525025 19:0.011971449 20:0.011177568 21:0.0051823081 23:0.026972141 25:0.027721051 26:0.0041860696 28:0.02159456 30:0.021509944 #
-54.912763711368249630595528287813 1:0.0073608928 2:0 3:0.0016687535 5:0.005722113 6:0.0047340672 7:0.0046006073 8:0.0088274674 9:0.0009033425 10:0.0020898711 11:0.045318708 13:0.037818037 14:0.0022250046 17:0.022041842 18:0.11510839 19:0.012636529 21:0.021880856 22:0.13611403 24:0.055048864 25:0.058522221 26:0.017674515 27:0.046887226 #
-54.912763711368249630595528287813 1:0.0052577807 2:0 3:0.00083437673 5:0.005722113 6:0.0022277965 7:0.0020911852 8:0.0029424892 9:0.00069487881 10:0.0010449355 11:0.025896404 14:0.00083437673 16:0.07438118 18:0.076738924 19:0.012636529 21:0.032821286 24:0.055048864 26:0.017674515 27:0.18754891 #
-54.912763711368249630595528287813 1:0.0051621846 2:0 3:0.0018204583 5:0.0062423055 6:0.00091137126 7:0.0027375515 8:0.016049942 9:0.00090965955 10:0.002849824 11:0.021187967 14:0.00091022917 16:0.040571555 17:0.036068469 20:0.030890735 21:0.071610078 24:0.090079963 26:0.028921934 29:0.26920092 #
54.912763711368249630595528287813 1:0.0031546683 2:0 3:0.0014601593 4:0.24404265 5:0.011444226 6:0.0020885591 7:0.0025094221 8:0.0044137337 9:0.00093808642 10:0.00052246777 11:0.009711151 12:0.051156167 14:0.00062578253 17:0.033062764 18:0.057554193 19:0.0094773974 20:0.028316505 21:0.032821286 22:0.10208552 26:0.026511773 29:0.12338375 #
54.912763711368249630595528287813 1:0.0050960025 2:0 3:0.0012515651 4:0.11263507 5:0.019807315 6:0.0013495305 7:0.002026841 8:0.0061113238 9:0.00091403292 10:0.00096455583 11:0.00896414 13:0.078545153 14:0.00048137119 15:0.043674447 18:0.026563473 19:0.01312255 20:0.0065345783 21:0.037870713 30:0.062875219 #
54.912763711368249630595528287813 1:0.0082810046 2:0 3:0.0011733423 4:0.091515996 5:0.0021457924 6:0.0014097774 7:0.0021173249 8:0.0071723172 9:0.00070356485 10:0.0003918508 11:0.025491772 12:0.038367126 13:0.021272646 14:0.00086045102 15:0.035485487 17:0.012398536 19:0.010662071 20:0.010618689 21:0.024615964 23:0.064058833 26:0.029825745 28:0.051287081 #
54.912763711368249630595528287813 1:0.0077938866 2:0 3:0.0023558873 4:0.1722654 5:0.012117417 6:0.0023588431 7:0.0030998744 8:0.0031155767 9:0.0011772065 10:0.0011064023 12:0.072220467 14:0.0010307006 16:0.10500873 17:0.093353689 19:0.0066899275 20:0.029982183 21:0.011583983 22:0.14412074 #
-54.912763711368249630595528287813 1:0.002453631 2:0 3:0.0011125023 4:0.02711585 5:0.0038147422 6:0.00046412426 7:0.0011152987 8:0.0022886028 9:0.00055590307 10:0.00069662364 11:0.021580337 12:0.022736074 13:0.037818037 14:0.00064895971 17:0.014694562 18:0.038369462 19:0.0084243529 20:0.012585114 22:0.022685671 25:0.019507406 27:0.031258151 #
-54.912763711368249630595528287813 1:0.0027603349 2:0 3:0.0010951195 4:0.12202132 5:0.005722113 6:0.0011487075 7:0.0015683889 8:0.0066206008 9:0.00046904321 10:0.00065308472 11:0.0072833635 12:0.012789042 14:0.00046933693 15:0.047313984 16:0.0092976475 19:0.016585445 20:0.014158253 21:0.020513304 24:0.020643326 26:0.0066279434 27:0.017582709 28:0.034191389 #
54.912763711368249630595528287813 1:0.0043680021 2:0 3:0.0015403879 5:0.021127803 6:0.0015423206 7:0.0023163897 8:0.0013580719 9:0.00076971191 10:0.00096455583 11:0.03585656 14:0.0011552909 16:0.034329776 17:0.030519474 18:0.15938084 19:0.017496733 20:0.013069157 21:0.030296572 22:0.18846557 24:0.076221503 25:0.081030764 26:0.024472406 27:0.12984155 #
54.912763711368249630595528287813 1:0.0021031122 2:0 3:0.00055625115 5:0.01907371 6:0.0033416946 7:0.0025094221 8:0.0058849785 9:0.0012507819 10:0.0013932473 11:0.012948202 14:0.0022250046 16:0.049587455 17:0.088167369 18:0.076738924 21:0.021880856 24:0.11009773 29:0.16451167 #
54.912763711368249630595528287813 1:0.004056002 2:0 3:0.00089397508 5:0.0098093366 6:0.002506271 7:0.0026886666 8:0.0025221335 9:0.00053604937 10:0.00089565897 11:0.041619219 12:0.043848142 13:0.097246379 14:0.0014303601 17:0.028339513 19:0.0081234835 24:0.14155422 25:0.15048571 26:0.022724377 27:0.060283575 #
-54.912763711368249630595528287813 1:0.0048753964 2:0 3:0.00079645053 5:0.0052019209 6:0.0012151616 7:0.0018250343 8:0.0053499802 9:0.00056853722 10:0.0011399296 11:0.014125311 12:0.055806726 13:0.01031401 14:0.00049304077 15:0.017205086 16:0.013523852 17:0.012022823 18:0.020928796 19:0.0068926523 20:0.0025742278 21:0.011935012 24:0.015013327 25:0.015960606 26:0.0096406452 27:0.02557485 29:0.044866819 #
54.912763711368249630595528287813 1:0.0061880033 2:0 3:0.0011071537 5:0.0052819508 6:0.0014459256 7:0.0015925179 8:0.0030556619 9:0.00043296296 10:0.00084398634 11:0.015687244 13:0.052363437 14:0.00072205678 15:0.021837223 16:0.051494665 17:0.0076298686 18:0.026563473 19:0.010935458 20:0.026138313 21:0.018935356 25:0.020257691 26:0.018354304 27:0.032460388 28:0.094683841 #
54.912763711368249630595528287813 1:0.0077432767 2:0 3:0.0012515651 4:0.13311417 5:0.0062423055 6:0.0015948997 7:0.0013687757 8:0.008024971 9:0.00068224466 10:0.00085494725 11:0.015890975 14:0.0006826719 16:0.020285778 17:0.018034235 18:0.031393196 19:0.015508468 20:0.0077226837 21:0.0089512598 26:0.014460967 27:0.038362276 30:0.074307077 #
15.939555149131802380679800990038 1:0.0080722393 2:0 3:0.0011043221 4:0.043066349 5:0.0050489232 6:0.0007371385 7:0.0018820666 8:0.0057118908 9:0.00051502784 10:0.0011986025 13:0.06006394 14:0.00062578253 15:0.016699053 16:0.078756548 17:0.011669211 18:0.010156622 19:0.021742264 20:0.0099940607 21:0.028959958 22:0.018015092 24:0.043715276 25:0.030982351 26:0.032749839 27:0.037233975 #
54.912763711368249630595528287813 1:0.0059772665 2:0 3:0.00065871846 6:0.00079145399 7:0.0027735718 8:0.0055752429 9:0.00059247564 10:0.00065995927 11:0.018400077 13:0.10748284 14:0.00065871846 17:0.083526984 19:0.011971449 20:0.0089420546 22:0.12895013 24:0.10430311 27:0.044419479 #
-54.912763711368249630595528287813 1:0.0020462712 2:0 3:0.0010824347 4:0.039574485 5:0.0083511919 6:0.00067737052 7:0.00061039999 8:0.0052487645 9:0.00067609834 10:0.001186143 11:0.0094486875 12:0.016591189 13:0.05519389 14:0.00040591302 15:0.030690152 18:0.018666225 19:0.018442502 20:0.0091837319 21:0.0053223707 25:0.028470268 27:0.022810003 #
54.912763711368249630595528287813 1:0.0048846477 2:0 3:0.0013726843 5:0.004430023 6:0.0006467796 7:0.00072854193 8:0.0068341685 9:0.00052452146 10:0.00040449118 11:0.030073242 13:0.02195886 14:0.00048447683 15:0.073260367 16:0.014396358 17:0.025596978 18:0.066837125 19:0.0036686698 20:0.005480614 21:0.038115039 22:0.039516974 26:0.010262622 29:0.047761451 #
-54.912763711368249630595528287813 1:0.0049377419 2:0 3:0.00092506985 4:0.031831648 5:0.0059709009 6:0.0014165879 7:0.0018002376 8:0.0046056351 9:0.00054381823 10:0.0013629594 11:0.010133375 13:0.014798362 14:0.0010883175 17:0.025875207 18:0.04504241 19:0.019778917 20:0.0073869145 21:0.012843112 22:0.026631005 24:0.02154086 26:0.020748345 30:0.035538167 #
-54.912763711368249630595528287813 1:0.0070980038 2:0 3:0.00093867385 5:0.013947651 6:0.0020363452 7:0.0025878416 8:0.0071723172 9:0.00082082563 10:0.0011755525 11:0.02185009 13:0.17018117 14:0.00070400536 16:0.041839417 17:0.012398536 19:0.0035540238 21:0.006153991 22:0.076564141 26:0.029825745 28:0.051287081 #
54.912763711368249630595528287813 1:0.0047320025 2:0 3:0.0010429709 4:0.12202132 5:0.011444226 6:0.0029239827 7:0.0037641332 8:0.011769957 9:0.0008338546 10:0.0026123389 11:0.009711151 12:0.10231233 14:0.0012515651 16:0.07438118 17:0.033062764 19:0.018954795 20:0.014158253 21:0.016410643 22:0.10208552 25:0.087783329 #
54.912763711368249630595528287813 1:0.0032217889 2:0 3:0.0011184199 5:0.0058438601 6:0.0012797979 7:0.00080087938 8:0.00488328 9:0.00055886002 10:0.00093377213 11:0.022314986 13:0.014483503 14:0.00058583898 15:0.024160333 16:0.018990941 17:0.016883114 18:0.014694687 19:0.016938327 20:0.0072297463 21:0.029329659 24:0.021082545 25:0.044825528 26:0.0067689633 27:0.03591362 29:0.031502236 #
54.912763711368249630595528287813 2:0 3:0.0010108795 5:0.007922926 6:0.0011567405 7:0.0010134205 8:0.0027161438 9:0.00055323046 10:0.00048227792 11:0.049302768 12:0.023610538 14:0.00052950834 15:0.021837223 16:0.0085824439 17:0.022889607 18:0.11953563 20:0.022871025 21:0.0075741429 24:0.019055376 #
54.912763711368249630595528287813 1:0.0057606986 2:0 3:0.00087065401 5:0.0044781757 6:0.00087174639 7:0.00098194776 8:0.0076760589 9:0.00048943638 10:0.00027259186 13:0.14798363 14:0.00054415874 15:0.049371116 16:0.019403787 18:0.030028274 19:0.019778917 20:0.0073869145 21:0.008562074 24:0.043081719 26:0.013832229 27:0.073388703 28:0.071355939 #
54.912763711368249630595528287813 1:0.005408003 2:0 3:0.0016687535 5:0.0098093366 6:0.0011934623 7:0.0025094221 8:0.0075664008 9:0.00059561041 10:0.000597106 11:0.011098458 13:0.064830922 14:0.0010727701 16:0.021251766 18:0.065776221 19:0.027078278 21:0.018755021 29:0.14101 #
54.912763711368249630595528287813 1:0.0063093365 2:0 3:0.0015705915 5:0.013463796 6:0.00098285137 7:0.0028046484 8:0.0013847008 9:0.00046597756 10:0.00073760154 11:0.015994838 12:0.036110234 13:0.12012788 14:0.00049080985 15:0.022265404 16:0.026252182 17:0.0077794739 18:0.040626489 19:0.0089199031 20:0.016656768 22:0.096080489 24:0.077716045 25:0.0206549 27:0.016548432 28:0.03218013 #
-54.912763711368249630595528287813 1:0.0051263361 2:0 3:0.0017730505 5:0.010013698 6:0.0013575634 7:0.0010978722 8:0.0036781116 9:0.00065144891 10:0.0015674032 11:0.02185009 12:0.038367126 13:0.056727055 14:0.0010429709 17:0.024797073 18:0.028777096 19:0.0094773974 20:0.017697817 21:0.020513304 22:0.025521379 23:0.04270589 24:0.020643326 25:0.021945832 26:0.0066279434 #
-54.912763711368249630595528287813 1:0.0079696886 2:0 3:0.0018444117 5:0.0054209493 6:0.0018467259 7:0.0011886737 8:0.00092920713 9:0.00052664499 10:0.0013199185 11:0.030666795 14:0.00039523109 15:0.11953007 16:0.093955182 17:0.041763492 18:0.072700031 19:0.029928623 20:0.0089420546 21:0.031093849 22:0.064475067 26:0.016744278 27:0.044419479 28:0.086378239 #
-54.912763711368249630595528287813 1:0.0039848443 2:0 3:0.0011856933 5:0.012648881 6:0.0034296338 7:0.0027735718 8:0.0055752429 9:0.00072413689 10:0.0016498981 11:0.036800154 12:0.03230916 14:0.00052697479 15:0.11953007 16:0.070466384 19:0.023942897 20:0.026826164 21:0.031093849 22:0.12895013 26:0.016744278 28:0.086378239 29:0.077926584 #
54.912763711368249630595528287813 1:0.0042740665 2:0 3:0.00096895365 4:0.14170219 5:0.004430023 6:0.00097016938 7:0.0014570839 8:0.0045561125 9:0.00072626048 10:0.0012134735 11:0.0037591553 12:0.019802388 13:0.043917719 14:0.00032298453 17:0.025596978 18:0.066837125 19:0.014674679 20:0.02740307 21:0.01905752 22:0.039516974 24:0.063927718 26:0.030787867 #
54.912763711368249630595528287813 1:0.0052577807 2:0 3:0.00076484535 4:0.081347547 5:0.0038147422 6:0.00055694912 7:0.0014638295 8:0.0063753934 9:0.00055590307 10:0.00052246777 11:0.012948202 13:0.018909018 14:0.00076484535 15:0.031542655 17:0.011020921 18:0.019184731 19:0.0094773974 20:0.033035923 21:0.021880856 25:0.02926111 #
54.912763711368249630595528287813 1:0.0052998429 2:0 3:0.0015018781 5:0.0054932288 6:0.00060150505 7:0.00060226134 8:0.0007061974 9:0.00070043787 10:0.00075235358 11:0.037290823 12:0.049109921 13:0.054457974 14:0.0011013773 16:0.07140594 17:0.031740252 18:0.027626012 19:0.0090983016 20:0.040775768 21:0.0078771086 22:0.049001049 24:0.039635185 26:0.012725651 29:0.059224203 #
-54.912763711368249630595528287813 1:0.0044536493 2:0 3:0.00073621474 4:0.086132698 5:0.010097846 6:0.0017691324 7:0.0022141959 8:0.0083082048 9:0.00073575403 10:0.0022128045 11:0.0068549304 12:0.036110234 14:0.0013251866 16:0.052504364 17:0.023338422 19:0.020069782 20:0.029982183 26:0.037428387 27:0.049645297 #
54.912763711368249630595528287813 1:0.0042491453 2:0 3:0.0011238544 4:0.029882774 5:0.0028026677 6:0.0007160774 7:0.00015363809 8:0.005044267 9:0.00061262789 10:0.0011515616 11:0.0071347235 12:0.025056081 13:0.01389234 14:0.00025542144 16:0.0273237 17:0.032388013 19:0.013925971 20:0.013869309 21:0.016075732 25:0.021497957 26:0.006492679 27:0.01722388 #
-54.912763711368249630595528287813 1:0.0047320025 2:0 3:0.0020337934 5:0.0021457924 6:0.00093985157 7:0.0028231 9:0.00078173866 10:0.0007837016 11:0.02185009 14:0.00078222819 16:0.027892943 17:0.14878243 19:0.021324143 20:0.021237379 21:0.012307982 24:0.18578993 26:0.03976766 27:0.10549626 #
-54.912763711368249630595528287813 1:0.0079696886 2:0 3:0.0011856933 5:0.0018069831 6:0.0010552719 7:0.0019811227 8:0.0074336571 9:0.00059247564 10:0.00065995927 12:0.03230916 14:0.00079046219 15:0.059765033 16:0.023488795 19:0.023942897 21:0.010364616 22:0.12895013 27:0.13325843 #
-54.912763711368249630595528287813 1:0.0021031122 2:0 3:0.0013906279 5:0.0050863228 6:0.0016708473 7:0.0016729481 8:0.010462184 9:0.0006485536 10:0.0011610395 14:0.00027812558 16:0.016529152 19:0.0042121764 20:0.0062925569 21:0.0072936187 22:0.045371342 24:0.036699243 25:0.039014813 30:0.18163952 #
54.912763711368249630595528287813 1:0.0058240029 2:0 3:0.0011552909 4:0.056317534 5:0.010563902 6:0.0019279007 7:0.0017372923 8:0.0074693956 9:0.00052917696 10:0.0014468337 11:0.031374488 13:0.026181718 14:0.0012515651 15:0.043674447 16:0.051494665 18:0.026563473 19:0.01312255 20:0.013069157 21:0.022722429 23:0.078841642 29:0.056946348 #
54.912763711368249630595528287813 1:0.0039161402 2:0 3:0.001035778 4:0.10098317 5:0.0035516564 6:0.00051853881 7:0.0005191908 8:0.0042615361 9:0.00047443452 10:0.0010809677 11:0.012055222 13:0.046946529 14:0.00051788898 15:0.0391564 16:0.015389211 18:0.047631055 20:0.017575763 21:0.013581221 24:0.034168262 26:0.010970389 29:0.051055346 #
54.912763711368249630595528287813 1:0.0050474694 2:0 3:0.00016687535 5:0.0068665356 6:0.0020050167 7:0.0025094221 8:0.0082389694 9:0.00050031277 10:0.0016718968 11:0.015537842 14:0.00050062605 19:0.015163835 20:0.011326603 21:0.013128514 26:0.021209419 #
54.912763711368249630595528287813 1:0.0022268246 2:0 3:0.00088345772 5:0.018176123 6:0.0020639878 7:0.0026570351 8:0.0072696791 9:0.00080932945 10:0.0014752031 11:0.020564791 14:0.0013251866 17:0.070015267 19:0.013379855 20:0.019988121 26:0.018714193 #
54.912763711368249630595528287813 1:0.0068829125 2:0 3:0.0011377864 5:0.0023408644 6:0.00056960701 7:0.0011976787 8:0.0064199762 9:0.00059696409 10:0.00085494725 11:0.031781949 13:0.077355072 14:0.0011377864 15:0.025807628 16:0.010142889 19:0.010338979 20:0.015445367 21:0.01790252 22:0.027841505 26:0.014460967 27:0.019181138 28:0.037299696 #
54.912763711368249630595528287813 1:0.0048846477 2:0 3:0.0010496997 5:0.005537529 6:0.00097016938 7:0.0015785075 8:0.0042713555 9:0.00060521706 10:0.00080898235 11:0.015036621 12:0.019802388 13:0.03293829 14:0.00044410376 16:0.035990894 17:0.019197734 18:0.011139521 19:0.009171675 20:0.010961228 21:0.0063525066 26:0.010262622 30:0.026367027 #
-54.912763711368249630595528287813 1:0.0014560007 2:0 3:0.00077019393 5:0.0052819508 6:0.0015423206 7:0.0023163897 9:0.00048106996 10:0.0014468337 11:0.00896414 14:0.00057764543 17:0.091558427 20:0.026138313 26:0.048944812 30:0.12575044 #
54.912763711368249630595528287813 1:0.008112004 2:0 3:0.0014303601 4:0.20917942 6:0.0028643096 7:0.0021509333 8:0.0025221335 9:0.00071473251 10:0.0017913179 11:0.016647687 12:0.087696284 14:0.0010727701 16:0.063755304 17:0.056679025 26:0.045448754 #
54.912763711368249630595528287813 1:0.0041705784 2:0 3:0.0011030743 5:0.0046552783 6:0.0010195001 7:0.0021691616 8:0.0044885427 9:0.00050879264 10:0.0010626463 11:0.0059254481 12:0.020809287 13:0.011537706 14:0.00084851874 16:0.030256752 17:0.047072411 18:0.011705937 19:0.009638031 20:0.0057592895 21:0.013351032 22:0.020763157 24:0.01679457 25:0.035708472 26:0.0215689 27:0.042913731 28:0.027816722 #
54.912763711368249630595528287813 1:0.0089072986 2:0 3:0.00088345772 5:0.0040391386 6:0.0011794216 7:0.0013285176 8:0.0083082048 9:0.00073575403 10:0.0014752031 11:0.027419722 13:0.040042628 14:0.0013251866 18:0.081252977 20:0.0099940607 26:0.018714193 #
-54.912763711368249630595528287813 1:0.0072800037 2:0 3:0.0013478394 5:0.007922926 6:0.0011567405 7:0.0023163897 8:0.0081484318 9:0.00076971191 10:0.00096455583 11:0.01792828 12:0.094442151 13:0.052363437 14:0.00038509697 16:0.10298933 19:0.0087483665 20:0.013069157 21:0.015148286 22:0.18846557 26:0.024472406 27:0.064920776 28:0.12624513 #
-54.912763711368249630595528287813 1:0.0080080042 2:0 3:0.0012515651 4:0.056317534 5:0.0013204877 6:0.0011567405 7:0.0017372923 8:0.0081484318 9:0.00048106996 10:0.0012056949 11:0.00448207 12:0.047221076 14:0.00067391968 19:0.01312255 20:0.019603735 21:0.022722429 26:0.012236203 #
-54.912763711368249630595528287813 1:0.0072106705 2:0 3:0.0014303601 5:0.013079116 6:0.0021482322 7:0.0021509333 8:0.0058849785 9:0.00059561041 10:0.001492765 11:0.033295374 12:0.029232096 13:0.16207729 14:0.00071518007 15:0.054073125 16:0.021251766 19:0.021662623 20:0.01618086 21:0.02813253 25:0.050161902 27:0.04018905 #
54.912763711368249630595528287813 1:0.0072800037 2:0 3:0.0013478394 4:0.11263507 5:0.0052819508 6:0.0011567405 7:0.0040536821 8:0.0095065041 9:0.00076971191 10:0.0019291117 12:0.094442151 14:0.0015403879 16:0.068659551 17:0.061038949 19:0.0087483665 20:0.026138313 21:0.030296572 22:0.18846557 26:0.024472406 #
54.912763711368249630595528287813 1:0.0048846477 2:0 3:0.0007267152 5:0.005537529 6:0.0006467796 7:0.0016999311 8:0.0051256265 9:0.00052452146 10:0.00040449118 11:0.015036621 12:0.05940716 14:0.00056522293 17:0.012798489 18:0.066837125 19:0.0073373397 20:0.010961228 21:0.012705013 23:0.066125251 25:0.033980645 26:0.010262622 28:0.052941505 #
54.912763711368249630595528287813 1:0.0079696886 2:0 3:0.0011856933 5:0.0054209493 6:0.001582908 7:0.00079244911 8:0.0037168285 9:0.00052664499 10:0.0013199185 11:0.018400077 13:0.035827614 14:0.0013174369 16:0.023488795 17:0.041763492 19:0.017957173 21:0.020729233 24:0.052151557 26:0.033488557 27:0.088838957 #
54.912763711368249630595528287813 1:0.0051621846 2:0 3:0.0010240078 5:0.0093634576 6:0.00068352843 7:0.00068438787 8:0.0032099881 9:0.00073909841 10:0.00056996482 11:0.010593983 13:0.061884061 14:0.0006826719 19:0.0051694894 21:0.0089512598 24:0.090079963 27:0.038362276 28:0.074599393 #
-54.912763711368249630595528287813 1:0.0019924222 2:0 3:0.00065871846 5:0.0036139663 6:0.00026381799 7:0.0015848982 8:0.0037168285 9:0.00046081439 10:0.00065995927 13:0.035827614 14:0.00039523109 16:0.023488795 18:0.10905005 19:0.011971449 26:0.016744278 #
-54.912763711368249630595528287813 1:0.0063093365 2:0 3:0.0011125023 5:0.011444226 6:0.0012531355 7:0.0014638295 8:0.0019616594 9:0.00055590307 10:0.00069662364 11:0.016185252 13:0.18909018 14:0.00034765698 18:0.019184731 19:0.0094773974 20:0.023597088 21:0.010940428 24:0.082573302 26:0.0088372575 27:0.046887226 28:0.091177031 29:0.041127916 #
-54.912763711368249630595528287813 2:0 3:0.0013174369 4:0.038533051 5:0.0045174579 6:0.0013190899 7:0.0019811227 8:0.003252225 9:0.00055956031 10:0.00032997964 11:0.0061333589 12:0.01615458 14:0.0012515651 16:0.011744398 17:0.020881746 19:0.0059857243 20:0.022355136 21:0.010364616 26:0.0083721392 30:0.043019887 #
54.912763711368249630595528287813 1:0.005408003 2:0 3:0.0014303601 5:0.0098093366 6:0.0021482322 7:0.0043018665 8:0.015132802 9:0.0010720987 10:0.0017913179 11:0.033295374 14:0.0021455402 19:0.016246967 20:0.048542581 26:0.045448754 27:0.12056715 #
54.912763711368249630595528287813 1:0.0039848443 2:0 3:0.00065871846 5:0.0054209493 6:0.001582908 7:0.00079244911 8:0.00092920713 9:0.00059247564 10:0.0016498981 11:0.030666795 13:0.071655229 14:0.00092220586 16:0.023488795 17:0.083526984 18:0.036350016 19:0.0059857243 20:0.017884109 21:0.010364616 26:0.016744278 #
-54.912763711368249630595528287813 1:0.0015773341 2:0 3:0.00052148546 4:0.061010662 5:0.0071526417 6:0.0014619913 7:0.0034504554 8:0.0036781116 9:0.00015634774 10:0.0010449355 11:0.0048555755 14:0.00031289126 17:0.016531382 19:0.018954795 20:0.021237379 25:0.043891665 #
-54.912763711368249630595528287813 1:0.010094939 2:0 3:0.0011681274 4:0.09761706 5:0.0045776907 6:0.0023391861 7:0.0025094221 8:0.0047079828 9:0.00066708366 10:0.0012539226 11:0.023306763 14:0.0013350028 16:0.059504949 17:0.10580084 19:0.0075819176 20:0.011326603 21:0.026257029 25:0.070226662 26:0.021209419 #
54.912763711368249630595528287813 1:0.0011134123 2:0 3:0.00058897183 5:0.0060587083 6:0.00029485539 7:0.0017713568 8:0.0083082048 9:0.00066217867 10:0.0011064023 11:0.020564791 14:0.00073621474 17:0.023338422 18:0.081252977 19:0.013379855 20:0.0099940607 21:0.023167966 27:0.099290594 #
54.912763711368249630595528287813 1:0.0022268246 2:0 3:0.00095707917 4:0.043066349 5:0.0050489232 6:0.0013268493 7:0.0017713568 8:0.0041541024 9:0.00033108934 10:0.00073760154 11:0.020564791 12:0.018055117 13:0.040042628 14:0.00051535032 16:0.013126091 17:0.023338422 18:0.020313244 19:0.0033449638 20:0.0099940607 21:0.011583983 30:0.048081052 #
38.65537355954423048842727439478 1:0.0073608928 2:0 3:0.0011125023 4:0.081347547 5:0.0019073711 6:0.00027847456 7:0.0012547111 8:0.0039233188 9:0.0003474394 10:0.0013932473 14:0.0012515651 18:0.076738924 19:0.012636529 20:0.028316505 21:0.043761712 24:0.055048864 26:0.03534903 28:0.091177031 31:0.33285913 #
-46.286655043995082792207540478557 1:0.001892801 2:0 3:0.0016270346 5:0.024032876 6:0.0027568981 7:0.0022584798 8:0.0044137337 9:0.00062539097 10:0.0015674032 11:0.058266908 12:0.030693701 13:0.13614494 14:0.0011264086 15:0.056776781 16:0.04462871 17:0.019837659 18:0.069065027 19:0.011372876 21:0.0098463856 25:0.052669998 27:0.042198505 30:0.081737787 #
54.912763711368249630595528287813 1:0.0028678803 2:0 3:0.0012894913 5:0.0072826897 6:0.0013670569 7:0.0013687757 8:0.0053499802 9:0.00053063477 10:0.00056996482 11:0.010593983 12:0.018602243 13:0.02062802 14:0.00045511458 19:0.0034463261 20:0.030890735 21:0.01790252 22:0.037122007 24:0.060053308 #
-54.912763711368249630595528287813 1:0.0014560007 2:0 3:0.00077019393 4:0.075090043 5:0.0035213004 6:0.00064263359 7:0.0011581948 8:0.0045269066 9:0.00038485596 10:0.00064303726 11:0.014940233 12:0.015740359 14:0.00051346258 18:0.017708981 19:0.014580611 20:0.0043563857 21:0.015148286 25:0.027010255 26:0.0081574684 #
-54.912763711368249630595528287813 1:0.003785602 2:0 3:0.0011264086 4:0.073212795 5:0.0034332678 6:0.0012531355 7:0.00075282663 9:0.00031269548 10:0.0012539226 11:0.011653381 14:0.00012515651 16:0.04462871 17:0.019837659 20:0.016989904 #
54.912763711368249630595528287813 1:0.00078866706 2:0 3:0.00073007966 5:0.0042915847 6:0.00041771182 7:0.0018820666 8:0.00073562231 9:0.00057327503 10:0.0007837016 11:0.009711151 14:0.00052148546 17:0.066125527 19:0.018954795 20:0.0070791263 21:0.0082053216 24:0.041286651 26:0.026511773 27:0.035165418 28:0.068382777 #
54.912763711368249630595528287813 1:0.005408003 2:0 3:0.00035759003 5:0.0024523342 6:0.0017901935 7:0.0021509333 9:0.00044670783 10:0.00089565897 11:0.024971532 12:0.043848142 14:0.00071518007 17:0.085018538 19:0.016246967 26:0.045448754 #
-54.912763711368249630595528287813 1:0.0029886332 2:0 3:0.0011856933 4:0.077066101 5:0.0072279326 6:0.0018467259 7:0.0019811227 8:0.0046460354 9:0.00059247564 10:0.0013199185 11:0.0061333589 14:0.00052697479 17:0.083526984 19:0.0059857243 #
-54.912763711368249630595528287813 1:0.0011134123 2:0 3:0.0016196725 4:0.086132698 5:0.0040391386 6:0.001474277 7:0.0022141959 8:0.0051926281 9:0.00073575403 10:0.00036880077 11:0.013709861 14:0.00044172886 16:0.026252182 17:0.023338422 20:0.019988121 21:0.023167966 #
-54.912763711368249630595528287813 1:0.0025237347 2:0 3:0.0011681274 4:0.09761706 5:0.0068665356 6:0.0016708473 7:0.0020075378 8:0.0082389694 9:0.0004169273 10:0.0012539226 11:0.031075684 14:0.00066750142 20:0.011326603 21:0.013128514 #
49.767055602268968073076393920928 1:0.0034414562 2:0 3:0.00022755729 5:0.0031211528 6:0.0013670569 7:0.0020531635 8:0.0064199762 9:0.00090965955 10:0.0022798593 11:0.031781949 14:0.0018204583 16:0.081143111 17:0.072136939 19:0.020677958 20:0.0463361 21:0.01790252 24:0.090079963 25:0.2872909 #
54.912763711368249630595528287813 1:0.0073394324 2:0 3:0.0010727701 4:0.029882774 5:0.0056053353 6:0.0017390451 7:0.0013827428 8:0.0082870107 9:0.0006636802 10:0.0014074642 11:0.023782412 13:0.04167702 14:0.00071518007 16:0.0273237 17:0.016194006 18:0.056379616 19:0.025530947 20:0.013869309 21:0.02813253 22:0.025000535 25:0.064493872 29:0.030216429 30:0.10008708 #
54.912763711368249630595528287813 1:0.0063093365 2:0 3:0.00045511458 4:0.044371393 5:0.0031211528 6:0.0015189521 7:0.0018250343 8:0.01069996 9:0.00068224466 10:0.00094994134 11:0.017656639 14:0.001061934 18:0.020928796 19:0.010338979 20:0.025742278 21:0.023870025 26:0.01928129 27:0.02557485 #
54.912763711368249630595528287813 2:0 3:0.00044172886 5:0.0040391386 6:0.001474277 7:0.0026570351 8:0.0062311534 9:0.00051502784 10:0.0014752031 11:0.013709861 13:0.040042628 14:0.00073621474 17:0.046676844 19:0.013379855 20:0.029982183 21:0.011583983 27:0.049645297 #
-54.912763711368249630595528287813 1:0.0047320025 2:0 3:0.001147268 5:0.0014305282 6:0.00083542365 7:0.0028231 8:0.011034334 9:0.00078173866 10:0.0010449355 14:0.00073007966 15:0.047313984 19:0.023693493 20:0.014158253 21:0.032821286 26:0.026511773 27:0.035165418 #
-54.912763711368249630595528287813 2:0 3:0.00071518007 5:0.019618673 6:0.003580387 7:0.0043018665 8:0.0025221335 9:0.00089341565 10:0.0017913179 12:0.087696284 14:0.0021455402 16:0.063755304 17:0.11335805 18:0.098664328 19:0.016246967 21:0.05626506 25:0.15048571 26:0.045448754 27:0.2411343 #
54.912763711368249630595528287813 1:0.0074066124 2:0 3:0.0012515651 5:0.0059709009 6:0.001089683 7:0.0016365796 8:0.0053732414 9:0.00076134549 10:0.00081777561 11:0.015200063 12:0.013345087 13:0.073991813 14:0.00054415874 16:0.02910568 17:0.0086250687 18:0.030028274 19:0.0049447292 20:0.0073869145 21:0.004281037 26:0.013832229 #
-54.912763711368249630595528287813 1:0.0031546683 2:0 3:0.0014601593 6:0.0033416946 7:0.0025094221 8:0.0088274674 9:0.00072962279 10:0.0015674032 11:0.019422302 14:0.0014601593 19:0.02843219 21:0.016410643 26:0.026511773 28:0.13676555 #
-54.912763711368249630595528287813 1:0.0056784032 2:0 3:0.0012515651 5:0.013733071 6:0.0020050167 7:0.0030113065 8:0.012358455 9:0.00075046916 10:0.0012539226 11:0.058266908 14:0.0010012521 19:0.045491505 20:0.016989904 21:0.019692771 26:0.031814128 #
-54.912763711368249630595528287813 1:0.00082295696 2:0 3:0.00097948569 5:0.0044781757 6:0.0019614294 7:0.00098194776 8:0.0053732414 9:0.00032629093 10:0.0010903674 11:0.030400125 13:0.029596724 14:0.00054415874 16:0.038807575 18:0.090084821 19:0.0098894583 20:0.0073869145 21:0.017124148 24:0.043081719 25:0.045799997 26:0.013832229 #
54.912763711368249630595528287813 1:0.005408003 2:0 3:0.0010727701 5:0.014714005 6:0.0028643096 7:0.0032263999 8:0.010088534 9:0.0011316598 10:0.0017913179 11:0.033295374 14:0.00035759003 17:0.018893007 19:0.010831311 20:0.0080904299 21:0.0093775103 30:0.077845514 #
-54.912763711368249630595528287813 1:0.0086036408 2:0 3:0.0011377864 5:0.0062423055 6:0.0027341137 7:0.004106327 8:0.012839952 9:0.001023367 10:0.0022798593 14:0.0013653438 21:0.01790252 24:0.090079963 25:0.095763631 26:0.057843868 #
-54.912763711368249630595528287813 1:0.0063093365 2:0 3:0.0011125023 5:0.0019073711 6:0.00083542365 7:0.0016729481 8:0.011769957 9:0.00069487881 10:0.0017415591 11:0.012948202 14:0.0012515651 15:0.06308531 16:0.024793727 18:0.038369462 19:0.012636529 20:0.0094388351 21:0.043761712 22:0.068057016 26:0.017674515 #
-54.912763711368249630595528287813 1:0.0049810554 2:0 3:0.0018444117 5:0.014455865 6:0.0010552719 7:0.0031697964 8:0.00650445 9:0.00052664499 10:0.0019798777 12:0.096927471 13:0.071655229 14:0.0011856933 19:0.017957173 20:0.026826164 21:0.020729233 22:0.064475067 25:0.055442102 26:0.016744278 #
-54.912763711368249630595528287813 1:0.015486553 2:0 3:0.0020480156 5:0.0093634576 6:0.0013670569 7:0.00068438787 8:0.0096299648 9:0.00090965955 10:0.0017098945 14:0.0011377864 15:0.10323051 16:0.081143111 17:0.036068469 19:0.020677958 20:0.015445367 26:0.028921934 #
-54.912763711368249630595528287813 1:0.0075712041 2:0 3:0.0012515651 5:0.0034332678 6:0.0010025083 7:0.0015056533 8:0.0088274674 9:0.0010006255 10:0.00062696129 11:0.023306763 14:0.0012515651 18:0.069065027 19:0.011372876 20:0.016989904 24:0.099087961 26:0.031814128 #
54.912763711368249630595528287813 1:0.0079696886 2:0 3:0.0015809244 5:0.0054209493 6:0.003165816 7:0.0027735718 8:0.0083628641 9:0.00085579813 10:0.0016498981 11:0.018400077 13:0.035827614 14:0.0018444117 17:0.062645234 19:0.029928623 21:0.020729233 26:0.016744278 27:0.044419479 #
54.912763711368249630595528287813 1:0.0021031122 2:0 3:0.00027812558 6:0.0019493218 7:0.0025094221 8:0.0098082973 9:0.00048641517 10:0.0013932473 11:0.012948202 14:0.0012515651 18:0.076738924 #
-54.912763711368249630595528287813 1:0.0047320025 2:0 3:0.0011264086 5:0.0051499018 6:0.0015037626 7:0.0015056533 8:0.0026482402 9:0.00081300823 10:0.0012539226 11:0.0058266907 14:0.00062578253 16:0.04462871 17:0.039675318 19:0.02843219 20:0.042474758 25:0.052669998 26:0.015907064 #
-54.912763711368249630595528287813 1:0.0039848443 2:0 3:0.00092220586 5:0.0054209493 6:0.00079145399 7:0.0011886737 8:0.010221278 9:0.00026332249 10:0.00065995927 11:0.012266718 14:0.00039523109 15:0.059765033 18:0.036350016 19:0.017957173 20:0.035768218 21:0.020729233 25:0.055442102 #
54.912763711368249630595528287813 1:0.0023660013 2:0 3:0.00083437673 5:0.0042915847 6:0.0018797031 7:0.0015683889 8:0.0058849785 9:0.00052115915 10:0.0010449355 11:0.009711151 12:0.025578083 14:0.00041718836 18:0.086331286 19:0.014216095 20:0.014158253 21:0.016410643 24:0.041286651 26:0.013255887 #
0.66292496773586773173292385763489 1:0.0084124487 2:0 3:0.00083437673 6:0.0011138982 7:0.0016729481 8:0.0098082973 9:0.00027795153 10:0.0013932473 14:0.0013906279 15:0.12617062 26:0.03534903 #
-54.912763711368249630595528287813 1:0.0025810923 2:0 3:0.0010240078 5:0.0046817288 6:0.0015948997 7:0.0013687757 8:0.0024074912 9:0.00034112233 10:0.0011399296 11:0.021187967 14:0.0006826719 17:0.018034235 18:0.094179586 19:0.010338979 20:0.015445367 21:0.01790252 22:0.055683009 25:0.047881816 26:0.014460967 27:0.076724552 28:0.14919879 #
-54.912763711368249630595528287813 1:0.0036053353 2:0 3:0.0015495569 5:0.013079116 6:0.0026256172 7:0.0025094221 8:0.0092478236 9:0.00065517146 10:0.0017913179 11:0.022196917 14:0.0013111634 18:0.032888111 19:0.016246967 20:0.01618086 21:0.037510041 26:0.03029917 27:0.04018905 30:0.077845514 #
-54.912763711368249630595528287813 1:0.0056784032 2:0 3:0.0013350028 5:0.0022888454 6:0.00033416945 7:0.0015056533 8:0.0082389694 9:0.00066708366 10:0.00083594839 11:0.019422302 12:0.020462466 14:0.00050062605 16:0.014876237 17:0.013225106 18:0.023021678 19:0.022745753 20:0.011326603 21:0.032821286 24:0.033029318 26:0.021209419 27:0.056264672 28:0.05470622 #
54.912763711368249630595528287813 1:0.0067600035 2:0 3:0.00035759003 5:0.0024523342 6:0.0014321548 7:0.0026886666 8:0.0063053342 9:0.00017868313 10:0.0017913179 14:0.0019667451 19:0.0081234835 26:0.045448754 #
54.912763711368249630595528287813 1:0.0028041496 2:0 3:0.00055625115 6:0.0011138982 7:0.0019517727 8:0.0045772055 9:0.00046325257 10:0.00092883158 11:0.017264269 12:0.022736074 13:0.050424051 14:0.00074166822 16:0.033058304 19:0.0084243529 20:0.0062925569 21:0.014587237 26:0.01178301 27:0.031258151 #
54.912763711368249630595528287813 1:0.0028392016 2:0 3:0.00068836083 5:0.0034332678 6:0.00087719481 7:0.0016938599 8:0.0035309871 9:0.00050031277 10:0.0012539226 11:0.017480072 12:0.01534685 14:0.00062578253 17:0.029756488 19:0.0085296575 20:0.0084949518 21:0.0098463856 26:0.023860596 #
-54.912763711368249630595528287813 1:0.0029120015 2:0 3:0.0015403879 5:0.007922926 6:0.0011567405 7:0.002026841 8:0.004753252 9:0.00081781892 10:0.00072341686 11:0.01344621 14:0.00086646818 16:0.017164888 17:0.015259737 20:0.032672893 21:0.0075741429 #
-54.912763711368249630595528287813 1:0.0054952288 2:0 3:0.00096895365 5:0.0033225173 6:0.001616949 7:0.0016999311 8:0.0085427109 9:0.00052452146 10:0.001011228 11:0.022554932 14:0.00064596906 17:0.012798489 19:0.01100601 20:0.02740307 21:0.0063525066 #
-54.912763711368249630595528287813 1:0.002468871 2:0 3:0.00065299048 6:0.0019614294 7:0.0026185275 8:0.0061408472 9:0.00070696371 10:0.00081777561 11:0.010133375 14:0.00043532701 17:0.017250137 19:0.0098894583 20:0.022160744 21:0.008562074 24:0.043081719 #
54.912763711368249630595528287813 1:0.0059150029 2:0 3:0.0010951195 5:0.010728962 6:0.002506271 7:0.0032936165 8:0.0099309012 9:0.00085991254 10:0.0011755525 14:0.0012515651 16:0.027892943 18:0.086331286 19:0.02843219 20:0.021237379 21:0.036923945 26:0.01988383 27:0.052748129 #
54.912763711368249630595528287813 1:0.0063093365 2:0 3:0.0013111634 5:0.0040872237 6:0.0022675784 7:0.0019716888 8:0.0088274674 9:0.00059561041 10:0.0010449355 11:0.016647687 13:0.048623189 14:0.00077477843 16:0.010625883 17:0.0094465036 19:0.0081234835 20:0.01618086 21:0.018755021 24:0.047184743 25:0.025080951 26:0.0075747925 28:0.03907587 #
-54.912763711368249630595528287813 1:0.0078322804 2:0 3:0.0021578709 5:0.0071033128 6:0.00086423138 7:0.0018171677 8:0.0085230721 9:0.00073321699 10:0.00086477422 11:0.012055222 12:0.021168068 13:0.023473265 14:0.00094946317 15:0.0391564 16:0.030778421 19:0.0039216815 20:0.017575763 21:0.020371832 26:0.032911167 27:0.029102417 28:0.056592643 30:0.056370888 #
-54.912763711368249630595528287813 2:0 3:0.0014724295 5:0.0060587083 6:0.0020639878 7:0.0013285176 8:0.0031155767 9:0.00095648027 10:0.0022128045 11:0.020564791 12:0.036110234 14:0.0011779437 17:0.046676844 19:0.020069782 20:0.0099940607 21:0.023167966 22:0.14412074 27:0.049645297 28:0.096540391 #
-54.912763711368249630595528287813 1:0.009100005 2:0 3:0.0016366621 5:0.0052819508 6:0.0010603454 7:0.0015925179 8:0.0061113238 9:0.00079376542 10:0.00096455583 11:0.006723105 12:0.035415806 14:0.00057764543 15:0.043674447 16:0.034329776 17:0.022889607 18:0.013281737 19:0.017496733 20:0.0065345783 21:0.018935356 22:0.070674591 25:0.020257691 26:0.018354304 27:0.032460388 28:0.031561282 29:0.028473174 30:0.062875219 #
-54.912763711368249630595528287813 1:0.0068829125 2:0 3:0.0015929011 5:0.0031211528 6:0.0022784281 7:0.0027375515 8:0.0064199762 9:0.001023367 10:0.0017098945 14:0.0006826719 27:0.076724552 #
-54.912763711368249630595528287813 1:0.0031546683 2:0 3:0.00069531397 5:0.005722113 6:0.0013923728 7:0.0016729481 8:0.0049041486 9:0.0009033425 10:0.0010449355 14:0.00055625115 16:0.049587455 17:0.022041842 19:0.0063182646 21:0.010940428 27:0.046887226 #
54.912763711368249630595528287813 1:0.0021031122 2:0 3:0.0011820337 5:0.011444226 6:0.0020885591 7:0.0010455926 8:0.0049041486 9:0.00052115915 10:0.0017415591 11:0.029133454 12:0.017052056 14:0.00055625115 16:0.012396864 18:0.057554193 19:0.0063182646 20:0.01887767 21:0.010940428 26:0.0088372575 #
54.912763711368249630595528287813 1:0.0021031122 2:0 3:0.00069531397 5:0.0038147422 6:0.0011138982 7:0.0020911852 8:0.0039233188 9:0.0004169273 10:0.00034831182 11:0.012948202 14:0.0013906279 18:0.076738924 20:0.01887767 21:0.010940428 24:0.055048864 26:0.03534903 #
54.912763711368249630595528287813 1:0.0068829125 2:0 3:0.0006826719 5:0.0031211528 6:0.0018227425 8:0.0064199762 9:0.00011370744 10:0.0011399296 11:0.031781949 14:0.00045511458 18:0.062786393 19:0.020677958 21:0.035805039 #
-54.912763711368249630595528287813 1:0.010816006 2:0 3:0.0012515651 5:0.0098093366 6:0.0014321548 7:0.0010754666 8:0.013871735 9:0.00080407411 10:0.0022391474 11:0.0083238436 14:0.00035759003 18:0.049332164 20:0.024271291 21:0.014066265 24:0.070777111 #
-54.912763711368249630595528287813 1:0.0047320025 2:0 3:0.00050062605 5:0.010299804 6:0.0015037626 7:0.0022584798 8:0.0044137337 9:0.00037523458 10:0.00062696129 11:0.017480072 13:0.034036234 14:0.0015018781 16:0.022314355 18:0.069065027 19:0.011372876 20:0.016989904 21:0.0098463856 25:0.052669998 26:0.047721192 28:0.082059331 #
-54.912763711368249630595528287813 1:0.0060225488 2:0 3:0.0012515651 5:0.024969222 6:0.0022784281 7:0.0030797455 8:0.0032099881 9:0.00051168352 10:0.0025648416 11:0.015890975 14:0.0012515651 15:0.10323051 16:0.020285778 17:0.036068469 18:0.062786393 19:0.020677958 20:0.015445367 21:0.0089512598 26:0.014460967 #
-54.912763711368249630595528287813 1:0.0049377419 2:0 3:0.00087065401 5:0.0044781757 6:0.001089683 7:0.0016365796 8:0.0038380295 9:0.00054381823 10:0.00027259186 11:0.030400125 12:0.026690174 14:0.00054415874 15:0.049371116 16:0.05821136 18:0.090084821 19:0.019778917 20:0.0073869145 21:0.025686223 24:0.086163439 26:0.04149669 27:0.036694352 28:0.071355939 #
-54.912763711368249630595528287813 1:0.0033800018 2:0 3:0.00062578253 5:0.0073570027 6:0.00053705805 7:0.00080659997 8:0.0025221335 9:0.00044670783 10:0.0011195737 11:0.024971532 14:0.00044698754 15:0.081109688 19:0.0081234835 21:0.014066265 26:0.011362188 27:0.030141788 #
54.912763711368249630595528287813 1:0.0059772665 2:0 3:0.0013833088 5:0.0054209493 6:0.0013190899 7:0.002179235 8:0.0055752429 9:0.00052664499 10:0.00065995927 11:0.015333397 12:0.03230916 13:0.035827614 14:0.00085633399 16:0.011744398 17:0.010440873 18:0.072700031 19:0.020950036 20:0.017884109 21:0.020729233 26:0.0083721392 27:0.022209739 #
54.912763711368249630595528287813 1:0.0015451437 2:0 3:0.0010727701 5:0.0063060024 6:0.0010229677 7:0.0012291047 8:0.005404572 9:0.00061262789 10:0.00089565897 11:0.011891206 12:0.025056081 14:0.00040867433 16:0.0091078999 19:0.0069629857 20:0.010401982 21:0.032151464 22:0.025000535 24:0.020222032 25:0.021497957 26:0.012985358 27:0.034447759 #
-54.912763711368249630595528287813 1:0.0019413343 2:0 3:0.00051346258 5:0.0008803251 6:0.0011567405 7:0.0013512273 8:0.0040742159 9:0.0007376406 10:0.0012860745 11:0.005976093 12:0.015740359 13:0.034908958 14:0.00051346258 18:0.053126946 19:0.017496733 20:0.0043563857 21:0.015148286 25:0.027010255 26:0.024472406 27:0.021640258 #
-54.912763711368249630595528287813 1:0.004907262 2:0 3:0.00083437673 5:0.0038147422 6:0.0014851976 7:0.0013941234 8:0.009154411 9:0.00055590307 10:0.0016254552 11:0.030212471 12:0.022736074 14:0.00046354264 18:0.051159281 19:0.0084243529 20:0.0062925569 21:0.029174475 26:0.01178301 #
54.912763711368249630595528287813 1:0.0039433353 2:0 3:0.0016687535 5:0.0085831694 6:0.0012531355 7:0.0018820666 8:0.0066206008 9:0.0010944342 10:0.0013061694 11:0.029133454 12:0.076734252 13:0.028363528 14:0.00093867385 15:0.047313984 16:0.055785887 17:0.049594145 19:0.014216095 20:0.014158253 22:0.051042758 23:0.08541178 25:0.043891665 26:0.013255887 27:0.070330836 28:0.068382777 30:0.068114825 #
54.912763711368249630595528287813 1:0.0058240029 2:0 3:0.00096274237 5:0.0026409754 6:0.00096395036 7:0.00086864614 8:0.004753252 9:0.00067349797 10:0.00096455583 11:0.01792828 14:0.00057764543 16:0.068659551 17:0.091558427 19:0.017496733 20:0.0065345783 26:0.012236203 28:0.12624513 29:0.1138927 #
54.912763711368249630595528287813 1:0.0070103742 2:0 3:0.0012979194 5:0.0089010652 6:0.0016708473 7:0.0025094221 8:0.0078466376 9:0.00078752934 10:0.00092883158 11:0.021580337 12:0.045472149 13:0.050424051 14:0.00064895971 16:0.049587455 19:0.0084243529 20:0.012585114 21:0.014587237 22:0.045371342 24:0.036699243 26:0.023566021 27:0.031258151 29:0.10967445 #
54.912763711368249630595528287813 1:0.0061058095 2:0 3:0.00096895365 5:0.0033225173 7:0.0019427785 8:0.0068341685 9:0.00064556487 10:0.00020224559 11:0.026314087 13:0.065876581 14:0.00080746139 15:0.036630183 18:0.022279043 19:0.0036686698 21:0.031762533 29:0.047761451 30:0.052734055 #
-54.912763711368249630595528287813 1:0.0029120015 2:0 3:0.0011552909 5:0.0052819508 6:0.0019279007 7:0.0040536821 8:0.0040742159 9:0.00086592592 11:0.02689242 14:0.00057764543 16:0.034329776 20:0.026138313 28:0.12624513 #
-54.912763711368249630595528287813 1:0.0070304037 2:0 3:0.0010012521 5:0.0019618673 6:0.0010025083 7:0.0021509333 8:0.0090796808 9:0.00057178602 10:0.0014330545 11:0.0099886125 13:0.019449277 14:0.00071518007 15:0.032443877 16:0.012751061 17:0.011335805 18:0.019732866 19:0.025995146 20:0.0097085163 21:0.016879518 24:0.056621689 25:0.060194284 26:0.018179502 28:0.09378209 #
54.912763711368249630595528287813 1:0.0070103742 2:0 3:0.00074166822 5:0.0038147422 6:0.0014851976 7:0.0019517727 8:0.0071927514 9:0.0006485536 10:0.0011610395 11:0.025896404 13:0.050424051 14:0.00074166822 15:0.042056877 16:0.016529152 19:0.012636529 20:0.012585114 21:0.014587237 26:0.01178301 28:0.06078469 #
54.912763711368249630595528287813 1:0.0035490019 2:0 3:0.0014862336 5:0.0042915847 6:0.0012531355 7:0.0009410333 8:0.0038620171 9:0.00046904321 10:0.0017633287 11:0.010925045 12:0.038367126 13:0.042545293 14:0.00070400536 16:0.013946472 17:0.012398536 18:0.043165643 19:0.010662071 20:0.010618689 21:0.012307982 24:0.030964987 26:0.0099419151 27:0.026374064 29:0.13880672 #
37.674784309371389667830953840166 1:0.0031546683 2:0 3:0.001066148 5:0.005722113 6:0.00092824851 7:0.0011152987 8:0.0049041486 9:0.0005790657 10:0.0018576632 11:0.021580337 12:0.034104113 14:0.0005098969 16:0.016529152 17:0.0073472811 18:0.01278982 19:0.0084243529 20:0.025170228 21:0.032821286 26:0.01178301 27:0.015629075 29:0.027418612 30:0.030273255 #
54.912763711368249630595528287813 1:0.0025237347 2:0 3:0.0012515651 5:0.0022888454 6:0.0013366778 7:0.0020075378 8:0.0047079828 9:0.00062539097 10:0.0012539226 11:0.0038844605 12:0.020462466 14:0.00050062605 18:0.046043355 19:0.0075819176 20:0.0056633013 21:0.019692771 26:0.010604709 #
-54.912763711368249630595528287813 1:0.003785602 2:0 3:0.0011681274 5:0.0068665356 6:0.0010025083 7:0.0030113065 8:0.0082389694 9:0.0010006255 12:0.040924933 14:0.00066750142 17:0.026450211 18:0.046043355 19:0.0075819176 21:0.026257029 22:0.081668414 26:0.021209419 27:0.056264672 #
54.912763711368249630595528287813 1:0.0059150029 2:0 3:0.0012515651 5:0.0085831694 6:0.002506271 7:0.0018820666 8:0.0044137337 9:0.00054721709 10:0.0015674032 11:0.02185009 14:0.00062578253 15:0.070970975 16:0.027892943 17:0.049594145 19:0.021324143 20:0.021237379 21:0.012307982 24:0.061929975 26:0.01988383 28:0.10257416 #
29.843304992459167124252417124808 1:0.0072371801 2:0 3:0.0017669154 5:0.0060587083 6:0.0011794216 7:0.0022141959 8:0.0093467301 9:0.00058860326 10:0.0012908027 11:0.010282395 14:0.00073621474 15:0.066796213 16:0.013126091 17:0.011669211 18:0.040626489 19:0.02675971 20:0.029982183 21:0.028959958 24:0.029143518 26:0.018714193 27:0.024822649 28:0.096540391 #
54.912763711368249630595528287813 1:0.0043680021 2:0 3:0.0013478394 5:0.0026409754 6:0.0015423206 7:0.002895487 8:0.0081484318 9:0.00086592592 10:0.00096455583 14:0.00096274237 16:0.034329776 17:0.030519474 19:0.0087483665 20:0.026138313 26:0.024472406 28:0.12624513 #
-54.912763711368249630595528287813 1:0.0069734775 2:0 3:0.00092220586 6:0.0010552719 7:0.0019811227 8:0.0092920708 9:0.00052664499 10:0.0016498981 11:0.0061333589 12:0.03230916 13:0.035827614 14:0.00052697479 15:0.059765033 16:0.023488795 17:0.041763492 20:0.017884109 28:0.086378239 30:0.086039774 #
-54.912763711368249630595528287813 1:0.0029120015 2:0 3:0.00096274237 5:0.0026409754 6:0.0030846412 7:0.0023163897 8:0.010864575 9:0.00057728396 10:0.0028936674 11:0.00896414 14:0.0013478394 17:0.061038949 19:0.0087483665 20:0.052276626 27:0.064920776 29:0.1138927 #
-54.912763711368249630595528287813 1:0.0031546683 2:0 3:0.00055625115 5:0.0019073711 6:0.0013923728 7:0.0029276591 8:0.0039233188 9:0.0007643667 10:0.0010449355 11:0.006474101 13:0.037818037 14:0.00097343954 17:0.11020921 19:0.012636529 21:0.010940428 28:0.091177031 #
-54.912763711368249630595528287813 1:0.0035051871 2:0 3:0.0014833364 5:0.0050863228 6:0.0012995478 7:0.0013941234 8:0.0019616594 9:0.00060222833 10:0.00092883158 11:0.021580337 14:0.00055625115 16:0.049587455 17:0.10286193 20:0.03775534 21:0.014587237 #
-54.912763711368249630595528287813 1:0.0033402371 2:0 3:0.0016196725 5:0.010097846 6:0.0017691324 7:0.0013285176 8:0.0041541024 9:0.00080932945 10:0.00036880077 11:0.013709861 13:0.12012788 14:0.00044172886 16:0.052504364 17:0.046676844 19:0.0066899275 20:0.0099940607 21:0.011583983 26:0.018714193 #
54.912763711368249630595528287813 1:0.0019924222 2:0 3:0.0010539496 4:0.077066101 5:0.0054209493 6:0.00052763597 7:0.0019811227 8:0.00092920713 9:0.00098745944 10:0.00065995927 11:0.0061333589 12:0.03230916 14:0.00065871846 16:0.023488795 17:0.10440873 19:0.029928623 20:0.0089420546 21:0.010364616 22:0.12895013 26:0.016744278 27:0.088838957 #
54.912763711368249630595528287813 1:0.0045427224 2:0 3:0.0015018781 4:0.058570236 5:0.0068665356 6:0.00080200669 7:0.0024090454 8:0.0056495792 9:0.00055034406 10:0.00075235358 11:0.0046613528 12:0.02455496 14:0.00070087647 19:0.0090983016 20:0.013591923 21:0.015754217 22:0.049001049 26:0.012725651 28:0.065647468 #
54.912763711368249630595528287813 1:0.009464005 2:0 3:0.0015644564 4:0.061010662 5:0.0042915847 6:0.0016708473 7:0.0021957443 8:0.0080918455 9:0.00078173866 10:0.0013061694 11:0.0048555755 12:0.025578083 14:0.0012515651 16:0.07438118 17:0.016531382 19:0.018954795 21:0.016410643 22:0.051042758 26:0.03976766 27:0.070330836 #
54.912763711368249630595528287813 1:0.0056784032 2:0 3:0.0015018781 5:0.013733071 6:0.002506271 7:0.0030113065 8:0.0070619741 9:0.00087554735 10:0.0025078452 11:0.023306763 12:0.061387401 14:0.0012515651 17:0.079350635 19:0.022745753 22:0.12250262 #
-54.912763711368249630595528287813 2:0 3:0.0015296907 5:0.011444226 6:0.0011138982 7:0.0025094221 8:0.0039233188 9:0.0004169273 10:0.0010449355 11:0.025896404 12:0.068208225 14:0.00069531397 18:0.038369462 19:0.0063182646 20:0.028316505 22:0.068057016 #
54.912763711368249630595528287813 1:0.00052577804 2:0 3:0.0011125023 5:0.0076294844 6:0.00097466091 7:0.0012547111 8:0.0014712446 9:0.00069487881 10:0.00052246777 11:0.0032370505 14:0.00062578253 17:0.066125527 19:0.0063182646 20:0.0094388351 27:0.023443613 29:0.082255833 30:0.090819761 #
54.912763711368249630595528287813 1:0.0023660013 2:0 3:0.00062578253 5:0.012874755 6:0.005012542 7:0.0037641332 8:0.011034334 9:0.00015634774 10:0.0031348064 11:0.029133454 14:0.0012515651 19:0.014216095 20:0.021237379 29:0.18507563 #
54.912763711368249630595528287813 1:0.0084124487 2:0 3:0.0012052108 5:0.0050863228 6:0.0012995478 7:0.0016729481 8:0.011769957 9:0.00088017987 10:0.0016254552 11:0.021580337 12:0.022736074 14:0.00055625115 15:0.084113754 17:0.014694562 19:0.0084243529 20:0.012585114 21:0.0072936187 24:0.036699243 26:0.023566021 27:0.031258151 28:0.06078469 29:0.16451167 30:0.06054651 #
54.912763711368249630595528287813 1:0.00326345 2:0 3:0.001035778 5:0.0035516564 6:0.00051853881 7:0.0015575724 8:0.0042615361 9:0.00060382573 10:0.00086477422 11:0.0040184073 14:0.00034525935 15:0.0391564 16:0.061556842 17:0.027362287 18:0.023815528 19:0.0039216815 20:0.0058585876 21:0.013581221 24:0.034168262 25:0.072648272 #
-54.912763711368249630595528287813 1:0.0063093365 2:0 3:0.00066750142 5:0.0091553815 6:0.0026733556 7:0.0020075378 8:0.0082389694 9:0.00033354183 10:0.0016718968 11:0.0077689211 14:0.00066750142 16:0.059504949 19:0.022745753 21:0.013128514 27:0.056264672 29:0.098707005 30:0.10898372 #
-54.912763711368249630595528287813 1:0.0018026676 2:0 3:0.0011919668 5:0.011444226 6:0.0026256172 7:0.0010754666 8:0.0058849785 9:0.0004169273 10:0.001194212 11:0.033295374 13:0.032415461 14:0.00047678672 15:0.054073125 16:0.085007064 19:0.010831311 20:0.0080904299 25:0.050161902 26:0.015149585 27:0.04018905 29:0.070505001 30:0.077845514 #
-54.912763711368249630595528287813 1:0.0078322804 2:0 3:0.001553667 5:0.009471084 6:0.0020741553 7:0.0023363587 8:0.011567026 9:0.00073321699 10:0.0025943227 11:0.0080368146 12:0.042336136 13:0.023473265 14:0.0018126116 16:0.046167631 17:0.013681144 19:0.02353009 20:0.017575763 21:0.0067906105 22:0.042242285 24:0.10250478 25:0.072648272 26:0.054851945 27:0.029102417 29:0.051055346 #
-11.843334330429948764162872976158 1:0.00078866706 2:0 3:0.0010429709 4:0.12202132 5:0.0042915847 6:0.0012531355 7:0.0012547111 8:0.0014712446 9:0.00057327503 10:0.0013061694 11:0.009711151 14:0.00031289126 17:0.033062764 19:0.014216095 21:0.016410643 25:0.087783329 26:0.013255887 #
54.912763711368249630595528287813 1:0.0075712041 2:0 3:0.0012515651 6:0.0010025083 7:0.0022584798 8:0.010592961 9:0.0011257037 10:0.0018808839 11:0.011653381 14:0.0015018781 16:0.04462871 19:0.011372876 20:0.033979807 26:0.031814128 28:0.16411866 #
54.912763711368249630595528287813 1:0.0016701185 2:0 3:0.00088345772 5:0.0050489232 6:0.0010319939 7:0.0015499372 8:0.0010385256 9:0.00051502784 10:0.0011064023 11:0.020564791 12:0.036110234 13:0.040042628 14:0.00036810737 16:0.026252182 17:0.046676844 19:0.013379855 20:0.0099940607 21:0.0057919915 22:0.072060369 24:0.029143518 26:0.018714193 27:0.024822649 28:0.048270196 #
54.912763711368249630595528287813 1:0.0047320025 2:0 3:0.00031289126 6:0.0037594063 7:0.0037641332 8:0.0022068669 9:0.00046904321 10:0.0031348064 11:0.014566727 12:0.076734252 14:0.00062578253 17:0.049594145 20:0.021237379 #
-54.912763711368249630595528287813 1:0.0027040015 2:0 3:0.00053638505 5:0.0049046683 6:0.0032223484 7:0.0016131999 8:0.0088274674 9:0.0012507819 10:0.0017913179 11:0.0083238436 14:0.00071518007 17:0.028339513 19:0.016246967 28:0.11722761 #
-54.912763711368249630595528287813 1:0.0025810923 2:0 3:0.00091022917 5:0.0062423055 6:0.0018227425 7:0.0030797455 8:0.0040124855 9:0.00062539097 10:0.00056996482 11:0.0052969917 12:0.027903363 14:0.00056889321 17:0.018034235 19:0.0051694894 22:0.055683009 28:0.074599393 #
-54.912763711368249630595528287813 1:0.0034414562 2:0 3:0.0011377864 5:0.024969222 6:0.0022784281 7:0.0034219392 8:0.0016049941 9:0.0011370744 10:0.002849824 14:0.0006826719 16:0.081143111 17:0.10820541 19:0.020677958 20:0.030890735 26:0.028921934 #
54.912763711368249630595528287813 1:0.01029418 2:0 3:0.0015370098 4:0.0256887 5:0.0072279326 6:0.00061557529 7:0.0026414969 8:0.0099115428 9:0.00065830623 10:0.00076995249 11:0.01431117 12:0.010769719 14:0.00087829132 15:0.039843354 16:0.015659196 17:0.006960582 19:0.011971449 20:0.020864794 21:0.020729233 24:0.017383853 25:0.073922805 26:0.011162852 27:0.029612985 29:0.025975527 30:0.057359848 #
54.912763711368249630595528287813 1:0.0087360041 2:0 3:0.00052950834 4:0.028158767 5:0.0013204877 6:0.00086755533 7:0.0011581948 8:0.0088274674 9:0.00060133747 10:0.0014468337 11:0.03585656 12:0.011805269 14:0.00081833103 15:0.087348893 16:0.017164888 17:0.0076298686 18:0.026563473 19:0.01312255 20:0.0065345783 21:0.026509499 25:0.081030764 26:0.024472406 27:0.032460388 28:0.031561282 29:0.028473174 30:0.031437609 #
54.912763711368249630595528287813 1:0.0013520007 2:0 3:0.0010727701 5:0.011035504 6:0.0017901935 7:0.0018820666 8:0.00063053338 9:0.00084874488 10:0.0011195737 11:0.024971532 12:0.021924071 13:0.048623189 14:0.00044698754 16:0.031877652 17:0.042509269 20:0.030339114 21:0.02813253 26:0.011362188 27:0.030141788 #
-54.912763711368249630595528287813 1:0.0057835584 2:0 3:0.00097343954 5:0.0047684275 6:0.00041771182 7:0.0016729481 8:0.0063753934 9:0.00062539097 10:0.0010449355 11:0.016185252 12:0.017052056 13:0.018909018 14:0.00027812558 15:0.06308531 19:0.015795661 20:0.014158253 21:0.021880856 27:0.023443613 29:0.041127916 #
-54.912763711368249630595528287813 1:0.0047320025 2:0 3:0.0010727701 5:0.0036785014 6:0.0012531355 7:0.0010754666 8:0.005044267 9:0.00044670783 10:0.00089565897 12:0.021924071 14:0.00080457755 15:0.040554844 19:0.0081234835 20:0.0060678227 21:0.02813253 25:0.037621427 26:0.022724377 27:0.060283575 #
28.715661455819073921702511142939 1:0.003785602 2:0 3:0.0010846897 5:0.0068665356 6:0.0013366778 7:0.0017565954 8:0.0011769957 9:0.00075046916 10:0.0016718968 11:0.034960143 13:0.022690821 14:0.0005840637 16:0.07438118 17:0.039675318 19:0.018954795 20:0.016989904 21:0.019692771 25:0.035113331 28:0.16411866 #
33.761535096106754849643039051443 1:0.009464005 2:0 3:0.0012947225 5:0.0029597138 6:0.00077780819 7:0.0019469655 8:0.011567026 9:0.00075478217 10:0.0015133548 11:0.028128853 12:0.010584034 14:0.00094946317 16:0.038473025 17:0.034202859 18:0.011907764 19:0.015686726 20:0.02343435 21:0.016976526 24:0.034168262 25:0.036324136 26:0.010970389 27:0.014551208 28:0.084888965 30:0.11274178 #
54.912763711368249630595528287813 1:0.00587421 2:0 3:0.00094946317 5:0.0059194276 6:0.0012099239 7:0.0018171677 8:0.0079142815 9:0.00064695615 10:0.00086477422 11:0.0080368146 12:0.021168068 14:0.0006905187 15:0.078312799 18:0.047631055 19:0.02353009 20:0.011717175 21:0.033953052 26:0.021940777 #
30.276186923962889352424099342898 1:0.0079696886 2:0 3:0.00079046219 5:0.0036139663 7:0.0015848982 8:0.0046460354 9:0.00019749189 10:0.00065995927 11:0.018400077 13:0.035827614 14:0.00092220586 16:0.046977591 18:0.036350016 19:0.011971449 20:0.0089420546 21:0.031093849 26:0.016744278 #
54.912763711368249630595528287813 1:0.00090133381 2:0 3:0.0010727701 5:0.014714005 6:0.00095476984 7:0.0021509333 8:0.00084071117 9:0.00047648835 10:0.000597106 11:0.0055492292 14:0.00071518007 16:0.042503532 17:0.075572029 19:0.021662623 #
54.912763711368249630595528287813 1:0.009464005 2:0 3:0.0015018781 5:0.013733071 6:0.0040100333 7:0.0045169597 8:0.0035309871 9:0.00087554735 10:0.0018808839 12:0.061387401 14:0.0020025042 16:0.089257419 17:0.15870127 19:0.011372876 25:0.10534 28:0.16411866 #
54.912763711368249630595528287813 1:0.0043680021 2:0 3:0.0010590167 5:0.003961463 6:0.0023134809 7:0.0017372923 8:0.0061113238 9:0.00057728396 10:0.0012056949 11:0.01344621 14:0.00048137119 15:0.043674447 18:0.079690419 19:0.01312255 20:0.0065345783 21:0.0075741429 25:0.040515382 27:0.032460388 #
54.912763711368249630595528287813 1:0.0090854447 2:0 3:0.00090112688 5:0.008239843 6:0.00060150505 7:0.00060226134 8:0.0056495792 9:0.0004002502 10:0.0012539226 11:0.0093227057 13:0.10891595 14:0.00060075126 20:0.0067959614 21:0.0078771086 22:0.049001049 25:0.084271997 #
54.912763711368249630595528287813 1:0.0035051871 2:0 3:0.0013906279 5:0.0076294844 6:0.0024134461 7:0.0011152987 8:0.0026155459 9:0.00069487881 10:0.0011610395 11:0.017264269 13:0.025212025 14:0.00064895971 16:0.033058304 18:0.051159281 19:0.025273059 24:0.036699243 26:0.023566021 27:0.031258151 #
54.912763711368249630595528287813 1:0.0042062243 2:0 3:0.0011820337 5:0.0047684275 6:0.0012531355 7:0.0023003037 8:0.0044137337 9:0.00062539097 10:0.00069662364 11:0.006474101 13:0.075636074 14:0.00090390816 16:0.024793727 19:0.0031591323 20:0.0047194175 21:0.010940428 26:0.017674515 #
54.912763711368249630595528287813 1:0.0066804742 2:0 3:0.0016196725 4:0.043066349 5:0.0060587083 6:0.0017691324 7:0.0017713568 8:0.0098659936 9:0.00080932945 10:0.0016596034 11:0.027419722 13:0.040042628 14:0.00095707917 15:0.066796213 19:0.013379855 20:0.014991092 21:0.0057919915 26:0.0093570966 27:0.024822649 #
54.912763711368249630595528287813 1:0.0025665099 2:0 3:0.00084851874 5:0.0052371882 6:0.00076462503 7:0.0011483796 8:0.0020946534 9:0.00050879264 10:0.00095638167 11:0.0039502988 13:0.034613118 14:0.00038183344 15:0.019246368 16:0.030256752 17:0.047072411 18:0.011705937 19:0.015420849 20:0.0057592895 21:0.013351032 22:0.020763157 24:0.01679457 26:0.005392225 27:0.042913731 #
54.912763711368249630595528287813 1:0.0044536493 2:0 3:0.0014724295 5:0.0020195693 6:0.00088456622 7:0.0013285176 8:0.0072696791 9:0.00051502784 10:0.0018440038 13:0.040042628 14:0.00058897183 16:0.026252182 20:0.0099940607 21:0.011583983 24:0.058287036 25:0.061964702 27:0.049645297 #
-54.912763711368249630595528287813 1:0.0085481331 2:0 3:0.0012919381 5:0.0066450345 6:0.0011318643 7:0.003157015 8:0.010820767 9:0.0009279995 10:0.001415719 11:0.0037591553 12:0.019802388 13:0.065876581 14:0.0007267152 15:0.036630183 16:0.028792717 17:0.025596978 18:0.022279043 19:0.0073373397 20:0.010961228 21:0.0063525066 22:0.039516974 25:0.10194193 26:0.020525243 28:0.10588301 #
-54.912763711368249630595528287813 1:0.0029120015 2:0 3:0.0017329364 5:0.010563902 6:0.0030846412 7:0.0034745845 8:0.0081484318 9:0.00086592592 10:0.0028936674 11:0.00896414 12:0.047221076 14:0.00096274237 20:0.013069157 21:0.015148286 22:0.094232783 26:0.024472406 29:0.1138927 #
-54.912763711368249630595528287813 1:0.0071795899 2:0 3:0.0011652503 4:0.050491583 5:0.0059194276 6:0.001296347 7:0.0019469655 8:0.011262631 9:0.00079791259 10:0.0011890646 13:0.011736632 14:0.00051788898 15:0.097891003 16:0.015389211 17:0.020521715 19:0.013725885 20:0.011717175 21:0.013581221 26:0.010970389 28:0.056592643 29:0.07658302 30:0.056370888 #
-54.912763711368249630595528287813 1:0.0029120015 2:0 3:0.00096274237 6:0.0023134809 7:0.0040536821 8:0.0095065041 9:0.00019242798 10:0.00096455583 11:0.03585656 14:0.0015403879 15:0.087348893 19:0.017496733 21:0.030296572 24:0.076221503 26:0.024472406 29:0.1138927 #
-54.912763711368249630595528287813 1:0.0039433353 2:0 3:0.0011994166 5:0.0092984335 6:0.00083542365 7:0.0018820666 8:0.0022068669 9:0.00039086933 10:0.0007837016 11:0.009711151 12:0.025578083 14:0.00046933693 16:0.018595295 17:0.033062764 18:0.014388548 19:0.0071080476 20:0.010618689 21:0.020513304 22:0.025521379 25:0.021945832 27:0.017582709 28:0.068382777 29:0.092537813 #
54.912763711368249630595528287813 1:0.0033800018 2:0 3:0.00098337256 5:0.0036785014 6:0.0012531355 7:0.0016131999 8:0.0044137337 9:0.00044670783 10:0.00044782949 13:0.024311595 14:0.00053638505 16:0.031877652 17:0.014169756 18:0.07399825 19:0.012185225 21:0.02813253 25:0.037621427 #
54.912763711368249630595528287813 1:0.0055923667 2:0 3:0.0014222331 5:0.0039014409 6:0.00091137126 7:0.0010265817 8:0.006018728 9:0.00056853722 10:0.00071245601 11:0.0026484958 14:0.0006826719 15:0.025807628 17:0.0090171173 18:0.062786393 19:0.0077542341 21:0.01790252 24:0.022519991 26:0.028921934 27:0.019181138 #
54.912763711368249630595528287813 1:0.0033973351 2:0 3:0.001476205 5:0.012324551 6:0.0015423206 7:0.0011581948 8:0.007695741 9:0.00054521265 10:0.0017683523 11:0.020916326 12:0.031480718 14:0.0012194737 15:0.029116299 16:0.045773037 17:0.020346316 19:0.011664488 20:0.030494699 21:0.0050494284 22:0.031410929 25:0.054020509 26:0.0081574684 27:0.021640258 #
54.912763711368249630595528287813 1:0.0068140836 2:0 3:0.0015018781 5:0.020599607 6:0.0024060202 7:0.0024090454 8:0.0042371843 9:0.00075046916 10:0.0015047072 11:0.018645411 13:0.027228987 14:0.0010012521 16:0.03570297 17:0.015870126 18:0.027626012 19:0.013647452 21:0.015754217 26:0.025451303 #
-54.912763711368249630595528287813 1:0.0043680021 2:0 3:0.00096274237 5:0.013204876 6:0.0019279007 7:0.002895487 8:0.0040742159 9:0.00067349797 10:0.0019291117 11:0.00896414 12:0.094442151 14:0.00096274237 16:0.034329776 19:0.034993466 26:0.024472406 27:0.12984155 #
-54.912763711368249630595528287813 1:0.0028803493 2:0 3:0.0011971493 5:0.010449076 6:0.001089683 7:0.00098194776 8:0.0011514088 9:0.00065258186 10:0.0013629594 11:0.015200063 12:0.013345087 13:0.073991813 14:0.00081623811 16:0.067913257 17:0.025875207 18:0.04504241 19:0.014834187 20:0.025854202 21:0.021405187 25:0.022899998 26:0.013832229 27:0.055041526 30:0.035538167 #
-54.912763711368249630595528287813 1:0.006056963 2:0 3:0.0010012521 5:0.0068665356 6:0.0022055183 7:0.0015056533 8:0.0056495792 9:0.00070043787 10:0.00075235358 14:0.00030037563 19:0.027294904 21:0.023631325 27:0.033758804 #
-54.912763711368249630595528287813 1:0.010286962 2:0 3:0.0010339016 5:0.003731813 6:0.0015255562 7:0.0014729217 8:0.0061408472 9:0.00070696371 10:0.00095407153 11:0.020266751 14:0.00065299048 16:0.038807575 17:0.017250137 19:0.014834187 20:0.0073869145 21:0.008562074 26:0.013832229 27:0.018347176 30:0.035538167 #
-54.912763711368249630595528287813 1:0.0036053353 2:0 3:0.00083437673 4:0.034863237 5:0.0065395581 6:0.0014321548 7:0.0021509333 8:0.0029424892 9:0.00050626887 10:0.00089565897 11:0.019422302 13:0.032415461 14:0.00053638505 15:0.027036563 16:0.031877652 17:0.0094465036 19:0.0081234835 20:0.012135645 24:0.023592371 26:0.0075747925 27:0.04018905 30:0.038922757 31:0.14265391 #
-54.912763711368249630595528287813 1:0.0037388662 2:0 3:0.0010815995 4:0.090386167 5:0.0042386022 6:0.00049506588 7:0.0019517727 8:0.0054490543 9:0.00061767007 10:0.0011610395 11:0.025896404 12:0.0075786915 13:0.016808016 14:0.00061805686 15:0.014018958 16:0.027548587 17:0.034287311 18:0.0085265469 19:0.0070202942 20:0.0062925569 21:0.0097248247 24:0.012233081 25:0.013004937 26:0.0078553399 27:0.010419384 28:0.040523127 29:0.018279074 30:0.02018217 #
-54.912763711368249630595528287813 1:0.004842049 2:0 3:0.00081497262 5:0.0087827779 6:0.0016319903 7:0.0015756837 8:0.0028740591 9:0.00075628672 10:0.0014580495 11:0.027100887 13:0.031661611 14:0.00052391097 16:0.020757539 17:0.036907271 18:0.032123271 19:0.0052897101 20:0.031609122 21:0.0091594281 22:0.11395593 25:0.024497673 26:0.014797268 #
-54.912763711368249630595528287813 1:0.0016459139 2:0 3:0.0015236444 5:0.0029854504 6:0.0019614294 7:0.0026185275 8:0.0023028175 9:0.00038067275 10:0.0010903674 11:0.015200063 12:0.026690174 13:0.029596724 14:0.00097948569 15:0.098742232 16:0.019403787 17:0.034500275 18:0.030028274 19:0.014834187 20:0.014773829 21:0.008562074 #
-54.912763711368249630595528287813 1:0.00086036406 2:0 3:0.0006826719 5:0.0046817288 6:0.00068352843 7:0.0013687757 8:0.0032099881 9:0.00051168352 10:0.00085494725 12:0.027903363 13:0.061884061 14:0.00034133595 17:0.072136939 19:0.010338979 20:0.0077226837 21:0.01790252 22:0.11136602 26:0.014460967 27:0.038362276 28:0.074599393 #
-54.912763711368249630595528287813 1:0.0081734592 2:0 3:0.00079645053 5:0.0085831694 6:0.00034176421 7:0.0017109696 8:0.0012037456 9:0.00045482977 10:0.00085494725 11:0.029133454 13:0.03094203 14:0.00062578253 15:0.051615257 16:0.071000218 17:0.018034235 18:0.015696598 19:0.012923723 20:0.011584025 21:0.022378149 26:0.021691451 28:0.037299696 #
-54.912763711368249630595528287813 1:0.0060408544 2:0 3:0.001757517 5:0.010957238 6:0.0021329965 7:0.0025628142 8:0.010893471 9:0.0010378829 10:0.0017341482 11:0.034712199 12:0.013061149 13:0.014483503 14:0.0010651618 15:0.024160333 16:0.04747735 17:0.033766229 19:0.019358087 20:0.025304113 21:0.020949757 22:0.026064387 25:0.044825528 26:0.0067689633 28:0.034918863 30:0.034782037 #
54.912763711368249630595528287813 1:0.0017207281 2:0 3:0.0006826719 5:0.0031211528 6:0.0022784281 7:0.0027375515 8:0.0064199762 9:0.00034112233 10:0.0011399296 14:0.00022755729 17:0.036068469 19:0.020677958 20:0.015445367 21:0.01790252 25:0.095763631 26:0.028921934 27:0.076724552 #
54.912763711368249630595528287813 1:0.003528951 2:0 3:0.0018667412 5:0.015711565 6:0.0014442917 7:0.0012759774 8:0.0047877789 9:0.00065719051 10:0.0014877048 11:0.049378734 13:0.046150826 14:0.00089094468 17:0.00672463 18:0.070235625 19:0.0077104247 20:0.025916802 21:0.030039821 22:0.041526314 24:0.01679457 26:0.016176675 27:0.042913731 29:0.025095001 #
54.912763711368249630595528287813 1:0.0060917735 2:0 3:0.0012947225 5:0.0059194276 6:0.00092184677 7:0.0006922544 8:0.0048703272 9:0.00038817371 10:0.0007927097 11:0.010715753 12:0.028224092 13:0.046946529 14:0.00092069159 15:0.013052134 17:0.0091207623 18:0.055569563 19:0.011765045 20:0.013670038 21:0.020371832 25:0.048432183 26:0.0036567964 27:0.03880322 29:0.017018449 33:0.1218004 #
-54.912763711368249630595528287813 1:0.0073608928 2:0 3:0.00076484535 5:0.005722113 6:0.00097466091 7:0.0023003037 8:0.0044137337 9:0.00045167125 10:0.0017415591 11:0.016185252 13:0.094545089 14:0.00083437673 15:0.031542655 18:0.019184731 19:0.0063182646 21:0.010940428 25:0.02926111 26:0.017674515 27:0.046887226 29:0.082255833 #
-54.912763711368249630595528287813 1:0.0022943043 2:0 3:0.0014411962 4:0.044371393 5:0.0072826897 6:0.00091137126 7:0.0013687757 8:0.00053499802 9:0.00045482977 10:0.00056996482 11:0.010593983 14:0.00022755729 16:0.013523852 17:0.012022823 19:0.017231632 20:0.030890735 22:0.037122007 24:0.060053308 26:0.028921934 27:0.1022994 #
-54.912763711368249630595528287813 1:0.0047320025 2:0 3:0.0012515651 5:0.0051499018 6:0.0011278219 7:0.0018820666 8:0.011034334 9:0.00065666047 10:0.0014106629 11:0.0058266907 12:0.01534685 14:0.00081351731 18:0.069065027 19:0.014216095 20:0.012742428 21:0.024615964 22:0.030625656 25:0.052669998 26:0.015907064 27:0.021099253 29:0.037015125 #
-54.912763711368249630595528287813 1:0.0050960025 2:0 3:0.0015403879 5:0.010563902 6:0.00057837024 7:0.0011581948 8:0.0054322877 9:0.00062539097 10:0.0016879727 12:0.070831612 14:0.00086646818 16:0.017164888 17:0.045779213 18:0.053126946 19:0.017496733 20:0.0065345783 21:0.030296572 25:0.16206153 26:0.024472406 27:0.032460388 28:0.063122563 29:0.056946348 #
-54.912763711368249630595528287813 1:0.0088330712 2:0 3:0.00066750142 5:0.0045776907 6:0.0016708473 7:0.0025094221 8:0.0070619741 9:0.0010006255 10:0.0012539226 11:0.031075684 13:0.13614494 14:0.0011681274 17:0.052900422 18:0.09208671 20:0.011326603 21:0.013128514 22:0.081668414 28:0.10941244 #
-54.912763711368249630595528287813 1:0.0050960025 2:0 3:0.00096274237 5:0.0052819508 6:0.0015423206 7:0.0023163897 8:0.0081484318 9:0.00081781892 10:0.00096455583 11:0.01792828 14:0.00077019393 15:0.043674447 17:0.015259737 19:0.0087483665 21:0.022722429 26:0.012236203 27:0.032460388 28:0.063122563 #
54.912763711368249630595528287813 1:0.0061516031 2:0 3:0.0013141434 4:0.036606397 5:0.0034332678 6:0.00062656775 7:0.0009410333 8:0.0057378542 9:0.00056285184 10:0.00047022098 11:0.026220109 13:0.034036234 14:0.00068836083 15:0.056776781 16:0.022314355 17:0.019837659 19:0.017059315 20:0.0042474759 21:0.0098463856 24:0.02477199 25:0.026334999 27:0.042198505 30:0.040868893 #
54.912763711368249630595528287813 1:0.0046427194 2:0 3:0.00099180627 5:0.003238932 6:0.00075661007 7:0.0011363421 8:0.0029980079 9:0.00033039521 10:0.00047317834 11:0.030782517 12:0.023165056 13:0.038531583 14:0.00037783096 15:0.042850401 16:0.016841022 17:0.0074859089 18:0.039093412 19:0.0064374772 20:0.0064112842 21:0.022293704 22:0.023113701 23:0.038677033 24:0.018695841 26:0.012005331 27:0.015923964 #
1.0482243183415853593487554462627 1:0.0042062243 2:0 3:0.00092708529 5:0.0038147422 6:0.0012995478 7:0.0011152987 8:0.0045772055 9:0.00074120407 10:0.00092883158 11:0.0086321346 12:0.022736074 13:0.025212025 14:0.00046354264 16:0.016529152 17:0.044083685 18:0.025579641 19:0.012636529 20:0.01887767 21:0.014587237 22:0.090742685 25:0.039014813 26:0.023566021 #
-54.912763711368249630595528287813 1:0.0077938866 2:0 3:0.0013251866 5:0.0050489232 6:0.0013268493 7:0.001107098 8:0.0051926281 9:0.00069896638 10:0.00073760154 11:0.020564791 12:0.018055117 13:0.040042628 14:0.00066259329 15:0.033398107 16:0.10500873 17:0.011669211 18:0.020313244 19:0.016724819 20:0.0049970304 21:0.017375974 23:0.060290668 24:0.029143518 26:0.037428387 27:0.024822649 29:0.043547206 30:0.048081052 #
54.912763711368249630595528287813 1:0.0068829125 2:0 3:0.0010240078 5:0.0078028818 6:0.0018227425 7:0.0017109696 8:0.0040124855 9:0.00045482977 10:0.0025648416 11:0.021187967 13:0.061884061 14:0.0015929011 16:0.040571555 17:0.036068469 18:0.031393196 19:0.0051694894 20:0.030890735 21:0.0089512598 25:0.047881816 26:0.014460967 #
-54.912763711368249630595528287813 1:0.0080080042 2:0 3:0.0014441136 5:0.0066024382 6:0.0007711603 7:0.0011581948 8:0.01018554 9:0.00062539097 10:0.0014468337 11:0.0448207 13:0.026181718 14:0.00077019393 15:0.043674447 16:0.017164888 18:0.026563473 19:0.01312255 20:0.013069157 21:0.015148286 26:0.012236203 #
-54.912763711368249630595528287813 1:0.004056002 2:0 3:0.0010727701 5:0.0024523342 6:0.0007160774 7:0.0013443333 8:0.0037832004 9:0.0004913786 10:0.0011195737 11:0.0041619218 13:0.024311595 14:0.00044698754 15:0.040554844 16:0.015938826 17:0.028339513 19:0.0081234835 20:0.030339114 21:0.021099398 24:0.035388555 25:0.037621427 27:0.030141788 #
-54.912763711368249630595528287813 1:0.0065520033 2:0 3:0.0014441136 4:0.056317534 5:0.0052819508 6:0.0017351107 7:0.0017372923 8:0.0067903595 9:0.00072160497 10:0.0012056949 11:0.01792828 12:0.023610538 13:0.078545153 14:0.00067391968 15:0.043674447 16:0.034329776 18:0.026563473 20:0.026138313 21:0.030296572 22:0.047116391 24:0.038110752 25:0.040515382 26:0.036708608 27:0.032460388 #
-54.912763711368249630595528287813 1:0.0038826687 2:0 3:0.0010911081 5:0.011444226 6:0.0020564273 7:0.0019303247 8:0.0049795969 9:0.00070556928 10:0.00096455583 11:0.029880466 13:0.017454479 14:0.0010269252 15:0.029116299 16:0.011443259 18:0.017708981 19:0.011664488 20:0.017425543 21:0.010098857 22:0.031410929 26:0.016314937 27:0.021640258 #
54.912763711368249630595528287813 1:0.0072106705 2:0 3:0.00083437673 5:0.0081744473 6:0.00047738492 7:0.0010754666 8:0.005044267 9:0.00035736625 10:0.00089565897 12:0.029232096 13:0.032415461 14:0.00071518007 18:0.032888111 19:0.010831311 21:0.037510041 26:0.015149585 27:0.04018905 30:0.077845514 #
54.912763711368249630595528287813 1:0.0039848443 2:0 3:0.00079046219 5:0.0036139663 6:0.00079145399 7:0.0011886737 8:0.0037168285 9:0.00039498377 10:0.0013199185 14:0.0011856933 16:0.023488795 17:0.020881746 18:0.072700031 19:0.011971449 20:0.017884109 21:0.020729233 26:0.033488557 #
54.912763711368249630595528287813 1:0.0050103557 2:0 3:0.0010307006 5:0.0060587083 6:0.0013268493 7:0.001107098 8:0.0020770512 9:0.00044145243 10:0.0016596034 11:0.030847186 13:0.080085255 14:0.0011043221 16:0.065630458 17:0.011669211 18:0.020313244 19:0.0033449638 20:0.0099940607 21:0.0057919915 25:0.092947051 26:0.02807129 27:0.024822649 #
-54.912763711368249630595528287813 1:0.0050960025 2:0 3:0.0018292106 5:0.007922926 6:0.0007711603 7:0.0023163897 8:0.0095065041 9:0.00072160497 10:0.00024113896 11:0.02241035 14:0.00038509697 17:0.015259737 19:0.0087483665 20:0.013069157 21:0.0075741429 25:0.040515382 26:0.012236203 30:0.12575044 #
-54.912763711368249630595528287813 1:0.0072490252 2:0 3:0.0013314523 5:0.0036524127 6:0.0015997473 7:0.0017619347 8:0.0075127385 9:0.00077175902 10:0.0013339602 11:0.012397215 14:0.00079887133 16:0.02848641 17:0.025324671 19:0.019358087 20:0.014459493 21:0.012569854 25:0.022412764 26:0.013537927 27:0.03591362 30:0.034782037 #
54.912763711368249630595528287813 1:0.0059150029 2:0 3:0.00070400536 5:0.0075102737 6:0.0020363452 7:0.00141155 8:0.0049654506 9:0.00066447788 10:0.0011755525 11:0.0036416817 13:0.021272646 14:0.00054755976 16:0.027892943 17:0.012398536 19:0.010662071 21:0.012307982 26:0.0099419151 27:0.026374064 #
54.912763711368249630595528287813 1:0.0056082993 2:0 3:0.00092708529 5:0.0025431614 6:0.00055694912 7:0.0016729481 8:0.0058849785 9:0.0006485536 10:0.00046441579 13:0.025212025 14:0.00092708529 16:0.016529152 19:0.016848706 24:0.036699243 26:0.01178301 #
54.912763711368249630595528287813 1:0.0053235027 2:0 3:0.00070400536 5:0.0042915847 6:0.00093985157 7:0.0018820666 8:0.0038620171 9:0.00050813012 10:0.0007837016 11:0.0072833635 13:0.042545293 14:0.0010168967 16:0.013946472 19:0.010662071 21:0.012307982 22:0.03828207 26:0.0099419151 27:0.052748129 #
-54.912763711368249630595528287813 1:0.008112004 2:0 3:0.0015495569 5:0.013079116 6:0.002028886 7:0.0010754666 8:0.0067256894 9:0.00065517146 10:0.001194212 11:0.0055492292 12:0.043848142 13:0.11345411 14:0.00083437673 16:0.07438118 17:0.018893007 18:0.032888111 19:0.013539139 20:0.004045215 21:0.014066265 24:0.070777111 25:0.025080951 26:0.022724377 27:0.020094525 28:0.03907587 #
-54.912763711368249630595528287813 1:0.0066503817 2:0 3:0.0018266086 5:0.0064953719 6:0.00081284461 7:0.0014242666 8:0.010020369 9:0.000405659 10:0.00084724498 11:0.0094486875 12:0.016591189 14:0.0013530434 15:0.061380304 18:0.018666225 19:0.0061475011 20:0.0045918659 21:0.010644741 25:0.028470268 26:0.025795238 27:0.022810003 28:0.044356395 #
54.912763711368249630595528287813 1:0.003785602 2:0 3:0.0012015025 5:0.0050354595 6:0.00066833891 7:0.0012045227 8:0.0035309871 9:0.00050031277 10:0.0011703278 11:0.015537842 13:0.045381643 14:0.00066750142 16:0.017851485 17:0.010580084 18:0.046043355 19:0.012131068 20:0.015857244 21:0.026257029 22:0.016333682 24:0.026423456 26:0.0084837675 27:0.011252934 30:0.021796742 #
54.912763711368249630595528287813 1:0.0089072986 2:0 3:0.0011779437 5:0.0053855181 6:0.0013759919 7:0.0011809046 8:0.0096929055 9:0.00063765352 10:0.0013522694 11:0.025134744 12:0.012036745 13:0.026695084 14:0.0012270246 15:0.022265404 17:0.0077794739 18:0.027084326 19:0.0022299758 20:0.0066627073 21:0.030890621 25:0.0206549 26:0.0062380643 27:0.033096865 30:0.032054033 #
-54.912763711368249630595528287813 1:0.0032918279 2:0 3:0.0010883175 4:0.063663296 5:0.010449076 6:0.0002179366 7:0.0016365796 8:0.0007676059 9:0.00027190911 10:0.0013629594 11:0.025333438 12:0.026690174 14:0.00054415874 15:0.098742232 16:0.019403787 17:0.017250137 19:0.014834187 21:0.008562074 25:0.045799997 26:0.04149669 27:0.036694352 #
54.912763711368249630595528287813 1:0.0055206697 2:0 3:0.0010429709 5:0.0014305282 6:0.00041771182 7:0.00062735553 8:0.0066206008 9:0.0004169273 10:0.0007837016 11:0.014566727 13:0.056727055 14:0.00073007966 18:0.028777096 19:0.0047386987 20:0.021237379 21:0.016410643 24:0.041286651 25:0.087783329 #
54.912763711368249630595528287813 1:0.0058240029 2:0 3:0.00057764543 5:0.0026409754 6:0.0019279007 7:0.0011581948 8:0.0013580719 9:0.00048106996 10:0.00096455583 11:0.00896414 14:0.0011552909 15:0.087348893 17:0.030519474 19:0.0087483665 24:0.076221503 26:0.048944812 #
-54.912763711368249630595528287813 1:0.0067766947 2:0 3:0.0011125023 4:0.036154468 5:0.0076294844 6:0.001052015 7:0.0025094221 8:0.0069747893 9:0.00066399534 10:0.0011610395 11:0.015825581 12:0.030314766 13:0.0084040081 14:0.00058715401 16:0.033058304 17:0.019592749 18:0.076738924 19:0.015444648 20:0.014682633 21:0.014587237 24:0.024466163 25:0.026009874 26:0.01571068 27:0.020838767 #
-54.912763711368249630595528287813 1:0.0065065036 2:0 3:0.00086045102 5:0.0096560661 6:0.00093985157 7:0.0032936165 8:0.0066206008 9:0.000586304 10:0.0013714778 11:0.0036416817 13:0.10636323 14:0.0010951195 19:0.017770119 20:0.031856071 21:0.012307982 27:0.026374064 #
-54.912763711368249630595528287813 1:0.001892801 2:0 3:0.00075093907 5:0.0034332678 6:0.0020050167 7:0.0030113065 8:0.012358455 9:0.00062539097 10:0.0025078452 11:0.011653381 14:0.00075093907 21:0.059078313 #
-54.912763711368249630595528287813 1:0.00070103741 2:0 3:0.00037083411 5:0.0050863228 6:0.001856497 7:0.0016729481 8:0.0045772055 9:0.0004169273 10:0.00092883158 11:0.0043160673 14:0.00064895971 16:0.016529152 18:0.051159281 19:0.0084243529 20:0.012585114 21:0.021880856 24:0.073398486 26:0.01178301 #
-54.912763711368249630595528287813 1:0.0032217889 2:0 3:0.0012249361 4:0.031154381 5:0.01168772 6:0.0012797979 7:0.00048052764 8:0.00037563691 9:0.00053224759 10:0.00093377213 11:0.0024794429 13:0.028967006 14:0.00021303236 16:0.037981883 17:0.025324671 19:0.0096790437 20:0.014459493 21:0.0083799027 26:0.013537927 27:0.01795681 30:0.034782037 #
54.912763711368249630595528287813 1:0.0075712041 2:0 3:0.0013906279 4:0.032539021 5:0.0061035873 6:0.00066833891 7:0.0016729481 8:0.0051003145 9:0.0004169273 10:0.00069662364 11:0.015537842 12:0.027283289 14:0.00066750142 16:0.049587455 18:0.015347784 19:0.015163835 20:0.0075510684 21:0.021880856 22:0.027222805 24:0.022019546 26:0.014139612 27:0.01875489 29:0.032902334 #
54.912763711368249630595528287813 1:0.0042062243 2:0 3:0.00097343954 5:0.011444226 6:0.0013923728 7:0.0020911852 8:0.0019616594 9:0.00062539097 10:0.0013932473 11:0.012948202 12:0.034104113 14:0.00097343954 16:0.049587455 17:0.022041842 19:0.012636529 20:0.0094388351 21:0.010940428 26:0.03534903 29:0.082255833 #
54.912763711368249630595528287813 1:0.006056963 2:0 3:0.0013016277 4:0.058570236 5:0.0089264968 6:0.00040100334 7:0.0024090454 8:0.0084743686 9:0.00090056297 10:0.0013793148 11:0.013984058 12:0.049109921 13:0.054457974 14:0.0014518155 16:0.017851485 17:0.015870126 19:0.011372876 20:0.023785865 21:0.019692771 22:0.049001049 25:0.042135999 26:0.019088477 27:0.033758804 29:0.029612102 30:0.032695115 #
54.912763711368249630595528287813 1:0.0068829125 2:0 3:0.0006826719 5:0.0031211528 6:0.0027341137 7:0.0027375515 8:0.011234959 9:0.00068224466 10:0.0017098945 11:0.010593983 14:0.0020480156 19:0.010338979 21:0.01790252 26:0.028921934 #
54.912763711368249630595528287813 1:0.0040150322 2:0 3:0.00091022917 5:0.0062423055 6:0.0015189521 7:0.0015969049 8:0.0096299648 9:0.00075804966 10:0.00094994134 11:0.017656639 12:0.055806726 14:0.0006826719 15:0.034410171 16:0.013523852 17:0.012022823 19:0.0068926523 20:0.0051484555 21:0.011935012 22:0.037122007 25:0.063842423 26:0.0096406452 28:0.049732927 30:0.099076107 #
-54.912763711368249630595528287813 1:0.0044536493 2:0 3:0.00073621474 5:0.0060587083 6:0.0023588431 7:0.0022141959 8:0.0020770512 9:0.00058860326 10:0.0011064023 11:0.027419722 14:0.00058897183 16:0.026252182 17:0.11669211 18:0.040626489 19:0.013379855 20:0.0099940607 26:0.037428387 27:0.049645297 30:0.096162103 #
-54.912763711368249630595528287813 1:0.0045688301 2:0 3:0.0011220928 5:0.0059194276 6:0.0010370776 7:0.0012979769 8:0.0048703272 9:0.00060382573 10:0.00064858067 14:0.00034525935 17:0.041043431 18:0.023815528 19:0.019608408 20:0.011717175 21:0.020371832 26:0.021940777 30:0.056370888 #
-54.912763711368249630595528287813 1:0.002468871 2:0 3:0.0010883175 5:0.0089563513 6:0.001089683 7:0.0026185275 8:0.0069084531 9:0.00059820001 10:0.0010903674 11:0.0050666877 12:0.053380348 14:0.00076182222 16:0.019403787 17:0.034500275 18:0.060056549 19:0.019778917 20:0.044321489 21:0.017124148 26:0.013832229 30:0.071076334 #
-54.912763711368249630595528287813 1:0.0014020748 2:0 3:0.0010197938 5:0.0025431614 6:0.0012995478 7:0.0022305974 8:0.0013077729 9:0.00069487881 10:0.00069662364 11:0.012948202 12:0.022736074 14:0.00055625115 16:0.016529152 17:0.10286193 19:0.0084243529 21:0.0072936187 22:0.045371342 #
54.912763711368249630595528287813 1:0.0031546683 2:0 3:0.00083437673 6:0.00041771182 7:0.0012547111 8:0.0029424892 9:0.00052115915 10:0.0015674032 14:0.00083437673 20:0.028316505 26:0.026511773 27:0.070330836 29:0.12338375 #
54.912763711368249630595528287813 1:0.011567117 2:0 3:0.0015296907 5:0.0076294844 6:0.0011138982 7:0.0016729481 8:0.014712446 9:0.0009033425 10:0.0013932473 11:0.012948202 12:0.068208225 13:0.037818037 14:0.00097343954 16:0.049587455 18:0.076738924 19:0.018954795 20:0.01887767 21:0.021880856 26:0.03534903 27:0.046887226 29:0.082255833 #
54.912763711368249630595528287813 1:0.0023660013 2:0 3:0.0010429709 5:0.0050068488 6:0.0016708473 7:0.0012547111 8:0.0033103004 9:0.00065144891 10:0.0013061694 11:0.016994515 12:0.012789042 14:0.00036503983 16:0.027892943 17:0.016531382 18:0.028777096 19:0.018954795 20:0.010618689 21:0.0041026608 27:0.017582709 29:0.030845938 #
-54.912763711368249630595528287813 1:0.00099621108 2:0 3:0.00079046219 5:0.0036139663 6:0.00052763597 7:0.0019811227 8:0.0055752429 9:0.00078996754 10:0.0016498981 11:0.018400077 12:0.03230916 13:0.035827614 14:0.00092220586 18:0.036350016 19:0.0059857243 20:0.026826164 21:0.020729233 22:0.064475067 29:0.077926584 #
-30.012436119713775894979335134849 1:0.0030284815 2:0 3:0.0011013773 5:0.0068665356 6:0.001804515 7:0.001806784 8:0.0021185922 9:0.00055034406 10:0.0020062763 11:0.023306763 12:0.02455496 13:0.027228987 14:0.0010012521 16:0.053554453 19:0.0045491508 20:0.020387884 25:0.084271997 26:0.025451303 29:0.059224203 32:0.22343998 #
54.912763711368249630595528287813 1:0.001892801 2:0 3:0.0013767217 5:0.013733071 6:0.0012531355 7:0.0022584798 8:0.0017654935 9:0.0010006255 10:0.0025078452 11:0.034960143 12:0.030693701 13:0.034036234 14:0.0012515651 16:0.022314355 17:0.13886361 18:0.034532513 19:0.022745753 20:0.033979807 24:0.049543981 26:0.031814128 #
54.912763711368249630595528287813 1:0.0029120015 2:0 3:0.00086646818 5:0.0092434138 6:0.0017351107 7:0.0017372923 8:0.00067903596 9:0.00043296296 10:0.0012056949 11:0.01792828 12:0.047221076 14:0.00028882272 17:0.1220779 20:0.019603735 21:0.015148286 22:0.047116391 25:0.040515382 #
54.912763711368249630595528287813 1:0.0030529047 2:0 3:0.0015341766 5:0.013290069 6:0.00080847449 7:0.0012142365 8:0.0056951405 9:0.00044382585 10:0.001011228 11:0.030073242 12:0.039604776 13:0.065876581 14:0.00048447683 16:0.014396358 17:0.012798489 19:0.0073373397 20:0.02740307 21:0.0063525066 24:0.031963859 26:0.010262622 28:0.052941505 30:0.052734055 #
54.912763711368249630595528287813 1:0.0027835309 2:0 3:0.00073621474 5:0.0040391386 6:0.0010319939 7:0.001107098 8:0.0031155767 9:0.00022072622 10:0.0009220019 11:0.0068549304 12:0.036110234 14:0.00036810737 18:0.060939733 19:0.0033449638 20:0.024985153 21:0.011583983 24:0.029143518 26:0.0093570966 30:0.096162103 #
54.912763711368249630595528287813 1:0.004056002 2:0 3:0.0010131717 4:0.069726475 5:0.0081744473 6:0.0011934623 7:0.0012547111 8:0.005044267 9:0.00065517146 10:0.001194212 11:0.016647687 12:0.014616048 13:0.01620773 14:0.00083437673 17:0.028339513 18:0.016444055 19:0.0081234835 20:0.020226076 21:0.0093775103 26:0.0075747925 29:0.0352525 30:0.11676826 #
-54.912763711368249630595528287813 1:0.0043680021 2:0 3:0.00073810248 4:0.056317534 5:0.0017606502 6:0.0007711603 7:0.00096516235 8:0.0027161438 9:0.00059331959 10:0.0012056949 11:0.005976093 12:0.0078701796 13:0.017454479 14:0.00054555404 15:0.029116299 16:0.034329776 17:0.050865792 18:0.017708981 19:0.0087483665 20:0.0087127713 21:0.010098857 23:0.026280548 24:0.050814338 26:0.024472406 27:0.043280516 33:0.067927144 #
-54.912763711368249630595528287813 1:0.0027040015 2:0 3:0.00089397508 5:0.012261671 6:0.0014321548 7:0.0013443333 9:0.00067006174 10:0.0013434885 11:0.0041619218 13:0.048623189 14:0.00053638505 15:0.040554844 16:0.031877652 17:0.028339513 19:0.0081234835 20:0.0060678227 21:0.014066265 24:0.070777111 26:0.011362188 27:0.030141788 29:0.052878752 30:0.058384132 #
-54.912763711368249630595528287813 1:0.0033402371 2:0 3:0.00058897183 5:0.0020195693 6:0.00058971078 7:0.0013285176 8:0.0020770512 9:0.00036787702 10:0.0014752031 11:0.034274653 12:0.036110234 14:0.00044172886 17:0.070015267 21:0.023167966 24:0.058287036 26:0.018714193 27:0.049645297 #
-54.912763711368249630595528287813 1:0.003785602 2:0 3:0.0011442881 5:0.0088284034 6:0.0011457239 7:0.0015056533 8:0.0035309871 9:0.00071473251 10:0.0016121862 11:0.0099886125 12:0.017539257 13:0.019449277 14:0.00092973409 16:0.038253181 17:0.034007415 18:0.019732866 19:0.0032493933 20:0.0097085163 21:0.02813253 26:0.018179502 27:0.048226859 #
54.912763711368249630595528287813 1:0.0056381305 2:0 3:0.00079887133 5:0.0051133777 6:0.0010664982 7:0.0011212311 8:0.0033807324 9:0.00066530955 10:0.0014673562 11:0.029753314 13:0.057934012 14:0.00090538751 16:0.02848641 17:0.025324671 18:0.029389374 19:0.0096790437 20:0.018074365 21:0.012569854 22:0.026064387 25:0.089651056 26:0.0067689633 27:0.01795681 28:0.069837727 #
54.912763711368249630595528287813 1:0.0047320025 2:0 3:0.0012515651 5:0.017166339 6:0.0015664194 7:0.00141155 8:0.0044137337 9:0.00031269548 10:0.0007837016 11:0.029133454 12:0.076734252 14:0.00078222819 15:0.070970975 17:0.024797073 18:0.086331286 19:0.042648286 20:0.042474758 21:0.024615964 26:0.01988383 29:0.092537813 #
54.912763711368249630595528287813 1:0.0049810554 2:0 3:0.00065871846 5:0.0018069831 6:0.0010552719 7:0.0019811227 8:0.00650445 9:0.00039498377 10:0.0013199185 11:0.024533436 12:0.064618319 13:0.035827614 14:0.0010539496 17:0.020881746 19:0.0059857243 20:0.0089420546 21:0.041458465 23:0.10788856 25:0.055442102 26:0.016744278 #
54.912763711368249630595528287813 1:0.003785602 2:0 3:0.00083437673 5:0.0022888454 6:0.0010025083 7:0.0015056533 8:0.0070619741 9:0.0004169273 10:0.0012539226 11:0.0077689211 14:0.0011681274 18:0.046043355 21:0.039385542 26:0.021209419 #
-54.912763711368249630595528287813 1:0.0038969433 2:0 3:0.00088345772 5:0.0050489232 6:0.001474277 7:0.0013285176 8:0.0041541024 9:0.00062539097 10:0.00055320113 11:0.013709861 14:0.00073621474 15:0.033398107 16:0.013126091 17:0.023338422 18:0.020313244 19:0.013379855 20:0.0049970304 21:0.017375974 22:0.036030184 24:0.058287036 26:0.018714193 27:0.024822649 #
-54.912763711368249630595528287813 1:0.0050474694 2:0 3:0.0010846897 5:0.0022888454 6:0.0011695931 7:0.0025094221 8:0.010004464 9:0.00058369822 10:0.00083594839 11:0.023306763 12:0.081849866 14:0.0013350028 16:0.014876237 19:0.0037909588 20:0.0056633013 21:0.013128514 23:0.068329424 24:0.033029318 26:0.042418838 #
-54.912763711368249630595528287813 1:0.0056784032 2:0 3:0.0010012521 5:0.010299804 6:0.0020050167 7:0.0022584798 8:0.0088274674 9:0.00062539097 10:0.0025078452 11:0.046613526 12:0.061387401 13:0.068072468 14:0.00050062605 21:0.019692771 #
-54.912763711368249630595528287813 1:0.003785602 2:0 3:0.00070087647 5:0.0013733072 6:0.0016040134 7:0.0024090454 8:0.0063557769 9:0.00070043787 10:0.0010031381 11:0.0046613528 12:0.02455496 13:0.081686959 14:0.00060075126 17:0.031740252 19:0.018196603 20:0.020387884 21:0.0078771086 22:0.049001049 26:0.012725651 #
-54.912763711368249630595528287813 1:0.003785602 2:0 3:0.00066750142 5:0.0080109583 6:0.0013366778 7:0.0030113065 8:0.0047079828 9:0.00054200547 10:0.00083594839 11:0.0077689211 12:0.020462466 13:0.022690821 14:0.00033375071 17:0.026450211 19:0.0037909588 20:0.011326603 21:0.019692771 22:0.040834207 25:0.070226662 26:0.021209419 27:0.028132336 #
48.152131368272812039776908932254 1:0.0073269717 2:0 3:0.0013726843 5:0.005537529 6:0.0019403388 7:0.0016999311 8:0.0034170842 9:0.0010086951 10:0.001415719 11:0.022554932 14:0.00064596906 15:0.036630183 16:0.014396358 17:0.10238791 18:0.044558086 19:0.01834335 20:0.02740307 21:0.025410026 24:0.031963859 26:0.020525243 27:0.054449681 30:0.10546811 #
54.912763711368249630595528287813 1:0.0072270585 2:0 3:0.0017294354 4:0.053245667 5:0.0031211528 6:0.0012759197 7:0.0017794084 8:0.010592961 9:0.00052305427 10:0.0019378804 12:0.011161345 14:0.0010012521 15:0.041292205 17:0.007213694 19:0.016542366 20:0.012356293 21:0.021483023 24:0.054047979 26:0.0057843868 28:0.029839756 29:0.026920091 30:0.059445664 #
-54.912763711368249630595528287813 1:0.0018026676 2:0 3:0.00095357344 5:0.003269779 6:0.00047738492 7:0.0017924444 8:0.0075664008 9:0.00089341565 10:0.001492765 12:0.029232096 14:0.00071518007 19:0.016246967 20:0.01618086 21:0.02813253 24:0.047184743 26:0.015149585 28:0.07815174 30:0.077845514 #
-54.912763711368249630595528287813 1:0.0071619498 2:0 3:0.0011500869 5:0.0055674613 6:0.0014902152 7:0.0022381332 8:0.0090660481 9:0.00074370817 10:0.002202837 11:0.044093877 12:0.016591189 14:0.00081182603 15:0.030690152 17:0.021446116 18:0.055998672 19:0.0061475011 20:0.027551195 21:0.026611853 24:0.080341585 25:0.028470268 26:0.017196827 29:0.080032706 30:0.044182587 #
-54.912763711368249630595528287813 1:0.007436004 2:0 3:0.00089397508 5:0.0024523342 6:0.00089509675 7:0.0018820666 8:0.0075664008 9:0.00062539097 10:0.0020152328 11:0.041619219 12:0.021924071 13:0.048623189 14:0.0012515651 15:0.040554844 17:0.014169756 18:0.024666082 19:0.0040617418 20:0.024271291 21:0.021099398 26:0.011362188 29:0.052878752 30:0.058384132 #
54.912763711368249630595528287813 1:0.0041253357 2:0 3:0.001315748 5:0.0052819508 6:0.000899687 7:0.00096516235 8:0.0043005613 9:0.00048106996 10:0.00088417617 11:0.011952186 12:0.015740359 13:0.052363437 14:0.00051346258 15:0.029116299 16:0.0057216296 17:0.0050865789 19:0.016038671 20:0.019603735 21:0.020197714 22:0.015705464 24:0.025407169 26:0.012236203 27:0.021640258 28:0.021040853 30:0.020958407 #
54.912763711368249630595528287813 1:0.0068140836 2:0 3:0.00070087647 5:0.0027466144 6:0.0010025083 7:0.00030113067 8:0.0042371843 9:0.00045028148 10:0.0012539226 11:0.018645411 12:0.02455496 13:0.10891595 14:0.00090112688 16:0.017851485 17:0.015870126 19:0.0090983016 20:0.0067959614 21:0.0078771086 22:0.098002099 24:0.039635185 25:0.084271997 26:0.012725651 29:0.059224203 #
54.912763711368249630595528287813 1:0.001892801 2:0 3:0.00075093907 5:0.0075531895 6:0.0011027592 7:0.00090339198 8:0.0017654935 9:0.00042526584 10:0.00075235358 11:0.032629468 12:0.049109921 13:0.040843479 14:0.00060075126 16:0.017851485 17:0.02380519 18:0.013813006 19:0.0090983016 20:0.010193942 21:0.0039385543 22:0.024500525 25:0.021067999 27:0.016879402 #
54.912763711368249630595528287813 1:0.0029120015 2:0 3:0.00096274237 5:0.010563902 6:0.0011567405 7:0.0017372923 8:0.0020371079 9:0.00057728396 10:0.0012056949 11:0.031374488 12:0.023610538 13:0.026181718 14:0.00077019393 16:0.034329776 17:0.061038949 19:0.0087483665 20:0.013069157 22:0.047116391 25:0.040515382 26:0.012236203 27:0.032460388 #
54.912763711368249630595528287813 1:0.00072800036 2:0 3:0.0012515651 5:0.0052819508 6:0.00096395036 7:0.0011581948 8:0.004753252 9:0.00062539097 10:0.00048227792 11:0.00896414 12:0.023610538 14:0.00048137119 17:0.045779213 19:0.0087483665 20:0.013069157 22:0.094232783 #
54.912763711368249630595528287813 1:0.010094939 2:0 3:0.00050062605 6:0.0013366778 7:0.0040150755 8:0.011769957 9:0.00075046916 10:0.00083594839 13:0.045381643 14:0.0016687535 16:0.029752474 19:0.0075819176 26:0.042418838 #
-54.912763711368249630595528287813 1:0.0022943043 2:0 3:0.0012136389 4:0.044371393 5:0.011444226 6:0.0015189521 7:0.0013687757 8:0.0026749901 9:0.00056853722 10:0.0011399296 11:0.010593983 12:0.037204485 13:0.12376812 14:0.00053096702 15:0.034410171 21:0.01790252 22:0.074244015 26:0.0096406452 #
-54.912763711368249630595528287813 1:0.0031546683 2:0 3:0.0011994166 5:0.0064373775 6:0.00093985157 7:0.0012547111 8:0.002574678 9:0.00057327503 10:0.00091431855 11:0.0072833635 12:0.012789042 13:0.014181764 14:0.000573634 15:0.023656992 16:0.027892943 17:0.016531382 19:0.0071080476 20:0.017697817 21:0.020513304 25:0.087783329 26:0.013255887 27:0.017582709 28:0.034191389 #
-54.912763711368249630595528287813 1:0.0042062243 2:0 3:0.00055625115 5:0.0050863228 6:0.0011138982 7:0.0011152987 8:0.0039233188 9:0.00078752934 10:0.0013932473 11:0.0043160673 12:0.022736074 14:0.00046354264 15:0.042056877 16:0.033058304 17:0.044083685 19:0.0084243529 20:0.0062925569 21:0.0072936187 23:0.07592158 26:0.023566021 27:0.062516302 #
54.912763711368249630595528287813 1:0.0016224008 2:0 3:0.0013588421 5:0.0068665356 6:0.0011457239 7:0.0015056533 8:0.0045398404 9:0.00067899592 10:0.00071652723 11:0.0066590752 13:0.019449277 14:0.00028607203 15:0.032443877 16:0.012751061 17:0.011335805 19:0.016246967 20:0.014562774 21:0.011253012 25:0.12038857 26:0.0090897512 #
54.912763711368249630595528287813 1:0.0014560007 2:0 3:0.00019254848 5:0.0052819508 6:0.0015423206 7:0.0011581948 8:0.0040742159 9:0.00038485596 10:0.00096455583 11:0.00896414 14:0.00096274237 16:0.034329776 19:0.0087483665 30:0.12575044 #
54.912763711368249630595528287813 1:0.0051105628 2:0 3:0.0013767217 5:0.0096131498 6:0.0014536371 7:0.0019573492 8:0.0044137337 9:0.00068793003 10:0.0011912264 11:0.024472101 13:0.054457974 14:0.00052565732 15:0.022710713 16:0.0089257425 17:0.031740252 18:0.027626012 19:0.011372876 20:0.032280818 21:0.019692771 24:0.019817593 25:0.010534 26:0.0095442384 27:0.016879402 28:0.065647468 30:0.049042672 #
-54.912763711368249630595528287813 1:0.0025237347 2:0 3:0.00066750142 5:0.0045776907 6:0.0011695931 7:0.0015056533 8:0.0029424892 9:0.00054200547 10:0.0014629097 11:0.023306763 14:0.00033375071 17:0.013225106 19:0.011372876 20:0.016989904 26:0.021209419 30:0.054491859 #
-54.912763711368249630595528287813 1:0.0054952288 2:0 3:0.0011708189 4:0.023617031 5:0.0022150115 6:0.00097016938 7:0.0015785075 8:0.0045561125 9:0.00054469536 10:0.001011228 11:0.015036621 12:0.02970358 13:0.043917719 14:0.00032298453 16:0.035990894 17:0.031996224 18:0.044558086 19:0.0018343349 20:0.030143378 21:0.012705013 24:0.047945786 25:0.016990323 26:0.015393933 27:0.01361242 29:0.023880726 30:0.079101086 #
-54.912763711368249630595528287813 1:0.0050960025 2:0 3:0.0012515651 5:0.0046217069 6:0.00096395036 7:0.0013029692 8:0.0067903595 9:0.00060133747 10:0.0010851254 11:0.011205175 12:0.011805269 14:0.00067391968 15:0.021837223 16:0.0085824439 18:0.053126946 19:0.0065612751 20:0.0065345783 21:0.011361214 22:0.023558196 25:0.020257691 26:0.012236203 29:0.028473174 30:0.031437609 #
-54.912763711368249630595528287813 1:0.0075712041 2:0 3:0.0012015025 5:0.0041199215 6:0.0014035117 7:0.0027101759 8:0.010592961 9:0.00075046916 10:0.0015047072 13:0.027228987 14:0.0013016277 16:0.017851485 17:0.031740252 18:0.055252023 19:0.022745753 20:0.0067959614 24:0.07927037 29:0.059224203 30:0.065390229 #
54.912763711368249630595528287813 1:0.0077938866 2:0 3:0.0016196725 5:0.0080782771 6:0.00088456622 7:0.0030998744 8:0.0072696791 9:0.00058860326 10:0.00073760154 11:0.0068549304 12:0.072220467 14:0.00058897183 15:0.066796213 16:0.026252182 17:0.046676844 19:0.0066899275 20:0.029982183 21:0.034751948 24:0.11657407 26:0.037428387 27:0.049645297 28:0.096540391 #
54.912763711368249630595528287813 1:0.0032760017 2:0 3:0.0011071537 5:0.007922926 6:0.0018315057 7:0.0014477435 8:0.0013580719 9:0.00057728396 10:0.00096455583 11:0.020169314 12:0.023610538 13:0.013090859 14:0.00072205678 15:0.021837223 16:0.051494665 17:0.038149342 19:0.0021870916 20:0.016336447 21:0.018935356 22:0.047116391 23:0.039420821 24:0.038110752 26:0.012236203 27:0.04869058 29:0.028473174 #
-54.912763711368249630595528287813 1:0.0065065036 2:0 3:0.0010168967 5:0.0064373775 6:0.0023496291 7:0.0023525832 8:0.0088274674 9:0.00062539097 10:0.0017633287 11:0.014566727 14:0.0012515651 15:0.035485487 16:0.013946472 17:0.012398536 19:0.017770119 20:0.010618689 21:0.018461972 22:0.03828207 24:0.061929975 25:0.032918748 26:0.0099419151 29:0.046268906 #
54.912763711368249630595528287813 1:0.0011830006 2:0 3:0.00083437673 5:0.0050068488 6:0.0012531355 7:0.0012547111 8:0.0036781116 9:0.00070356485 10:0.00065308472 11:0.012138939 12:0.038367126 14:0.00067793112 16:0.018595295 17:0.033062764 18:0.028777096 19:0.0094773974 20:0.010618689 21:0.012307982 24:0.020643326 26:0.0066279434 29:0.030845938 #
54.912763711368249630595528287813 1:0.0053569837 2:0 3:0.00094457745 5:0.0025911457 6:0.0017023727 7:0.0012783848 8:0.0069953515 9:0.00054279214 10:0.0011829458 11:0.0021987513 12:0.011582528 13:0.038531583 14:0.0007084331 16:0.016841022 17:0.0074859089 19:0.0085833026 20:0.012822568 21:0.0074312342 24:0.018695841 25:0.099377356 26:0.018007997 29:0.027935944 30:0.061688896 #
-54.912763711368249630595528287813 1:0.0019924222 2:0 3:0.0015809244 5:0.0090349158 6:0.0013190899 7:0.0015848982 8:0.00650445 9:0.00072413689 10:0.0019798777 11:0.024533436 14:0.00079046219 16:0.11744397 17:0.062645234 19:0.023942897 20:0.0089420546 24:0.052151557 26:0.016744278 #
-54.912763711368249630595528287813 1:0.0055478648 2:0 3:0.00094946317 5:0.0035516564 6:0.0011235008 7:0.0023363587 8:0.0060879085 9:0.00073321699 10:0.00086477422 11:0.012055222 12:0.042336136 13:0.023473265 14:0.00081999094 15:0.0391564 16:0.023083815 17:0.0068405718 19:0.0019608408 20:0.0058585876 21:0.020371832 22:0.021121142 23:0.035342805 24:0.017084131 26:0.027425973 27:0.014551208 29:0.025527673 30:0.028185444 #
-54.912763711368249630595528287813 1:0.00072800036 2:0 3:0.0010590167 5:0.0066024382 6:0.0011567405 7:0.002026841 8:0.00067903596 9:0.00062539097 10:0.0014468337 11:0.02689242 12:0.047221076 14:0.00038509697 15:0.043674447 16:0.017164888 17:0.10681816 18:0.026563473 19:0.0087483665 20:0.013069157 21:0.022722429 24:0.038110752 #
-54.912763711368249630595528287813 1:0.006084003 2:0 3:0.0012515651 5:0.0036785014 6:0.0016111742 7:0.0021509333 8:0.0088274674 9:0.00089341565 10:0.0013434885 11:0.024971532 13:0.048623189 14:0.0013409626 16:0.047816474 17:0.042509269 19:0.020308709 20:0.024271291 21:0.0070331325 24:0.035388555 25:0.037621427 26:0.011362188 27:0.030141788 29:0.052878752 #
-54.912763711368249630595528287813 1:0.0052577807 2:0 3:0.0012052108 5:0.0063579036 6:0.00083542365 7:0.0015335358 8:0.0042502624 9:0.00053274044 10:0.0011610395 11:0.021580337 14:0.0006026054 15:0.042056877 16:0.033058304 17:0.036736403 18:0.01278982 19:0.016848706 20:0.01887767 21:0.0072936187 24:0.018349621 25:0.039014813 26:0.01178301 28:0.030392345 29:0.027418612 #
