SVM-light Version V6.02
0 # kernel type
3 # kernel parameter -d 
1 # kernel parameter -g 
1 # kernel parameter -s 
1 # kernel parameter -r 
empty# kernel parameter -u 
5157 # highest feature index 
640 # number of training documents 
641 # number of support vectors plus 1 
0.46775403 # threshold b, each following line is a SV (starting with alpha*y)
-8.5452304772511726495710232542891e-06 1:0.83067518 2:0.29110387 3:0.25110486 4:1.1542013 5:0.11582654 6:1.6447369 7:0.65138096 8:1.0611205 9:16.447369 10:0.9955532 11:0.12603347 12:0.49614987 13:0.35706633 14:1.6447369 15:0.54824561 16:0.85440874 17:0.38175711 18:0.1420939 19:1.7780939 20:3.1328321 21:0.66454011 22:0.16761649 23:2.5303643 24:1.0164104 25:0.74760765 26:1.2183236 27:16.447369 28:16.447369 29:0.16244315 30:65.789474 31:1.4302059 32:1.4302059 33:65.789474 34:0.29701793 35:0.29904306 36:1.0726545 37:1.0442773 38:13.157895 39:1.3157895 40:3.2894738 41:0.55285275 42:32.894737 43:0.18480189 44:0.24640252 45:10.964912 46:0.40863028 47:5.0607285 48:8.2236843 49:0.38775721 50:0.48021513 51:1.0697476 52:49.342106 53:4.3859649 54:18.796993 55:65.789474 56:4.5372052 57:2.157032 58:2.9904306 59:0.36960378 60:4.1118422 61:0.66454011 62:21.929825 63:0.73920757 64:0.55753791 65:21.929825 66:4.8138638 67:9.3984966 68:1.1343013 69:0.88904697 70:1.078516 71:0.2349624 72:1.5124017 73:0.18428424 74:1.8274853 75:3.1328321 76:32.894737 77:4.3859649 78:21.929825 79:9.3984966 80:9.3984966 81:1.8274853 82:0.93984962 83:1.6046213 84:0.54824561 85:21.929825 86:65.789474 87:1.2899897 88:0.16613503 89:0.48021513 #
-9.5532591808145240596782804542997e-06 5:0.18339202 10:0.91950399 11:0.399106 13:0.28267753 16:1.3528138 22:0.53078556 24:0.14630149 25:1.3152357 29:0.25720164 43:0.29260299 44:0.39013731 46:0.64699793 49:0.81859857 73:0.29178339 84:0.86805558 87:2.0424836 90:0.23199703 91:6.9444447 92:0.47063252 93:0.46159527 94:0.51824212 95:0.88276833 96:0.38723668 97:20.833334 98:0.53056026 99:0.74404764 100:14.880953 101:8.6805553 102:0.95565748 103:104.16666 104:4.0064101 105:20.833334 106:0.41335979 107:0.46091446 108:2.6041667 109:3.8580246 110:13.020833 111:1.3706141 112:0.28229448 113:10.416667 114:13.020833 115:4.5289855 116:26.041666 117:7.4404764 118:4.9603176 119:1.8601191 120:0.79516542 121:1.1837121 122:26.041666 123:1.795977 124:2.2644928 125:3.591954 126:1.7076503 127:1.2112403 128:20.833334 129:104.16666 130:52.083332 131:26.041666 132:0.52083331 133:104.16666 134:4.7348485 135:10.416667 136:5.2083335 137:14.880953 138:1.1837121 139:3.7202382 #
-4.5701788607336606595939187958066e-05 1:0.47646275 2:0.13914399 3:0.36007491 5:0.33218178 6:1.572327 8:1.0144045 10:0.79310316 11:0.12048483 12:0.56916815 13:0.25600982 15:1.048218 17:0.24330013 22:0.40059286 24:0.61833084 25:0.47646275 29:0.31058311 34:0.14197084 43:0.17666596 44:0.23555462 56:2.1687269 59:0.35333192 61:0.63528365 68:1.0843635 69:1.699813 72:0.72290897 73:0.35234219 88:0.47646275 90:0.14007367 92:0.18943699 93:0.18579936 94:0.3129009 98:0.32033828 99:0.4492363 112:0.34088391 132:0.3144654 140:1.3102726 141:0.62270379 142:1.1646867 143:7.8616352 144:1.9654088 145:15.72327 146:62.893082 147:0.59898174 148:0.57700074 149:0.1346747 150:0.71469408 151:0.42210123 152:5.8962264 153:1.2967646 154:12.578616 155:2.3293734 156:6.2893081 157:7.8616352 158:3.144654 159:5.7175527 160:10.482181 161:2.8587763 162:1.1979635 163:1.699813 164:1.1230907 165:5.7175527 166:1.3381506 167:0.15414971 168:1.0843635 169:1.2578616 170:0.54218173 171:3.6995931 172:2.5157232 173:0.25670645 174:0.4590736 175:8.984726 176:3.49406 177:0.79611498 178:3.9308176 179:0.174703 180:3.144654 181:12.578616 182:0.66203243 183:0.21538727 184:12.578616 185:20.964361 186:0.7313149 187:8.984726 188:0.35532814 189:0.62270379 190:1.4293882 191:0.83857441 192:0.39555398 193:0.89847261 194:0.89847261 195:4.492363 196:0.45084646 197:4.492363 198:0.098117135 199:0.21762311 200:0.30829942 201:0.82754058 202:0.32419115 203:1.2578616 204:0.1699813 #
-1.3083866308250538334307863652661e-05 1:0.54600054 2:0.11958861 4:0.94831675 5:0.28549677 7:0.53518867 10:0.54531205 11:0.10355183 12:0.081529491 13:0.66009021 15:0.45045045 18:0.11674742 19:2.1913805 20:2.5740025 21:1.0920011 22:0.27543467 24:0.30367446 25:0.54600054 34:0.12201818 36:0.29377204 41:0.45423576 49:0.10619657 51:0.43946385 64:0.45808521 73:0.60564768 93:0.23953052 98:0.27531776 106:0.21450022 112:0.43946385 140:0.56306309 167:0.92739797 174:0.39455515 179:0.15015015 183:0.18511662 192:0.3399626 193:0.77220076 196:0.19374213 203:1.081081 204:0.14609204 205:0.88613206 206:0.10198878 207:1.5898252 208:2.7027028 209:1.2870013 210:0.21281123 211:13.513514 212:0.24348673 213:27.027027 214:18.018019 215:54.054054 216:1.1750882 217:0.85800087 218:27.027027 219:0.94831675 220:2.3001726 221:3.3094318 222:0.85800087 223:2.002002 224:0.8008008 225:54.054054 226:54.054054 227:2.7027028 228:0.49140048 229:1.3513514 230:0.64864862 231:1.4224751 232:4.1580043 233:0.70813173 234:1.9305019 235:54.054054 236:2.0790021 237:7.3710074 238:0.51644003 239:1.2870013 240:18.018019 241:0.19584802 242:0.39941418 243:1.4609203 244:27.027027 245:54.054054 246:9.0090094 247:0.91617042 248:1.4224751 249:0.43243244 250:0.83160084 251:4.1580043 252:0.83160084 253:2.3501763 254:27.027027 255:54.054054 256:0.40338847 257:1.3183916 258:0.59400058 259:54.054054 260:13.513514 261:2.1621621 262:1.3183916 263:13.513514 264:0.34650034 265:0.38610038 266:0.83160084 267:0.34429333 268:0.26113069 269:54.054054 270:2.3501763 271:4.9140048 272:27.027027 273:1.6891892 274:9.0090094 275:1.5444015 276:13.513514 277:0.93196642 #
-1.5816030588989941229769928265902e-05 1:0.47872084 3:0.090445355 5:0.083439022 10:0.77694041 12:0.57186562 13:0.32152894 16:0.61549824 17:0.091669954 18:0.20472296 19:0.64045089 22:0.78485829 24:0.19969115 25:0.7180813 26:0.87765491 29:0.46808261 31:1.0302905 32:1.0302905 34:0.42793107 43:0.26625487 44:0.17750324 49:0.18622148 50:0.34593698 73:0.33188632 92:0.071375549 93:0.14000994 94:0.23578788 95:0.80327737 96:0.17618351 98:0.24139234 99:0.33852404 107:0.20970516 115:2.060581 122:11.848341 128:9.478673 130:23.696682 132:0.47393364 134:2.1542439 147:0.45136538 153:0.4885914 159:8.6169758 167:0.11616021 169:0.47393364 174:0.69187397 179:0.52659297 181:9.478673 196:0.16986869 202:0.2442957 204:0.12809017 216:1.0302905 229:2.3696682 231:1.2471938 238:0.15093428 239:1.1284134 242:0.11673243 250:0.72912872 256:0.35368183 265:0.33852404 271:4.3084879 275:1.3540962 278:0.15387456 279:0.26625487 280:47.393364 281:3.6456435 282:11.848341 283:0.3268508 284:0.2481328 285:3.6456435 286:23.696682 287:23.696682 288:47.393364 289:0.7898894 290:0.30380362 291:0.4579069 292:6.7704806 293:0.32461208 294:4.7393365 295:0.47393364 296:11.848341 297:0.2804341 298:1.7553098 299:15.797789 300:2.3696682 301:2.7878449 302:0.30576363 303:47.393364 304:47.393364 305:2.1542439 306:5.9241705 307:9.478673 308:47.393364 309:47.393364 310:23.696682 311:1.9747236 312:0.87765491 313:1.5288182 314:23.696682 315:4.7393365 316:15.797789 317:1.1848341 318:3.9494472 319:47.393364 320:2.3696682 321:0.28723252 322:5.2659292 323:6.7704806 324:47.393364 325:47.393364 326:9.478673 327:23.696682 328:23.696682 329:0.39385068 330:3.6456435 331:0.27081922 332:1.5288182 333:6.3191152 334:15.797789 335:0.46924123 336:1.0531859 337:0.39168069 338:6.7704806 339:6.7704806 340:2.2568269 341:3.3852403 342:11.848341 343:9.478673 344:1.5797788 345:1.1284134 346:2.9620852 347:2.4943876 #
4.5701788607336606595939187958066e-05 1:0.78100592 2:0.22808138 3:0.19674195 4:1.8086454 5:0.18150137 7:1.0207206 10:0.65001756 11:0.19749576 12:0.31098878 18:0.2226626 22:0.65664196 24:0.72396618 25:1.0413413 34:0.23271509 44:0.38611528 46:0.64032787 50:0.75250208 60:6.4432988 73:0.14438765 92:0.15526022 93:0.30455771 98:0.35006037 105:20.618557 106:0.81819671 121:1.1715089 140:2.1477664 144:3.2216494 149:0.22075543 150:1.1715089 198:0.48249352 199:0.35672244 206:0.38902938 212:0.4643819 216:2.2411475 228:0.9372071 230:0.41237113 249:0.82474226 279:0.57917297 306:12.886598 313:3.3255737 329:0.28557557 361:1.5386983 364:0.41237113 386:0.79302144 403:1.1085246 406:6.8728523 412:9.3720713 424:0.59591204 466:0.37762925 469:1.0519671 473:1.1987532 506:2.1703744 611:0.56028688 624:1.1849746 648:0.98183602 854:2.2909508 946:1.0413413 1037:4.482295 1262:5.7273769 1480:1.0207206 1485:2.1934636 2489:20.618557 2789:1.5620118 4031:4.482295 4151:103.09278 4152:51.546391 4153:51.546391 #
2.7690160768042695128886634958754e-05 1:0.31965223 4:2.2207417 10:0.31924912 11:0.24249479 12:0.38184699 13:0.34350687 22:0.16125131 24:0.88892049 25:0.31965223 29:0.31254885 34:0.28573877 46:0.78622532 49:0.24868818 64:1.0727311 71:0.45207956 72:1.4549687 73:0.8864305 84:1.0548524 94:0.62976259 117:9.0415916 119:2.2603979 120:0.96627694 167:0.31025067 174:0.92395824 186:1.471887 194:1.8083183 196:0.45369992 204:0.34211427 206:0.47766897 217:2.0092425 230:1.0126582 238:0.80625653 265:0.45207956 267:0.80625653 291:0.61150861 329:1.4025737 335:1.2532899 344:4.2194095 381:0.56009859 382:0.86700189 386:0.97370982 397:1.8615041 427:1.130199 469:1.2916559 473:1.471887 496:2.6371307 599:1.2171373 687:1.0126582 701:3.8358266 733:1.2410027 800:2.943774 963:6.0277276 1072:15.822784 1268:1.6877637 1289:7.4460163 1646:4.0832992 1928:3.7230082 4154:126.58228 4155:126.58228 4156:63.291138 4157:126.58228 #
4.5701788607336606595939187958066e-05 1:0.97125095 5:0.45142651 10:0.9700262 13:0.5218662 15:1.0683761 17:0.24797897 22:0.32663727 25:0.97125095 43:0.36012676 46:0.79630512 49:0.25187647 69:1.7325017 73:0.17955901 74:3.5612535 75:6.1050062 84:1.0683761 87:2.5138261 88:0.64750063 89:0.93580383 90:0.2855348 92:0.57924002 93:0.9468621 95:1.0864842 98:0.43533149 106:0.5087505 112:0.34743938 125:4.4208665 166:2.7277687 179:0.35612535 198:0.200008 199:0.44361636 205:2.1017234 206:0.48379293 278:0.41625041 335:1.2693577 362:0.93580383 387:7.1225071 466:0.46961585 496:2.6709402 611:0.69676697 624:1.4736222 687:1.0256411 689:0.96394831 714:3.2051282 724:2.1017234 796:5.1282053 1338:12.820513 1607:10.683761 1656:3.2873111 1788:12.820513 2388:2.913753 2789:1.9425019 4158:128.20512 #
1.3405332667137150116682016431913e-05 3:0.16594756 4:1.525553 5:0.45927739 10:0.65793079 11:0.16658337 12:0.65578073 22:0.66463584 24:0.36638984 25:1.2077295 29:0.21470746 36:0.47258979 41:0.73072708 44:0.32567987 73:0.36536354 88:0.21958718 94:0.43261951 98:0.14763416 149:0.37240481 167:0.42625746 179:0.4830918 182:0.91533178 183:0.29779631 196:0.31167212 198:0.4069728 199:0.30088761 206:0.16406891 212:0.78339207 222:0.69013113 224:0.64412236 230:0.69565219 232:6.6889634 238:0.55386317 242:0.21417862 243:4.7003527 266:1.3377926 278:0.28232637 321:0.52700925 329:0.48175359 375:0.61236989 381:0.38476336 384:1.4025246 460:0.78339207 538:1.4738394 662:3.4782608 680:3.4782608 703:6.6889634 712:1.7391304 721:1.1441648 901:0.74321812 962:2.8510334 1100:4.5766592 1156:1.317523 1317:9.6618357 1351:17.391304 1524:43.47826 1536:1.8115942 2131:17.391304 2618:9.6618357 3456:9.1533184 3938:28.985508 4159:86.95652 4160:28.985508 4161:43.47826 4162:86.95652 4163:173.91304 4164:86.95652 4165:86.95652 4166:86.95652 4167:86.95652 4168:86.95652 4169:86.95652 4170:86.95652 #
4.5701788607336606595939187958066e-05 1:0.21583354 2:0.18909311 4:4.4984255 5:0.45142651 6:2.1367521 10:0.32334206 11:0.16373579 12:0.25782833 13:0.57985133 17:0.16531931 18:0.18460062 22:0.43551636 24:0.72025353 25:0.75541741 26:1.5827794 31:1.8580453 32:1.8580453 34:0.19293474 35:0.77700078 49:0.33583531 58:1.9425019 74:2.3741691 82:1.2210013 88:0.21583354 92:0.25744003 93:0.25249657 94:0.4252243 96:0.31773266 98:0.58044201 99:1.2210013 106:0.339167 140:0.89031339 166:1.8185124 167:0.418971 173:0.34885749 193:1.2210013 204:0.23100023 206:0.32252863 241:0.61934847 242:0.21051745 247:2.8972909 329:0.47351849 337:0.70636433 363:0.72432274 364:0.34188035 420:3.8850038 422:1.5262516 423:0.71225071 424:0.49404675 466:1.252309 482:0.55862802 507:1.2756729 684:1.2210013 728:1.2386969 770:9.4966764 784:4.4984255 901:0.73051357 1177:12.210012 1189:3.1655588 1284:4.070004 1418:8.140008 1521:5.6980057 1724:2.5900025 1746:7.7700076 1835:4.070004 1948:28.490028 2195:14.245014 2461:14.245014 2609:17.094017 4094:28.490028 4171:28.490028 4172:85.470085 4173:14.245014 4174:85.470085 #
-1.0616152650528654514451055990154e-05 2:0.22575402 10:0.38603082 11:0.58644146 12:0.46172315 13:0.55381721 16:2.6504109 17:0.39474204 18:0.22039053 19:1.37893 22:0.2599766 24:1.146526 25:0.51535767 36:0.55456966 43:0.28663149 44:0.38217536 48:12.755102 49:0.40094623 73:0.42874292 93:0.15072499 108:2.5510204 149:0.65550846 173:0.41649312 179:0.2834467 183:0.34945485 196:0.36573771 198:0.47757012 204:0.55157197 212:0.4596433 228:0.92764378 233:0.44559309 247:1.7295054 258:1.1213276 265:0.3644315 279:1.146526 290:0.65410781 329:0.28266153 382:0.6989097 390:6.0024009 422:3.6443148 430:12.755102 435:0.87214375 472:1.5229973 482:0.66693342 560:1.0307153 578:1.0204082 611:0.55456966 645:2.0008004 648:0.97181731 764:4.6382189 810:9.2764378 831:6.802721 837:0.77893752 1020:25.510204 1078:4.2517009 1125:7.8492937 1161:9.2764378 1299:3.6443148 1485:2.1710813 1630:20.408163 1944:102.04082 1945:51.020409 1946:102.04082 1947:51.020409 1948:34.013607 1949:20.408163 #
-3.5043265723499637462334810322773e-05 1:0.68250066 2:0.19931436 3:0.17192765 4:1.5805279 7:0.89198107 10:0.56803334 12:0.27176496 13:0.24447785 15:0.75075078 22:0.22952889 25:0.91000092 41:0.75705957 43:0.25306204 44:0.33741608 49:0.53098285 50:0.65759188 58:2.047502 59:0.50612408 73:0.63088298 88:0.22750023 90:0.40129218 92:0.40703353 93:0.13307251 95:0.76347536 96:0.33490741 98:0.61181724 102:0.8265146 112:0.24414659 113:9.0090094 121:1.023751 143:11.261261 149:0.3858248 167:0.44161808 198:0.28109232 199:0.31173041 204:0.24348673 206:0.3399626 217:1.4300014 249:0.72072071 264:0.57750058 265:0.64350063 267:0.5738222 275:2.5740025 291:0.43521783 293:0.61705542 313:2.906132 364:0.36036035 397:1.3248543 479:1.2870013 492:4.2900043 501:1.5805279 545:1.2012012 606:1.0355183 607:1.3056535 609:7.5075073 611:0.48962006 622:2.8153152 656:1.3446282 666:3.3366699 716:1.185396 733:0.88323617 803:2.047502 806:5.299417 860:0.55611169 1099:3.6036036 1268:1.2012012 1339:6.930007 1374:4.5045047 1460:12.870013 1485:1.9168104 1573:6.4350066 1725:1.699813 2789:1.3650013 3548:15.015015 4072:3.6036036 4092:90.090088 4093:90.090088 4094:30.030029 #
-2.464063216945929529646912292673e-05 1:0.24281274 3:0.36699942 5:0.67713976 10:0.72751963 11:0.18420278 12:0.29005685 13:0.65233272 14:2.4038463 17:0.18598422 22:0.73493385 24:0.81028521 25:0.72843826 34:0.21705157 46:0.59722888 60:6.0096154 73:0.40400776 88:0.24281274 89:0.70185292 90:0.2141511 92:0.28962001 93:0.14202932 96:0.35744923 98:0.16324931 119:1.7170329 120:0.73399884 140:1.0016025 147:0.91575092 177:1.2171373 192:0.60474116 198:0.150006 199:0.33271226 204:0.25987527 224:0.71225071 242:0.23683213 264:0.6163708 265:0.34340659 278:0.31218782 293:0.65858799 301:5.6561084 337:0.79465991 347:5.0607285 382:0.65858799 390:5.6561084 481:6.8681316 498:2.5987525 516:0.74537867 540:7.3964496 589:1.7170329 606:1.1052166 611:0.52257526 642:5.6561084 689:0.72296125 741:5.0607285 777:3.0048077 796:3.8461537 860:0.59354228 959:6.8681316 1023:8.7412586 1271:3.5612535 1375:3.6982248 1395:5.6561084 1487:6.8681316 1488:13.736263 1499:4.8076925 1501:16.02564 1519:4.5787544 1520:96.153847 1521:6.4102564 1522:96.153847 1523:8.7412586 1524:48.076923 1525:32.051281 #
-4.5701788607336606595939187958066e-05 3:0.39758271 10:1.0508617 22:0.53078556 25:0.78914142 34:0.94055682 49:0.81859857 71:0.74404764 73:0.29178339 82:2.9761906 88:0.52609426 90:0.46399406 93:0.30773017 106:0.82671958 109:7.7160492 149:0.89221984 166:4.4326243 167:0.51062089 173:0.85034013 191:2.7777777 195:14.880953 196:0.74671447 199:0.72087657 202:1.0738832 210:1.64042 222:1.6534392 242:0.51313627 279:1.1704119 291:1.0064412 403:2.2401433 435:1.7806268 507:3.1094527 662:8.333333 1145:23.148148 1234:5.2083335 1528:69.444443 2461:34.722221 2575:26.041666 2789:3.1565657 #
-1.3977345944211599628121192595565e-05 2:0.22347367 3:0.38553473 5:0.35566938 7:1.0001 10:0.76426303 12:0.60941237 13:0.27411154 15:0.84175086 22:0.51470113 24:0.14186811 25:1.147842 34:0.22801377 35:0.45913681 43:0.28373623 70:1.6559033 73:0.56588292 88:0.25507602 90:0.22496682 93:0.14920251 96:0.37550223 98:0.34298846 112:0.27374011 121:2.2956841 136:5.0505052 149:0.21629572 162:0.96200097 164:1.8037518 170:0.87077671 189:1.0001 196:0.36204338 198:0.63032824 210:0.39767757 242:0.4975867 264:0.64750063 278:0.32795486 290:0.64750063 293:0.69185001 335:1.0001 355:7.2150073 364:0.80808079 466:0.37000036 573:1.9425019 666:3.7411149 687:0.80808079 689:0.75947446 716:1.3290802 827:0.80166745 847:11.223345 917:2.6581604 928:4.8100047 1088:4.2087541 1433:2.463661 1480:1.0001 1726:1.8705574 1740:12.626263 1860:2.244669 1911:2.9708853 2502:3.4831069 2516:6.7340069 2517:6.7340069 2606:101.0101 2607:101.0101 2608:101.0101 2609:20.202021 2610:12.626263 2611:101.0101 2612:33.670033 #
4.5624650050925450697932028720771e-05 3:0.10602205 4:2.9239767 5:0.19561815 6:1.3888888 7:0.55005503 8:0.89605737 10:0.49040213 12:0.25138262 13:0.67842603 16:0.72150069 18:0.1199904 22:0.56617129 24:0.4681648 25:0.91189677 28:13.888889 29:0.1371742 34:0.12540758 35:0.25252524 49:0.32743943 73:0.23342671 74:1.5432099 93:0.24618414 98:0.28296548 124:1.2077295 140:0.5787037 148:0.50968397 149:0.11896265 151:0.37285608 159:5.0505052 164:0.99206346 179:0.30864197 181:11.111111 198:0.60669094 202:0.28636885 206:0.3144654 207:1.6339869 212:0.5005005 230:0.22222222 231:1.4619883 242:0.13683635 258:0.61050063 264:1.0683761 273:1.7361112 278:0.36075035 279:0.31210986 283:0.38314176 287:13.888889 289:0.92592591 290:0.35612535 292:7.9365077 293:0.38051751 295:0.55555558 298:2.0576131 305:2.5252526 331:0.31746033 333:7.4074073 335:0.55005503 342:13.888889 343:11.111111 361:0.82918739 362:0.40551502 364:1.3333334 375:0.39123631 427:0.49603173 435:0.47483382 455:0.99206346 466:0.2035002 470:2.5252526 516:0.43066323 538:0.94161958 578:0.55555558 582:1.2626263 594:2.9239767 618:4.2735043 620:27.777779 627:0.69444442 638:1.5432099 639:2.2222223 654:0.97465885 716:0.73099416 731:3.7037036 766:1.5015016 889:1.2077295 1043:2.7777777 1200:6.9444447 1314:5.0505052 1456:7.9365077 1911:1.6339869 2107:3.4722223 2208:27.777779 2314:18.518518 2374:5.5555553 2524:6.9444447 2727:3.2679739 2974:11.111111 3108:18.518518 3371:13.888889 3419:18.518518 4031:2.4154589 4206:55.555557 4207:55.555557 4208:55.555557 4209:55.555557 4210:55.555557 4211:5.0505052 4212:55.555557 4213:27.777779 4214:27.777779 4215:27.777779 4216:55.555557 #
4.2942954229844869839995830096413e-05 1:0.37136066 3:0.14032331 5:0.51781279 10:0.46361545 11:0.14086094 12:0.22180818 13:0.19953707 17:0.14222324 18:0.31762165 22:0.37467217 24:0.82617319 25:0.74272132 29:0.5446623 49:0.14445856 73:0.20596474 92:0.11073706 93:0.10861065 94:0.36581796 95:0.62313062 98:0.37451312 107:0.32535139 125:2.535497 132:0.36764705 141:0.364007 149:0.15745056 179:0.20424837 182:0.77399379 183:0.25181305 187:10.504202 188:0.83084083 189:1.456028 198:0.22942095 199:0.25442702 200:0.36043829 206:0.13873474 219:1.2899897 233:0.32108915 234:2.6260505 238:0.23417009 247:1.2462612 260:9.1911764 264:0.47134238 279:0.41308659 286:36.764706 302:0.47438329 321:0.44563279 329:0.20368259 335:0.72801399 363:1.2462612 381:0.65070277 403:0.79063886 424:0.42502549 469:0.75030011 525:1.4705882 549:0.90777051 591:1.3368984 627:0.91911763 661:0.6076811 662:2.9411764 696:1.3873473 777:2.2977941 841:0.95492744 854:1.6339869 860:0.45388526 959:10.504202 990:5.2521009 1123:1.2899897 1149:10.504202 1156:1.114082 1319:14.705882 1381:5.2521009 1437:2.7233117 1459:2.1626298 1536:1.5318627 1609:3.0637255 1611:12.254902 1648:12.254902 1680:6.1274509 1834:14.705882 2054:2.228164 2107:4.5955882 2145:10.504202 2428:6.1274509 2577:14.705882 2616:4.9019608 2839:8.1699343 2919:8.1699343 3220:12.254902 4435:24.509804 4436:24.509804 4500:73.529411 4501:18.382353 4502:36.764706 4503:73.529411 4504:73.529411 4505:36.764706 4506:73.529411 #
4.5701788607336606595939187958066e-05 2:0.24582104 3:0.070681371 5:0.1304121 7:0.36670333 10:0.51375461 11:0.14190435 12:0.50276524 13:0.45228404 17:0.14327674 18:0.1599872 22:0.42462844 24:0.31210986 25:0.88851476 29:0.45724738 34:0.3344202 37:0.58788949 43:0.31210986 49:0.14552863 64:0.3138732 71:0.13227513 72:0.42571306 73:0.36310822 88:0.093527868 92:0.22311468 93:0.21883035 94:0.18426387 98:0.18864365 101:3.0864198 111:0.48732942 126:1.2143291 127:0.43066323 149:0.31723371 157:4.6296296 162:0.70546734 167:0.090777054 170:0.95785439 171:2.1786492 179:0.10288066 188:0.2092488 196:0.26549846 198:0.69336104 199:0.38446751 200:0.18155411 202:0.19091256 204:0.1001001 206:0.2096436 212:0.16683351 233:0.16173379 241:0.26838434 242:0.091224231 247:0.6277464 284:0.19391119 318:3.0864198 327:18.518518 329:0.10259567 351:0.59737158 358:1.0288066 359:0.35958287 361:0.5527916 362:0.27034333 364:0.5925926 365:2.3148148 398:0.68587106 423:0.30864197 427:0.33068782 466:0.27133361 468:0.43066323 482:0.24207214 491:2.1786492 508:0.60716456 511:1.3717421 520:1.1947432 538:0.6277464 568:1.0893246 588:0.78802204 594:1.9493177 600:0.44622937 603:1.0288066 624:0.42571306 632:1.7636684 648:0.35273367 654:0.64977258 687:0.2962963 689:0.83542186 702:0.82304525 714:0.92592591 716:0.97465885 732:2.3148148 756:7.4074073 769:12.345679 798:2.6455026 855:5.2910051 860:0.22862369 869:18.518518 946:0.37411147 958:7.4074073 1003:1.2995452 1084:6.1728396 1171:3.0864198 1209:0.94966763 1350:9.2592592 1502:0.92592591 1512:1.8518518 1540:4.1152263 1669:0.77160496 1696:2.1786492 1833:1.7636684 1870:1.6835017 2102:7.4074073 2164:18.518518 2168:12.345679 2493:3.3670034 2646:7.4074073 2670:18.518518 2789:0.56116724 2799:7.4074073 2814:9.2592592 2900:12.345679 2913:1.3227513 3049:12.345679 3143:2.3894863 3456:1.9493177 3620:7.4074073 3905:14.814815 4148:3.7037036 4308:12.345679 4316:18.518518 4332:4.1152263 4341:5.2910051 4398:7.4074073 4832:7.4074073 5011:18.518518 5071:9.2592592 5142:37.037037 5143:37.037037 5144:18.518518 5145:37.037037 5146:37.037037 5147:37.037037 5148:37.037037 5149:37.037037 5150:18.518518 5151:37.037037 5152:37.037037 5153:37.037037 5154:37.037037 5155:37.037037 5156:37.037037 5157:37.037037 #
4.5701788607336606595939187958066e-05 1:0.56116724 2:0.49164209 3:0.14136274 5:0.2608242 10:0.84068936 12:0.1117256 13:0.70355296 21:0.74822295 22:0.47180939 25:0.74822295 31:1.6103059 32:1.6103059 37:1.175779 43:0.20807324 49:0.14552863 69:1.001001 73:0.2074904 90:0.49492699 92:0.33467203 98:0.25152487 107:0.32776138 112:0.20074275 145:18.518518 149:0.63446742 150:2.5252526 163:2.002002 167:0.18155411 196:0.26549846 198:0.34668052 199:0.25631168 200:0.36310822 206:0.1397624 210:0.29163021 212:0.66733402 222:1.175779 224:0.54869682 238:0.23590469 258:0.81400079 265:0.26455027 278:0.24050024 283:1.0217113 297:0.43830812 348:1.8066847 359:0.71916574 362:0.54068667 386:0.56980056 397:1.0893246 425:2.5542784 426:2.6455026 429:0.26741543 451:2.9629629 452:37.037037 453:0.71225071 454:8.2304525 468:0.86132646 506:0.7797271 625:0.86132646 638:2.0576131 661:0.61218244 687:0.5925926 837:1.1309019 846:4.3572984 1001:2.7434843 1003:1.2995452 1069:18.518518 1111:2.9629629 1156:1.1223345 1172:18.518518 1173:3.2206118 1203:8.2304525 1268:0.98765433 1380:2.5542784 1396:6.7340069 1548:6.7340069 1632:2.5542784 1761:8.2304525 1791:3.2206118 1988:29.629629 2519:10.58201 2994:4.1152263 3630:37.037037 3730:12.345679 3942:18.518518 4014:37.037037 4211:6.7340069 4960:14.814815 5065:37.037037 #
4.5141558029945115157726548416051e-05 1:0.18167284 3:0.13729474 10:0.090721875 11:0.6891039 12:0.43404192 13:0.29284579 18:0.15538326 22:0.5498786 24:0.90938485 25:0.81752777 37:1.1419436 49:0.28268152 66:1.7546937 73:0.40303892 84:0.59952039 88:0.18167284 92:0.32504117 93:0.21253307 96:0.53488809 98:0.24428675 112:0.19496597 120:0.54917896 126:1.1793844 127:0.83654004 138:0.81752777 196:0.25785822 198:0.1122347 199:0.2489358 202:0.37083736 204:0.19443904 206:0.40722141 210:0.28323796 224:1.065814 230:0.28776979 238:0.22911607 241:0.52132207 265:0.51387459 278:0.23357937 284:0.37666202 297:0.85138988 302:0.46414483 329:1.1957194 333:4.7961631 340:3.4258308 341:5.1387463 342:17.985611 343:14.388489 356:1.1793844 364:0.28776979 382:0.49275649 444:5.1387463 460:0.64813012 469:0.7341066 472:1.0737679 496:1.498801 604:2.3980815 606:0.82692468 607:1.0426441 611:0.39099157 668:5.995204 678:1.6730801 679:1.7129154 733:0.70531809 737:10.277493 738:7.1942444 884:1.498801 901:0.61489272 928:3.4258308 934:1.1241007 1289:4.2319088 1381:5.1387463 1403:2.8776979 1527:4.2319088 1830:2.2482014 2069:7.9936051 2242:6.5402222 3905:14.388489 4044:35.971222 4376:17.985611 4604:35.971222 4698:71.942444 4699:71.942444 4700:71.942444 4701:71.942444 4702:71.942444 #
-4.5701788607336606595939187958066e-05 2:0.24582104 5:0.19561815 10:0.56045955 11:0.42571306 12:0.3351768 13:0.6030454 17:0.42983022 22:0.70771408 24:0.31210986 25:0.84175086 34:0.25081515 36:0.60386473 39:2.2222223 71:0.3968254 73:0.31123561 88:0.28058362 93:0.32824552 147:1.0582011 149:0.47585058 167:0.27233115 169:1.1111112 179:0.30864197 182:1.1695906 198:0.52002078 199:0.38446751 200:0.5446623 228:1.010101 238:0.35385704 239:2.6455026 242:0.5473454 278:0.36075035 279:1.2484394 290:0.71225071 329:0.307787 331:0.63492066 382:0.76103503 429:0.80224627 466:0.40700039 468:1.2919897 472:1.6583748 522:2.4691358 573:2.1367521 574:8.5470085 587:2.3148148 604:3.7037036 656:3.3167496 661:0.91827363 684:0.79365081 708:3.0030031 860:0.68587106 946:1.1223345 1093:3.7037036 1477:2.9239767 1480:1.1001101 1556:4.2735043 1694:6.5359478 2123:18.518518 2361:15.873015 2385:18.518518 3032:37.037037 3174:37.037037 4014:55.555557 #
-1.9620731038846548623891946627751e-05 1:0.21400446 3:0.32345712 5:0.14920029 10:0.85493833 12:0.38346499 13:0.57493734 17:0.1639183 18:0.18303621 22:0.43182555 24:0.47609979 25:0.96302003 34:0.76519877 36:0.46057481 49:0.16649462 64:0.71818441 69:1.145213 70:1.3892748 71:0.30266345 73:0.23738308 88:0.64201337 89:0.61858219 90:0.37748671 92:0.25525832 93:0.12517838 98:0.28776151 99:1.2106538 112:0.22966331 119:1.5133172 147:0.8071025 149:0.18146844 167:0.41542041 173:0.34590107 179:0.23540489 191:1.1299435 193:1.2106538 198:0.13220868 204:0.2290426 210:0.33364475 230:0.67796612 233:0.37006882 242:0.20873341 268:0.40939981 291:0.40939981 317:2.118644 329:0.2347528 330:6.5189047 331:0.48426151 359:0.82277441 427:0.75665861 428:3.2594523 429:0.30594137 430:10.593221 431:42.372883 432:21.186441 433:16.949152 434:84.745766 435:0.72432274 436:42.372883 437:21.186441 438:21.186441 439:84.745766 440:28.248587 441:14.124293 442:2.7337344 443:2.2301517 444:2.0177562 445:1.6616817 446:5.2966104 447:42.372883 448:42.372883 449:1.569366 450:2.1729684 451:3.3898306 452:42.372883 453:0.81486309 454:9.4161959 455:1.5133172 456:28.248587 #
-1.4039261166036578633146449102131e-05 2:0.19931436 3:0.17192765 5:0.31721863 10:0.68164003 11:0.34517276 12:0.54352993 13:0.61119467 17:0.17425549 18:0.19457904 19:1.2174337 22:0.5738222 23:3.4650035 24:0.12653102 25:0.34125033 50:1.3151838 73:0.37852979 93:0.26614502 94:0.4482094 98:0.15295431 112:0.48829317 141:0.44599053 149:0.5787372 151:1.8138944 179:0.5005005 198:0.56218463 204:0.24348673 206:0.1699813 222:1.4300014 230:0.72072071 267:0.5738222 268:0.43521783 278:0.58500057 279:0.50612408 291:0.43521783 312:1.668335 321:0.54600054 329:0.24955703 332:2.906132 362:0.65759188 364:0.36036035 375:0.63443726 400:5.299417 506:0.94831675 666:3.3366699 689:0.67736912 716:2.3707919 717:4.5045047 776:2.5740025 799:0.99000096 827:0.71500069 841:1.1700011 860:0.55611169 1137:8.1900082 1181:3.3366699 1199:7.5075073 1200:11.261261 1274:5.6306305 1349:22.522522 1502:2.2522523 1565:4.7415838 1712:10.01001 1773:45.045044 1806:12.870013 1833:4.2900043 1894:5.6306305 2040:6.4350066 2042:2.7300026 2281:30.030029 3584:30.030029 3801:45.045044 4043:90.090088 4044:45.045044 4045:90.090088 4046:90.090088 #
-5.4523301696257362103847574075211e-06 5:0.86585087 10:0.62018067 13:1.3346087 18:0.35407004 22:0.20883366 24:0.69073492 25:0.62096375 29:0.40477636 43:0.46048996 49:0.32207155 51:1.3328003 68:2.8264556 88:0.82795167 93:0.48429668 96:0.60942167 98:0.27832669 126:2.6874497 127:1.9062142 148:1.5039855 153:1.6900456 202:0.8450228 206:0.30931023 241:0.59396529 284:1.7165909 323:23.419203 449:3.0358226 466:0.60049242 522:7.2859745 585:1.1793844 670:5.6529112 684:1.1709602 689:1.2325897 708:4.4306602 962:2.6874497 1180:40.983608 1266:4.6838408 1516:10.245902 2116:81.967216 3155:54.64481 3255:81.967216 3301:7.8064013 3419:54.64481 3420:54.64481 3421:163.93443 #
-1.687958138699376293718340535932e-05 2:0.61455262 10:1.4011489 11:0.53214133 12:0.418971 13:0.75380671 22:1.0615711 25:0.35072953 51:2.2583559 73:0.38904449 106:1.1022928 107:1.2291052 111:3.6549706 121:3.1565657 173:1.1337868 182:2.9239767 183:0.95129377 224:2.0576131 267:1.7692852 302:1.7921147 331:3.1746032 488:23.148148 489:9.2592592 516:2.153316 545:3.7037036 1013:18.518518 1533:8.1699343 1715:9.9206352 1834:55.555557 3865:138.88889 #
4.0215615162596969058787094164487e-05 2:0.17018379 3:0.14679976 5:0.40628386 10:0.58201569 11:0.29472443 13:0.62623942 18:0.66456223 22:0.097991183 24:0.64822817 25:0.38850039 35:0.69930071 36:0.41806021 46:0.47778308 49:0.15112589 73:0.53867704 90:0.34264177 92:0.34754401 93:0.11362346 94:0.38270187 98:0.13059945 106:0.61050063 140:0.80128205 149:0.16471751 151:1.0325245 153:0.79302144 173:0.31397173 183:0.52687037 198:0.36001441 204:0.20790021 206:0.14513788 212:0.34650034 222:0.61050063 224:1.1396011 230:0.92307693 265:1.3736264 267:0.4899559 297:0.45516613 321:0.46620047 348:1.8761727 444:1.8315018 466:0.28176951 471:10.989011 506:1.6194332 548:3.2051282 661:0.63572788 728:1.1148272 733:0.75414783 740:2.1367521 768:1.7094017 775:2.5641026 822:5.1282053 974:9.6153851 1076:10.989011 1092:6.4102564 1111:3.0769231 1112:38.46154 1284:3.6630037 1525:25.641026 1631:10.989011 1971:5.1282053 2184:9.6153851 2234:8.5470085 2242:2.3310022 2656:19.23077 2724:8.0971661 2878:25.641026 3256:38.46154 3458:30.76923 3503:5.1282053 3587:19.23077 3821:25.641026 4765:76.92308 4766:76.92308 4767:38.46154 4768:76.92308 4769:76.92308 4770:76.92308 #
4.5701788607336606595939187958066e-05 3:0.3262217 5:0.300951 10:0.64668411 11:0.16373579 13:0.46388108 14:2.1367521 17:0.16531931 18:0.18460062 22:0.43551636 24:0.24008451 25:1.2950013 36:0.46451133 49:0.67167062 71:0.30525032 73:0.119706 89:0.62386924 90:0.5710696 92:0.51488006 93:0.25249657 96:0.31773266 98:0.58044201 106:0.339167 111:1.1246064 112:0.23162624 183:0.29270577 198:0.13333866 199:0.29574424 203:1.7094017 206:0.16126432 212:0.38500038 222:0.678334 230:0.34188035 241:0.30967423 249:0.6837607 264:0.54788518 291:0.82579792 321:0.51800054 329:0.23675925 335:0.84623849 358:4.7483382 362:0.62386924 364:0.34188035 382:0.58541155 427:0.76312578 435:0.73051357 482:1.675884 611:0.46451133 731:5.6980057 837:0.65244341 936:8.5470085 946:1.7266684 1031:4.1692724 1160:1.9425019 1257:5.0276523 1321:5.3418803 1480:0.84623849 1733:14.245014 1751:17.094017 1860:1.8993353 1881:12.210012 1949:17.094017 1974:3.5612535 2497:6.1050062 2522:14.245014 2525:18.993353 3548:28.490028 3621:42.735043 3871:21.367521 4200:28.490028 4201:28.490028 4202:42.735043 4203:85.470085 #
4.5701788607336606595939187958066e-05 2:0.076289289 3:0.065806791 5:0.12141816 10:0.69574291 11:0.13211785 12:0.62412232 13:0.18715201 15:0.28735632 17:0.066697791 18:0.074476801 22:0.83461452 24:0.53273922 25:0.69662136 29:0.25542784 34:0.15567836 35:0.31347963 36:0.1874063 39:0.68965518 46:0.85671449 49:0.20323826 73:0.33806625 83:0.84104288 88:0.08707767 90:0.23039705 92:0.10386373 93:0.2037386 94:0.17155601 96:0.1281887 98:0.17563374 106:0.2736727 132:0.1724138 134:3.1347961 136:1.7241379 149:0.36919442 151:0.23142791 167:0.084516563 169:0.68965518 173:0.14074595 174:0.25169897 183:0.23618327 188:0.19481784 198:0.69933832 202:0.17774618 204:0.093196645 206:0.19518542 231:0.90744102 237:1.5673981 241:0.24987507 242:0.084932901 249:0.27586207 252:0.53050399 284:0.180538 289:1.1494253 290:0.44208664 295:0.34482759 302:0.2224694 321:0.20898642 329:0.095520109 338:4.9261084 345:0.82101804 350:1.5673981 359:0.33478406 364:0.13793103 381:0.30515715 387:1.9157088 397:1.0141988 398:1.2771392 406:2.2988505 410:1.32626 423:0.28735632 424:0.1993223 453:0.66312999 458:0.98522168 463:1.7241379 465:1.6420361 466:0.25262094 498:0.93196642 520:2.224694 539:0.43103448 547:1.814882 573:0.66312999 585:0.24807741 589:1.2315271 593:11.494253 599:0.33156499 624:0.39635354 666:1.2771392 712:0.68965518 885:0.80192465 888:1.0775862 901:0.29472443 949:3.4482758 975:17.241379 995:5.7471266 996:1.4367816 1011:3.1347961 1038:1.3793104 1055:2.6525199 1088:1.4367816 1093:2.2988505 1209:0.88417327 1248:6.8965516 1262:1.9157088 1344:5.7471266 1348:1.112347 1396:3.1347961 1397:6.8965516 1420:17.241379 1449:2.8735633 1495:0.98522168 1503:2.8735633 1525:11.494253 1536:1.4367816 1551:6.8965516 1600:4.9261084 1605:3.1347961 1656:1.7683465 1669:0.71839082 1726:0.63856959 1894:2.1551723 1979:1.7241379 2139:2.2988505 2216:6.8965516 2295:4.9261084 2306:6.8965516 2309:6.8965516 2351:3.8314176 2502:2.3781214 2585:11.494253 2612:11.494253 2951:11.494253 2985:2.8735633 3204:17.241379 3417:4.3103447 3527:11.494253 3548:5.7471266 3572:3.1347961 3942:8.6206894 4324:11.494253 4821:34.482758 4822:34.482758 4823:11.494253 4824:34.482758 4825:34.482758 4826:34.482758 4827:34.482758 4828:34.482758 4829:34.482758 4830:34.482758 4831:34.482758 4832:6.8965516 4833:8.6206894 #
4.5701788607336606595939187958066e-05 1:0.56116724 10:1.1209191 12:0.67035359 22:1.1323426 24:0.62421972 25:0.28058362 34:0.50163031 35:1.010101 71:1.5873016 73:0.31123561 81:6.1728396 92:0.33467203 93:0.32824552 98:0.3772873 107:0.98328418 111:2.9239767 167:1.0893246 173:0.90702945 242:1.0946908 331:1.2698413 482:1.4524329 523:17.094017 687:1.7777778 903:22.222221 946:2.244669 1055:8.5470085 1460:31.746031 1499:11.111111 1535:74.074074 1603:37.037037 1833:10.58201 1971:7.4074073 2493:20.202021 3329:18.518518 #
1.0705887812908115568218646307397e-05 1:0.84175086 5:0.29342723 10:1.0508617 11:0.3192848 12:0.75414783 13:0.45228404 17:0.32237267 22:0.42462844 25:0.42087543 49:0.32743943 73:0.23342671 92:0.25100401 93:0.24618414 94:0.82918739 147:1.5873016 150:1.8939394 169:1.6666666 196:0.59737158 200:0.81699347 224:1.2345679 241:0.60386473 252:2.5641026 265:0.59523809 267:1.0615711 347:8.7719297 356:2.7322404 424:0.96339113 429:1.2033694 475:2.3474178 508:2.7322404 573:3.2051282 635:4.2735043 656:2.4875622 702:3.7037036 768:3.7037036 867:20.833334 1114:16.666666 1301:6.9444447 1487:23.809525 1502:4.1666665 1726:3.0864198 1798:27.777779 4095:27.777779 4808:55.555557 4834:166.66667 4835:166.66667 4836:166.66667 4837:166.66667 #
-1.9852142901726387220259079091633e-05 1:0.45500046 2:0.19931436 3:0.17192765 10:0.56803334 11:0.17258638 13:0.48895571 18:0.58373708 21:0.91000092 22:0.45905778 24:0.12653102 25:1.023751 29:0.44488934 34:0.20336363 36:0.48962006 43:0.25306204 46:0.55956578 49:0.35398856 51:0.73243976 71:0.32175031 73:0.25235319 82:1.2870013 84:0.75075078 88:0.22750023 92:0.40703353 93:0.13307251 96:0.33490741 98:0.30590862 106:0.71500069 132:0.45045045 142:1.668335 149:0.1929124 162:0.85800087 170:0.77663869 204:0.48697346 206:0.3399626 234:3.2175033 236:3.4650035 242:0.22189677 257:2.1973193 260:11.261261 264:0.57750058 265:0.32175031 275:5.148005 284:0.47167587 293:0.61705542 361:1.3446282 381:0.39862871 402:5.299417 429:0.32523498 480:4.0950041 482:0.58882409 508:1.4768867 545:1.2012012 584:1.8018018 599:0.86625087 605:1.6380017 606:1.0355183 607:1.3056535 635:2.3100023 639:3.6036036 657:6.6733398 678:2.0951183 679:2.1450021 777:2.8153152 859:2.906132 1001:3.3366699 1021:9.0090094 1306:6.0060062 1752:2.906132 1858:11.261261 1891:12.870013 3097:18.018019 3406:22.522522 3581:3.3366699 3617:90.090088 3618:90.090088 3619:90.090088 3620:18.018019 3621:45.045044 #
-6.9000888200385915714654520847215e-06 5:0.20236361 10:0.28989288 11:0.22019641 13:0.62384003 18:0.74476802 22:0.58569443 24:0.48430842 25:0.14512946 29:0.56761742 34:0.51892787 35:1.0449321 46:0.71392876 59:1.2914891 71:0.41050902 73:0.16098393 88:0.29025891 90:0.25599673 92:0.34621245 94:1.1437068 112:0.31149736 132:0.57471263 173:0.46915317 179:0.3192848 183:0.39363879 198:0.17931752 206:0.21687269 230:0.91954023 242:0.28310966 362:0.83899659 363:0.97408921 375:0.80945444 429:0.41495499 442:3.7078235 449:2.1285653 466:2.5262094 475:1.6189089 506:1.2099214 525:2.2988505 845:7.6628351 974:14.367816 1006:2.0898643 1063:14.367816 1075:3.591954 1076:5.4734535 1284:5.4734535 1365:9.5785437 1508:3.3806627 1631:16.420361 1656:2.9472444 1731:3.9635355 1957:38.314175 2065:12.771392 2066:28.735632 2493:10.449321 2619:28.735632 3587:28.735632 3817:114.94253 3818:114.94253 3819:114.94253 3820:114.94253 3821:38.314175 3822:114.94253 3823:114.94253 #
-4.5701788607336606595939187958066e-05 5:0.42423213 6:6.0240965 10:0.60772723 11:0.23080829 13:0.16347615 17:0.23304048 18:0.26022014 22:0.30696031 24:0.67686474 25:1.0648655 29:0.29748625 34:0.81590468 43:0.33843237 49:0.4734064 66:2.9385836 73:0.5062266 90:0.80500174 92:0.36289737 93:0.3559289 98:0.20455335 102:1.1053388 120:0.91970938 126:1.9751135 127:1.4009527 132:0.60240966 174:1.7588602 196:0.43183488 198:0.37591866 206:0.2273244 210:0.47433829 238:0.7674008 265:0.86058521 278:0.39117509 297:0.71291083 348:2.9385836 382:0.82521868 386:0.92678404 423:1.004016 424:0.69642735 560:1.2169892 600:1.4515895 606:1.3848498 607:1.7461149 684:0.86058521 685:5.2383447 721:3.170577 778:5.7372346 1187:15.060241 1188:3.7650602 1646:3.8865137 2154:10.952903 2878:40.160641 3527:40.160641 #
-4.4802590212701251732359958301899e-05 1:0.66454011 3:0.2008839 5:0.092661232 8:0.84889644 10:0.66370213 12:0.55568784 13:0.14282654 17:0.40720758 18:0.11367512 22:0.60341936 24:0.14784151 25:0.9968102 34:0.23761435 35:0.23923445 39:1.0526316 43:0.14784151 44:0.39424405 46:0.32690421 59:0.29568303 69:0.71123755 73:0.36856848 88:0.26581606 92:0.3170577 93:0.15548472 94:0.26184866 96:0.19565643 98:0.26807255 99:0.37593985 107:0.2328831 141:0.26055238 144:1.6447369 148:0.48285851 149:0.11270145 155:1.9493177 167:0.51599586 172:2.1052632 179:0.29239765 186:0.6119951 196:0.3772873 198:0.24632564 199:0.1821162 205:0.86281276 206:0.099304862 209:2.5062656 212:0.23707919 241:0.38138825 249:0.84210527 261:2.1052632 265:0.18796992 268:0.25425884 270:2.2883296 283:0.3629764 290:1.0121458 329:0.14579384 364:0.42105263 390:3.0959752 397:0.77399379 424:0.30422878 429:0.38001141 435:0.44984254 445:1.0319917 460:0.47415838 466:0.57836902 479:0.75187969 501:0.92336106 508:0.86281276 516:0.40799674 520:1.6977929 527:1.3157895 539:0.65789473 551:10.526316 578:0.52631581 585:0.37864447 598:2.9239767 599:0.50607288 606:0.60496068 607:0.76277649 684:0.37593985 724:1.7256255 733:0.51599586 764:2.3923445 774:5.8479533 860:0.32488629 935:6.5789475 1028:3.5087719 1115:2.2883296 1166:6.5789475 1181:1.9493177 1418:2.5062656 1437:1.9493177 1653:1.6447369 1668:6.5789475 1725:0.99304867 2123:8.7719297 2180:1.7543859 2382:6.5789475 2428:4.3859649 2523:4.7846889 2632:7.5187969 2667:5.2631578 2964:8.7719297 3143:5.0933785 3199:26.31579 3200:52.63158 3201:26.31579 3202:52.63158 3203:10.526316 3204:52.63158 3205:10.526316 3206:26.31579 #
-1.649811341956187267163147502913e-05 1:0.26033533 3:0.19674195 6:2.5773196 7:1.0207206 10:0.78002107 12:0.46648318 18:0.4453252 19:1.3931457 22:0.65664196 24:0.4343797 25:0.78100592 43:0.28958648 49:0.20253985 70:1.6900456 73:0.43316296 81:2.8636885 90:0.2296053 92:0.46578065 93:0.15227886 95:1.7473353 99:0.736377 123:1.7774618 124:2.2411475 164:5.5228276 170:0.88873088 173:0.42078686 191:1.3745705 198:0.16083117 205:1.6900456 206:0.19451469 224:0.76365024 241:0.37352458 256:0.76934916 257:7.5433745 258:3.3986633 264:0.66085118 273:3.2216494 278:0.33471683 337:0.85200649 364:0.41237113 429:0.37217611 491:6.0642815 535:3.4364262 585:0.74167472 599:0.99127674 701:3.1240237 854:2.2909508 1139:3.965107 1344:17.182131 1468:17.182131 1707:8.5910654 1855:4.9091802 1961:20.618557 1976:14.727541 1977:51.546391 1978:4.6860356 1979:5.1546392 1980:34.364262 1981:51.546391 1982:103.09278 1983:34.364262 1984:34.364262 1985:11.454754 1986:51.546391 1987:51.546391 1988:20.618557 1989:51.546391 #
4.5701788607336606595939187958066e-05 2:0.31160414 3:0.67197078 5:0.24796668 10:0.53283131 11:0.26981816 12:0.53109002 13:0.38221186 17:0.4086414 18:0.1521005 22:0.62797165 24:0.49454027 25:0.88917345 36:0.38273117 44:0.52750963 49:0.13835469 73:0.197262 90:0.15684307 92:0.31817409 93:0.20804293 109:2.608242 141:0.34862641 149:0.15079772 162:0.67069083 167:0.51781279 173:0.28743893 174:0.51403308 179:0.78247261 194:1.0060362 198:0.98877198 199:0.24367659 200:0.3452085 202:0.36300275 203:1.4084507 204:0.19033118 210:0.27725407 216:1.5309247 230:0.28169015 264:0.45142651 279:0.39563221 293:0.48234612 297:0.41670141 298:2.608242 321:0.85360646 359:0.68371391 360:4.1425023 362:0.51403308 391:1.4983518 394:11.737089 397:1.0356256 435:0.60190201 468:1.6377333 525:1.4084507 560:1.4226775 616:5.4171181 681:14.084507 721:0.92661232 798:5.0301809 808:11.737089 810:6.4020486 1161:3.2010243 1238:5.8685446 1239:5.4171181 1411:1.304121 1517:5.8685446 1563:3.5211267 1737:10.060362 1746:6.4020486 1792:17.605635 1858:8.8028173 1911:2.0712512 2198:6.4020486 2277:7.8247261 2502:4.8567266 2936:11.737089 3122:23.474178 3174:23.474178 3538:5.4171181 4353:35.211269 4845:70.422539 4846:70.422539 #
4.5701788607336606595939187958066e-05 2:0.41743195 3:0.36007491 5:0.22145452 10:0.5551722 11:0.36145449 12:0.094861358 13:0.59735626 17:0.12165006 22:0.40059286 24:0.7949968 25:0.63528365 49:0.24712409 71:0.22461815 73:0.35234219 82:0.89847261 92:0.18943699 93:0.27869904 98:0.42711771 106:0.24957572 109:2.3293734 141:0.62270379 148:0.57700074 149:0.67337346 151:0.84420246 167:0.15414971 173:0.25670645 174:0.4590736 179:0.349406 188:0.35532814 194:0.89847261 198:0.49058565 199:0.43524623 200:0.30829942 202:0.32419115 205:1.0310341 206:0.35599858 210:0.24761055 224:0.46587467 242:0.15490907 247:1.0659845 249:0.50314468 267:0.40059286 284:0.32928315 297:0.37214842 321:0.38117018 331:0.35938904 375:0.44290903 410:2.4189646 424:0.36354384 447:31.446541 460:0.56660432 469:0.64176613 482:0.41106591 491:3.6995931 507:0.9387027 534:4.492363 594:3.3101623 610:2.8587763 629:2.2461815 684:0.4492363 699:8.984726 721:0.82754058 778:2.9949086 799:0.69113278 837:0.48009986 887:20.964361 901:0.53754771 957:8.984726 1003:1.1033874 1139:2.4189646 1234:1.572327 1303:8.984726 1373:8.984726 1375:4.8379292 1411:1.1646867 1447:1.2578616 1480:0.62270379 1600:8.984726 1830:1.9654088 1962:2.7344818 1971:2.096436 1976:8.984726 2064:2.5157232 2154:5.7175527 2830:3.6995931 2954:8.984726 2985:5.2410903 3220:10.482181 3417:7.8616352 3435:10.482181 4074:20.964361 4409:10.482181 4415:62.893082 4416:62.893082 4417:62.893082 4418:62.893082 #
4.5701788607336606595939187958066e-05 1:1.1961722 2:0.11644155 5:0.46330616 7:0.52110475 10:0.33185107 11:0.20165356 12:0.39691991 13:0.28565308 15:0.43859649 17:0.10180189 22:0.53637278 24:0.59136605 25:0.66454011 29:0.12995452 34:0.23761435 36:0.2860412 39:1.0526316 41:0.44228217 44:0.19712202 64:0.89206064 73:0.51599586 74:1.4619883 80:7.5187969 88:0.39872408 90:0.11721955 93:0.23322709 98:0.17871504 99:0.37593985 120:0.80353558 123:1.814882 124:2.2883296 126:0.86281276 127:0.6119951 147:0.50125313 148:0.48285851 149:0.11270145 150:0.59808612 151:0.35323209 166:1.1198208 179:0.29239765 182:0.55401665 183:0.54073542 189:0.52110475 198:0.08210855 200:0.25799793 206:0.19860972 233:0.22983222 238:0.33523297 241:0.19069412 256:0.39277297 258:0.57836902 261:2.1052632 264:0.33738193 267:0.33523297 278:0.17088175 283:0.3629764 284:0.27555799 295:0.52631581 329:0.29158768 331:0.30075186 359:0.51098621 364:0.21052632 384:0.84889644 386:0.40485829 424:0.30422878 429:0.38001141 450:1.3495277 455:0.93984962 460:0.47415838 466:0.19278967 482:0.68799448 506:0.55401665 527:1.3157895 573:1.0121458 627:1.3157895 634:8.7719297 648:0.50125313 662:2.1052632 678:1.2239902 679:1.2531328 687:0.42105263 702:1.1695906 716:0.6925208 759:0.86281276 784:2.7700832 830:1.1961722 841:0.68352699 856:0.6418485 1003:0.92336106 1013:3.5087719 1078:2.1929824 1153:1.0741138 1169:0.86281276 1173:2.2883296 1200:6.5789475 1266:1.5037594 1268:0.70175439 1315:2.0242915 1487:3.7593985 1533:1.5479876 1609:8.7719297 1974:2.1929824 2310:5.8479533 3032:17.543859 3043:13.157895 3254:17.543859 3367:26.31579 3641:10.526316 3971:7.5187969 4433:26.31579 4482:7.5187969 4483:52.63158 4484:52.63158 4485:105.26316 #
4.5701788607336606595939187958066e-05 2:0.36268678 3:0.31285197 5:0.14430848 10:0.93027103 11:0.15702531 12:0.61815393 13:0.5560869 14:2.0491803 17:0.31708786 18:0.35407004 22:0.31325048 25:0.82795167 36:0.445474 41:0.6888001 46:0.50911313 71:0.29274005 73:0.6888001 84:0.68306011 88:0.20698792 92:0.12344459 93:0.24214834 136:4.0983605 141:0.40577829 149:0.52655596 151:1.1002311 167:0.20090003 168:1.4132278 169:0.81967211 173:0.33456007 188:0.46309161 198:0.7672438 206:0.15465511 209:1.9516003 230:0.32786885 242:0.20188969 267:0.52208418 283:0.56529111 306:10.245902 317:2.0491803 331:0.46838409 337:0.67741501 345:1.9516003 356:1.3437248 359:0.79579818 375:0.57723391 383:2.0491803 398:1.5179113 435:0.70057446 455:1.4637002 456:27.322405 458:2.3419204 465:3.9032006 482:0.5357334 506:1.7256255 508:2.6874497 519:11.709601 520:2.6441038 578:0.81967211 591:1.4903129 605:1.4903129 627:1.0245901 661:0.67741501 676:2.9274004 728:1.1879306 777:2.5614755 986:4.0983605 1187:10.245902 1437:3.0358226 2042:4.96771 2043:5.122951 2055:3.7257824 2190:40.983608 2672:11.709601 4605:81.967216 4606:81.967216 #
4.5701788607336606595939187958066e-05 3:0.28064662 8:2.3719165 10:0.55633855 12:0.44361636 13:0.19953707 18:0.6352433 22:0.93668038 25:1.114082 29:0.36310822 34:0.66392243 71:0.52521008 92:0.44294825 93:0.43444261 98:0.49935085 106:0.58356678 107:0.65070277 149:0.31490111 167:0.36043829 196:0.52709258 198:0.91768378 206:0.55493897 210:0.57897174 242:0.36221385 252:4.5248871 278:0.47746372 362:1.0734221 381:0.65070277 410:5.6561084 424:0.85005099 433:29.411764 450:3.7707391 482:0.96116877 506:1.5479876 591:2.6737969 627:1.8382353 724:2.4108005 763:2.3342671 1016:8.6505194 1536:3.0637255 1537:73.529411 1614:24.509804 1710:4.3252597 2653:5.8823528 3019:36.764706 3650:73.529411 4889:147.05882 #
-1.887742716162324815984061010532e-05 1:0.91827363 10:0.45855784 11:0.34831068 12:0.27423558 13:0.24670038 17:0.35167927 22:0.69484657 25:1.3774104 29:0.44893378 90:0.40494028 92:0.54764515 93:0.26856452 138:2.0661156 139:6.4935064 148:1.6680567 149:0.38933229 150:2.0661156 167:0.89126557 179:0.50505048 196:0.65167809 238:0.5790388 283:1.2539185 329:0.5036515 375:1.2804097 381:0.80450523 384:2.9325514 407:5.1948051 429:0.65638334 441:30.30303 506:1.9138756 548:7.5757575 657:13.468014 676:6.4935064 684:1.2987013 721:2.3923445 741:9.5693779 827:1.4430014 1501:30.30303 1536:3.7878788 1537:90.909088 1538:181.81818 1539:20.202021 1540:20.202021 #
-2.0062494531328846505231419672377e-05 2:0.25429764 5:0.20236361 10:0.72473222 12:0.34673461 13:0.46788004 16:1.4927601 17:0.22232598 22:0.43927082 24:0.64574456 25:0.72564727 46:0.71392876 51:0.93449211 71:0.41050902 73:0.32196787 90:0.51199347 93:0.16978218 95:0.97408921 98:0.1951486 106:0.45612115 107:0.50859529 149:0.24612962 167:0.28172189 170:0.99088389 188:0.64939284 192:0.72290897 202:0.59248728 203:2.2988505 206:0.21687269 220:2.4455857 230:1.3793104 238:0.73211801 242:0.28310966 249:0.91954023 250:1.7683465 258:1.2631047 265:0.82101804 266:3.5366931 283:0.79270709 293:0.78727758 361:1.7155601 413:4.5977011 453:1.1052166 466:0.8420698 484:1.9481784 508:3.7686076 589:2.0525451 599:1.1052166 638:3.192848 661:0.94993824 687:0.91954023 689:0.86422956 775:1.2771392 827:0.91224229 841:1.4927601 889:2.4987507 948:1.7415534 1257:6.7613254 1362:5.4734535 1710:3.3806627 3367:57.471264 3368:114.94253 3369:114.94253 #
-2.6899950305240184230239422480402e-05 3:0.10602205 7:0.55005503 10:0.77063191 11:0.3192848 12:0.1675884 13:0.22614202 15:0.46296296 17:0.10745756 18:0.2399808 19:0.75075078 22:0.28308564 24:0.39013731 25:0.84175086 34:0.12540758 43:0.62421972 44:0.20807324 46:0.69013113 49:0.4365859 50:0.40551502 59:0.31210986 72:0.63856959 73:0.38904449 88:0.14029181 90:0.24746349 92:0.33467203 93:0.16412276 94:0.5527916 96:0.20652623 98:0.3772873 112:0.30111411 138:1.2626263 139:1.9841269 149:0.23792529 151:0.37285608 153:1.1454754 169:0.55555558 183:0.38051751 188:0.3138732 189:0.55005503 198:0.52002078 199:0.19223376 204:0.6006006 212:0.5005005 216:1.2077295 238:0.17692852 241:0.40257648 246:9.2592592 247:0.94161958 248:1.4619883 284:0.58173358 297:0.32873109 302:0.35842294 321:0.6734007 331:0.31746033 336:1.2345679 375:0.39123631 398:1.0288066 424:0.32113037 435:0.47483382 466:0.2035002 514:1.4245014 568:1.6339869 670:1.9157088 715:1.8518518 734:7.9365077 778:2.6455026 841:0.72150069 856:0.6775068 949:5.5555553 950:4.2735043 961:6.9444447 989:2.4154589 1023:5.0505052 1122:5.5555553 1123:0.97465885 1201:7.9365077 1479:3.9682539 1495:1.5873016 1521:3.7037036 1704:5.5555553 1885:13.888889 1960:4.2735043 1978:2.5252526 2042:3.3670034 2065:6.1728396 2073:3.2679739 2110:27.777779 2145:7.9365077 2163:18.518518 2165:7.9365077 2173:18.518518 2186:3.7037036 2187:18.518518 2188:55.555557 2189:27.777779 2190:27.777779 2191:27.777779 2192:55.555557 2193:4.2735043 2194:55.555557 2195:9.2592592 2196:18.518518 2197:27.777779 2198:5.0505052 2199:5.0505052 2200:6.1728396 2201:11.111111 #
-1.0384425498340592802044499154412e-05 2:0.29498526 3:0.25445291 5:0.23474178 6:3.3333333 10:0.84068936 11:0.25542784 13:0.18091361 22:0.84925687 24:0.9363296 25:0.6734007 29:0.65843624 34:0.30097818 35:0.60606062 44:0.99875158 49:0.78585464 51:1.0840108 71:0.47619048 73:0.37348273 88:0.6734007 90:0.8908686 92:0.40160644 93:0.19694732 96:0.49566296 106:0.52910054 107:0.58997053 132:0.66666669 149:0.28551036 173:0.54421771 174:0.97323602 198:0.20800832 203:2.6666667 206:0.25157234 242:0.32840723 267:0.84925687 363:1.1299435 374:3.5087719 450:3.4188035 466:0.48840049 561:2.3809524 685:5.7971015 712:2.6666667 721:1.7543859 887:44.444443 903:13.333333 1214:8.333333 1632:4.5977011 1693:22.222221 1711:133.33333 1712:14.814815 1713:133.33333 1714:133.33333 #
-6.42377573733991155669181133403e-06 1:0.345925 3:0.52284849 10:0.51823318 12:0.82646334 13:0.18587016 18:0.29586673 22:0.34900969 24:0.38479298 25:0.51888752 34:0.30922416 35:0.62266499 43:0.38479298 44:0.51305729 58:3.1133251 59:0.76958597 73:0.57557267 93:0.20234314 112:0.37123659 139:4.8923678 148:1.2567551 149:0.58666509 151:1.8387423 157:17.123287 158:6.8493152 167:0.33575073 179:0.38051751 196:0.49099034 230:0.5479452 242:0.33740467 278:0.44476071 283:0.94473308 291:0.66176957 375:0.96469223 450:3.5124693 468:1.5928639 479:1.9569472 510:11.415525 589:2.4461839 689:1.0299722 803:3.1133251 880:15.2207 1076:13.046314 1123:2.4032683 1153:2.7956388 1199:11.415525 1410:22.831051 1573:9.7847357 2097:10.537408 2724:7.2098055 2971:68.493149 3312:45.662102 3789:45.662102 4071:136.9863 4072:5.4794521 4073:136.9863 4074:45.662102 4075:136.9863 #
3.5778776567990463347047891407016e-05 1:0.97125095 2:0.17018379 3:0.14679976 5:0.40628386 10:0.67901832 12:0.11602274 13:0.5218662 22:0.39196473 24:0.21607606 25:0.77700078 34:0.17364126 35:0.34965035 36:0.83612043 39:1.5384616 73:0.64641243 90:0.17132089 92:0.34754401 93:0.22724691 115:3.3444817 141:0.38080731 147:0.73260075 149:0.32943502 150:1.7482518 151:0.51626223 167:0.18853696 169:0.76923078 191:1.0256411 198:0.36001441 199:0.53233963 206:0.29027575 209:3.6630037 229:1.9230769 242:0.1894657 258:1.6906171 262:1.8761727 283:0.53050399 290:0.49309665 321:0.46620047 368:15.384615 375:0.54171181 382:0.52687037 426:2.7472527 429:0.83310193 445:1.5082957 455:1.3736264 466:0.56353903 568:2.2624435 611:0.41806021 716:1.0121458 1037:3.3444817 1043:7.6923075 1116:4.2735043 1123:1.3495277 1173:3.3444817 1301:3.2051282 1437:2.8490028 1447:1.5384616 1473:4.5248871 1487:5.4945054 1500:4.2735043 1502:3.8461537 1540:8.5470085 1795:6.9930072 1798:12.820513 1978:3.4965036 2502:2.6525199 2789:1.1655011 2979:15.384615 3199:38.46154 3429:19.23077 4095:12.820513 4438:38.46154 4775:25.641026 4805:76.92308 4806:76.92308 4807:38.46154 4808:25.641026 4809:76.92308 4810:76.92308 4811:76.92308 #
4.5701788607336606595939187958066e-05 1:0.68250066 2:0.59794307 3:0.17192765 5:0.15860932 10:0.68164003 11:0.17258638 12:0.27176496 22:0.8033511 24:0.12653102 25:1.2512512 73:0.25235319 82:1.2870013 88:0.22750023 92:0.40703353 93:0.26614502 96:0.33490741 98:0.30590862 99:0.64350063 112:0.24414659 121:1.023751 126:1.4768867 127:1.0475591 149:0.1929124 167:0.22080904 188:0.50898355 196:0.32290354 198:0.56218463 199:0.62346083 200:0.44161808 206:0.5099439 219:1.5805279 230:0.72072071 238:0.2869111 239:2.1450021 242:0.22189677 249:0.72072071 264:0.57750058 278:0.29250029 297:0.53307748 329:0.24955703 335:0.89198107 361:1.3446282 362:0.65759188 364:0.36036035 375:0.63443726 429:0.97570497 469:0.91928661 506:1.8966335 550:2.5740025 611:0.48962006 648:0.85800087 657:6.6733398 763:1.4300014 837:0.68771058 860:0.55611169 1181:3.3366699 1348:5.812264 1500:5.0050049 1502:2.2522523 1957:30.030029 2154:8.1900082 2388:2.047502 2789:1.3650013 2946:45.045044 3143:2.906132 3592:30.030029 4031:3.9169605 5113:90.090088 #
2.6787467674834818749576154095493e-05 5:0.31160414 10:0.66957557 12:0.40043247 17:0.34234264 18:0.38227031 22:0.56366611 24:0.12429154 25:0.55868417 29:0.43701518 41:0.74366027 43:0.24858308 73:0.24788676 93:0.9150207 94:0.4402765 98:0.30049431 112:0.23982541 140:0.92182893 141:0.43809691 149:0.56849408 151:0.59393001 173:0.36120644 178:5.5309734 192:0.55657595 198:0.82835174 200:0.43380183 206:0.16697279 207:2.6028111 210:0.34840778 249:0.7079646 278:0.2873233 283:0.61031431 355:6.3211126 403:0.95156533 407:2.528445 451:3.5398231 466:0.32415962 539:1.1061947 559:4.9164209 624:1.0171906 721:1.1644155 740:4.9164209 797:2.6028111 843:29.498526 851:11.061947 884:1.8436579 937:4.9164209 987:3.8476336 1045:4.4247789 1080:3.0515716 1180:22.123894 1181:3.2776139 1188:2.7654867 1258:7.3746314 1266:2.528445 1270:8.8495579 1314:8.0450525 1372:4.9164209 1423:6.8073521 1432:22.123894 1435:9.8328419 1480:0.87619382 1656:2.2691174 1698:17.699116 1825:2.1070375 2180:2.9498525 2803:14.749263 3532:44.247787 4244:44.247787 4255:44.247787 4256:88.495575 4257:88.495575 4258:5.2056222 4259:88.495575 4260:88.495575 4261:22.123894 4262:17.699116 4263:44.247787 4264:88.495575 #
3.7625837575969857233277454655607e-05 1:0.96383685 2:0.16888468 3:0.14567916 5:0.26878831 6:1.908397 8:1.2312238 10:0.67383498 11:0.14623731 13:0.62145901 17:0.1476516 18:0.49461693 19:1.0315659 22:0.38897264 24:0.21442662 25:0.96383685 29:0.56545097 44:0.28590217 51:0.62061691 64:0.64691424 73:0.32073897 88:0.38553473 92:0.11496367 93:0.22551219 98:0.12960251 132:0.76335877 147:1.4540167 149:0.49038038 167:0.18709774 179:0.42408821 204:0.20631318 206:0.28805992 209:1.8175209 241:0.55315852 262:0.93092537 264:0.48933256 277:1.3161359 302:0.49248955 333:5.0890584 355:5.4525628 381:0.33776936 383:1.908397 429:0.27558079 437:19.083969 445:1.4967819 482:0.4989273 568:4.490346 642:4.490346 657:8.4817638 661:0.63087505 670:2.6322718 730:16.963528 738:7.6335878 763:1.2116807 797:2.245173 827:0.60584033 892:12.722647 1074:7.6335878 1098:3.8167939 1122:7.6335878 1123:1.3392259 1411:1.4136274 1423:5.8719907 1466:12.722647 1579:12.722647 1590:9.5419846 1928:2.245173 1930:15.267176 2107:4.7709923 2618:8.4817638 2718:15.267176 2774:19.083969 3677:25.445293 4077:12.722647 4265:76.335876 4266:38.167938 4267:76.335876 4268:76.335876 4269:38.167938 4270:38.167938 4271:76.335876 4272:38.167938 4273:76.335876 4274:38.167938 #
3.1684929559599545002487874789665e-05 1:0.83479422 10:0.52108842 12:0.12465253 13:0.44854614 18:0.17849812 22:0.42111912 24:0.58036959 25:0.5217464 29:0.20406081 34:0.18655673 35:0.37565741 41:0.6944927 43:0.23214783 58:1.878287 64:0.70037818 73:0.57874388 84:0.68870521 90:0.36812752 92:0.3733944 93:0.24414957 96:0.3072291 98:0.14031346 99:0.5903188 112:0.22396918 132:0.41322315 149:0.17696923 167:0.40512073 177:1.0461346 189:0.81826365 194:1.1806376 197:5.9031878 198:0.25786155 199:0.28596756 206:0.31186652 209:1.9677292 211:20.661158 212:0.74454618 238:0.26319945 284:0.86538875 291:0.3992494 302:0.53319114 329:0.22893248 335:0.81826365 337:0.68301344 364:0.33057851 386:0.63572788 429:0.59671211 449:1.5304561 460:1.4890924 482:1.0803219 522:1.8365473 532:2.4307244 589:1.4757969 591:1.5026296 611:0.4491556 648:0.78709167 656:1.2335019 721:1.0874293 841:1.0733068 934:1.2913224 962:1.35483 1156:1.2521913 1269:1.9219681 1291:3.7565739 1399:4.5913682 1443:6.3572793 1480:0.81826365 1585:9.1827364 1656:2.1190929 1665:11.806376 1760:13.774105 2382:10.330579 2729:16.528925 2789:1.2521913 3234:16.528925 3859:27.54821 4914:82.64463 4915:41.322315 4916:82.64463 4917:82.64463 4918:82.64463 4919:82.64463 4920:27.54821 4921:82.64463 #
-4.5701788607336606595939187958066e-05 1:0.25611082 2:0.26925632 3:0.077419758 5:0.17855613 8:0.32716089 10:0.53715444 12:0.18356539 13:0.44035769 16:0.26342824 17:0.11770198 18:0.17523953 22:0.33591297 24:0.65524077 25:0.76833242 29:0.30050334 35:0.092199892 36:0.110239 41:0.34090716 43:0.22790983 44:0.075969949 46:0.25197485 49:0.15940256 59:0.45581967 61:0.40977728 63:0.22790983 64:0.1718981 66:0.98946226 71:0.21732831 73:0.25568035 77:1.352265 87:0.39772502 88:0.10244432 89:0.14805822 90:0.090351783 92:0.12219262 93:0.1498078 98:0.17218995 99:0.28977108 102:0.18609151 106:0.080491967 109:0.75125837 112:0.10994025 118:0.96590358 119:0.36221385 121:0.23049973 132:0.10141988 134:0.92199892 149:0.086869277 153:0.20911315 162:0.19318072 166:0.43157396 169:0.20283976 178:1.2677485 179:0.16903313 182:0.21351553 183:0.55572534 191:0.27045301 198:0.28479841 199:0.070186764 200:0.099431254 202:0.10455658 204:0.16446467 206:0.038271651 210:0.31943268 212:0.18273851 217:0.32196787 228:0.18439978 230:0.32454363 231:1.0675777 233:0.088576309 238:0.06459865 242:0.099921063 252:0.31206116 253:0.88191199 261:0.81135905 265:0.07244277 266:0.31206116 278:0.06585706 293:0.13893133 295:0.20283976 297:0.36007059 298:0.75125837 312:0.75125837 331:0.11590843 351:0.32716089 358:0.56344378 362:0.14805822 364:0.32454363 365:1.2677485 377:0.78015292 380:1.4488554 381:0.17950422 382:0.13893133 386:0.46809176 392:1.8439978 398:0.37562919 407:0.57954216 424:0.11724842 427:0.36221385 428:0.78015292 429:0.58581877 435:0.52010196 443:0.53378886 450:0.52010196 453:0.19503823 460:0.36547703 465:1.9318072 466:0.22290084 477:2.2537751 479:0.28977108 484:0.34379619 489:0.6761325 491:1.1931751 508:0.33252418 510:0.84516567 513:1.1268876 516:0.15724012 520:0.65432179 523:1.5603058 539:0.2535497 547:1.0675777 560:0.20488864 561:0.36221385 563:2.535497 578:0.40567952 587:0.84516567 610:0.92199892 644:0.4139587 645:0.39772502 654:0.35585922 684:0.14488554 687:0.16227181 689:0.15251109 696:0.38271654 707:0.54821557 709:1.6903313 716:0.26689443 718:1.0141988 733:0.19886251 744:0.49473113 774:2.2537751 775:0.2253775 793:0.57954216 799:0.22290084 818:0.27786267 826:1.4488554 827:0.16098393 835:2.2537751 846:2.3863502 900:2.1351554 915:1.0675777 920:1.6903313 934:0.31693712 935:2.535497 962:0.33252418 963:0.96590358 995:3.3806627 1031:0.49473113 1044:1.8439978 1045:1.0141988 1062:2.2537751 1080:0.69944745 1085:0.84516567 1087:3.3806627 1115:0.88191199 1123:0.35585922 1137:1.8439978 1139:0.78015292 1144:0.81135905 1156:0.61466593 1163:1.8439978 1185:10.141988 1188:0.63387424 1275:4.0567951 1276:2.535497 1280:2.0283976 1291:0.92199892 1365:0.84516567 1447:0.40567952 1500:2.2537751 1508:0.59658754 1514:6.7613254 1536:0.42258283 1548:3.6879957 1624:8.1135902 1633:6.7613254 1641:1.352265 1653:0.63387424 1682:2.0283976 1720:1.352265 1724:0.61466593 1726:0.37562919 1731:0.69944745 1809:0.81135905 1842:6.7613254 1872:3.3806627 1905:10.141988 1916:6.7613254 2160:3.3806627 2230:4.0567951 2378:1.4488554 2387:5.0709939 2480:5.0709939 2500:2.8977108 2503:6.7613254 2523:1.8439978 2524:2.535497 2557:2.0283976 2778:5.0709939 2816:3.7562919 2818:2.8977108 2821:5.0709939 2825:6.7613254 2829:2.8977108 2862:13.522651 2882:10.141988 2925:3.3806627 2926:20.283976 2927:20.283976 2928:6.7613254 2929:6.7613254 2930:20.283976 2931:20.283976 2932:20.283976 2933:20.283976 2934:20.283976 2935:5.0709939 2936:3.3806627 2937:20.283976 2938:10.141988 2939:10.141988 2940:20.283976 2941:20.283976 2942:20.283976 2943:1.6903313 2944:10.141988 2945:10.141988 2946:20.283976 2947:10.141988 2948:6.7613254 2949:10.141988 2950:10.141988 2951:6.7613254 2952:10.141988 2953:10.141988 2954:2.8977108 2955:20.283976 2956:20.283976 2957:20.283976 2958:40.567951 2959:6.7613254 2960:6.7613254 2961:20.283976 2962:20.283976 2963:10.141988 2964:3.3806627 #
-2.8131154253246656079395782157349e-05 1:0.46763936 3:0.17670342 5:0.16301513 10:0.58381206 11:0.088690221 12:0.418971 13:0.4397206 14:1.1574074 15:0.38580248 17:0.17909592 18:0.29997599 22:0.53078556 24:0.19506866 25:0.81836885 29:0.11431184 34:0.41802526 35:0.21043772 44:0.34678873 49:0.1819108 56:1.596424 59:0.52018309 61:0.46763936 63:0.52018309 70:0.75895566 73:0.19452225 90:0.20621958 92:0.13944668 93:0.4786914 94:0.23032983 95:0.39234149 96:0.17210519 98:0.15720305 107:0.40970173 121:0.52609426 123:0.79821199 134:2.104377 141:0.22918959 149:0.09913554 152:1.4467592 167:0.34041396 179:0.25720164 182:0.48732942 183:0.47564688 191:0.61728394 192:0.29117167 194:0.66137564 196:0.33187309 198:0.21667534 203:0.92592591 204:0.12512513 206:0.174703 207:1.3616558 210:0.18226889 222:0.73486185 228:0.42087543 238:0.14744043 252:0.71225071 262:1.1291779 273:1.4467592 277:0.79821199 283:0.3192848 312:2.5720165 329:0.12824459 331:0.26455027 345:1.1022928 364:0.18518518 381:0.20485087 384:0.74671447 398:0.85733885 403:0.49780965 424:0.26760864 427:0.41335979 429:0.16713464 442:1.4934289 453:0.44515669 463:1.1574074 466:0.339167 479:0.66137564 482:0.30259016 507:0.69098949 511:1.7146777 516:0.71777201 549:0.57155919 560:0.46763936 573:0.89031339 586:1.4467592 591:0.84175086 599:0.44515669 604:1.5432099 622:1.4467592 683:5.7870369 776:1.3227513 862:7.7160492 1038:1.8518518 1096:1.3616558 1122:4.6296296 1123:0.81221575 1163:4.2087541 1280:4.6296296 1341:5.7870369 1480:0.45837918 1516:2.8935184 1614:7.7160492 1636:4.6296296 1646:1.4934289 1655:9.2592592 1750:23.148148 1757:9.2592592 1809:1.8518518 1845:3.5612535 1911:1.3616558 2054:1.4029181 2146:15.432098 2222:4.6296296 2260:23.148148 2314:15.432098 2397:10.288066 2584:9.2592592 2591:5.7870369 2667:4.6296296 2668:46.296295 2669:15.432098 2670:23.148148 2671:11.574074 2672:6.6137567 2673:46.296295 2674:46.296295 2675:46.296295 2676:46.296295 2677:46.296295 2678:2.7233117 #
-4.5701788607336606595939187958066e-05 5:0.37458795 10:0.80491537 11:0.40759763 12:0.48137096 13:0.43303791 22:0.27103943 24:0.2988286 25:0.94025362 29:0.26267403 35:0.48355898 43:0.2988286 49:0.41800776 59:0.5976572 73:0.29799154 77:7.0921984 82:1.5197568 84:0.8865248 90:0.23693314 92:0.16021533 96:0.39547575 118:5.065856 127:1.2370114 139:3.799392 182:1.1198208 183:0.36432526 188:0.60103381 191:1.4184397 198:0.16596408 202:0.54836589 224:0.78802204 230:0.42553192 241:0.38544556 242:0.26202706 275:6.0790272 291:0.51392746 317:2.6595745 321:0.64474535 337:0.87919819 347:5.5991039 358:2.9550827 400:6.2578225 403:1.143903 429:0.76810813 460:0.9584052 473:1.2370114 479:1.5197568 506:1.1198208 519:15.197568 558:15.197568 605:1.9342359 632:5.065856 644:2.1710813 645:2.0859408 696:2.007226 751:10.638298 818:1.457301 852:2.6595745 901:1.8185124 962:3.4879665 1001:3.9401102 1006:1.9342359 1314:9.6711798 1342:53.19149 1521:7.0921984 1731:3.6683786 1805:15.197568 1955:35.460995 1956:21.276596 1957:35.460995 #
-2.9290242441228428330393662726294e-05 1:0.44302675 2:0.19406924 3:0.16740324 5:0.15443538 10:0.33185107 12:0.52922654 13:0.47608846 17:0.84834909 18:0.18945853 22:0.67046595 24:0.49280503 25:0.8860535 29:0.43318173 43:0.24640252 44:0.32853669 50:1.2805737 64:0.74338388 73:0.24571232 89:0.64028686 92:0.26421475 93:0.38871181 98:0.14892919 115:3.8138826 173:0.35803795 183:0.60081708 184:17.543859 192:0.55169368 193:1.2531328 196:0.3144061 198:0.13684759 201:1.1542013 220:1.8663681 228:0.79744816 242:0.21605739 291:0.42376474 312:1.6244315 329:0.4859795 336:1.9493177 381:0.38813847 412:7.9744816 429:0.63335234 435:0.74973762 466:1.6065805 475:1.2354831 494:1.0082678 508:1.4380213 578:0.87719297 646:3.1328321 648:0.83542186 710:3.1328321 728:1.2712942 729:14.619883 775:0.97465885 837:0.66961294 946:0.8860535 947:1.5948963 1215:4.8732944 1266:2.5062656 1512:4.3859649 1560:5.8479533 1655:17.543859 1731:3.0248034 1767:14.619883 2065:9.7465887 2334:14.619883 2648:21.929825 2821:21.929825 3430:3.3738191 3441:43.85965 3442:43.85965 3531:43.85965 3532:43.85965 3533:87.719299 #
-5.7316374869017912220721389093825e-06 10:0.67255151 13:0.18091361 17:0.25789812 22:0.50955415 25:1.3468014 26:2.4691358 29:0.65843624 49:1.0478061 73:0.37348273 92:0.40160644 93:0.39389464 98:0.67911714 132:1.3333334 141:0.66006601 149:0.57102072 190:3.030303 198:0.20800832 210:0.52493441 222:2.1164021 228:1.2121212 290:0.85470086 293:0.91324198 321:0.80808079 359:1.2944983 364:0.53333336 561:2.3809524 625:1.5503876 629:4.7619047 632:6.3492064 684:1.9047619 707:3.6036036 872:16.666666 1222:14.814815 1238:11.111111 1328:14.814815 1486:3.8095238 1521:8.8888893 1609:5.5555553 1748:66.666664 1749:66.666664 1750:66.666664 1751:26.666666 1752:4.3010755 1753:22.222221 1754:44.444443 1755:26.666666 1756:133.33333 1757:26.666666 1758:133.33333 1759:133.33333 #
3.0552230150786898474693509264455e-05 3:0.17835486 5:0.16453864 10:0.70712191 13:0.25361723 18:0.20185301 22:0.35716411 24:0.39378348 25:0.8260172 29:0.23076035 46:0.58048415 49:0.36722177 71:0.33377838 73:0.26178697 90:0.41629374 92:0.84449947 93:0.27609438 98:0.15867223 106:0.37086487 111:1.2297097 120:0.71341944 173:0.38146099 182:0.98376781 190:2.1240442 198:0.29160044 200:0.45812717 204:0.25258905 206:0.17633574 217:1.4834595 230:0.37383178 268:0.45148766 317:2.3364487 329:0.25888628 359:0.90735871 364:1.1214954 381:0.41353074 421:7.1890726 444:4.4503784 445:1.8325087 465:4.4503784 466:0.68467361 624:1.0742292 654:1.639613 767:5.1921082 775:3.1152649 799:2.0540206 800:2.1734405 860:1.1538018 864:4.918839 874:46.728973 948:1.4160295 962:1.5320975 1170:3.7383177 1437:3.4614053 1447:1.8691589 1480:0.92532617 1720:6.2305298 2189:46.728973 2242:5.6641178 2296:10.384216 2523:8.4961767 2587:10.384216 2720:18.691589 2727:5.4975262 2798:31.152649 2921:18.691589 4624:46.728973 4713:93.457947 4714:31.152649 4715:93.457947 4716:46.728973 4717:93.457947 4718:93.457947 #
4.5701788607336606595939187958066e-05 10:0.16949382 11:0.61797059 12:0.77036607 13:0.3647452 15:0.89605737 17:0.15598677 18:0.058059871 22:0.44517499 25:0.5091235 29:0.26549846 36:0.43828893 43:0.07551045 63:0.6040836 66:0.65565169 70:0.88136786 71:0.096006148 73:0.26354629 87:0.52709258 88:0.13576627 90:0.059870202 92:0.080969036 93:0.15882848 98:0.18255837 112:0.07285019 120:0.20520397 123:0.46347794 132:0.13440861 149:0.63318825 174:0.39243388 179:0.074671447 183:0.18412137 188:0.30374825 189:0.26615566 193:0.38402459 196:0.57810152 198:1.1323034 201:0.35370684 202:0.27713114 204:0.1453066 205:0.44068393 206:0.10144045 212:0.12108883 219:0.47160912 221:0.54860651 227:1.3440861 228:0.24437928 230:0.10752688 231:0.70741367 233:0.11738743 241:0.19479507 248:1.4148273 265:0.096006148 267:0.3424423 268:0.12986338 284:0.28148398 290:0.17231873 291:0.12986338 293:0.18412137 295:0.26881722 329:0.4467876 345:0.64004093 356:0.44068393 359:0.26098758 361:0.80243939 364:0.10752688 375:0.18930788 381:0.356837 382:0.18412137 386:0.20678246 398:0.9956193 402:1.5812777 405:1.1687704 414:1.3440861 422:0.48003072 424:0.15538567 445:0.52709258 449:0.49780965 453:0.25847808 460:0.24217767 472:0.4012197 475:0.37861577 484:0.45562238 494:0.61797059 527:4.7043009 532:0.79063886 534:1.9201229 549:0.33187309 558:3.8402457 559:1.4934289 560:0.27153254 573:0.51695615 585:0.38678735 600:0.32387614 603:0.74671447 632:1.2800819 644:0.54860651 655:0.54860651 660:3.3602149 661:0.88865191 716:0.35370684 717:1.3440861 775:0.29868579 799:0.29540351 800:0.62515628 801:1.3440861 811:1.4148273 822:1.7921147 823:0.49780965 856:0.65565169 901:1.1487914 909:0.9956193 910:0.74671447 948:0.4072988 949:2.6881721 962:0.44068393 978:3.3602149 982:2.0678246 1007:2.1505377 1043:2.6881721 1123:0.47160912 1153:1.097213 1156:0.4072988 1169:0.44068393 1348:0.86715227 1360:5.3763442 1380:0.92695588 1410:4.4802866 1411:3.4846675 1433:0.65565169 1447:0.53763443 1479:1.9201229 1643:5.3763442 1674:8.9605732 1679:4.4802866 1725:2.0288091 1726:0.49780965 1742:6.7204299 1828:2.2401433 2142:4.4802866 2153:3.8402457 2191:13.44086 2204:2.0678246 2244:4.4802866 2276:8.9605732 2501:13.44086 2534:8.9605732 2627:6.7204299 2653:1.0752689 3005:8.9605732 3053:3.3602149 3054:3.8402457 3237:13.44086 3350:13.44086 3485:5.3763442 3667:6.7204299 3806:13.44086 3881:3.3602149 4070:5.3763442 4114:10.752688 4262:5.3763442 4342:13.44086 4393:13.44086 4723:8.9605732 4744:13.44086 4890:26.88172 4891:26.88172 4892:26.88172 4893:26.88172 4894:26.88172 4895:26.88172 4896:26.88172 4897:26.88172 4898:26.88172 4899:26.88172 4900:26.88172 4901:53.763439 4902:26.88172 4903:26.88172 4904:26.88172 4905:13.44086 4906:26.88172 4907:26.88172 4908:26.88172 4909:13.44086 4910:13.44086 4911:5.3763442 4912:26.88172 #
4.5701788607336606595939187958066e-05 5:0.19136558 10:0.13706891 13:0.29496786 21:1.0979359 22:1.2461922 23:4.1806021 24:0.45798731 25:0.82345194 29:0.26838434 34:0.24536264 71:0.77639753 73:0.60893923 88:0.54896796 90:0.24208386 92:0.32739654 93:0.32110974 96:0.40407306 98:0.3690854 106:1.2939959 107:0.9619084 149:0.23275301 150:1.2351779 167:0.26641092 173:0.44365573 177:1.3758943 179:0.30193236 188:0.61409974 196:0.38959014 197:7.7639751 198:0.33914399 199:0.37610951 202:0.56028688 232:8.3612041 242:0.26772329 243:2.9377203 249:0.86956519 250:1.6722409 273:3.3967392 293:0.74449074 329:1.5054799 375:0.76546234 381:0.4809542 382:0.74449074 424:0.62829858 492:5.1759834 538:1.8422992 545:1.4492754 559:6.0386472 585:0.78198314 611:0.59073722 648:1.0351967 860:0.67096084 946:1.0979359 947:1.9762846 961:13.586957 1115:4.7258978 1477:2.8604119 1602:15.52795 1726:2.0128825 2193:8.3612041 #
2.9023334174651197337867908343512e-05 1:0.17783469 3:0.13439415 5:0.24796668 8:1.1358473 10:0.71044171 11:0.13490908 12:0.53109002 13:0.38221186 18:0.30420101 22:0.53826141 24:0.1978161 25:0.62242138 34:0.15896735 46:1.3122212 49:0.27670938 72:0.80945444 73:0.493155 92:0.10605803 98:0.35868862 106:0.2794545 119:1.2575452 121:0.80025607 143:8.8028173 149:0.90478635 151:0.47263446 183:0.24117306 189:0.69725281 198:0.10986355 199:0.24367659 204:0.57099354 206:0.1328727 220:1.4983518 230:0.28169015 233:0.307522 238:0.22427559 241:0.2551541 249:1.1267606 264:0.45142651 265:0.25150904 291:0.34020549 295:1.4084507 302:0.45433894 361:1.0510826 407:4.0241446 413:2.8169014 423:1.1737089 443:1.8532246 475:0.99186671 538:1.1936023 568:2.0712512 599:0.67713976 627:0.88028169 635:1.805706 655:1.4371946 656:1.0510826 657:2.608242 662:2.8169014 721:0.92661232 763:2.235636 837:1.6127298 841:0.91457838 856:0.85881138 1013:4.6948357 1076:3.3534541 1289:8.2850046 1328:7.8247261 1393:14.084507 1495:2.0120723 1632:4.8567266 1696:4.1425023 1830:2.2007043 1855:3.3534541 2134:6.4020486 2137:35.211269 2202:5.4171181 2388:1.6005121 2763:14.084507 2987:35.211269 3984:35.211269 4593:70.422539 4594:140.84508 4595:70.422539 4596:35.211269 4597:70.422539 4598:17.605635 4599:70.422539 4600:70.422539 #
4.5701788607336606595939187958066e-05 1:0.59887409 2:0.08744622 3:0.075430706 5:0.13917497 8:1.2750223 10:0.39874595 11:0.45431828 12:0.53654784 13:0.48267466 15:0.6587615 17:0.15290403 22:0.40280959 24:0.6106497 25:0.69868648 29:0.1951886 34:0.26766834 36:0.21481355 41:0.33214867 43:0.11102723 45:6.5876155 46:0.49100238 49:0.077653617 59:0.22205445 73:0.055358112 83:0.96404123 88:0.099812351 90:0.088030495 92:0.11905329 93:0.29191795 98:0.20131931 99:1.1293055 112:0.10711569 121:0.8983112 132:0.19762845 141:0.19567174 142:0.73195726 144:2.4703557 148:0.36262104 149:0.16927491 150:0.8983112 158:1.9762846 163:1.068262 173:0.16132936 174:0.28850871 183:0.27072391 189:0.39134347 191:0.52700925 194:0.56465274 196:0.14166914 198:0.18498763 200:0.19375339 201:0.5200749 203:1.5810276 206:0.14915356 210:0.15561296 212:0.17804366 217:0.62739193 220:0.84097219 224:0.2927829 230:0.15810277 233:0.34520254 237:1.7966224 256:0.29496786 264:0.25336981 265:0.14116319 266:0.60808754 284:0.2069408 291:0.19094537 329:0.43795779 340:1.8821758 347:2.0802996 351:0.63751113 352:4.9407115 354:2.635046 364:0.47430831 381:0.17489244 382:0.27072391 383:1.9762846 387:2.1958718 390:2.3250406 429:0.14269203 435:0.33782643 443:3.1204493 466:0.14478275 472:0.58993572 479:0.56465274 482:0.25833786 494:0.45431828 497:1.317523 522:0.87834871 549:0.48797151 578:0.39525691 585:0.28435749 588:0.84097219 591:0.71864891 599:0.38005474 622:1.2351779 676:1.4116318 687:0.31620553 775:0.43917435 776:1.1293055 824:2.927829 837:0.90516853 852:1.9762846 946:0.3992494 950:3.0404379 981:1.7185084 985:1.8821758 1069:9.881423 1099:1.5810276 1111:3.1620553 1139:4.5606565 1193:5.6465273 1285:9.881423 1309:6.5876155 1348:1.2750223 1353:0.87834871 1375:1.520219 1383:3.5932448 1422:2.635046 1456:5.6465273 1501:6.5876155 1533:2.3250406 1534:3.5932448 1580:3.9525692 1641:2.635046 1651:2.635046 1806:5.6465273 1935:3.5932448 1936:2.1958718 1978:1.7966224 2101:4.3917437 2258:6.5876155 2377:1.9762846 2415:2.3250406 2838:6.5876155 2858:13.175231 3205:7.9051385 3641:7.9051385 3679:4.9407115 3839:13.175231 4012:19.762846 4428:39.525692 4429:39.525692 4430:19.762846 4431:7.9051385 #
-1.6490184338062565072525675335946e-05 2:0.22013825 3:0.18989025 5:0.26277065 10:0.81559414 12:0.15007916 13:0.20251524 17:0.48115322 18:0.10745409 19:0.67231411 20:2.3691068 22:0.25350952 24:0.20962603 25:0.56535506 32:1.0815488 34:0.33691588 35:0.22614202 44:0.18633425 46:0.30901393 49:0.19548622 59:0.83850414 60:3.1094527 61:1.0050756 66:1.2134449 73:0.06967961 83:1.2134449 90:0.11080455 92:0.14985314 93:0.44092682 94:0.49503726 95:0.4216207 96:0.18494886 98:0.33786923 106:0.59227669 111:0.6546216 120:0.3797805 149:0.10653371 151:0.33390096 192:0.3129009 198:0.31046018 206:0.093870275 212:0.4482094 216:1.0815488 219:0.87282884 231:1.3092432 238:0.15844345 242:0.12254001 262:0.60672247 264:0.63783646 278:0.16153002 281:7.6540375 290:0.63783646 291:0.24034417 302:0.64195156 313:3.2097576 332:1.6048788 337:0.82233459 340:2.3691068 345:1.1845534 348:1.2134449 363:0.4216207 364:0.19900498 374:1.3092432 375:0.35036087 386:0.38270187 407:1.4214641 422:0.88841504 423:0.4145937 429:0.17960738 466:0.91119492 468:0.57850283 479:0.71073204 481:3.5536602 482:0.32517153 491:2.9265437 494:0.5718534 501:0.87282884 535:3.3167496 591:0.90456808 611:0.2703872 617:1.7768301 624:0.5718534 629:1.7768301 689:0.74813902 766:2.6892564 818:1.3630477 823:0.92131931 854:1.1055832 861:49.751244 862:8.2918739 863:3.8270187 864:2.6184864 865:3.8270187 866:24.875622 867:6.2189054 868:24.875622 869:24.875622 870:49.751244 871:6.2189054 872:6.2189054 873:1.2134449 874:24.875622 875:8.2918739 876:6.2189054 877:12.437811 878:24.875622 879:12.437811 880:5.527916 881:3.8270187 882:49.751244 883:24.875622 884:1.0364842 885:1.1570057 886:49.751244 887:16.583748 888:1.5547264 889:2.1630976 890:24.875622 891:12.437811 892:8.2918739 893:49.751244 894:12.437811 895:49.751244 896:7.1073203 897:16.583748 898:24.875622 899:49.751244 900:2.6184864 #
-2.3762679876224654937962726952705e-05 1:0.62506253 2:0.10952423 3:0.094475098 5:0.1743132 10:0.99883884 11:0.56902242 12:0.2240043 13:0.26868358 22:0.37838179 24:0.41717654 25:0.50005001 34:0.11174932 36:0.26904863 37:1.5715858 43:0.13905884 46:0.30748415 49:0.19451848 51:0.40247926 53:3.3003299 59:0.55623537 61:0.50005001 63:2.2249415 64:0.41953349 71:0.1768034 73:0.416008 87:1.9413706 88:0.1250125 92:0.07455565 93:0.219372 98:0.08404915 112:0.13415976 120:0.37790039 121:0.56255627 125:1.7070673 132:0.49504951 141:0.24507402 142:0.91675836 149:0.10600632 153:0.5103603 167:0.12133566 169:0.49504951 177:0.62664497 179:0.13751376 183:0.1695375 188:0.27968898 198:0.077230811 206:0.093405567 210:0.19490138 212:0.22299527 233:0.21617882 265:0.70721358 267:0.31531817 273:1.5470297 278:0.32146072 279:0.27811769 364:0.1980198 375:0.34862641 382:0.67815 386:0.38080731 403:0.53231132 429:0.17871824 466:0.18133682 468:0.57563895 473:0.57563895 479:0.70721358 482:0.32356176 494:0.56902242 497:1.650165 501:2.6055238 508:0.81155658 510:2.0627062 527:1.2376238 558:7.0721359 560:0.50005001 583:0.76161462 585:0.71230143 600:0.5964452 606:1.7070673 607:2.152389 648:0.94295144 687:0.79207921 744:1.2074379 799:0.54401046 823:1.8335167 830:1.1251125 871:6.1881189 962:0.81155658 976:4.5004501 1085:2.0627062 1167:8.2508249 1315:3.808073 1362:2.3573785 1437:1.8335167 1443:3.808073 1578:1.3751376 1618:6.1881189 1740:6.1881189 1950:19.801981 1974:2.0627062 2172:7.0721359 2292:16.50165 2330:12.376238 2382:6.1881189 2469:16.50165 2471:24.752476 2610:6.1881189 2662:12.376238 2713:24.752476 2887:3.3003299 3251:24.752476 3301:2.3573785 3345:49.504951 3346:12.376238 3347:12.376238 3348:49.504951 3349:49.504951 3350:74.257423 3351:49.504951 3352:24.752476 #
-1.9944847946524100042392860232532e-05 1:0.35819185 3:0.13534731 5:0.37458795 10:0.89435041 11:0.13586587 12:0.32091397 13:0.1924613 16:0.92106473 17:0.13717985 22:0.27103943 24:0.19921906 25:1.0745755 29:0.17511602 43:0.19921906 49:0.27867186 54:10.131712 64:0.60103381 71:0.2532928 73:0.29799154 74:1.9700551 83:1.7298045 88:0.17909592 92:0.21362044 93:0.20951842 96:0.26365051 98:0.12041084 99:0.5065856 132:0.35460994 134:6.447453 153:0.7311545 164:1.266464 167:0.17382839 171:4.1718817 179:0.39401102 186:1.6493485 188:0.80137837 191:0.9456265 192:0.44605023 204:0.38336208 210:0.2792204 212:0.31946841 217:1.1257458 222:1.1257458 224:0.52534807 230:0.5673759 233:0.92910898 241:0.25696373 257:1.7298045 283:0.48911715 302:0.45756119 312:1.3133701 346:4.4326243 375:0.49945059 386:0.54555374 429:0.25603604 457:3.3772373 468:0.82467425 506:0.74654722 508:1.1626555 585:0.51023012 597:3.2237265 655:1.4473875 684:0.5065856 689:0.53324801 708:1.9168104 710:2.532928 728:1.0278549 744:1.7298045 759:1.1626555 822:4.7281322 1139:2.7277687 1226:5.065856 1268:0.9456265 1275:14.184397 1280:7.0921984 1611:11.820331 1704:3.5460992 1747:11.820331 1791:3.0835645 1988:14.184397 2493:6.447453 2589:7.8802204 2591:8.8652487 2671:17.730497 2830:4.1718817 2977:11.820331 2978:35.460995 2979:14.184397 2980:70.921989 2981:70.921989 2982:23.640661 2983:35.460995 2984:70.921989 2985:5.9101653 2986:35.460995 2987:35.460995 2988:35.460995 2989:23.640661 #
-2.573536457129911066013874809677e-05 1:0.44302675 2:0.19406924 3:0.16740324 5:0.46330616 10:0.77431917 12:0.39691991 13:0.35706633 15:0.73099416 17:0.16966982 22:0.11174433 24:0.12320126 25:0.44302675 34:0.59403586 35:0.39872408 49:0.17233653 63:0.98561007 64:0.74338388 69:1.185396 73:0.12285616 84:0.73099416 92:0.26421475 93:0.25914121 94:0.43641442 98:0.29785839 106:0.34809247 111:1.1542013 112:0.23772168 126:1.4380213 127:1.0199919 140:1.8274853 153:0.90432268 155:3.248863 183:0.30040854 186:1.0199919 196:0.62881219 200:0.42999655 206:0.16550811 210:0.34535158 212:0.39513198 229:2.1929824 242:0.21605739 262:1.0697476 265:0.62656641 268:0.42376474 270:3.8138826 275:5.0125313 293:0.60081708 295:0.87719297 297:0.51904911 311:3.6549706 321:0.53163213 331:0.50125313 359:0.85164368 364:0.3508772 422:1.566416 423:0.73099416 424:0.50704795 466:0.32131612 482:0.57332873 512:8.7719297 521:3.248863 539:1.0964912 587:1.8274853 608:4.3859649 621:14.619883 624:1.0082678 696:1.6550812 714:2.1929824 744:2.1394951 818:1.2016342 860:0.54147714 871:10.964912 894:21.929825 1004:2.5062656 1085:3.6549706 1098:4.3859649 1268:1.1695906 1269:2.0399837 1365:3.6549706 1486:2.5062656 1716:7.9744816 1841:8.7719297 2610:10.964912 2719:17.543859 3023:9.7465887 3099:14.619883 3984:43.85965 3985:87.719299 3986:87.719299 #
-2.6916014720173345628711873700478e-06 5:0.37458795 10:0.26830512 12:0.32091397 13:0.28869194 22:1.0841577 25:0.80593163 29:0.52534807 41:1.7879492 49:0.41800776 51:1.7298045 59:1.1953144 61:2.1491511 71:0.7598784 90:0.47386628 92:0.64086133 112:0.57660151 121:2.4177949 149:0.45560163 173:0.86843246 183:0.72865051 198:0.66385633 291:1.0278549 361:3.1756113 381:0.94144231 429:0.76810813 548:8.8652487 655:4.3421626 657:7.8802204 712:4.2553191 800:4.9480457 840:11.820331 901:1.8185124 1979:10.638298 2115:70.921989 2219:106.38298 3425:212.76596 3426:212.76596 3427:212.76596 3428:212.76596 3429:53.19149 #
4.5701788607336606595939187958066e-05 2:0.16267569 3:0.14032331 5:0.1294532 10:0.64906162 12:0.33271226 13:0.29930562 15:0.61274511 18:0.31762165 22:0.28100413 24:0.2065433 25:1.2069222 29:0.18155411 36:0.39961636 43:0.41308659 44:0.27539104 49:0.14445856 63:0.82617319 71:0.52521008 73:0.51491183 88:0.55704099 90:0.32752523 92:0.22147413 93:0.32583195 95:0.62313062 96:0.27334353 98:0.74902624 106:0.29178339 127:0.85499316 140:1.5318627 149:0.31490111 167:0.36043829 182:0.77399379 196:1.0541852 198:0.34413141 199:0.25442702 201:0.96749228 206:0.27746949 224:0.5446623 236:2.8280542 237:3.3422461 242:0.36221385 256:0.54872698 291:0.35521454 362:0.53671104 374:3.8699691 381:0.32535139 428:2.8280542 482:0.48058438 516:0.56999546 545:1.9607843 611:0.39961636 646:2.6260505 759:2.4108005 837:0.56129324 840:4.0849671 901:1.2569131 946:0.74272132 1013:4.9019608 1099:5.8823528 1181:2.7233117 1328:8.1699343 1348:2.3719165 1380:2.535497 1395:4.3252597 1471:5.6561084 1502:1.8382353 1590:9.1911764 1752:2.3719165 1753:12.254902 1833:3.5014005 1955:24.509804 1958:14.705882 2009:18.382353 2064:2.9411764 2595:36.764706 2789:1.114082 4056:36.764706 4592:73.529411 #
2.5657552721658110413561343365885e-05 2:0.56727934 3:0.24466628 5:0.22571325 10:0.9700262 11:0.2456037 12:1.3535986 13:0.34791079 17:0.49595794 22:0.65327454 24:0.18006338 25:1.2950013 34:0.57880419 35:0.58275056 39:2.5641026 43:0.36012676 44:0.48016903 88:0.64750063 92:0.19308001 93:0.37874484 96:0.47659898 107:0.56727934 149:0.27452919 167:0.62845653 170:1.1052166 173:0.52328622 192:0.80632156 193:1.8315018 198:0.80003202 230:0.51282054 331:0.73260075 338:18.315018 364:1.0256411 435:1.0957704 506:1.3495277 578:1.2820513 676:4.5787544 702:2.8490028 793:3.6630037 1099:5.1282053 1563:6.4102564 1609:5.3418803 1637:21.367521 2952:64.102562 4507:64.102562 4508:128.20512 4509:128.20512 #
4.5701788607336606595939187958066e-05 1:0.13290803 2:0.34932464 3:0.30132583 10:0.66370213 11:0.10082678 13:0.21423981 17:0.20360379 22:0.20113979 24:0.51744533 25:0.73099416 29:0.12995452 34:0.11880717 41:0.44228217 43:0.14784151 44:0.59136605 46:0.65380841 49:0.72381347 63:0.59136605 73:0.36856848 88:0.13290803 92:0.39632213 93:0.31096944 94:0.26184866 96:0.19565643 98:0.26807255 104:2.0242915 106:0.62656641 111:0.6925208 112:0.427899 126:0.86281276 127:0.6119951 163:2.8449502 191:0.70175439 196:0.3772873 198:0.1642171 199:0.1821162 204:0.42674252 206:0.19860972 210:0.20721094 224:0.38986355 229:1.3157895 233:0.22983222 238:0.33523297 256:0.39277297 258:0.57836902 265:0.18796992 278:0.17088175 329:0.14579384 335:0.52110475 337:0.43497172 345:1.2531328 381:0.2328831 389:7.5187969 424:0.30422878 429:0.38001141 466:0.96394831 497:1.7543859 501:0.92336106 507:0.78554595 516:0.40799674 538:0.89206064 539:0.65789473 545:0.70175439 549:0.64977258 567:2.0242915 600:0.6341154 606:0.60496068 607:0.76277649 611:0.2860412 624:0.60496068 627:0.65789473 648:0.50125313 661:0.43497172 684:0.37593985 689:0.39572614 702:1.1695906 728:0.76277649 744:1.283697 776:1.5037594 782:10.526316 797:4.6439629 820:3.7593985 844:2.1052632 884:1.0964912 1031:2.567394 1042:5.2631578 1076:2.5062656 1085:2.1929824 1115:4.5766592 1153:1.0741138 1170:2.1052632 1190:4.7846889 1221:6.5789475 1234:1.3157895 1289:3.0959752 1382:17.543859 1485:1.1198208 1519:2.5062656 1669:1.0964912 1791:4.5766592 1926:1.814882 2282:4.3859649 2540:10.526316 2789:0.79744816 2938:26.31579 2939:26.31579 3347:13.157895 4036:26.31579 4348:52.63158 4349:52.63158 4350:17.543859 4351:26.31579 4352:26.31579 #
3.3627235153865667281053442039251e-05 2:0.17986906 3:0.46546268 5:0.14313523 10:0.82018477 12:0.24525133 13:0.22062635 22:0.10356791 24:0.79930574 25:0.61591524 29:0.60222822 34:0.18352328 36:0.44185224 43:0.22837307 64:0.68898994 73:0.11386669 90:0.7242834 92:0.36732295 93:0.24017966 94:0.40448165 138:0.92387289 148:1.491758 149:0.87045836 151:0.54564303 167:0.1992667 179:0.45167118 188:0.45932662 189:0.80495852 198:1.1415091 200:0.3985334 202:0.41907635 203:1.6260163 204:0.43946385 206:0.15339775 222:0.64524454 241:0.29456815 242:0.2002483 264:0.52115905 278:0.26396367 297:0.48106989 329:0.22521001 330:6.2539086 358:2.2583559 362:0.5934366 363:0.68898994 364:0.32520324 427:0.72590011 466:0.29780519 514:2.0846362 611:0.44185224 628:4.0650406 644:1.6592003 689:1.2225686 694:9.0334234 799:0.89341551 884:1.693767 934:1.2703252 1003:2.8526602 1080:2.8034763 1266:2.3228803 2141:3.6954916 2180:2.7100272 2351:9.0334234 2512:40.650406 2816:3.0111413 2950:40.650406 3837:27.100271 4258:4.7824006 4329:13.550136 4968:81.300812 4969:81.300812 4970:20.325203 4971:81.300812 4972:81.300812 4973:81.300812 4974:40.650406 4975:40.650406 #
4.5701788607336606595939187958066e-05 2:0.10010812 3:0.25905842 10:0.62766403 11:0.26005098 12:0.7507354 13:0.24558409 16:0.58764762 17:0.087521993 22:0.23056749 24:0.3813107 25:0.85698617 29:0.3351768 34:0.30642575 36:0.24591777 43:0.12710357 44:0.16947141 64:0.38346499 73:0.50699013 90:0.10077699 93:0.13367465 98:0.38411602 107:0.20021623 111:0.59537983 112:0.12262566 132:0.22624435 140:0.47134238 149:0.29067796 179:0.25138262 183:0.15496188 188:0.51128668 198:0.70591056 201:1.1907597 202:0.46648318 204:0.12229424 206:0.34150091 210:0.17814516 212:0.40764746 220:0.96274191 222:0.35911801 224:0.3351768 233:0.59277993 238:0.14410467 241:0.32789037 242:0.11145042 243:1.2229424 247:0.76692998 249:0.36199096 250:0.69613642 265:0.16160311 266:0.69613642 268:0.21859357 284:0.23690507 302:0.87578458 321:0.27423558 329:0.12534313 337:0.3739576 344:3.0165913 348:1.1036309 362:0.6605674 381:0.20021623 427:0.40400776 460:0.40764746 482:0.59148848 485:1.675884 494:0.52010196 516:0.35076642 520:1.459641 523:3.4806821 550:1.2928249 585:0.32553142 588:0.96274191 608:2.2624435 611:0.24591777 624:0.52010196 625:0.52614963 632:2.1547081 644:0.9234463 661:0.3739576 684:0.64641243 728:0.65578073 733:0.44361636 801:2.2624435 843:15.082956 851:5.6561084 859:1.459641 885:2.1045985 901:0.38674247 947:0.8227067 1153:1.8468926 1156:0.6855889 1160:1.0283834 1268:0.60331827 1291:2.0567667 1305:1.8853695 1380:1.5603058 1443:3.4806821 1458:15.082956 1473:2.6616981 1477:1.1907597 1486:1.2928249 1513:1.0522993 1603:7.5414782 1682:4.5248871 1782:6.4641242 1833:2.1547081 1911:1.3308491 1960:3.4806821 1979:2.2624435 2161:9.0497742 2202:1.7403411 2239:3.2320621 2621:5.0276523 2653:3.6199095 2887:3.0165913 2914:3.2320621 3531:22.624434 3963:15.082956 4377:11.312217 4411:6.4641242 4881:135.74661 4882:22.624434 4883:22.624434 4884:45.248867 #
-2.0705791309032072638769000905157e-05 1:0.28058362 2:0.49164209 3:0.2120441 5:0.39123631 10:0.42034468 12:0.3351768 13:0.3015227 17:0.21491511 22:0.42462844 24:0.9363296 25:0.28058362 29:0.27434841 34:0.25081515 35:0.50505048 57:1.8214936 59:1.2484394 61:2.244669 66:5.4200544 73:0.31123561 88:0.56116724 93:0.16412276 96:0.41305247 106:0.4409171 107:0.49164209 121:1.2626263 140:1.1574074 167:0.27233115 183:0.38051751 186:1.2919897 189:1.1001101 196:0.39824772 199:0.38446751 200:0.5446623 204:0.3003003 207:3.2679739 233:0.48520136 238:0.35385704 241:0.40257648 242:0.2736727 278:0.36075035 290:0.71225071 329:0.307787 364:0.44444445 381:0.49164209 429:0.40112314 462:6.9444447 466:0.40700039 472:1.6583748 475:1.5649452 516:0.86132646 545:1.4814814 638:3.0864198 648:1.0582011 661:0.91827363 687:0.8888889 724:1.8214936 755:12.345679 800:2.5839794 827:0.88183421 907:6.9444447 1022:7.9365077 1161:5.0505052 1162:15.873015 1281:2.8490028 1852:18.518518 2502:3.8314176 2594:74.074074 2595:55.555557 2596:55.555557 2597:111.11111 #
-4.5531632820769237673420859469076e-05 1:0.84175086 2:0.18436578 3:0.15903307 5:0.14671361 7:0.82508248 8:1.3440861 10:0.84068936 11:0.1596424 12:0.25138262 13:0.56535506 17:0.32237267 20:3.9682539 22:0.63694268 24:0.3511236 25:0.94696969 34:0.37622273 35:0.37878788 46:0.51759833 47:6.4102564 49:0.49115914 57:1.3661202 58:1.8939394 63:0.9363296 64:0.70621467 69:1.1261262 73:0.23342671 81:2.3148148 83:2.0325203 88:0.21043772 90:0.55679286 92:0.25100401 93:0.24618414 111:1.0964912 112:0.45167118 124:1.8115942 126:1.3661202 127:0.96899223 142:1.5432099 147:0.79365081 153:0.85910654 155:3.0864198 167:0.20424837 173:0.34013605 177:1.0548524 179:0.46296296 192:0.52410901 194:1.1904762 199:0.28835064 204:0.45045045 206:0.1572327 238:0.26539278 242:0.20525451 252:1.2820513 256:0.62189054 265:0.29761904 278:0.27056277 335:0.82508248 442:2.6881721 479:1.1904762 584:1.6666666 586:2.6041667 611:0.45289856 670:2.8735633 707:2.2522523 744:2.0325203 885:1.9379845 1085:3.4722223 1533:2.4509804 1788:8.333333 1841:8.333333 1985:9.2592592 2248:4.6296296 2474:11.904762 2589:9.2592592 3138:41.666668 3522:3.4722223 4056:41.666668 4057:83.333336 #
-1.5051454166592982125282181027348e-05 2:0.31832939 3:0.41188422 5:0.25331846 6:1.7985611 7:0.71230143 10:0.27216563 11:0.13782078 12:0.43404192 13:0.58569157 14:1.7985611 17:0.13915367 18:0.15538326 22:0.64152497 24:0.30312827 25:1.0900371 29:0.53290701 34:0.32479659 43:0.40417105 59:0.8083421 69:0.97219521 71:0.2569373 73:0.60455835 90:0.16022816 92:0.32504117 93:0.10626654 94:0.35792261 96:0.53488809 98:0.24428675 102:0.66002244 112:0.19496597 127:0.83654004 132:0.71942449 141:0.35615072 149:0.15405235 162:0.68516618 186:0.83654004 189:0.71230143 196:0.25785822 198:0.33670411 206:0.13574046 210:0.28323796 351:1.160362 361:1.0737679 375:0.50663692 377:11.068069 459:4.4964027 479:1.0277492 485:2.664535 498:1.9443904 520:2.320724 589:1.2846866 591:1.3080444 618:11.068069 661:0.59456569 725:14.388489 1024:6.5402222 1145:7.9936051 1268:0.95923263 1411:1.3322675 1437:2.664535 1468:11.990408 1761:7.9936051 1787:10.277493 1911:2.1159544 2033:11.990408 2176:14.388489 2216:7.1942444 2240:10.277493 2468:7.9936051 3452:11.990408 3522:2.997602 3797:23.980816 4024:23.980816 4025:35.971222 4026:71.942444 4027:71.942444 4028:23.980816 4029:71.942444 4030:35.971222 4031:3.1279325 4032:71.942444 4033:71.942444 4034:71.942444 4035:71.942444 4036:35.971222 #
-1.0982223501772156169548240456368e-05 1:0.40083373 3:0.45438021 6:1.9841269 7:0.78579289 10:0.9007386 12:0.47882402 13:0.32306004 17:0.30702159 18:0.17141485 22:0.30330604 24:0.33440343 25:1.2025012 43:0.22293562 56:2.7367268 63:0.89174247 64:0.67258543 73:0.33346671 90:0.17675965 92:0.47810289 94:0.39485115 95:1.3451709 112:0.64524454 149:0.16994664 167:0.19452225 168:1.3683634 179:0.22045855 183:0.54359645 186:0.92284977 198:0.12381448 202:0.40909836 204:0.21450022 212:0.35750034 222:0.62988156 241:0.57510924 242:0.1954805 256:0.59227669 278:0.25767884 283:0.5473454 321:0.48100048 336:1.7636684 429:0.57303303 430:9.9206352 443:2.0885546 460:0.71500069 482:0.51872599 573:1.5262516 591:4.3290043 627:0.99206346 648:1.5117158 687:0.63492066 811:4.1771092 827:0.62988156 830:1.8037518 831:5.2910051 844:3.1746032 1006:1.4430014 1141:4.4091711 1167:6.6137567 1169:1.3010669 1209:2.035002 1215:4.4091711 1217:4.1771092 1446:9.9206352 1461:6.6137567 1490:4.4091711 1498:6.1050062 1859:6.1050062 2103:11.337869 2185:9.9206352 2502:2.7367268 2506:15.873015 2507:39.682541 2508:39.682541 2509:79.365082 2510:39.682541 2511:79.365082 2512:39.682541 2513:79.365082 2514:79.365082 2515:79.365082 #
-7.8124831291963179404113162829226e-06 2:0.30727631 5:0.24452269 10:1.0508617 12:0.418971 13:0.18845168 17:0.53728777 18:0.29997599 22:0.70771408 24:0.19506866 25:0.87682378 44:0.52018309 49:0.27286619 50:1.0137875 93:0.20515345 95:1.1770245 102:1.27421 149:0.29740661 192:0.87351501 193:1.9841269 195:9.9206352 204:0.37537539 242:0.68418169 262:3.3875339 265:0.49603173 302:0.89605737 329:0.38473377 331:0.79365081 362:1.0137875 422:2.4801588 466:0.5087505 585:0.99920064 588:2.9550827 617:4.9603176 636:6.6137567 733:2.7233117 775:1.5432099 803:3.1565657 1257:8.1699343 1335:27.777779 1382:46.296295 1399:7.7160492 1429:23.148148 1621:17.361111 1694:8.1699343 1720:9.2592592 1974:5.7870369 2055:6.3131313 2091:138.88889 2092:34.722221 2093:23.148148 2094:138.88889 2095:138.88889 2096:46.296295 2097:10.683761 2098:46.296295 #
4.5701788607336606595939187958066e-05 2:0.17284292 3:0.14909351 5:0.13754402 10:0.39407313 11:0.29932949 12:0.23567119 13:0.10600407 18:0.1687365 21:0.78914142 22:0.59713376 24:0.10972612 25:0.88778406 31:1.6983696 32:1.6983696 34:0.35270882 44:0.29260299 49:0.30697447 58:1.7755681 59:0.43890449 63:0.87780899 71:0.27901787 73:0.32825631 90:0.17399777 92:0.23531626 93:0.46159527 95:0.66207629 106:0.6200397 107:0.34568584 108:1.953125 112:0.21172087 120:0.59637403 126:1.2807378 127:0.90843022 166:1.6622341 168:1.3469827 188:0.44138417 189:0.77351487 190:1.7755681 196:0.28001791 198:0.12187988 200:0.38296568 201:1.0279605 206:0.29481131 210:0.30757874 238:0.24880573 241:0.84918481 258:0.85851645 264:0.50080127 265:0.27901787 268:0.37741545 278:0.2536526 291:0.37741545 317:1.953125 329:0.43282548 331:1.3392857 335:0.77351487 347:4.1118422 350:1.7755681 361:1.1660448 364:1.5625 382:0.53510273 420:3.5511363 469:0.79719388 472:1.1660448 479:1.1160715 482:0.51062089 510:3.2552083 538:1.3241526 539:0.9765625 600:0.94126505 685:3.3967392 686:4.8828125 708:2.1114864 884:1.6276041 1043:3.90625 1188:2.4414062 1214:4.8828125 1513:1.8168604 1966:17.361111 2184:9.765625 2359:15.625 2624:19.53125 2988:39.0625 3143:2.5201614 3956:15.625 4031:3.3967392 4190:15.625 5106:78.125 5107:78.125 5108:78.125 #
1.7260049248147227719373669740932e-05 5:0.88028169 10:0.42034468 11:0.3192848 12:0.50276524 13:0.45228404 22:0.21231422 24:0.2340824 25:0.84175086 34:0.37622273 44:0.62421972 49:0.32743943 73:0.23342671 92:0.25100401 93:0.49236828 96:0.61957866 149:0.71377587 193:2.3809524 198:0.26001039 219:2.9239767 233:0.72780204 242:0.41050902 329:1.3850416 382:1.1415526 482:1.0893246 523:12.820513 585:1.1990408 600:2.0080321 604:5.5555553 639:6.6666665 712:3.3333333 724:2.7322404 884:3.4722223 942:16.666666 1028:11.111111 1086:33.333332 1170:6.6666665 1171:13.888889 1173:7.246377 1291:7.5757575 1607:13.888889 1613:41.666668 2158:23.809525 2647:23.809525 2671:41.666668 4148:16.666666 4511:166.66667 4512:166.66667 4513:166.66667 #
4.5701788607336606595939187958066e-05 10:1.0732205 12:0.32091397 13:0.57738388 17:0.41153958 22:0.81311828 25:1.0745755 34:0.48028433 35:0.96711797 44:0.79687625 49:0.83601552 73:0.59598309 88:1.6118633 90:0.47386628 92:0.32043067 93:0.31427762 106:0.84430933 141:1.0532968 163:5.7504311 190:4.8355899 197:15.197568 242:0.52405411 264:1.3638843 265:0.7598784 297:1.2589701 527:5.319149 704:11.198208 728:3.0835645 1403:8.5106382 1726:3.9401102 1791:9.2506943 2296:23.640661 2330:53.19149 2678:12.515645 4312:42.553192 #
4.5701788607336606595939187958066e-05 1:1.1655011 2:0.34036759 3:0.29359952 4:5.3981109 8:1.2406948 10:0.77602094 11:0.29472443 12:0.46409097 21:0.77700078 22:0.39196473 24:0.43215212 25:1.1655011 49:0.15112589 59:0.43215212 71:0.27472529 72:0.88417327 73:0.64641243 74:2.1367521 88:0.1942502 91:5.1282053 92:0.115848 93:0.34087035 94:0.38270187 95:0.65189046 99:0.54945058 106:0.30525032 111:1.0121458 124:1.6722409 148:0.70571631 149:0.16471751 167:0.18853696 173:0.31397173 189:0.76161462 198:0.1200048 202:0.79302144 204:0.20790021 206:0.43541363 233:0.33590862 242:0.1894657 268:0.37160906 293:0.52687037 331:0.43956044 350:1.7482518 420:3.4965036 424:0.44464207 429:0.27770063 430:9.6153851 466:0.28176951 482:0.50276524 483:10.989011 506:1.6194332 585:0.55340344 678:1.7889087 679:1.8315018 708:2.0790021 763:1.2210013 817:5.1282053 827:0.61050063 856:0.93808633 860:0.47483382 998:2.2624435 1003:1.3495277 1004:2.1978023 1268:1.0256411 1292:12.820513 1365:3.2051282 1508:2.2624435 1726:1.4245014 2172:10.989011 2180:2.5641026 2186:5.1282053 2248:4.2735043 3023:8.5470085 3133:38.46154 4059:38.46154 4097:15.384615 4132:38.46154 4191:19.23077 4220:25.641026 4221:38.46154 4222:76.92308 #
4.5701788607336606595939187958066e-05 1:0.73195726 5:0.2551541 10:0.42643663 11:0.092546321 13:0.32774204 18:0.10433948 22:0.55386317 24:0.81419963 25:0.85395014 29:0.4771277 37:0.76681238 47:3.7160907 49:0.18981996 59:0.27139989 66:1.1782726 71:0.17253278 73:0.27063966 82:0.69013113 90:0.21518566 92:0.43652871 93:0.28543091 94:0.48068833 95:0.40939981 96:0.35917604 98:0.082018979 106:0.1917031 112:0.26183838 120:0.36877236 132:0.4830918 138:0.54896796 140:0.50322062 147:0.46008742 149:0.20689155 167:0.2368097 177:0.61150861 183:0.16544239 192:0.30383131 196:0.69260472 198:0.30146134 200:0.2368097 202:0.24901639 206:0.091149397 210:0.19019362 224:0.35784578 233:0.21095711 238:0.15385088 241:0.17503326 242:0.11898813 250:0.74321812 265:0.51759833 278:0.15684798 284:0.25292763 317:3.6231885 320:2.4154589 329:0.13382044 331:0.55210489 350:1.0979359 355:3.4506557 359:0.93804228 386:0.37160906 421:3.7160907 429:0.17440137 444:2.300437 445:0.9472388 468:0.56173462 473:0.56173462 479:0.69013113 482:0.63149256 501:0.84752947 514:1.2386969 544:2.6838434 550:1.3802623 567:1.8580453 589:0.86266392 609:4.0257649 611:0.26254988 619:6.0386472 638:1.3419217 639:1.9323672 648:0.46008742 656:1.442065 684:0.34506556 686:3.0193236 689:0.36322692 728:0.70013303 733:0.4736194 735:1.7892288 768:1.0735373 777:1.5096618 799:0.53087008 827:0.38340619 876:6.0386472 878:12.077294 884:1.0064412 934:0.7548309 946:0.48797151 1059:6.9013114 1075:1.5096618 1080:1.6658337 1125:3.7160907 1217:2.5425885 1291:2.1958718 1380:3.3316674 1477:1.2712942 1513:1.1234692 1527:2.8417163 1669:1.0064412 1830:1.5096618 2195:8.0515299 2242:2.927829 2397:5.3676867 2405:12.077294 2948:16.10306 2985:4.0257649 3379:4.0257649 3657:16.10306 4108:6.9013114 4258:2.8417163 4409:8.0515299 #
-1.0982962329353517416836993891849e-05 2:0.24311972 5:0.58040553 10:0.69287586 12:0.33149356 13:0.5964185 15:0.91575092 17:0.2125534 18:0.23734365 22:0.27997479 24:0.61736017 25:0.69375068 34:0.24805894 43:0.30868009 49:0.21589413 57:1.8014772 58:2.4975026 59:0.61736017 61:1.1100011 68:1.894657 73:0.15390772 84:0.91575092 90:0.24474412 92:0.33099431 93:0.16231921 98:0.18657064 106:0.43607187 141:0.54401046 167:0.26933852 169:1.0989012 174:0.80211759 183:0.37633598 189:1.0880209 196:0.39387137 198:0.17143543 230:0.43956044 257:2.6802466 265:0.39246467 297:0.65023732 321:0.66600066 403:1.181614 422:1.9623234 466:1.2075837 473:1.277792 482:0.71823603 560:1.1100011 585:0.79057634 689:0.82624143 714:2.7472527 744:2.6802466 811:5.78369 900:5.78369 901:0.93923169 1239:8.4530849 1268:1.4652015 1456:15.698587 1835:5.2328625 1955:36.630035 1972:13.736263 1994:36.630035 2165:15.698587 2340:13.736263 2341:54.945053 2351:12.210012 2678:6.4641242 3107:27.472527 3132:109.89011 3133:54.945053 3134:109.89011 3135:109.89011 3136:54.945053 #
