SVM-light Version V6.02
0 # kernel type
3 # kernel parameter -d 
1 # kernel parameter -g 
1 # kernel parameter -s 
1 # kernel parameter -r 
empty# kernel parameter -u 
117771 # highest feature index 
640 # number of training documents 
638 # number of support vectors plus 1 
0.15457139 # threshold b, each following line is a SV (starting with alpha*y)
-0.0088646476772930304921516153626726 10:0.22901626 158:0.14116122 159:0.13233195 166:0.27927914 199:0.12552661 212:0.16137519 253:0.23941523 285:0.13093333 289:0.057092953 292:0.03424903 297:0.0061519542 298:0.085388824 299:0.18783674 300:0.02460715 302:0.189712 304:0.043656886 305:0.054688469 309:0.0075712041 311:0.069920287 312:0.0070352349 321:0.059104197 336:0.04521637 357:0.25737378 359:0.22187036 360:0.03411863 375:0.1406395 376:0.17646308 523:0.41997051 530:0.12335733 537:0.2752786 554:0.14642559 558:0.057758883 560:0.037265915 563:0.1913927 566:0.030618554 575:0.12640767 580:0.15476301 587:0.265926 591:0.26241687 592:0.28559703 594:0.51474756 595:0.22302644 632:0.3912023 643:0.37942401 764:0.11048819 784:0.34265152 888:0.071334988 909:0.053828247 911:0.16806655 939:0.079850771 949:0.20694911 958:0.13294937 964:0.077110872 1001:0.59914643 1175:0.26415604 1178:0.42867166 1179:0.48928523 1315:0.12819344 1320:0.25414771 1322:0.26415604 1331:0.19841313 1336:0.25017795 1359:0.17867719 1361:0.21737522 1584:0.27725887 1598:0.1554713 1751:0.095451191 1752:0.15028282 1763:0.16347557 1775:0.16411866 2027:0.11631508 2040:0.36400893 2214:0.189712 2226:0.32314152 2229:0.25414771 2283:0.29004222 2316:0.1913927 2366:0.25574774 2380:0.26956278 2413:0.2834464 2654:0.52983171 2719:0.52983171 2734:0.32188758 2757:0.29957321 2763:0.20996442 3098:0.32834142 3157:0.30210501 3159:0.18247993 3392:0.2494957 3409:0.27725887 3516:0.20894919 3902:0.11162672 3921:0.52983171 3947:0.25102246 3993:0.29469422 4053:0.22187036 4054:0.24505052 4055:0.36888793 4282:0.31010929 4530:0.33524072 4831:0.40455544 4858:0.33524072 4870:0.37942401 5091:0.37942401 5126:0.24361165 5246:0.29957321 5512:0.52983171 5615:0.36400893 5628:0.48928523 5931:0.43820265 5932:0.41196623 6022:0.36888793 6091:0.32506245 6289:0.46051702 6460:0.36400893 6479:0.39765614 6494:0.55859995 6592:0.5075174 6834:0.34657359 6904:0.34657359 6905:0.36888793 6965:0.29234117 6967:0.19310215 7010:0.19224378 7188:0.43820265 7244:0.39765614 7346:0.37942401 7362:0.38513985 7438:0.41196623 7476:0.33173159 7616:0.20894919 7651:0.35491174 8321:0.31582513 8833:0.32834142 8955:0.37401727 9298:0.32834142 9411:0.3188104 9449:0.3388775 10383:0.44873872 10478:0.37942401 10597:0.37401727 10685:0.59914643 10755:0.55859995 10776:0.29004222 10788:0.59914643 11174:0.5075174 11492:0.55859995 12188:0.30470255 12517:0.47387016 12575:0.41997051 13453:0.31292635 13817:0.43820265 13988:0.29234117 14891:0.3912023 15015:0.48928523 15728:0.40455544 15859:0.38513985 16211:0.3912023 16338:0.47387016 16839:0.33173159 17569:0.37401727 17577:0.42867166 17914:0.55859995 18374:0.35935694 18466:0.55859995 18467:0.66846114 18468:0.66846114 18469:0.5075174 18470:0.66846114 18471:0.66846114 18472:0.59914643 18473:0.66846114 18474:0.59914643 18475:0.59914643 18476:0.66846114 18477:0.66846114 18478:0.59914643 18479:0.59914643 18480:0.55859995 18481:0.66846114 18482:0.66846114 18483:0.66846114 18484:0.66846114 18485:0.66846114 18486:0.66846114 18487:0.66846114 18488:0.55859995 18489:0.55859995 18490:0.66846114 18491:0.66846114 18492:0.66846114 18493:0.66846114 18494:0.66846114 18495:0.66846114 18496:0.66846114 18497:0.66846114 18498:0.66846114 18499:1.3369223 18500:0.66846114 18501:0.66846114 18502:0.66846114 18503:0.66846114 18504:0.66846114 18505:0.66846114 18506:0.66846114 18507:0.66846114 18508:0.66846114 18509:0.66846114 18510:0.66846114 18511:0.66846114 18512:0.66846114 18513:0.66846114 18514:0.66846114 18515:0.66846114 18516:0.66846114 18517:0.66846114 18518:0.59914643 18519:0.66846114 18520:0.66846114 18521:0.66846114 18522:0.66846114 18523:0.66846114 18524:0.5075174 18525:0.66846114 18526:0.66846114 18527:0.66846114 18528:0.66846114 18529:0.66846114 18530:0.66846114 18531:0.66846114 18532:0.59914643 18533:0.66846114 18534:0.66846114 18535:0.59914643 18536:0.66846114 18537:0.66846114 18538:0.66846114 18539:0.66846114 18540:0.66846114 18541:0.66846114 18542:0.59914643 18543:0.66846114 18544:0.55859995 18545:0.66846114 18546:0.42867166 18547:0.52983171 18548:0.66846114 18549:0.66846114 18550:0.66846114 18551:0.55859995 18552:0.66846114 18553:0.66846114 18554:0.66846114 18555:0.66846114 18556:0.41997051 18557:0.66846114 18558:0.66846114 18559:0.66846114 18560:0.66846114 18561:0.66846114 18562:0.66846114 18563:0.66846114 18564:0.66846114 18565:0.66846114 18566:0.59914643 18567:0.59914643 18568:0.52983171 18569:0.66846114 18570:0.48928523 18571:0.48928523 18572:0.5075174 18573:0.55859995 18574:0.59914643 18575:0.66846114 18576:0.59914643 18577:0.34657359 18578:0.5075174 18579:0.66846114 18580:0.66846114 18581:0.66846114 18582:0.66846114 18583:0.55859995 18584:0.66846114 18585:0.66846114 18586:0.52983171 18587:0.59914643 18588:0.66846114 18589:0.59914643 18590:1.1982929 18591:1.3369223 18592:0.55859995 18593:0.66846114 18594:0.66846114 18595:0.66846114 18596:0.59914643 18597:0.66846114 18598:0.66846114 18599:0.66846114 18600:0.66846114 18601:0.66846114 18602:0.52983171 18603:0.66846114 18604:0.66846114 18605:0.66846114 18606:0.66846114 18607:0.66846114 18608:0.66846114 18609:0.66846114 18610:0.5075174 18611:0.48928523 18612:0.66846114 18613:0.59914643 18614:0.66846114 18615:0.59914643 18616:0.43820265 18617:0.66846114 18618:0.66846114 18619:0.66846114 18620:0.59914643 18621:0.66846114 18622:0.46051702 18623:0.66846114 18624:0.66846114 18625:0.59914643 18626:0.41196623 18627:0.48928523 18628:0.5075174 18629:0.59914643 18630:1.1171999 18631:0.66846114 18632:0.59914643 18633:0.48928523 18634:0.59914643 18635:0.55859995 #
-0.0075299901408231138810744909051209 11:0.21398088 51:0.12500985 150:0.12298337 159:0.094522826 160:0.11276188 163:0.17101088 182:0.19387999 189:0.042292904 198:0.082513049 199:0.089661866 202:0.24205534 212:0.057633996 288:0.30137035 289:0.12234204 290:0.060445722 292:0.048927188 297:0.0069052549 298:0.060992021 299:0.10733528 300:0.064447299 304:0.031183489 305:0.078126378 309:0.01892801 311:0.041619219 312:0.010050336 316:0.048623189 321:0.12665185 326:0.19804205 330:0.17350307 351:0.13670908 360:0.024370451 374:0.19662757 376:0.12604506 480:0.061119009 490:0.060283575 491:0.057434198 558:0.041256346 560:0.039927766 561:0.035772953 564:0.15570004 566:0.10935198 569:0.29997894 570:0.14237599 580:0.11054501 595:0.1593046 764:0.078920133 819:0.25632322 848:0.054120407 909:0.038448747 925:0.30619404 927:0.096192077 932:0.24755256 933:0.08452525 937:0.16536885 939:0.057036266 942:0.15219535 943:0.071989849 949:0.2956416 964:0.055079196 1149:0.10046408 1175:0.37736577 1201:0.25632322 1229:0.20246172 1309:0.058819246 1313:0.081948392 1315:0.091566741 1320:0.36306813 1331:0.14172366 1336:0.089349262 1341:0.066801339 1344:0.15203013 1345:0.096894078 1355:0.17930175 1356:0.25350839 1359:0.12762657 1365:0.81353301 1371:0.096563779 1719:0.22772172 1757:0.30692965 1766:0.12150037 1794:0.11276188 1802:0.11367625 1808:0.1478208 1831:0.15219535 1939:0.11105093 1945:0.24105707 2027:0.083082199 2038:0.12348462 2076:0.27101713 2257:0.1361063 2272:0.071745649 2325:0.34948945 2368:0.12979123 2384:0.27509987 2385:0.15371516 2394:0.30619404 2406:0.21876001 2526:0.29997894 2537:0.18994714 2552:0.24475108 2586:0.19662757 2598:0.22727019 2604:0.13731699 2619:0.21578929 2620:0.24755256 2707:0.207173 2710:0.37845123 2754:0.14107725 2757:0.21398088 2760:0.076795712 3137:0.15847883 3141:0.21954955 3159:0.13034281 3342:0.26349139 3347:0.22772172 3401:0.24475108 3404:0.36251241 3467:0.18994714 3491:0.2345296 3517:0.18994714 3569:0.18040919 3612:0.36251241 3622:0.207173 3641:0.16720045 3642:0.16536885 3683:0.14853154 3880:0.37845123 3890:0.2123021 3921:0.37845123 4029:0.33847868 4045:0.27101713 4051:0.2345296 4071:0.15847883 4074:0.16447036 4439:0.18383841 4473:0.19387999 4546:0.097957551 4626:0.22772172 4659:0.13259271 4792:0.21764468 5107:0.30619404 5248:0.33626834 5357:0.28896818 5570:0.36251241 5579:0.2671552 5632:0.64105529 5639:0.1593046 5692:0.5343104 5800:0.27509987 5813:0.34948945 5817:0.15526801 6009:0.3130019 6019:0.34948945 6118:0.22351883 6225:0.27509987 6254:0.30619404 6400:0.2671552 6724:0.42796177 6727:0.27101713 6814:0.24475108 6862:0.2942616 7013:0.36251241 7019:0.22150663 7123:0.3130019 7657:0.25350839 7661:0.27943021 7662:0.29997894 7666:0.23945765 8026:0.27509987 8027:0.27509987 8028:0.22772172 8038:0.26349139 8225:0.34948945 8312:0.25350839 8313:0.28896818 8325:0.42796177 8511:0.2345296 8608:0.26000637 8751:0.33847868 8832:0.19254483 8906:0.23945765 8944:0.25350839 8974:0.25046843 9120:0.3130019 9175:0.18383841 9307:0.3130019 9419:0.24755256 9448:0.2299197 9989:0.37845123 10037:0.32894072 10275:0.55019975 10748:0.17821121 10919:0.2671552 11105:0.33847868 11217:0.42796177 11378:0.42796177 11489:0.36251241 11655:0.27509987 11713:0.36251241 12598:0.65788144 12992:0.34948945 12993:0.36251241 13103:0.34948945 13104:0.33847868 13146:0.33847868 13174:0.30619404 13180:0.39899996 13238:0.3130019 13239:0.28896818 13775:0.28896818 13988:0.20881511 14110:0.72502482 14266:0.48950216 14883:0.39899996 15028:0.19804205 15039:0.29997894 15253:0.27943021 15427:0.2671552 15465:0.3130019 15481:0.42796177 15482:0.39899996 15483:0.42796177 15559:0.39899996 15607:0.34948945 16223:0.27509987 16363:0.22558936 16699:0.24755256 16832:0.22772172 16886:0.42796177 17040:0.21578929 17514:0.27509987 17578:0.27509987 17913:0.42796177 18227:0.37845123 18248:0.2299197 18636:0.47747228 18637:0.47747228 18638:0.42796177 18639:0.47747228 18640:0.42796177 18641:0.32894072 18642:0.33847868 18643:0.32894072 18644:0.47747228 18645:0.47747228 18646:0.47747228 18647:0.47747228 18648:0.47747228 18649:0.47747228 18650:0.47747228 18651:0.95494455 18652:0.47747228 18653:0.47747228 18654:0.47747228 18655:0.42796177 18656:0.47747228 18657:0.47747228 18658:0.47747228 18659:0.47747228 18660:0.47747228 18661:0.47747228 18662:0.47747228 18663:0.47747228 18664:0.47747228 18665:0.47747228 18666:0.47747228 18667:0.47747228 18668:0.47747228 18669:0.42796177 18670:0.47747228 18671:0.47747228 18672:0.47747228 18673:0.39899996 18674:0.42796177 18675:0.47747228 18676:0.47747228 18677:0.47747228 18678:0.47747228 18679:0.47747228 18680:0.47747228 18681:0.47747228 18682:0.47747228 18683:0.47747228 18684:0.36251241 18685:0.47747228 18686:0.47747228 18687:0.47747228 18688:0.47747228 18689:0.47747228 18690:0.47747228 18691:0.47747228 18692:0.47747228 18693:0.47747228 18694:0.47747228 18695:0.47747228 18696:0.47747228 18697:0.47747228 18698:0.47747228 18699:0.47747228 18700:0.47747228 18701:0.47747228 18702:0.47747228 18703:0.47747228 18704:0.47747228 18705:0.47747228 18706:0.47747228 18707:0.47747228 18708:0.47747228 18709:0.47747228 18710:0.47747228 18711:0.47747228 18712:0.37845123 18713:0.47747228 18714:0.47747228 18715:0.47747228 18716:0.47747228 18717:0.47747228 18718:0.39899996 18719:0.47747228 18720:0.47747228 18721:0.47747228 18722:0.47747228 18723:0.47747228 18724:0.47747228 18725:0.42796177 18726:0.42796177 18727:0.47747228 18728:0.47747228 18729:0.36251241 18730:0.47747228 18731:0.47747228 18732:0.39899996 18733:0.39899996 18734:0.36251241 18735:0.47747228 18736:0.42796177 18737:0.47747228 18738:0.47747228 18739:0.47747228 18740:0.47747228 18741:0.39899996 18742:0.42796177 18743:0.39899996 18744:0.47747228 18745:0.47747228 18746:0.47747228 18747:0.47747228 18748:0.47747228 18749:0.47747228 18750:0.47747228 18751:0.47747228 18752:0.47747228 18753:0.47747228 18754:0.47747228 18755:0.47747228 18756:0.47747228 18757:0.47747228 18758:0.2671552 18759:0.47747228 18760:0.47747228 18761:0.47747228 18762:0.42796177 18763:0.47747228 18764:0.47747228 18765:0.47747228 18766:0.47747228 18767:0.47747228 18768:0.47747228 18769:0.47747228 18770:0.47747228 18771:0.47747228 18772:0.47747228 18773:0.47747228 18774:0.47747228 18775:0.47747228 18776:0.47747228 18777:0.47747228 18778:0.47747228 18779:0.47747228 18780:0.47747228 18781:0.42796177 18782:0.47747228 18783:0.47747228 18784:0.47747228 18785:0.47747228 18786:0.47747228 18787:0.47747228 18788:0.42796177 18789:0.47747228 18790:0.47747228 18791:0.47747228 18792:0.47747228 18793:0.47747228 18794:0.47747228 18795:0.47747228 18796:0.47747228 18797:0.47747228 18798:0.47747228 18799:0.39899996 18800:0.47747228 18801:0.47747228 18802:0.47747228 18803:0.47747228 18804:0.47747228 18805:0.47747228 18806:0.42796177 18807:0.42796177 18808:0.47747228 18809:0.42796177 18810:0.47747228 18811:0.32052764 18812:0.47747228 18813:0.47747228 18814:0.47747228 18815:0.47747228 18816:0.42796177 18817:0.47747228 18818:0.47747228 18819:0.47747228 18820:0.47747228 18821:0.47747228 18822:0.42796177 18823:0.42796177 18824:0.42796177 18825:0.47747228 18826:0.37845123 18827:0.47747228 18828:0.47747228 18829:0.47747228 18830:0.47747228 18831:0.47747228 18832:0.39899996 18833:0.47747228 18834:0.47747228 18835:0.37845123 18836:0.47747228 18837:0.47747228 18838:0.47747228 18839:0.47747228 18840:0.39899996 18841:0.47747228 18842:0.47747228 18843:0.47747228 18844:0.39899996 18845:0.47747228 18846:0.47747228 18847:0.47747228 18848:0.47747228 18849:0.47747228 18850:0.47747228 18851:0.42796177 18852:0.27101713 18853:0.27509987 18854:0.32894072 18855:0.47747228 18856:0.42796177 18857:0.47747228 18858:0.47747228 18859:0.47747228 18860:0.47747228 18861:0.42796177 18862:0.47747228 18863:0.47747228 18864:0.47747228 18865:0.47747228 18866:0.47747228 18867:0.47747228 18868:0.47747228 18869:0.47747228 18870:0.42796177 18871:0.47747228 18872:0.47747228 18873:0.29997894 18874:0.47747228 18875:0.47747228 18876:0.47747228 18877:0.47747228 18878:0.47747228 18879:0.47747228 18880:0.47747228 18881:0.47747228 18882:0.47747228 18883:0.47747228 18884:0.47747228 18885:0.47747228 18886:0.47747228 18887:0.47747228 18888:0.47747228 18889:0.39899996 18890:0.47747228 18891:0.47747228 18892:0.47747228 18893:0.47747228 18894:0.25668353 18895:0.39899996 18896:0.47747228 18897:0.47747228 18898:0.37845123 18899:0.47747228 18900:0.47747228 18901:0.47747228 18902:0.47747228 18903:0.36251241 18904:0.47747228 18905:0.30619404 18906:0.47747228 18907:0.47747228 18908:0.28896818 18909:0.95494455 18910:0.47747228 18911:0.39899996 18912:0.47747228 18913:0.36251241 18914:0.47747228 18915:0.33847868 18916:0.42796177 18917:0.24755256 18918:0.47747228 18919:0.47747228 18920:0.39899996 18921:0.39899996 18922:0.39899996 18923:0.47747228 18924:0.47747228 18925:0.47747228 18926:0.47747228 18927:0.42796177 18928:0.42796177 18929:0.42796177 18930:0.42796177 18931:0.47747228 18932:0.47747228 18933:0.47747228 18934:0.37845123 18935:0.42796177 18936:0.47747228 18937:0.47747228 18938:0.47747228 18939:0.47747228 18940:0.47747228 18941:0.47747228 18942:0.47747228 18943:0.47747228 18944:0.39899996 18945:0.42796177 18946:0.47747228 18947:0.47747228 18948:0.47747228 18949:0.47747228 18950:0.34948945 18951:0.34948945 18952:0.42796177 18953:0.36251241 18954:0.39899996 18955:0.42796177 18956:0.47747228 18957:0.47747228 18958:0.47747228 18959:0.42796177 18960:0.42796177 18961:0.26349139 18962:0.42796177 18963:0.47747228 18964:0.42796177 18965:0.33847868 18966:0.42796177 18967:0.37845123 18968:0.47747228 18969:0.47747228 18970:0.47747228 18971:0.47747228 18972:0.47747228 18973:0.39899996 18974:0.42796177 18975:0.47747228 18976:0.47747228 18977:0.47747228 18978:0.39899996 18979:0.47747228 18980:0.27943021 18981:0.47747228 18982:0.47747228 18983:0.36251241 18984:0.37845123 18985:0.42796177 18986:0.42796177 18987:0.47747228 18988:0.47747228 18989:0.47747228 18990:0.47747228 18991:0.26000637 18992:0.37845123 18993:0.42796177 18994:0.32894072 18995:0.2942616 18996:0.20556781 18997:0.47747228 18998:0.42796177 18999:0.47747228 19000:0.47747228 19001:0.47747228 19002:0.42796177 19003:0.33847868 19004:0.42796177 19005:0.47747228 19006:0.51336706 19007:0.75690246 19008:0.34948945 19009:0.39899996 19010:0.37845123 19011:0.32894072 19012:0.37845123 19013:0.42796177 19014:0.47747228 19015:0.42796177 19016:0.42796177 19017:0.33847868 19018:0.42796177 19019:0.42796177 19020:0.47747228 19021:0.37845123 #
-0.0028610916161193192600031842687258 174:0.75690246 189:0.042292904 292:0.097854376 297:0.007533005 299:0.026833819 300:0.082023837 306:0.34007809 309:0.008112004 311:0.049943063 312:0.0071788114 321:0.084434569 330:0.11566871 331:0.15676615 336:0.064594813 343:0.47390229 346:0.21468975 348:0.29849884 360:0.081234835 478:0.6260038 480:0.12223802 554:0.20917942 560:0.02661851 561:0.023848636 563:0.54683632 564:0.15570004 566:0.087481581 574:0.1650261 592:0.40799576 799:0.5343104 878:0.29146013 900:0.3028948 902:0.77017933 922:0.29009306 934:0.25209013 958:0.031654611 1149:0.20092815 1180:0.6028288 1205:0.29423413 1313:0.49169034 1322:0.37736577 1333:0.3323288 1336:0.17869852 1339:0.97900432 1368:0.14997458 1371:0.38625512 1404:0.52698278 1405:0.85592353 1603:0.40799576 1604:0.85592353 1634:0.31211457 1766:0.24300073 1770:0.22210185 1796:0.67695737 1808:0.2956416 2027:0.49849319 2405:0.27101713 2406:0.43752003 2586:0.78651029 2754:0.2821545 2947:0.85592353 3105:0.85592353 3125:0.23631054 3127:0.37243918 3151:0.36767682 3161:0.79799992 3687:0.41434601 3890:0.2123021 3989:0.79799992 4053:0.31695765 4064:0.4789153 4071:0.31695765 4473:0.38775998 4579:0.55886042 4623:0.55886042 4624:0.55886042 4658:0.55886042 4890:0.64105529 4966:0.48950216 5101:1.0539656 5124:0.85592353 5144:0.49510512 5154:0.40799576 5248:0.67253667 5252:0.56808025 5256:0.36767682 5816:0.57793635 6118:0.44703767 6176:0.26404712 6497:0.33440089 6503:0.64105529 7703:0.57793635 8054:0.50701678 8055:0.56808025 8324:0.48411068 9692:0.52698278 10205:0.55019975 10297:0.85592353 10298:0.85592353 10425:0.79799992 10426:0.85592353 10427:0.4390991 10506:0.6989789 10507:0.33816051 10835:0.67695737 10847:0.48950216 11465:0.59995788 12188:0.43528935 12596:0.85592353 13136:0.58852321 14996:0.55886042 15289:0.87057871 15450:0.65788144 16211:0.55886042 16275:0.79799992 16276:0.75690246 16337:0.65788144 16338:0.67695737 16360:0.59995788 17845:0.75690246 18961:0.52698278 19022:0.85592353 19023:0.95494455 19024:0.95494455 19025:1.9098891 19026:0.95494455 19027:0.79799992 19028:0.75690246 19029:0.95494455 19030:0.85592353 19031:0.67695737 19032:0.95494455 19033:0.95494455 19034:0.95494455 19035:0.95494455 19036:0.95494455 19037:0.95494455 19038:0.95494455 19039:0.95494455 19040:0.95494455 19041:0.95494455 19042:0.95494455 19043:0.95494455 19044:0.95494455 19045:0.85592353 19046:0.95494455 19047:0.95494455 19048:0.95494455 19049:0.95494455 19050:0.95494455 19051:0.95494455 19052:0.95494455 19053:0.95494455 19054:0.95494455 19055:0.95494455 19056:0.95494455 19057:0.95494455 19058:0.95494455 19059:0.95494455 19060:0.95494455 19061:0.95494455 19062:0.85592353 19063:0.95494455 19064:0.85592353 19065:0.79799992 19066:0.95494455 19067:0.95494455 19068:0.95494455 19069:0.95494455 19070:0.95494455 19071:0.95494455 19072:0.95494455 19073:0.95494455 19074:0.95494455 19075:0.95494455 19076:0.95494455 19077:0.85592353 19078:0.95494455 19079:0.95494455 19080:0.95494455 19081:0.95494455 19082:0.95494455 19083:0.95494455 19084:0.95494455 19085:0.95494455 19086:0.95494455 19087:0.95494455 19088:0.95494455 19089:0.95494455 19090:0.85592353 19091:0.95494455 19092:0.95494455 19093:0.95494455 19094:0.95494455 19095:0.95494455 19096:0.95494455 19097:0.95494455 19098:0.95494455 19099:0.95494455 19100:0.95494455 19101:0.95494455 19102:0.95494455 19103:0.95494455 19104:0.85592353 19105:1.9098891 19106:0.95494455 19107:0.95494455 19108:0.95494455 19109:0.95494455 19110:0.95494455 19111:0.95494455 19112:0.95494455 19113:0.95494455 19114:0.95494455 19115:0.95494455 19116:0.95494455 19117:0.95494455 19118:0.95494455 19119:0.95494455 19120:0.95494455 19121:0.95494455 19122:0.95494455 19123:0.95494455 19124:0.95494455 19125:0.95494455 19126:0.95494455 19127:0.95494455 19128:0.95494455 19129:1.5959998 19130:0.75690246 19131:0.67695737 19132:0.75690246 19133:0.6260038 19134:0.95494455 19135:0.95494455 19136:0.95494455 19137:0.95494455 19138:0.95494455 19139:0.95494455 19140:0.95494455 19141:0.95494455 19142:0.95494455 19143:0.85592353 19144:0.95494455 19145:0.95494455 19146:0.95494455 19147:0.95494455 19148:0.95494455 19149:0.85592353 19150:1.4500496 19151:0.79799992 19152:0.95494455 19153:0.85592353 19154:0.85592353 19155:0.79799992 19156:0.75690246 19157:0.79799992 19158:0.6989789 19159:0.95494455 19160:0.85592353 19161:0.79799992 19162:0.6260038 19163:0.95494455 19164:0.95494455 19165:0.95494455 19166:0.72502482 19167:0.95494455 19168:0.95494455 19169:0.95494455 19170:0.95494455 19171:0.95494455 19172:0.85592353 19173:0.95494455 19174:0.95494455 19175:0.95494455 19176:0.72502482 19177:0.85592353 19178:0.95494455 19179:0.95494455 19180:0.95494455 19181:0.85592353 19182:1.3979578 19183:0.95494455 19184:0.95494455 19185:0.95494455 19186:0.95494455 19187:0.95494455 19188:0.95494455 19189:0.95494455 19190:0.95494455 19191:0.95494455 19192:0.79799992 19193:0.95494455 19194:0.95494455 19195:0.95494455 19196:0.75690246 19197:0.95494455 19198:0.95494455 19199:0.75690246 19200:0.95494455 19201:1.4500496 19202:0.95494455 19203:0.95494455 19204:0.85592353 19205:0.95494455 19206:0.67695737 19207:0.95494455 19208:0.79799992 19209:0.55886042 19210:0.95494455 19211:0.85592353 19212:0.95494455 19213:0.95494455 19214:0.95494455 19215:0.95494455 #
-0.0081660244033584326178720758093732 189:0.032894481 212:0.089652881 290:0.047013339 292:0.076108955 297:0.0087885056 298:0.047438238 299:0.041741498 300:0.018227519 305:0.060764965 309:0.012618673 311:0.012948202 312:0.0089336317 322:0.14344269 326:0.30806541 327:0.40987548 328:0.21172091 331:0.12192923 336:0.050240412 346:0.16698091 360:0.063182645 369:0.27067962 490:0.093774453 530:0.1370637 558:0.064176537 560:0.041406572 561:0.055646818 566:0.10206185 574:0.12835363 588:0.4020921 613:0.25724044 764:0.12276465 767:0.23443341 878:0.2266912 888:0.1585222 901:0.15292712 909:0.17942749 911:0.37348121 927:0.074816063 936:0.42158222 958:0.14772151 962:0.15741706 1181:0.32743803 1282:0.31260118 1309:0.091496602 1319:0.31733003 1322:0.29350671 1323:0.31494045 1336:0.13898775 1341:0.20782639 1345:0.075362064 1352:0.20625533 1365:0.25309917 1371:0.15021032 1597:0.34152153 1598:0.17274588 1663:0.40445438 1719:0.3542338 1751:0.10605688 1757:0.15914869 1768:0.23104906 1784:0.38961753 1790:0.33285913 1793:0.40987548 2011:0.33011553 2038:0.19208719 2226:0.17952307 2257:0.21172091 2355:0.18307324 2390:0.41557476 2405:0.84316444 2535:0.28238633 2579:0.46663389 2584:0.20895451 2604:0.2136042 2619:1.0070167 2757:0.33285913 2760:0.35837999 2977:0.39928547 3122:0.27067962 3144:0.29350671 3384:0.54365027 3491:0.36482382 3683:0.23104906 3718:0.42793316 3902:0.12402969 4009:0.56390822 4272:0.40445438 4282:0.34456587 4298:0.29350671 4546:0.15237841 4640:0.36482382 4661:0.19936252 4794:0.62066662 4847:0.5265224 4852:0.41557476 4855:0.34152153 4856:0.34152153 4936:0.32226911 4937:0.31260118 5185:0.3248235 5567:0.44091809 5690:0.56390822 5781:0.44950604 6131:0.77016354 6328:0.40445438 6460:0.40445438 6507:0.51168555 6859:0.54365027 6875:0.5887019 6967:0.21455795 7052:0.36859065 7113:0.36118051 8487:0.66571826 8508:0.66571826 8953:0.40987548 9018:0.5265224 9105:0.51168555 9714:0.41557476 10033:0.83114952 10120:0.62066662 10193:0.54365027 10215:0.62066662 10530:0.39434639 10531:0.40987548 10584:0.39928547 10793:0.48689184 10834:0.99719715 10839:0.38508177 10868:0.5265224 10869:0.54365027 10907:0.51168555 10908:0.5265224 10921:0.49859858 11694:0.49859858 11752:0.62066662 12542:0.38072392 15031:0.38508177 15032:0.56390822 15427:0.41557476 15694:0.44184017 16216:0.51168555 16456:0.51168555 16488:0.49859858 17046:0.49859858 18853:0.85586631 18959:0.66571826 18991:0.80890876 19013:0.66571826 19216:0.5887019 19217:0.5887019 19218:0.62066662 19219:0.66571826 19220:0.5265224 19221:0.74273461 19222:0.74273461 19223:0.74273461 19224:0.74273461 19225:0.74273461 19226:0.66571826 19227:0.74273461 19228:0.74273461 19229:0.74273461 19230:0.74273461 19231:0.74273461 19232:0.74273461 19233:0.74273461 19234:0.74273461 19235:0.74273461 19236:0.74273461 19237:0.74273461 19238:0.74273461 19239:0.74273461 19240:0.74273461 19241:0.74273461 19242:0.74273461 19243:0.74273461 19244:0.74273461 19245:0.74273461 19246:0.74273461 19247:0.74273461 19248:0.74273461 19249:0.74273461 19250:0.74273461 19251:0.74273461 19252:0.66571826 19253:0.74273461 19254:0.74273461 19255:0.74273461 19256:0.74273461 19257:0.74273461 19258:0.74273461 19259:0.74273461 19260:0.74273461 19261:0.5887019 19262:0.74273461 19263:0.74273461 19264:0.74273461 19265:0.74273461 19266:0.74273461 19267:0.49859858 19268:0.62066662 19269:0.66571826 19270:0.66571826 19271:0.74273461 19272:0.74273461 19273:0.66571826 19274:0.74273461 19275:0.74273461 19276:0.74273461 19277:0.74273461 19278:0.66571826 19279:0.66571826 19280:0.74273461 19281:0.5887019 19282:0.74273461 19283:0.74273461 19284:0.74273461 19285:0.74273461 19286:0.74273461 19287:0.74273461 19288:0.74273461 19289:0.74273461 19290:0.74273461 19291:0.66571826 19292:0.74273461 19293:0.74273461 19294:0.74273461 19295:0.74273461 19296:0.74273461 19297:0.5887019 19298:0.66571826 19299:0.62066662 19300:0.74273461 19301:0.74273461 19302:0.66571826 19303:0.74273461 19304:0.74273461 19305:0.74273461 19306:0.74273461 19307:0.74273461 19308:0.74273461 19309:0.74273461 19310:0.74273461 19311:0.74273461 19312:0.74273461 19313:0.74273461 19314:0.62066662 19315:0.62066662 19316:0.74273461 19317:0.74273461 19318:0.74273461 19319:0.74273461 19320:0.74273461 19321:0.74273461 19322:0.74273461 19323:0.74273461 19324:0.54365027 19325:0.66571826 19326:0.74273461 19327:0.74273461 19328:0.54365027 19329:0.62066662 19330:0.74273461 19331:0.74273461 19332:0.74273461 19333:0.74273461 19334:0.74273461 19335:0.74273461 19336:0.74273461 19337:0.74273461 19338:0.74273461 19339:0.74273461 19340:0.74273461 19341:0.74273461 19342:0.74273461 19343:0.74273461 19344:0.56390822 19345:0.74273461 19346:0.74273461 19347:0.74273461 19348:0.56390822 19349:0.62066662 19350:0.66571826 19351:0.74273461 19352:0.66571826 19353:0.99719715 19354:0.66571826 19355:0.74273461 19356:0.74273461 19357:0.74273461 19358:0.74273461 19359:0.74273461 19360:0.74273461 19361:0.74273461 19362:0.74273461 19363:0.74273461 19364:1.4854692 19365:0.74273461 19366:0.62066662 19367:0.74273461 19368:0.74273461 19369:0.74273461 19370:0.74273461 19371:0.74273461 19372:0.74273461 19373:0.74273461 19374:0.44950604 19375:0.74273461 19376:0.74273461 19377:0.74273461 19378:0.74273461 19379:0.66571826 19380:0.56390822 19381:0.38072392 19382:0.74273461 19383:0.74273461 19384:0.74273461 19385:0.74273461 19386:0.56390822 19387:0.66571826 19388:0.5265224 19389:0.66571826 19390:0.66571826 19391:0.66571826 19392:0.66571826 19393:0.40445438 19394:0.56390822 19395:0.66571826 19396:0.51168555 19397:0.74273461 19398:0.74273461 19399:0.74273461 19400:0.66571826 19401:0.66571826 19402:0.74273461 19403:0.66571826 19404:0.74273461 19405:0.5887019 19406:0.5887019 19407:0.5265224 19408:0.74273461 19409:0.74273461 19410:0.74273461 19411:0.74273461 19412:0.74273461 19413:0.74273461 19414:0.74273461 19415:0.5887019 19416:0.62066662 19417:0.66571826 19418:0.74273461 19419:0.74273461 19420:0.66571826 19421:0.74273461 19422:0.74273461 19423:0.74273461 19424:0.62066662 19425:0.5265224 19426:0.74273461 19427:0.30586511 19428:0.74273461 19429:0.66571826 19430:0.62066662 19431:0.74273461 19432:0.74273461 19433:0.74273461 19434:0.74273461 19435:0.74273461 19436:0.38072392 19437:0.66571826 19438:0.74273461 19439:0.74273461 19440:0.62066662 19441:0.66571826 19442:0.66571826 19443:0.56390822 19444:0.39928547 19445:0.66571826 19446:0.66571826 19447:0.3509168 19448:0.74273461 19449:0.66571826 #
-0.0075771923210214212063284833220678 163:0.34202176 164:0.17561294 288:0.20091358 289:0.24468409 292:0.048927188 297:0.0087885056 299:0.08050146 309:0.0027040015 311:0.066590749 312:0.0014357623 321:0.084434569 330:0.11566871 355:0.37488124 360:0.032493934 375:0.40182716 554:0.20917942 558:0.082512692 560:0.053237021 564:0.15570004 580:0.11054501 764:0.15784027 780:0.40799576 785:0.59995788 831:0.32368159 890:0.52001274 909:0.076897494 939:0.11407253 943:0.1439797 952:0.23081537 959:0.145455 960:0.19521311 1022:0.39897022 1147:0.25740141 1198:0.2821545 1234:0.42099172 1309:0.058819246 1315:0.18313348 1336:0.17869852 1345:0.096894078 1764:0.19312756 1886:0.6260038 1937:0.25209013 1978:0.44301325 2004:0.87057871 2019:0.36767682 2406:0.21876001 2534:0.23819026 2598:0.15151346 2730:0.42443424 3058:0.38246837 3075:0.34007809 3150:0.35427415 3477:0.48411068 3958:0.50093687 4125:0.79799992 4228:0.65788144 4289:0.39325514 4292:0.29009306 4392:0.4789153 4514:0.3960841 4530:0.4789153 5246:0.42796177 5253:0.33626834 5355:0.4789153 6049:0.47390229 6374:0.75690246 8479:0.52698278 8941:0.6989789 9113:0.59995788 9162:0.35642242 9659:0.6260038 9663:0.85592353 9670:0.79799992 9743:0.65788144 9749:0.67695737 9959:0.79799992 10044:0.5343104 10892:0.56808025 11361:0.43157858 12274:0.38508967 12418:0.79799992 13106:0.55886042 13154:0.72502482 13223:0.65788144 13261:0.41763023 13382:0.79799992 16424:0.64105529 16764:0.65788144 16839:0.47390229 17129:0.79799992 17245:0.72502482 19450:0.95494455 19451:0.95494455 19452:0.95494455 19453:0.95494455 19454:0.95494455 19455:0.95494455 19456:0.95494455 19457:0.95494455 19458:0.79799992 19459:0.79799992 19460:0.85592353 19461:0.95494455 19462:0.95494455 19463:0.85592353 19464:0.95494455 19465:0.95494455 19466:0.75690246 19467:0.95494455 19468:0.95494455 19469:0.95494455 19470:0.95494455 19471:0.79799992 19472:0.85592353 19473:0.95494455 19474:0.95494455 19475:0.95494455 19476:0.95494455 19477:0.95494455 19478:0.95494455 19479:0.85592353 19480:0.95494455 19481:0.95494455 19482:0.56808025 19483:0.95494455 19484:0.95494455 19485:0.95494455 19486:0.95494455 19487:0.95494455 19488:0.95494455 19489:0.61238807 19490:0.85592353 19491:0.95494455 19492:0.95494455 19493:0.95494455 19494:0.95494455 19495:0.95494455 19496:0.95494455 19497:0.95494455 19498:0.95494455 19499:0.95494455 19500:0.61238807 19501:0.95494455 19502:0.85592353 19503:0.72502482 19504:0.72502482 19505:0.95494455 19506:0.95494455 19507:0.95494455 19508:0.79799992 19509:0.6989789 19510:0.79799992 19511:0.85592353 19512:0.65788144 19513:0.95494455 19514:0.67695737 19515:0.85592353 19516:0.75690246 19517:0.72502482 19518:0.65788144 19519:0.55886042 19520:0.85592353 19521:0.6989789 19522:0.95494455 19523:0.95494455 19524:0.95494455 19525:0.56808025 19526:0.95494455 19527:0.95494455 #
-0.0060708322220646114553144201408941 50:0.25105116 51:0.2500197 164:0.17561294 189:0.12687871 198:0.3300522 199:0.17932373 288:0.10045679 289:0.081561364 290:0.060445722 294:0.2956416 297:0.0087885056 299:0.026833819 304:0.12473395 309:0.008112004 311:0.033295374 312:0.0071788114 328:0.27221259 336:0.19378445 360:0.016246967 371:0.27101713 480:0.12223802 491:0.1148684 495:0.6260038 501:0.38508967 560:0.02661851 561:0.023848636 564:0.15570004 572:0.48950216 575:0.18058239 580:0.11054501 589:0.31532499 848:0.10824081 880:0.75690246 901:0.19662057 909:0.076897494 924:0.37989429 955:0.57793635 956:0.15048571 958:0.031654611 1371:0.19312756 1396:0.27341816 1397:0.30897474 1598:0.22210185 1700:0.27586022 1752:0.21468975 1757:0.4092395 1804:0.21711797 1884:0.39897022 2148:0.65788144 2304:0.52001274 2373:0.40492344 2597:0.48950216 2622:0.29146013 2760:0.46077424 2864:0.45117873 2907:0.65788144 2980:0.32894072 3033:0.39325514 3072:0.56808025 3073:0.33626834 3145:0.49510512 3224:0.50093687 3667:0.42443424 3902:0.15946674 3963:0.67695737 4051:0.4690592 4443:0.41113561 4548:0.35427415 4736:0.52698278 6302:0.42099172 6375:0.56808025 7159:0.41434601 7160:0.42443424 7422:0.85592353 7423:0.35860351 7469:0.55019975 7602:0.85592353 7603:0.79799992 7616:0.29849884 7657:0.50701678 7658:0.75690246 8519:0.85592353 8520:0.79799992 8521:0.54203427 8764:0.85592353 8765:0.54203427 8766:0.52698278 8844:0.85592353 8951:0.45117873 8971:0.54203427 9412:0.51336706 10300:0.61238807 10428:0.42443424 10508:0.41763023 13414:0.6989789 13457:0.52698278 14877:0.51336706 16029:0.72502482 16160:0.72502482 17237:0.52001274 17494:0.75690246 17498:0.85592353 17499:0.75690246 17569:0.5343104 17570:0.65788144 18026:0.65788144 18170:0.4690592 18995:0.58852321 19444:0.51336706 20769:0.72502482 21141:0.79799992 22241:0.61238807 22242:0.85592353 22282:0.59995788 22337:0.59995788 22672:0.55019975 22775:0.85592353 22832:0.79799992 22946:0.43528935 25399:0.6989789 30324:0.55886042 30412:0.47390229 30458:0.47390229 30631:0.75690246 30632:0.79799992 30633:0.95494455 30634:0.67695737 30635:0.85592353 30636:0.85592353 30637:0.95494455 30638:0.95494455 30639:0.95494455 30640:0.95494455 30641:0.85592353 30642:0.95494455 30643:0.95494455 30644:0.95494455 30645:0.95494455 30646:0.95494455 30647:0.95494455 30648:0.95494455 30649:0.95494455 30650:0.95494455 30651:0.95494455 30652:0.95494455 30653:0.95494455 30654:0.72502482 30655:0.56808025 30656:0.95494455 30657:0.95494455 30658:0.95494455 30659:0.95494455 30660:0.85592353 30661:0.85592353 30662:0.85592353 30663:0.95494455 30664:0.85592353 30665:0.95494455 30666:0.95494455 30667:0.75690246 30668:0.67695737 30669:0.95494455 30670:0.95494455 30671:0.95494455 30672:0.79799992 30673:0.95494455 30674:0.95494455 30675:0.79799992 30676:0.79799992 30677:0.95494455 30678:0.75690246 30679:0.72502482 30680:0.72502482 30681:0.56808025 30682:0.56808025 30683:0.95494455 30684:0.72502482 30685:0.85592353 30686:0.67695737 30687:0.85592353 30688:0.56808025 30689:0.56808025 #
0.0026545181886712147442675124864309 160:0.39466655 177:0.33437604 189:0.074012578 192:0.3567791 212:0.20171899 292:0.25686774 297:0.0043942528 298:0.10673603 299:0.093918368 300:0.041011918 309:0.0047320025 311:0.029133454 312:0.010050336 321:0.1477605 331:0.27434078 336:0.11304092 360:0.02843219 491:0.20101969 560:0.046582393 561:0.083470225 564:0.27247509 780:0.7139926 909:0.26914123 953:0.60902911 958:0.055395566 1231:0.28485858 1322:0.66039014 1336:0.31272244 1345:0.16956465 1397:0.5407058 1598:0.38867825 1719:0.79702604 1802:0.59680033 2364:0.42525128 2439:0.45619982 2440:0.49377039 2534:0.41683298 2983:0.55467588 3125:0.41354346 3391:0.7752732 3425:0.42016634 3479:1.0299156 3690:0.43753445 4047:0.56644279 4051:0.82085359 4230:1.2232131 4283:0.86643398 4320:0.72510552 4860:0.69314718 5144:0.86643398 5256:0.64343446 6254:1.0716791 6393:0.84719372 6487:1.2687935 6881:0.70335269 7544:0.94856 7612:1.0955067 7865:1.2687935 8351:0.99414039 8504:1.2687935 9176:0.86643398 9431:1.0499263 9433:0.88727939 10582:1.3964999 10606:0.89839232 12182:1.3245794 12464:0.63536924 12805:0.92221987 13502:1.3964999 13568:1.2232131 15039:1.0499263 15442:1.3245794 21555:1.0716791 23903:1.2232131 24041:1.2232131 24072:1.1846753 33530:1.1846753 34316:1.3245794 46352:1.3245794 46901:0.8381018 47687:1.3964999 47718:1.3964999 54585:1.2687935 70456:1.3964999 71061:1.0955067 80998:1.6711529 80999:1.6711529 81000:1.6711529 81001:1.6711529 81002:1.4978662 81003:1.6711529 81004:1.4978662 81005:1.6711529 81006:1.6711529 81007:1.3245794 81008:1.6711529 81009:1.6711529 81010:1.4978662 81011:1.4978662 81012:1.6711529 81013:1.6711529 81014:1.6711529 81015:1.6711529 81016:1.6711529 81017:1.6711529 81018:1.6711529 81019:1.6711529 81020:1.6711529 81021:1.6711529 81022:1.6711529 81023:1.6711529 81024:1.6711529 81025:1.6711529 81026:1.6711529 81027:1.6711529 81028:1.6711529 81029:1.6711529 81030:1.6711529 81031:1.6711529 81032:1.6711529 81033:1.6711529 81034:1.6711529 81035:1.6711529 81036:1.6711529 81037:1.3964999 81038:1.6711529 81039:1.6711529 81040:1.6711529 81041:1.6711529 81042:1.6711529 81043:1.6711529 81044:1.6711529 81045:1.6711529 81046:1.6711529 81047:1.6711529 81048:1.6711529 81049:1.6711529 81050:1.3964999 81051:1.4978662 81052:1.3245794 81053:1.1846753 81054:1.6711529 81055:1.6711529 81056:1.6711529 81057:1.6711529 81058:1.6711529 81059:1.6711529 81060:1.6711529 81061:1.6711529 81062:1.6711529 81063:1.6711529 81064:1.6711529 81065:1.6711529 81066:1.6711529 81067:1.6711529 81068:1.6711529 81069:1.6711529 81070:1.3964999 81071:1.6711529 81072:1.6711529 81073:1.3964999 81074:1.6711529 81075:1.6711529 81076:1.6711529 81077:1.6711529 #
0.0060281314614886094202517163864741 50:0.195262 158:0.15684579 189:0.065788962 198:0.12835363 210:0.26301372 212:0.089652881 248:0.49859858 285:0.29096296 290:0.047013339 292:0.11416344 297:0.0087885056 298:0.14231472 299:0.12522449 300:0.063796319 304:0.048507649 305:0.060764965 309:0.0021031122 311:0.090637416 312:0.010050336 316:0.075636074 330:0.089964554 331:0.12192923 336:0.050240412 337:0.19607009 356:0.52901036 360:0.03790959 375:0.31253222 418:0.30806541 475:0.53820705 480:0.095074013 491:0.08934208 509:0.2266912 558:0.064176537 560:0.10351643 561:0.074195758 566:0.034020618 765:0.22884877 784:0.38072392 867:0.3542338 874:0.38072392 878:0.2266912 899:0.66571826 909:0.11961833 911:0.18674061 913:0.23443341 924:0.29547334 927:0.074816063 934:0.19607009 943:0.11198422 953:0.27067962 958:0.14772151 959:0.22626334 963:0.30806541 964:0.085678749 1205:0.22884877 1288:0.38961753 1308:0.28597087 1309:0.045748301 1333:0.12923898 1352:0.20625533 1355:0.27891383 1368:0.2332938 1371:0.15021032 1770:0.17274588 1794:0.17540736 1802:0.088414863 2001:0.37653053 2004:0.33855841 2022:0.22776476 2027:0.12923898 2038:0.19208719 2226:0.17952307 2232:0.14193778 2234:0.34769598 2240:0.25724044 2257:0.21172091 2347:0.31260118 2363:0.14045297 2364:0.18900056 2379:0.27390045 2396:0.40987548 2612:0.33855841 2660:0.29547334 2764:0.39928547 3110:0.32743803 3125:0.18379709 3149:0.71024495 3425:0.37348121 3494:0.28967491 3506:0.69539195 3617:0.51168555 3672:0.38072392 3690:0.19445975 3958:0.38961753 3973:0.31031016 4025:0.33567223 4058:0.16329733 4183:0.66571826 4189:0.31260118 4203:0.66571826 4269:0.5887019 4270:0.66571826 4297:0.5265224 4459:0.76522982 4482:0.26910353 4546:0.15237841 4701:0.40987548 5158:0.38961753 5239:0.39928547 5260:0.27227837 5265:0.22884877 5683:0.24275579 5759:0.46663389 5760:0.3248235 5807:0.46663389 5808:0.3248235 5818:0.3248235 5956:0.56390822 6110:0.49859858 6111:0.93326777 6172:0.29951417 6173:0.75306106 6207:0.45774028 6388:0.33285913 6457:0.44950604 6510:0.31977212 6967:0.21455795 7151:0.56390822 7316:0.41557476 8014:0.46663389 8079:0.38961753 8082:0.29547334 8301:0.46663389 8330:0.38508177 9121:0.54365027 9159:0.31031016 9629:0.34152153 9676:0.38072392 9701:0.48689184 10735:0.62066662 11188:0.39434639 11359:0.48689184 11361:0.33567223 11470:0.37248969 11874:0.49859858 12048:0.38508177 12805:0.40987548 12873:0.47630182 13026:0.44184017 13125:0.30370757 13138:0.42793316 13145:0.22994347 13330:0.66571826 13331:0.66571826 13415:0.66571826 13817:0.48689184 14363:0.62066662 15031:0.38508177 15419:0.46663389 15461:0.36859065 15470:0.44184017 15681:0.38072392 16304:0.33855841 16757:0.51168555 17471:0.39434639 17589:0.62066662 17897:0.47630182 18142:0.66571826 18853:0.42793316 18991:0.40445438 19788:0.5887019 19789:0.66571826 19928:0.56390822 21341:0.47630182 21548:0.44950604 22699:0.47630182 22822:0.48689184 23583:0.40445438 23916:0.66571826 24050:0.49859858 24356:0.44184017 25187:0.49859858 25214:0.5265224 25647:0.56390822 26536:0.41557476 28588:0.56390822 28750:0.5265224 30055:0.46663389 30236:0.62066662 30281:0.62066662 30990:0.5265224 32310:0.66571826 32918:0.54365027 33467:0.66571826 33522:0.66571826 33523:0.5887019 34227:0.48689184 35632:0.5887019 36506:0.62066662 36532:0.5265224 41089:0.62066662 42700:0.66571826 42715:0.66571826 43536:0.66571826 43556:0.66571826 43635:0.62066662 49208:0.54365027 49295:0.48689184 51715:0.5887019 52308:0.42158222 52593:0.66571826 53101:0.47630182 54873:0.66571826 56081:0.5887019 56703:0.62066662 57716:0.62066662 57717:0.62066662 57831:0.62066662 61684:0.5887019 66478:0.5887019 67113:0.48689184 67868:0.66571826 68429:0.66571826 69014:0.66571826 75696:0.47630182 77468:0.56390822 79063:0.66571826 79268:0.66571826 80001:0.62066662 81078:0.74273461 81079:0.74273461 81080:0.74273461 81081:0.74273461 81082:0.74273461 81083:0.74273461 81084:0.74273461 81085:0.74273461 81086:0.74273461 81087:0.74273461 81088:0.74273461 81089:0.74273461 81090:0.74273461 81091:0.74273461 81092:0.74273461 81093:0.74273461 81094:0.74273461 81095:0.74273461 81096:0.74273461 81097:0.74273461 81098:0.74273461 81099:0.66571826 81100:0.66571826 81101:0.74273461 81102:0.74273461 81103:0.74273461 81104:0.74273461 81105:0.74273461 81106:0.74273461 81107:0.74273461 81108:0.74273461 81109:0.74273461 81110:0.74273461 81111:0.74273461 81112:0.74273461 81113:0.74273461 81114:0.74273461 81115:0.66571826 81116:0.74273461 81117:0.74273461 81118:0.74273461 81119:0.66571826 81120:0.74273461 81121:0.74273461 81122:0.74273461 81123:0.74273461 81124:0.74273461 81125:0.74273461 81126:0.74273461 81127:0.74273461 81128:0.74273461 81129:0.74273461 81130:0.74273461 81131:0.74273461 81132:0.74273461 81133:0.74273461 81134:0.74273461 81135:0.74273461 81136:0.74273461 81137:0.74273461 81138:0.5887019 81139:0.5887019 81140:0.66571826 81141:0.74273461 81142:0.74273461 81143:0.74273461 81144:0.74273461 81145:0.74273461 81146:0.74273461 81147:0.74273461 81148:0.74273461 81149:0.74273461 81150:0.74273461 81151:0.74273461 81152:0.74273461 81153:0.74273461 81154:0.74273461 81155:0.74273461 81156:0.74273461 81157:0.74273461 81158:0.74273461 81159:0.66571826 81160:0.66571826 81161:0.62066662 81162:0.74273461 81163:0.74273461 81164:0.66571826 81165:0.66571826 81166:0.66571826 81167:0.66571826 81168:0.74273461 81169:0.66571826 81170:0.74273461 81171:0.74273461 81172:0.74273461 81173:0.74273461 81174:0.74273461 81175:0.74273461 81176:0.74273461 81177:0.74273461 81178:0.74273461 81179:0.66571826 81180:0.74273461 81181:0.74273461 81182:0.62066662 81183:0.74273461 81184:0.74273461 81185:0.66571826 81186:0.66571826 81187:0.74273461 81188:0.74273461 81189:0.74273461 81190:0.74273461 81191:0.56390822 81192:0.74273461 81193:0.74273461 81194:0.74273461 81195:0.74273461 81196:0.74273461 81197:0.66571826 81198:0.74273461 81199:0.66571826 81200:0.66571826 81201:0.66571826 81202:0.74273461 81203:0.74273461 81204:0.74273461 81205:0.5887019 81206:0.66571826 81207:0.74273461 81208:0.74273461 81209:0.74273461 81210:0.74273461 81211:0.74273461 81212:0.74273461 81213:0.56390822 81214:0.74273461 81215:0.74273461 81216:0.74273461 81217:0.74273461 81218:0.74273461 81219:0.74273461 81220:0.74273461 81221:0.5887019 81222:0.66571826 81223:0.74273461 81224:0.62066662 81225:0.66571826 81226:0.74273461 81227:0.74273461 81228:0.74273461 81229:0.74273461 81230:0.66571826 81231:0.66571826 81232:0.74273461 81233:0.74273461 81234:0.5887019 #
0.0035559492842584866298394352668311 297:0.0087885056 299:0.11270204 300:0.016404767 309:0.011356806 311:0.11653382 312:0.0080402689 316:0.27228987 336:0.090432741 375:0.281279 397:0.51805341 467:0.52483374 490:0.16879402 491:0.32163149 554:0.29285118 558:0.11551777 560:0.11179775 561:0.033388089 562:0.27626136 566:0.061237108 580:0.30952603 764:0.22097638 888:0.28533995 908:0.39865276 909:0.3229695 911:0.33613309 931:0.77027971 937:0.46303278 948:0.3016924 956:0.42135999 958:0.22158226 964:0.15422174 1309:0.082346946 1315:0.25638688 1341:0.18704374 1345:0.13565171 1353:1.0040898 1359:0.35735437 1368:0.20996442 1598:0.31094259 1629:0.5505572 1751:0.19090238 1766:0.34020102 1794:0.31573325 1802:0.15914676 2005:1.0596634 2037:0.6094051 2038:0.34575695 2214:0.37942401 2226:0.64628303 2272:0.60266346 2368:0.36341545 2392:0.68530303 2612:0.6094051 2763:0.41992885 3149:0.42614695 3154:0.677755 3268:0.83994102 3425:0.33613309 3466:0.79003263 4034:0.56268215 4047:0.45315424 4078:0.97857046 4149:0.60421002 4189:0.56268215 4459:0.34435341 4568:0.67048144 4815:0.89747745 4855:0.61473876 4937:0.56268215 5248:0.47077566 5355:0.67048144 5556:1.0150348 5661:0.97857046 5662:0.71871388 5819:0.73777586 6166:0.79531229 6207:0.82393247 6388:0.59914643 6493:0.3618829 6512:0.45557851 7028:1.1982929 7097:1.1982929 7524:0.47342473 9159:0.55855829 9419:0.69314718 9528:0.677755 10174:1.3862944 10262:1.3002498 10289:1.2517054 10597:0.74803454 11874:0.89747745 12273:0.97857046 12504:2.3965857 12566:1.35551 12567:2.1193268 12616:0.68530303 13773:0.74803454 14381:0.79531229 14699:1.0150348 16136:0.85734332 16187:0.97857046 17592:0.97857046 17603:0.70982349 21415:0.71871388 21647:0.74803454 22973:0.80911088 23212:0.73777586 25192:0.82393247 27646:1.0150348 28894:1.0150348 28926:0.92103404 29748:1.1982929 29927:0.94774032 31004:0.8764053 31977:1.1171999 32142:1.1171999 32659:0.85734332 33381:1.0150348 34797:1.1982929 37745:1.1982929 37876:1.1171999 37877:1.1171999 41220:1.0596634 41311:1.1982929 45633:0.94774032 46326:1.0596634 49168:1.0596634 52426:1.0596634 53367:0.85734332 53791:1.1982929 54416:1.0150348 55716:1.1982929 62200:0.97857046 62813:1.1982929 65675:1.1982929 68483:1.1982929 68553:1.1982929 71208:1.1171999 75350:1.1982929 76085:1.1171999 77617:1.1982929 78121:1.1982929 78288:1.0150348 81235:1.3369223 81236:1.3369223 81237:1.3369223 81238:1.3369223 81239:1.3369223 81240:1.3369223 81241:1.3369223 81242:1.3369223 81243:1.3369223 81244:1.3369223 81245:1.3369223 81246:1.3369223 81247:1.3369223 81248:1.3369223 81249:1.3369223 81250:1.3369223 81251:1.3369223 81252:1.3369223 81253:1.3369223 81254:1.3369223 81255:1.3369223 81256:1.3369223 81257:1.3369223 81258:1.3369223 81259:1.3369223 81260:1.3369223 81261:1.3369223 81262:1.3369223 81263:1.3369223 81264:1.3369223 81265:1.3369223 81266:1.3369223 81267:1.3369223 81268:1.3369223 81269:1.3369223 81270:1.3369223 81271:1.3369223 81272:1.3369223 81273:1.3369223 81274:1.3369223 81275:1.3369223 81276:1.3369223 81277:1.3369223 81278:1.3369223 81279:1.3369223 81280:1.3369223 81281:1.1982929 81282:1.3369223 81283:1.3369223 81284:1.3369223 81285:1.3369223 81286:1.3369223 81287:1.3369223 81288:1.1982929 81289:1.3369223 81290:1.3369223 81291:1.3369223 81292:1.3369223 81293:1.3369223 81294:1.3369223 81295:1.3369223 81296:1.1982929 81297:1.3369223 81298:1.3369223 81299:1.3369223 81300:1.3369223 81301:1.3369223 81302:1.3369223 81303:1.3369223 81304:1.3369223 81305:1.3369223 81306:1.3369223 81307:1.3369223 81308:1.3369223 81309:1.3369223 81310:1.3369223 81311:1.3369223 81312:1.3369223 81313:1.3369223 81314:1.3369223 81315:1.3369223 81316:1.3369223 81317:1.1171999 81318:1.1982929 81319:1.3369223 81320:1.3369223 81321:1.3369223 81322:1.3369223 81323:1.3369223 81324:1.3369223 81325:1.3369223 81326:1.3369223 81327:1.3369223 #
0.0009658180779841994082618450434552 164:0.30732265 177:0.33437604 189:0.074012578 193:0.66481501 212:0.20171899 288:0.17579938 289:0.14273238 292:0.085622579 297:0.0065913796 300:0.041011918 309:0.01892801 311:0.087400362 312:0.010050336 321:0.29552099 322:0.32274604 328:0.47637206 336:0.22608185 358:0.26245552 360:0.056864381 472:0.4269695 500:0.7752732 562:0.34532669 574:0.5775913 575:0.31601918 628:0.64343446 781:0.56644279 782:0.63936931 909:0.13457061 910:0.55181873 927:0.16833614 930:0.48275539 939:0.19962692 956:0.79004997 958:0.055395566 962:0.35418838 968:1.0955067 1149:0.35162428 1150:0.94856 1231:0.28485858 1233:0.60548294 1309:0.10293368 1310:0.78956282 1322:0.66039014 1345:0.16956465 1370:0.40709147 1395:1.1512926 1593:0.7308529 1595:0.6475668 1597:0.76842344 1703:0.99414039 1751:0.23862799 1756:0.4269695 1804:0.37995642 1937:0.4411577 2214:0.47428 2272:0.25110978 2358:1.2687935 2408:0.8381018 2418:0.59513664 2419:0.88727939 2521:0.37291372 2522:0.55467588 2675:1.3245794 2734:0.80471897 2763:1.0498221 3037:0.80471897 3112:0.5917809 3483:0.74893308 3562:0.51005518 3690:0.43753445 3902:0.2790668 4013:0.73673552 4319:0.86643398 4791:0.7308529 5265:0.51490974 5566:0.91002232 5671:0.63536924 5817:0.54343808 5852:0.53006589 6040:0.82932895 6048:0.79702604 6176:0.46208245 6834:0.86643398 7161:0.72510552 9177:0.66931963 10856:0.7308529 13026:0.99414039 13125:0.68334198 15031:0.86643398 15669:0.84719372 15799:1.2232131 17500:1.0499263 17650:1.3964999 18229:0.89839232 18643:1.1512926 18853:0.96284962 18854:1.1512926 18991:0.91002232 22946:0.76175642 23212:0.92221987 24162:0.91002232 25913:1.2687935 28219:1.4978662 34033:0.99414039 35955:1.2687935 35956:1.3964999 36138:1.3964999 36398:0.99414039 37347:1.3964999 41302:1.3245794 41844:1.2687935 50265:1.2687935 53367:1.0716791 55006:1.1846753 55055:1.0499263 57031:1.4978662 58590:1.1846753 59139:1.2232131 59495:1.3964999 59562:1.3964999 63934:1.3245794 75178:1.2687935 76817:1.3964999 79875:1.4978662 81073:1.3964999 81328:1.6711529 81329:1.6711529 81330:1.4978662 81331:1.6711529 81332:1.6711529 81333:1.6711529 81334:1.6711529 81335:1.6711529 81336:1.6711529 81337:1.6711529 81338:1.6711529 81339:1.6711529 81340:1.6711529 81341:1.6711529 81342:1.6711529 81343:1.6711529 81344:1.3964999 81345:1.6711529 81346:1.6711529 81347:1.6711529 81348:1.6711529 81349:1.6711529 81350:1.6711529 81351:1.6711529 81352:1.6711529 81353:1.6711529 81354:1.6711529 81355:1.6711529 81356:1.6711529 81357:1.6711529 81358:1.6711529 81359:1.6711529 81360:1.6711529 81361:1.6711529 81362:1.6711529 81363:1.6711529 81364:1.6711529 81365:1.6711529 81366:1.4978662 81367:1.6711529 #
-0.0088646476772930304921516153626726 50:0.1757358 51:0.17501378 52:0.2834464 150:0.1721767 159:0.13233195 189:0.059210066 192:0.28542328 198:0.11551826 199:0.12552661 285:0.26186666 289:0.057092953 290:0.12693602 297:0.0061519542 298:0.042694412 299:0.15026939 300:0.032809533 302:0.189712 304:0.087313771 305:0.10937694 309:0.009464005 311:0.034960143 312:0.0070352349 321:0.23641679 323:0.29393518 330:0.16193619 331:0.21947262 346:0.15028282 358:0.10498221 360:0.022745753 375:0.21095926 467:0.26241687 475:0.24219319 480:0.08556661 491:0.080407873 537:0.2752786 554:0.14642559 558:0.057758883 560:0.037265915 561:0.10016427 564:0.21798007 566:0.09185566 575:0.12640767 580:0.077381507 583:0.35491174 594:0.25737378 595:0.22302644 834:0.25257286 848:0.15153714 885:0.26241687 888:0.14266998 909:0.053828247 927:0.067334458 933:0.11833535 936:0.37942401 939:0.079850771 948:0.3016924 956:0.10534 958:0.22158226 960:0.27329835 1161:0.44873872 1184:0.48928523 1252:0.41997051 1309:0.082346946 1315:0.12819344 1324:0.27927914 1334:0.30470255 1345:0.067825854 1352:0.1856298 1368:0.20996442 1371:0.13518929 1442:0.42867166 1501:0.47387016 1594:0.16607311 1622:0.25414771 1628:0.32188758 1629:0.2752786 1677:0.36888793 1703:0.39765614 1763:0.16347557 1766:0.17010051 1775:0.32823732 1804:0.45594773 1808:0.41389823 2022:0.20498827 2054:0.52831209 2226:0.48471224 2301:0.34265152 2316:0.1913927 2328:0.27725887 2368:0.18170772 2405:0.189712 2409:0.29710397 2523:0.3912023 2591:0.2465104 2604:0.38448757 2618:0.26956278 2754:0.19750816 2762:0.22302644 2789:0.29710397 2980:0.23025851 3071:0.22302644 3122:0.24361165 3141:0.30736938 3151:0.25737378 3223:0.40455544 3224:0.35065579 3338:0.47387016 3375:0.35065579 3392:0.2494957 3425:0.33613309 3473:0.33524072 3488:0.31582513 3503:0.37401727 3570:0.48928523 3642:0.46303278 3643:0.43820265 3683:0.41588831 3890:0.14861147 3902:0.11162672 4017:0.38513985 4051:0.32834142 4076:0.33524072 4316:0.44873872 4409:0.26772785 4455:0.41997051 4459:0.1721767 4546:0.13714057 4568:1.0057222 4805:0.48928523 4834:0.59914643 4843:0.52983171 4852:0.37401727 6091:0.32506245 6361:0.33173159 6388:0.29957321 6485:0.25737378 6516:0.15970154 6541:0.48928523 6633:0.41997051 6721:0.47387016 6798:0.32188758 6799:0.30736938 6861:0.37401727 7003:0.48928523 7010:0.19224378 7298:0.52983171 7515:0.36888793 7632:0.25737378 8079:0.35065579 8368:0.36888793 8503:0.35065579 9166:0.29004222 9191:0.39765614 9449:0.3388775 9528:0.3388775 10333:0.3388775 10467:0.5075174 10797:0.32188758 10839:0.34657359 11471:0.32506245 12011:0.21099007 12310:0.59914643 12409:0.48928523 12421:0.55859995 12616:0.34265152 13072:0.46051702 13142:0.30470255 13145:0.20694911 13453:0.31292635 14516:0.40455544 14673:0.43820265 15419:0.41997051 15658:0.35491174 15689:0.32506245 15699:0.30210501 16304:0.30470255 16474:0.59914643 17040:0.30210501 18170:0.32834142 18361:0.40455544 18642:0.47387016 18853:0.38513985 18991:0.72801787 19299:0.55859995 19406:0.52983171 19407:0.47387016 19747:0.67048144 19780:0.66346318 19782:0.31582513 19786:0.55859995 19787:0.55859995 19788:0.52983171 19789:0.59914643 19790:0.66846114 19791:0.66846114 19792:0.66846114 19793:0.66846114 19794:0.66846114 19795:0.66846114 19796:0.66846114 19797:0.43820265 19798:0.48928523 19799:0.66846114 19800:0.66846114 19801:0.66846114 19802:0.66846114 19803:0.59914643 19804:0.66846114 19805:0.66846114 19806:0.66846114 19807:0.66846114 19808:0.55859995 19809:0.66846114 19810:0.55859995 19811:0.66846114 19812:0.66846114 19813:0.66846114 19814:0.66846114 19815:0.66846114 19816:0.59914643 19817:0.55859995 19818:0.66846114 19819:0.66846114 19820:0.52983171 19821:0.55859995 19822:0.66846114 19823:0.3912023 19824:0.66846114 19825:0.59914643 19826:0.52983171 19827:0.66846114 19828:0.59914643 19829:1.1982929 19830:0.66846114 19831:0.59914643 19832:0.66846114 19833:0.48928523 19834:0.55859995 19835:0.66846114 19836:0.66846114 19837:0.66846114 19838:0.66846114 19839:0.66846114 19840:0.59914643 19841:0.66846114 19842:0.66846114 19843:0.59914643 19844:0.66846114 19845:0.66846114 19846:0.47387016 19847:0.66846114 19848:0.66846114 19849:0.66846114 19850:0.66846114 19851:0.59914643 19852:0.66846114 19853:0.66846114 19854:0.66846114 19855:0.35065579 19856:0.59914643 19857:0.66846114 19858:0.66846114 19859:0.66846114 19860:0.66846114 19861:0.66846114 19862:0.55859995 19863:0.48928523 19864:0.55859995 19865:0.59914643 19866:0.66846114 19867:0.66846114 19868:0.66846114 19869:0.66846114 19870:0.66846114 19871:0.66846114 19872:0.66846114 19873:0.66846114 19874:0.66846114 19875:0.66846114 19876:0.66846114 19877:0.66846114 19878:0.59914643 19879:0.59914643 19880:0.59914643 19881:0.66846114 19882:0.59914643 19883:0.59914643 19884:0.66846114 19885:0.66846114 19886:0.66846114 19887:0.66846114 19888:0.66846114 19889:0.59914643 19890:0.66846114 19891:0.66846114 19892:0.66846114 19893:0.66846114 19894:0.52983171 19895:0.66846114 19896:0.66846114 19897:0.66846114 19898:0.66846114 19899:0.66846114 19900:0.66846114 19901:0.66846114 19902:0.66846114 19903:0.66846114 19904:0.66846114 19905:0.66846114 19906:0.66846114 19907:0.59914643 19908:0.55859995 19909:0.66846114 19910:0.66846114 19911:0.66846114 19912:0.66846114 19913:0.66846114 19914:0.66846114 19915:0.66846114 19916:0.66846114 19917:0.5075174 19918:0.59914643 19919:0.59914643 19920:0.59914643 19921:0.66846114 19922:0.66846114 19923:0.59914643 19924:0.55859995 19925:0.66846114 19926:0.66846114 19927:0.5075174 19928:0.5075174 19929:0.66846114 19930:0.66846114 19931:0.59914643 19932:0.66846114 19933:0.66846114 19934:0.41196623 19935:0.41196623 19936:0.66846114 19937:0.66846114 19938:0.66846114 19939:0.52983171 19940:0.5075174 19941:0.59914643 19942:0.59914643 19943:0.55859995 19944:0.55859995 19945:0.66846114 19946:0.59914643 19947:0.66846114 19948:0.52983171 19949:0.44873872 19950:0.66846114 19951:0.43820265 19952:1.1982929 19953:1.1982929 19954:0.59914643 19955:0.66846114 19956:0.37401727 19957:0.66846114 19958:0.59914643 19959:0.59914643 19960:0.66846114 19961:0.47387016 19962:0.66846114 19963:0.66846114 19964:0.66846114 19965:0.55859995 19966:0.66846114 19967:0.66846114 19968:0.66846114 19969:0.59914643 19970:0.66846114 19971:0.52983171 19972:0.66846114 19973:0.66846114 19974:0.66846114 19975:0.66846114 19976:0.66846114 19977:0.66846114 19978:0.66846114 19979:0.48928523 19980:0.46051702 19981:0.52983171 19982:0.59914643 19983:0.59914643 19984:0.40455544 19985:0.35065579 19986:0.66846114 19987:0.66846114 19988:0.39765614 19989:0.66846114 19990:0.59914643 19991:0.66846114 19992:0.59914643 19993:0.66846114 19994:0.52983171 19995:0.59914643 19996:0.66846114 19997:0.66846114 19998:0.59914643 19999:0.66846114 20000:0.55859995 20001:0.47387016 20002:0.43820265 20003:0.52983171 20004:0.52983171 20005:0.66846114 20006:0.66846114 20007:0.66846114 20008:0.5075174 20009:0.44873872 20010:0.59914643 20011:0.59914643 20012:0.66846114 20013:0.66846114 20014:0.66846114 20015:0.66846114 20016:0.66846114 20017:0.42867166 20018:0.37942401 20019:0.66846114 20020:0.66846114 20021:0.66846114 20022:0.41997051 20023:0.3912023 20024:0.40455544 20025:0.5075174 #
-0.0032957051732600190808997187019713 158:0.35290304 292:0.085622579 297:0.0065913796 298:0.21347207 300:0.020505959 303:1.1704031 309:0.01892801 311:0.11653382 312:0.0050251679 316:0.17018117 321:0.1477605 375:0.17579938 467:0.65604216 480:0.21391653 491:0.40203938 546:0.35035199 554:0.36606398 560:0.093164787 561:0.041735113 562:0.34532669 566:0.076546386 575:0.31601918 591:0.65604216 600:0.34657359 901:0.34408602 909:0.13457061 939:0.39925385 942:0.53268373 958:0.055395566 1323:0.70861602 1331:0.49603283 1334:0.76175642 1344:0.26605272 1594:0.4151828 1622:0.63536924 1751:0.23862799 1757:0.35808459 1763:0.40868893 1794:0.39466655 2214:0.47428 2272:0.75332934 2406:0.38283002 3149:0.53268373 3431:1.2687935 3477:0.84719372 3504:0.87663949 3519:1.1512926 3902:0.2790668 4017:0.96284962 4078:1.2232131 4189:0.70335269 4627:0.66039014 4678:1.2232131 4785:0.84719372 4786:0.88727939 5575:0.99414039 6090:0.99414039 7161:0.72510552 7345:0.87663949 7346:0.94856 7524:0.5917809 9644:0.88727939 12460:0.88727939 13281:1.4978662 13381:1.1846753 16038:1.3964999 16164:1.9882808 17462:1.3245794 19862:1.3964999 19979:1.2232131 20111:1.1512926 20441:1.1512926 21647:0.93504322 24162:0.91002232 24913:1.2687935 25610:1.1512926 26303:1.1846753 30684:1.2687935 31004:1.0955067 34617:1.2687935 36163:1.2687935 39151:1.2687935 42076:1.3245794 42716:1.3964999 42717:1.3245794 42718:1.3964999 42719:1.3964999 42720:1.4978662 42721:1.4978662 42722:1.6711529 42723:1.4978662 42724:1.6711529 42725:1.6711529 42726:1.6711529 42727:1.6711529 42728:1.6711529 42729:1.6711529 42730:1.6711529 42731:1.6711529 42732:1.6711529 42733:1.6711529 42734:1.6711529 42735:1.6711529 42736:1.6711529 42737:1.6711529 42738:1.1846753 42739:1.6711529 42740:1.6711529 42741:1.6711529 42742:1.4978662 42743:1.6711529 42744:1.6711529 42745:1.6711529 42746:1.6711529 42747:1.6711529 42748:1.3964999 42749:1.6711529 42750:1.6711529 42751:1.6711529 42752:1.6711529 42753:1.6711529 42754:1.3964999 42755:1.3245794 42756:1.6711529 42757:1.6711529 42758:1.6711529 42759:1.6711529 42760:1.4978662 42761:1.3964999 42762:1.6711529 #
-0.0037946973509212192539330477103476 146:0.99857742 150:0.28696117 163:0.39902538 222:0.62336212 284:0.8154754 285:0.21822222 289:0.28546476 290:0.070520006 297:0.0058590039 299:0.031306121 300:0.054682557 305:0.091147445 309:0.01892801 312:0.0083752796 330:0.13494684 336:0.075360619 338:0.31207123 360:0.075819179 369:0.40601942 374:0.45879769 375:0.11719958 472:0.28464633 480:0.14261101 558:0.096264809 561:0.027823409 566:0.10206185 580:0.38690755 588:0.30156907 848:0.12628095 891:0.43736145 909:0.26914123 911:0.2801109 943:0.16797632 956:0.70226663 958:0.11079113 959:0.33939502 962:0.47225118 964:0.25703624 1147:0.30030164 1175:0.44026008 1230:0.34327316 1236:0.50783759 1309:0.068622455 1313:0.19121291 1315:0.21365573 1320:0.42357951 1341:0.1558698 1344:0.17736848 1350:0.43451238 1353:0.41837075 1368:0.17497036 1370:0.27139431 1595:0.4317112 1751:0.15908532 1756:0.28464633 1770:0.51823765 1802:0.1326223 1830:0.52637517 1831:0.35512248 1937:0.58821028 1945:0.28123325 1998:0.54177076 2026:0.31898785 2027:0.19385847 2038:0.28813079 2318:0.88305289 2365:0.99857742 2366:0.42624623 2389:0.52154392 2408:0.55873454 2620:0.57762265 2760:0.35837999 2762:0.37171075 3112:0.39452061 3150:0.41331986 3586:0.76752836 3656:0.76752836 3687:0.48340368 4025:0.50350833 4470:0.45556134 4548:0.41331986 4661:0.89713132 4782:0.47965822 5188:0.7303378 5253:0.39231306 5353:0.54723573 5428:0.65200382 5565:0.55288601 5566:0.60668153 5671:0.42357951 6479:0.66276026 6798:0.53647929 6885:0.53647929 7423:0.41837075 7617:0.4462131 8278:1.1978564 8326:0.44026008 8511:1.0944715 9163:0.66276026 10458:0.4462131 10856:0.48723528 10890:0.57762265 10891:0.61481327 10892:0.66276026 11471:0.54177076 12001:0.57762265 12220:0.59151959 12873:0.71445274 14513:0.8154754 14690:0.5168488 14829:0.74789786 15449:0.76752836 16122:0.8154754 16136:0.71445274 16497:0.71445274 16839:1.105772 17101:0.57762265 17459:0.76752836 17854:2.3693507 18146:0.61481327 19934:0.6866104 20305:0.8154754 20350:0.65200382 20479:0.6866104 22143:0.76752836 22588:0.99857742 22878:0.62336212 22879:0.63237333 22946:0.50783759 23209:0.7897836 23212:0.61481327 24585:0.8154754 24602:0.69995087 25808:0.84586233 26253:0.74789786 31171:0.7897836 31910:0.99857742 34012:0.99857742 34265:0.71445274 34577:0.88305289 36530:0.93099993 36743:0.93099993 37260:0.88305289 37444:0.66276026 37465:0.8154754 37637:0.99857742 37689:0.93099993 37719:0.8154754 38848:0.99857742 44498:0.93099993 44526:0.88305289 48244:0.84586233 48245:0.71445274 48367:0.69995087 48368:0.61481327 48434:0.60668153 48603:0.99857742 49157:1.114102 49158:1.114102 49159:1.114102 49160:1.114102 49161:1.114102 49162:1.114102 49163:1.114102 49164:0.99857742 49165:1.114102 49166:1.114102 49167:0.99857742 49168:0.88305289 49169:0.93099993 49170:1.114102 49171:1.114102 49172:1.114102 49173:1.114102 49174:1.114102 49175:1.114102 49176:1.114102 49177:1.114102 49178:1.114102 49179:1.114102 49180:1.114102 49181:1.114102 49182:1.114102 49183:0.88305289 49184:1.114102 49185:1.114102 49186:1.114102 49187:1.114102 49188:1.114102 49189:1.114102 49190:1.114102 49191:1.114102 49192:1.114102 49193:1.114102 49194:1.114102 49195:1.114102 49196:1.114102 49197:0.93099993 49198:1.114102 49199:0.99857742 49200:0.99857742 49201:1.114102 49202:1.114102 49203:0.7897836 49204:1.114102 49205:0.93099993 49206:1.114102 49207:1.114102 49208:0.8154754 49209:1.114102 49210:1.114102 49211:1.114102 49212:1.114102 49213:1.114102 49214:1.114102 49215:1.114102 49216:1.114102 49217:1.114102 49218:1.114102 49219:1.114102 49220:1.114102 49221:1.114102 49222:1.114102 49223:1.114102 49224:1.114102 49225:1.114102 49226:1.114102 49227:1.114102 49228:1.114102 49229:1.114102 49230:1.114102 49231:1.114102 49232:1.114102 49233:1.114102 49234:1.114102 49235:1.114102 49236:1.114102 49237:1.114102 49238:1.114102 49239:0.93099993 49240:1.114102 49241:1.114102 49242:1.114102 49243:1.114102 49244:0.99857742 49245:0.93099993 49246:0.84586233 49247:1.114102 49248:1.114102 49249:1.114102 49250:1.114102 49251:1.114102 49252:1.114102 49253:1.114102 49254:1.114102 49255:1.114102 49256:1.114102 49257:1.114102 49258:1.114102 49259:1.114102 49260:1.114102 49261:1.114102 49262:1.114102 49263:1.114102 49264:1.114102 49265:1.114102 49266:1.114102 49267:0.99857742 49268:0.99857742 49269:0.93099993 49270:0.93099993 49271:0.99857742 49272:1.114102 49273:1.114102 49274:1.114102 49275:1.114102 49276:0.99857742 49277:1.114102 49278:0.93099993 49279:1.114102 49280:1.114102 49281:0.93099993 49282:0.88305289 49283:1.114102 49284:0.76752836 49285:1.114102 49286:1.114102 49287:1.114102 49288:1.114102 49289:1.114102 49290:1.114102 49291:0.93099993 49292:0.88305289 49293:1.114102 49294:1.114102 49295:0.7303378 49296:1.114102 49297:1.114102 49298:1.114102 49299:1.114102 49300:1.114102 49301:1.114102 49302:1.114102 49303:1.114102 49304:1.114102 49305:1.114102 49306:0.99857742 49307:1.114102 49308:1.114102 49309:0.99857742 49310:1.114102 49311:1.114102 49312:1.114102 49313:1.114102 49314:0.99857742 49315:0.93099993 49316:1.114102 49317:1.114102 49318:0.93099993 49319:0.88305289 49320:1.114102 49321:1.114102 49322:2.228204 49323:1.114102 49324:1.114102 49325:1.114102 49326:1.114102 49327:1.114102 49328:0.99857742 49329:0.88305289 49330:0.93099993 49331:1.114102 49332:1.114102 49333:1.114102 49334:1.114102 49335:0.93099993 #
-0.0014824393567508004510707708689665 199:0.25105321 293:1.1982929 294:0.41389823 295:0.51149547 297:0.0087885056 299:0.037567347 304:0.087313771 309:0.0075712041 311:0.046613526 312:0.0060302014 330:0.16193619 340:0.79531229 346:0.30056563 350:1.7567803 353:0.59420794 360:0.022745753 375:0.1406395 397:0.51805341 467:0.52483374 490:0.16879402 491:0.16081575 500:0.62021858 554:0.29285118 560:0.037265915 561:0.033388089 566:0.12247422 575:0.25281534 687:0.82393247 830:0.677755 843:0.8764053 927:0.13466892 939:0.31940308 949:0.41389823 956:0.42135999 958:0.088632911 962:0.56670141 1359:1.0720632 1374:1.7146866 1376:0.64377517 1751:0.38180476 2145:1.1982929 2146:1.1982929 2214:0.37942401 2272:0.40177566 2302:0.97857046 2303:0.82393247 2316:0.38278541 2373:0.5668928 2379:0.4930208 2380:0.53912556 2560:0.74803454 2620:0.69314718 2977:0.71871388 3062:0.62021858 3118:0.48438638 3122:0.4872233 3403:1.1171999 3412:0.52141488 3450:1.0150348 3465:0.61473876 3491:0.65668285 3496:0.82393247 3512:0.89747745 3887:0.80911088 4033:0.64377517 4034:0.56268215 5247:0.65668285 5426:1.0596634 6172:0.53912556 9173:0.83994102 13261:0.58468235 13536:0.77027971 14271:1.1171999 22013:1.1982929 22939:1.1171999 23212:1.4755517 24356:0.79531229 24905:0.94774032 28183:1.1982929 34134:1.1982929 34266:1.1171999 34300:1.1982929 34317:0.94774032 38977:1.1982929 39122:2.3965857 39123:1.1982929 39190:2.3965857 41190:1.0596634 42094:1.1982929 50317:1.1982929 51917:1.1982929 52766:1.0150348 53325:1.3369223 53326:1.3369223 53327:1.3369223 53328:1.3369223 53329:1.3369223 53330:1.3369223 53331:1.3369223 53332:1.3369223 53333:1.3369223 53334:1.3369223 53335:1.3369223 53336:1.3369223 53337:1.3369223 53338:1.3369223 53339:1.3369223 53340:1.3369223 53341:1.3369223 53342:1.3369223 53343:1.3369223 53344:1.3369223 53345:1.3369223 53346:1.3369223 53347:1.3369223 53348:1.3369223 53349:1.3369223 53350:1.3369223 53351:1.3369223 53352:1.3369223 53353:1.3369223 53354:1.3369223 53355:1.3369223 53356:1.3369223 53357:1.3369223 53358:1.3369223 53359:1.3369223 53360:1.3369223 53361:1.3369223 53362:1.3369223 53363:1.3369223 53364:1.3369223 53365:1.3369223 53366:1.1982929 53367:0.85734332 53368:1.3369223 53369:1.3369223 53370:1.3369223 53371:1.3369223 53372:1.1982929 53373:1.3369223 53374:1.3369223 53375:1.3369223 53376:1.3369223 53377:1.3369223 53378:1.1171999 53379:1.3369223 53380:1.3369223 53381:1.3369223 53382:1.3369223 53383:1.1982929 53384:1.3369223 53385:1.3369223 53386:1.1982929 53387:2.6738446 53388:1.3369223 53389:1.3369223 53390:1.3369223 53391:1.3369223 53392:1.3369223 53393:1.3369223 53394:1.3369223 53395:1.3369223 53396:1.3369223 53397:1.3369223 53398:1.3369223 53399:1.3369223 53400:1.3369223 53401:1.3369223 53402:1.3369223 53403:1.3369223 53404:1.3369223 53405:1.3369223 53406:1.3369223 53407:1.3369223 53408:1.3369223 53409:1.3369223 53410:1.3369223 53411:1.1171999 53412:1.3369223 53413:1.3369223 53414:1.3369223 53415:1.1982929 53416:1.3369223 53417:1.3369223 53418:1.3369223 53419:1.3369223 53420:1.3369223 53421:1.1982929 53422:1.1982929 53423:1.3369223 53424:1.1171999 53425:1.0596634 53426:1.3369223 53427:1.3369223 53428:1.0596634 #
-0.0032048918323357329651646097090634 150:0.43044177 177:0.33437604 212:0.20171899 233:0.96284962 289:0.14273238 290:0.10578001 292:0.25686774 297:0.0043942528 298:0.10673603 300:0.020505959 306:0.59513664 309:0.01892801 311:0.058266908 312:0.0075377519 336:0.11304092 344:0.64343446 345:0.72510552 346:0.37570703 348:0.52237296 358:0.26245552 371:0.47428 375:0.17579938 558:0.14439721 560:0.046582393 564:0.27247509 574:0.5775913 580:0.38690755 589:1.1036375 609:0.69314718 763:0.63143218 764:0.27622047 835:0.63936931 933:0.29583839 958:0.055395566 1131:1.0716791 1231:0.28485858 1293:0.94856 1345:0.16956465 1368:0.52491105 1634:0.54620051 1699:0.50766283 1700:0.48275539 1770:0.38867825 1802:0.19893344 1810:0.47220528 2272:0.25110978 2364:0.42525128 2408:0.8381018 2521:0.37291372 2864:0.78956282 2891:0.93504322 3033:0.68819654 3094:1.3964999 3562:0.51005518 3790:0.86643398 3942:0.67857993 3957:0.86643398 4052:0.66931963 4553:0.47220528 4577:0.88727939 4661:0.44856566 4690:1.0716791 4792:0.76175642 4860:0.69314718 5732:1.4978662 5787:1.4978662 5788:1.3964999 5853:0.63143218 6039:0.58846962 6143:1.1846753 6438:0.94856 7010:0.48060945 7616:0.52237296 8278:0.89839232 8354:0.74275994 9449:0.84719372 10562:1.1218468 10584:0.89839232 10595:0.96284962 12805:0.92221987 13074:0.73673552 13093:0.88727939 13261:0.7308529 13781:0.92221987 15462:1.3964999 15791:1.0955067 15898:0.94856 16811:1.2687935 17355:1.1512926 17421:1.1512926 17441:1.1846753 18266:1.2687935 18345:0.97800577 18395:0.91002232 19958:1.4978662 20262:1.1846753 21234:0.99414039 21603:0.94856 24200:1.0955067 28617:1.1846753 30102:1.0716791 31378:1.2687935 31484:1.2687935 31954:1.0499263 32685:1.1512926 32793:1.3245794 33870:1.3964999 34496:1.2687935 38669:1.2232131 39888:1.2687935 40024:1.3964999 44525:0.8126561 45940:1.2687935 47679:1.4978662 47680:1.6711529 47681:1.6711529 47682:1.6711529 47683:1.6711529 47684:1.6711529 47685:1.6711529 47686:1.6711529 47687:1.3964999 47688:1.0299156 47689:1.6711529 47690:1.6711529 47691:1.1846753 47692:1.6711529 47693:1.3964999 47694:1.6711529 47695:1.6711529 47696:1.6711529 47697:1.6711529 47698:1.6711529 47699:1.6711529 47700:1.6711529 47701:1.4978662 47702:1.6711529 47703:1.6711529 47704:1.6711529 47705:1.6711529 47706:1.6711529 47707:1.6711529 47708:1.6711529 47709:1.6711529 47710:1.6711529 47711:1.6711529 47712:1.6711529 47713:1.3964999 47714:1.6711529 47715:1.6711529 47716:1.6711529 47717:1.6711529 47718:1.3964999 47719:1.3964999 47720:1.6711529 47721:1.6711529 47722:1.4978662 47723:1.6711529 47724:1.6711529 47725:1.6711529 47726:1.6711529 47727:1.6711529 47728:1.4978662 47729:1.4978662 #
0.0088646476772930304921516153626726 2:1.4978662 150:0.43044177 151:1.3964999 159:0.16541494 189:0.037006289 199:0.15690826 212:0.10085949 289:0.14273238 290:0.15867002 291:0.66039014 297:0.0076899426 298:0.053368017 299:0.11739796 300:0.020505959 304:0.054571107 305:0.068360582 309:0.0070980038 311:0.014566727 312:0.0062814597 323:0.1837095 326:0.34657359 330:0.10121012 360:0.02843219 369:0.30451456 375:0.26369905 480:0.10695826 558:0.14439721 561:0.041735113 563:0.23924088 564:0.13623755 570:0.24915798 831:0.28322139 888:0.17833747 909:0.13457061 958:0.22158226 964:0.096388593 1224:0.39115795 1313:0.14340968 1341:0.23380469 1345:0.16956465 1371:0.16898662 1603:0.3569963 1751:0.11931399 1756:0.21348475 1757:0.17904229 1802:0.39786687 1830:0.39478141 1937:0.22057885 2004:0.38087821 2011:0.74275994 2025:0.22057885 2283:0.36255276 2347:0.35167634 2355:0.2059574 2380:0.33695346 2406:0.19141501 2514:0.74893308 2534:0.20841649 2584:0.23507383 2591:0.30813801 2593:0.69824994 2604:0.24030472 2624:0.3324075 3071:0.27878305 3098:0.4104268 3150:0.3099899 3157:0.37763125 3341:0.31377804 3392:0.31186962 3477:0.42359686 3516:0.26118648 3569:0.31571609 3641:0.29260078 3642:0.28939548 3683:0.25993019 3890:0.18576434 4261:0.38087821 4391:0.53583956 4459:0.21522088 4482:0.30274147 4490:0.29423481 4782:0.35974365 5223:0.59233767 5567:0.24801642 5615:0.45501116 5639:0.27878305 5678:0.5609234 5781:1.0113885 5892:0.4190509 6274:0.38087821 6332:0.51495779 6360:0.59233767 6361:0.41466448 6388:0.37446654 6467:0.47428 6485:0.32171723 6516:0.19962692 6898:0.4190509 6905:0.46110994 7362:0.48142481 7596:0.66228968 7646:0.53583956 7648:0.57564628 7657:0.4436397 8199:0.61160654 9307:0.54775333 10283:0.69824994 10905:0.50569427 11878:0.74893308 12450:0.61160654 13263:0.35430801 13401:0.39115795 14561:0.52496314 14690:0.3876366 15253:0.48900288 15427:0.46752161 15847:0.63439673 15933:0.97800577 16120:0.61160654 17237:0.45501116 17409:0.51495779 17516:0.59233767 18335:0.57564628 18391:0.53583956 18725:0.74893308 18911:0.69824994 19008:0.61160654 19518:0.57564628 20464:0.48142481 22397:0.57564628 22679:0.49707019 22731:0.49707019 22961:0.61160654 23150:0.54775333 23547:0.61160654 24592:0.74893308 27844:0.53583956 27868:0.46110994 27869:0.50569427 28438:0.61160654 28505:0.54775333 29987:0.52496314 30009:0.52496314 31177:0.69824994 32462:0.69824994 32517:0.61160654 33078:0.66228968 33185:0.63439673 33696:0.63439673 38162:0.57564628 39357:0.61160654 39431:0.59233767 41650:0.5609234 42364:0.74893308 45385:0.66228968 46753:0.63439673 48368:0.46110994 48434:0.45501116 50802:0.66228968 51012:0.66228968 51549:0.74893308 53125:0.63439673 54714:0.74893308 55301:0.63439673 57848:0.74893308 57996:0.74893308 58081:0.61160654 60092:0.49707019 61228:0.74893308 65278:0.66228968 66630:0.69824994 72660:0.74893308 75527:0.74893308 76434:0.61160654 80666:0.74893308 80700:0.69824994 83505:0.63439673 89771:0.69824994 90442:0.74893308 92053:0.74893308 96503:0.69824994 102375:0.83557647 102376:0.83557647 102377:0.83557647 102378:0.83557647 102379:0.83557647 102380:0.83557647 102381:0.83557647 102382:0.83557647 102383:0.83557647 102384:0.83557647 102385:0.83557647 102386:0.83557647 102387:0.83557647 102388:0.83557647 102389:0.83557647 102390:0.83557647 102391:0.83557647 102392:0.74893308 102393:0.83557647 102394:0.83557647 102395:0.83557647 102396:0.83557647 102397:0.83557647 102398:0.83557647 102399:0.83557647 102400:0.83557647 102401:0.83557647 102402:0.83557647 102403:0.83557647 102404:0.83557647 102405:0.83557647 102406:0.83557647 102407:0.83557647 102408:0.83557647 102409:0.83557647 102410:0.83557647 102411:0.74893308 102412:0.83557647 102413:0.83557647 102414:0.83557647 102415:0.83557647 102416:0.83557647 102417:0.83557647 102418:0.83557647 102419:0.83557647 102420:0.83557647 102421:0.83557647 102422:0.83557647 102423:0.83557647 102424:0.83557647 102425:0.83557647 102426:0.83557647 102427:0.83557647 102428:0.83557647 102429:0.83557647 102430:0.83557647 102431:0.83557647 102432:0.83557647 102433:0.83557647 102434:0.83557647 102435:0.83557647 102436:0.83557647 102437:0.83557647 102438:0.83557647 102439:0.69824994 102440:0.83557647 102441:0.83557647 102442:0.83557647 102443:0.83557647 102444:0.83557647 102445:0.83557647 102446:0.83557647 102447:0.83557647 102448:0.83557647 102449:0.83557647 102450:0.83557647 102451:0.74893308 102452:0.83557647 102453:0.83557647 102454:0.83557647 102455:0.83557647 102456:0.83557647 102457:0.83557647 102458:0.83557647 102459:0.83557647 102460:0.83557647 102461:0.83557647 102462:0.83557647 102463:0.83557647 102464:0.83557647 102465:0.83557647 #
0.0042356883500513555634858775533758 212:0.11526799 289:0.081561364 290:0.060445722 297:0.007533005 298:0.12198404 300:0.011717691 305:0.39063191 309:0.008112004 312:0.010050336 316:0.097246379 336:0.12918963 351:0.27341816 360:0.032493934 374:0.39325514 375:0.10045679 376:0.25209013 480:0.12223802 546:0.20020114 558:0.082512692 560:0.079855531 561:0.023848636 566:0.04374079 567:0.24899562 580:0.11054501 600:0.19804205 764:0.15784027 767:0.3014144 901:0.19662057 962:0.20239337 964:0.11015839 1161:0.64105529 1201:0.25632322 1288:0.50093687 1309:0.11763849 1313:0.16389678 1336:0.17869852 1345:0.096894078 1368:0.29994917 1371:0.19312756 1598:0.22210185 1766:0.24300073 1775:0.23445523 1945:0.24105707 2021:0.44301325 2022:0.29284039 2025:0.25209013 2028:0.55886042 2274:0.49510512 2584:0.26865581 2586:0.39325514 2598:0.15151346 3118:0.34599027 3125:0.47262108 3137:0.31695765 3159:0.26068562 3495:0.32894072 3516:0.29849884 4279:0.43157858 4553:0.2698316 4576:0.49799123 4578:0.75690246 4579:1.1177208 4623:1.1177208 4624:1.1177208 4658:1.1177208 4936:0.41434601 5098:0.64105529 5260:0.35007218 5507:0.6989789 5676:0.41113561 5683:0.31211457 5797:0.57793635 6176:0.26404712 6814:0.48950216 6848:0.41434601 7052:0.47390229 7113:0.46437493 7604:0.36081839 8078:0.65788144 8143:0.41434601 8334:0.61238807 8354:0.42443424 9166:0.41434601 10597:0.5343104 10776:0.41434601 12257:0.67695737 12274:0.38508967 12821:0.59995788 14690:0.44301325 15940:0.40191582 16165:0.59995788 17148:0.79799992 17249:0.67695737 17835:0.40492344 17929:0.99021024 18546:0.61238807 18832:0.79799992 18978:0.79799992 19267:0.64105529 20342:0.64105529 21345:0.59995788 21427:0.6989789 22456:0.6260038 23981:0.46437493 24939:0.6989789 27298:0.4598394 28913:0.6989789 30850:0.75690246 30851:0.75690246 30972:0.75690246 30973:0.75690246 30997:0.75690246 32433:0.65788144 34038:0.85592353 34412:0.79799992 34508:0.72502482 35155:0.5343104 37331:0.48411068 37446:0.6989789 37895:0.75690246 41100:0.75690246 44612:0.6989789 44643:0.65788144 46376:1.7998736 48795:0.85592353 53846:0.72502482 53927:0.72502482 54816:0.5343104 60731:0.85592353 60847:0.6260038 60848:0.79799992 65758:0.67695737 65885:0.59995788 69349:0.75690246 70032:0.85592353 71928:0.61238807 75008:0.64105529 75303:0.51336706 75880:0.79799992 76395:0.6260038 80438:0.65788144 85216:0.85592353 86136:0.79799992 91447:0.85592353 94044:0.85592353 95579:0.95494455 95580:0.95494455 95581:0.95494455 95582:0.85592353 95583:0.95494455 95584:0.95494455 95585:0.95494455 95586:0.95494455 95587:0.85592353 95588:0.95494455 95589:0.95494455 95590:0.95494455 95591:0.85592353 95592:0.95494455 95593:0.95494455 95594:0.95494455 95595:0.85592353 95596:0.95494455 95597:0.95494455 95598:0.95494455 95599:0.95494455 95600:0.95494455 95601:0.95494455 95602:0.95494455 95603:0.95494455 95604:0.95494455 95605:0.95494455 95606:0.95494455 95607:0.95494455 95608:0.95494455 95609:0.95494455 95610:0.95494455 95611:0.95494455 95612:0.95494455 95613:0.95494455 95614:0.95494455 95615:0.95494455 95616:0.95494455 95617:0.95494455 95618:0.75690246 95619:0.95494455 95620:0.95494455 95621:0.95494455 95622:0.95494455 95623:0.95494455 95624:0.95494455 95625:0.95494455 95626:0.95494455 95627:0.95494455 95628:0.95494455 95629:0.95494455 95630:0.95494455 95631:0.95494455 95632:0.95494455 95633:0.95494455 95634:0.95494455 95635:0.95494455 95636:0.95494455 95637:0.85592353 95638:0.95494455 95639:0.95494455 95640:0.95494455 95641:0.95494455 95642:0.95494455 95643:0.95494455 95644:0.95494455 95645:0.95494455 95646:0.95494455 95647:0.95494455 95648:0.95494455 95649:0.95494455 95650:0.95494455 95651:0.95494455 95652:0.95494455 95653:0.95494455 95654:0.95494455 95655:0.95494455 95656:0.85592353 95657:0.95494455 95658:0.95494455 95659:0.95494455 95660:0.85592353 95661:0.85592353 95662:0.95494455 95663:0.95494455 95664:0.95494455 95665:0.85592353 95666:0.95494455 95667:0.95494455 95668:0.95494455 95669:0.95494455 95670:0.85592353 95671:0.95494455 95672:0.95494455 95673:0.95494455 95674:0.95494455 95675:0.85592353 95676:0.95494455 95677:0.95494455 95678:0.95494455 95679:0.85592353 95680:0.95494455 95681:0.79799992 95682:0.95494455 95683:0.85592353 95684:0.95494455 95685:0.95494455 95686:0.95494455 95687:0.95494455 95688:0.95494455 95689:0.79799992 95690:0.95494455 95691:0.79799992 #
0.0088646476772930304921516153626726 159:0.11027663 164:0.20488177 169:0.24758664 189:0.04934172 285:0.21822222 288:0.11719958 290:0.035260003 292:0.028540859 297:0.0058590039 298:0.071157359 299:0.046959184 300:0.054682557 304:0.036380738 305:0.091147445 309:0.014196008 311:0.067978062 312:0.010050336 331:0.091446921 336:0.075360619 346:0.25047135 358:0.087485179 360:0.075819179 368:0.2584244 371:0.15809333 375:0.11719958 376:0.29410514 477:0.2957598 490:0.14066167 491:0.067006558 530:0.10279778 560:0.015527464 561:0.027823409 562:0.1151089 563:0.15949392 564:0.090825029 566:0.10206185 570:0.16610532 580:0.12896918 595:0.18585537 675:0.23273262 819:0.14952189 848:0.063140474 878:0.1700184 908:0.16610532 909:0.044856872 926:0.23620534 927:0.11222409 933:0.098612793 934:0.29410514 958:0.018465189 964:0.06425906 1155:0.25614116 1180:0.17582506 1201:0.14952189 1213:0.23620534 1229:0.23620534 1309:0.068622455 1312:0.24557851 1313:0.095606454 1315:0.10682786 1327:0.14827807 1336:0.10424081 1341:0.1558698 1344:0.17736848 1368:0.087485179 1396:0.15949392 1397:0.18023527 1426:0.33712953 1427:0.2957598 1598:0.12955941 1617:0.24170184 1635:0.22619332 1699:0.16922095 1700:0.16091846 1715:0.37394893 1751:0.079542659 1757:0.11936153 1802:0.066311151 1808:0.17245761 1810:0.15740177 1884:0.23273262 1885:0.276443 1945:0.14061663 1978:0.2584244 2019:0.21447815 2084:0.3651689 2210:0.20791309 2214:0.15809333 2234:0.26077196 2249:0.31618667 2272:0.083703257 2353:0.29946411 2355:0.13730493 2364:0.28350085 2404:0.221605 2407:0.55288601 2433:0.26318759 2521:0.12430457 2530:0.22778067 2543:0.4077377 2596:0.16384274 2618:0.22463565 2640:0.30334076 2707:0.24170184 2901:0.49928871 2902:0.49928871 2903:0.46549997 2966:0.221605 2977:0.29946411 2983:0.18489197 3067:0.49928871 3068:0.49928871 3069:0.42293116 3070:0.44152644 3110:0.24557851 3122:0.20300971 3125:0.13784781 3144:0.22013004 3152:0.46549997 3153:0.29221317 3159:0.1520666 3678:0.22778067 3689:0.23104906 3691:0.16843106 3777:0.26823965 3778:0.33712953 3902:0.093022272 3946:0.26823965 3947:0.20918538 3948:0.33712953 3950:0.34997544 4036:0.221605 4053:0.18489197 4054:0.20420876 4055:0.30740663 4068:0.4077377 4238:0.28881133 4289:0.22939885 4546:0.11428382 4856:0.25614116 4867:0.49928871 4870:0.63237333 4871:0.49928871 5089:0.3948918 5090:0.49928871 5091:0.63237333 5092:0.42293116 5128:0.27361786 5245:0.3948918 5246:0.49928871 5253:0.19615653 5256:0.21447815 5639:0.18585537 5893:0.33138013 5913:0.44152644 5914:0.46549997 6063:0.32600191 6077:0.34997544 6078:0.33138013 6167:0.19951269 6176:0.30805498 6375:0.33138013 6508:0.24964435 6965:0.24361764 7010:0.16020314 7161:0.24170184 7442:0.35722637 7505:0.2957598 7604:0.21047738 7616:0.34824866 8321:0.26318759 8326:0.22013004 8347:0.35722637 8978:0.22013004 9018:0.3948918 9105:0.38376418 9175:0.21447815 9501:0.4077377 9659:0.3651689 9669:0.22939885 10164:0.42293116 10187:0.44152644 10256:0.35722637 10257:0.4077377 10270:0.38376418 10428:0.24758664 10507:0.19726031 10508:0.24361764 10566:0.3948918 10831:0.27936727 10839:0.28881133 11110:0.33138013 11233:0.33712953 11234:0.46549997 11387:0.33712953 11388:0.3948918 11409:0.33138013 11642:0.42293116 11655:0.32094985 12011:0.17582506 12464:0.21178976 13077:0.33712953 13111:0.32600191 13753:0.3433052 13811:0.31618667 13869:0.3433052 13908:0.3948918 14269:0.44152644 14332:0.4077377 14384:0.30740663 15696:0.26823965 17064:0.3948918 17098:0.60668153 17315:0.37394893 17785:0.34997544 17793:0.33138013 17796:0.37394893 18130:0.49928871 18300:0.38376418 18374:0.29946411 18610:0.42293116 19133:0.3651689 19747:0.27936727 19780:0.276443 19846:0.3948918 19961:0.3948918 20112:0.46549997 20337:0.33712953 20397:0.49928871 20437:0.42293116 20463:0.2957598 20598:0.46549997 20603:0.44152644 20612:0.44152644 20613:0.46549997 20679:0.35722637 20682:0.42293116 20683:0.44152644 20720:0.27361786 20998:0.49928871 21048:0.42293116 21075:0.44152644 21133:0.49928871 21261:0.3651689 21273:0.42293116 21328:0.42293116 21897:0.46549997 21898:0.42293116 21923:0.38376418 22121:0.37394893 22127:0.29946411 22132:0.32094985 22203:0.26567534 22412:0.42293116 22413:0.42293116 23169:0.38376418 23953:0.3651689 24070:0.49928871 24080:0.3948918 25797:0.4077377 25823:0.3948918 25869:0.49928871 26137:0.38376418 26219:0.44152644 26246:0.31618667 26260:0.44152644 27670:0.46549997 27783:0.46549997 27784:0.44152644 27856:0.46549997 27857:0.42293116 28131:0.44152644 28569:0.4077377 29678:0.42293116 29739:0.4077377 30462:0.46549997 30463:0.46549997 30562:0.44152644 30563:0.46549997 30621:0.42293116 31001:0.49928871 31136:0.46549997 31185:0.3433052 31249:0.3948918 31302:0.49928871 31633:0.49928871 32050:0.49928871 32051:0.49928871 32143:0.49928871 33584:0.49928871 35741:0.3948918 35852:0.49928871 36433:0.44152644 36889:0.37394893 37445:0.44152644 38111:0.49928871 38409:0.44152644 38410:0.46549997 38422:0.46549997 38458:0.44152644 38459:0.38376418 38737:0.37394893 38741:0.46549997 38985:0.49928871 39128:0.49928871 39255:0.42293116 41147:0.3948918 41307:0.49928871 41421:0.49928871 41471:0.35722637 41716:0.34997544 41982:0.44152644 42140:0.44152644 42238:0.49928871 43606:0.49928871 43720:0.49928871 44188:0.3948918 46936:0.37394893 48448:0.46549997 48600:0.44152644 48700:0.46549997 48701:0.49928871 48710:0.49928871 51849:0.3948918 52936:0.38376418 57198:0.49928871 59928:0.46549997 59944:0.44152644 59974:0.46549997 59975:0.46549997 59994:0.46549997 65151:0.46549997 65249:0.46549997 65250:0.42293116 65389:0.3651689 67429:0.49928871 67903:0.44152644 68002:0.46549997 72441:0.4077377 72614:0.49928871 75361:0.49928871 76859:0.42293116 76926:0.4077377 76927:0.3948918 79655:0.49928871 80603:0.46549997 82546:0.49928871 89189:0.46549997 92717:0.46549997 95995:0.557051 95996:0.557051 95997:0.557051 95998:0.557051 95999:0.557051 96000:0.557051 96001:0.557051 96002:0.557051 96003:0.557051 96004:0.557051 96005:0.557051 96006:0.557051 96007:0.557051 96008:0.557051 96009:0.557051 96010:0.557051 96011:0.557051 96012:0.557051 96013:0.557051 96014:0.557051 96015:0.557051 96016:0.557051 96017:0.49928871 96018:0.557051 96019:0.557051 96020:0.557051 96021:0.557051 96022:0.557051 96023:0.557051 96024:0.49928871 96025:0.557051 96026:0.557051 96027:0.557051 96028:0.557051 96029:0.49928871 96030:0.49928871 96031:0.49928871 96032:0.557051 96033:0.557051 96034:0.557051 96035:0.557051 96036:0.557051 96037:0.557051 96038:0.557051 96039:0.557051 96040:0.557051 96041:0.557051 96042:0.557051 96043:0.557051 96044:0.557051 96045:0.557051 96046:0.557051 96047:0.557051 96048:0.557051 96049:0.557051 96050:0.557051 96051:0.557051 96052:0.557051 96053:0.557051 96054:0.557051 96055:0.557051 96056:0.557051 96057:0.557051 96058:0.557051 96059:0.557051 96060:0.557051 96061:0.557051 96062:0.557051 96063:0.557051 96064:0.49928871 96065:0.557051 96066:0.557051 96067:0.557051 96068:0.557051 96069:0.557051 96070:0.557051 96071:0.557051 96072:0.557051 96073:0.557051 96074:0.557051 96075:0.557051 96076:0.49928871 96077:0.557051 96078:0.557051 96079:0.557051 96080:0.557051 96081:0.557051 96082:0.557051 96083:0.557051 96084:0.557051 96085:0.49928871 96086:0.557051 96087:0.557051 96088:0.557051 96089:0.557051 96090:0.557051 96091:0.557051 96092:0.557051 96093:0.557051 96094:0.557051 96095:0.557051 96096:0.557051 96097:0.557051 96098:0.557051 96099:0.557051 96100:0.557051 96101:0.557051 96102:0.557051 96103:0.557051 96104:0.49928871 96105:0.557051 96106:0.557051 96107:0.557051 96108:0.557051 96109:0.557051 96110:0.557051 96111:0.557051 96112:0.557051 96113:0.557051 96114:0.557051 96115:0.557051 96116:0.557051 96117:0.557051 96118:0.49928871 96119:0.557051 96120:0.557051 #
0.0088646476772930304921516153626726 189:0.029605033 195:0.55451775 198:0.11551826 212:0.16137519 288:0.42191851 290:0.12693602 292:0.10274709 297:0.0035154023 299:0.018783674 300:0.032809533 302:0.189712 304:0.13097066 305:0.054688469 309:0.013249607 312:0.010050336 316:0.2042174 321:0.059104197 323:0.29393518 330:0.080968097 331:0.10973631 346:0.15028282 348:0.20894919 360:0.06823726 376:0.17646308 476:0.38513985 530:0.24671465 546:0.42042241 561:0.050082136 562:0.13813068 566:0.030618554 567:0.69718772 575:0.12640767 600:0.41588831 607:0.33524072 799:0.37401727 819:0.35885251 848:0.075768568 927:0.13466892 939:0.079850771 949:0.20694911 962:0.14167535 964:0.15422174 1149:0.14064971 1201:0.17942625 1309:0.082346946 1621:0.3388775 1705:0.29710397 1757:0.14323384 1763:0.32695115 1764:0.13518929 1775:0.16411866 1794:0.15786663 1802:0.23872013 1808:0.20694911 2022:0.20498827 2301:0.34265152 2366:0.25574774 2527:0.42405272 2565:0.40455544 2598:0.4242377 2604:0.19224378 2612:0.30470255 2698:0.55859995 2751:0.36400893 2760:0.21502799 2966:0.53185201 3063:0.34657359 3151:0.25737378 3375:0.35065579 3408:0.24079455 3488:0.63165027 3568:0.37401727 3569:0.25257286 3592:0.39765614 3641:0.23408063 3642:0.23151639 3659:0.30210501 3683:0.20794415 4017:0.38513985 4044:0.35935694 4076:0.33524072 4166:0.42867166 4254:0.70131159 4255:0.29710397 4292:0.40613028 4553:0.18888211 4627:0.26415604 4659:0.1856298 4735:0.5075174 5217:0.32506245 5253:0.23538783 6182:0.44873872 7025:0.55859995 7461:0.27927914 7632:0.25737378 8038:0.36888793 8128:0.59914643 8312:0.35491174 8321:0.31582513 8978:0.26415604 9337:0.43820265 9448:0.32188758 9693:0.33173159 10051:0.3388775 10509:0.43820265 10520:0.30210501 10742:0.55859995 10776:0.29004222 11136:0.46051702 11180:0.46051702 11476:0.28779492 12723:0.55859995 12767:0.47387016 12842:0.52983171 12867:0.27725887 13040:0.36888793 13598:0.31582513 13961:0.2834464 14303:0.41997051 15510:0.5075174 15624:0.46051702 16833:0.27143198 16970:0.41196623 16975:0.5075174 16976:0.52983171 17027:0.5075174 17028:0.52983171 17096:0.5075174 17241:0.55859995 17290:0.59914643 17429:0.48928523 17843:0.42867166 18952:0.59914643 19154:0.59914643 19208:0.55859995 19444:0.35935694 19519:0.3912023 19863:0.48928523 19969:0.59914643 20232:0.42867166 20447:0.35935694 21258:0.42867166 21581:0.47387016 22096:0.55859995 22213:0.34657359 23272:0.47387016 23392:0.33524072 23676:0.55859995 24196:0.55859995 24364:0.55859995 24396:0.47387016 24443:0.47387016 24459:0.47387016 25268:0.41196623 25899:0.46051702 27298:0.32188758 27636:0.52983171 28129:0.52983171 29046:0.46051702 30239:0.36400893 32041:0.59914643 32140:0.52983171 32654:0.5075174 33786:0.59914643 34002:0.44873872 34074:0.59914643 34229:0.59914643 34339:0.46051702 34535:0.52983171 35452:0.5075174 37672:0.48928523 38158:0.59914643 39808:0.59914643 39809:0.59914643 40048:0.52983171 40057:0.59914643 40058:0.59914643 40106:0.59914643 40574:0.59914643 41895:0.47387016 42136:0.5075174 44865:0.59914643 44910:0.59914643 45229:0.59914643 45538:0.59914643 46293:0.52983171 47373:0.46051702 50441:0.40455544 53231:0.52983171 53250:0.39765614 53554:0.59914643 55213:1.0150348 55239:1.0150348 55247:1.0150348 55410:0.677755 55673:0.55859995 56236:0.59914643 56480:0.55859995 57574:1.1982929 57575:0.48928523 57701:0.59914643 58339:0.48928523 67576:0.55859995 68877:0.59914643 68936:0.59914643 73286:0.59914643 77810:0.52983171 84096:0.59914643 84726:0.59914643 86420:0.55859995 88981:0.59914643 92459:0.59914643 93345:0.59914643 93441:0.59914643 93530:0.59914643 93640:0.52983171 94165:0.55859995 104824:1.1982929 104867:1.1982929 105138:0.66846114 105139:0.66846114 105140:0.66846114 105141:0.66846114 105142:0.66846114 105143:0.66846114 105144:0.66846114 105145:0.66846114 105146:1.3369223 105147:0.66846114 105148:0.66846114 105149:0.66846114 105150:0.66846114 105151:0.66846114 105152:0.66846114 105153:0.66846114 105154:0.66846114 105155:0.66846114 105156:0.66846114 105157:0.66846114 105158:0.66846114 105159:0.66846114 105160:0.66846114 105161:0.66846114 105162:0.66846114 105163:0.66846114 105164:0.66846114 105165:0.66846114 105166:0.66846114 105167:0.66846114 105168:0.66846114 105169:0.66846114 105170:0.66846114 105171:0.66846114 105172:0.66846114 105173:0.66846114 105174:0.66846114 105175:0.66846114 105176:0.66846114 105177:0.66846114 105178:0.66846114 105179:0.66846114 105180:0.66846114 105181:0.66846114 105182:0.66846114 105183:0.66846114 105184:0.66846114 105185:0.66846114 105186:0.66846114 105187:0.66846114 105188:0.66846114 105189:0.66846114 105190:0.66846114 105191:0.66846114 105192:0.66846114 105193:0.66846114 105194:0.66846114 105195:0.66846114 105196:0.66846114 105197:0.66846114 105198:0.66846114 105199:0.66846114 105200:0.66846114 105201:0.66846114 105202:0.66846114 105203:0.66846114 105204:0.66846114 105205:0.66846114 105206:0.66846114 105207:0.66846114 105208:0.66846114 105209:0.66846114 105210:0.66846114 105211:0.66846114 105212:0.66846114 105213:0.66846114 105214:0.66846114 105215:0.66846114 105216:0.66846114 105217:0.66846114 105218:0.66846114 105219:0.66846114 105220:0.66846114 105221:0.66846114 105222:0.66846114 105223:0.66846114 105224:0.66846114 105225:0.66846114 105226:0.66846114 105227:0.66846114 105228:0.66846114 105229:0.66846114 105230:0.66846114 105231:0.66846114 105232:0.66846114 105233:0.66846114 105234:0.66846114 105235:0.66846114 105236:0.66846114 105237:0.66846114 105238:0.66846114 105239:0.66846114 105240:0.66846114 105241:0.66846114 105242:0.66846114 105243:0.66846114 105244:0.66846114 105245:0.66846114 105246:0.66846114 105247:0.66846114 105248:0.66846114 105249:0.66846114 105250:0.59914643 105251:1.3369223 105252:0.59914643 105253:0.66846114 105254:0.66846114 105255:0.66846114 105256:0.66846114 105257:0.66846114 105258:0.66846114 105259:0.66846114 105260:0.66846114 105261:0.66846114 105262:0.66846114 105263:0.66846114 105264:0.66846114 105265:0.59914643 105266:0.66846114 105267:0.66846114 105268:0.66846114 105269:0.66846114 105270:0.66846114 105271:0.66846114 105272:0.66846114 105273:0.66846114 105274:0.59914643 105275:0.66846114 105276:0.66846114 105277:0.66846114 105278:0.66846114 105279:0.66846114 105280:0.66846114 105281:0.66846114 105282:0.66846114 105283:0.66846114 105284:0.66846114 105285:0.66846114 105286:0.66846114 105287:0.66846114 105288:0.66846114 105289:0.66846114 105290:0.66846114 105291:0.66846114 105292:0.66846114 105293:0.59914643 #
0.0088646476772930304921516153626726 52:0.70861602 159:0.33082989 189:0.074012578 192:1.0703373 199:0.31381652 289:0.14273238 290:0.10578001 297:0.0043942528 298:0.10673603 299:0.18783674 300:0.020505959 304:0.10914221 309:0.009464005 312:0.002512584 321:0.44328147 323:0.367419 561:0.041735113 580:0.19345377 593:0.82932895 750:0.5819757 751:1.1512926 834:0.63143218 888:0.17833747 889:0.40709147 890:0.91002232 933:0.29583839 952:0.40392688 958:0.16618671 959:0.25454625 960:0.34162292 1231:0.28485858 1234:0.73673552 1309:0.10293368 1345:0.16956465 1461:0.88727939 1462:1.0499263 1624:0.66931963 1643:0.85662878 1751:0.23862799 1764:0.33797324 1802:0.19893344 2210:0.62373924 2214:0.47428 2226:0.40392688 2355:0.4119148 2439:0.45619982 2440:0.49377039 2534:0.41683298 2591:0.61627603 2730:0.74275994 3425:0.42016634 4320:0.72510552 4490:0.58846962 4661:0.44856566 6274:0.76175642 8278:0.89839232 10333:0.84719372 10584:0.89839232 10838:0.99414039 12875:0.92221987 13541:0.91002232 15028:0.69314718 16098:0.91002232 16587:1.2232131 16612:1.0716791 17515:1.0716791 19482:0.99414039 19503:1.2687935 19525:0.99414039 21469:1.2687935 22377:1.0499263 26704:0.94856 30859:0.94856 32685:1.1512926 37630:1.4978662 37631:1.3245794 57038:1.1846753 59315:1.3964999 59707:1.2232131 75742:1.4978662 91792:1.4978662 92091:1.4978662 104098:1.4978662 107233:1.4978662 107739:1.6711529 107740:1.6711529 107741:1.6711529 107742:1.6711529 107743:1.6711529 107744:1.6711529 107745:1.6711529 107746:1.6711529 107747:1.6711529 107748:1.6711529 #
-0.0088646476772930304921516153626726 159:0.22055326 164:0.20488177 189:0.19736688 192:0.47570544 202:0.56479579 288:0.46879834 289:0.19030985 292:0.057081718 297:0.0087885056 298:0.071157359 299:0.093918368 300:0.027341278 309:0.012618673 312:0.010050336 321:0.29552099 326:0.46209812 358:0.17497036 467:0.43736145 490:0.14066167 491:0.13401312 554:0.24404265 560:0.031054929 561:0.027823409 566:0.10206185 577:0.56479579 753:0.50783759 834:0.42095476 891:0.43736145 892:0.45238665 907:0.33844191 923:0.51228231 927:0.11222409 933:0.19722559 934:0.29410514 939:0.13308461 952:0.26928458 956:0.17556666 960:0.22774862 964:0.12851812 1149:0.23441617 1183:0.76752836 1231:0.18990572 1234:0.49115703 1308:0.4289563 1315:0.21365573 1324:0.46546525 1336:0.20848162 1345:0.11304309 1371:0.2253155 1391:0.65200382 1461:0.59151959 1462:0.69995087 1593:0.48723528 1594:0.27678853 1624:0.4462131 1643:0.57108587 1764:0.2253155 1794:0.26311105 1883:0.46890178 2025:0.29410514 2364:0.28350085 2368:0.30284622 2418:0.39675778 2439:0.30413321 2440:0.32918024 2521:0.24860914 2522:0.36978394 2534:0.27788866 2535:0.42357951 2537:0.44321001 2730:0.49517328 3072:0.66276026 3075:0.39675778 3110:0.49115703 3140:0.54723573 3439:0.52637517 3495:0.38376418 3667:0.49517328 4039:0.84586233 4255:0.49517328 4292:0.33844191 4320:0.48340368 4490:0.39231306 4516:0.7897836 4777:0.59151959 5213:0.53135067 5660:0.59892821 5662:0.59892821 5852:0.35337725 6042:0.60668153 6274:0.50783759 6439:0.88305289 6493:0.30156907 7119:0.52637517 7811:0.84586233 8143:0.48340368 8238:0.76752836 8336:0.66276026 8465:0.58442634 9645:0.6866104 10140:0.88305289 10240:0.59892821 10558:0.99857742 13926:0.71445274 13989:0.50350833 14638:0.76752836 15028:0.46209812 16098:0.60668153 16612:0.71445274 19482:0.66276026 20199:0.6866104 21762:0.88305289 22672:0.6418997 25399:0.8154754 26703:0.69995087 26704:0.63237333 30482:0.88305289 30859:0.63237333 33483:0.93099993 35639:0.93099993 41306:0.88305289 42326:0.99857742 44359:0.71445274 47010:0.76752836 49131:0.93099993 49353:0.8154754 55322:0.99857742 63803:0.99857742 63945:1.114102 63946:0.99857742 63947:0.99857742 63948:1.114102 63949:1.114102 63950:0.99857742 63951:1.114102 63952:1.114102 63953:1.114102 63954:1.114102 63955:1.114102 63956:1.114102 63957:1.114102 63958:1.114102 63959:1.114102 63960:1.114102 63961:1.114102 63962:0.99857742 63963:1.114102 63964:0.99857742 63965:1.114102 63966:1.114102 63967:1.114102 63968:1.114102 63969:1.114102 63970:1.114102 63971:1.114102 63972:0.99857742 63973:1.114102 63974:0.99857742 63975:0.93099993 63976:0.84586233 63977:1.114102 63978:0.8154754 63979:1.114102 63980:0.99857742 63981:0.99857742 63982:1.114102 63983:1.114102 63984:1.114102 63985:1.114102 63986:0.99857742 63987:1.114102 #
-0.0088646476772930304921516153626726 164:0.49171624 189:0.059210066 212:0.16137519 288:0.42191851 290:0.084624007 292:0.20549418 297:0.0070308046 298:0.085388824 299:0.075134695 300:0.032809533 309:0.0075712041 312:0.010050336 321:0.11820839 331:0.21947262 375:0.1406395 490:0.16879402 491:0.16081575 560:0.074531831 561:0.033388089 564:0.21798007 566:0.061237108 606:0.44145498 765:0.41192779 831:0.45315424 848:0.15153714 878:0.40804416 952:0.32314152 961:0.47077566 968:0.8764053 1149:0.28129941 1150:0.75884801 1231:0.22788686 1234:0.58938843 1310:0.63165027 1313:0.22945549 1327:0.35586739 1344:0.21284217 1345:0.13565171 1396:0.38278541 1402:0.85734332 1403:0.57558984 1595:0.51805341 1602:0.46816126 1751:0.19090238 1756:0.34157559 2011:0.59420794 2019:0.51474756 2355:0.32953182 2640:0.72801787 2660:0.53185201 2707:0.58008444 2730:0.59420794 3425:0.33613309 3691:0.40423453 3961:0.6094051 4058:0.29393518 4392:0.67048144 4514:0.55451775 4640:0.65668285 4661:0.35885251 5814:0.69314718 6388:0.59914643 6672:0.89747745 6831:0.58008444 7604:0.50514573 8948:0.50204492 10085:0.79531229 10423:1.0596634 10627:0.77027971 10751:0.74803454 11605:1.0150348 11606:1.0596634 11715:0.94774032 11874:0.89747745 13764:0.94774032 13765:0.97857046 13766:1.0596634 13818:0.8764053 13819:0.97857046 13820:0.94774032 19482:0.79531229 19956:0.74803454 20810:1.0596634 20910:0.73777586 21773:1.1982929 21923:0.92103404 22054:1.0596634 22132:0.77027971 22778:1.1171999 22779:1.0596634 22834:1.0150348 22835:1.0150348 22858:0.82393247 23359:0.73777586 27761:0.79531229 31433:1.1982929 31434:1.1982929 31509:1.1982929 34193:1.1171999 34194:1.1171999 39827:1.0150348 50277:0.83994102 53825:1.4026232 55335:1.0596634 58098:1.1982929 60398:1.1171999 66185:0.82393247 66262:1.4374278 66307:1.1982929 66308:1.1982929 66309:1.3369223 66310:1.3369223 66311:1.3369223 66312:1.3369223 66313:1.3369223 66314:1.1982929 66315:1.3369223 66316:1.1171999 66317:1.3369223 66318:1.3369223 66319:1.3369223 66320:1.3369223 66321:1.3369223 66322:1.3369223 66323:1.3369223 66324:1.3369223 66325:1.1982929 66326:1.1171999 66327:1.3369223 66328:1.3369223 66329:1.3369223 66330:1.3369223 66331:1.3369223 66332:1.3369223 66333:1.3369223 #
