SVM-light Version V6.02
0 # kernel type
3 # kernel parameter -d 
1 # kernel parameter -g 
1 # kernel parameter -s 
1 # kernel parameter -r 
empty# kernel parameter -u 
5654 # highest feature index 
640 # number of training documents 
517 # number of support vectors plus 1 
0.02786087 # threshold b, each following line is a SV (starting with alpha*y)
-0.00080205278288121009330757793520661 1:2.1095924 2:0.57092953 3:0.42312005 4:2.6415606 5:0.34249032 7:2.0694911 10:0.04394253 11:0.42694414 12:0.37567347 18:0.54688466 22:0.094640046 24:0.58266908 25:0.080402687 34:0.59104198 44:1.0973631 46:1.6032073 50:1.7646308 60:3.9120231 73:0.11372876 92:0.18632957 93:0.3338809 98:0.61237109 105:5.0751739 106:2.3103652 121:2.2072749 140:4.2405272 144:3.2188759 149:0.53828245 150:2.2072749 198:0.66474682 199:1.018185 206:0.82346946 212:1.2819344 216:2.8559704 228:1.9841313 230:1.1631508 249:1.856298 279:1.5028281 306:4.6051702 313:3.2506244 329:0.79573375 361:2.4799192 364:1.1631508 386:1.8170773 403:2.1520123 406:3.9765615 412:4.2867165 424:1.5313201 466:1.0751399 469:2.0996442 473:2.2302644 506:4.2614698 611:1.469676 624:2.2187035 648:2.0306513 854:2.8779492 946:2.0894918 1037:3.5491176 1262:3.79424 1480:2.0694911 1485:2.8344641 2489:5.0751739 2789:2.494957 4031:3.5491176 4151:6.6846118 4152:5.9914646 4153:5.9914646 #
-0.0011332319141326109221412643535132 1:0.70319754 4:2.6415606 10:0.017577011 11:0.42694414 12:0.37567347 13:0.16404767 22:0.01892801 24:0.58266908 25:0.020100672 29:0.68072468 34:0.59104198 46:1.6032073 49:0.4521637 64:1.9139271 71:1.0498221 72:2.2187035 73:0.56864381 84:1.89712 94:1.3813068 117:4.0455542 119:2.65926 120:1.8094144 167:0.67334455 174:1.7646308 186:2.2302644 194:2.4361165 196:1.0533999 204:0.77110875 206:0.82346946 217:2.541477 230:2.3263016 238:1.8704375 265:1.0498221 267:1.6283659 291:1.3518929 329:3.182935 335:2.0694911 344:3.2834144 381:1.2640767 382:1.7010051 386:1.8170773 397:2.4651041 427:1.9661129 469:2.0996442 473:2.2302644 496:2.8134108 599:2.0402207 687:1.856298 701:3.1881042 733:2.059639 800:2.9234116 963:3.6400893 1072:4.6051702 1268:2.3671236 1289:3.8513985 1646:3.2506244 1928:3.1582513 4154:6.6846118 4155:6.6846118 4156:5.9914646 4157:6.6846118 #
-0.0011332319141326109221412643535132 1:2.1095924 5:0.68498063 10:0.052731037 13:0.2460715 15:1.89712 17:0.43656886 22:0.03785602 25:0.060302015 43:0.809681 46:1.6032073 49:0.4521637 69:2.3805466 73:0.11372876 74:3.1010928 75:3.6400893 84:1.89712 87:2.7527862 88:1.4063951 89:1.7646308 90:0.57758886 92:0.55898875 93:0.83470225 95:1.9139271 98:0.61237109 106:1.1551826 112:0.7738151 125:3.3173158 166:2.8344641 179:0.79850769 198:0.22158226 199:1.018185 205:2.5737379 206:0.82346946 278:0.95451194 335:2.0694911 362:1.7646308 387:3.79424 466:1.0751399 496:2.8134108 611:1.469676 624:2.2187035 687:1.856298 689:1.7942626 714:2.9957323 724:2.5737379 796:3.4657359 1338:4.3820267 1607:4.1997051 1656:3.02105 1788:4.3820267 2388:2.9004221 2789:2.494957 4158:6.6846118 #
-0.00052850216084571253853663375110727 3:0.42312005 4:2.6415606 5:1.0274709 10:0.052731037 11:0.42694414 12:0.93918371 22:0.11356806 24:0.34960145 25:0.1105537 29:0.68072468 36:1.469676 41:1.9054883 44:1.0973631 73:0.34118629 88:0.70319754 94:1.3813068 98:0.30618554 149:1.0765649 167:1.3466891 179:1.5970154 182:2.1307349 183:1.0078579 196:1.0533999 198:0.66474682 199:1.018185 206:0.41173473 212:2.5638688 222:1.8483298 224:1.7793369 230:2.3263016 232:4.1196623 238:1.8704375 242:0.6782586 243:6.1473875 266:2.5102243 278:0.95451194 321:1.5786662 329:1.5914675 375:1.7287847 381:1.2640767 384:2.5574772 460:1.9750816 538:2.6070743 662:3.4657359 680:3.4657359 703:4.1196623 712:2.7725887 721:2.3538785 901:1.9224378 962:5.1474757 1100:3.7401729 1156:2.494957 1317:4.4873872 1351:5.0751739 1524:5.9914646 1536:2.8134108 2131:5.0751739 2618:4.4873872 3456:7.4803457 3938:5.5859995 4159:6.6846118 4160:5.5859995 4161:5.9914646 4162:6.6846118 4163:13.369224 4164:6.6846118 4165:6.6846118 4166:6.6846118 4167:6.6846118 4168:6.6846118 4169:6.6846118 4170:6.6846118 #
-0.0011332319141326109221412643535132 1:0.70319754 2:0.57092953 4:7.9246812 5:1.0274709 6:2.9957323 10:0.026365519 11:0.42694414 12:0.37567347 13:0.41011918 17:0.43656886 18:0.54688466 22:0.07571204 24:0.6992029 25:0.070352353 26:2.6956277 31:2.8559704 32:2.8559704 34:0.59104198 35:2.5819683 49:0.90432739 58:2.9004221 74:3.1010928 82:2.4361165 88:0.70319754 92:0.37265915 93:0.3338809 94:1.3813068 96:1.0899004 98:1.2247422 99:3.4859385 106:1.1551826 140:2.1202636 166:2.8344641 167:1.3466891 173:1.1833535 193:2.4361165 204:0.77110875 206:0.82346946 241:2.1284218 242:0.6782586 247:5.2141485 329:1.5914675 337:1.8888211 363:1.9139271 364:1.1631508 420:3.5935693 422:2.65926 423:1.89712 424:1.5313201 466:4.3005595 482:1.6541739 507:2.4799192 684:3.4859385 728:2.4505053 770:4.4873872 784:3.7401729 901:1.9224378 1177:4.7387013 1189:3.3887749 1284:3.6400893 1418:7.2801785 1521:3.9765615 1724:3.1881042 1746:4.2867165 1835:3.6400893 1948:5.5859995 2195:4.8928523 2461:4.8928523 2609:5.0751739 4094:5.5859995 4171:5.5859995 4172:6.6846118 4173:4.8928523 4174:6.6846118 #
0.0003621929489640576208669964231035 1:1.4063951 3:0.42312005 5:1.0274709 10:0.087885059 11:0.42694414 12:0.56351024 13:0.16404767 16:2.3408062 17:0.43656886 22:0.05678403 24:0.23306763 25:0.12060403 29:0.68072468 43:0.809681 49:0.90432739 54:4.7387013 64:1.9139271 71:1.0498221 73:0.34118629 74:3.1010928 83:2.9710398 88:0.70319754 92:0.37265915 93:0.3338809 96:1.0899004 98:0.30618554 99:1.7429693 132:1.3862944 134:7.1871386 153:2.1099007 164:2.65926 167:0.67334455 171:3.8513985 179:1.5970154 186:4.4605289 188:3.0169239 191:2.3671236 192:1.6157075 204:1.5422175 210:1.1472775 212:1.2819344 217:2.541477 222:3.6966596 224:1.7793369 230:2.3263016 233:3.7526691 241:1.0642109 257:2.9710398 283:1.707878 302:1.6411866 312:2.6956277 346:3.9120231 375:1.7287847 386:1.8170773 429:1.0605942 457:3.6400893 468:2.2302644 506:2.1307349 508:2.5737379 585:1.7501378 597:3.5935693 655:2.7927914 684:1.7429693 689:1.7942626 708:3.0736938 710:3.3524072 728:2.4505053 744:2.9710398 759:2.5737379 822:3.9765615 1139:3.4265151 1226:4.0455542 1268:2.3671236 1275:5.0751739 1280:4.3820267 1611:4.8928523 1704:3.6888795 1747:4.8928523 1791:3.5491176 1988:5.0751739 2493:4.2867165 2589:4.4873872 2591:4.6051702 2671:5.2983174 2830:3.8513985 2977:4.8928523 2978:5.9914646 2979:5.0751739 2980:6.6846118 2981:6.6846118 2982:5.5859995 2983:5.9914646 2984:6.6846118 2985:4.1997051 2986:5.9914646 2987:5.9914646 2988:5.9914646 2989:5.5859995 #
0.0005241480917492684441644223980461 5:0.34249032 10:0.061519541 11:0.85388827 13:0.16404767 16:2.3408062 22:0.07571204 24:0.11653382 25:0.10050336 29:0.68072468 43:0.809681 44:1.0973631 46:1.6032073 49:1.8086548 73:0.22745752 84:1.89712 87:2.7527862 90:0.57758886 91:3.9765615 92:0.55898875 93:0.50082135 94:1.3813068 95:1.9139271 96:1.0899004 97:5.0751739 98:0.91855663 99:1.7429693 100:4.7387013 101:4.1997051 102:1.9932638 103:6.6846118 104:3.4265151 105:5.0751739 106:1.1551826 107:1.2640767 108:2.9957323 109:3.3887749 110:4.6051702 111:2.3538785 112:0.7738151 113:4.3820267 114:4.6051702 115:3.5491176 116:5.2983174 117:4.0455542 118:3.6400893 119:2.65926 120:1.8094144 121:2.2072749 122:5.2983174 123:2.6241686 124:2.8559704 125:3.3173158 126:2.5737379 127:2.2302644 128:5.0751739 129:6.6846118 130:5.9914646 131:5.2983174 132:1.3862944 133:6.6846118 134:3.5935693 135:4.3820267 136:3.6888795 137:4.7387013 138:2.2072749 139:3.3524072 #
-0.00054595377703902899565319151164999 2:1.1418591 3:0.42312005 10:0.04394253 12:0.18783674 13:0.082023837 17:0.43656886 22:0.01892801 24:0.23306763 25:0.050251678 34:1.7731259 44:1.0973631 71:1.0498221 92:0.37265915 138:2.2072749 167:0.67334455 170:1.9310216 189:2.0694911 198:0.44316453 199:1.018185 258:4.3475046 329:0.79573375 331:3.0396514 364:3.4894524 382:3.4020102 427:1.9661129 429:1.0605942 466:2.1502798 600:4.5315423 603:3.1010928 611:1.469676 648:2.0306513 759:2.5737379 873:2.9710398 915:3.7401729 1316:4.0455542 1513:2.9234116 1567:4.3820267 2388:2.9004221 2528:5.9914646 2830:3.8513985 3759:6.8530302 5198:5.5859995 5358:6.6846118 5359:6.6846118 5360:6.6846118 #
0.00026279771894484647105569297131922 1:2.8127902 2:0.57092953 4:2.6415606 5:1.0274709 7:2.0694911 10:0.070308045 11:0.42694414 12:0.18783674 13:0.73821449 15:1.89712 18:0.54688466 19:7.1416397 20:3.6400893 21:4.1789837 22:0.07571204 24:0.46613526 25:0.080402687 34:0.59104198 36:1.469676 41:1.9054883 49:0.4521637 51:1.8724273 64:1.9139271 73:0.90983009 93:0.50082135 98:0.91855663 106:1.1551826 112:2.3214452 140:2.1202636 167:4.7134118 174:1.7646308 179:0.79850769 183:1.0078579 192:1.6157075 193:2.4361165 196:1.0533999 203:2.7725887 204:0.77110875 205:2.5737379 206:0.41173473 207:3.1582513 208:3.6888795 209:2.9469421 210:1.1472775 211:5.2983174 212:1.2819344 213:5.9914646 214:9.7857046 215:6.6846118 216:2.8559704 217:2.541477 218:5.9914646 219:2.6415606 220:5.6689281 221:8.3783741 222:3.6966596 223:3.3887749 224:3.5586739 225:6.6846118 226:6.6846118 227:3.6888795 228:1.9841313 229:2.9957323 230:3.4894524 231:3.0470257 232:4.1196623 233:3.7526691 234:3.3524072 235:6.6846118 236:3.4265151 237:10.780707 238:2.8056562 239:2.9469421 240:5.5859995 241:1.0642109 242:2.0347757 243:3.0736938 244:5.9914646 245:6.6846118 246:4.8928523 247:2.6070743 248:3.0470257 249:1.856298 250:2.5102243 251:4.1196623 252:2.5102243 253:3.5491176 254:5.9914646 255:6.6846118 256:1.7867719 257:2.9710398 258:2.1737523 259:6.6846118 260:9.2103405 261:3.4657359 262:4.5557852 263:5.2983174 264:1.6347557 265:2.0996442 266:2.5102243 267:1.6283659 268:1.3518929 269:6.6846118 270:3.5491176 271:4.2867165 272:5.9914646 273:3.2188759 274:4.8928523 275:3.1292636 276:5.2983174 277:2.6241686 #
0.0011332319141326109221412643535132 3:0.8462401 5:0.68498063 7:2.0694911 10:0.052731037 11:0.42694414 12:0.56351024 13:0.2460715 17:0.43656886 22:0.094640046 24:0.81573671 25:0.050251678 29:1.3614494 34:1.182084 35:1.2909842 49:1.3564911 57:2.5737379 70:2.5737379 73:0.11372876 84:1.89712 88:0.70319754 90:0.57758886 92:0.18632957 93:0.3338809 98:0.30618554 121:2.2072749 141:1.3763441 149:0.53828245 153:2.1099007 162:2.0306513 171:3.8513985 173:1.1833535 179:0.79850769 183:2.0157158 198:0.66474682 206:0.41173473 212:1.2819344 224:1.7793369 242:0.6782586 278:1.9090239 284:1.4323384 330:4.1196623 331:4.5594773 337:1.8888211 354:3.9765615 377:3.4265151 381:1.2640767 423:3.79424 428:3.4265151 449:2.6956277 466:3.2254198 499:4.6051702 561:2.65926 589:2.65926 605:2.6772785 624:2.2187035 689:1.7942626 805:4.1997051 877:5.2983174 885:2.9234116 889:2.8559704 946:2.0894918 1007:3.4657359 1012:3.9120231 1111:3.4657359 1268:2.3671236 1305:3.5065579 1480:4.1389823 1632:3.3173158 1787:4.7387013 1788:4.3820267 1789:4.7387013 1790:5.9914646 1791:3.5491176 1792:5.2983174 #
-0.00029715876764243372588208957907341 1:0.70319754 2:1.1418591 3:0.42312005 5:0.68498063 8:2.5574772 10:0.070308045 11:1.7077765 12:0.75134695 13:0.57416683 15:1.89712 17:0.87313771 18:0.54688466 19:2.3805466 21:2.0894918 22:0.22713612 24:1.8645411 25:0.090453021 26:2.6956277 31:2.8559704 32:2.8559704 34:1.7731259 36:2.939352 43:0.809681 44:1.0973631 49:0.4521637 57:2.5737379 58:2.9004221 73:0.68237257 88:1.4063951 90:1.7327665 92:0.55898875 93:0.16694045 94:1.3813068 98:0.30618554 99:1.7429693 102:3.9865277 108:2.9957323 112:0.7738151 121:4.4145498 135:4.3820267 138:2.2072749 141:1.3763441 148:1.9932638 149:3.2296948 151:1.6806654 152:3.2188759 167:1.3466891 179:0.79850769 190:2.9004221 195:4.0455542 196:4.2135997 198:2.8805695 204:2.3133261 205:2.5737379 206:0.82346946 207:6.3165026 210:2.2945549 212:1.2819344 221:2.7927914 238:0.93521875 241:2.1284218 247:2.6070743 261:3.4657359 264:1.6347557 265:3.1494663 268:2.7037859 284:1.4323384 291:1.3518929 300:3.6888795 306:4.6051702 329:1.5914675 330:4.1196623 331:1.5198257 335:2.0694911 339:4.7387013 375:3.4575694 377:3.4265151 429:1.0605942 443:3.0470257 466:1.0751399 470:3.5935693 503:5.5859995 506:4.2614698 516:1.8247993 521:3.3887749 573:2.7333679 585:1.7501378 588:2.8344641 611:1.469676 656:7.4397573 676:3.3524072 689:3.5885253 749:6.9314718 799:2.1737523 803:2.9004221 810:4.2867165 826:4.0455542 827:1.8483298 837:1.8094144 856:2.2778926 885:2.9234116 889:2.8559704 1096:3.1582513 1123:2.6415606 1187:4.6051702 1283:4.8928523 1411:5.3912554 1433:2.9710398 1459:3.1582513 1475:5.0751739 1512:3.6888795 1584:5.2983174 1603:4.8928523 1725:2.7143197 1855:3.6400893 2073:3.8513985 2222:4.3820267 2377:3.6888795 2388:2.9004221 2802:4.6051702 2839:4.4873872 2856:4.6051702 3452:4.8928523 3578:4.8928523 3958:5.5859995 4424:5.5859995 4496:5.2983174 4530:6.6846118 4531:6.6846118 4532:6.6846118 4533:6.6846118 4534:5.9914646 #
-0.0010556571292068819487020014946665 1:4.2191849 2:0.57092953 3:0.42312005 5:0.68498063 8:5.1149545 10:0.070308045 11:2.5616648 12:1.6905307 13:0.73821449 15:3.79424 17:0.87313771 22:0.15142408 24:1.281872 25:0.14070471 29:1.3614494 34:1.7731259 36:1.469676 41:1.9054883 43:0.809681 45:4.8928523 46:3.2064147 49:0.4521637 59:1.5028281 73:0.11372876 83:2.9710398 88:0.70319754 90:0.57758886 92:0.37265915 93:0.83470225 98:0.91855663 99:6.9718771 112:0.7738151 121:4.4145498 132:1.3862944 141:1.3763441 142:2.6956277 144:6.4377518 148:1.9932638 149:1.0765649 150:4.4145498 158:3.6888795 163:3.0736938 173:1.1833535 174:1.7646308 183:2.0157158 189:2.0694911 191:2.3671236 194:2.4361165 196:1.0533999 198:0.66474682 200:1.3664917 201:2.3538785 203:5.5451775 206:0.82346946 210:1.1472775 212:1.2819344 217:2.541477 220:2.8344641 224:1.7793369 230:1.1631508 233:2.5017796 237:3.5935693 256:1.7867719 264:1.6347557 265:1.0498221 266:2.5102243 284:1.4323384 291:1.3518929 329:3.182935 340:3.6400893 347:3.7401729 351:2.5574772 352:4.6051702 354:3.9765615 364:3.4894524 381:1.2640767 382:1.7010051 383:5.9914646 387:3.79424 390:3.8513985 429:1.0605942 435:1.9224378 443:9.141077 466:1.0751399 472:2.4799192 479:2.4361165 482:1.6541739 494:2.2187035 497:3.2834144 522:2.8779492 549:2.2901626 578:2.0794415 585:1.7501378 588:2.8344641 591:2.6772785 599:2.0402207 622:3.2188759 676:3.3524072 687:1.856298 775:2.1848021 776:3.1292636 824:6.7775497 837:5.4282432 852:5.9914646 946:2.0894918 950:4.1196623 981:3.5491176 985:3.6400893 1069:5.2983174 1099:3.4657359 1111:6.9314718 1139:10.279546 1193:4.7387013 1285:5.2983174 1309:4.8928523 1348:3.2506244 1353:2.8779492 1375:3.4265151 1383:4.2867165 1422:3.9765615 1456:4.7387013 1501:4.8928523 1533:6.3165026 1534:4.2867165 1580:4.3820267 1641:3.9765615 1651:3.9765615 1806:4.7387013 1935:4.2867165 1936:3.79424 1978:3.5935693 2101:4.4873872 2258:4.8928523 2377:3.6888795 2415:3.8513985 2838:4.8928523 2858:5.5859995 3205:5.0751739 3641:5.0751739 3679:4.6051702 3839:5.5859995 4012:5.9914646 4428:6.6846118 4429:6.6846118 4430:5.9914646 4431:5.0751739 #
-8.1633445194120279864678779713216e-05 3:0.42312005 4:7.9246812 5:0.68498063 6:2.9957323 7:2.0694911 8:2.5574772 10:0.061519541 12:0.56351024 13:0.73821449 16:2.3408062 18:0.54688466 22:0.15142408 24:0.6992029 25:0.13065436 28:5.2983174 29:0.68072468 34:0.59104198 35:1.2909842 49:1.3564911 73:0.34118629 74:3.1010928 93:0.50082135 98:0.91855663 124:2.8559704 140:2.1202636 148:1.9932638 149:0.53828245 151:1.6806654 159:4.2867165 164:2.65926 179:1.5970154 181:5.0751739 198:1.5510759 202:1.4167535 206:1.2352042 207:3.1582513 212:2.5638688 230:1.1631508 231:3.0470257 242:0.6782586 258:2.1737523 264:4.9042673 273:3.2188759 278:1.9090239 279:1.5028281 283:1.707878 287:5.2983174 289:2.5902672 290:1.6347557 292:4.7387013 293:1.7010051 295:2.0794415 298:3.3887749 305:3.5935693 331:1.5198257 333:7.9531231 335:2.0694911 342:5.2983174 343:5.0751739 361:2.4799192 362:1.7646308 364:6.9789047 375:1.7287847 427:1.9661129 435:1.9224378 455:2.65926 466:1.0751399 470:3.5935693 516:1.8247993 538:2.6070743 578:2.0794415 582:2.9004221 594:3.7401729 618:4.1196623 620:5.9914646 627:2.3025851 638:3.1010928 639:3.4657359 654:2.6415606 716:2.3538785 731:3.9765615 766:3.0736938 889:2.8559704 1043:3.6888795 1200:4.6051702 1314:4.2867165 1456:4.7387013 1911:3.1582513 2107:3.9120231 2208:5.9914646 2314:5.5859995 2374:4.3820267 2524:4.6051702 2727:3.8513985 2974:5.0751739 3108:5.5859995 3371:5.2983174 3419:5.5859995 4031:3.5491176 4206:6.6846118 4207:6.6846118 4208:6.6846118 4209:6.6846118 4210:6.6846118 4211:4.2867165 4212:6.6846118 4213:5.9914646 4214:5.9914646 4215:5.9914646 4216:6.6846118 #
-0.0010147181100562190862041100913871 2:1.7127887 3:0.8462401 5:0.34249032 10:0.096673563 11:1.2808324 12:0.37567347 13:0.32809535 15:1.89712 17:0.43656886 21:2.0894918 22:0.05678403 24:0.58266908 25:0.10050336 34:0.59104198 37:2.541477 43:1.619362 46:3.2064147 49:2.7129822 51:1.8724273 56:3.3173158 64:1.9139271 70:2.5737379 71:1.0498221 72:2.2187035 73:0.56864381 83:2.9710398 87:2.7527862 88:1.4063951 90:1.1551777 92:0.9316479 93:0.16694045 94:1.3813068 96:1.0899004 98:0.61237109 106:2.3103652 107:1.2640767 112:1.5476302 141:2.7526882 149:1.6148474 153:4.2198014 162:2.0306513 167:0.67334455 169:2.0794415 170:3.8620431 179:0.79850769 183:2.0157158 186:2.2302644 188:1.508462 190:2.9004221 194:2.4361165 196:1.0533999 198:1.1079113 204:1.5422175 210:1.1472775 212:1.2819344 221:2.7927914 230:5.8157539 238:0.93521875 241:1.0642109 256:1.7867719 257:2.9710398 264:3.2695115 265:3.1494663 266:2.5102243 275:3.1292636 281:4.1196623 291:1.3518929 293:3.4020102 300:3.6888795 301:3.8513985 305:3.5935693 329:1.5914675 331:1.5198257 359:2.0498827 361:2.4799192 362:1.7646308 364:1.1631508 403:2.1520123 423:1.89712 424:1.5313201 453:2.0402207 498:3.0736938 648:2.0306513 676:3.3524072 684:1.7429693 698:4.6051702 775:6.5544062 776:3.1292636 806:3.8513985 837:1.8094144 844:3.4657359 885:2.9234116 986:3.6888795 1038:3.4657359 1189:3.3887749 1262:3.79424 1301:3.5065579 1437:3.3887749 1449:4.1997051 1480:2.0694911 1523:4.2867165 1548:8.5734329 1653:3.2188759 1829:4.1196623 1848:5.9914646 2324:5.2983174 2502:9.9519482 2723:5.2983174 3659:5.2983174 3997:5.9914646 4189:5.2983174 4290:5.2983174 4350:5.5859995 4847:6.6846118 4848:6.6846118 4849:6.6846118 4850:6.6846118 4851:6.6846118 4852:6.6846118 4853:6.6846118 #
-6.7135311087686765866427984761344e-05 2:0.57092953 3:0.42312005 5:0.34249032 7:2.0694911 10:0.17577012 11:0.42694414 12:1.8783674 13:0.57416683 15:5.69136 17:2.6194131 18:1.0937693 22:0.11356806 24:0.81573671 25:0.14070471 34:2.9552097 36:2.939352 41:5.7164645 43:0.809681 45:9.7857046 46:1.6032073 49:0.4521637 51:1.8724273 64:1.9139271 73:0.68237257 83:2.9710398 92:0.18632957 93:1.0016427 98:0.61237109 107:1.2640767 112:0.7738151 149:2.6914124 151:6.7226615 162:2.0306513 164:2.65926 167:0.67334455 170:1.9310216 174:3.5292616 179:3.1940308 188:6.0338478 191:2.3671236 196:4.2135997 198:3.7668986 199:1.018185 204:3.8555436 206:0.41173473 210:1.1472775 217:2.541477 224:1.7793369 228:1.9841313 230:5.8157539 233:1.2508898 238:0.93521875 241:1.0642109 249:1.856298 261:3.4657359 264:3.2695115 265:4.1992884 266:2.5102243 267:3.2567317 268:1.3518929 277:2.6241686 290:1.6347557 291:1.3518929 297:7.7735653 302:1.6411866 321:3.1573324 326:5.0751739 329:0.79573375 331:1.5198257 332:3.2506244 335:2.0694911 382:1.7010051 407:3.1292636 408:3.7401729 424:1.5313201 435:1.9224378 444:5.8938842 449:2.6956277 453:2.0402207 460:5.9252448 475:2.4219317 506:2.1307349 521:3.3887749 525:2.7725887 532:6.3165026 535:3.2834144 578:2.0794415 583:2.5102243 585:3.5002756 591:2.6772785 597:7.1871386 629:6.7048144 689:1.7942626 724:2.5737379 793:3.1292636 811:7.4803457 830:2.9004221 837:5.4282432 841:2.3408062 844:6.9314718 846:3.8513985 852:5.9914646 856:2.2778926 884:2.8134108 917:6.0940514 933:4.7387013 998:3.1582513 1021:4.3820267 1038:3.4657359 1055:3.4265151 1139:3.4265151 1206:4.1997051 1258:4.1997051 1433:2.9710398 1459:3.1582513 1460:4.7387013 1480:2.0694911 1551:5.0751739 1724:6.3762083 1725:2.7143197 1743:4.7387013 1806:4.7387013 1860:2.8779492 1893:5.5859995 1962:3.5491176 1974:3.5065579 2242:9.5643129 2245:5.5859995 2959:4.8928523 3503:7.9531231 3578:4.8928523 4243:4.8928523 4313:5.5859995 4339:5.9914646 4650:5.2983174 4745:5.0751739 4746:6.6846118 4747:6.6846118 4748:6.6846118 4749:6.6846118 4750:6.6846118 4751:6.6846118 4752:6.6846118 #
0.00073024993689032918677689343311954 5:0.34249032 10:0.017577011 11:0.42694414 13:0.32809535 18:1.640654 22:0.07571204 24:0.34960145 25:0.010050336 29:1.3614494 34:1.182084 35:2.5819683 46:1.6032073 59:3.0056562 71:1.0498221 73:0.11372876 88:0.70319754 90:0.57758886 92:0.37265915 94:2.7626135 112:0.7738151 132:1.3862944 173:1.1833535 179:0.79850769 183:1.0078579 198:0.22158226 206:0.41173473 230:2.3263016 242:0.6782586 362:1.7646308 363:1.9139271 375:1.7287847 429:1.0605942 442:3.2506244 449:2.6956277 466:6.4508395 475:2.4219317 506:2.1307349 525:2.7725887 845:3.9765615 974:4.6051702 1006:2.6772785 1063:4.6051702 1075:3.2188759 1076:3.6400893 1284:3.6400893 1365:7.0131159 1508:3.1582513 1631:4.7387013 1656:3.02105 1731:3.3173158 1957:5.5859995 2065:4.4873872 2066:5.2983174 2493:4.2867165 2619:5.2983174 3587:5.2983174 3817:6.6846118 3818:6.6846118 3819:6.6846118 3820:6.6846118 3821:5.5859995 3822:6.6846118 3823:6.6846118 #
0.0011332319141326109221412643535132 1:0.70319754 2:0.57092953 10:0.035154022 11:0.42694414 14:2.9957323 22:0.05678403 24:0.46613526 25:0.050251678 34:1.182084 35:2.5819683 43:0.809681 46:1.6032073 49:0.4521637 71:1.0498221 73:0.45491505 88:1.4063951 89:3.5292616 90:0.57758886 92:0.55898875 93:0.3338809 107:1.2640767 127:2.2302644 144:3.2188759 167:0.67334455 170:1.9310216 173:2.3667071 182:2.1307349 193:4.8722329 212:2.5638688 238:0.93521875 262:4.5557852 278:0.95451194 291:2.7037859 362:1.7646308 422:5.3185201 424:3.0626402 466:3.2254198 496:2.8134108 582:2.9004221 589:2.65926 627:2.3025851 724:2.5737379 832:5.5859995 1028:3.9765615 1169:2.5737379 1188:3.2188759 1268:4.7342472 1941:3.9120231 1956:5.0751739 1958:5.0751739 1959:4.7387013 1960:4.1196623 1961:5.0751739 1962:3.5491176 1963:4.4873872 #
0.0011332319141326109221412643535132 1:0.70319754 2:1.1418591 3:0.8462401 5:0.68498063 10:0.061519541 11:0.85388827 12:0.37567347 13:0.32809535 22:0.05678403 24:0.23306763 25:0.050251678 35:1.2909842 41:3.8109765 43:1.619362 49:0.4521637 71:1.0498221 73:0.34118629 88:0.70319754 90:0.57758886 92:0.55898875 93:0.50082135 98:0.91855663 107:3.7922301 111:2.3538785 192:1.6157075 199:1.018185 206:0.41173473 210:2.2945549 212:1.2819344 242:0.6782586 243:3.0736938 249:1.856298 265:1.0498221 268:1.3518929 297:1.554713 321:1.5786662 356:2.5737379 362:1.7646308 391:2.8344641 403:2.1520123 424:3.0626402 446:3.9120231 455:2.65926 466:3.2254198 545:2.3671236 627:2.3025851 645:2.7527862 685:3.5491176 702:2.8779492 728:2.4505053 763:2.541477 778:3.6400893 934:2.5257287 987:3.5491176 989:3.5491176 1315:3.4265151 1480:4.1389823 1656:3.02105 1960:4.1196623 1962:3.5491176 2042:3.1881042 2043:3.2188759 2084:5.9914646 2085:6.6846118 2086:4.4873872 2087:5.5859995 2088:6.6846118 2089:6.6846118 2090:5.9914646 #
0.0011332319141326109221412643535132 1:2.1095924 2:1.1418591 3:0.8462401 4:2.6415606 5:0.68498063 10:0.061519541 13:0.32809535 15:1.89712 22:0.17035209 24:0.34960145 25:0.10050336 29:0.68072468 34:1.7731259 35:1.2909842 49:1.3564911 68:2.6241686 73:0.11372876 90:2.3103554 92:0.55898875 93:0.3338809 98:1.2247422 102:1.9932638 106:1.1551826 144:3.2188759 149:0.53828245 177:2.3151639 179:1.5970154 198:0.22158226 202:1.4167535 204:0.77110875 206:0.41173473 207:6.3165026 210:2.2945549 212:1.2819344 238:1.8704375 243:3.0736938 256:1.7867719 265:3.1494663 267:4.885098 268:1.3518929 278:1.9090239 279:1.5028281 284:1.4323384 297:3.109426 302:1.6411866 329:0.79573375 380:4.0455542 381:1.2640767 386:1.8170773 403:2.1520123 423:1.89712 429:2.1211884 440:5.5859995 442:3.2506244 466:1.0751399 473:2.2302644 475:4.8438635 480:3.5935693 514:3.02105 539:2.3025851 568:3.1582513 616:4.1196623 648:2.0306513 701:3.1881042 715:3.2834144 752:4.7387013 763:2.541477 764:3.5935693 765:5.9914646 766:3.0736938 767:3.79424 768:2.8779492 769:5.5859995 770:4.4873872 771:6.6846118 772:5.9914646 773:4.0455542 774:4.4873872 775:2.1848021 776:3.1292636 777:3.2188759 778:3.6400893 779:5.9914646 780:6.6846118 781:6.6846118 782:5.0751739 783:6.6846118 784:3.7401729 785:6.6846118 786:4.2867165 787:4.7387013 788:6.6846118 789:6.6846118 790:4.8928523 791:6.6846118 792:4.6051702 793:3.1292636 #
0.0011332319141326109221412643535132 2:0.57092953 3:0.8462401 5:0.34249032 10:0.04394253 22:0.094640046 25:0.060302015 34:0.59104198 44:1.0973631 49:1.3564911 71:1.0498221 73:0.22745752 88:0.70319754 92:0.18632957 96:1.0899004 98:0.30618554 104:3.4265151 106:1.1551826 107:1.2640767 138:2.2072749 166:5.6689281 186:2.2302644 198:0.44316453 204:0.77110875 238:0.93521875 241:1.0642109 278:0.95451194 293:1.7010051 423:1.89712 453:2.0402207 501:2.6415606 539:2.3025851 545:2.3671236 606:2.2187035 607:2.4505053 609:4.1997051 611:1.469676 689:3.5885253 796:3.4657359 797:3.1582513 901:1.9224378 1291:3.5935693 1292:4.8928523 1293:5.2983174 1294:6.6846118 1295:5.5859995 #
-0.0011332319141326109221412643535132 1:3.5159876 3:0.42312005 7:2.0694911 10:0.04394253 11:0.42694414 12:0.18783674 13:0.16404767 17:0.43656886 18:0.54688466 19:2.3805466 22:0.13249607 24:0.46613526 25:0.10050336 29:0.68072468 34:0.59104198 41:3.8109765 43:1.619362 44:3.2920892 46:1.6032073 73:0.22745752 92:0.55898875 93:0.50082135 98:0.91855663 107:1.2640767 109:3.3887749 110:4.6051702 112:1.5476302 132:1.3862944 148:1.9932638 149:0.53828245 161:3.5935693 167:2.0200336 170:1.9310216 182:4.2614698 198:0.22158226 202:2.8335071 204:0.77110875 206:0.41173473 216:2.8559704 217:2.541477 238:0.93521875 249:1.856298 260:4.6051702 262:9.1115704 278:0.95451194 279:1.5028281 295:2.0794415 297:1.554713 302:1.6411866 329:2.3872013 423:1.89712 429:2.1211884 453:2.0402207 600:4.5315423 611:1.469676 616:4.1196623 648:4.0613027 670:3.3173158 672:3.8513985 684:3.4859385 946:2.0894918 962:2.5737379 1096:3.1582513 1160:2.9004221 1173:3.5491176 1291:3.5935693 1301:3.5065579 1500:11.38272 1669:2.8134108 1680:4.1997051 1935:4.2867165 1936:3.79424 1941:3.9120231 2334:4.8928523 2565:3.9120231 3499:5.2983174 4432:5.2983174 4433:5.9914646 4434:6.6846118 4435:5.5859995 4436:5.5859995 4437:6.6846118 4438:5.9914646 #
-0.0011332319141326109221412643535132 3:0.8462401 5:0.34249032 10:0.035154022 12:0.75134695 13:0.082023837 14:2.9957323 17:0.43656886 22:0.03785602 24:0.34960145 25:0.070352353 35:1.2909842 44:1.0973631 49:0.4521637 73:0.22745752 87:2.7527862 92:0.18632957 101:4.1997051 149:0.53828245 167:0.67334455 183:1.0078579 198:0.22158226 204:0.77110875 232:4.1196623 242:0.6782586 262:4.5557852 355:4.0455542 466:2.1502798 689:1.7942626 733:2.059639 811:3.7401729 978:4.6051702 1006:2.6772785 1270:4.3820267 1348:3.2506244 1502:2.9957323 1694:3.8513985 2042:6.3762083 2043:6.4377518 2055:3.5935693 2101:4.4873872 2234:4.4873872 2913:3.3524072 2964:4.8928523 4598:5.2983174 4656:6.6846118 4657:6.6846118 4658:5.5859995 #
-0.0011332319141326109221412643535132 5:0.34249032 10:0.052731037 11:0.42694414 13:0.16404767 22:0.15142408 24:0.6992029 25:0.10050336 29:0.68072468 43:1.619362 49:2.2608185 73:0.45491505 90:1.1551777 92:1.1179775 93:0.3338809 95:1.9139271 98:0.30618554 106:1.1551826 111:2.3538785 115:3.5491176 120:3.6188288 125:3.3173158 126:2.5737379 127:2.2302644 132:1.3862944 135:4.3820267 141:1.3763441 162:2.0306513 170:1.9310216 198:0.22158226 199:1.018185 204:0.77110875 206:0.82346946 222:3.6966596 241:1.0642109 242:0.6782586 258:2.1737523 268:1.3518929 283:1.707878 284:1.4323384 317:2.9957323 335:4.1389823 337:1.8888211 363:1.9139271 365:3.9120231 451:3.4657359 466:1.0751399 535:3.2834144 539:2.3025851 545:2.3671236 585:1.7501378 599:2.0402207 611:1.469676 628:3.6888795 759:2.5737379 797:9.4747534 820:4.0455542 1031:2.9710398 1123:2.6415606 1160:2.9004221 1188:3.2188759 1471:4.1196623 1726:2.6956277 1962:3.5491176 2577:5.0751739 2624:5.2983174 3366:3.7401729 4331:5.9914646 4332:4.4873872 #
-0.0011332319141326109221412643535132 10:0.035154022 11:0.42694414 13:0.16404767 18:0.54688466 22:0.07571204 24:0.11653382 25:0.010050336 34:1.182084 44:1.0973631 49:0.4521637 50:1.7646308 89:1.7646308 95:1.9139271 107:1.2640767 108:2.9957323 173:1.1833535 198:0.22158226 242:0.6782586 290:1.6347557 702:2.8779492 824:3.3887749 1028:3.9765615 1513:2.9234116 1726:2.6956277 1971:3.2834144 2052:4.0455542 4202:5.9914646 #
-0.0011332319141326109221412643535132 2:1.1418591 5:0.68498063 10:0.026365519 13:0.2460715 16:2.3408062 22:0.07571204 24:0.23306763 25:0.020100672 29:0.68072468 34:0.59104198 43:0.809681 49:0.4521637 50:1.7646308 71:1.0498221 73:0.11372876 90:0.57758886 92:0.37265915 93:0.16694045 94:1.3813068 107:1.2640767 120:1.8094144 193:2.4361165 198:0.22158226 199:2.03637 200:1.3664917 206:0.41173473 238:1.8704375 258:2.1737523 265:4.1992884 267:3.2567317 279:3.0056562 293:1.7010051 297:3.109426 329:0.79573375 363:1.9139271 424:1.5313201 484:2.6070743 577:3.5935693 627:4.6051702 689:1.7942626 702:2.8779492 728:2.4505053 740:3.1010928 860:1.5970154 901:1.9224378 1075:3.2188759 1111:3.4657359 1284:3.6400893 1971:3.2834144 2042:3.1881042 2043:3.2188759 2565:3.9120231 2724:3.7401729 #
0.00064230734989205180273524886658265 1:0.70319754 5:0.68498063 10:0.061519541 11:0.42694414 12:1.3148571 13:0.65619069 17:0.43656886 18:1.0937693 22:0.094640046 24:0.93227053 25:0.1105537 29:0.68072468 34:0.59104198 37:2.541477 41:1.9054883 43:2.4290431 44:3.2920892 49:0.90432739 71:1.0498221 73:0.79610133 75:3.6400893 88:1.4063951 90:0.57758886 92:0.37265915 93:0.6677618 94:1.3813068 96:1.0899004 98:0.30618554 102:3.9865277 112:0.7738151 116:5.2983174 121:2.2072749 149:0.53828245 151:11.764658 169:2.0794415 179:1.5970154 183:2.0157158 196:1.0533999 198:2.6589873 201:2.3538785 202:1.4167535 204:3.084435 212:2.5638688 216:2.8559704 233:5.0035591 238:1.8704375 239:5.8938842 241:1.0642109 242:0.6782586 248:3.0470257 256:1.7867719 258:2.1737523 262:4.5557852 268:1.3518929 284:4.2970147 291:1.3518929 297:1.554713 329:3.182935 331:1.5198257 354:3.9765615 364:1.1631508 375:1.7287847 381:1.2640767 382:3.4020102 386:1.8170773 400:3.8513985 427:1.9661129 435:3.8448756 443:12.188103 446:3.9120231 455:2.65926 466:7.5259795 472:2.4799192 473:2.2302644 525:2.7725887 532:3.1582513 560:4.1789837 577:7.1871386 578:2.0794415 597:3.5935693 645:2.7527862 654:2.6415606 661:1.8888211 665:5.5859995 676:3.3524072 687:1.856298 749:10.397207 811:3.7401729 837:3.6188288 844:3.4657359 856:2.2778926 901:1.9224378 937:3.79424 962:2.5737379 1006:5.354557 1049:4.8928523 1055:6.8530302 1123:2.6415606 1153:2.7927914 1169:10.294951 1395:3.8513985 1459:3.1582513 1502:2.9957323 1521:3.9765615 1752:3.2506244 1805:4.7387013 1911:3.1582513 1962:7.0982351 1971:3.2834144 2055:3.5935693 2062:5.2983174 2199:4.2867165 2204:4.1196623 2205:5.9914646 2206:4.4873872 2207:5.9914646 2208:5.9914646 2209:4.3820267 2210:6.6846118 2211:13.369224 2212:5.9914646 2213:5.9914646 2214:4.7387013 2215:5.9914646 #
0.0011332319141326109221412643535132 2:0.57092953 3:0.8462401 5:1.3699613 10:0.079096556 11:0.42694414 12:1.5026939 13:0.49214301 17:1.7462754 22:0.13249607 24:0.93227053 25:0.090453021 34:0.59104198 35:1.2909842 43:0.809681 49:0.90432739 73:0.68237257 83:2.9710398 90:1.1551777 92:0.55898875 93:0.6677618 94:2.7626135 96:1.0899004 98:0.61237109 99:1.7429693 107:1.2640767 149:1.0765649 151:5.0419965 167:0.67334455 168:2.6241686 174:1.7646308 177:2.3151639 179:0.79850769 182:2.1307349 186:2.2302644 189:4.1389823 198:2.8805695 201:2.3538785 202:1.4167535 204:1.5422175 205:2.5737379 210:1.1472775 230:5.8157539 233:3.7526691 238:2.8056562 241:3.1926327 242:0.6782586 258:2.1737523 264:1.6347557 265:2.0996442 267:1.6283659 268:1.3518929 283:1.707878 284:1.4323384 321:1.5786662 329:3.9786689 337:1.8888211 356:2.5737379 382:1.7010051 386:1.8170773 398:2.6956277 424:1.5313201 458:3.1292636 472:2.4799192 497:3.2834144 507:2.4799192 516:1.8247993 521:6.7775497 525:2.7725887 535:3.2834144 562:3.6888795 567:3.4265151 583:2.5102243 585:1.7501378 638:3.1010928 654:5.2831211 655:2.7927914 661:1.8888211 730:4.4873872 763:2.541477 830:2.9004221 834:3.9765615 835:4.4873872 836:11.982929 837:3.6188288 838:11.171999 839:5.9914646 840:3.79424 841:4.6816125 842:4.7387013 843:5.5859995 844:3.4657359 845:3.9765615 846:3.8513985 847:4.4873872 848:5.2983174 849:4.8928523 850:5.9914646 851:4.6051702 852:2.9957323 853:5.5859995 854:2.8779492 855:4.7387013 856:2.2778926 857:5.2983174 858:4.7387013 859:3.2506244 860:1.5970154 #
0.0010424701730693671994365523403303 1:0.70319754 5:0.34249032 11:0.42694414 12:0.18783674 13:0.082023837 18:0.54688466 22:0.05678403 24:0.46613526 25:0.040201344 29:0.68072468 34:1.7731259 43:0.809681 51:1.8724273 65:5.5859995 66:17.826239 71:1.0498221 73:0.22745752 78:5.5859995 88:0.70319754 90:0.57758886 92:0.18632957 98:0.61237109 147:2.0306513 149:0.53828245 166:2.8344641 173:1.1833535 192:1.6157075 196:2.1067998 198:0.22158226 205:2.5737379 221:2.7927914 242:0.6782586 247:2.6070743 278:0.95451194 283:1.707878 312:2.6956277 329:3.182935 331:1.5198257 344:3.2834144 382:1.7010051 398:2.6956277 435:1.9224378 466:3.2254198 470:3.5935693 578:2.0794415 622:3.2188759 642:3.8513985 701:3.1881042 852:2.9957323 1038:3.4657359 1119:3.5065579 1153:2.7927914 1198:5.0751739 1266:3.1292636 1309:4.8928523 1477:3.0470257 1567:4.3820267 1646:3.2506244 1926:3.3173158 2054:3.1881042 2220:5.2983174 2624:5.2983174 2820:4.8928523 3267:5.2983174 3420:5.5859995 3563:5.5859995 3953:6.6846118 3954:6.6846118 #
0.00099645301347959115007002495190136 1:0.70319754 5:0.68498063 11:0.42694414 12:1.1270205 13:0.41011918 17:0.87313771 22:0.13249607 24:1.1653382 25:0.070352353 26:2.6956277 27:4.6051702 34:1.182084 43:0.809681 49:0.4521637 57:2.5737379 64:1.9139271 69:2.3805466 73:0.11372876 88:0.70319754 89:1.7646308 92:0.37265915 96:1.0899004 112:1.5476302 121:2.2072749 141:1.3763441 148:1.9932638 174:7.0585232 179:1.5970154 183:1.0078579 194:2.4361165 198:1.1079113 204:0.77110875 206:0.41173473 209:2.9469421 212:1.2819344 217:2.541477 222:1.8483298 233:2.5017796 241:1.0642109 256:1.7867719 257:2.9710398 289:2.5902672 291:1.3518929 300:3.6888795 329:0.79573375 351:2.5574772 379:4.6051702 386:1.8170773 391:2.8344641 427:1.9661129 453:2.0402207 469:4.1992884 494:2.2187035 623:4.6051702 687:1.856298 733:2.059639 766:3.0736938 1011:4.2867165 1023:4.2867165 1039:4.0455542 1459:3.1582513 2653:3.4657359 2699:6.6846118 2700:6.6846118 2701:5.0751739 2702:6.6846118 2703:6.6846118 2704:6.6846118 2705:6.6846118 2706:6.6846118 2707:6.6846118 #
8.0546350780100330968638844275631e-05 2:0.57092953 3:1.2693602 5:1.0274709 10:0.096673563 11:1.2808324 12:1.8783674 13:0.57416683 17:1.3097066 22:0.17035209 24:0.58266908 25:0.16080537 34:1.182084 35:2.5819683 43:0.809681 49:1.3564911 51:1.8724273 57:2.5737379 58:2.9004221 64:3.8278542 69:2.3805466 71:1.0498221 73:0.90983009 88:1.4063951 92:0.74531829 93:0.6677618 94:1.3813068 96:1.0899004 112:3.0952604 121:6.6218247 127:2.2302644 149:0.53828245 167:1.3466891 168:2.6241686 169:2.0794415 174:1.7646308 183:1.0078579 188:1.508462 196:1.0533999 198:3.1021519 204:2.3133261 206:0.82346946 209:5.8938842 210:1.1472775 212:2.5638688 217:2.541477 221:2.7927914 222:3.6966596 238:0.93521875 239:2.9469421 241:2.1284218 242:0.6782586 249:3.7125959 257:2.9710398 258:2.1737523 264:1.6347557 302:1.6411866 313:3.2506244 321:1.5786662 329:0.79573375 335:2.0694911 337:1.8888211 364:2.3263016 386:3.6341546 391:5.6689281 397:2.4651041 435:1.9224378 443:3.0470257 460:3.9501631 461:3.9765615 463:5.9914646 465:3.6400893 514:3.02105 544:3.79424 578:2.0794415 638:3.1010928 752:4.7387013 793:3.1292636 799:2.1737523 818:2.3941524 827:3.6966596 831:3.9765615 836:5.9914646 856:2.2778926 885:2.9234116 889:2.8559704 933:4.7387013 987:3.5491176 998:3.1582513 1003:2.6415606 1043:3.6888795 1123:2.6415606 1158:7.9531231 1235:3.3887749 1404:5.0751739 1437:3.3887749 1443:4.1196623 1459:3.1582513 1481:4.7387013 1490:3.79424 1646:3.2506244 1715:10.057221 1846:4.8928523 1911:3.1582513 1919:4.1196623 3260:10.596635 3270:5.2983174 3703:5.5859995 3955:6.6846118 3956:5.0751739 3957:5.9914646 3958:5.5859995 #
-0.0011332319141326109221412643535132 1:0.70319754 2:0.57092953 5:0.34249032 10:0.026365519 13:0.16404767 22:0.07571204 24:0.34960145 25:0.040201344 34:1.182084 35:1.2909842 41:1.9054883 49:0.90432739 71:1.0498221 73:0.22745752 94:1.3813068 106:2.3103652 107:1.2640767 149:0.53828245 150:2.2072749 167:0.67334455 170:1.9310216 179:0.79850769 196:3.1601999 198:0.22158226 202:1.4167535 206:0.41173473 207:3.1582513 219:2.6415606 242:0.6782586 267:1.6283659 278:0.95451194 283:1.707878 331:1.5198257 426:3.3524072 469:4.1992884 527:2.9957323 585:1.7501378 733:2.059639 763:2.541477 799:2.1737523 827:1.8483298 1855:3.6400893 4523:5.9914646 4524:6.6846118 #
-6.7883148242413137015902058202244e-05 1:6.3287778 2:1.1418591 3:0.8462401 5:0.34249032 10:0.070308045 11:2.5616648 12:1.3148571 13:0.49214301 17:0.43656886 18:1.0937693 21:2.0894918 22:0.18928009 24:0.93227053 25:0.12060403 29:4.0843482 35:1.2909842 36:1.469676 43:2.4290431 46:1.6032073 49:0.90432739 50:3.5292616 59:3.0056562 73:1.0235589 83:2.9710398 88:0.70319754 90:1.7327665 92:0.55898875 93:1.3355236 94:1.3813068 95:1.9139271 98:3.6742265 102:1.9932638 112:1.5476302 116:5.2983174 119:2.65926 132:2.7725887 141:4.1290321 149:1.6148474 150:6.6218247 152:3.2188759 167:4.0400672 168:2.6241686 173:1.1833535 179:0.79850769 183:1.0078579 193:4.8722329 194:2.4361165 196:4.2135997 198:1.3294936 200:1.3664917 202:1.4167535 204:2.3133261 206:0.82346946 209:2.9469421 210:1.1472775 212:1.2819344 216:5.7119408 220:2.8344641 222:3.6966596 230:1.1631508 233:3.7526691 241:2.1284218 242:0.6782586 249:1.856298 261:3.4657359 262:4.5557852 266:2.5102243 277:2.6241686 284:2.8646767 290:1.6347557 293:1.7010051 321:3.1573324 329:7.9573379 331:1.5198257 364:1.1631508 365:3.9120231 374:3.0470257 381:3.7922301 384:5.1149545 388:5.9914646 403:2.1520123 429:4.2423768 443:9.141077 444:2.9469421 445:2.7527862 450:3.02105 455:2.65926 466:2.1502798 469:2.0996442 470:3.5935693 472:2.4799192 479:4.8722329 482:1.6541739 489:6.5668287 508:5.1474757 514:6.0421 516:1.8247993 520:3.2506244 532:3.1582513 535:3.2834144 549:2.2901626 552:4.8928523 591:5.354557 599:4.0804415 648:2.0306513 687:3.7125959 689:1.7942626 705:4.8928523 710:3.3524072 712:2.7725887 718:3.6888795 774:4.4873872 800:2.9234116 827:3.6966596 837:3.6188288 852:2.9957323 884:2.8134108 926:5.0751739 934:2.5257287 941:4.3820267 985:3.6400893 1163:4.2867165 1169:5.1474757 1179:4.8928523 1209:3.02105 1228:3.7401729 1266:3.1292636 1305:3.5065579 1316:4.0455542 1353:2.8779492 1435:4.4873872 1477:3.0470257 1480:4.1389823 1486:3.1292636 1508:6.3165026 1512:3.6888795 1513:2.9234116 1548:4.2867165 1556:3.4265151 1558:4.1997051 1585:4.4873872 1678:5.2983174 1693:4.8928523 1725:5.4286394 1752:3.2506244 1768:4.8928523 1860:2.8779492 1870:3.5935693 1908:7.1871386 1942:4.0455542 2019:14.216105 2054:3.1881042 2097:4.1196623 2177:4.7387013 2204:8.2393246 2209:4.3820267 2282:4.1997051 2388:2.9004221 2531:5.0751739 2557:4.3820267 2816:3.3887749 2901:5.2983174 3259:5.5859995 3525:5.9914646 3567:10.596635 4063:4.8928523 4229:5.0751739 4564:5.5859995 4733:5.9914646 4945:5.5859995 4963:5.5859995 5001:6.6846118 5002:5.5859995 5003:6.6846118 5004:6.6846118 5005:6.6846118 5006:6.6846118 5007:13.369224 5008:6.6846118 5009:6.6846118 5010:6.6846118 5011:5.9914646 5012:6.6846118 5013:6.6846118 5014:6.6846118 5015:6.6846118 5016:6.6846118 #
-1.9587201364472592426740557569609e-05 3:1.2693602 5:2.3974321 10:0.22850116 11:2.1347208 12:1.3148571 13:1.3123814 17:0.87313771 18:1.640654 22:0.24606413 24:2.4472101 25:0.28140941 29:5.4457974 36:1.469676 43:0.809681 46:3.2064147 49:2.7129822 59:4.5084844 69:9.5221863 70:2.5737379 71:1.0498221 73:1.1372876 83:2.9710398 87:8.258358 93:1.836345 94:1.3813068 96:1.0899004 98:2.7556698 106:1.1551826 112:3.0952604 120:1.8094144 121:2.2072749 132:4.1588831 140:6.3607907 149:3.2296948 151:8.403327 152:3.2188759 162:4.0613027 167:2.0200336 168:2.6241686 170:3.8620431 179:2.3955231 183:6.0471478 188:1.508462 193:2.4361165 196:1.0533999 198:2.4374049 201:2.3538785 202:2.8335071 204:4.6266522 206:1.6469389 210:1.1472775 212:1.2819344 219:2.6415606 222:1.8483298 230:1.1631508 233:3.7526691 236:10.279546 238:0.93521875 241:1.0642109 251:4.1196623 264:4.9042673 265:5.2491107 267:3.2567317 293:1.7010051 295:2.0794415 297:1.554713 331:1.5198257 335:6.2084737 339:4.7387013 344:3.2834144 358:3.1010928 359:8.1995306 362:1.7646308 363:7.6557083 381:3.7922301 386:1.8170773 413:3.4657359 420:3.5935693 424:1.5313201 427:1.9661129 449:5.3912554 459:3.9120231 460:1.9750816 466:3.2254198 470:3.5935693 472:2.4799192 475:2.4219317 510:3.5065579 525:5.5451775 528:3.6888795 538:5.2141485 591:5.354557 600:2.2657712 607:2.4505053 609:4.1997051 632:3.6400893 644:2.7927914 661:3.7776423 689:3.5885253 691:4.3820267 696:2.7143197 701:3.1881042 703:8.2393246 728:2.4505053 729:4.8928523 734:14.216105 744:2.9710398 765:5.9914646 803:2.9004221 825:4.6051702 859:6.5012488 888:3.2188759 920:4.1997051 1006:5.354557 1075:3.2188759 1189:3.3887749 1190:4.2867165 1256:5.5859995 1257:3.8513985 1271:3.3887749 1305:3.5065579 1337:5.0751739 1395:3.8513985 1402:5.0751739 1418:7.2801785 1421:9.4774027 1453:8.5734329 1468:4.8928523 1473:3.8513985 1480:4.1389823 1540:8.9747744 1554:4.1997051 1860:2.8779492 1919:4.1196623 1960:4.1196623 2105:5.5859995 2148:5.0751739 2248:11.38272 2291:5.9914646 2296:4.4873872 2377:3.6888795 2505:5.9914646 2540:5.0751739 2561:5.9914646 2763:5.0751739 2805:5.9914646 2818:4.7387013 2868:3.7401729 2913:3.3524072 2949:5.9914646 3086:5.9914646 3130:5.2983174 3131:5.2983174 3231:4.8928523 3287:5.9914646 3295:5.9914646 3308:5.5859995 3328:5.5859995 3338:5.2983174 3381:5.9914646 3458:15.225521 3522:21.039347 3538:4.1196623 3707:5.9914646 3872:5.5859995 3922:4.8928523 3942:10.596635 4194:5.5859995 4199:11.171999 4233:16.757998 4258:3.8513985 4270:5.9914646 4360:5.9914646 4628:5.9914646 4954:4.8928523 5228:5.9914646 5381:5.9914646 5511:6.6846118 5512:20.053835 5513:6.6846118 5514:6.6846118 5515:13.369224 5516:6.6846118 5517:20.053835 5518:6.6846118 5519:13.369224 5520:6.6846118 5521:6.6846118 5522:6.6846118 5523:6.6846118 5524:6.6846118 5525:6.6846118 5526:6.6846118 5527:6.6846118 5528:6.6846118 5529:6.6846118 5530:6.6846118 5531:13.369224 5532:6.6846118 5533:6.6846118 5534:6.6846118 5535:6.6846118 5536:6.6846118 5537:6.6846118 5538:6.6846118 5539:6.6846118 5540:6.6846118 5541:6.6846118 5542:6.6846118 5543:6.6846118 5544:6.6846118 5545:6.6846118 #
0.00082544894022266318295982800989918 1:1.4063951 2:0.57092953 5:0.34249032 7:2.0694911 10:0.096673563 11:1.2808324 12:0.75134695 13:0.16404767 17:0.43656886 22:0.094640046 24:0.23306763 25:0.070352353 34:1.7731259 49:0.90432739 59:1.5028281 61:2.0894918 73:0.11372876 88:0.70319754 93:1.0016427 95:3.8278542 98:0.30618554 107:1.2640767 149:0.53828245 150:2.2072749 167:2.0200336 188:1.508462 198:0.66474682 199:1.018185 200:1.3664917 204:0.77110875 206:0.41173473 228:1.9841313 233:1.2508898 241:1.0642109 242:0.6782586 249:1.856298 278:0.95451194 279:1.5028281 290:1.6347557 301:3.8513985 331:1.5198257 377:3.4265151 391:2.8344641 403:2.1520123 466:1.0751399 516:1.8247993 538:2.6070743 586:3.2188759 604:3.2834144 662:3.4657359 712:5.5451775 716:2.3538785 740:3.1010928 759:2.5737379 888:3.2188759 934:5.0514574 946:2.0894918 947:2.6772785 959:4.0455542 1381:4.0455542 1463:3.4657359 1483:3.9120231 1513:2.9234116 1623:5.5859995 2589:4.4873872 2816:3.3887749 2829:4.7387013 2862:5.5859995 2863:5.5859995 2864:5.9914646 2865:5.2983174 2866:5.9914646 2867:6.6846118 #
-0.0004497812264336544961149111365728 1:4.2191849 2:1.1418591 3:1.2693602 5:1.0274709 10:0.087885059 12:0.18783674 13:0.49214301 17:0.43656886 22:0.094640046 24:0.81573671 25:0.060302015 29:2.7228987 34:0.59104198 36:1.469676 43:0.809681 47:4.1196623 49:0.4521637 50:1.7646308 71:1.0498221 73:0.56864381 88:0.70319754 90:1.1551777 92:0.74531829 93:0.3338809 94:1.3813068 98:0.91855663 99:1.7429693 119:5.3185201 121:2.2072749 142:2.6956277 179:1.5970154 183:2.0157158 188:1.508462 193:2.4361165 196:1.0533999 197:4.0455542 198:1.1079113 199:1.018185 201:2.3538785 204:0.77110875 206:1.2352042 210:1.1472775 222:1.8483298 230:3.4894524 233:2.5017796 236:3.4265151 238:3.740875 252:2.5102243 265:1.0498221 266:2.5102243 268:1.3518929 270:3.5491176 278:1.9090239 326:5.0751739 329:0.79573375 359:6.1496482 375:1.7287847 381:5.0563068 382:1.7010051 386:1.8170773 397:2.4651041 414:3.6888795 422:2.65926 427:1.9661129 429:5.3029709 451:3.4657359 457:3.6400893 458:3.1292636 466:2.1502798 469:4.1992884 482:1.6541739 506:2.1307349 539:2.3025851 545:2.3671236 549:2.2901626 556:4.4873872 585:1.7501378 599:2.0402207 648:2.0306513 654:2.6415606 663:4.8928523 681:10.150348 687:1.856298 689:1.7942626 696:2.7143197 708:3.0736938 710:6.7048144 733:2.059639 740:3.1010928 764:7.1871386 778:3.6400893 799:2.1737523 800:2.9234116 801:3.6888795 846:3.8513985 854:2.8779492 856:2.2778926 933:4.7387013 934:2.5257287 944:4.8928523 977:3.5491176 987:3.5491176 998:3.1582513 1003:2.6415606 1150:4.7387013 1170:3.4657359 1235:6.7775497 1268:2.3671236 1305:3.5065579 1341:4.6051702 1353:5.7558985 1480:6.2084737 1533:3.1582513 1536:2.8134108 1825:2.9469421 1962:3.5491176 2141:3.5935693 2727:3.8513985 2816:10.166325 2861:5.2983174 3231:9.7857046 3245:5.2983174 3514:5.2983174 3786:5.5859995 4124:5.0751739 4398:5.0751739 4991:6.6846118 4992:10.596635 4993:6.6846118 4994:6.6846118 4995:6.6846118 4996:6.6846118 #
0.0011332319141326109221412643535132 2:0.57092953 3:1.2693602 10:0.061519541 11:0.42694414 12:1.5026939 13:0.32809535 15:1.89712 17:0.87313771 18:1.0937693 22:0.094640046 24:0.34960145 25:0.070352353 34:2.3641679 36:2.939352 43:1.619362 44:2.1947262 59:1.5028281 71:1.0498221 73:0.22745752 88:2.1095924 90:0.57758886 92:0.37265915 93:1.0016427 96:2.1798007 98:0.91855663 107:1.2640767 112:0.7738151 115:3.5491176 126:2.5737379 127:2.2302644 149:0.53828245 167:0.67334455 173:1.1833535 176:3.79424 179:0.79850769 188:3.0169239 196:1.0533999 198:2.2158227 200:2.7329834 206:0.82346946 212:1.2819344 221:2.7927914 231:3.0470257 242:0.6782586 249:1.856298 265:2.0996442 268:1.3518929 290:1.6347557 293:1.7010051 302:3.2823732 331:4.5594773 335:4.1389823 359:2.0498827 386:1.8170773 423:1.89712 435:3.8448756 449:2.6956277 460:1.9750816 468:2.2302644 479:2.4361165 498:3.0736938 508:2.5737379 532:3.1582513 547:3.7401729 578:4.1588831 604:3.2834144 629:3.3524072 676:10.057221 704:3.7401729 860:1.5970154 864:3.7401729 901:1.9224378 962:2.5737379 1045:3.6888795 1085:3.5065579 1160:2.9004221 1189:3.3887749 1307:3.4657359 1348:3.2506244 1477:3.0470257 1480:2.0694911 1495:3.1292636 1573:4.0455542 1646:3.2506244 1656:3.02105 1855:7.2801785 1926:6.6346316 1928:3.1582513 1932:6.6846118 1933:6.6846118 1934:6.6846118 1935:4.2867165 1936:3.79424 1937:6.6846118 1938:6.6846118 1939:6.6846118 1940:4.1997051 1941:3.9120231 1942:4.0455542 1943:5.0751739 #
0.0011332319141326109221412643535132 2:0.57092953 3:0.8462401 5:0.68498063 7:2.0694911 10:0.052731037 12:0.75134695 13:0.16404767 15:1.89712 22:0.07571204 24:0.11653382 25:0.090453021 34:0.59104198 35:1.2909842 43:0.809681 70:2.5737379 73:0.45491505 88:0.70319754 90:0.57758886 93:0.16694045 96:1.0899004 98:0.61237109 112:0.7738151 121:4.4145498 136:3.6888795 149:0.53828245 162:2.0306513 164:2.65926 170:1.9310216 189:2.0694911 196:1.0533999 198:0.88632905 210:1.1472775 242:1.3565172 264:1.6347557 278:0.95451194 290:1.6347557 293:1.7010051 335:2.0694911 355:4.0455542 364:2.3263016 466:1.0751399 573:2.7333679 666:3.3887749 687:1.856298 689:1.7942626 716:2.3538785 827:1.8483298 847:4.4873872 917:3.0470257 928:3.6400893 1088:3.5065579 1433:2.9710398 1480:2.0694911 1726:2.6956277 1740:4.6051702 1860:2.8779492 1911:3.1582513 2502:3.3173158 2516:3.9765615 2517:3.9765615 2606:6.6846118 2607:6.6846118 2608:6.6846118 2609:5.0751739 2610:4.6051702 2611:6.6846118 2612:5.5859995 #
0.00063768432490980361294907741154248 1:1.4063951 3:0.42312005 5:0.34249032 6:2.9957323 10:0.10546207 11:0.85388827 13:0.90226221 17:0.87313771 18:2.1875386 22:0.11356806 24:0.11653382 25:0.090453021 35:1.2909842 49:3.1651459 73:0.56864381 82:2.4361165 88:2.8127902 90:1.7327665 92:0.55898875 93:0.6677618 94:1.3813068 96:2.1798007 98:2.4494843 106:3.465548 120:1.8094144 141:1.3763441 163:3.0736938 183:1.0078579 186:2.2302644 196:2.1067998 204:1.5422175 206:0.41173473 212:1.2819344 230:2.3263016 238:2.8056562 241:2.1284218 243:3.0736938 249:3.7125959 264:1.6347557 265:4.1992884 267:1.6283659 279:3.0056562 284:2.8646767 295:2.0794415 297:3.109426 302:1.6411866 317:2.9957323 331:1.5198257 332:3.2506244 364:2.3263016 403:2.1520123 423:3.79424 449:2.6956277 469:2.0996442 482:1.6541739 484:2.6070743 507:2.4799192 544:3.79424 625:2.2302644 648:2.0306513 668:4.1997051 684:5.2289081 740:3.1010928 747:3.79424 768:2.8779492 775:2.1848021 823:2.6956277 824:3.3887749 827:1.8483298 837:1.8094144 855:4.7387013 884:2.8134108 888:3.2188759 996:3.5065579 1076:3.6400893 1081:4.8928523 1187:4.6051702 1258:4.1997051 1314:4.2867165 1353:5.7558985 1372:3.79424 1411:2.6956277 1422:3.9765615 1488:4.7387013 1492:5.5859995 1499:3.6888795 1516:3.9120231 1716:4.2867165 1941:3.9120231 1966:4.4873872 2064:3.4657359 2582:5.5859995 2587:4.4873872 2678:3.8513985 2724:3.7401729 2953:5.9914646 3087:5.5859995 3100:4.7387013 3479:4.8928523 3759:3.4265151 3769:6.6846118 3770:5.9914646 3771:4.3820267 3772:5.9914646 3773:5.0751739 3774:6.6846118 3775:6.6846118 3776:20.053835 3777:5.5859995 3778:5.5859995 3779:6.6846118 3780:6.6846118 3781:6.6846118 3782:5.9914646 3783:5.2983174 3784:6.6846118 3785:5.9914646 3786:5.5859995 #
0.0011332319141326109221412643535132 3:0.42312005 8:2.5574772 10:0.035154022 12:0.18783674 18:0.54688466 22:0.03785602 24:0.58266908 25:0.050251678 34:0.59104198 43:0.809681 71:1.0498221 73:0.45491505 93:0.16694045 98:0.30618554 149:0.53828245 167:1.3466891 173:1.1833535 191:2.3671236 198:0.66474682 217:2.541477 242:0.6782586 268:1.3518929 278:0.95451194 283:1.707878 329:0.79573375 331:1.5198257 405:3.5491176 435:1.9224378 455:2.65926 473:2.2302644 578:2.0794415 810:4.2867165 933:4.7387013 950:4.1196623 1120:4.7387013 1560:3.9765615 1698:5.0751739 1911:3.1582513 1993:4.4873872 2502:6.6346316 2574:6.6846118 2575:4.6051702 #
0.0011332319141326109221412643535132 1:2.1095924 2:0.57092953 3:0.42312005 4:2.6415606 7:2.0694911 10:0.04394253 12:0.37567347 13:0.16404767 15:1.89712 22:0.03785602 25:0.080402687 41:1.9054883 43:0.809681 44:1.0973631 49:1.3564911 50:1.7646308 58:2.9004221 59:1.5028281 73:0.56864381 88:0.70319754 90:1.1551777 92:0.55898875 93:0.16694045 95:1.9139271 96:1.0899004 98:1.2247422 102:1.9932638 112:0.7738151 113:4.3820267 121:2.2072749 143:4.6051702 149:1.0765649 167:1.3466891 198:0.44316453 199:1.018185 204:0.77110875 206:0.82346946 217:2.541477 249:1.856298 264:1.6347557 265:2.0996442 267:1.6283659 275:3.1292636 291:1.3518929 293:1.7010051 313:3.2506244 364:1.1631508 397:2.4651041 479:2.4361165 492:3.6400893 501:2.6415606 545:2.3671236 606:2.2187035 607:2.4505053 609:4.1997051 611:1.469676 622:3.2188759 656:2.4799192 666:3.3887749 716:2.3538785 733:2.059639 803:2.9004221 806:3.8513985 860:1.5970154 1099:3.4657359 1268:2.3671236 1339:4.1196623 1374:3.6888795 1460:4.7387013 1485:2.8344641 1573:4.0455542 1725:2.7143197 2789:2.494957 3548:4.8928523 4072:3.4657359 4092:6.6846118 4093:6.6846118 4094:5.5859995 #
-0.0011332319141326109221412643535132 1:1.4063951 3:0.42312005 5:0.34249032 10:0.070308045 11:0.85388827 12:0.56351024 13:0.65619069 17:0.43656886 18:1.0937693 22:0.17035209 24:0.81573671 25:0.12060403 44:1.0973631 49:0.90432739 59:3.0056562 71:1.0498221 73:0.90983009 81:3.1010928 84:1.89712 88:1.4063951 89:3.5292616 92:0.18632957 93:0.3338809 94:1.3813068 95:1.9139271 96:1.0899004 98:1.2247422 102:1.9932638 112:1.5476302 127:2.2302644 148:1.9932638 149:0.53828245 166:2.8344641 167:1.3466891 173:1.1833535 174:3.5292616 198:0.22158226 204:0.77110875 206:0.82346946 209:2.9469421 210:1.1472775 212:1.2819344 224:1.7793369 233:1.2508898 238:1.8704375 241:2.1284218 265:1.0498221 278:0.95451194 284:1.4323384 329:0.79573375 335:2.0694911 337:1.8888211 356:2.5737379 382:3.4020102 422:2.65926 425:6.6346316 427:1.9661129 449:2.6956277 479:2.4361165 482:1.6541739 501:2.6415606 509:5.5859995 510:3.5065579 516:1.8247993 573:2.7333679 584:2.7725887 589:2.65926 606:2.2187035 607:2.4505053 608:3.6888795 621:4.8928523 645:2.7527862 708:3.0736938 713:4.7387013 714:5.9914646 721:2.3538785 724:2.5737379 818:2.3941524 827:3.6966596 852:2.9957323 901:1.9224378 934:2.5257287 946:4.1789837 998:3.1582513 1003:2.6415606 1024:4.2867165 1123:2.6415606 1169:2.5737379 1247:4.6051702 1268:2.3671236 1269:2.9234116 1299:3.3524072 1307:3.4657359 1563:3.6888795 1653:3.2188759 1761:4.4873872 1926:3.3173158 1971:3.2834144 1990:5.0751739 2054:3.1881042 2156:5.9914646 2240:4.7387013 2248:3.79424 2262:5.2983174 2365:5.5859995 2366:5.0751739 2392:5.2983174 2404:4.8928523 2506:5.0751739 2547:5.9914646 3121:4.7387013 3742:5.5859995 4494:5.5859995 5025:6.6846118 5026:6.6846118 #
-0.0011332319141326109221412643535132 5:0.34249032 10:0.035154022 11:0.42694414 12:0.75134695 13:0.2460715 18:0.54688466 19:2.3805466 22:0.03785602 24:0.34960145 25:0.070352353 26:2.6956277 34:0.59104198 35:1.2909842 49:0.4521637 59:1.5028281 71:1.0498221 73:0.34118629 88:0.70319754 92:0.18632957 93:0.3338809 98:0.30618554 149:0.53828245 151:1.6806654 167:0.67334455 173:1.1833535 183:1.0078579 189:2.0694911 198:1.1079113 204:1.5422175 210:1.1472775 212:1.2819344 222:1.8483298 230:2.3263016 234:3.3524072 238:0.93521875 242:0.6782586 256:1.7867719 264:1.6347557 268:1.3518929 290:1.6347557 329:2.3872013 331:1.5198257 358:3.1010928 383:2.9957323 424:1.5313201 435:1.9224378 514:3.02105 535:3.2834144 578:2.0794415 655:2.7927914 685:3.5491176 714:2.9957323 823:2.6956277 841:2.3408062 846:3.8513985 873:2.9710398 965:5.0751739 1078:3.5065579 1088:3.5065579 1273:3.7401729 1461:4.1997051 1499:3.6888795 1653:3.2188759 1752:3.2506244 1942:4.0455542 1952:5.9914646 2253:4.3820267 2271:4.8928523 2552:4.7387013 2565:3.9120231 3436:5.5859995 4813:6.6846118 4814:6.6846118 4815:6.6846118 4816:6.6846118 4817:6.6846118 #
-0.0011332319141326109221412643535132 1:0.70319754 3:0.8462401 8:2.5574772 10:0.052731037 11:0.85388827 12:0.75134695 13:0.16404767 17:0.87313771 18:0.54688466 21:2.0894918 22:0.094640046 24:0.34960145 25:0.10050336 34:0.59104198 36:1.469676 43:0.809681 44:2.1947262 50:1.7646308 51:1.8724273 73:0.34118629 88:1.4063951 92:0.55898875 93:0.6677618 98:0.30618554 107:1.2640767 108:2.9957323 121:2.2072749 149:0.53828245 167:1.3466891 196:1.0533999 198:0.66474682 200:1.3664917 206:0.82346946 207:3.1582513 210:1.1472775 233:1.2508898 267:1.6283659 277:2.6241686 283:3.415756 321:1.5786662 356:2.5737379 364:1.1631508 398:2.6956277 427:1.9661129 482:1.6541739 488:4.1997051 548:3.5065579 591:2.6772785 638:3.1010928 648:2.0306513 696:2.7143197 759:2.5737379 799:2.1737523 1169:7.7212138 1228:3.7401729 1328:4.4873872 1681:4.8928523 1715:6.7048144 1726:2.6956277 1753:4.8928523 1825:2.9469421 1926:3.3173158 2954:4.7387013 4408:4.4873872 5430:6.6846118 #
-0.00047636096084475477996367231980912 2:0.57092953 3:0.42312005 10:0.035154022 12:0.75134695 13:0.32809535 17:0.87313771 18:0.54688466 22:0.094640046 24:0.23306763 25:0.050251678 29:0.68072468 40:3.6888795 41:1.9054883 43:0.809681 64:1.9139271 73:0.34118629 90:0.57758886 92:0.18632957 93:0.83470225 149:2.6914124 151:5.0419965 167:0.67334455 169:2.0794415 177:2.3151639 189:4.1389823 198:1.3294936 199:1.018185 202:1.4167535 206:0.82346946 230:1.1631508 238:1.8704375 241:3.1926327 242:0.6782586 247:2.6070743 250:2.5102243 264:1.6347557 265:1.0498221 278:0.95451194 297:1.554713 302:1.6411866 329:0.79573375 331:1.5198257 381:1.2640767 424:1.5313201 453:2.0402207 466:2.1502798 511:3.3887749 527:2.9957323 549:2.2901626 573:2.7333679 654:2.6415606 655:2.7927914 661:1.8888211 733:4.119278 747:3.79424 837:1.8094144 841:2.3408062 881:4.1196623 1055:3.4265151 1086:5.0751739 1348:3.2506244 1395:3.8513985 1573:4.0455542 1603:4.8928523 1666:5.2983174 1672:5.0751739 1825:2.9469421 1830:3.2188759 2224:5.5859995 2373:5.9914646 3205:5.0751739 4745:5.0751739 5363:6.6846118 5364:6.6846118 #
-0.0011332319141326109221412643535132 2:1.1418591 3:0.42312005 5:0.34249032 10:0.052731037 11:0.42694414 12:1.3148571 13:0.16404767 17:0.87313771 22:0.07571204 24:0.11653382 25:0.080402687 34:1.182084 35:1.2909842 39:2.7725887 43:0.809681 44:1.0973631 88:1.4063951 92:0.18632957 93:0.3338809 96:1.0899004 107:1.2640767 149:0.53828245 167:1.3466891 170:1.9310216 173:1.1833535 192:1.6157075 193:2.4361165 198:0.88632905 230:1.1631508 331:1.5198257 338:4.7387013 364:2.3263016 435:1.9224378 506:2.1307349 578:2.0794415 676:3.3524072 702:2.8779492 793:3.1292636 1099:3.4657359 1563:3.6888795 1609:3.5065579 1637:4.8928523 2952:5.9914646 4507:5.9914646 4508:6.6846118 4509:6.6846118 #
0.00069664289438741853945774584744299 1:3.5159876 3:0.42312005 10:0.087885059 11:0.85388827 12:0.18783674 13:0.2460715 17:0.87313771 22:0.01892801 24:0.58266908 25:0.050251678 35:1.2909842 36:1.469676 39:5.5451775 46:4.8096223 49:1.3564911 72:2.2187035 73:0.56864381 90:0.57758886 91:3.9765615 92:0.55898875 93:0.6677618 98:0.30618554 99:5.2289081 106:1.1551826 112:0.7738151 121:2.2072749 136:3.6888795 143:4.6051702 167:0.67334455 169:6.2383246 171:3.8513985 172:3.4657359 188:1.508462 196:1.0533999 199:1.018185 224:1.7793369 230:2.3263016 233:1.2508898 238:0.93521875 265:1.0498221 297:1.554713 302:1.6411866 329:0.79573375 336:2.8779492 337:1.8888211 339:4.7387013 351:2.5574772 384:2.5574772 391:2.8344641 424:1.5313201 429:1.0605942 449:2.6956277 466:4.3005595 514:3.02105 545:2.3671236 560:2.0894918 599:2.0402207 709:4.1997051 818:2.3941524 851:4.6051702 863:4.1196623 881:4.1196623 889:2.8559704 941:4.3820267 1042:4.3820267 1139:3.4265151 1196:5.2983174 1273:3.7401729 1348:3.2506244 1422:3.9765615 1485:2.8344641 1497:4.1997051 1498:4.1196623 1556:3.4265151 1653:3.2188759 1724:3.1881042 1894:3.9120231 2590:4.6051702 2868:3.7401729 3219:5.0751739 3659:5.2983174 4070:5.0751739 4127:6.6846118 #
0.00023685480132424609981539598280165 1:4.2191849 2:0.57092953 3:1.2693602 6:2.9957323 7:2.0694911 10:0.13182759 11:2.9886091 12:0.75134695 13:0.32809535 15:1.89712 17:0.43656886 18:1.640654 21:2.0894918 22:0.20820811 24:0.23306763 25:0.15075503 29:4.0843482 34:0.59104198 35:1.2909842 36:1.469676 43:1.619362 49:1.3564911 50:1.7646308 51:1.8724273 70:2.5737379 72:2.2187035 73:0.22745752 82:4.8722329 90:0.57758886 92:0.37265915 93:0.6677618 98:0.30618554 106:2.3103652 107:1.2640767 109:3.3887749 119:2.65926 132:4.1588831 135:4.3820267 141:1.3763441 149:0.53828245 164:5.3185201 167:0.67334455 173:1.1833535 179:1.5970154 192:1.6157075 198:0.22158226 206:0.82346946 210:1.1472775 224:3.5586739 230:2.3263016 236:3.4265151 238:0.93521875 241:4.2568436 242:0.6782586 250:2.5102243 256:1.7867719 258:2.1737523 277:2.6241686 278:0.95451194 284:1.4323384 295:2.0794415 298:3.3887749 302:1.6411866 331:1.5198257 337:1.8888211 364:1.1631508 383:2.9957323 412:4.2867165 423:1.89712 425:3.3173158 428:3.4265151 429:2.1211884 462:3.9120231 466:3.2254198 473:2.2302644 484:2.6070743 501:2.6415606 506:2.1307349 539:2.3025851 561:2.65926 583:2.5102243 585:1.7501378 591:2.6772785 627:4.6051702 636:3.6400893 644:2.7927914 645:2.7527862 654:2.6415606 656:2.4799192 684:1.7429693 708:3.0736938 724:2.5737379 731:3.9765615 740:3.1010928 817:3.9765615 824:6.7775497 837:1.8094144 856:2.2778926 867:4.6051702 981:3.5491176 985:3.6400893 1017:3.9765615 1075:3.2188759 1111:3.4657359 1119:3.5065579 1144:3.4657359 1170:3.4657359 1268:2.3671236 1271:3.3887749 1293:5.2983174 1463:3.4657359 1559:5.2983174 1604:5.9914646 1609:7.0131159 1662:3.9120231 1812:5.2983174 1813:6.6846118 1814:5.0751739 1815:5.9914646 1816:6.6846118 1817:6.6846118 1818:5.0751739 1819:6.6846118 1820:4.2867165 1821:6.6846118 1822:5.2983174 1823:4.7387013 1824:6.6846118 1825:2.9469421 1826:5.9914646 1827:4.8928523 1828:4.1997051 1829:4.1196623 1830:3.2188759 1831:6.6846118 1832:6.6846118 #
7.8726290880105407698867636678841e-05 1:7.0319753 2:0.57092953 3:0.42312005 4:2.6415606 5:2.0549419 7:2.0694911 10:0.13182759 11:1.7077765 12:1.3148571 13:0.49214301 15:1.89712 17:0.43656886 18:1.0937693 19:2.3805466 22:0.18928009 25:0.21105705 29:0.68072468 34:0.59104198 36:7.3483796 43:0.809681 44:1.0973631 46:1.6032073 49:0.90432739 59:1.5028281 61:2.0894918 73:0.79610133 90:2.3103554 92:1.3043071 93:0.6677618 98:0.91855663 99:6.9718771 106:1.1551826 107:1.2640767 111:2.3538785 112:0.7738151 120:1.8094144 132:1.3862944 149:0.53828245 166:8.5033922 167:3.3667228 169:2.0794415 174:5.2938924 179:1.5970154 183:1.0078579 186:2.2302644 188:1.508462 192:1.6157075 194:2.4361165 198:0.44316453 199:2.03637 204:1.5422175 206:0.41173473 212:2.5638688 216:2.8559704 217:2.541477 223:3.3887749 230:2.3263016 238:0.93521875 242:1.3565172 253:3.5491176 264:3.2695115 270:3.5491176 278:0.95451194 290:1.6347557 291:1.3518929 302:3.2823732 321:1.5786662 351:7.6724319 356:5.1474757 359:4.0997653 364:1.1631508 374:6.0940514 400:3.8513985 424:1.5313201 429:3.1817827 453:2.0402207 454:4.4873872 468:4.4605289 470:3.5935693 475:2.4219317 485:3.3887749 506:2.1307349 510:7.0131159 511:3.3887749 516:3.6495986 520:3.2506244 525:2.7725887 528:3.6888795 532:3.1582513 535:3.2834144 594:3.7401729 599:2.0402207 611:1.469676 645:2.7527862 656:2.4799192 661:1.8888211 680:3.4657359 689:1.7942626 696:2.7143197 721:4.707757 728:2.4505053 766:3.0736938 827:1.8483298 950:4.1196623 997:4.1997051 1037:3.5491176 1094:4.1997051 1187:4.6051702 1188:3.2188759 1399:3.79424 1421:4.7387013 1433:2.9710398 1445:4.7387013 1447:2.7725887 1453:4.2867165 1483:3.9120231 1499:3.6888795 1516:7.8240461 1556:3.4265151 1682:4.3820267 1694:3.8513985 1720:3.9765615 1847:5.0751739 1996:5.2983174 2185:4.6051702 2340:4.6051702 2397:4.4873872 2497:4.0455542 2542:5.2983174 2575:4.6051702 2604:5.0751739 2616:3.9765615 2621:4.4873872 2678:3.8513985 2914:4.0455542 3087:5.5859995 3150:5.2983174 3159:5.9914646 3590:5.5859995 3786:5.5859995 3810:5.2983174 3947:5.5859995 4082:6.6846118 4083:6.6846118 4084:6.6846118 4085:6.6846118 4086:6.6846118 4087:5.0751739 4088:6.6846118 4089:5.5859995 4090:4.4873872 4091:6.6846118 #
0.00056857344120927024236356039921247 3:0.8462401 4:2.6415606 5:0.34249032 10:0.061519541 11:0.85388827 13:0.49214301 15:1.89712 17:0.43656886 18:1.0937693 22:0.05678403 23:3.4265151 24:0.58266908 25:0.090453021 27:4.6051702 29:6.8072467 35:1.2909842 59:1.5028281 70:2.5737379 71:1.0498221 73:0.34118629 92:0.18632957 93:0.6677618 98:0.61237109 132:2.7725887 149:0.53828245 162:2.0306513 170:3.8620431 173:1.1833535 183:1.0078579 198:1.3294936 204:0.77110875 208:3.6888795 210:2.2945549 219:2.6415606 230:3.4894524 242:0.6782586 249:1.856298 265:1.0498221 278:0.95451194 295:2.0794415 300:3.6888795 301:3.8513985 346:3.9120231 356:2.5737379 359:4.0997653 381:5.0563068 382:1.7010051 424:3.0626402 466:1.0751399 472:2.4799192 525:2.7725887 561:2.65926 604:3.2834144 644:2.7927914 661:1.8888211 685:3.5491176 689:1.7942626 715:3.2834144 721:2.3538785 800:2.9234116 837:1.8094144 844:3.4657359 1001:3.3887749 1075:6.4377518 1076:3.6400893 1257:3.8513985 1284:3.6400893 1305:3.5065579 1365:3.5065579 1381:4.0455542 1383:4.2867165 1453:4.2867165 1523:4.2867165 1812:5.2983174 1833:3.6400893 2121:4.2867165 2248:3.79424 2525:4.4873872 2589:4.4873872 3231:4.8928523 3329:4.1997051 3683:4.8928523 3759:6.8530302 3771:4.3820267 3858:5.9914646 3859:5.5859995 3860:5.9914646 3861:6.6846118 3862:6.6846118 3863:5.9914646 3864:11.982929 3865:5.9914646 3866:5.5859995 3867:6.6846118 3868:6.6846118 #
0.0011332319141326109221412643535132 1:1.4063951 4:2.6415606 5:0.68498063 10:0.079096556 11:1.2808324 13:0.16404767 17:0.43656886 18:0.54688466 22:0.07571204 24:0.58266908 25:0.070352353 29:1.3614494 46:1.6032073 49:0.4521637 69:2.3805466 73:0.34118629 81:3.1010928 88:0.70319754 90:1.1551777 92:0.18632957 93:0.16694045 96:1.0899004 98:0.91855663 112:0.7738151 120:1.8094144 132:2.7725887 138:2.2072749 142:2.6956277 153:2.1099007 162:2.0306513 167:0.67334455 170:1.9310216 174:1.7646308 190:2.9004221 198:0.22158226 199:1.018185 201:2.3538785 206:0.82346946 210:3.4418323 224:3.5586739 238:0.93521875 241:2.1284218 265:1.0498221 267:1.6283659 278:0.95451194 279:1.5028281 344:3.2834144 359:2.0498827 374:3.0470257 375:1.7287847 382:1.7010051 386:1.8170773 397:2.4651041 416:4.3820267 423:3.79424 424:1.5313201 463:2.9957323 466:1.0751399 586:6.4377518 588:2.8344641 600:2.2657712 606:2.2187035 607:2.4505053 687:1.856298 714:2.9957323 837:1.8094144 947:2.6772785 949:4.3820267 1001:3.3887749 1006:5.354557 1059:4.7387013 1203:4.4873872 1418:3.6400893 1684:3.9120231 1716:4.2867165 1720:3.9765615 1731:3.3173158 1928:3.1582513 1968:5.5859995 1988:5.0751739 2052:4.0455542 2377:7.377759 2564:6.6846118 2565:7.8240461 2566:6.6846118 2567:6.6846118 2568:5.2983174 2569:6.6846118 2570:5.5859995 2571:5.9914646 2572:13.369224 2573:4.3820267 #
-0.00030985254454356757347621709186569 2:0.57092953 3:2.1156001 10:0.10546207 11:2.1347208 12:0.75134695 13:0.82023835 17:1.7462754 18:1.640654 22:0.18928009 24:2.0976088 25:0.16080537 29:2.0421741 34:0.59104198 35:1.2909842 36:1.469676 43:1.619362 44:1.0973631 71:3.1494663 73:1.1372876 81:3.1010928 90:1.1551777 92:0.9316479 93:1.1685832 98:1.5309278 102:1.9932638 106:2.3103652 109:3.3887749 112:0.7738151 120:1.8094144 132:2.7725887 140:4.2405272 142:2.6956277 149:3.2296948 161:10.780707 167:1.3466891 169:2.0794415 170:5.7930646 179:1.5970154 183:3.0235739 191:2.3671236 194:4.8722329 198:2.6589873 200:1.3664917 205:2.5737379 206:1.6469389 212:3.845803 217:2.541477 221:2.7927914 222:1.8483298 224:1.7793369 227:3.6888795 231:3.0470257 238:1.8704375 252:2.5102243 256:3.5735438 261:3.4657359 267:1.6283659 278:0.95451194 313:3.2506244 321:1.5786662 329:0.79573375 356:5.1474757 358:3.1010928 364:1.1631508 381:1.2640767 384:2.5574772 400:3.8513985 423:1.89712 424:7.6566005 429:2.1211884 450:3.02105 460:1.9750816 466:3.2254198 468:4.4605289 472:2.4799192 507:2.4799192 547:3.7401729 559:3.79424 627:2.3025851 654:2.6415606 685:3.5491176 707:3.0736938 712:2.7725887 715:3.2834144 724:2.5737379 763:2.541477 777:3.2188759 800:2.9234116 811:3.7401729 820:4.0455542 826:4.0455542 837:1.8094144 841:4.6816125 854:2.8779492 856:4.5557852 928:3.6400893 937:3.79424 986:3.6888795 997:4.1997051 1021:4.3820267 1099:3.4657359 1123:2.6415606 1219:5.0751739 1270:8.7640533 1271:3.3887749 1376:4.3820267 1395:3.8513985 1466:4.8928523 1597:3.3173158 1624:5.0751739 1651:3.9765615 1656:3.02105 1724:3.1881042 1725:2.7143197 1908:3.5935693 1962:10.647352 1978:3.5935693 2035:4.2867165 2097:4.1196623 2182:4.7387013 2306:4.3820267 2359:5.0751739 2618:4.4873872 2802:4.6051702 2856:4.6051702 2868:3.7401729 2925:4.8928523 3041:4.8928523 3051:5.5859995 3205:5.0751739 3468:5.0751739 3730:4.8928523 3759:6.8530302 3875:5.5859995 3956:5.0751739 4007:5.9914646 4449:5.9914646 5395:6.6846118 5396:6.6846118 5397:6.6846118 5398:6.6846118 5399:6.6846118 5400:6.6846118 5401:6.6846118 5402:6.6846118 5403:6.6846118 5404:6.6846118 5405:13.369224 5406:6.6846118 5407:6.6846118 5408:6.6846118 5409:6.6846118 5410:6.6846118 5411:6.6846118 5412:6.6846118 5413:6.6846118 5414:6.6846118 #
-0.00085640404836987685157495553411877 3:2.1156001 10:0.070308045 11:0.42694414 12:0.18783674 13:0.2460715 15:3.79424 17:0.43656886 18:0.54688466 22:0.13249607 24:0.23306763 25:0.10050336 29:2.7228987 43:0.809681 44:1.0973631 59:1.5028281 61:2.0894918 73:0.34118629 90:1.7327665 92:1.1179775 93:0.16694045 96:1.0899004 98:0.30618554 120:1.8094144 132:2.7725887 141:1.3763441 149:0.53828245 151:1.6806654 159:4.2867165 179:1.5970154 183:1.0078579 187:9.4774027 198:1.5510759 210:1.1472775 230:1.1631508 233:1.2508898 241:3.1926327 268:1.3518929 278:2.8635359 279:1.5028281 284:1.4323384 290:1.6347557 302:3.2823732 329:3.182935 335:2.0694911 362:1.7646308 386:1.8170773 416:4.3820267 423:1.89712 506:2.1307349 507:2.4799192 508:2.5737379 558:4.7387013 561:5.3185201 600:2.2657712 606:2.2187035 607:2.4505053 625:2.2302644 644:2.7927914 684:3.4859385 721:2.3538785 733:4.119278 837:3.6188288 852:5.9914646 901:1.9224378 1066:5.9914646 1153:2.7927914 1214:3.9120231 1374:3.6888795 1489:4.7387013 1658:5.2983174 2055:3.5935693 2616:3.9765615 4197:5.5859995 4496:5.2983174 4659:6.6846118 4660:13.369224 4661:6.6846118 4662:6.6846118 4663:6.6846118 4664:6.6846118 4665:6.6846118 4666:6.6846118 4667:6.6846118 4668:6.6846118 #
-0.0002741529955103203918670429217741 3:0.8462401 5:1.0274709 10:0.087885059 11:1.2808324 12:0.93918371 13:0.49214301 17:0.43656886 18:0.54688466 22:0.094640046 24:0.6992029 25:0.060302015 37:2.541477 43:1.619362 44:3.2920892 68:2.6241686 73:0.68237257 92:1.4906366 93:0.6677618 95:1.9139271 98:0.91855663 102:1.9932638 104:3.4265151 112:0.7738151 138:2.2072749 149:1.6148474 162:2.0306513 167:0.67334455 170:1.9310216 179:0.79850769 189:2.0694911 198:1.9942404 200:1.3664917 204:0.77110875 206:0.41173473 210:1.1472775 223:3.3887749 230:4.6526031 237:3.5935693 238:3.740875 239:2.9469421 241:2.1284218 249:1.856298 265:1.0498221 268:1.3518929 297:1.554713 321:1.5786662 335:2.0694911 348:2.9710398 362:1.7646308 364:1.1631508 366:5.0751739 368:5.0751739 375:1.7287847 386:1.8170773 422:2.65926 424:4.5939603 429:1.0605942 443:3.0470257 451:3.4657359 466:1.0751399 472:2.4799192 475:2.4219317 507:2.4799192 545:4.7342472 585:1.7501378 598:3.79424 611:1.469676 622:3.2188759 625:2.2302644 645:2.7527862 684:1.7429693 685:3.5491176 687:1.856298 704:3.7401729 721:2.3538785 728:2.4505053 884:2.8134108 889:2.8559704 901:1.9224378 1006:2.6772785 1007:6.9314718 1072:4.6051702 1076:3.6400893 1088:3.5065579 1171:4.1997051 1495:3.1292636 1710:3.1582513 1725:2.7143197 1971:6.5668287 2044:4.6051702 2180:3.2834144 2193:4.1196623 2202:3.4265151 2727:3.8513985 3299:4.8928523 3325:5.5859995 3759:13.70606 4376:5.2983174 4767:5.9914646 5377:6.6846118 5378:6.6846118 5379:6.6846118 5380:6.6846118 5381:5.9914646 5382:6.6846118 5383:6.6846118 5384:6.6846118 5385:6.6846118 5386:6.6846118 #
-0.00053901132664946999843019748155371 3:0.42312005 5:0.68498063 7:2.0694911 10:0.070308045 12:0.56351024 13:0.2460715 17:0.87313771 18:1.0937693 21:2.0894918 22:0.03785602 24:0.23306763 25:0.070352353 34:0.59104198 44:1.0973631 72:2.2187035 73:0.45491505 87:2.7527862 88:1.4063951 89:1.7646308 90:0.57758886 92:0.18632957 93:0.16694045 94:4.1439204 149:1.6148474 167:2.0200336 179:0.79850769 198:0.66474682 199:1.018185 233:1.2508898 234:3.3524072 278:0.95451194 283:1.707878 337:1.8888211 350:2.9004221 538:2.6070743 586:3.2188759 657:3.3887749 799:2.1737523 818:2.3941524 830:2.9004221 947:2.6772785 1473:3.8513985 2497:4.0455542 2718:5.0751739 3496:5.5859995 3678:5.9914646 3708:5.2983174 3757:5.9914646 4219:5.5859995 4569:17.974394 4570:6.6846118 4571:6.6846118 4572:5.9914646 4573:6.6846118 #
-0.00028312083393591331225910834312742 2:1.1418591 3:2.1156001 7:2.0694911 10:0.070308045 12:0.37567347 13:0.32809535 17:0.87313771 22:0.094640046 24:0.58266908 25:0.20100671 26:2.6956277 35:1.2909842 44:1.0973631 49:1.8086548 59:1.5028281 71:3.1494663 73:0.45491505 75:3.6400893 88:0.70319754 90:0.57758886 92:0.74531829 93:0.50082135 94:1.3813068 98:1.5309278 106:1.1551826 112:1.5476302 134:3.5935693 141:1.3763441 149:1.6148474 167:0.67334455 170:1.9310216 173:1.1833535 179:0.79850769 182:2.1307349 198:0.66474682 206:2.0586736 241:1.0642109 268:1.3518929 278:0.95451194 295:2.0794415 331:1.5198257 336:2.8779492 337:1.8888211 356:2.5737379 362:1.7646308 423:1.89712 466:1.0751399 479:2.4361165 538:2.6070743 539:2.3025851 580:5.5859995 586:3.2188759 687:1.856298 749:3.4657359 778:3.6400893 796:3.4657359 799:2.1737523 827:1.8483298 856:2.2778926 859:3.2506244 860:1.5970154 865:4.1196623 872:4.6051702 885:2.9234116 889:5.7119408 900:3.7401729 934:2.5257287 937:3.79424 946:2.0894918 1003:2.6415606 1012:3.9120231 1021:4.3820267 1534:8.5734329 1565:3.7401729 1606:4.8928523 1736:4.8928523 1752:3.2506244 1809:3.4657359 1833:3.6400893 1867:4.7387013 1975:4.7387013 1993:4.4873872 2008:4.1997051 2525:4.4873872 2590:4.6051702 2593:4.8928523 2632:4.7387013 2807:4.7387013 3001:4.6051702 3468:5.0751739 3720:5.5859995 3759:13.70606 3791:5.2983174 3869:4.7387013 3922:4.8928523 3945:5.9914646 4189:5.2983174 4408:4.4873872 4697:5.9914646 5037:5.9914646 5261:5.9914646 5423:6.6846118 5424:6.6846118 #
0.0011332319141326109221412643535132 2:0.57092953 3:0.8462401 5:0.34249032 10:0.026365519 12:0.56351024 17:0.43656886 22:0.07571204 24:0.23306763 25:0.13065436 43:0.809681 44:1.0973631 49:0.4521637 70:2.5737379 73:0.22745752 92:0.18632957 98:0.30618554 101:4.1997051 144:3.2188759 149:1.0765649 198:0.66474682 228:1.9841313 233:1.2508898 289:2.5902672 312:2.6956277 326:5.0751739 329:3.182935 384:2.5574772 423:1.89712 424:1.5313201 473:2.2302644 573:2.7333679 578:2.0794415 648:2.0306513 661:1.8888211 696:2.7143197 837:1.8094144 923:5.0751739 946:2.0894918 990:4.0455542 1099:3.4657359 1274:7.8240461 1280:4.3820267 1281:3.02105 1302:4.4873872 1309:4.8928523 1360:5.0751739 1463:3.4657359 1632:3.3173158 1669:2.8134108 1716:4.2867165 2802:4.6051702 2816:6.7775497 2857:5.9914646 2858:5.5859995 2859:5.5859995 2860:5.9914646 2861:5.2983174 #
0.0011332319141326109221412643535132 1:2.8127902 2:0.57092953 3:0.8462401 5:0.68498063 10:0.026365519 11:0.42694414 12:0.93918371 13:0.16404767 17:0.87313771 22:0.094640046 24:0.11653382 25:0.030151008 29:0.68072468 31:2.8559704 32:2.8559704 34:0.59104198 35:1.2909842 73:0.22745752 94:2.7626135 98:0.30618554 112:0.7738151 121:4.4145498 123:2.6241686 141:1.3763441 167:0.67334455 173:1.1833535 183:1.0078579 192:1.6157075 196:1.0533999 199:1.018185 200:1.3664917 222:1.8483298 230:1.1631508 233:1.2508898 238:0.93521875 265:1.0498221 273:3.2188759 278:0.95451194 293:1.7010051 329:2.3872013 375:1.7287847 381:1.2640767 429:1.0605942 469:2.0996442 489:3.2834144 494:2.2187035 585:1.7501378 599:2.0402207 654:2.6415606 720:3.9765615 947:2.6772785 996:3.5065579 1032:3.9120231 1038:3.4657359 1122:4.3820267 1123:2.6415606 1341:4.6051702 1449:4.1997051 1486:3.1292636 1755:5.0751739 1835:3.6400893 2008:4.1997051 2446:4.3820267 2629:5.9914646 2653:3.4657359 2722:5.5859995 2723:5.2983174 2724:3.7401729 #
0.0011332319141326109221412643535132 1:1.4063951 10:0.017577011 11:0.42694414 12:0.18783674 13:0.082023837 17:0.43656886 22:0.05678403 25:0.060302015 29:0.68072468 90:0.57758886 92:0.37265915 93:0.16694045 138:2.2072749 139:3.3524072 148:1.9932638 149:0.53828245 150:2.2072749 167:1.3466891 179:0.79850769 196:1.0533999 238:0.93521875 283:1.707878 329:0.79573375 375:1.7287847 381:1.2640767 384:2.5574772 407:3.1292636 429:1.0605942 441:4.8928523 506:2.1307349 548:3.5065579 657:6.7775497 676:3.3524072 684:1.7429693 721:2.3538785 741:3.7401729 827:1.8483298 1501:4.8928523 1536:2.8134108 1537:5.9914646 1538:6.6846118 1539:4.4873872 1540:4.4873872 #
0.00051423196083969912196370843915361 1:1.4063951 2:0.57092953 5:0.34249032 10:0.04394253 13:0.2460715 17:0.43656886 22:0.094640046 24:0.11653382 25:0.12060403 34:0.59104198 35:1.2909842 43:0.809681 49:1.8086548 59:1.5028281 71:1.0498221 72:2.2187035 73:0.34118629 74:3.1010928 93:0.16694045 94:1.3813068 95:3.8278542 96:1.0899004 98:0.61237109 106:2.3103652 118:3.6400893 119:2.65926 134:3.5935693 148:1.9932638 167:1.3466891 186:2.2302644 190:2.9004221 192:1.6157075 196:2.1067998 199:1.018185 200:1.3664917 204:0.77110875 206:0.82346946 242:0.6782586 256:1.7867719 257:2.9710398 279:1.5028281 284:1.4323384 302:1.6411866 317:2.9957323 332:3.2506244 364:1.1631508 403:2.1520123 445:2.7527862 449:2.6956277 479:2.4361165 482:1.6541739 545:4.7342472 584:5.5451775 589:2.65926 603:3.1010928 606:2.2187035 607:2.4505053 627:2.3025851 648:2.0306513 707:3.0736938 775:2.1848021 799:2.1737523 860:1.5970154 1033:5.2983174 1321:3.9120231 1398:4.1196623 1480:2.0694911 1499:3.6888795 1552:5.9914646 1554:4.1997051 1581:4.3820267 1926:3.3173158 2816:6.7775497 2915:5.9914646 2916:6.6846118 2917:5.9914646 2918:6.6846118 2919:4.4873872 2920:5.9914646 2921:5.0751739 2922:6.6846118 2923:6.6846118 2924:5.9914646 #
0.0011332319141326109221412643535132 3:0.42312005 5:1.3699613 7:2.0694911 10:0.04394253 12:1.1270205 13:0.2460715 16:4.6816125 17:0.43656886 18:1.0937693 22:0.07571204 25:0.080402687 34:0.59104198 41:1.9054883 51:1.8724273 88:1.4063951 92:0.18632957 93:0.3338809 95:3.8278542 96:1.0899004 98:0.30618554 138:2.2072749 139:3.3524072 172:3.4657359 174:1.7646308 182:2.1307349 183:1.0078579 193:2.4361165 198:0.88632905 202:1.4167535 204:0.77110875 206:0.41173473 212:1.2819344 217:2.541477 238:0.93521875 252:2.5102243 277:2.6241686 278:0.95451194 356:2.5737379 361:2.4799192 364:3.4894524 386:1.8170773 427:1.9661129 482:1.6541739 489:3.2834144 594:3.7401729 610:3.5935693 759:2.5737379 854:2.8779492 876:4.6051702 948:2.494957 1096:3.1582513 1234:5.9914646 1726:2.6956277 1760:4.8928523 2816:3.3887749 2919:4.4873872 2990:5.2983174 2991:6.6846118 #
-0.00098727128300579595002184341012708 1:3.5159876 2:0.57092953 3:0.42312005 5:0.68498063 6:2.9957323 8:2.5574772 10:0.061519541 11:0.42694414 13:0.49214301 17:0.43656886 18:1.640654 19:2.3805466 22:0.07571204 24:0.23306763 25:0.10050336 29:2.0421741 44:1.0973631 51:1.8724273 64:1.9139271 73:0.34118629 88:1.4063951 92:0.18632957 93:0.3338809 98:0.30618554 132:2.7725887 147:4.0613027 149:1.6148474 167:0.67334455 179:1.5970154 204:0.77110875 206:0.82346946 209:2.9469421 241:2.1284218 262:2.2778926 264:1.6347557 277:2.6241686 302:1.6411866 333:3.9765615 355:4.0455542 381:1.2640767 383:2.9957323 429:1.0605942 437:5.2983174 445:2.7527862 482:1.6541739 568:6.3165026 642:3.8513985 657:10.166325 661:1.8888211 670:3.3173158 730:8.9747744 738:4.3820267 763:2.541477 797:3.1582513 827:1.8483298 892:4.8928523 1074:4.3820267 1098:3.6888795 1122:4.3820267 1123:2.6415606 1411:2.6956277 1423:4.1196623 1466:4.8928523 1579:4.8928523 1590:4.6051702 1928:3.1582513 1930:5.0751739 2107:3.9120231 2618:4.4873872 2718:5.0751739 2774:5.2983174 3677:5.5859995 4077:4.8928523 4265:6.6846118 4266:5.9914646 4267:6.6846118 4268:6.6846118 4269:5.9914646 4270:5.9914646 4271:6.6846118 4272:5.9914646 4273:6.6846118 4274:5.9914646 #
-0.0011332319141326109221412643535132 1:2.8127902 2:1.1418591 5:0.34249032 10:0.04394253 11:0.42694414 12:0.18783674 13:0.082023837 22:0.07571204 25:0.010050336 34:1.182084 46:1.6032073 73:0.11372876 88:0.70319754 89:1.7646308 138:2.2072749 139:3.3524072 147:2.0306513 148:1.9932638 167:0.67334455 173:1.1833535 192:1.6157075 200:2.7329834 206:0.41173473 267:3.2567317 268:2.7037859 278:0.95451194 279:4.5084844 291:1.3518929 391:2.8344641 435:1.9224378 506:2.1307349 578:2.0794415 585:1.7501378 996:3.5065579 1160:2.9004221 2214:4.7387013 3508:5.5859995 4869:5.5859995 4870:6.6846118 #
-0.0011332319141326109221412643535132 10:0.052731037 12:0.93918371 13:0.2460715 14:2.9957323 17:1.3097066 18:0.54688466 22:0.07571204 24:0.23306763 25:0.040201344 26:2.6956277 31:2.8559704 32:2.8559704 34:1.7731259 35:1.2909842 44:1.0973631 46:1.6032073 88:1.4063951 92:0.18632957 107:2.5281534 179:1.5970154 194:2.4361165 198:0.44316453 212:1.2819344 233:1.2508898 242:0.6782586 279:1.5028281 290:1.6347557 291:1.3518929 331:1.5198257 407:3.1292636 427:1.9661129 702:2.8779492 947:2.6772785 981:3.5491176 1234:5.9914646 1449:4.1997051 1495:3.1292636 1755:5.0751739 2446:4.3820267 2943:4.1997051 3366:3.7401729 4650:5.2983174 #
-0.0011332319141326109221412643535132 1:1.4063951 5:0.68498063 7:2.0694911 10:0.052731037 11:0.42694414 12:0.56351024 13:0.16404767 22:0.05678403 24:0.23306763 25:0.040201344 34:1.182084 44:1.0973631 49:0.4521637 56:3.3173158 71:1.0498221 92:0.37265915 94:1.3813068 106:1.1551826 120:1.8094144 167:0.67334455 173:1.1833535 174:3.5292616 183:1.0078579 199:1.018185 200:1.3664917 238:0.93521875 278:0.95451194 364:1.1631508 403:2.1520123 405:3.5491176 435:1.9224378 481:4.0455542 516:1.8247993 525:2.7725887 578:2.0794415 585:1.7501378 683:4.6051702 747:3.79424 749:3.4657359 1115:3.5491176 1160:2.9004221 1262:3.79424 1716:4.2867165 2239:4.0455542 2750:5.2983174 4502:5.9914646 #
-0.0011332319141326109221412643535132 1:1.4063951 2:1.7127887 3:0.42312005 5:0.68498063 10:0.04394253 12:0.75134695 13:0.32809535 15:1.89712 17:0.87313771 22:0.07571204 24:0.23306763 25:0.060302015 34:1.7731259 35:1.2909842 49:0.4521637 59:1.5028281 69:2.3805466 73:0.34118629 87:2.7527862 92:0.37265915 93:0.50082135 94:1.3813068 98:0.30618554 99:1.7429693 149:0.53828245 163:3.0736938 167:1.3466891 177:2.3151639 192:1.6157075 196:1.0533999 198:0.22158226 199:1.018185 203:2.7725887 204:2.3133261 206:0.41173473 217:2.541477 241:1.0642109 242:1.3565172 294:4.3820267 311:3.5065579 329:0.79573375 362:1.7646308 363:1.9139271 383:2.9957323 400:3.8513985 429:3.1817827 442:3.2506244 458:3.1292636 466:1.0751399 485:3.3887749 489:3.2834144 611:1.469676 648:2.0306513 657:3.3887749 776:3.1292636 837:1.8094144 844:3.4657359 860:1.5970154 884:2.8134108 934:2.5257287 1153:2.7927914 1234:2.9957323 1316:4.0455542 1353:5.7558985 1365:3.5065579 1375:6.8530302 1467:5.0751739 1502:2.9957323 1720:3.9765615 2415:3.8513985 2592:5.0751739 2789:2.494957 4243:4.8928523 4425:6.6846118 4426:6.6846118 4427:6.6846118 #
0.00064825387215040213874372998503759 2:1.1418591 3:0.42312005 5:1.0274709 10:0.026365519 13:0.49214301 17:0.43656886 18:0.54688466 19:2.3805466 21:2.0894918 22:0.11356806 24:0.11653382 25:0.12060403 29:1.3614494 37:2.541477 43:0.809681 49:0.4521637 50:1.7646308 58:2.9004221 63:8.7839012 69:2.3805466 71:1.0498221 73:0.45491505 75:7.2801785 88:3.5159876 90:1.1551777 92:0.37265915 93:1.0016427 98:0.91855663 104:3.4265151 106:3.465548 107:1.2640767 112:0.7738151 120:1.8094144 149:0.53828245 183:1.0078579 198:0.22158226 199:1.018185 206:0.41173473 210:1.1472775 230:1.1631508 249:1.856298 256:1.7867719 262:4.5557852 264:1.6347557 265:6.2989326 268:1.3518929 297:1.554713 362:1.7646308 363:3.8278542 365:3.9120231 423:1.89712 481:4.0455542 482:3.3083477 484:2.6070743 504:4.2867165 510:3.5065579 513:3.79424 535:3.2834144 582:2.9004221 599:2.0402207 611:1.469676 661:1.8888211 687:1.856298 728:2.4505053 744:5.9420795 759:2.5737379 798:4.0455542 873:2.9710398 976:4.2867165 1078:3.5065579 1321:3.9120231 1353:2.8779492 1471:4.1196623 1556:3.4265151 1580:4.3820267 1679:4.8928523 1725:2.7143197 1754:5.5859995 1833:3.6400893 1928:6.3165026 1960:4.1196623 1974:3.5065579 2182:9.4774027 2202:6.8530302 2330:5.2983174 2845:5.9914646 2848:5.5859995 3203:5.0751739 3243:5.9914646 3366:3.7401729 3510:5.5859995 3683:4.8928523 3759:6.8530302 3771:13.14608 3832:4.8928523 3870:6.6846118 3871:5.2983174 3872:5.5859995 3873:6.6846118 3874:6.6846118 3875:5.5859995 3876:6.6846118 #
0.0011332319141326109221412643535132 10:0.052731037 12:0.75134695 13:0.2460715 17:0.87313771 22:0.07571204 24:0.11653382 25:0.050251678 51:3.7448547 60:3.9120231 63:6.5879259 72:2.2187035 73:0.22745752 81:3.1010928 88:2.1095924 90:0.57758886 92:0.37265915 93:0.16694045 98:0.30618554 107:1.2640767 121:2.2072749 138:2.2072749 161:3.5935693 163:6.1473875 173:1.1833535 179:0.79850769 189:2.0694911 198:0.22158226 199:1.018185 289:2.5902672 305:3.5935693 329:0.79573375 335:2.0694911 362:1.7646308 363:1.9139271 364:1.1631508 375:1.7287847 414:3.6888795 424:1.5313201 429:1.0605942 450:3.02105 466:2.1502798 484:2.6070743 585:1.7501378 611:1.469676 654:2.6415606 687:3.7125959 689:1.7942626 733:2.059639 766:3.0736938 777:3.2188759 801:3.6888795 837:1.8094144 841:2.3408062 889:2.8559704 1062:4.4873872 1121:4.3820267 1156:2.494957 1353:2.8779492 1495:6.2585273 1706:5.0751739 3922:4.8928523 3923:6.6846118 3924:6.6846118 3925:6.6846118 #
0.0011332319141326109221412643535132 3:0.42312005 5:0.34249032 10:0.04394253 11:0.42694414 12:0.56351024 13:0.2460715 14:2.9957323 15:1.89712 17:0.43656886 22:0.07571204 24:0.11653382 25:0.040201344 29:0.68072468 34:0.59104198 36:1.469676 37:2.541477 43:0.809681 44:1.0973631 49:0.90432739 84:1.89712 88:0.70319754 93:0.3338809 96:1.0899004 98:0.61237109 141:1.3763441 142:2.6956277 167:0.67334455 173:1.1833535 183:1.0078579 198:1.1079113 204:0.77110875 220:2.8344641 230:1.1631508 236:3.4265151 258:2.1737523 264:1.6347557 331:1.5198257 337:1.8888211 359:2.0498827 381:1.2640767 468:2.2302644 494:2.2187035 549:2.2901626 610:3.5935693 687:1.856298 885:2.9234116 888:3.2188759 889:2.8559704 1012:3.9120231 1206:4.1997051 1269:2.9234116 1459:3.1582513 1477:3.0470257 1479:4.0455542 1534:4.2867165 1935:4.2867165 2040:4.0455542 2097:4.1196623 3060:5.9914646 #
0.00051119099253786061919091476823951 1:0.70319754 3:0.8462401 12:0.37567347 13:0.32809535 17:0.43656886 22:0.11356806 24:0.93227053 25:0.060302015 44:1.0973631 49:0.4521637 73:0.34118629 88:2.1095924 90:0.57758886 93:0.3338809 98:0.30618554 106:2.3103652 107:1.2640767 149:2.1531298 151:3.3613307 162:2.0306513 188:1.508462 194:2.4361165 204:0.77110875 210:1.1472775 222:1.8483298 233:1.2508898 238:0.93521875 277:2.6241686 290:1.6347557 295:2.0794415 312:2.6956277 329:2.3872013 368:5.0751739 416:4.3820267 420:3.5935693 427:1.9661129 430:4.6051702 443:3.0470257 494:2.2187035 560:2.0894918 573:2.7333679 583:2.5102243 635:3.02105 716:2.3538785 759:2.5737379 856:2.2778926 864:3.7401729 871:4.6051702 937:3.79424 946:2.0894918 962:2.5737379 1023:4.2867165 1169:15.442428 1170:3.4657359 1181:3.3887749 1188:3.2188759 1281:3.02105 1367:4.1997051 1414:5.9914646 1445:4.7387013 1490:3.79424 1502:2.9957323 1597:3.3173158 1740:4.6051702 2038:5.0751739 2161:5.0751739 2209:4.3820267 2234:4.4873872 2362:6.6846118 2363:6.6846118 2364:6.6846118 2365:5.5859995 2366:5.0751739 2367:5.9914646 2368:5.9914646 2369:6.6846118 2370:5.5859995 2371:6.6846118 2372:6.6846118 2373:5.9914646 2374:4.3820267 2375:5.9914646 2376:5.9914646 2377:3.6888795 2378:4.0455542 2379:6.6846118 #
0.00066461281628557252777744768224011 1:1.4063951 3:0.42312005 5:0.34249032 10:0.087885059 11:0.42694414 13:0.16404767 22:0.094640046 24:0.11653382 25:0.060302015 29:1.3614494 34:0.59104198 49:1.3564911 71:1.0498221 73:0.11372876 90:0.57758886 92:0.55898875 93:0.3338809 94:2.7626135 95:5.7417812 96:1.0899004 98:0.30618554 112:0.7738151 115:3.5491176 132:1.3862944 147:2.0306513 149:0.53828245 150:2.2072749 174:1.7646308 179:1.5970154 193:2.4361165 196:1.0533999 198:0.66474682 204:0.77110875 206:0.41173473 210:1.1472775 219:2.6415606 230:1.1631508 233:1.2508898 237:3.5935693 239:2.9469421 262:4.5557852 265:2.0996442 268:1.3518929 278:0.95451194 279:1.5028281 293:1.7010051 302:1.6411866 329:1.5914675 336:2.8779492 450:3.02105 451:3.4657359 466:2.1502798 506:6.3922043 516:1.8247993 561:2.65926 562:3.6888795 572:4.2867165 585:1.7501378 599:2.0402207 625:2.2302644 684:1.7429693 708:3.0736938 733:2.059639 852:2.9957323 946:2.0894918 1078:3.5065579 1111:3.4657359 1175:4.4873872 1281:3.02105 1450:5.9914646 1463:3.4657359 1477:3.0470257 1483:3.9120231 1512:3.6888795 1602:4.7387013 1926:3.3173158 2101:4.4873872 2146:5.5859995 2253:4.3820267 2642:5.0751739 2653:3.4657359 2665:4.4873872 2685:5.9914646 2695:5.5859995 2697:5.9914646 2746:6.6846118 2747:5.9914646 2748:6.6846118 2749:5.9914646 2750:5.2983174 2751:6.6846118 2752:5.9914646 #
-0.0011332319141326109221412643535132 10:0.070308045 11:0.42694414 12:0.37567347 13:0.16404767 17:1.7462754 18:0.54688466 22:0.11356806 24:0.23306763 25:0.13065436 34:0.59104198 35:1.2909842 43:0.809681 44:1.0973631 49:1.3564911 50:1.7646308 70:2.5737379 71:1.0498221 72:2.2187035 73:0.34118629 82:2.4361165 88:1.4063951 89:1.7646308 92:0.55898875 93:0.16694045 98:0.30618554 107:1.2640767 111:2.3538785 112:2.3214452 141:1.3763441 149:0.53828245 167:2.0200336 179:0.79850769 194:2.4361165 199:1.018185 206:0.41173473 208:3.6888795 210:1.1472775 212:1.2819344 222:1.8483298 231:3.0470257 233:1.2508898 236:3.4265151 241:1.0642109 248:3.0470257 265:1.0498221 284:1.4323384 290:1.6347557 364:2.3263016 395:4.6051702 422:2.65926 424:1.5313201 472:2.4799192 475:2.4219317 482:1.6541739 584:2.7725887 597:3.5935693 606:2.2187035 646:3.3524072 744:5.9420795 775:8.7392082 806:3.8513985 841:2.3408062 855:4.7387013 885:5.8468232 889:2.8559704 1004:3.1292636 1055:3.4265151 1121:4.3820267 1381:4.0455542 1411:2.6956277 1513:2.9234116 1768:4.8928523 2239:4.0455542 2377:3.6888795 2571:5.9914646 3329:4.1997051 5034:6.6846118 5035:6.6846118 #
-0.0011332319141326109221412643535132 1:2.1095924 2:0.57092953 3:0.42312005 4:5.2831211 5:0.34249032 10:0.026365519 11:0.42694414 12:0.75134695 13:0.16404767 15:1.89712 21:2.0894918 22:0.01892801 25:0.060302015 29:3.4036233 34:0.59104198 35:1.2909842 36:1.469676 72:2.2187035 73:0.45491505 92:0.18632957 93:0.50082135 96:1.0899004 107:1.2640767 111:2.3538785 132:1.3862944 167:0.67334455 198:0.66474682 202:1.4167535 204:0.77110875 206:0.82346946 210:2.2945549 233:2.5017796 242:0.6782586 270:3.5491176 293:1.7010051 321:1.5786662 329:1.5914675 350:2.9004221 359:2.0498827 381:2.5281534 397:2.4651041 429:1.0605942 466:1.0751399 549:2.2901626 629:3.3524072 654:2.6415606 687:1.856298 763:2.541477 818:2.3941524 827:1.8483298 830:5.8008442 1075:3.2188759 1080:3.3173158 1156:2.494957 1461:4.1997051 1620:4.6051702 2073:3.8513985 2186:3.9765615 4173:4.8928523 4181:6.6846118 4182:5.9914646 #
-0.00010659145166955747807517596026372 2:1.7127887 4:5.2831211 5:1.0274709 10:0.061519541 11:0.42694414 13:0.2460715 18:0.54688466 22:0.094640046 24:0.6992029 25:0.080402687 29:1.3614494 49:1.3564911 71:1.0498221 73:0.45491505 90:0.57758886 92:0.37265915 93:0.50082135 96:1.0899004 98:1.2247422 104:3.4265151 106:2.3103652 132:1.3862944 141:2.7526882 161:3.5935693 183:1.0078579 201:2.3538785 206:0.41173473 210:1.1472775 212:2.5638688 227:3.6888795 243:3.0736938 247:2.6070743 262:4.5557852 265:2.0996442 268:1.3518929 284:1.4323384 297:1.554713 337:1.8888211 362:1.7646308 363:1.9139271 374:3.0470257 423:1.89712 450:3.02105 516:1.8247993 610:3.5935693 684:3.4859385 728:2.4505053 775:2.1848021 803:5.8008442 864:3.7401729 958:5.0751739 1075:3.2188759 1144:3.4657359 1307:3.4657359 1322:4.6051702 1418:3.6400893 1477:3.0470257 1620:4.6051702 1648:4.8928523 1669:5.6268215 1825:2.9469421 1833:3.6400893 1971:3.2834144 2377:3.6888795 2864:5.9914646 2883:5.9914646 3329:4.1997051 3479:4.8928523 3682:5.0751739 4072:6.9314718 4090:4.4873872 4501:5.2983174 5648:6.6846118 5649:6.6846118 5650:6.6846118 #
-0.00023459534623694751863387519819071 2:0.57092953 3:0.42312005 10:0.087885059 11:0.42694414 13:0.65619069 17:0.87313771 18:2.7344234 22:0.11356806 24:1.1653382 25:0.20100671 29:4.0843482 36:1.469676 43:1.619362 49:0.90432739 59:1.5028281 61:2.0894918 73:0.79610133 92:0.37265915 93:0.3338809 94:1.3813068 98:2.1432989 102:1.9932638 112:0.7738151 123:2.6241686 132:2.7725887 149:3.2296948 151:5.0419965 179:0.79850769 183:1.0078579 191:2.3671236 196:2.1067998 198:1.9942404 204:3.8555436 206:0.41173473 212:1.2819344 219:2.6415606 222:3.6966596 224:1.7793369 228:1.9841313 230:2.3263016 238:1.8704375 248:3.0470257 250:2.5102243 262:4.5557852 264:3.2695115 265:2.0996442 279:1.5028281 290:1.6347557 297:1.554713 302:4.9235597 351:2.5574772 381:2.5281534 384:2.5574772 427:1.9661129 432:5.2983174 443:6.0940514 453:2.0402207 466:1.0751399 471:4.7387013 487:4.7387013 549:2.2901626 624:2.2187035 626:4.4873872 644:2.7927914 645:2.7527862 668:4.1997051 731:3.9765615 782:5.0751739 803:2.9004221 875:4.8928523 962:2.5737379 977:3.5491176 1004:3.1292636 1026:4.8928523 1031:2.9710398 1032:3.9120231 1075:3.2188759 1088:3.5065579 1113:7.8240461 1123:2.6415606 1209:6.0421 1214:3.9120231 1241:5.9914646 1257:3.8513985 1268:2.3671236 1281:3.02105 1321:3.9120231 1328:4.4873872 1348:3.2506244 1396:4.2867165 1411:2.6956277 1447:2.7725887 1462:5.0751739 1477:3.0470257 1584:5.2983174 1600:4.7387013 1632:3.3173158 1674:5.5859995 1720:3.9765615 1725:2.7143197 1738:5.9914646 1820:4.2867165 1825:2.9469421 1833:3.6400893 1838:5.5859995 1855:3.6400893 1962:3.5491176 1992:8.3994102 2012:5.9914646 2177:4.7387013 2214:4.7387013 2253:4.3820267 2355:5.5859995 2367:5.9914646 2377:3.6888795 2415:3.8513985 2448:5.9914646 2479:5.5859995 2559:5.9914646 2594:5.5859995 2616:3.9765615 2696:5.0751739 2750:5.2983174 3503:3.9765615 3767:5.2983174 3768:5.9914646 3971:4.7387013 4100:5.9914646 4161:5.9914646 4535:6.6846118 4536:6.6846118 4537:6.6846118 4538:6.6846118 4539:6.6846118 4540:6.6846118 4541:5.2983174 4542:6.6846118 4543:13.369224 4544:6.6846118 4545:6.6846118 4546:6.6846118 4547:6.6846118 4548:5.9914646 4549:6.6846118 4550:6.6846118 4551:6.6846118 4552:6.6846118 4553:6.6846118 4554:6.6846118 4555:5.5859995 4556:6.6846118 4557:6.6846118 4558:5.9914646 4559:6.6846118 4560:6.6846118 4561:6.6846118 4562:6.6846118 4563:6.6846118 4564:5.5859995 4565:6.6846118 4566:6.6846118 4567:6.6846118 #
-0.0011332319141326109221412643535132 2:0.57092953 5:0.34249032 10:0.061519541 12:0.18783674 13:0.16404767 22:0.03785602 24:0.34960145 25:0.050251678 29:2.0421741 34:0.59104198 49:1.8086548 72:2.2187035 73:0.22745752 90:0.57758886 92:0.37265915 93:0.16694045 96:1.0899004 112:0.7738151 121:2.2072749 162:2.0306513 170:1.9310216 179:0.79850769 198:0.66474682 206:0.41173473 210:1.1472775 265:2.0996442 297:1.554713 398:2.6956277 443:3.0470257 467:4.3820267 468:2.2302644 560:2.0894918 585:1.7501378 600:2.2657712 684:3.4859385 687:1.856298 689:1.7942626 720:3.9765615 728:2.4505053 901:1.9224378 910:3.1010928 978:4.6051702 1075:6.4377518 1080:3.3173158 1094:4.1997051 2202:3.4265151 2653:6.9314718 2727:3.8513985 3182:5.5859995 3233:5.9914646 3534:5.9914646 4479:5.9914646 4913:6.6846118 #
0.0009035106846631426420410337918554 1:3.5159876 3:0.8462401 5:0.34249032 8:2.5574772 10:0.087885059 12:1.3148571 13:0.16404767 17:1.7462754 18:0.54688466 22:0.17035209 24:0.23306763 25:0.15075503 34:1.182084 35:1.2909842 39:2.7725887 43:0.809681 44:2.1947262 46:1.6032073 59:1.5028281 69:2.3805466 73:0.56864381 88:1.4063951 92:0.74531829 93:0.3338809 94:1.3813068 96:1.0899004 98:0.91855663 99:1.7429693 107:1.2640767 141:1.3763441 144:3.2188759 148:1.9932638 149:0.53828245 155:3.3887749 167:2.6933782 172:3.4657359 179:1.5970154 186:2.2302644 196:2.1067998 198:0.66474682 199:1.018185 205:2.5737379 206:0.41173473 209:5.8938842 212:1.2819344 241:2.1284218 249:3.7125959 261:3.4657359 265:1.0498221 268:1.3518929 270:3.5491176 283:1.707878 290:4.9042673 329:0.79573375 364:2.3263016 390:3.8513985 397:2.4651041 424:1.5313201 429:2.1211884 435:1.9224378 445:2.7527862 460:1.9750816 466:3.2254198 479:2.4361165 501:2.6415606 508:2.5737379 516:1.8247993 520:3.2506244 527:2.9957323 539:2.3025851 551:5.0751739 578:2.0794415 585:1.7501378 598:3.79424 599:2.0402207 606:2.2187035 607:2.4505053 684:1.7429693 724:5.1474757 733:2.059639 764:3.5935693 774:4.4873872 860:1.5970154 935:4.6051702 1028:3.9765615 1115:3.5491176 1166:4.6051702 1181:3.3887749 1418:3.6400893 1437:3.3887749 1653:3.2188759 1668:4.6051702 1725:2.7143197 2123:4.8928523 2180:3.2834144 2382:4.6051702 2428:4.1997051 2523:4.2867165 2632:4.7387013 2667:4.3820267 2964:4.8928523 3143:9.751874 3199:5.9914646 3200:6.6846118 3201:5.9914646 3202:6.6846118 3203:5.0751739 3204:11.982929 3205:5.0751739 3206:5.9914646 #
0.00082170850467280852173768135315868 2:1.1418591 3:1.2693602 5:0.68498063 6:2.9957323 7:2.0694911 10:0.026365519 11:0.42694414 12:0.75134695 13:0.49214301 14:2.9957323 17:0.43656886 18:0.54688466 22:0.13249607 24:0.34960145 25:0.12060403 29:2.0421741 34:1.182084 43:1.619362 59:3.0056562 69:2.3805466 71:1.0498221 73:0.68237257 90:0.57758886 92:0.55898875 93:0.16694045 94:1.3813068 96:2.1798007 98:0.61237109 102:1.9932638 112:0.7738151 127:2.2302644 132:2.7725887 141:1.3763441 149:0.53828245 162:2.0306513 186:2.2302644 189:2.0694911 196:1.0533999 198:0.66474682 206:0.41173473 210:1.1472775 351:2.5574772 361:2.4799192 375:1.7287847 377:13.70606 459:3.9120231 479:2.4361165 485:3.3887749 498:3.0736938 520:3.2506244 589:2.65926 591:2.6772785 618:8.2393246 661:1.8888211 725:5.0751739 1024:4.2867165 1145:4.4873872 1268:2.3671236 1411:2.6956277 1437:3.3887749 1468:4.8928523 1761:4.4873872 1787:4.7387013 1911:3.1582513 2033:4.8928523 2176:5.0751739 2216:4.3820267 2240:4.7387013 2468:4.4873872 3452:4.8928523 3522:3.5065579 3797:5.5859995 4024:5.5859995 4025:5.9914646 4026:6.6846118 4027:6.6846118 4028:5.5859995 4029:6.6846118 4030:5.9914646 4031:3.5491176 4032:6.6846118 4033:6.6846118 4034:6.6846118 4035:6.6846118 4036:5.9914646 #
0.00078340694327124578075216554395865 1:0.70319754 2:0.57092953 6:2.9957323 7:2.0694911 10:0.026365519 11:0.42694414 12:0.56351024 13:0.082023837 17:0.87313771 22:0.03785602 24:0.11653382 25:0.040201344 29:0.68072468 34:1.182084 41:1.9054883 64:1.9139271 90:1.1551777 92:0.37265915 93:0.3338809 98:0.30618554 107:1.2640767 112:0.7738151 167:0.67334455 179:0.79850769 183:1.0078579 192:1.6157075 196:1.0533999 199:1.018185 205:2.5737379 233:1.2508898 241:1.0642109 242:0.6782586 261:3.4657359 279:1.5028281 329:1.5914675 331:1.5198257 336:2.8779492 355:8.0911083 381:1.2640767 386:1.8170773 429:6.3635654 460:1.9750816 466:2.1502798 482:1.6541739 485:3.3887749 489:3.2834144 494:2.2187035 523:4.1196623 549:2.2901626 609:4.1997051 611:1.469676 801:3.6888795 837:1.8094144 948:2.494957 977:3.5491176 1123:2.6415606 1161:3.5935693 1320:5.5859995 1353:2.8779492 1501:4.8928523 1506:5.5859995 1507:6.6846118 1508:3.1582513 1509:5.9914646 1510:6.6846118 1511:6.6846118 1512:3.6888795 1513:2.9234116 #
0.0011332319141326109221412643535132 1:1.4063951 3:0.42312005 5:0.34249032 10:0.096673563 11:0.42694414 12:0.18783674 13:0.16404767 17:0.43656886 18:0.54688466 21:4.1789837 22:0.05678403 24:0.34960145 25:0.1105537 34:1.7731259 35:1.2909842 41:1.9054883 46:3.2064147 49:0.90432739 62:5.5859995 71:1.0498221 72:2.2187035 73:0.34118629 92:0.55898875 93:0.16694045 96:1.0899004 98:0.61237109 106:4.6207304 107:1.2640767 112:0.7738151 120:3.6188288 138:2.2072749 167:0.67334455 168:2.6241686 183:1.0078579 188:3.0169239 196:1.0533999 198:0.66474682 199:1.018185 204:1.5422175 210:1.1472775 230:1.1631508 238:0.93521875 241:1.0642109 242:0.6782586 265:1.0498221 291:1.3518929 331:1.5198257 337:1.8888211 362:1.7646308 424:1.5313201 429:2.1211884 506:2.1307349 611:1.469676 624:2.2187035 625:2.2302644 629:3.3524072 635:3.02105 701:3.1881042 731:3.9765615 740:3.1010928 946:2.0894918 1007:3.4657359 1169:2.5737379 1234:2.9957323 1273:3.7401729 1429:4.8928523 2222:4.3820267 2502:3.3173158 2510:5.9914646 2530:4.7387013 2613:5.0751739 2614:6.6846118 2615:5.0751739 2616:3.9765615 2617:5.9914646 2618:4.4873872 2619:5.2983174 2620:5.9914646 2621:4.4873872 2622:5.2983174 2623:5.5859995 2624:5.2983174 #
0.0011332319141326109221412643535132 1:0.70319754 2:0.57092953 5:0.68498063 10:0.035154022 11:0.85388827 12:0.56351024 13:0.2460715 18:1.0937693 22:0.07571204 25:0.040201344 34:0.59104198 44:1.0973631 53:3.9765615 69:2.3805466 73:0.22745752 84:1.89712 90:0.57758886 92:0.55898875 93:0.16694045 95:1.9139271 98:0.30618554 99:1.7429693 111:2.3538785 112:1.5476302 149:0.53828245 151:1.6806654 188:1.508462 191:2.3671236 196:1.0533999 198:0.22158226 201:2.3538785 204:0.77110875 206:0.41173473 210:1.1472775 265:1.0498221 278:0.95451194 279:1.5028281 284:1.4323384 291:1.3518929 293:3.4020102 302:1.6411866 317:5.9914646 329:0.79573375 335:2.0694911 426:3.3524072 429:2.1211884 435:1.9224378 442:3.2506244 444:2.9469421 494:2.2187035 508:2.5737379 578:2.0794415 587:2.8134108 589:2.65926 648:2.0306513 715:3.2834144 775:2.1848021 837:1.8094144 977:3.5491176 1037:3.5491176 1043:3.6888795 1044:4.2867165 1074:4.3820267 1153:2.7927914 1232:5.2983174 1269:2.9234116 1493:4.7387013 1707:4.1997051 1761:4.4873872 1978:3.5935693 2185:4.6051702 2242:3.1881042 2246:5.2983174 2380:5.9914646 2381:6.6846118 2382:4.6051702 2383:6.6846118 2384:6.6846118 2385:4.8928523 2386:6.6846118 2387:5.2983174 2388:2.9004221 2389:6.6846118 #
