SVM-light Version V6.02
0 # kernel type
3 # kernel parameter -d 
1 # kernel parameter -g 
1 # kernel parameter -s 
1 # kernel parameter -r 
empty# kernel parameter -u 
117771 # highest feature index 
640 # number of training documents 
637 # number of support vectors plus 1 
0.16190302 # threshold b, each following line is a SV (starting with alpha*y)
-0.004413740182472770598454125945409 1:0.49928871 2:0.49928871 3:0.557051 4:0.557051 5:0.42293116 6:0.557051 7:0.557051 8:0.557051 9:0.557051 10:0.19084688 11:0.24964435 12:0.46549997 13:0.49928871 14:0.557051 15:0.46549997 16:0.31168106 17:0.30334076 18:0.557051 19:0.46549997 20:0.4077377 21:0.44152644 22:0.49928871 23:0.44152644 24:0.46549997 25:0.49928871 26:0.49928871 27:0.557051 28:0.557051 29:0.557051 30:0.49928871 31:0.557051 32:0.49928871 33:0.557051 34:0.49928871 35:0.557051 36:0.557051 37:0.557051 38:0.557051 39:0.49928871 40:0.49928871 41:0.557051 42:0.557051 43:0.557051 44:0.30334076 45:0.557051 46:0.557051 47:0.557051 48:0.49928871 49:0.42293116 50:0.1464465 51:0.14584482 52:0.23620534 53:0.557051 54:0.557051 55:0.49928871 56:0.3433052 57:0.44152644 58:0.49928871 59:0.49928871 60:0.557051 61:0.557051 62:0.557051 63:0.557051 64:0.49928871 65:0.37394893 66:0.46549997 67:0.49928871 68:0.557051 69:0.557051 70:0.557051 71:0.557051 72:0.49928871 73:0.557051 74:0.557051 75:0.557051 76:0.557051 77:0.44152644 78:0.37394893 79:0.37394893 80:0.557051 81:0.557051 82:1.114102 83:0.557051 84:0.557051 85:0.557051 86:0.557051 87:0.557051 88:0.557051 89:0.557051 90:0.49928871 91:0.46549997 92:0.49928871 93:0.557051 94:0.557051 95:0.557051 96:0.557051 97:0.557051 98:0.557051 99:0.557051 100:0.557051 101:0.46549997 102:0.557051 103:0.557051 104:0.557051 105:0.557051 106:0.557051 107:0.557051 108:0.557051 109:0.557051 110:0.557051 111:0.557051 112:0.84586233 113:0.557051 114:0.557051 115:0.557051 116:0.557051 117:0.557051 118:0.557051 119:0.557051 120:0.557051 121:0.557051 122:0.557051 123:0.557051 124:0.557051 125:0.557051 126:0.557051 127:0.557051 128:0.557051 129:0.557051 130:0.557051 131:0.557051 132:0.557051 133:0.557051 134:0.49928871 135:0.557051 136:0.46549997 137:0.557051 138:0.557051 139:0.557051 140:0.557051 141:0.557051 142:0.557051 143:0.557051 144:0.557051 145:0.44152644 146:0.49928871 147:0.29221317 148:0.46549997 149:0.42293116 150:0.14348058 151:0.46549997 152:0.44152644 153:0.3948918 154:0.35722637 155:0.49928871 156:0.557051 157:0.557051 158:0.11763435 159:0.11027663 160:0.13155553 161:0.35722637 162:0.46549997 163:0.19951269 164:0.10244089 165:0.24758664 166:0.23273262 167:0.33138013 168:0.37394893 169:0.24758664 170:0.37394893 171:0.3948918 172:0.4077377 173:0.32600191 174:0.44152644 175:0.46549997 176:0.46549997 177:0.11145868 178:0.3948918 179:0.42293116 180:0.93099993 181:0.4077377 182:0.22619332 183:0.49928871 184:0.557051 185:0.557051 186:0.557051 187:0.25614116 188:0.49928871 189:0.1233543 190:0.557051 191:0.557051 192:0.23785272 193:0.221605 194:0.557051 195:0.46209812 196:0.46549997 197:0.3651689 198:0.096265219 199:0.10460551 200:0.557051 201:0.49928871 202:0.2823979 203:0.44152644 204:0.20300971 205:0.4077377 206:0.46549997 207:0.557051 208:0.557051 209:0.49928871 210:0.19726031 211:0.29221317 212:0.067239664 213:0.49928871 214:0.557051 215:0.557051 216:0.42293116 217:0.37394893 218:0.557051 219:0.557051 220:0.35722637 221:0.2957598 222:0.31168106 223:0.3948918 224:1.114102 225:1.114102 226:0.557051 227:0.49928871 228:0.557051 229:0.557051 230:0.557051 231:0.42293116 232:0.3948918 233:0.6418997 234:0.49928871 235:0.557051 236:0.557051 237:0.44152644 238:0.557051 239:0.557051 240:0.557051 241:0.42293116 242:0.2823979 243:0.557051 244:0.46549997 245:0.49928871 246:0.49928871 247:0.557051 248:0.37394893 249:0.46549997 250:0.557051 251:0.25614116 252:0.84586233 253:0.39902538 254:0.557051 255:0.557051 256:0.557051 257:0.3948918 258:0.557051 259:0.557051 260:0.38376418 261:0.557051 262:0.46549997 263:0.557051 264:0.49928871 265:0.35722637 266:0.49928871 267:0.557051 268:0.49928871 269:0.557051 270:0.557051 271:0.557051 272:0.49928871 273:0.46549997 274:0.32600191 275:0.44152644 276:0.42293116 277:0.557051 278:0.3651689 279:0.49928871 280:0.46549997 281:0.557051 282:0.557051 283:0.3651689 284:0.4077377 285:0.10911111 286:0.276443 287:0.30740663 288:0.29299897 289:0.095154926 290:0.070520006 291:0.22013004 292:0.028540859 293:0.24964435 294:0.17245761 295:0.21312311 296:0.44152644 297:0.0087885056 298:0.035578679 299:0.078265309 300:0.027341278 301:0.24964435 302:0.15809333 303:0.1950672 304:0.10914221 305:0.045573723 306:0.39675778 307:0.30334076 308:0.17412433 309:0.0031546683 310:0.28554294 311:0.10682266 312:0.0075377519 313:0.22463565 314:0.76752836 315:0.44152644 316:0.056727055 317:0.557051 318:0.23799753 319:0.23799753 320:0.557051 321:0.098506995 322:0.10758202 323:0.367419 324:0.21178976 325:0.42293116 326:0.23104906 327:0.30740663 328:0.15879069 329:0.49928871 330:0.067473419 331:0.091446921 332:0.4077377 333:0.13360061 334:0.3433052 335:0.38376418 336:0.11304092 337:0.14705257 338:0.31207123 339:1.3245794 340:0.33138013 341:0.7897836 342:0.557051 343:0.55288601 344:0.4289563 345:0.48340368 346:0.12523568 347:0.32600191 348:0.17412433 349:0.46549997 350:0.18299794 351:0.15949392 352:0.46549997 353:0.74275994 354:0.3948918 355:0.21868072 356:0.19837889 357:0.21447815 358:0.087485179 359:0.36978394 360:0.018954795 361:0.2584244 362:0.30334076 363:0.49928871 364:0.33138013 365:0.46549997 366:0.3948918 367:0.3948918 368:0.2584244 369:0.20300971 370:0.24758664 371:0.15809333 372:0.46549997 373:0.557051 374:0.22939885 375:0.058599792 376:0.14705257 #
-0.0089899296681397247721356791316794 158:0.28232244 189:0.059210066 212:0.080687597 292:0.03424903 297:0.0061519542 298:0.085388824 300:0.016404767 303:0.23408063 309:0.0075712041 311:0.011653381 312:0.010050336 316:0.068072468 330:0.080968097 331:0.10973631 333:0.16032073 336:0.18086548 360:0.022745753 371:0.189712 374:0.2752786 377:0.31292635 378:0.66846114 379:0.66846114 380:0.66846114 381:0.52983171 382:0.55859995 383:0.47387016 384:0.66846114 385:0.52983171 386:0.66846114 387:0.66846114 388:0.66846114 389:0.66846114 390:0.66846114 391:0.66846114 392:0.59914643 393:0.59914643 394:0.66846114 395:0.66846114 396:0.59914643 397:0.25902671 398:0.66846114 399:0.66846114 400:0.66846114 401:0.66846114 402:0.59914643 403:0.66846114 404:0.59914643 405:0.66846114 406:0.52983171 407:0.59914643 408:0.59914643 409:0.41196623 410:0.5075174 411:0.3912023 412:0.55859995 413:0.59914643 414:0.55859995 415:0.52983171 416:0.55859995 417:0.66846114 418:0.27725887 419:0.55859995 420:0.59914643 421:0.59914643 422:0.59914643 423:0.66846114 424:0.66846114 425:0.66846114 426:0.59914643 427:0.66846114 428:0.66846114 429:0.66846114 430:0.66846114 431:0.5075174 432:0.48928523 433:0.59914643 434:0.46051702 435:0.55859995 436:0.5075174 437:0.66846114 438:0.66846114 439:0.66846114 440:0.59914643 441:0.66846114 442:0.5075174 443:0.59914643 444:0.66846114 445:0.35065579 446:0.34265152 447:0.42867166 448:0.5075174 449:0.30210501 450:0.40455544 451:0.59914643 452:0.66846114 453:0.66846114 454:0.66846114 455:0.66846114 456:0.66846114 457:0.66846114 458:0.66846114 459:0.66846114 460:0.66846114 461:0.66846114 462:0.66846114 463:0.66846114 464:0.66846114 465:0.66846114 466:0.59914643 467:0.26241687 468:0.66846114 469:0.43820265 470:0.5075174 471:0.22657712 472:0.1707878 473:0.59914643 474:0.66846114 475:0.24219319 476:0.38513985 477:0.35491174 478:0.43820265 479:0.47387016 480:0.17113322 481:0.52983171 482:0.66846114 483:0.42867166 484:0.66846114 485:0.55859995 486:0.47387016 487:0.59914643 488:0.55859995 489:0.59914643 490:0.16879402 491:0.16081575 492:0.66846114 493:0.66846114 494:0.66846114 495:0.43820265 496:0.59914643 497:0.59914643 498:0.52983171 499:0.36888793 500:0.31010929 501:0.26956278 502:0.37942401 503:0.32188758 504:0.35491174 505:0.55859995 506:0.52983171 507:0.52983171 508:0.5075174 509:0.20402208 510:0.36400893 511:0.47387016 512:0.59914643 513:0.59914643 514:0.66846114 515:0.59914643 516:0.3912023 517:0.55859995 518:0.66846114 519:0.55859995 520:0.66846114 521:0.5075174 522:0.38513985 523:0.41997051 524:0.42867166 525:0.47387016 526:0.29957321 527:0.41997051 528:0.66846114 529:0.59914643 530:0.12335733 531:0.3912023 532:0.35935694 533:0.59914643 534:0.34265152 535:0.3388775 536:0.30210501 537:0.2752786 538:0.36888793 539:0.34265152 540:0.66846114 541:0.66846114 542:0.66846114 543:0.66846114 544:0.66846114 545:0.66846114 546:0.1401408 547:0.66846114 548:0.66846114 549:0.59914643 550:0.52983171 551:0.66846114 552:0.66846114 553:0.55859995 554:0.14642559 555:0.3912023 556:0.3912023 557:0.5075174 558:0.057758883 559:0.39765614 560:0.055898875 561:0.050082136 562:0.13813068 563:0.1913927 564:0.10899004 565:0.5075174 566:0.09185566 567:0.17429693 568:0.47387016 569:0.41997051 570:0.19932638 571:0.66846114 572:0.34265152 573:0.5075174 574:0.11551826 575:0.12640767 576:0.29957321 577:0.3388775 578:0.46051702 579:0.23538783 580:0.077381507 581:0.43820265 582:0.46051702 583:0.35491174 584:0.52983171 585:0.40455544 586:0.36400893 587:0.265926 588:0.18094145 589:0.22072749 590:0.52983171 591:0.26241687 592:0.28559703 593:0.33173159 594:0.25737378 595:0.22302644 596:0.5075174 597:0.66846114 598:0.59914643 599:0.52983171 600:0.13862944 601:0.66846114 602:0.35935694 603:0.43820265 604:0.36888793 605:0.47387016 606:0.22072749 607:0.33524072 #
-0.0050748607040039311541490540946597 16:0.37401727 17:0.36400893 160:0.15786663 164:0.24585812 165:0.59420794 166:0.27927914 199:0.25105321 253:0.23941523 285:0.13093333 288:0.21095926 289:0.057092953 290:0.12693602 292:0.10274709 293:0.29957321 295:0.25574774 297:0.0087885056 298:0.042694412 299:0.11270204 300:0.02460715 302:0.37942401 304:0.087313771 309:0.009464005 311:0.081573673 312:0.0060302014 316:0.13614494 321:0.059104197 330:0.080968097 331:0.10973631 343:0.33173159 346:0.15028282 348:0.20894919 355:0.26241687 356:0.47610933 359:0.22187036 360:0.045491505 375:0.21095926 475:0.24219319 483:0.42867166 490:0.084397011 491:0.080407873 530:0.24671465 546:0.1401408 558:0.057758883 560:0.037265915 561:0.033388089 562:0.13813068 566:0.09185566 567:0.17429693 580:0.15476301 600:0.13862944 608:0.48928523 609:0.27725887 610:0.32834142 611:0.55859995 612:0.41997051 613:0.23151639 614:0.66846114 615:0.66846114 616:0.66846114 617:0.66846114 618:0.66846114 619:0.52983171 620:0.59914643 621:0.66846114 622:0.66846114 623:0.66846114 624:0.66846114 625:0.59914643 626:0.59914643 627:0.52983171 628:0.25737378 629:0.59914643 630:0.59914643 631:0.66846114 632:0.3912023 633:0.43820265 634:0.59914643 635:0.66846114 636:0.66846114 637:0.66846114 638:0.66846114 639:0.66846114 640:0.59914643 641:0.66846114 642:0.48928523 643:0.37942401 644:0.66846114 645:0.66846114 646:0.66846114 647:0.59914643 648:0.55859995 649:0.66846114 650:0.66846114 651:0.55859995 652:0.66846114 653:0.66846114 654:0.52983171 655:0.48928523 656:0.66846114 657:0.66846114 658:0.37942401 659:0.66846114 660:0.66846114 661:0.59914643 662:0.66846114 663:0.66846114 664:0.66846114 665:0.66846114 666:0.66846114 667:0.66846114 668:0.66846114 669:0.66846114 670:0.66846114 671:0.66846114 672:0.59914643 673:0.55859995 674:0.48928523 675:0.27927914 676:0.39765614 677:0.36888793 678:0.52983171 679:0.52983171 680:0.66846114 681:0.59914643 682:0.66846114 683:0.66846114 684:0.66846114 685:0.59914643 686:0.66846114 687:0.41196623 688:0.8764053 689:0.59914643 690:0.66846114 691:0.66846114 692:0.41997051 693:0.66846114 694:0.66846114 695:0.66846114 696:0.66846114 697:0.66846114 698:0.66846114 699:0.66846114 700:0.66846114 701:0.66846114 702:0.66846114 703:0.66846114 704:0.66846114 705:0.55859995 706:0.59914643 707:0.66846114 708:0.66846114 709:0.66846114 710:0.33173159 711:0.66846114 712:0.66846114 713:0.66846114 714:0.66846114 715:0.66846114 716:0.66846114 717:0.66846114 718:0.66846114 719:0.66846114 720:0.66846114 721:0.43820265 722:0.66846114 723:0.66846114 724:0.66846114 725:0.66846114 726:0.52983171 727:0.48928523 728:0.66846114 729:0.66846114 730:0.66846114 731:0.66846114 732:0.66846114 733:0.48928523 734:0.66846114 735:0.33173159 736:0.66846114 737:0.59914643 738:0.66846114 739:0.66846114 740:0.66846114 741:0.5075174 742:0.44873872 743:0.66846114 744:0.66846114 745:0.66846114 746:0.37942401 747:0.66846114 748:0.66846114 749:0.66846114 750:0.23279029 751:0.46051702 752:0.47387016 753:0.30470255 754:0.66846114 755:0.59914643 756:0.55859995 757:0.66846114 758:0.52983171 759:0.66846114 760:0.66846114 761:0.66846114 762:0.29957321 763:0.25257286 764:0.11048819 765:0.20596389 766:0.3912023 767:0.21099007 768:0.44873872 769:0.66846114 770:0.59914643 771:0.29710397 772:0.52983171 773:0.43820265 774:0.59914643 775:0.66846114 776:0.66846114 777:0.66846114 778:0.46051702 779:0.55859995 780:0.28559703 781:0.22657712 782:0.25574774 783:0.52983171 784:0.34265152 785:0.41997051 786:0.59914643 787:0.66846114 788:0.5075174 789:0.66846114 790:0.66846114 791:0.43820265 792:0.48928523 793:0.48928523 794:0.5075174 795:0.66846114 796:0.59914643 797:0.48928523 798:0.55859995 799:0.37401727 800:0.23151639 801:0.66846114 802:0.52983171 803:0.43820265 804:0.48928523 805:0.66846114 806:0.59914643 807:0.41997051 808:0.66846114 809:0.52983171 810:0.66846114 811:0.34657359 812:0.66846114 813:0.66846114 814:0.66846114 815:0.66846114 816:0.47387016 817:0.5075174 818:0.34265152 819:0.17942625 820:0.36888793 821:0.26241687 822:0.73777586 823:0.30736938 824:0.55859995 825:0.31582513 826:0.66846114 827:0.66846114 828:0.59914643 829:0.46051702 830:0.3388775 831:0.45315424 832:0.59914643 833:0.66846114 834:0.25257286 835:0.25574774 836:0.48928523 837:0.66846114 838:0.66846114 839:0.55859995 840:0.55859995 841:0.66846114 842:0.59914643 843:0.43820265 844:0.44873872 845:0.66846114 846:0.66846114 847:0.55859995 848:0.075768568 849:0.59914643 850:0.59914643 851:0.3912023 852:0.1628366 853:0.2834464 854:0.55859995 855:0.66846114 856:0.66846114 857:0.66846114 858:0.66846114 859:0.36400893 860:0.59914643 861:0.66846114 862:0.37401727 863:0.66846114 864:0.42867166 865:0.66846114 866:0.3912023 867:0.3188104 868:0.74803454 869:0.48928523 870:0.43820265 871:0.47387016 872:0.37401727 873:0.44873872 874:0.34265152 875:0.28134108 876:0.31010929 877:0.48928523 878:0.20402208 879:0.59914643 880:0.52983171 881:0.42867166 882:0.41196623 883:0.55859995 884:0.39765614 885:0.26241687 886:0.5075174 887:0.59914643 888:0.071334988 889:0.1628366 890:0.36400893 891:0.26241687 892:0.27143198 893:0.59914643 894:0.5075174 895:0.42867166 896:0.37401727 897:0.5075174 898:0.55859995 899:0.59914643 900:0.42405272 901:0.27526879 902:0.26956278 903:0.46051702 904:0.32188758 905:0.52983171 906:0.66846114 907:0.20306514 908:0.19932638 909:0.053828247 910:0.22072749 911:0.16806655 912:0.96566272 913:0.42198014 914:0.5075174 915:0.3388775 916:0.43820265 917:0.46051702 918:0.36888793 919:0.42867166 920:0.48928523 921:0.35935694 922:0.40613028 923:0.30736938 924:0.265926 925:0.42867166 926:0.2834464 927:0.067334458 928:0.26241687 929:0.41588831 930:0.19310215 931:0.38513985 932:0.34657359 933:0.11833535 934:0.17646308 935:0.47387016 936:0.37942401 937:0.23151639 938:0.3912023 939:0.079850771 940:0.36888793 941:0.5075174 942:0.21307348 943:0.10078579 944:0.5075174 945:0.55859995 946:0.22302644 947:0.47387016 948:0.1508462 949:0.20694911 950:0.29004222 951:0.23671237 952:0.16157076 953:0.24361165 954:0.24361165 955:0.40455544 956:0.21067999 957:0.40455544 958:0.022158228 959:0.1018185 960:0.13664918 961:0.23538783 962:0.14167535 963:0.27725887 964:0.077110872 #
-0.0025500744991387865566456749633062 23:0.5887019 159:0.14703551 164:0.13658784 165:0.33011553 171:0.5265224 172:0.54365027 173:0.43466923 177:0.14861158 195:0.30806541 204:0.27067962 212:0.089652881 265:0.47630182 288:0.31253222 289:0.06343662 291:0.29350671 292:0.11416344 294:0.22994347 297:0.0078120055 298:0.047438238 299:0.020870749 300:0.082023837 302:0.21079111 305:0.060764965 306:0.79351556 307:0.40445438 308:0.46433154 309:0.0084124487 311:0.051792808 312:0.0089336317 321:0.065671332 323:0.16329733 328:0.21172091 336:0.050240412 338:0.20804748 351:0.21265857 360:0.10109223 472:0.18976422 480:0.095074013 561:0.055646818 566:0.10206185 574:0.12835363 580:0.25793836 771:0.33011553 819:0.19936252 900:0.23558484 927:0.52371246 934:0.19607009 939:0.088723078 943:0.11198422 952:0.17952307 953:0.27067962 956:0.11704444 963:0.30806541 964:0.085678749 965:0.5265224 966:0.44950604 967:0.47630182 968:0.48689184 969:0.62066662 970:0.74273461 971:0.74273461 972:0.74273461 973:0.74273461 974:0.74273461 975:0.74273461 976:0.74273461 977:0.74273461 978:0.74273461 979:0.74273461 980:0.66571826 981:0.5265224 982:0.66571826 983:0.74273461 984:0.74273461 985:0.42793316 986:0.5265224 987:0.74273461 988:0.74273461 989:0.74273461 990:0.74273461 991:0.74273461 992:0.74273461 993:0.74273461 994:0.74273461 995:0.66571826 996:0.66571826 997:0.62066662 998:0.74273461 999:0.74273461 1000:0.74273461 1001:0.66571826 1002:0.74273461 1003:0.62066662 1004:0.74497938 1005:0.66571826 1006:0.74273461 1007:0.74273461 1008:0.66571826 1009:0.74273461 1010:0.74273461 1011:0.74273461 1012:0.74273461 1013:0.74273461 1014:0.74273461 1015:0.66571826 1016:0.74273461 1017:0.74273461 1018:0.74273461 1019:0.74273461 1020:0.74273461 1021:0.74273461 1022:0.31031016 1023:0.62066662 1024:0.66571826 1025:0.66571826 1026:0.74273461 1027:0.74273461 1028:0.74273461 1029:0.74273461 1030:0.74273461 1031:0.74273461 1032:0.74273461 1033:0.66571826 1034:0.54365027 1035:0.74273461 1036:0.74273461 1037:0.74273461 1038:0.66571826 1039:0.66571826 1040:0.74273461 1041:0.74273461 1042:0.74273461 1043:0.74273461 1044:0.74273461 1045:0.54365027 1046:0.74273461 1047:0.74273461 1048:0.74273461 1049:0.74273461 1050:0.74273461 1051:0.74273461 1052:0.74273461 1053:0.74273461 1054:0.74273461 1055:0.74273461 1056:0.74273461 1057:0.74273461 1058:0.51168555 1059:0.48689184 1060:0.36118051 1061:0.49859858 1062:0.56390822 1063:0.44184017 1064:0.66571826 1065:0.74273461 1066:0.74273461 1067:0.74273461 1068:0.74273461 1069:0.74273461 1070:0.74273461 1071:0.74273461 1072:0.74273461 1073:0.74273461 1074:0.74273461 1075:0.74273461 1076:0.74273461 1077:0.74273461 1078:0.74273461 1079:0.74273461 1080:0.74273461 1081:0.74273461 1082:0.74273461 1083:0.74273461 1084:0.74273461 1085:0.74273461 1086:0.74273461 1087:0.74273461 1088:0.74273461 1089:0.74273461 1090:0.74273461 1091:0.74273461 1092:0.74273461 1093:0.74273461 1094:0.74273461 1095:0.66571826 1096:0.74273461 1097:0.74273461 1098:0.74273461 1099:0.74273461 1100:0.74273461 1101:0.74273461 1102:0.62066662 1103:0.5887019 1104:0.74273461 1105:0.74273461 1106:0.74273461 1107:0.74273461 1108:0.74273461 1109:0.74273461 1110:0.74273461 1111:0.74273461 1112:0.74273461 1113:0.74273461 1114:0.74273461 1115:0.74273461 1116:0.56390822 1117:0.74273461 1118:0.62066662 1119:0.74273461 1120:0.56390822 1121:0.74273461 1122:0.66571826 1123:0.66571826 1124:0.74273461 1125:0.74273461 1126:0.74273461 1127:0.74273461 1128:0.74273461 1129:0.74273461 1130:0.33855841 1131:0.47630182 1132:0.74273461 1133:0.74273461 1134:0.74273461 1135:0.74273461 1136:0.74273461 1137:0.74273461 1138:0.74273461 1139:0.74273461 1140:0.74273461 1141:0.74273461 1142:0.74273461 1143:0.74273461 1144:0.74273461 1145:0.74273461 1146:0.40445438 1147:0.20020109 1148:0.3248235 1149:0.15627745 1150:0.42158222 1151:0.56390822 1152:0.62066662 1153:0.66571826 1154:0.74273461 1155:0.34152153 1156:0.23443341 1157:0.74273461 1158:0.74273461 1159:0.74273461 1160:0.74273461 1161:0.49859858 1162:0.2974754 1163:0.37248969 1164:0.62066662 1165:0.46663389 1166:0.74273461 1167:0.66571826 1168:0.62066662 1169:0.74273461 1170:0.74273461 1171:0.74273461 1172:0.40987548 1173:0.51168555 1174:0.5265224 1175:0.29350671 1176:0.74273461 1177:0.74273461 1178:0.47630182 1179:0.54365027 1180:0.23443341 1181:0.65487605 1182:0.73718131 1183:0.51168555 1184:1.0873005 1185:0.51168555 1186:0.66571826 1187:0.74273461 1188:0.74273461 1189:0.66571826 1190:0.46663389 1191:0.74273461 1192:0.38508177 1193:0.74273461 1194:0.74273461 1195:0.74273461 1196:0.74273461 1197:0.62066662 1198:0.2194535 1199:0.56390822 1200:0.5887019 1201:0.19936252 1202:0.74273461 1203:0.74273461 1204:0.74273461 1205:0.22884877 1206:0.74273461 1207:0.49859858 1208:0.47630182 1209:0.62066662 1210:0.74273461 1211:0.45774028 1212:0.5887019 1213:0.31494045 1214:0.74273461 1215:0.74273461 1216:0.74273461 1217:0.74273461 1218:0.49859858 1219:0.46663389 1220:0.42793316 1221:0.74273461 1222:0.74273461 1223:1.3485181 1224:0.34769598 1225:0.74273461 1226:0.66571826 1227:0.74273461 1228:0.66571826 1229:0.31494045 1230:0.22884877 1231:0.37981144 1232:0.3248235 1233:0.26910353 1234:0.32743803 1235:0.2915743 1236:0.33855841 1237:0.74273461 1238:0.74273461 1239:0.74273461 1240:0.74273461 1241:0.74273461 1242:0.49859858 1243:0.74273461 1244:0.74273461 1245:0.74273461 1246:0.74273461 1247:0.66571826 1248:0.74273461 1249:0.66571826 1250:0.32226911 1251:0.40445438 1252:0.46663389 1253:0.46663389 1254:0.74273461 1255:0.74273461 1256:0.74273461 1257:0.74273461 1258:0.74273461 1259:0.66571826 1260:0.74273461 1261:0.74273461 1262:0.66571826 1263:0.66571826 1264:0.74273461 1265:0.74273461 1266:0.74273461 1267:0.62066662 1268:0.54365027 1269:0.51168555 1270:0.47630182 1271:0.74273461 1272:0.74273461 1273:0.74273461 1274:0.74273461 1275:0.74273461 1276:0.66571826 1277:0.74273461 1278:0.66571826 1279:0.56390822 1280:0.5887019 1281:0.44184017 1282:0.31260118 1283:0.36859065 1284:0.49859858 1285:0.33011553 1286:0.56390822 1287:0.66571826 1288:0.38961753 1289:0.62066662 1290:0.5887019 1291:0.66571826 1292:0.74273461 1293:0.42158222 1294:0.74273461 1295:0.74273461 1296:0.74273461 1297:0.74273461 1298:0.66571826 1299:0.74273461 1300:0.74273461 1301:0.74273461 1302:0.28597087 1303:0.74273461 1304:0.74273461 1305:0.74273461 1306:0.74273461 1307:0.48689184 1308:0.28597087 1309:0.045748301 1310:0.3509168 1311:0.40987548 1312:0.32743803 1313:0.12747528 1314:0.5887019 1315:0.14243715 1316:0.66571826 1317:1.0873005 1318:0.74273461 1319:0.31733003 1320:0.28238633 1321:0.66571826 1322:0.29350671 1323:0.62988091 1324:0.9309305 1325:0.41073996 1326:0.37653053 1327:0.39540821 1328:0.74273461 1329:0.74273461 1330:0.40987548 1331:0.22045904 1332:0.33285913 1333:0.38771695 1334:0.33855841 1335:0.45774028 1336:0.41696325 1337:0.37248969 1338:0.74273461 1339:0.38072392 1340:1.1978564 1341:0.31173959 1342:0.32743803 1343:0.62066662 1344:0.11824565 1345:0.22608618 1346:0.34152153 1347:0.66571826 1348:0.74273461 1349:0.54365027 1350:0.28967491 1351:0.33855841 1352:0.20625533 1353:0.27891383 1354:0.45774028 1355:0.27891383 1356:0.39434639 1357:0.66571826 1358:0.74273461 1359:0.19853021 1360:0.33011553 1361:0.24152802 1362:0.74273461 1363:1.0233711 1364:0.38508177 1365:0.50619835 1366:0.5887019 1367:0.18163952 1368:0.2332938 1369:0.27891383 1370:0.18092954 1371:0.15021032 1372:0.74273461 1373:0.39434639 1374:0.47630182 1375:0.66571826 1376:0.35765287 1377:0.54365027 1378:0.34769598 1379:0.5887019 1380:0.2915743 #
-0.004541390251472144506950101572329 160:0.12143587 164:0.28368244 169:0.22854151 179:0.390398 187:0.23643799 189:0.068319306 192:0.21955636 212:0.062067382 288:0.21636847 290:0.032547697 292:0.026345408 297:0.0087885056 299:0.11559184 300:0.031547628 303:0.18006203 304:0.033582218 305:0.084136106 306:0.18311897 309:0.01892801 311:0.02689242 312:0.0092772329 313:0.20735598 316:0.20945375 318:0.21969002 319:0.21969002 321:0.18185906 330:0.12456631 331:0.084412545 336:0.06956365 337:0.13574083 360:0.043741833 477:0.27300903 491:0.061852209 501:0.20735598 516:0.30092484 530:0.37956101 546:0.21560124 549:0.46088189 560:0.014333044 561:0.025683146 562:0.10625437 563:0.29445031 564:0.083838485 566:0.070658199 567:0.13407457 575:0.097236671 583:0.27300903 590:0.40756288 596:0.390398 598:0.46088189 600:0.21327606 602:0.2764284 674:0.37637326 803:0.67415792 818:0.26357809 823:0.23643799 878:0.15694006 885:0.20185913 907:0.15620396 913:0.16230005 919:0.65949482 927:0.051795736 929:0.15995704 934:0.27148166 939:0.24569468 941:0.390398 956:0.081030764 962:0.10898104 964:0.059316054 1022:0.21483012 1198:0.15192935 1201:0.1380202 1281:0.30588934 1319:0.21969002 1332:0.46088189 1334:0.23438658 1341:0.071939901 1342:0.22668785 1345:0.052173737 1353:0.19309419 1359:0.13744399 1368:0.16151109 1374:0.32974741 1378:0.24071258 1381:0.36451551 1382:0.51420093 1383:0.51420093 1384:0.51420093 1385:0.51420093 1386:0.51420093 1387:0.51420093 1388:0.51420093 1389:0.51420093 1390:0.51420093 1391:0.30092484 1392:0.30092484 1393:0.34518364 1394:0.40756288 1395:0.35424387 1396:0.14722516 1397:0.16637102 1398:0.46088189 1399:0.51420093 1400:0.51420093 1401:0.37637326 1402:0.32974741 1403:0.22138071 1404:0.28375995 1405:0.46088189 1406:0.51420093 1407:0.390398 1408:0.40756288 1409:0.46088189 1410:0.42969227 1411:0.51420093 1412:0.51420093 1413:0.42969227 1414:0.51420093 1415:0.51420093 1416:0.51420093 1417:0.51420093 1418:0.81512576 1419:0.92176378 1420:0.92176378 1421:0.92176378 1422:0.65949482 1423:0.42969227 1424:0.21969002 1425:0.37637326 1426:0.31119651 1427:0.27300903 1428:0.390398 1429:0.36451551 1430:0.51420093 1431:0.46088189 1432:0.42969227 1433:0.2962614 1434:0.28375995 1435:0.51420093 1436:0.51420093 1437:0.51420093 1438:0.51420093 1439:0.51420093 1440:0.46088189 1441:0.51420093 1442:0.32974741 1443:0.46088189 1444:0.51420093 1445:0.51420093 1446:0.51420093 1447:0.51420093 1448:0.36451551 1449:0.42969227 1450:0.42969227 1451:0.46088189 1452:0.51420093 1453:0.51420093 1454:0.51420093 1455:0.40756288 1456:0.42969227 1457:0.40756288 1458:0.28375995 1459:0.46088189 1460:0.51420093 1461:0.27300903 1462:0.32305422 1463:0.51420093 1464:0.51420093 1465:0.51420093 1466:0.51420093 1467:0.51420093 1468:0.51420093 1469:0.51420093 1470:0.51420093 1471:0.51420093 1472:0.51420093 1473:0.51420093 1474:0.46088189 1475:0.46088189 1476:0.51420093 1477:0.51420093 1478:0.51420093 1479:0.51420093 1480:0.51420093 1481:0.51420093 1482:0.51420093 1483:0.51420093 1484:0.51420093 1485:0.51420093 1486:0.51420093 1487:0.51420093 1488:0.51420093 1489:0.51420093 1490:0.51420093 1491:0.51420093 1492:0.51420093 1493:0.51420093 1494:0.51420093 1495:0.390398 1496:0.51420093 1497:0.51420093 1498:0.51420093 1499:0.42969227 1500:0.51420093 1501:0.36451551 1502:0.51420093 1503:0.51420093 1504:0.51420093 1505:0.51420093 1506:0.51420093 1507:0.51420093 1508:0.42969227 1509:0.51420093 1510:0.51420093 1511:0.46088189 1512:0.51420093 1513:0.51420093 1514:0.51420093 1515:0.51420093 1516:0.51420093 1517:0.51420093 1518:0.51420093 1519:0.51420093 1520:0.51420093 1521:0.51420093 1522:0.51420093 1523:0.51420093 1524:0.31689709 1525:0.51420093 1526:0.51420093 1527:0.46088189 1528:0.51420093 1529:0.51420093 1530:0.32305422 1531:0.36451551 1532:0.40756288 1533:0.42969227 1534:0.42969227 1535:0.46088189 1536:0.51420093 1537:0.51420093 1538:0.51420093 1539:0.51420093 1540:0.51420093 1541:0.51420093 1542:0.51420093 1543:0.46088189 1544:0.42969227 1545:0.33707896 1546:0.36451551 1547:0.51420093 1548:0.51420093 1549:0.51420093 1550:0.51420093 1551:0.390398 1552:0.51420093 1553:0.51420093 1554:0.51420093 1555:0.51420093 1556:0.51420093 1557:0.51420093 1558:0.51420093 1559:0.40756288 1560:0.51420093 1561:0.42969227 1562:0.37637326 1563:0.40756288 1564:0.40756288 1565:0.40756288 1566:0.51420093 1567:0.51420093 1568:0.51420093 1569:0.51420093 1570:0.51420093 1571:0.51420093 1572:0.51420093 1573:0.46088189 1574:0.51420093 1575:0.51420093 1576:0.51420093 1577:0.51420093 1578:0.51420093 1579:0.51420093 1580:0.51420093 1581:0.51420093 1582:0.51420093 1583:0.19797984 1584:0.21327606 1585:0.51420093 1586:0.51420093 1587:0.51420093 1588:0.51420093 1589:0.46088189 1590:0.51420093 1591:0.51420093 1592:0.51420093 1593:0.67463344 1594:0.2554971 1595:0.19925132 1596:0.34518364 1597:0.23643799 1598:0.11959331 1599:0.2962614 1600:0.51420093 1601:0.30092484 1602:0.18006203 1603:0.21969002 1604:0.46088189 1605:0.32974741 1606:0.2918646 1607:0.34518364 1608:0.51420093 1609:0.33707896 1610:0.51420093 1611:0.51420093 1612:0.51420093 1613:0.81512576 1614:0.92176378 1615:0.92176378 1616:0.61177868 1617:0.22310939 1618:0.26357809 1619:0.31119651 1620:0.46088189 1621:0.26067498 1622:0.19549823 1623:0.46088189 1624:0.41188902 1625:0.51420093 1626:0.37637326 1627:0.32305422 1628:0.24760583 1629:0.21175277 1630:0.46088189 1631:0.51420093 1632:0.51420093 1633:0.51420093 1634:0.1680617 1635:0.20879383 1636:0.36451551 1637:0.37637326 1638:0.51420093 1639:0.46088189 1640:0.36451551 1641:0.37637326 1642:0.27300903 1643:0.26357809 1644:0.51420093 1645:0.40756288 1646:0.51420093 1647:0.51420093 1648:0.51420093 1649:0.51420093 1650:0.51420093 1651:0.51420093 1652:0.42969227 1653:0.51420093 1654:0.42969227 1655:0.46088189 1656:0.40756288 1657:0.51420093 1658:0.51420093 1659:0.51420093 1660:0.51420093 1661:0.46088189 1662:0.51420093 1663:0.28000686 1664:0.42969227 1665:0.42969227 1666:0.42969227 1667:0.390398 1668:0.51420093 1669:0.51420093 1670:0.51420093 1671:0.51420093 1672:0.51420093 1673:0.51420093 1674:0.51420093 1675:0.40756288 1676:0.37637326 1677:0.28375995 1678:0.51420093 1679:0.51420093 1680:0.51420093 1681:0.51420093 1682:0.51420093 1683:0.390398 1684:0.24294239 1685:0.36451551 1686:0.46088189 1687:0.37637326 1688:0.46088189 1689:0.46088189 1690:0.42969227 1691:0.51420093 1692:0.51420093 1693:0.51420093 1694:0.51420093 1695:0.51420093 1696:0.51420093 1697:0.51420093 1698:0.51420093 1699:0.31240791 1700:0.14854012 1701:0.51420093 1702:0.42969227 1703:0.30588934 1704:0.51420093 1705:0.22854151 1706:0.28375995 1707:0.36451551 1708:0.30092484 1709:0.42969227 1710:0.51420093 1711:0.51420093 1712:0.51420093 1713:0.51420093 1714:0.51420093 1715:0.34518364 1716:0.390398 1717:0.28375995 1718:0.34518364 1719:0.24523878 1720:0.32974741 1721:0.51420093 1722:0.37637326 1723:0.51420093 1724:0.40756288 1725:0.46088189 1726:0.51420093 1727:0.46088189 1728:0.33707896 1729:0.390398 1730:0.36451551 1731:0.37637326 1732:0.40756288 1733:0.40756288 1734:0.40756288 1735:0.51420093 1736:0.30588934 1737:0.51420093 1738:0.51420093 1739:0.51420093 1740:0.51420093 1741:0.42969227 1742:0.37637326 1743:0.42969227 1744:0.51420093 1745:0.51420093 1746:0.390398 1747:0.36451551 1748:0.51420093 1749:0.36451551 1750:0.51420093 1751:0.073423997 1752:0.11560217 1753:0.51420093 1754:0.31689709 1755:0.40756288 1756:0.13137522 1757:0.11017987 1758:0.31689709 1759:0.46088189 1760:0.81512576 1761:0.92176378 1762:0.19925132 1763:0.12575044 1764:0.20798352 1765:0.36451551 1766:0.13084655 1767:0.33707896 1768:0.15995704 1769:0.40756288 1770:0.11959331 1771:0.26067498 1772:0.42969227 1773:0.28375995 1774:0.2962614 1775:0.12624513 1776:0.51420093 1777:0.51420093 1778:0.2764284 1779:0.35424387 1780:0.390398 1781:0.51420093 1782:0.51420093 1783:0.46088189 1784:0.26973522 1785:0.20735598 1786:0.25004804 1787:0.46088189 1788:0.33707896 1789:0.42969227 1790:0.23044094 1791:0.32305422 1792:0.51420093 1793:0.28375995 1794:0.12143587 1795:0.34518364 1796:0.36451551 1797:0.51420093 1798:0.51420093 1799:0.390398 1800:0.46088189 1801:0.46088189 1802:0.18363087 1803:0.31689709 1804:0.11690968 1805:0.25004804 1806:0.61177868 1807:0.42969227 1808:0.15919164 1809:0.22138071 1810:0.14529394 1811:0.36451551 1812:0.36451551 1813:0.28000686 1814:0.31119651 1815:0.40756288 1816:0.390398 1817:0.25257033 1818:0.22668785 1819:0.30092484 1820:0.2877056 #
0.0078414047443896468803092858479431 164:0.15366133 189:0.037006289 212:0.10085949 288:0.26369905 289:0.071366191 290:0.052890006 291:0.33019507 292:0.042811289 294:0.25868639 297:0.0054928162 298:0.053368017 299:0.046959184 305:0.068360582 309:0.011830006 311:0.072833635 312:0.010050336 321:0.073880248 331:0.13717039 333:0.20040092 337:0.22057885 347:0.48900288 360:0.014216095 404:0.74893308 490:0.10549626 496:0.74893308 497:0.74893308 560:0.023291197 561:0.041735113 566:0.076546386 573:0.63439673 574:0.28879565 589:0.27590936 628:0.32171723 750:0.29098785 781:0.28322139 782:0.31968465 800:0.28939548 848:0.094710715 878:0.25502759 888:0.089168735 889:0.20354573 900:0.53006589 904:0.40235949 909:0.067285307 910:0.27590936 958:0.083093353 959:0.12727313 1162:0.33465981 1163:0.4190509 1309:0.10293368 1315:0.1602418 1319:0.3569963 1331:0.24801642 1333:0.14539385 1352:0.23203725 1699:0.25383142 1736:0.49707019 1752:0.18785352 1779:0.57564628 1786:0.40632805 1802:0.099466719 1832:0.50569427 1833:0.53583956 1938:0.49707019 1939:0.19433913 1980:0.43321699 2024:0.3099899 2027:0.14539385 2272:0.50221956 2325:0.61160654 2368:0.22713466 2385:0.26900154 2388:0.49707019 2394:0.53583956 2406:0.19141501 2760:0.13439249 2763:0.26245552 2767:0.27878305 3149:0.53268373 3562:0.25502759 3810:0.3876366 3902:0.2790668 3973:0.34909892 4058:0.1837095 4071:0.27733794 4189:0.70335269 4292:0.25383142 4379:0.47428 4439:0.32171723 4546:0.17142572 5140:0.49707019 5213:0.39851302 5381:0.54775333 5440:0.48900288 5453:0.69824994 5454:0.69824994 5455:0.69824994 5574:0.27310026 5582:0.51495779 5583:0.63439673 5584:0.66228968 5585:0.69824994 6040:0.41466448 6288:0.39851302 6510:0.35974365 6835:0.37446654 6840:0.57564628 7230:0.61160654 7243:0.66228968 7469:0.48142481 7476:0.41466448 7616:0.26118648 7666:0.4190509 8129:0.48142481 8298:0.46752161 8360:0.4436397 8521:0.47428 8535:0.74893308 8608:0.45501116 8609:0.43321699 8766:0.46110994 8776:0.69824994 8832:0.33695346 8833:0.4104268 9177:0.33465981 9629:0.38421172 10285:0.47428 10621:0.59233767 10622:0.52496314 12264:0.59233767 12428:0.54775333 12805:0.46110994 12988:0.51495779 13145:0.25868639 13263:0.35430801 13383:0.46110994 13394:0.69824994 13801:0.66228968 14246:0.74893308 17399:0.74893308 17450:0.53583956 22557:0.47428 24866:0.57564628 24921:0.50569427 24922:0.46110994 29751:0.69824994 30278:0.63439673 30772:0.74893308 30773:0.74893308 30917:0.74893308 30918:0.74893308 31307:0.69824994 36527:0.33695346 36533:0.31186962 38669:0.61160654 43260:0.74893308 43420:0.5609234 43540:0.5609234 51660:0.69824994 51661:0.69824994 51726:0.69824994 51727:0.59233767 55268:0.74893308 55367:0.74893308 55368:0.74893308 57150:0.69824994 57188:0.66228968 61330:0.66228968 65217:0.74893308 66386:0.63439673 66423:0.74893308 67476:0.48142481 67502:0.4436397 70883:0.66228968 71064:0.83557647 71065:0.83557647 71066:0.83557647 71067:0.74893308 71068:0.83557647 71069:0.83557647 71070:0.83557647 71071:0.83557647 71072:0.83557647 71073:0.83557647 71074:0.83557647 71075:0.83557647 71076:0.83557647 71077:0.83557647 71078:0.83557647 71079:0.83557647 71080:0.83557647 71081:0.83557647 71082:0.83557647 71083:0.83557647 71084:0.69824994 71085:0.83557647 71086:0.74893308 71087:0.83557647 71088:0.83557647 71089:0.83557647 71090:0.83557647 71091:0.74893308 71092:0.83557647 71093:0.83557647 71094:0.83557647 71095:0.83557647 71096:0.83557647 71097:0.83557647 71098:0.83557647 71099:0.83557647 71100:0.83557647 71101:0.83557647 71102:0.83557647 71103:0.83557647 71104:0.83557647 71105:0.83557647 71106:0.83557647 71107:0.83557647 71108:0.66228968 71109:0.74893308 71110:0.83557647 71111:0.83557647 71112:0.83557647 71113:0.66228968 71114:0.69824994 71115:0.69824994 71116:0.83557647 71117:0.83557647 71118:0.83557647 71119:0.83557647 71120:0.83557647 71121:0.74893308 71122:0.83557647 71123:0.83557647 71124:0.83557647 71125:0.74893308 71126:0.83557647 71127:0.69824994 71128:0.69824994 71129:0.83557647 71130:0.69824994 71131:0.83557647 71132:0.83557647 71133:0.83557647 71134:0.83557647 71135:0.83557647 71136:0.83557647 71137:0.83557647 71138:0.5609234 71139:0.83557647 71140:0.83557647 71141:0.74893308 71142:0.74893308 #
0.0034354982216685033685754646626265 189:0.059210066 242:0.677755 253:0.47883046 288:0.1406395 291:0.52831209 297:0.0035154023 298:0.085388824 299:0.075134695 300:0.032809533 309:0.003785602 311:0.11653382 312:0.0040201345 316:0.13614494 321:0.11820839 333:0.32064146 336:0.090432741 351:0.38278541 358:0.20996442 359:0.44374073 360:0.11372876 371:0.37942401 509:0.40804416 562:0.27626136 585:0.80911088 587:0.53185201 588:0.3618829 927:0.13466892 934:0.35292616 946:0.44605288 954:0.4872233 956:0.21067999 964:0.15422174 1163:0.67048144 1175:0.52831209 1233:0.48438638 1282:0.56268215 1309:0.16469389 1320:0.50829542 1333:0.46526033 1341:0.37408748 1368:0.20996442 1370:0.32567319 1624:0.5354557 1635:0.54286397 1764:0.27037859 1802:0.63658702 1808:0.41389823 1817:0.65668285 1833:0.85734332 1938:0.79531229 1964:0.58938843 2082:1.0150348 2232:0.25548798 2247:0.85734332 2248:0.7824046 2363:0.25281534 2364:0.34020102 2368:0.36341545 2379:0.4930208 2418:0.47610933 2419:0.70982349 2521:0.29833096 2522:0.44374073 2596:0.39322257 2763:0.41992885 2767:0.44605288 3027:0.70131159 3139:0.56268215 3418:0.64377517 3925:0.54286397 4046:0.40804416 4659:0.3712596 4751:1.1171999 4832:1.0596634 4849:0.63762081 5213:0.63762081 5265:0.41192779 5354:0.92103404 5760:0.58468235 5808:0.58468235 5818:0.58468235 5852:0.42405272 6297:0.89747745 6409:0.64377517 7476:0.66346318 7633:0.72801787 8128:0.59914643 8280:0.75884801 8395:0.92103404 10427:0.61473876 10507:0.47342473 10528:0.77027971 11529:0.83994102 11536:0.62021858 11665:0.83994102 11671:0.62021858 11886:1.0150348 11987:1.0150348 12464:0.50829542 14049:0.74803454 15307:0.97857046 15349:0.94774032 15361:1.1171999 15681:0.68530303 15689:0.65012491 17259:0.7824046 17710:1.1171999 19374:0.80911088 19782:0.63165027 20878:0.73777586 21547:0.97857046 22166:0.92103404 22510:0.8764053 22568:0.80911088 23400:0.97857046 23502:0.97857046 23503:0.8764053 23622:0.82393247 23623:0.80911088 24897:1.0596634 26854:0.82393247 27211:0.73777586 27584:0.94774032 27585:0.7824046 29807:0.94774032 29934:0.94774032 33640:1.0596634 36519:1.1171999 37253:1.1982929 40380:1.1982929 47044:0.97857046 49072:0.94774032 49387:1.0150348 52370:0.92103404 52409:0.89747745 52411:1.1171999 60536:1.0150348 62200:0.97857046 66928:1.1171999 71143:1.1982929 71144:1.1171999 71145:1.1171999 71146:1.3369223 71147:1.0150348 71148:1.3369223 71149:1.1982929 71150:1.3369223 71151:1.1982929 71152:1.1982929 71153:1.3369223 71154:1.3369223 71155:1.3369223 71156:1.3369223 71157:1.3369223 71158:1.3369223 71159:1.3369223 71160:1.3369223 71161:1.3369223 71162:1.3369223 71163:1.3369223 71164:1.3369223 71165:1.3369223 71166:1.3369223 71167:1.3369223 71168:1.3369223 71169:1.3369223 71170:1.1171999 71171:1.1171999 71172:1.3369223 71173:1.3369223 71174:1.3369223 71175:0.94774032 71176:1.3369223 71177:1.3369223 71178:1.3369223 71179:1.3369223 71180:1.3369223 71181:1.3369223 71182:1.3369223 71183:1.3369223 71184:1.1171999 71185:1.1982929 71186:1.1982929 71187:1.3369223 71188:1.3369223 71189:1.3369223 71190:1.3369223 71191:1.3369223 71192:1.3369223 71193:1.3369223 71194:1.3369223 71195:1.3369223 71196:0.92103404 71197:1.1982929 71198:1.3369223 71199:1.3369223 71200:1.3369223 71201:1.3369223 71202:1.3369223 71203:1.3369223 71204:1.3369223 71205:1.0596634 71206:1.0596634 71207:1.3369223 71208:1.1171999 71209:1.3369223 71210:1.1982929 71211:1.3369223 71212:1.1982929 71213:1.1982929 71214:1.3369223 71215:1.3369223 71216:1.3369223 71217:1.3369223 71218:1.1982929 71219:1.3369223 #
0.0089899296681397247721356791316794 50:0.29289299 147:0.58442634 164:0.40976354 166:0.46546525 189:0.04934172 198:0.19253044 285:0.43644443 286:0.55288601 288:0.35159877 292:0.11416344 297:0.0087885056 300:0.041011918 302:0.31618667 304:0.072761476 309:0.0063093365 312:0.010050336 330:0.13494684 333:0.26720122 336:0.075360619 356:0.39675778 360:0.018954795 361:0.5168488 362:0.60668153 371:0.31618667 374:0.45879769 375:0.23439917 376:0.29410514 445:0.58442634 446:0.57108587 467:0.43736145 475:0.40365532 480:0.28522202 491:0.13401312 534:0.57108587 535:0.56479579 554:0.24404265 558:0.096264809 560:0.093164787 561:0.13911705 563:0.31898785 566:0.10206185 574:0.19253044 580:0.12896918 593:0.55288601 632:0.65200382 727:0.8154754 750:0.38798383 764:0.18414699 816:0.7897836 867:0.53135067 868:0.62336212 888:0.11889165 889:0.27139431 926:0.47241068 939:0.13308461 958:0.036930379 959:0.16969751 1149:0.23441617 1308:0.4289563 1309:0.13724491 1583:0.4289563 1594:0.27678853 1751:0.15908532 1808:0.34491521 1939:0.25911883 1945:0.28123325 2025:0.29410514 2369:0.63237333 2409:0.49517328 2432:0.66276026 2530:0.45556134 2760:0.17918999 2856:0.74789786 3027:0.58442634 3028:0.7303378 3139:0.46890178 3424:0.40365532 3810:0.5168488 3890:0.24768579 3944:0.93099993 3973:0.46546525 4058:0.24494599 4071:0.36978394 4634:0.76752836 4659:0.309383 4661:0.29904377 4870:0.63237333 4896:0.8154754 4897:0.76752836 5091:0.63237333 5105:0.76752836 5144:0.57762265 5246:0.49928871 5256:0.4289563 5814:0.57762265 6670:0.41085067 6693:0.6418997 6769:0.69995087 6830:0.37563249 6848:0.48340368 6982:0.69995087 7666:0.55873454 8069:0.8154754 8129:0.6418997 8143:0.48340368 9482:0.84586233 9501:0.8154754 9645:0.6866104 9659:0.7303378 9728:0.99857742 10537:0.88305289 10538:0.88305289 10539:0.93099993 10583:0.88305289 10584:0.59892821 10585:0.93099993 11177:0.7303378 11727:0.65200382 11764:0.61481327 11802:0.62336212 12988:0.6866104 13820:0.7897836 15039:0.69995087 15658:0.59151959 15699:0.50350833 16906:0.41837075 17600:0.7303378 18361:0.67425907 19697:0.93099993 19834:0.93099993 24711:0.93099993 24809:0.8154754 28010:0.48340368 32590:0.93099993 32654:0.84586233 35475:0.99857742 36500:0.49517328 36501:0.55288601 36502:0.7897836 36527:0.44927129 36528:0.7897836 36533:0.41582617 37308:0.84586233 41843:0.88305289 42470:0.93099993 42533:0.88305289 42534:0.8154754 43812:0.99857742 43841:0.8154754 45288:0.93099993 45683:0.8154754 50350:0.61481327 51145:0.99857742 52210:0.93099993 53101:0.71445274 61128:0.99857742 61215:0.99857742 64836:0.99857742 71220:1.114102 71221:0.99857742 71222:0.99857742 71223:1.114102 71224:1.114102 71225:1.114102 71226:1.114102 71227:0.99857742 71228:1.114102 71229:1.114102 71230:1.114102 71231:0.99857742 71232:1.114102 71233:1.114102 71234:1.114102 71235:1.114102 71236:1.114102 71237:1.114102 71238:1.114102 71239:1.114102 71240:1.114102 71241:1.114102 71242:1.114102 71243:1.114102 71244:0.93099993 71245:0.84586233 71246:1.114102 71247:1.114102 71248:1.114102 71249:1.114102 71250:1.114102 71251:1.114102 71252:1.114102 71253:1.114102 71254:0.99857742 71255:0.99857742 71256:0.8154754 71257:0.99857742 71258:1.114102 71259:1.114102 71260:1.114102 71261:1.114102 71262:1.114102 71263:1.114102 71264:1.114102 #
0.0089899296681397247721356791316794 159:0.12030178 177:0.12159129 189:0.05382733 290:0.038465459 291:0.24014185 292:0.093406446 297:0.0047937306 298:0.038813103 299:0.085380338 309:0.010324369 311:0.031781949 312:0.010050336 316:0.061884061 323:0.13360691 328:0.17322621 331:0.099760279 360:0.031016937 375:0.063927047 490:0.076724552 562:0.12557335 566:0.027835049 780:0.25963366 848:0.068880521 853:0.25767857 878:0.18547462 888:0.064849988 889:0.14803326 909:0.097869538 927:0.12242628 939:0.14518322 942:0.19370316 943:0.091623448 956:0.095763631 958:0.060431529 959:0.092562273 1148:0.26576468 1163:0.3047643 1205:0.1872399 1211:0.37451476 1224:0.28447852 1231:0.10358494 1250:0.26367474 1309:0.037430428 1315:0.23307897 1325:0.16802998 1327:0.1617579 1333:0.21148196 1335:0.37451476 1341:0.17003977 1345:0.061659869 1346:0.55885345 1369:0.22820222 1403:0.26163176 1602:0.21280058 1699:0.18460467 1751:0.086773813 1794:0.14351511 1802:0.14467886 1832:0.36777768 1833:0.38970149 1938:0.3615056 2038:0.15716225 2210:0.22681427 2214:0.17246546 2232:0.1161309 2240:0.21046944 2272:0.091312647 2316:0.17399338 2355:0.14978719 2363:0.11491606 2366:0.23249795 2560:0.34001571 2703:0.48166522 2754:0.17955287 2788:0.30157417 3397:0.33535269 3417:0.27464092 3494:0.23700675 3572:0.37451476 3644:0.33091721 3691:0.18374297 4458:0.46137944 4482:0.22017562 4490:0.21398894 4554:0.3150669 4572:0.3150669 4773:0.48166522 4774:0.44480476 4844:0.44480476 4845:0.38179138 4851:0.37451476 4860:0.25205353 5128:0.29849222 5253:0.21398894 6274:0.27700233 6409:0.29262507 6965:0.26576468 7010:0.17476708 7242:0.28447852 7632:0.46795234 8946:0.34493092 8955:0.34001571 9162:0.22681427 9428:0.38970149 9790:0.29551134 9936:0.28982764 10499:0.38970149 10868:0.43079105 10869:0.44480476 10907:0.41865185 10908:0.43079105 10921:0.40794429 11474:0.46137944 11536:0.28191751 11671:0.28191751 12407:0.43079105 13261:0.26576468 13826:0.54467857 14007:0.25767857 14008:0.43079105 14046:0.25767857 14065:0.2557646 14273:0.3047643 14361:0.36777768 14629:0.40794429 14908:0.40794429 15015:0.44480476 16346:0.44480476 18544:0.5078181 18894:0.32668811 20972:0.54467857 23672:0.46137944 24284:0.54467857 24905:0.43079105 32931:0.40794429 36282:0.37451476 36410:0.44480476 41053:0.46137944 41700:0.5078181 43314:0.48166522 44756:0.48166522 49572:0.41865185 50086:0.5078181 52010:0.48166522 52213:0.46137944 52313:0.68003142 53378:0.5078181 53432:0.44480476 53531:0.44480476 56110:0.38179138 56152:0.38179138 56364:0.54467857 58532:0.54467857 64340:0.48166522 64933:0.5078181 67733:0.44480476 71265:0.54467857 71266:0.5078181 71267:0.607692 71268:0.607692 71269:0.607692 71270:0.607692 71271:0.39836606 71272:0.48166522 71273:0.607692 71274:0.607692 71275:0.607692 71276:0.607692 71277:0.607692 71278:0.607692 71279:0.607692 71280:0.607692 71281:0.607692 71282:0.607692 71283:0.607692 71284:0.607692 71285:0.607692 71286:0.607692 71287:0.607692 71288:0.607692 71289:0.607692 71290:0.607692 71291:0.607692 71292:0.607692 71293:0.607692 71294:0.607692 71295:0.607692 71296:0.607692 71297:0.54467857 71298:0.44480476 71299:0.48166522 71300:0.607692 71301:0.607692 71302:0.607692 71303:0.607692 71304:0.607692 71305:0.607692 71306:0.607692 71307:0.607692 71308:0.607692 71309:0.607692 71310:0.607692 71311:0.607692 71312:0.607692 71313:0.607692 71314:0.607692 71315:0.607692 71316:0.607692 71317:0.607692 71318:0.607692 71319:0.607692 71320:0.607692 71321:0.607692 71322:0.607692 71323:0.5078181 71324:0.607692 71325:0.5078181 71326:0.607692 71327:0.607692 71328:0.607692 71329:0.607692 71330:0.607692 71331:0.54467857 71332:0.54467857 71333:0.607692 71334:0.607692 71335:0.607692 71336:0.607692 71337:0.607692 71338:0.607692 71339:0.5078181 71340:0.54467857 71341:0.607692 71342:0.5078181 71343:0.607692 71344:0.54467857 71345:0.607692 71346:0.607692 71347:0.607692 71348:0.607692 71349:0.607692 71350:0.54467857 71351:0.607692 71352:0.607692 71353:0.607692 71354:0.607692 71355:1.0893571 71356:0.607692 71357:0.607692 71358:0.607692 71359:0.607692 71360:0.607692 71361:0.607692 71362:1.215384 71363:0.607692 71364:0.607692 71365:0.40794429 71366:0.48166522 71367:0.607692 71368:0.607692 71369:0.607692 71370:0.607692 71371:0.607692 71372:0.607692 71373:0.607692 71374:0.607692 71375:0.607692 71376:0.607692 71377:0.607692 71378:0.607692 71379:0.607692 71380:0.54467857 71381:0.607692 71382:0.607692 71383:0.607692 71384:0.607692 71385:0.607692 71386:0.607692 71387:0.607692 71388:0.607692 71389:0.5078181 71390:0.48166522 71391:0.5078181 71392:0.54467857 71393:0.607692 71394:0.5078181 71395:0.54467857 71396:0.607692 71397:1.215384 71398:0.607692 71399:0.607692 71400:0.607692 71401:0.607692 71402:0.607692 71403:0.607692 71404:0.607692 #
0.0056633423067265912034806696340183 51:0.2500197 177:0.38214406 187:0.4390991 189:0.042292904 198:0.1650261 199:0.17932373 285:0.18704762 288:0.10045679 289:0.081561364 291:1.1320974 292:0.14678156 293:0.42796177 297:0.0037665025 298:0.060992021 299:0.053667638 300:0.058588453 304:0.062366977 305:0.078126378 309:0.010816006 311:0.099886127 312:0.010050336 313:0.38508967 318:0.40799576 319:0.40799576 321:0.084434569 322:0.36885262 336:0.12918963 345:0.41434601 361:0.44301325 369:0.34801665 375:0.10045679 472:0.24398257 483:1.2247761 509:0.29146013 560:0.053237021 561:0.047697272 562:0.19732955 564:0.15570004 566:0.17496316 567:0.49799123 574:0.1650261 816:0.67695737 819:0.25632322 900:0.3028948 926:0.40492344 927:0.19238415 933:0.1690505 953:0.34801665 964:0.11015839 1149:0.20092815 1164:0.79799992 1201:0.25632322 1230:0.29423413 1231:0.16277632 1309:0.11763849 1344:0.30406025 1345:0.096894078 1350:0.74487835 1458:0.52698278 1642:0.50701678 1802:0.2273525 1810:0.2698316 2026:0.27341816 2027:0.1661644 2240:0.33073771 2274:0.49510512 2402:0.51336706 2404:0.37989429 2405:0.27101713 2406:0.21876001 2537:0.37989429 2724:0.40799576 2760:0.6143657 3125:0.23631054 3150:0.35427415 3425:0.24009506 3780:0.64105529 3885:1.4500496 3949:0.99021024 4319:0.49510512 4540:0.27341816 4576:0.49799123 4688:0.55886042 4826:0.72502482 5126:0.34801665 5156:0.4598394 5157:0.36081839 5260:0.35007218 5598:0.30897474 5678:0.64105529 5692:0.5343104 5927:0.5343104 7010:0.27463397 7524:0.33816051 8622:0.56808025 9437:0.67695737 9449:0.48411068 9739:0.85592353 10523:0.52001274 10658:0.65788144 12011:0.3014144 12037:0.65788144 12281:1.0400255 12598:0.65788144 12608:0.57793635 12751:0.55886042 12934:0.49510512 13184:0.56808025 13781:0.52698278 13817:0.6260038 13823:0.56808025 14992:0.79799992 16422:0.34202176 16832:0.45544344 16937:0.61238807 18395:0.52001274 19436:0.48950216 20002:0.6260038 20153:0.79799992 20207:0.56808025 20209:0.57793635 20438:0.79799992 20786:0.4789153 21555:0.61238807 22900:0.6989789 22956:0.61238807 24819:0.6989789 24841:0.6989789 27344:0.85592353 27571:0.57793635 29521:0.85592353 29573:0.6989789 32798:0.72502482 33184:0.49510512 44811:0.85592353 44906:0.85592353 44909:0.58852321 47839:0.85592353 47920:0.75690246 48003:0.75690246 50688:0.85592353 50784:0.85592353 59327:0.75690246 59410:0.6989789 59754:0.85592353 61039:0.79799992 61766:0.79799992 61818:0.79799992 61819:0.72502482 62742:0.79799992 62750:0.79799992 64329:0.85592353 69189:0.79799992 69498:0.85592353 71405:0.6989789 71406:0.95494455 71407:0.85592353 71408:0.95494455 71409:0.95494455 71410:0.95494455 71411:0.95494455 71412:0.85592353 71413:0.79799992 71414:0.95494455 71415:0.79799992 71416:0.72502482 71417:0.95494455 71418:0.85592353 71419:0.95494455 71420:0.95494455 71421:0.95494455 71422:0.95494455 71423:0.95494455 71424:1.7118471 71425:1.9098891 71426:0.95494455 71427:0.95494455 71428:0.95494455 71429:0.95494455 71430:0.95494455 71431:0.95494455 71432:0.95494455 71433:0.95494455 71434:0.95494455 71435:0.95494455 71436:0.95494455 71437:0.95494455 71438:0.95494455 71439:0.95494455 71440:0.95494455 71441:0.95494455 71442:0.95494455 71443:0.95494455 71444:0.95494455 71445:0.95494455 71446:0.95494455 71447:0.95494455 71448:0.95494455 71449:0.95494455 71450:0.95494455 71451:0.95494455 71452:0.95494455 71453:0.85592353 71454:0.95494455 71455:0.95494455 71456:0.79799992 71457:0.95494455 71458:0.95494455 71459:0.95494455 71460:0.85592353 71461:0.95494455 71462:0.95494455 71463:0.95494455 71464:0.95494455 71465:0.95494455 71466:0.95494455 71467:0.85592353 71468:0.85592353 71469:0.95494455 71470:0.95494455 71471:0.95494455 71472:0.95494455 71473:0.79799992 71474:0.95494455 71475:0.95494455 71476:0.95494455 71477:0.85592353 71478:0.95494455 71479:0.95494455 71480:0.95494455 71481:0.95494455 71482:0.95494455 71483:0.95494455 71484:0.95494455 71485:0.95494455 71486:0.95494455 71487:0.95494455 71488:0.95494455 71489:0.95494455 71490:0.95494455 71491:0.95494455 71492:0.95494455 71493:0.95494455 71494:0.95494455 71495:0.95494455 71496:0.6989789 71497:0.95494455 71498:0.79799992 71499:0.72502482 71500:0.79799992 71501:0.72502482 71502:0.95494455 71503:0.95494455 71504:1.7118471 71505:1.9098891 71506:0.95494455 71507:0.95494455 71508:0.95494455 71509:0.85592353 71510:0.95494455 71511:0.95494455 71512:0.95494455 71513:0.95494455 71514:0.95494455 71515:0.95494455 71516:0.95494455 71517:0.95494455 71518:0.95494455 71519:0.85592353 71520:0.95494455 71521:0.75690246 71522:0.95494455 71523:0.95494455 71524:0.95494455 71525:0.85592353 71526:0.95494455 71527:0.85592353 71528:0.79799992 71529:0.85592353 71530:0.85592353 71531:0.85592353 71532:0.95494455 71533:0.75690246 71534:0.85592353 71535:0.95494455 71536:0.95494455 71537:0.95494455 71538:0.95494455 71539:0.95494455 71540:0.95494455 71541:0.85592353 71542:0.95494455 71543:0.95494455 71544:0.79799992 71545:0.95494455 71546:0.6989789 71547:0.95494455 #
-0.0089899296681397247721356791316794 189:0.14802516 289:0.095154926 290:0.14104001 292:0.057081718 297:0.007323755 309:0.015773341 312:0.010050336 321:0.098506995 331:0.18289384 336:0.22608185 358:0.17497036 360:0.03790959 375:0.11719958 402:0.99857742 490:0.14066167 491:0.13401312 495:0.7303378 555:0.65200382 560:0.031054929 564:0.18165006 566:0.051030923 572:0.57108587 574:0.19253044 575:0.21067946 606:0.36787915 816:0.7897836 848:0.12628095 926:0.94482136 946:0.37171075 958:0.073860757 964:0.12851812 1341:0.1558698 1344:0.17736848 1397:0.36047053 1598:0.25911883 1602:0.39013439 1622:0.42357951 1700:0.32183692 1751:0.15908532 1766:0.28350085 1884:0.46546525 2355:0.27460986 2405:0.31618667 2521:0.24860914 2537:0.44321001 2622:0.34003681 2640:0.60668153 2707:0.48340368 2864:0.52637517 3033:0.45879769 3144:0.44026008 3412:0.43451238 3495:0.38376418 3501:0.39452061 3777:0.53647929 3902:0.18604454 3946:0.53647929 3947:0.41837075 4053:0.36978394 4054:0.40841752 4056:0.69995087 4058:0.24494599 4198:0.47965822 4238:0.57762265 4409:0.4462131 4661:0.59808755 5185:0.48723528 5567:0.33068857 5791:0.88305289 5792:0.52637517 5814:0.57762265 5815:0.52637517 5852:0.35337725 5853:0.42095476 5994:0.8154754 6039:0.39231306 6042:0.60668153 6138:0.8154754 7010:0.32040629 7242:0.52154392 7461:0.46546525 8757:0.84586233 8948:0.41837075 9298:0.54723573 9411:0.53135067 10172:0.76752836 10260:0.69995087 10261:0.60668153 10530:0.59151959 10531:0.61481327 10532:0.93099993 10533:0.99857742 10534:1.114102 10535:1.114102 10536:1.114102 10537:0.88305289 10538:0.88305289 10539:0.93099993 10540:1.114102 10541:1.114102 10542:0.76752836 10543:0.88305289 10544:1.114102 10545:1.114102 10546:1.114102 10547:1.114102 10548:1.114102 10549:1.114102 10550:1.114102 10551:0.7897836 10552:0.8154754 10553:0.99857742 10554:0.99857742 10555:0.93099993 10556:0.99857742 10557:0.99857742 10558:0.99857742 10559:0.8154754 10560:0.60668153 10561:0.59892821 10562:0.74789786 10563:1.114102 10564:1.114102 10565:0.88305289 10566:0.7897836 10567:0.88305289 10568:0.99857742 10569:1.114102 10570:1.114102 10571:1.114102 10572:0.99857742 10573:1.114102 10574:1.114102 10575:1.114102 10576:1.114102 10577:1.114102 10578:0.99857742 10579:0.93099993 10580:0.93099993 10581:1.114102 10582:0.93099993 10583:1.7661058 10584:0.59892821 10585:0.93099993 10586:0.88305289 10587:1.114102 10588:0.93099993 10589:1.114102 10590:1.114102 10591:0.69995087 10592:0.93099993 10593:0.84586233 10594:0.93099993 10595:0.6418997 10596:1.114102 10597:0.62336212 10598:0.99857742 10599:0.99857742 10600:0.84586233 10601:0.84586233 10602:1.114102 10603:1.114102 10604:0.99857742 10605:0.99857742 10606:0.59892821 10607:0.8154754 10608:0.88305289 10609:1.114102 10610:0.93099993 #
-0.0035569804991550371328634660983425 193:0.44321001 251:0.51228231 285:0.21822222 292:0.057081718 297:0.0029295019 298:0.071157359 300:0.054682557 305:0.27344233 309:0.012618673 311:0.058266908 312:0.0016750559 316:0.22690822 321:0.19701399 322:0.43032807 333:0.26720122 346:0.50094271 358:0.17497036 360:0.018954795 375:0.11719958 546:0.233568 558:0.096264809 560:0.062109858 562:0.4604356 580:0.12896918 600:0.23104906 764:0.18414699 852:0.27139431 933:0.19722559 939:0.13308461 943:0.16797632 958:0.036930379 1201:0.59808755 1205:0.34327316 1309:0.068622455 1333:0.38771695 1345:0.11304309 1594:0.27678853 2025:0.29410514 2026:0.31898785 2038:0.28813079 2272:0.16740651 2431:0.7303378 2537:0.44321001 2598:0.17676571 2611:0.54177076 2618:0.44927129 2760:1.0751399 3118:0.40365532 3149:0.35512248 3361:0.49115703 3481:0.46209812 4428:0.84586233 4972:0.8154754 5146:0.6418997 5158:0.58442634 5404:0.44026008 5574:0.36413369 6501:0.66276026 6814:0.57108587 7644:0.76752836 7978:0.84586233 8084:0.88305289 8273:0.8154754 8274:0.53647929 8329:0.4462131 8386:0.76752836 8398:0.53647929 8399:0.60668153 9453:0.8154754 9454:0.8154754 9629:0.51228231 9630:0.7897836 9975:0.88305289 10499:0.71445274 10523:0.60668153 11488:1.1688527 11973:0.88305289 12037:0.76752836 13598:0.52637517 15023:0.7303378 15358:0.88305289 15460:0.7897836 15699:0.50350833 16372:0.69995087 16422:0.39902538 16839:0.55288601 17495:0.8154754 18388:0.88305289 18402:0.84586233 18437:0.8154754 19521:0.8154754 20357:0.93099993 21997:0.93099993 22173:0.93099993 22174:0.84586233 22214:0.74789786 22215:0.88305289 27960:0.8154754 30076:0.84586233 30282:0.71445274 32906:0.99857742 32932:0.88305289 33213:0.84586233 33323:0.8154754 35391:0.99857742 35866:0.8154754 37539:0.76752836 37706:0.84586233 39788:0.93099993 41450:0.66276026 42346:0.88305289 54023:0.99857742 55648:0.88305289 61733:1.114102 61734:1.114102 61735:1.114102 61736:1.114102 61737:1.114102 61738:1.114102 61739:1.114102 61740:1.114102 61741:1.114102 61742:1.114102 61743:1.114102 61744:1.114102 61745:1.114102 61746:1.114102 61747:1.114102 61748:1.114102 61749:1.114102 61750:1.114102 61751:1.114102 61752:1.114102 61753:1.114102 61754:1.114102 61755:1.114102 61756:1.114102 61757:0.8154754 61758:0.93099993 61759:0.88305289 61760:1.114102 61761:0.99857742 61762:1.114102 61763:1.114102 61764:1.114102 61765:1.114102 61766:0.93099993 61767:1.114102 61768:1.114102 61769:1.114102 61770:1.114102 61771:1.114102 61772:1.114102 61773:1.114102 61774:1.114102 61775:1.114102 61776:1.114102 61777:0.99857742 61778:1.114102 61779:1.114102 61780:1.114102 61781:1.114102 61782:0.99857742 61783:1.114102 61784:1.114102 61785:1.114102 61786:1.114102 61787:1.114102 61788:1.114102 61789:1.114102 61790:1.114102 61791:0.99857742 61792:1.114102 61793:1.114102 61794:1.114102 61795:1.114102 61796:1.114102 61797:1.114102 61798:1.114102 61799:1.114102 61800:1.114102 61801:1.114102 61802:1.114102 61803:1.114102 61804:1.114102 61805:1.114102 61806:1.114102 61807:1.114102 61808:0.99857742 61809:1.114102 61810:1.114102 61811:0.99857742 61812:1.114102 61813:1.114102 61814:1.114102 61815:1.114102 61816:1.114102 61817:1.114102 61818:0.93099993 61819:0.84586233 61820:1.114102 61821:1.114102 61822:1.114102 61823:1.114102 61824:1.114102 61825:1.114102 61826:1.114102 61827:0.99857742 61828:1.114102 61829:1.114102 61830:1.114102 61831:0.99857742 61832:0.99857742 61833:0.8154754 61834:1.114102 61835:1.114102 61836:1.114102 61837:1.114102 61838:1.114102 61839:1.114102 61840:1.114102 61841:1.114102 61842:1.114102 61843:1.114102 61844:1.114102 61845:1.114102 61846:1.114102 61847:1.114102 61848:1.114102 61849:1.114102 61850:0.93099993 61851:1.114102 61852:1.114102 #
-0.0026221493814165409801109074550141 147:0.87663949 212:0.20171899 217:1.1218468 285:0.32733333 286:0.82932895 292:0.085622579 297:0.0087885056 300:0.020505959 305:0.13672116 309:0.009464005 312:0.0050251679 316:0.34036234 324:0.63536924 331:0.54868156 334:1.0299156 336:0.11304092 358:0.26245552 360:0.02843219 375:0.35159877 376:0.4411577 538:0.92221987 563:0.95696354 564:0.27247509 566:0.076546386 595:0.55756611 933:0.29583839 951:0.5917809 1201:0.44856566 1309:0.10293368 1368:0.26245552 1634:0.54620051 1770:0.38867825 1802:0.19893344 1818:0.73673552 1939:0.38867825 2004:0.76175642 2026:0.47848177 2232:0.63871998 2363:0.63203835 2431:1.0955067 2432:0.99414039 2530:0.68334198 3033:0.68819654 3615:0.75526249 4056:1.0499263 4919:1.1846753 5119:1.1846753 5760:1.4617058 5808:1.4617058 5818:1.4617058 6761:0.91002232 7445:1.1218468 7616:0.52237296 8045:1.2687935 8503:0.87663949 9175:0.64343446 10599:1.4978662 11528:1.3245794 11529:1.0499263 11665:1.0499263 11748:1.0113885 12011:0.52747518 15492:1.3964999 15493:1.4978662 15610:1.3245794 15611:1.3964999 15650:1.1218468 15686:1.2687935 16422:0.5985381 16820:0.92221987 17061:1.6711529 17062:1.6711529 17063:1.6711529 17064:1.1846753 17065:1.6711529 17066:1.4978662 17067:1.6711529 17068:1.4978662 17069:0.94856 17070:0.82932895 17071:1.6711529 17072:1.1218468 17073:1.3964999 17074:1.4978662 17075:1.6711529 17076:1.6711529 17077:1.6711529 17078:1.6711529 17079:1.6711529 17080:1.6711529 17081:1.6711529 17082:1.6711529 17083:1.6711529 17084:1.6711529 17085:1.4978662 17086:1.6711529 17087:1.6711529 17088:1.6711529 17089:1.6711529 17090:1.6711529 17091:1.6711529 17092:1.6711529 17093:1.6711529 17094:1.3245794 17095:1.4978662 17096:1.2687935 17097:1.6711529 17098:0.91002232 17099:1.1846753 17100:1.1846753 17101:0.86643398 17102:1.0299156 17103:1.4978662 17104:1.3964999 17105:1.3964999 17106:1.6711529 17107:1.6711529 17108:1.6711529 17109:1.6711529 17110:1.6711529 17111:1.6711529 17112:1.6711529 17113:1.6711529 17114:1.2232131 #
-0.0052750318723272125384649022805661 12:0.93099993 50:0.29289299 159:0.22055326 160:0.26311105 161:0.71445274 164:0.20488177 189:0.04934172 198:0.19253044 285:0.21822222 287:0.61481327 288:0.11719958 290:0.14104001 292:0.22832687 297:0.0087885056 298:0.071157359 299:0.062612243 300:0.068353198 301:0.49928871 304:0.072761476 309:0.01892801 311:0.11653382 312:0.010050336 321:0.098506995 333:0.26720122 347:0.65200382 360:0.056864381 375:0.11719958 376:0.29410514 397:0.4317112 467:0.43736145 490:0.14066167 491:0.13401312 526:0.49928871 530:0.20559555 554:0.24404265 558:0.096264809 560:0.062109858 561:0.027823409 564:0.18165006 566:0.051030923 587:0.44321001 588:0.30156907 608:0.8154754 609:0.46209812 750:0.38798383 762:0.49928871 763:0.42095476 764:0.18414699 848:0.12628095 888:0.11889165 889:0.27139431 900:0.35337725 907:0.33844191 937:0.38586065 952:0.26928458 958:0.036930379 959:0.16969751 964:0.12851812 1149:0.23441617 1327:0.29655614 1345:0.11304309 1367:0.2724593 1368:0.17497036 1629:0.45879769 1700:0.32183692 1749:0.7897836 1751:0.15908532 1766:0.28350085 1774:0.6418997 1810:0.31480354 1820:0.62336212 2234:0.52154392 2262:0.93099993 2355:0.27460986 2364:0.28350085 2372:0.6418997 2999:0.74789786 3124:0.67425907 3141:0.51228231 3159:0.30413321 3402:0.93099993 3496:0.6866104 3691:0.33686212 3900:0.7897836 3918:0.44927129 4036:0.44321001 4053:0.36978394 4058:0.24494599 4261:0.50783759 4286:0.6418997 4490:0.39231306 4640:0.54723573 4661:0.29904377 5273:0.62336212 5685:0.53647929 5814:0.57762265 6274:0.50783759 6516:0.26616922 6528:0.84586233 6529:0.84586233 6813:0.84586233 7442:0.71445274 7524:0.39452061 7629:0.67425907 7777:0.74789786 8038:0.61481327 8129:0.6418997 8346:0.71445274 8785:0.88305289 9419:0.57762265 10510:0.56479579 10776:0.48340368 11596:0.7303378 11673:0.8154754 11742:0.57108587 11862:0.6418997 11970:0.50783759 11971:0.61481327 12035:0.4317112 12036:0.58442634 12172:0.84586233 12173:0.84586233 12264:0.7897836 12265:0.76752836 12464:0.42357951 12988:0.6866104 13155:0.71445274 13246:0.88305289 13265:0.67425907 13266:0.7897836 13414:0.8154754 13457:0.61481327 13459:0.8154754 13684:0.99857742 13685:1.114102 13686:0.88305289 13687:0.93099993 13688:1.114102 13689:0.93099993 13690:1.114102 13691:1.114102 13692:1.114102 13693:1.114102 13694:1.114102 13695:0.99857742 13696:1.114102 13697:1.114102 13698:0.99857742 13699:1.114102 13700:0.99857742 13701:0.99857742 13702:0.93099993 13703:1.114102 13704:1.114102 13705:1.114102 13706:0.93099993 13707:0.8154754 13708:1.114102 13709:1.114102 13710:1.114102 13711:1.114102 13712:0.99857742 13713:1.114102 13714:1.114102 13715:1.114102 13716:1.114102 13717:0.84586233 13718:0.99857742 13719:0.93099993 13720:1.114102 13721:1.114102 13722:1.114102 13723:1.114102 13724:1.114102 13725:1.114102 13726:0.93099993 13727:1.114102 13728:1.114102 13729:1.114102 13730:1.114102 13731:0.99857742 13732:0.99857742 13733:1.114102 13734:1.114102 13735:1.114102 13736:1.114102 13737:1.114102 13738:1.114102 13739:1.114102 13740:1.114102 13741:1.114102 13742:0.99857742 13743:0.99857742 13744:1.114102 13745:1.114102 13746:1.114102 13747:1.114102 13748:1.114102 13749:1.114102 13750:1.114102 13751:0.99857742 13752:0.74789786 13753:0.6866104 13754:1.114102 13755:1.114102 13756:1.114102 13757:1.114102 13758:1.114102 13759:1.114102 13760:0.88305289 13761:0.99857742 13762:0.99857742 13763:1.114102 13764:0.7897836 13765:0.8154754 13766:0.88305289 13767:0.93099993 13768:0.76752836 13769:0.93099993 13770:0.93099993 13771:0.8154754 13772:1.114102 13773:0.62336212 13774:0.55873454 13775:0.67425907 13776:0.99857742 13777:0.93099993 13778:0.93099993 13779:0.8154754 13780:0.74789786 13781:0.61481327 13782:1.114102 13783:1.114102 13784:1.114102 13785:1.114102 13786:1.114102 13787:1.114102 13788:0.7897836 13789:0.67425907 13790:1.114102 13791:0.93099993 13792:1.114102 13793:1.114102 13794:0.99857742 13795:0.93099993 13796:0.88305289 13797:1.114102 13798:1.114102 13799:1.114102 13800:1.114102 13801:0.88305289 13802:0.99857742 13803:0.7897836 13804:0.84586233 13805:0.99857742 13806:1.114102 13807:0.88305289 13808:1.114102 13809:1.114102 13810:1.114102 13811:0.63237333 13812:0.84586233 13813:0.93099993 13814:0.99857742 13815:1.114102 13816:0.99857742 13817:0.7303378 13818:0.7303378 13819:0.8154754 13820:0.7897836 13821:0.60668153 13822:1.114102 13823:0.66276026 13824:1.114102 13825:0.71445274 13826:0.99857742 13827:0.93099993 #
-0.0087538831094990440101488715640699 16:0.37401727 17:0.36400893 150:0.1721767 164:0.24585812 165:0.29710397 166:0.27927914 189:0.059210066 193:0.265926 212:0.16137519 288:0.21095926 289:0.11418591 290:0.084624007 291:0.26415604 292:0.06849806 297:0.0061519542 300:0.032809533 302:0.189712 309:0.017035209 311:0.034960143 312:0.010050336 316:0.068072468 321:0.17731258 322:0.12909842 336:0.13564911 355:0.26241687 360:0.011372876 397:0.25902671 480:0.08556661 490:0.16879402 491:0.080407873 530:0.12335733 554:0.29285118 558:0.23103553 560:0.055898875 561:0.033388089 566:0.12247422 570:0.19932638 574:0.11551826 763:0.25257286 764:0.11048819 800:0.23151639 848:0.075768568 904:0.32188758 909:0.053828247 937:0.23151639 939:0.15970154 958:0.022158228 962:0.14167535 964:0.077110872 968:0.43820265 1022:0.27927914 1149:0.14064971 1150:0.37942401 1163:0.33524072 1198:0.19750816 1288:0.35065579 1309:0.041173473 1310:0.63165027 1313:0.22945549 1315:0.12819344 1341:0.18704374 1346:0.30736938 1359:0.17867719 1368:0.31494665 1370:0.48850977 1371:0.13518929 1424:0.28559703 1583:0.25737378 1584:0.27725887 1594:0.33214623 1634:0.4369604 1751:0.19090238 1752:0.15028282 1757:0.14323384 1770:0.31094259 1775:0.16411866 1802:0.079573378 1832:0.40455544 1849:0.55859995 1883:0.56268215 1951:0.64377517 2060:0.40455544 2231:0.40455544 2232:0.12774399 2272:0.10044391 2350:0.41196623 2362:0.40455544 2363:0.12640767 2368:0.18170772 2385:0.21520123 2405:0.189712 2413:0.2834464 2586:0.2752786 2598:0.21211885 2609:0.55859995 2611:0.32506245 2760:0.10751399 2767:0.22302644 2890:0.38513985 2891:0.37401727 2965:0.37942401 3058:0.5354557 3059:0.25737378 3118:0.48438638 3123:0.35935694 3157:0.30210501 3495:0.23025851 3673:0.31582513 3902:0.11162672 4063:0.41196623 4292:0.20306514 4379:0.37942401 4546:0.13714057 4627:0.26415604 4840:0.25414771 4849:0.3188104 5008:0.47387016 5185:0.29234117 5247:0.32834142 5417:0.47387016 5428:0.3912023 5429:0.42867166 5430:0.41196623 5431:0.52983171 5432:0.66846114 5433:0.66846114 5434:0.66846114 5435:0.66846114 5436:0.66846114 5437:0.66846114 5438:0.66846114 5439:0.31292635 5440:0.3912023 5441:0.48928523 5442:0.48928523 5443:0.55859995 5444:0.55859995 5445:0.55859995 5446:0.66846114 5447:0.66846114 5448:0.66846114 5449:0.52983171 5450:0.66846114 5451:0.66846114 5452:0.66846114 5453:0.55859995 5454:0.55859995 5455:0.55859995 5456:0.66846114 5457:0.48928523 5458:0.66846114 5459:0.66846114 5460:0.66846114 5461:0.66846114 5462:0.66846114 5463:0.66846114 5464:0.5075174 5465:0.52983171 5466:0.59914643 5467:0.66846114 5468:0.66846114 5469:0.59914643 5470:0.55859995 5471:0.59914643 5472:0.66846114 5473:0.5075174 5474:0.34265152 5475:0.66846114 5476:0.66846114 5477:0.66846114 5478:0.30210501 5479:0.59914643 5480:0.66846114 5481:0.66846114 5482:0.66846114 5483:0.66846114 5484:0.66846114 5485:0.66846114 5486:0.66846114 5487:0.66846114 5488:0.59914643 5489:0.66846114 5490:0.66846114 5491:0.40455544 5492:0.66846114 5493:0.66846114 5494:0.66846114 5495:0.66846114 5496:0.66846114 5497:0.66846114 5498:0.66846114 5499:0.66846114 5500:0.66846114 5501:0.66846114 5502:0.66846114 5503:0.66846114 5504:0.66846114 5505:0.66846114 5506:0.52983171 5507:0.48928523 5508:0.66846114 5509:0.66846114 5510:0.66846114 5511:0.66846114 5512:0.52983171 5513:0.66846114 5514:0.66846114 5515:0.66846114 5516:0.66846114 5517:0.52983171 5518:0.66846114 5519:0.66846114 5520:0.66846114 5521:0.66846114 5522:0.66846114 5523:0.66846114 5524:0.66846114 5525:0.35935694 5526:0.46051702 5527:0.66846114 5528:0.59914643 5529:0.66846114 5530:0.66846114 5531:0.66846114 5532:0.66846114 5533:0.66846114 5534:0.66846114 5535:0.66846114 5536:0.66846114 5537:0.66846114 5538:0.66846114 5539:0.66846114 5540:0.37942401 5541:0.66846114 5542:0.66846114 5543:0.66846114 5544:0.66846114 5545:0.66846114 5546:0.66846114 5547:0.66846114 5548:0.55859995 5549:0.55859995 5550:0.59914643 5551:0.66846114 5552:0.66846114 5553:0.55859995 5554:0.48928523 5555:0.66846114 5556:0.5075174 5557:0.66846114 5558:0.66846114 5559:0.66846114 5560:0.66846114 5561:0.66846114 5562:0.66846114 5563:0.66846114 5564:0.66846114 5565:0.33173159 5566:0.36400893 5567:0.19841313 5568:0.48928523 5569:0.55859995 5570:0.5075174 5571:0.66846114 5572:0.66846114 5573:0.66846114 5574:0.2184802 5575:0.39765614 5576:0.55859995 5577:0.66846114 5578:0.5075174 5579:0.37401727 5580:0.66846114 5581:0.47387016 5582:0.41196623 5583:0.5075174 5584:0.52983171 5585:0.55859995 5586:0.31010929 5587:0.66846114 5588:0.66846114 5589:0.59914643 5590:0.66846114 5591:0.5075174 5592:0.43820265 5593:0.59914643 5594:0.59914643 5595:0.39765614 5596:0.59914643 5597:0.28779492 5598:0.21628231 5599:0.66846114 5600:0.66846114 5601:0.59914643 5602:0.66846114 5603:0.66846114 5604:0.66846114 5605:0.66846114 5606:0.55859995 5607:0.66846114 5608:0.59914643 5609:0.59914643 5610:0.66846114 5611:0.40455544 5612:0.59914643 5613:0.66846114 5614:0.66846114 5615:0.36400893 5616:0.66846114 5617:0.66846114 5618:0.66846114 5619:0.59914643 5620:0.66846114 5621:0.66846114 5622:0.66846114 5623:0.66846114 5624:0.30736938 5625:0.66846114 5626:0.66846114 5627:0.59914643 5628:0.48928523 5629:0.66846114 5630:0.66846114 5631:0.66846114 5632:0.44873872 5633:0.59914643 5634:0.66846114 5635:0.66846114 5636:0.44873872 5637:0.66846114 5638:0.66846114 5639:0.22302644 5640:0.42867166 5641:0.59914643 5642:0.47387016 5643:0.66846114 5644:0.66846114 5645:0.66846114 5646:0.66846114 5647:0.66846114 5648:0.59914643 5649:0.59914643 5650:0.66846114 5651:0.66846114 5652:0.66846114 5653:0.66846114 5654:0.66846114 5655:0.66846114 5656:0.46051702 5657:0.59914643 5658:0.55859995 5659:0.3188104 5660:0.35935694 5661:0.48928523 5662:0.35935694 5663:0.66846114 5664:0.66846114 5665:0.66846114 5666:0.40455544 5667:0.59914643 5668:0.55859995 5669:0.59914643 5670:0.59914643 5671:0.25414771 5672:0.35935694 5673:0.59914643 5674:0.30736938 5675:0.37942401 5676:0.28779492 5677:0.55859995 5678:0.44873872 5679:0.66846114 5680:0.59914643 5681:0.40455544 5682:0.44873872 5683:0.2184802 5684:0.31292635 5685:0.32188758 5686:0.36400893 5687:0.59914643 5688:0.66846114 5689:0.66846114 5690:0.5075174 5691:0.66846114 5692:0.37401727 5693:0.66846114 5694:0.42867166 5695:0.47387016 5696:0.66846114 5697:0.66846114 5698:0.48928523 5699:0.66846114 5700:0.46051702 5701:0.31292635 #
0.005163576967893636349149488751209 189:0.074012578 210:0.5917809 285:0.65466666 297:0.0087885056 299:0.046959184 300:0.041011918 304:0.10914221 309:0.014196008 312:0.010050336 321:0.1477605 322:0.32274604 331:0.27434078 336:0.22608185 360:0.056864381 375:0.52739811 471:0.56644279 472:0.4269695 558:0.14439721 560:0.046582393 561:0.041735113 574:0.28879565 742:1.1218468 831:0.56644279 866:0.97800577 882:1.0299156 887:1.4978662 901:0.34408602 923:0.76842344 950:0.72510552 957:1.0113885 1231:0.28485858 1345:0.16956465 1367:0.40868893 1368:0.26245552 1634:0.54620051 1770:0.38867825 2439:0.45619982 2440:0.49377039 2534:0.41683298 3425:0.42016634 3483:0.74893308 3619:0.8381018 3764:1.1512926 3936:0.7752732 4014:0.66931963 4539:0.78956282 4804:1.1846753 4840:0.63536924 4852:0.93504322 4966:0.85662878 4967:1.0955067 5154:0.7139926 5155:1.0499263 5166:1.1512926 5260:0.61262631 5478:0.75526249 11187:0.82932895 11188:0.88727939 11361:0.75526249 12048:0.86643398 12556:1.0113885 16834:0.67390692 17471:0.88727939 17603:0.88727939 20742:1.4978662 20766:1.3964999 20767:1.2232131 26493:1.4978662 26640:1.3964999 27392:1.1218468 27426:1.3245794 34311:1.2232131 34323:0.96284962 37232:1.0716791 49559:1.4978662 50752:1.1218468 50852:1.3245794 51623:1.4978662 52308:0.94856 58773:1.3245794 62836:1.3245794 74629:1.2687935 75590:1.3245794 75678:1.3245794 75696:1.0716791 77917:1.3964999 81161:1.3964999 85661:1.3964999 86025:1.3245794 86069:1.3245794 89431:1.6711529 89432:1.6711529 89433:1.6711529 89434:1.6711529 89435:1.6711529 89436:1.6711529 89437:1.6711529 89438:1.6711529 89439:1.6711529 89440:1.6711529 89441:1.6711529 89442:1.6711529 89443:1.6711529 89444:1.6711529 89445:1.6711529 89446:1.6711529 89447:1.6711529 89448:1.6711529 89449:1.3245794 89450:1.3964999 89451:1.6711529 89452:1.6711529 89453:1.6711529 89454:1.6711529 89455:1.6711529 89456:1.6711529 89457:1.6711529 89458:1.3964999 89459:1.6711529 89460:1.6711529 89461:1.2232131 89462:1.1512926 89463:1.4978662 89464:1.6711529 #
0.0089899296681397247721356791316794 10:0.45803252 158:0.28232244 159:0.2646639 164:0.24585812 287:0.73777586 288:0.562558 289:0.22837181 292:0.06849806 297:0.0087885056 298:0.085388824 299:0.037567347 300:0.016404767 309:0.015142408 312:0.0020100672 321:0.23641679 333:0.32064146 360:0.022745753 375:0.1406395 376:0.35292616 470:1.0150348 556:0.7824046 557:1.0150348 606:0.44145498 607:0.67048144 778:0.92103404 800:0.46303278 831:0.45315424 907:0.40613028 908:0.39865276 927:0.13466892 933:0.2366707 952:0.32314152 960:0.54659671 1062:1.0150348 1063:0.79531229 1147:0.36036196 1149:0.28129941 1161:0.89747745 1233:0.48438638 1234:0.58938843 1235:0.52483374 1309:0.082346946 1370:0.65134639 1371:0.54075718 1381:0.94774032 1583:0.51474756 1584:0.55451775 1624:0.5354557 1751:0.19090238 1752:0.90169692 1764:0.27037859 2041:0.72801787 2042:0.92103404 2215:0.70982349 2373:0.5668928 2604:0.38448757 2908:1.1090355 2909:0.72801787 3056:0.77027971 3073:0.94155133 3074:1.0428298 3075:0.47610933 3149:0.42614695 3642:0.46303278 3667:1.1884159 3683:0.41588831 3690:0.35002756 4077:0.8764053 4189:0.56268215 4391:0.85734332 5353:0.65668285 8280:0.75884801 8319:0.70131159 8409:1.0150348 8465:0.70131159 9166:0.58008444 9517:0.58938843 9669:0.5505572 10619:0.72801787 10748:0.4989914 10776:0.58008444 13719:1.1171999 13774:0.67048144 14815:0.73777586 14967:1.1171999 14968:1.1982929 15026:1.0150348 15027:1.0596634 15028:0.55451775 20761:1.0596634 22672:0.77027971 25278:0.94774032 42989:1.1171999 44359:0.85734332 44441:1.1171999 46210:1.0596634 49807:1.0150348 52108:1.1171999 53324:1.1171999 63974:1.1982929 75481:1.0596634 79882:1.0596634 82871:1.1982929 82942:1.1982929 85754:1.1171999 91007:1.1982929 91008:1.3369223 91009:1.3369223 91010:1.3369223 91011:1.3369223 91012:1.3369223 91013:1.3369223 91014:1.3369223 91015:1.3369223 91016:1.3369223 91017:1.3369223 91018:1.3369223 91019:1.3369223 91020:1.3369223 91021:1.3369223 91022:1.3369223 91023:1.3369223 91024:1.3369223 91025:1.3369223 91026:1.3369223 91027:1.3369223 91028:1.3369223 91029:1.3369223 91030:1.3369223 91031:1.3369223 91032:1.3369223 91033:1.3369223 91034:1.1171999 91035:1.3369223 91036:1.3369223 91037:1.3369223 91038:1.3369223 91039:1.3369223 91040:1.3369223 91041:1.3369223 91042:1.3369223 91043:1.3369223 91044:1.1171999 91045:1.3369223 #
0.0038165663212707100909737434335511 49:0.84586233 189:0.04934172 192:0.23785272 197:0.7303378 212:0.13447933 233:0.6418997 292:0.057081718 295:0.42624623 297:0.0087885056 298:0.071157359 299:0.031306121 300:0.041011918 304:0.072761476 305:0.091147445 309:0.0063093365 312:0.0083752796 316:0.11345411 321:0.098506995 324:0.42357951 330:0.13494684 336:0.075360619 344:0.4289563 345:0.96680737 351:0.31898785 353:0.49517328 360:0.056864381 491:0.13401312 530:0.20559555 546:0.233568 560:0.062109858 566:0.20412369 580:0.12896918 589:0.36787915 600:0.23104906 602:0.59892821 768:0.74789786 888:0.11889165 902:0.44927129 909:0.26914123 911:0.2801109 937:0.38586065 948:0.25141034 956:0.17556666 958:0.11079113 964:0.12851812 1149:0.23441617 1220:0.6418997 1236:0.50783759 1598:0.25911883 1719:0.53135067 1751:0.15908532 1802:0.2652446 1803:0.6866104 2019:0.4289563 2076:0.63237333 2214:0.31618667 2366:0.42624623 2406:0.25522003 2553:0.66276026 2597:0.57108587 2598:0.17676571 2767:0.37171075 2793:0.71445274 2980:0.38376418 3141:0.51228231 3678:0.45556134 3890:0.24768579 4047:0.37762851 4482:0.40365532 4532:0.47241068 4661:0.29904377 4666:0.74789786 6131:0.57762265 6167:0.39902538 6176:0.30805498 6254:0.71445274 6434:0.67425907 6493:0.30156907 6511:0.7897836 6707:0.88305289 6882:0.48723528 7153:0.60668153 7597:0.6866104 8278:0.59892821 8365:0.7303378 9524:0.71445274 9674:0.59151959 10031:0.63237333 10050:0.99857742 10584:0.59892821 10919:0.62336212 11409:0.66276026 11859:0.76752836 12245:0.7303378 13105:0.74789786 13110:0.66276026 13410:0.63237333 13775:0.67425907 14574:0.84586233 15940:0.46890178 16136:0.71445274 17015:1.0729586 17571:0.6418997 18996:0.95931643 21611:0.93099993 21686:0.93099993 22735:0.99857742 23212:0.61481327 23655:0.76752836 25391:0.67425907 25392:0.67425907 25454:0.67425907 26111:0.93099993 27405:0.84586233 27420:0.88305289 27605:0.55288601 29927:0.7897836 30412:0.55288601 30458:0.55288601 31851:0.88305289 32685:0.76752836 32729:0.99857742 32730:0.93099993 32783:0.88305289 32784:0.93099993 36468:0.93099993 36469:0.84586233 38195:0.88305289 38249:0.7897836 40086:0.69995087 45546:0.69995087 45665:0.65200382 46696:0.74789786 46762:0.6866104 46879:0.8154754 49168:0.88305289 49169:0.93099993 52426:0.88305289 52427:0.88305289 53367:0.71445274 54612:0.6866104 55182:0.99857742 57332:0.99857742 58158:0.93099993 65494:0.93099993 67640:0.88305289 68355:0.93099993 69011:0.93099993 82431:0.99857742 84856:0.88305289 88409:0.7303378 88472:0.7303378 88705:0.93099993 88706:1.114102 88707:1.114102 88708:1.114102 88709:1.114102 88710:1.114102 88711:1.114102 88712:1.114102 88713:1.114102 88714:0.99857742 88715:0.93099993 88716:0.93099993 88717:1.114102 88718:1.114102 88719:1.114102 88720:1.114102 88721:1.114102 88722:0.99857742 88723:0.99857742 88724:1.114102 88725:1.114102 88726:1.114102 88727:1.114102 88728:1.114102 88729:1.114102 88730:1.114102 88731:1.114102 88732:1.114102 88733:1.114102 88734:1.114102 88735:0.99857742 88736:1.114102 88737:1.114102 88738:1.114102 88739:1.114102 88740:0.99857742 88741:1.114102 88742:1.114102 88743:1.114102 88744:1.114102 88745:1.114102 88746:1.114102 88747:1.114102 88748:1.114102 88749:1.114102 88750:1.114102 88751:1.114102 88752:1.114102 88753:0.99857742 88754:0.99857742 88755:1.114102 88756:1.114102 88757:1.114102 88758:1.114102 88759:1.114102 88760:1.114102 88761:1.114102 88762:1.114102 88763:1.114102 88764:1.114102 88765:1.114102 88766:1.114102 88767:1.114102 88768:1.114102 88769:1.114102 88770:1.114102 88771:1.114102 88772:1.114102 88773:1.114102 88774:1.114102 88775:1.114102 88776:1.114102 88777:1.114102 88778:1.114102 88779:1.114102 88780:1.114102 88781:1.114102 88782:0.99857742 88783:1.114102 88784:1.114102 88785:1.114102 88786:1.114102 88787:1.114102 88788:1.114102 88789:1.114102 88790:1.114102 88791:0.99857742 88792:1.114102 88793:1.114102 88794:1.114102 88795:1.114102 88796:1.114102 88797:1.114102 88798:0.99857742 88799:1.114102 88800:1.114102 88801:1.114102 88802:1.114102 88803:1.114102 88804:0.99857742 88805:1.114102 88806:1.114102 88807:1.114102 88808:1.114102 88809:1.114102 88810:1.114102 88811:1.114102 88812:1.114102 88813:1.114102 88814:1.114102 88815:0.99857742 88816:1.114102 88817:1.114102 88818:1.114102 88819:1.114102 88820:1.114102 88821:1.114102 88822:1.114102 #
0.0073044617194538211113474801550183 158:0.28232244 189:0.11842013 192:0.57084656 212:0.16137519 288:0.1406395 289:0.11418591 297:0.0087885056 298:0.085388824 299:0.15026939 300:0.016404767 309:0.011356806 311:0.093227051 312:0.0080402689 316:0.13614494 321:0.47283357 330:0.16193619 336:0.090432741 343:0.66346318 360:0.022745753 531:0.7824046 546:0.2802816 558:0.11551777 560:0.074531831 580:0.15476301 587:0.53185201 591:0.52483374 600:0.27725887 628:0.51474756 710:0.66346318 751:0.92103404 752:0.94774032 764:0.22097638 781:0.45315424 782:0.51149547 852:0.32567319 853:0.5668928 872:0.74803454 889:0.32567319 890:0.72801787 891:0.52483374 902:0.53912556 909:0.10765649 910:0.44145498 913:0.42198014 943:0.20157158 952:0.32314152 956:0.21067999 958:0.13294937 959:0.203637 960:0.27329835 1309:0.082346946 1336:0.25017795 1353:0.50204492 1461:1.419647 1624:1.6063671 1764:0.81113577 1770:0.31094259 1794:0.31573325 1872:0.94774032 1964:0.58938843 1970:0.71871388 2024:0.49598381 2272:0.20088783 2598:0.63635653 2604:0.38448757 2729:0.52831209 2822:0.44839209 3001:0.44839209 3070:1.0596634 3128:0.677755 3153:0.70131159 3417:0.60421002 3562:0.40804416 3569:0.50514573 3641:0.46816126 3642:0.46303278 3683:0.41588831 3902:0.22325344 4025:0.60421002 4065:0.82393247 4072:0.44605288 4074:0.46051702 4220:0.8764053 4273:0.89747745 4627:0.52831209 4772:1.1982929 4843:1.0596634 5217:0.65012491 5276:0.59420794 5597:0.57558984 5773:0.83994102 6107:0.83994102 6171:0.79531229 7179:0.66346318 7250:0.89747745 7524:0.47342473 8479:0.73777586 8503:0.70131159 9177:0.5354557 9448:0.64377517 10044:1.4960691 10877:1.0596634 11705:0.82393247 11803:0.6258527 11846:0.6258527 12592:0.97857046 12816:0.82393247 13085:0.71871388 14684:0.70982349 15897:0.80911088 16320:0.79531229 16357:0.73777586 19919:1.1982929 19940:1.0150348 20009:0.89747745 21438:0.94774032 21999:0.92103404 22034:0.97857046 22193:0.92103404 23035:1.0596634 24074:0.94774032 24358:1.0596634 24431:1.1171999 24470:1.0150348 24963:0.80911088 26273:1.1171999 26503:1.0150348 27123:0.97857046 27375:0.97857046 27585:0.7824046 27586:0.94774032 31002:1.0150348 31003:1.1171999 33616:0.92103404 36976:0.94774032 37039:0.89747745 39022:1.1982929 39023:1.1982929 39143:1.0596634 39696:1.1982929 40613:0.97857046 42622:1.0596634 42689:1.0150348 49983:0.89747745 49984:1.0150348 51298:1.1171999 54658:1.1982929 54845:1.0596634 56000:1.0596634 57551:1.1171999 57552:1.1171999 57664:1.0596634 59031:1.1982929 59074:1.0596634 67341:1.1982929 72475:1.1171999 77897:1.1171999 77898:1.1171999 77921:1.1171999 84165:1.1982929 86590:1.1982929 92596:1.1982929 93477:1.0596634 93483:1.1982929 93621:1.1982929 96024:1.1982929 101881:1.1982929 111349:1.1982929 111355:1.1982929 114008:1.3369223 114009:1.3369223 114010:1.3369223 114011:1.3369223 114012:1.3369223 114013:1.3369223 114014:1.3369223 114015:1.3369223 114016:1.3369223 114017:1.3369223 114018:1.3369223 114019:1.3369223 114020:1.3369223 114021:1.3369223 114022:1.3369223 114023:1.3369223 114024:1.3369223 114025:1.3369223 114026:1.3369223 114027:1.3369223 114028:1.3369223 114029:1.3369223 114030:1.3369223 114031:1.3369223 114032:1.3369223 114033:1.3369223 114034:1.3369223 114035:1.3369223 114036:1.3369223 114037:1.3369223 114038:1.3369223 114039:1.3369223 114040:1.3369223 114041:1.3369223 114042:1.3369223 114043:1.3369223 114044:1.3369223 114045:1.3369223 114046:1.3369223 114047:1.3369223 #
0.0038112781748054231495403953999812 158:0.70580608 177:0.22291736 285:0.21822222 292:0.057081718 297:0.0087885056 298:0.28462943 300:0.041011918 309:0.015773341 311:0.077689208 312:0.0050251679 330:0.13494684 333:0.26720122 336:0.30144247 358:0.17497036 371:0.31618667 375:0.46879834 435:0.93099993 436:0.84586233 449:0.50350833 472:0.28464633 524:0.71445274 525:0.7897836 526:0.99857742 532:0.59892821 536:0.50350833 537:0.45879769 558:0.19252962 560:0.12421972 561:0.055646818 566:0.051030923 588:1.2062763 591:0.43736145 592:0.47599506 594:0.4289563 595:0.37171075 764:0.36829397 875:0.46890178 902:0.44927129 942:0.35512248 948:0.25141034 954:0.40601942 956:0.17556666 964:0.12851812 1309:0.068622455 1339:0.57108587 1562:0.8154754 1598:0.51823765 1730:0.7897836 1731:0.8154754 1751:0.15908532 1775:0.27353111 1805:0.54177076 1806:0.66276026 1817:0.54723573 2274:0.57762265 2584:0.31343177 2763:0.34994072 3027:0.58442634 3139:0.46890178 3399:0.74789786 3424:0.40365532 3491:0.54723573 3495:0.38376418 3678:0.45556134 3890:0.24768579 3931:0.51228231 4540:0.31898785 4570:0.48723528 4576:0.29049489 4631:0.57762265 4936:0.48340368 4937:0.93780357 5002:0.99857742 5179:0.88305289 5180:0.76752836 5265:0.34327316 5714:0.69995087 5776:0.66276026 5957:0.99857742 6022:0.61481327 6090:0.66276026 6111:0.69995087 6112:0.59892821 6173:0.56479579 7061:0.7303378 7119:0.52637517 8039:0.7303378 8827:0.8154754 8839:0.93099993 8966:0.57762265 8970:0.59151959 9443:0.99857742 9938:0.93099993 11476:0.47965822 11660:0.88305289 12500:0.93099993 12877:0.99857742 13145:0.34491521 13707:0.8154754 14836:0.7897836 14916:0.69995087 14917:0.69995087 14994:0.69995087 14995:0.69995087 15041:0.58442634 17385:0.7897836 17440:0.67425907 17574:0.74789786 18556:0.69995087 19150:0.84586233 22133:0.6866104 24056:0.8154754 24692:0.7897836 29087:0.8154754 29377:1.8444397 29966:0.69995087 32433:0.76752836 35623:0.93099993 43833:0.84586233 51317:2.3025851 56157:0.99857742 56162:0.88305289 67187:0.93099993 67278:0.88305289 71909:0.88305289 74948:0.93099993 75377:0.93099993 75406:0.88305289 76690:0.99857742 76691:0.93099993 76692:0.93099993 76720:0.84586233 79248:0.99857742 79249:0.99857742 79476:1.114102 79477:1.114102 79478:1.114102 79479:1.114102 79480:0.99857742 79481:1.114102 79482:1.114102 79483:1.114102 79484:1.114102 79485:1.114102 79486:1.114102 79487:1.114102 79488:1.114102 79489:0.99857742 79490:1.114102 79491:1.114102 79492:1.114102 79493:1.114102 79494:1.114102 79495:1.114102 79496:1.114102 79497:1.114102 79498:1.114102 79499:1.114102 79500:1.114102 79501:1.114102 79502:1.114102 79503:1.114102 79504:1.114102 79505:1.114102 79506:1.114102 79507:1.114102 79508:1.114102 79509:1.114102 79510:1.114102 79511:1.114102 79512:1.114102 79513:1.114102 79514:1.114102 79515:1.114102 79516:1.114102 79517:1.114102 79518:1.114102 79519:1.114102 79520:1.114102 79521:1.114102 79522:1.114102 79523:1.114102 79524:1.114102 79525:1.114102 79526:1.114102 79527:1.114102 79528:1.114102 79529:1.114102 79530:1.114102 79531:1.114102 79532:1.114102 79533:1.114102 79534:1.114102 79535:1.114102 79536:1.114102 79537:1.114102 79538:1.114102 79539:0.8154754 79540:0.84586233 79541:1.114102 79542:1.114102 79543:1.114102 79544:1.114102 79545:1.114102 79546:1.114102 79547:1.114102 79548:1.114102 79549:1.114102 79550:1.114102 79551:0.99857742 79552:1.114102 79553:0.99857742 79554:1.114102 79555:1.114102 79556:1.114102 79557:1.114102 79558:1.114102 79559:1.114102 79560:1.114102 79561:1.114102 79562:1.114102 79563:1.114102 79564:1.114102 79565:1.114102 79566:1.114102 79567:1.114102 79568:1.114102 79569:1.114102 79570:1.114102 79571:1.114102 79572:1.114102 79573:1.114102 79574:1.114102 79575:1.114102 79576:1.114102 79577:1.114102 79578:1.114102 79579:1.114102 79580:1.114102 79581:1.114102 79582:0.8154754 79583:1.114102 79584:1.114102 79585:1.114102 79586:1.114102 79587:0.99857742 79588:1.114102 79589:1.114102 79590:1.114102 79591:1.114102 79592:1.114102 79593:1.114102 79594:1.114102 79595:1.114102 #
-0.0053463941549399141700549265010523 160:0.39466655 189:0.074012578 192:0.7135582 212:0.20171899 290:0.10578001 297:0.0087885056 299:0.14087756 300:0.041011918 305:0.13672116 309:0.009464005 311:0.029133454 312:0.0075377519 321:0.44328147 338:0.46810684 358:0.26245552 360:0.02843219 834:0.63143218 848:0.18942143 927:0.16833614 933:0.29583839 959:0.25454625 960:0.34162292 1130:0.76175642 1231:0.28485858 1315:0.3204836 1345:0.16956465 1461:0.88727939 1595:0.6475668 1624:0.66931963 1756:0.4269695 1764:0.33797324 1794:0.39466655 1964:0.73673552 2440:0.49377039 2522:0.55467588 2534:0.41683298 2537:0.66481501 3075:0.59513664 3132:0.82085359 3690:0.43753445 3925:0.67857993 3958:0.87663949 4046:0.51005518 4064:0.8381018 4320:0.72510552 4321:1.3964999 4457:1.1512926 4554:0.86643398 6510:0.71948731 6840:1.1512926 8291:1.2687935 8951:0.78956282 9449:0.84719372 12434:1.0113885 14889:0.82932895 15028:0.69314718 15433:0.82085359 16508:0.8381018 17285:0.94856 17403:1.1512926 17404:1.1512926 17451:1.0299156 17452:1.1512926 17453:1.1512926 17461:1.1512926 20854:0.96284962 23885:1.2687935 24031:1.0955067 24452:1.1846753 26703:1.0499263 26704:0.94856 27012:1.4978662 27314:1.3964999 27585:0.97800577 32273:1.1512926 35119:1.2232131 35152:1.0955067 36472:1.3245794 47540:1.4978662 48243:1.1512926 48366:1.1512926 63763:1.0113885 63827:0.88727939 64747:1.4978662 64810:1.4978662 65697:1.6711529 65698:1.6711529 65699:1.6711529 65700:1.6711529 65701:1.6711529 65702:1.6711529 65703:1.6711529 65704:1.6711529 65705:1.6711529 65706:1.6711529 65707:1.6711529 65708:1.6711529 65709:1.4978662 65710:1.6711529 65711:1.6711529 65712:1.6711529 65713:1.4978662 65714:1.6711529 65715:1.6711529 65716:1.6711529 65717:1.6711529 65718:1.6711529 65719:1.2232131 65720:1.6711529 65721:1.4978662 65722:1.6711529 65723:1.3964999 65724:1.4978662 65725:1.4978662 #
-0.0060055011384149460662573716263068 50:0.3514716 51:0.35002756 52:0.5668928 160:0.31573325 189:0.17763019 192:0.28542328 198:0.23103653 199:0.25105321 212:0.16137519 285:0.26186666 297:0.0070308046 298:0.085388824 299:0.15026939 300:0.032809533 304:0.087313771 309:0.01892801 311:0.023306763 312:0.0080402689 321:0.35462517 336:0.18086548 360:0.022745753 375:0.1406395 509:0.40804416 561:0.033388089 579:0.47077566 852:0.32567319 927:0.13466892 939:0.15970154 943:0.20157158 952:0.32314152 954:0.4872233 958:0.044316456 962:0.28335071 1156:0.42198014 1231:0.22788686 1233:0.48438638 1234:0.58938843 1309:0.082346946 1313:0.22945549 1336:0.5003559 1345:0.13565171 1461:0.70982349 1594:0.33214623 1624:0.5354557 1752:0.30056563 1756:0.68315119 1763:0.32695115 1764:0.27037859 1802:0.47744027 1804:0.30396515 1871:1.1171999 1964:0.58938843 1969:0.94774032 2023:0.77027971 2027:0.23263016 2316:0.38278541 2409:0.59420794 2439:0.36495987 2440:0.39501631 2534:0.33346638 2537:0.53185201 2596:0.39322257 2763:0.41992885 2789:0.59420794 3183:0.89747745 3361:0.58938843 3408:0.48158911 3481:0.55451775 3901:0.97857046 4036:0.53185201 4053:0.44374073 4546:0.27428114 5256:0.51474756 5276:0.59420794 6181:1.1171999 6578:0.89747745 6750:0.75884801 7476:0.66346318 7481:0.5354557 8845:1.0150348 8971:0.75884801 10681:1.0150348 13401:0.6258527 13603:0.58468235 14049:0.74803454 16710:0.8764053 16970:0.82393247 17771:0.82393247 18616:0.8764053 19166:1.0150348 19510:1.1171999 21893:0.85734332 21894:1.1171999 22119:1.0596634 22446:0.70982349 22469:0.89747745 22615:1.0596634 27585:0.7824046 29752:1.0150348 30074:1.1982929 36472:1.0596634 44197:1.0596634 52276:1.1982929 54830:1.1982929 54919:1.1982929 54930:1.1982929 57718:1.1982929 57719:1.1982929 57750:1.1171999 59326:0.89747745 60534:1.3369223 60535:1.3369223 60536:1.0150348 60537:1.3369223 60538:1.3369223 60539:1.3369223 60540:1.3369223 60541:1.3369223 60542:1.3369223 60543:1.3369223 60544:1.3369223 60545:1.3369223 60546:1.3369223 60547:1.3369223 60548:1.3369223 60549:1.3369223 60550:1.1982929 60551:1.0596634 60552:1.3369223 60553:1.3369223 60554:1.3369223 60555:1.3369223 60556:1.1982929 60557:1.3369223 60558:1.3369223 60559:1.3369223 60560:1.3369223 60561:1.1982929 60562:1.1982929 60563:1.3369223 60564:1.1982929 60565:1.3369223 60566:1.3369223 60567:1.3369223 60568:1.3369223 60569:1.3369223 60570:1.3369223 60571:1.3369223 60572:1.3369223 60573:1.3369223 60574:1.1982929 60575:1.3369223 60576:1.3369223 60577:1.3369223 60578:1.3369223 60579:1.3369223 60580:1.3369223 60581:1.3369223 60582:1.3369223 60583:1.3369223 60584:1.3369223 60585:1.3369223 60586:1.3369223 60587:1.3369223 60588:1.3369223 60589:1.3369223 60590:1.3369223 60591:1.1982929 60592:1.1982929 60593:1.3369223 60594:1.3369223 60595:1.1982929 60596:1.1982929 60597:1.3369223 60598:1.3369223 60599:1.1982929 60600:1.3369223 60601:0.94774032 60602:1.3369223 60603:1.3369223 60604:1.3369223 60605:1.3369223 60606:1.0596634 60607:1.1982929 #
-0.0035182833958391454033665102230088 51:0.35002756 159:0.2646639 160:0.31573325 164:0.24585812 187:0.61473876 192:0.28542328 198:0.23103653 199:0.25105321 212:0.16137519 288:0.562558 289:0.11418591 290:0.16924801 292:0.13699612 297:0.0052731037 298:0.085388824 299:0.18783674 300:0.032809533 304:0.17462754 309:0.01892801 311:0.023306763 312:0.0060302014 316:0.13614494 318:0.57119405 319:0.57119405 321:0.11820839 322:0.25819683 360:0.045491505 527:0.83994102 562:0.55252272 566:0.061237108 580:0.15476301 589:0.88290995 591:0.52483374 746:0.75884801 819:0.35885251 848:0.15153714 885:0.52483374 901:0.27526879 927:0.13466892 933:0.2366707 943:0.20157158 952:0.32314152 956:0.21067999 959:0.203637 960:0.27329835 1234:0.58938843 1325:0.36966595 1333:0.23263016 1336:0.25017795 1341:0.18704374 1368:0.20996442 1376:0.64377517 1583:0.51474756 1751:0.19090238 1766:0.34020102 1802:0.47744027 1937:0.35292616 1945:0.33747989 1994:0.6258527 2038:0.34575695 2232:0.25548798 2355:0.32953182 2363:0.25281534 2598:0.21211885 2689:0.7824046 2730:0.59420794 2745:0.62021858 2763:0.41992885 3024:0.7824046 3132:0.65668285 3137:0.44374073 3690:0.35002756 3691:0.40423453 3925:0.54286397 4020:0.75884801 4046:0.40804416 4091:0.57558984 4199:0.57558984 4298:0.52831209 4539:0.63165027 5146:0.77027971 5252:0.79531229 5333:0.85734332 5396:0.83994102 5659:0.63762081 6357:1.1982929 6404:0.59420794 6482:0.82393247 6483:1.0150348 7233:0.92103404 7246:0.92103404 7477:0.75884801 7478:0.79531229 7617:0.5354557 8128:0.59914643 8319:0.70131159 8355:0.7824046 8361:0.69314718 8777:1.1982929 8858:0.92103404 8977:0.8764053 8978:0.52831209 10898:1.0150348 11024:1.0596634 11136:0.92103404 11137:0.97857046 11180:0.92103404 11214:1.0150348 12267:0.65668285 12775:1.0596634 12869:0.83994102 13240:0.79531229 13264:0.6258527 14412:0.70131159 14967:1.1171999 15026:1.0150348 15027:1.0596634 15433:0.65668285 16098:0.72801787 16591:1.1171999 17056:1.0150348 18395:0.72801787 19482:0.79531229 20853:0.8764053 20854:0.77027971 20906:0.70982349 21110:0.94774032 21345:0.83994102 23918:0.77027971 23919:0.7824046 24051:0.77027971 24371:1.0150348 25457:0.70131159 25739:1.0150348 25861:1.0596634 28751:0.94774032 29426:0.97857046 29558:0.8764053 32654:1.0150348 33133:1.1982929 33202:1.1982929 33742:0.71871388 33851:0.69314718 33986:0.8764053 34033:0.79531229 34075:1.1982929 34230:1.1982929 34478:1.0596634 34820:1.0596634 34858:1.0596634 35057:1.3369223 35058:1.3369223 35059:1.3369223 35060:1.3369223 35061:1.3369223 35062:1.1982929 35063:1.3369223 35064:1.3369223 35065:1.1982929 35066:1.3369223 35067:1.3369223 35068:1.1982929 35069:1.1171999 35070:1.3369223 35071:1.3369223 35072:1.3369223 35073:1.3369223 35074:1.3369223 35075:1.3369223 35076:1.3369223 35077:1.3369223 35078:1.3369223 35079:1.3369223 35080:1.1982929 35081:1.3369223 35082:1.3369223 35083:1.3369223 35084:1.1171999 35085:1.3369223 35086:1.0150348 35087:1.1171999 35088:1.3369223 35089:1.3369223 35090:1.1982929 35091:1.3369223 35092:1.3369223 35093:1.3369223 35094:1.3369223 35095:1.3369223 35096:1.3369223 35097:1.3369223 35098:1.3369223 35099:1.3369223 35100:1.3369223 35101:1.3369223 35102:1.3369223 35103:1.3369223 35104:1.3369223 35105:1.3369223 35106:1.3369223 35107:1.3369223 35108:1.3369223 35109:1.3369223 35110:1.3369223 35111:1.3369223 35112:1.3369223 35113:1.3369223 35114:1.3369223 35115:1.3369223 35116:1.3369223 35117:1.1171999 35118:0.97857046 35119:0.97857046 35120:1.1982929 35121:1.0596634 35122:1.3369223 35123:1.1982929 35124:1.3369223 35125:1.1982929 35126:1.1171999 35127:1.3369223 35128:1.3369223 35129:1.3369223 35130:1.1982929 35131:1.3369223 35132:1.1982929 35133:1.0150348 35134:1.0596634 35135:1.3369223 35136:1.1982929 35137:1.1171999 35138:1.1982929 35139:1.3369223 35140:1.3369223 35141:1.1982929 35142:1.1982929 35143:1.3369223 35144:1.1982929 35145:1.1982929 35146:1.3369223 35147:1.1982929 35148:1.3369223 35149:1.3369223 35150:1.0596634 35151:0.85734332 35152:0.8764053 35153:1.1171999 35154:1.0596634 35155:0.74803454 #
-0.0059667755636748139730363149624282 159:0.22055326 189:0.14802516 192:0.23785272 212:0.13447933 289:0.095154926 292:0.057081718 297:0.0058590039 298:0.14231472 299:0.062612243 300:0.054682557 304:0.14552295 309:0.015773341 311:0.038844604 312:0.010050336 321:0.098506995 323:0.24494599 326:0.46209812 358:0.17497036 360:0.03790959 375:0.11719958 561:0.055646818 750:0.38798383 831:0.37762851 888:0.11889165 889:0.27139431 907:0.33844191 909:0.17942749 927:0.11222409 929:0.34657359 939:0.13308461 942:0.35512248 958:0.11079113 959:0.16969751 960:0.22774862 1149:0.23441617 1331:0.33068857 1341:0.1558698 1342:0.49115703 1345:0.22608618 1584:0.46209812 1751:0.15908532 1752:0.50094271 1763:0.2724593 1802:0.1326223 1804:0.2533043 2040:0.60668153 2041:0.60668153 2042:0.76752836 2214:0.31618667 2215:0.59151959 2234:0.52154392 2272:0.16740651 2364:0.28350085 2418:0.39675778 2521:0.24860914 2522:0.36978394 2527:0.70675451 2534:0.27788866 2598:0.35353142 2739:0.46209812 2760:0.17918999 2762:0.37171075 2766:0.41331986 2908:0.46209812 3073:0.39231306 3074:0.43451238 3180:0.49928871 3349:0.53647929 3358:0.49115703 3359:0.46546525 3425:0.2801109 3478:0.47965822 3562:0.34003681 3678:0.45556134 3679:0.6866104 3894:0.67425907 3902:0.18604454 3982:0.54177076 4034:0.46890178 4051:0.54723573 4320:0.48340368 4391:0.71445274 4392:0.55873454 4443:0.47965822 4473:0.45238665 4490:0.39231306 4514:0.46209812 4540:0.31898785 4545:0.7303378 4548:0.82663971 4553:0.31480354 4576:0.29049489 4715:0.69995087 4856:0.51228231 5567:0.33068857 5720:0.7303378 5779:0.6418997 5852:0.35337725 6274:0.50783759 6516:0.26616922 6959:0.84586233 7159:0.48340368 7160:0.49517328 7161:0.48340368 7423:0.83674151 7469:0.6418997 7616:0.34824866 8511:0.54723573 8791:0.74789786 8832:0.44927129 9083:0.93099993 9145:0.7303378 9283:0.88305289 9382:0.7303378 9401:0.88305289 9693:0.55288601 9823:0.88305289 9824:0.7897836 9961:0.71445274 10177:0.62336212 10264:0.46546525 11456:0.8154754 11970:0.50783759 12035:0.4317112 12267:0.54723573 13037:0.55873454 13072:0.76752836 13142:0.50783759 13145:0.34491521 13275:0.88305289 13276:0.88305289 13378:0.88305289 14377:0.57108587 15419:0.69995087 16221:0.6418997 16680:0.84586233 16809:0.8154754 17098:0.60668153 19826:0.88305289 19894:0.88305289 19951:0.7303378 19980:0.76752836 20086:0.93099993 20139:0.84586233 20542:0.74789786 22508:0.99857742 22958:0.7897836 23451:0.99857742 23587:0.93099993 23664:0.8154754 25342:0.93099993 27298:0.53647929 27657:0.7897836 28007:0.8154754 28989:0.93099993 31248:0.99857742 39268:0.88305289 41635:0.88305289 41652:0.93099993 45075:0.93099993 45522:0.93099993 46808:0.84586233 47373:0.76752836 50806:0.88305289 50982:0.88305289 55302:0.93099993 55303:0.93099993 55304:0.99857742 57021:0.99857742 61179:0.93099993 66971:1.114102 66972:1.114102 66973:1.114102 66974:1.114102 66975:1.114102 66976:1.114102 66977:1.114102 66978:1.114102 66979:1.114102 66980:1.114102 66981:1.114102 66982:1.114102 66983:1.114102 66984:1.114102 66985:1.114102 66986:1.114102 66987:1.114102 66988:1.114102 66989:1.114102 66990:1.114102 66991:1.114102 66992:1.114102 66993:0.99857742 66994:1.114102 66995:1.114102 66996:1.114102 66997:1.114102 66998:1.114102 66999:1.114102 67000:1.114102 67001:1.114102 67002:1.114102 67003:1.114102 67004:1.114102 67005:1.114102 67006:1.114102 67007:1.114102 67008:1.114102 67009:1.114102 67010:1.114102 67011:1.114102 67012:1.114102 67013:1.114102 67014:1.114102 67015:1.114102 67016:1.114102 67017:1.114102 67018:1.114102 67019:1.114102 67020:1.114102 67021:1.114102 67022:0.99857742 67023:1.114102 67024:1.114102 67025:0.99857742 67026:1.114102 67027:1.114102 67028:1.114102 67029:1.114102 67030:1.114102 67031:1.114102 67032:1.114102 67033:1.114102 67034:1.114102 67035:0.99857742 #
