SVM-light Version V6.02
0 # kernel type
3 # kernel parameter -d 
1 # kernel parameter -g 
1 # kernel parameter -s 
1 # kernel parameter -r 
empty# kernel parameter -u 
41030 # highest feature index 
512 # number of training documents 
501 # number of support vectors plus 1 
0.16085838 # threshold b, each following line is a SV (starting with alpha*y)
-0.008715290792827349447557949702059 1:0.42293116 2:0.14348058 3:0.46549997 4:0.44152644 5:0.3948918 6:0.35722637 7:0.49928871 8:0.557051 9:0.557051 10:0.11763435 11:0.11027663 12:0.13155553 13:0.35722637 14:0.46549997 15:0.19951269 16:0.10244089 17:0.24758664 18:0.23273262 19:0.33138013 20:0.37394893 21:0.24758664 22:0.37394893 23:0.3948918 24:0.4077377 25:0.32600191 26:0.44152644 27:0.46549997 28:0.46549997 29:0.11145868 30:0.3948918 31:0.42293116 32:0.93099993 33:0.4077377 34:0.22619332 35:0.49928871 36:0.557051 37:0.557051 38:0.557051 39:0.25614116 40:0.49928871 41:0.1233543 42:0.557051 43:0.557051 44:0.23785272 45:0.221605 46:0.557051 47:0.46209812 48:0.46549997 49:0.3651689 50:0.096265219 51:0.10460551 52:0.557051 53:0.49928871 54:0.2823979 55:0.44152644 56:0.20300971 57:0.4077377 58:0.46549997 59:0.557051 60:0.557051 61:0.49928871 62:0.19726031 63:0.29221317 64:0.067239664 65:0.49928871 66:0.557051 67:0.557051 68:0.42293116 69:0.37394893 70:0.557051 71:0.557051 72:0.35722637 73:0.2957598 74:0.31168106 75:0.3948918 76:1.114102 77:1.114102 78:0.557051 79:0.49928871 80:0.557051 81:0.557051 82:0.557051 83:0.42293116 84:0.3948918 85:0.6418997 86:0.49928871 87:0.557051 88:0.557051 89:0.44152644 90:0.557051 91:0.557051 92:0.557051 93:0.42293116 94:0.2823979 95:0.557051 96:0.46549997 97:0.49928871 98:0.49928871 99:0.557051 100:0.37394893 101:0.46549997 102:0.557051 103:0.25614116 104:0.84586233 105:0.39902538 106:0.557051 107:0.557051 108:0.557051 109:0.3948918 110:0.557051 111:0.557051 112:0.38376418 113:0.557051 114:0.46549997 115:0.557051 116:0.49928871 117:0.35722637 118:0.49928871 119:0.557051 120:0.49928871 121:0.557051 122:0.557051 123:0.557051 124:0.49928871 125:0.46549997 126:0.32600191 127:0.44152644 128:0.42293116 129:0.557051 130:0.3651689 131:0.49928871 132:0.46549997 133:0.557051 134:0.557051 135:0.3651689 136:0.4077377 137:0.10911111 138:0.276443 139:0.30740663 140:0.29299897 141:0.095154926 142:0.070520006 143:0.22013004 144:0.028540859 145:0.24964435 146:0.17245761 147:0.21312311 148:0.44152644 149:0.0087885056 150:0.035578679 151:0.078265309 152:0.027341278 153:0.24964435 154:0.15809333 155:0.1950672 156:0.10914221 157:0.045573723 158:0.39675778 159:0.30334076 160:0.17412433 161:0.0031546683 162:0.28554294 163:0.10682266 164:0.0075377519 165:0.22463565 166:0.76752836 167:0.44152644 168:0.056727055 169:0.557051 170:0.23799753 171:0.23799753 172:0.557051 173:0.098506995 174:0.10758202 175:0.367419 176:0.21178976 177:0.42293116 178:0.23104906 179:0.30740663 180:0.15879069 181:0.49928871 182:0.067473419 183:0.091446921 184:0.4077377 185:0.13360061 186:0.3433052 187:0.38376418 188:0.11304092 189:0.14705257 190:0.31207123 191:1.3245794 192:0.33138013 193:0.7897836 194:0.557051 195:0.55288601 196:0.4289563 197:0.48340368 198:0.12523568 199:0.32600191 200:0.17412433 201:0.46549997 202:0.18299794 203:0.15949392 204:0.46549997 205:0.74275994 206:0.3948918 207:0.21868072 208:0.19837889 209:0.21447815 210:0.087485179 211:0.36978394 212:0.018954795 213:0.2584244 214:0.30334076 215:0.49928871 216:0.33138013 217:0.46549997 218:0.3948918 219:0.3948918 220:0.2584244 221:0.20300971 222:0.24758664 223:0.15809333 224:0.46549997 225:0.557051 226:0.22939885 227:0.058599792 228:0.14705257 #
-0.029649468768608574359424423505516 10:0.28232244 41:0.059210066 64:0.080687597 144:0.03424903 149:0.0061519542 150:0.085388824 152:0.016404767 155:0.23408063 161:0.0075712041 163:0.011653381 164:0.010050336 168:0.068072468 182:0.080968097 183:0.10973631 185:0.16032073 188:0.18086548 212:0.022745753 223:0.189712 226:0.2752786 229:0.22657712 230:0.1707878 231:0.59914643 232:0.66846114 233:0.24219319 234:0.38513985 235:0.35491174 236:0.43820265 237:0.47387016 238:0.17113322 239:0.52983171 240:0.66846114 241:0.42867166 242:0.66846114 243:0.55859995 244:0.47387016 245:0.59914643 246:0.55859995 247:0.59914643 248:0.16879402 249:0.16081575 250:0.66846114 251:0.66846114 252:0.66846114 253:0.43820265 254:0.59914643 255:0.59914643 256:0.52983171 257:0.36888793 258:0.31010929 259:0.26956278 260:0.37942401 261:0.32188758 262:0.35491174 263:0.55859995 264:0.52983171 265:0.52983171 266:0.5075174 267:0.20402208 268:0.36400893 269:0.47387016 270:0.59914643 271:0.59914643 272:0.66846114 273:0.59914643 274:0.3912023 275:0.55859995 276:0.66846114 277:0.55859995 278:0.66846114 279:0.5075174 280:0.38513985 281:0.41997051 282:0.42867166 283:0.47387016 284:0.29957321 285:0.41997051 286:0.66846114 287:0.59914643 288:0.12335733 289:0.3912023 290:0.35935694 291:0.59914643 292:0.34265152 293:0.3388775 294:0.30210501 295:0.2752786 296:0.36888793 297:0.34265152 298:0.66846114 299:0.66846114 300:0.66846114 301:0.66846114 302:0.66846114 303:0.66846114 304:0.1401408 305:0.66846114 306:0.66846114 307:0.59914643 308:0.52983171 309:0.66846114 310:0.66846114 311:0.55859995 312:0.14642559 313:0.3912023 314:0.3912023 315:0.5075174 316:0.057758883 317:0.39765614 318:0.055898875 319:0.050082136 320:0.13813068 321:0.1913927 322:0.10899004 323:0.5075174 324:0.09185566 325:0.17429693 326:0.47387016 327:0.41997051 328:0.19932638 329:0.66846114 330:0.34265152 331:0.5075174 332:0.11551826 333:0.12640767 334:0.29957321 335:0.3388775 336:0.46051702 337:0.23538783 338:0.077381507 339:0.43820265 340:0.46051702 341:0.35491174 342:0.52983171 343:0.40455544 344:0.36400893 345:0.265926 346:0.18094145 347:0.22072749 348:0.52983171 349:0.26241687 350:0.28559703 351:0.33173159 352:0.25737378 353:0.22302644 354:0.5075174 355:0.66846114 356:0.59914643 357:0.52983171 358:0.13862944 359:0.66846114 360:0.35935694 361:0.43820265 362:0.36888793 363:0.47387016 364:0.22072749 365:0.33524072 #
-0.011214357248068755959491404894379 12:0.15786663 16:0.24585812 17:0.59420794 18:0.27927914 51:0.25105321 105:0.23941523 137:0.13093333 140:0.21095926 141:0.057092953 142:0.12693602 144:0.10274709 145:0.29957321 147:0.25574774 149:0.0087885056 150:0.042694412 151:0.11270204 152:0.02460715 154:0.37942401 156:0.087313771 161:0.009464005 163:0.081573673 164:0.0060302014 168:0.13614494 173:0.059104197 182:0.080968097 183:0.10973631 195:0.33173159 198:0.15028282 200:0.20894919 207:0.26241687 208:0.47610933 211:0.22187036 212:0.045491505 227:0.21095926 233:0.24219319 241:0.42867166 248:0.084397011 249:0.080407873 288:0.24671465 304:0.1401408 316:0.057758883 318:0.037265915 319:0.033388089 320:0.13813068 324:0.09185566 325:0.17429693 338:0.15476301 358:0.13862944 366:0.29957321 367:0.25257286 368:0.11048819 369:0.20596389 370:0.3912023 371:0.21099007 372:0.44873872 373:0.66846114 374:0.59914643 375:0.29710397 376:0.52983171 377:0.43820265 378:0.59914643 379:0.66846114 380:0.66846114 381:0.66846114 382:0.46051702 383:0.55859995 384:0.28559703 385:0.22657712 386:0.25574774 387:0.52983171 388:0.34265152 389:0.41997051 390:0.59914643 391:0.66846114 392:0.5075174 393:0.66846114 394:0.66846114 395:0.43820265 396:0.48928523 397:0.48928523 398:0.5075174 399:0.66846114 400:0.59914643 401:0.48928523 402:0.55859995 403:0.37401727 404:0.23151639 405:0.66846114 406:0.52983171 407:0.43820265 408:0.48928523 409:0.66846114 410:0.59914643 411:0.41997051 412:0.66846114 413:0.52983171 414:0.66846114 415:0.34657359 416:0.66846114 417:0.66846114 418:0.66846114 419:0.66846114 420:0.47387016 421:0.5075174 422:0.34265152 423:0.17942625 424:0.36888793 425:0.26241687 426:0.73777586 427:0.30736938 428:0.55859995 429:0.31582513 430:0.66846114 431:0.66846114 432:0.59914643 433:0.46051702 434:0.3388775 435:0.45315424 436:0.59914643 437:0.66846114 438:0.25257286 439:0.25574774 440:0.48928523 441:0.66846114 442:0.66846114 443:0.55859995 444:0.55859995 445:0.66846114 446:0.59914643 447:0.43820265 448:0.44873872 449:0.66846114 450:0.66846114 451:0.55859995 452:0.075768568 453:0.59914643 454:0.59914643 455:0.3912023 456:0.1628366 457:0.2834464 458:0.55859995 459:0.66846114 460:0.66846114 461:0.66846114 462:0.66846114 463:0.36400893 464:0.59914643 465:0.66846114 466:0.37401727 467:0.66846114 468:0.42867166 469:0.66846114 470:0.3912023 471:0.3188104 472:0.74803454 473:0.48928523 474:0.43820265 475:0.47387016 476:0.37401727 477:0.44873872 478:0.34265152 479:0.28134108 480:0.31010929 481:0.48928523 482:0.20402208 483:0.59914643 484:0.52983171 485:0.42867166 486:0.41196623 487:0.55859995 488:0.39765614 489:0.26241687 490:0.5075174 491:0.59914643 492:0.071334988 493:0.1628366 494:0.36400893 495:0.26241687 496:0.27143198 497:0.59914643 498:0.5075174 499:0.42867166 500:0.37401727 501:0.5075174 502:0.55859995 503:0.59914643 504:0.42405272 505:0.27526879 506:0.26956278 507:0.46051702 508:0.32188758 509:0.52983171 510:0.66846114 511:0.20306514 512:0.19932638 513:0.053828247 514:0.22072749 515:0.16806655 516:0.96566272 517:0.42198014 518:0.5075174 519:0.3388775 520:0.43820265 521:0.46051702 522:0.36888793 523:0.42867166 524:0.48928523 525:0.35935694 526:0.40613028 527:0.30736938 528:0.265926 529:0.42867166 530:0.2834464 531:0.067334458 532:0.26241687 533:0.41588831 534:0.19310215 535:0.38513985 536:0.34657359 537:0.11833535 538:0.17646308 539:0.47387016 540:0.37942401 541:0.23151639 542:0.3912023 543:0.079850771 544:0.36888793 545:0.5075174 546:0.21307348 547:0.10078579 548:0.5075174 549:0.55859995 550:0.22302644 551:0.47387016 552:0.1508462 553:0.20694911 554:0.29004222 555:0.23671237 556:0.16157076 557:0.24361165 558:0.24361165 559:0.40455544 560:0.21067999 561:0.40455544 562:0.022158228 563:0.1018185 564:0.13664918 565:0.23538783 566:0.14167535 567:0.27725887 568:0.077110872 #
-0.0032233029156790017448475094141713 11:0.14703551 16:0.13658784 17:0.33011553 23:0.5265224 24:0.54365027 25:0.43466923 29:0.14861158 47:0.30806541 56:0.27067962 64:0.089652881 117:0.47630182 140:0.31253222 141:0.06343662 143:0.29350671 144:0.11416344 146:0.22994347 149:0.0078120055 150:0.047438238 151:0.020870749 152:0.082023837 154:0.21079111 157:0.060764965 158:0.79351556 159:0.40445438 160:0.46433154 161:0.0084124487 163:0.051792808 164:0.0089336317 173:0.065671332 175:0.16329733 180:0.21172091 188:0.050240412 190:0.20804748 203:0.21265857 212:0.10109223 230:0.18976422 238:0.095074013 319:0.055646818 324:0.10206185 332:0.12835363 338:0.25793836 375:0.33011553 423:0.19936252 504:0.23558484 531:0.52371246 538:0.19607009 543:0.088723078 547:0.11198422 556:0.17952307 557:0.27067962 560:0.11704444 567:0.30806541 568:0.085678749 569:0.40445438 570:0.20020109 571:0.3248235 572:0.15627745 573:0.42158222 574:0.56390822 575:0.62066662 576:0.66571826 577:0.74273461 578:0.34152153 579:0.23443341 580:0.74273461 581:0.74273461 582:0.74273461 583:0.74273461 584:0.49859858 585:0.2974754 586:0.37248969 587:0.62066662 588:0.46663389 589:0.74273461 590:0.66571826 591:0.62066662 592:0.74273461 593:0.74273461 594:0.74273461 595:0.40987548 596:0.51168555 597:0.5265224 598:0.29350671 599:0.74273461 600:0.74273461 601:0.47630182 602:0.54365027 603:0.23443341 604:0.65487605 605:0.73718131 606:0.51168555 607:1.0873005 608:0.51168555 609:0.66571826 610:0.74273461 611:0.74273461 612:0.66571826 613:0.46663389 614:0.74273461 615:0.38508177 616:0.74273461 617:0.74273461 618:0.74273461 619:0.74273461 620:0.62066662 621:0.2194535 622:0.56390822 623:0.5887019 624:0.19936252 625:0.74273461 626:0.74273461 627:0.74273461 628:0.22884877 629:0.74273461 630:0.49859858 631:0.47630182 632:0.62066662 633:0.74273461 634:0.45774028 635:0.5887019 636:0.31494045 637:0.74273461 638:0.74273461 639:0.74273461 640:0.74273461 641:0.49859858 642:0.46663389 643:0.42793316 644:0.74273461 645:0.74273461 646:1.3485181 647:0.34769598 648:0.74273461 649:0.66571826 650:0.74273461 651:0.66571826 652:0.31494045 653:0.22884877 654:0.37981144 655:0.3248235 656:0.26910353 657:0.32743803 658:0.2915743 659:0.33855841 660:0.74273461 661:0.74273461 662:0.74273461 663:0.74273461 664:0.74273461 665:0.49859858 666:0.74273461 667:0.74273461 668:0.74273461 669:0.74273461 670:0.66571826 671:0.74273461 672:0.66571826 673:0.32226911 674:0.40445438 675:0.46663389 676:0.46663389 677:0.74273461 678:0.74273461 679:0.74273461 680:0.74273461 681:0.74273461 682:0.66571826 683:0.74273461 684:0.74273461 685:0.66571826 686:0.66571826 687:0.74273461 688:0.74273461 689:0.74273461 690:0.62066662 691:0.54365027 692:0.51168555 693:0.47630182 694:0.74273461 695:0.74273461 696:0.74273461 697:0.74273461 698:0.74273461 699:0.66571826 700:0.74273461 701:0.66571826 702:0.56390822 703:0.5887019 704:0.44184017 705:0.31260118 706:0.36859065 707:0.49859858 708:0.33011553 709:0.56390822 710:0.66571826 711:0.38961753 712:0.62066662 713:0.5887019 714:0.66571826 715:0.74273461 716:0.42158222 717:0.74273461 718:0.74273461 719:0.74273461 720:0.74273461 721:0.66571826 722:0.74273461 723:0.74273461 724:0.74273461 725:0.28597087 726:0.74273461 727:0.74273461 728:0.74273461 729:0.74273461 730:0.48689184 731:0.28597087 732:0.045748301 733:0.3509168 734:0.40987548 735:0.32743803 736:0.12747528 737:0.5887019 738:0.14243715 739:0.66571826 740:1.0873005 741:0.74273461 742:0.31733003 743:0.28238633 744:0.66571826 745:0.29350671 746:0.62988091 747:0.9309305 748:0.41073996 749:0.37653053 750:0.39540821 751:0.74273461 752:0.74273461 753:0.40987548 754:0.22045904 755:0.33285913 756:0.38771695 757:0.33855841 758:0.45774028 759:0.41696325 760:0.37248969 761:0.74273461 762:0.38072392 763:1.1978564 764:0.31173959 765:0.32743803 766:0.62066662 767:0.11824565 768:0.22608618 769:0.34152153 770:0.66571826 771:0.74273461 772:0.54365027 773:0.28967491 774:0.33855841 775:0.20625533 776:0.27891383 777:0.45774028 778:0.27891383 779:0.39434639 780:0.66571826 781:0.74273461 782:0.19853021 783:0.33011553 784:0.24152802 785:0.74273461 786:1.0233711 787:0.38508177 788:0.50619835 789:0.5887019 790:0.18163952 791:0.2332938 792:0.27891383 793:0.18092954 794:0.15021032 795:0.74273461 796:0.39434639 797:0.47630182 798:0.66571826 799:0.35765287 800:0.54365027 801:0.34769598 802:0.5887019 803:0.2915743 #
-0.005452639214476594914371432309963 12:0.12143587 16:0.28368244 21:0.22854151 31:0.390398 39:0.23643799 41:0.068319306 44:0.21955636 64:0.062067382 140:0.21636847 142:0.032547697 144:0.026345408 149:0.0087885056 151:0.11559184 152:0.031547628 155:0.18006203 156:0.033582218 157:0.084136106 158:0.18311897 161:0.01892801 163:0.02689242 164:0.0092772329 165:0.20735598 168:0.20945375 170:0.21969002 171:0.21969002 173:0.18185906 182:0.12456631 183:0.084412545 188:0.06956365 189:0.13574083 212:0.043741833 235:0.27300903 249:0.061852209 259:0.20735598 274:0.30092484 288:0.37956101 304:0.21560124 307:0.46088189 318:0.014333044 319:0.025683146 320:0.10625437 321:0.29445031 322:0.083838485 324:0.070658199 325:0.13407457 333:0.097236671 341:0.27300903 348:0.40756288 354:0.390398 356:0.46088189 358:0.21327606 360:0.2764284 407:0.67415792 422:0.26357809 427:0.23643799 482:0.15694006 489:0.20185913 511:0.15620396 517:0.16230005 523:0.65949482 531:0.051795736 533:0.15995704 538:0.27148166 543:0.24569468 545:0.390398 560:0.081030764 566:0.10898104 568:0.059316054 621:0.15192935 624:0.1380202 704:0.30588934 742:0.21969002 755:0.46088189 757:0.23438658 764:0.071939901 765:0.22668785 768:0.052173737 776:0.19309419 782:0.13744399 791:0.16151109 797:0.32974741 801:0.24071258 804:0.19797984 805:0.21327606 806:0.51420093 807:0.51420093 808:0.51420093 809:0.51420093 810:0.46088189 811:0.51420093 812:0.51420093 813:0.51420093 814:0.67463344 815:0.2554971 816:0.19925132 817:0.34518364 818:0.23643799 819:0.11959331 820:0.2962614 821:0.51420093 822:0.30092484 823:0.18006203 824:0.21969002 825:0.46088189 826:0.32974741 827:0.2918646 828:0.34518364 829:0.51420093 830:0.33707896 831:0.51420093 832:0.51420093 833:0.51420093 834:0.81512576 835:0.92176378 836:0.92176378 837:0.61177868 838:0.22310939 839:0.26357809 840:0.31119651 841:0.46088189 842:0.26067498 843:0.19549823 844:0.46088189 845:0.41188902 846:0.51420093 847:0.37637326 848:0.32305422 849:0.24760583 850:0.21175277 851:0.46088189 852:0.51420093 853:0.51420093 854:0.51420093 855:0.1680617 856:0.20879383 857:0.36451551 858:0.37637326 859:0.51420093 860:0.46088189 861:0.36451551 862:0.37637326 863:0.27300903 864:0.26357809 865:0.51420093 866:0.40756288 867:0.51420093 868:0.51420093 869:0.51420093 870:0.51420093 871:0.51420093 872:0.51420093 873:0.42969227 874:0.51420093 875:0.42969227 876:0.46088189 877:0.40756288 878:0.51420093 879:0.51420093 880:0.51420093 881:0.51420093 882:0.46088189 883:0.51420093 884:0.28000686 885:0.42969227 886:0.42969227 887:0.42969227 888:0.390398 889:0.51420093 890:0.51420093 891:0.51420093 892:0.51420093 893:0.51420093 894:0.51420093 895:0.51420093 896:0.40756288 897:0.37637326 898:0.28375995 899:0.51420093 900:0.51420093 901:0.51420093 902:0.51420093 903:0.51420093 904:0.390398 905:0.24294239 906:0.36451551 907:0.46088189 908:0.37637326 909:0.46088189 910:0.46088189 911:0.42969227 912:0.51420093 913:0.51420093 914:0.51420093 915:0.51420093 916:0.51420093 917:0.51420093 918:0.51420093 919:0.51420093 920:0.31240791 921:0.14854012 922:0.51420093 923:0.42969227 924:0.30588934 925:0.51420093 926:0.22854151 927:0.28375995 928:0.36451551 929:0.30092484 930:0.42969227 931:0.51420093 932:0.51420093 933:0.51420093 934:0.51420093 935:0.51420093 936:0.34518364 937:0.390398 938:0.28375995 939:0.34518364 940:0.24523878 941:0.32974741 942:0.51420093 943:0.37637326 944:0.51420093 945:0.40756288 946:0.46088189 947:0.51420093 948:0.46088189 949:0.33707896 950:0.390398 951:0.36451551 952:0.37637326 953:0.40756288 954:0.40756288 955:0.40756288 956:0.51420093 957:0.30588934 958:0.51420093 959:0.51420093 960:0.51420093 961:0.51420093 962:0.42969227 963:0.37637326 964:0.42969227 965:0.51420093 966:0.51420093 967:0.390398 968:0.36451551 969:0.51420093 970:0.36451551 971:0.51420093 972:0.073423997 973:0.11560217 974:0.51420093 975:0.31689709 976:0.40756288 977:0.13137522 978:0.11017987 979:0.31689709 980:0.46088189 981:0.81512576 982:0.92176378 983:0.19925132 984:0.12575044 985:0.20798352 986:0.36451551 987:0.13084655 988:0.33707896 989:0.15995704 990:0.40756288 991:0.11959331 992:0.26067498 993:0.42969227 994:0.28375995 995:0.2962614 996:0.12624513 997:0.51420093 998:0.51420093 999:0.2764284 1000:0.35424387 1001:0.390398 1002:0.51420093 1003:0.51420093 1004:0.46088189 1005:0.26973522 1006:0.20735598 1007:0.25004804 1008:0.46088189 1009:0.33707896 1010:0.42969227 1011:0.23044094 1012:0.32305422 1013:0.51420093 1014:0.28375995 1015:0.12143587 1016:0.34518364 1017:0.36451551 1018:0.51420093 1019:0.51420093 1020:0.390398 1021:0.46088189 1022:0.46088189 1023:0.18363087 1024:0.31689709 1025:0.11690968 1026:0.25004804 1027:0.61177868 1028:0.42969227 1029:0.15919164 1030:0.22138071 1031:0.14529394 1032:0.36451551 1033:0.36451551 1034:0.28000686 1035:0.31119651 1036:0.40756288 1037:0.390398 1038:0.25257033 1039:0.22668785 1040:0.30092484 1041:0.2877056 #
0.018773294085478332143823720912224 16:0.15366133 41:0.037006289 64:0.10085949 140:0.26369905 141:0.071366191 142:0.052890006 143:0.33019507 144:0.042811289 146:0.25868639 149:0.0054928162 150:0.053368017 151:0.046959184 157:0.068360582 161:0.011830006 163:0.072833635 164:0.010050336 173:0.073880248 183:0.13717039 185:0.20040092 189:0.22057885 199:0.48900288 212:0.014216095 248:0.10549626 254:0.74893308 255:0.74893308 318:0.023291197 319:0.041735113 324:0.076546386 331:0.63439673 332:0.28879565 347:0.27590936 385:0.28322139 386:0.31968465 404:0.28939548 452:0.094710715 482:0.25502759 492:0.089168735 493:0.20354573 504:0.53006589 508:0.40235949 513:0.067285307 514:0.27590936 562:0.083093353 563:0.12727313 585:0.33465981 586:0.4190509 732:0.10293368 738:0.1602418 742:0.3569963 754:0.24801642 756:0.14539385 775:0.23203725 920:0.25383142 957:0.49707019 973:0.18785352 1000:0.57564628 1007:0.40632805 1023:0.099466719 1051:0.49707019 1052:0.19433913 1093:0.43321699 1137:0.3099899 1140:0.14539385 1211:0.50221956 1264:0.61160654 1307:0.22713466 1324:0.26900154 1327:0.49707019 1333:0.53583956 1345:0.19141501 1522:0.13439249 1525:0.26245552 1529:0.27878305 1716:0.53268373 2011:0.2790668 2082:0.34909892 2167:0.1837095 2180:0.27733794 2186:0.70335269 2289:0.25383142 2402:0.17142572 2618:0.49707019 2691:0.39851302 2787:0.54775333 2843:0.27310026 2851:0.51495779 2852:0.63439673 2853:0.66228968 2854:0.69824994 3049:0.41466448 3334:0.35974365 3470:0.37446654 3475:0.57564628 3705:0.48142481 3712:0.41466448 3852:0.26118648 3998:0.48142481 4167:0.46752161 4229:0.4436397 4333:0.46110994 4343:0.69824994 4399:0.33695346 4400:0.4104268 4780:0.38421172 5162:0.47428 6027:0.59233767 6072:0.54775333 6243:0.46110994 6431:0.25868639 6480:0.35430801 6495:0.46110994 6506:0.69824994 6707:0.66228968 6841:0.74893308 8309:0.53583956 10409:0.47428 11344:0.50569427 11345:0.46110994 13283:0.69824994 13493:0.63439673 13722:0.74893308 13723:0.74893308 15892:0.33695346 15898:0.31186962 18514:0.5609234 21519:0.69824994 21520:0.59233767 22827:0.74893308 22828:0.74893308 23504:0.66228968 26288:0.74893308 26714:0.74893308 27078:0.48142481 27104:0.4436397 28305:0.83557647 28306:0.83557647 28307:0.74893308 28308:0.83557647 28309:0.83557647 28310:0.83557647 28311:0.74893308 28312:0.83557647 28313:0.69824994 28314:0.69824994 28315:0.83557647 28316:0.69824994 28317:0.83557647 28318:0.83557647 28319:0.83557647 28320:0.83557647 28321:0.83557647 28322:0.83557647 28323:0.83557647 28324:0.5609234 28325:0.83557647 28326:0.83557647 28327:0.74893308 28328:0.74893308 #
0.0042120083055118074169542730089688 41:0.059210066 94:0.677755 105:0.47883046 140:0.1406395 143:0.52831209 149:0.0035154023 150:0.085388824 151:0.075134695 152:0.032809533 161:0.003785602 163:0.11653382 164:0.0040201345 168:0.13614494 173:0.11820839 185:0.32064146 188:0.090432741 203:0.38278541 210:0.20996442 211:0.44374073 212:0.11372876 223:0.37942401 267:0.40804416 320:0.27626136 343:0.80911088 345:0.53185201 346:0.3618829 531:0.13466892 538:0.35292616 550:0.44605288 558:0.4872233 560:0.21067999 568:0.15422174 586:0.67048144 598:0.52831209 656:0.48438638 705:0.56268215 732:0.16469389 743:0.50829542 756:0.46526033 764:0.37408748 791:0.20996442 793:0.32567319 845:0.5354557 856:0.54286397 985:0.27037859 1023:0.63658702 1029:0.41389823 1038:0.65668285 1051:0.79531229 1077:0.58938843 1171:0.25548798 1186:0.85734332 1187:0.7824046 1302:0.25281534 1303:0.34020102 1307:0.36341545 1318:0.4930208 1352:0.29833096 1353:0.44374073 1427:0.39322257 1525:0.41992885 1529:0.44605288 1594:0.70131159 1706:0.56268215 1807:0.64377517 2034:0.54286397 2155:0.40804416 2470:0.3712596 2535:1.0596634 2552:0.63762081 2691:0.63762081 2743:0.41192779 2760:0.92103404 3013:0.58468235 3023:0.58468235 3233:0.64377517 3712:0.66346318 3869:0.72801787 3997:0.59914643 4149:0.75884801 4264:0.92103404 5173:0.61473876 5253:0.47342473 5274:0.77027971 5728:0.83994102 5734:0.62021858 5876:1.0150348 6108:0.50829542 6813:0.74803454 7295:0.97857046 7337:0.94774032 7349:1.1171999 7538:0.68530303 7546:0.65012491 8192:0.7824046 9094:0.80911088 9305:0.63165027 9726:0.73777586 10012:0.97857046 10249:0.92103404 10420:0.80911088 10762:0.97857046 10832:0.82393247 10833:0.80911088 12137:0.73777586 13323:0.94774032 15884:1.1171999 16154:1.1982929 17370:1.1982929 19823:0.97857046 20512:0.94774032 21779:0.89747745 21781:1.1171999 25236:0.97857046 26874:1.1171999 28329:0.92103404 28330:1.1982929 28331:1.3369223 28332:1.3369223 28333:1.3369223 28334:1.3369223 28335:1.3369223 28336:1.3369223 28337:1.3369223 28338:1.0596634 28339:1.0596634 28340:1.3369223 28341:1.1171999 28342:1.3369223 28343:1.1982929 28344:1.3369223 28345:1.1982929 28346:1.1982929 28347:1.3369223 28348:1.3369223 28349:1.3369223 28350:1.3369223 28351:1.1982929 28352:1.3369223 #
0.028525151902967608996686266209508 16:0.40976354 18:0.46546525 41:0.04934172 50:0.19253044 137:0.43644443 138:0.55288601 140:0.35159877 144:0.11416344 149:0.0087885056 152:0.041011918 154:0.31618667 156:0.072761476 161:0.0063093365 164:0.010050336 182:0.13494684 185:0.26720122 188:0.075360619 208:0.39675778 212:0.018954795 213:0.5168488 214:0.60668153 223:0.31618667 226:0.45879769 227:0.23439917 228:0.29410514 233:0.40365532 238:0.28522202 249:0.13401312 292:0.57108587 293:0.56479579 312:0.24404265 316:0.096264809 318:0.093164787 319:0.13911705 321:0.31898785 324:0.10206185 332:0.19253044 338:0.12896918 351:0.55288601 368:0.18414699 420:0.7897836 471:0.53135067 472:0.62336212 492:0.11889165 493:0.27139431 530:0.47241068 543:0.13308461 562:0.036930379 563:0.16969751 572:0.23441617 731:0.4289563 732:0.13724491 804:0.4289563 815:0.27678853 972:0.15908532 1029:0.34491521 1052:0.25911883 1058:0.28123325 1138:0.29410514 1308:0.63237333 1361:0.45556134 1522:0.17918999 1594:0.58442634 1595:0.7303378 1706:0.46890178 1813:0.40365532 1999:0.24768579 2053:0.93099993 2082:0.46546525 2167:0.24494599 2180:0.36978394 2445:0.76752836 2470:0.309383 2472:0.29904377 2569:0.63237333 2583:0.76752836 2622:0.57762265 2724:0.49928871 2734:0.4289563 3019:0.57762265 3404:0.69995087 3465:0.37563249 3483:0.48340368 3551:0.69995087 3938:0.8154754 3998:0.6418997 4012:0.48340368 4796:0.6866104 4810:0.7303378 4879:0.99857742 5280:0.88305289 5281:0.59892821 5282:0.93099993 5564:0.7303378 5790:0.65200382 6726:0.7897836 7256:0.69995087 7515:0.59151959 7556:0.50350833 8059:0.41837075 8374:0.7303378 8671:0.67425907 9220:0.93099993 11297:0.8154754 12609:0.48340368 14408:0.84586233 15892:0.44927129 15893:0.7897836 15898:0.41582617 16166:0.84586233 18142:0.88305289 18143:0.8154754 18634:0.8154754 21330:0.99857742 21641:0.93099993 24865:0.99857742 28353:0.99857742 28354:0.99857742 28355:0.8154754 28356:0.99857742 28357:1.114102 28358:1.114102 28359:1.114102 28360:1.114102 28361:1.114102 28362:1.114102 28363:1.114102 #
0.023053283685703439276348802877692 11:0.12030178 29:0.12159129 41:0.05382733 142:0.038465459 143:0.24014185 144:0.093406446 149:0.0047937306 150:0.038813103 151:0.085380338 161:0.010324369 163:0.031781949 164:0.010050336 168:0.061884061 175:0.13360691 180:0.17322621 183:0.099760279 212:0.031016937 227:0.063927047 248:0.076724552 320:0.12557335 324:0.027835049 384:0.25963366 452:0.068880521 457:0.25767857 482:0.18547462 492:0.064849988 493:0.14803326 513:0.097869538 531:0.12242628 543:0.14518322 546:0.19370316 547:0.091623448 560:0.095763631 562:0.060431529 563:0.092562273 571:0.26576468 586:0.3047643 628:0.1872399 634:0.37451476 647:0.28447852 654:0.10358494 673:0.26367474 732:0.037430428 738:0.23307897 748:0.16802998 750:0.1617579 756:0.21148196 758:0.37451476 764:0.17003977 768:0.061659869 769:0.55885345 792:0.22820222 823:0.21280058 920:0.18460467 972:0.086773813 1015:0.14351511 1023:0.14467886 1051:0.3615056 1151:0.15716225 1153:0.17246546 1171:0.1161309 1179:0.21046944 1211:0.091312647 1255:0.17399338 1294:0.14978719 1302:0.11491606 1305:0.23249795 1391:0.34001571 1465:0.48166522 1516:0.17955287 1786:0.33535269 1806:0.27464092 1883:0.23700675 1947:0.33091721 2314:0.46137944 2338:0.22017562 2346:0.21398894 2410:0.3150669 2428:0.3150669 2547:0.44480476 2548:0.38179138 2554:0.37451476 2563:0.25205353 2606:0.29849222 2731:0.21398894 3233:0.29262507 3534:0.26576468 3579:0.17476708 3868:0.46795234 4513:0.34493092 4522:0.34001571 4640:0.22681427 4755:0.38970149 4936:0.28982764 5245:0.38970149 5428:0.41865185 5429:0.43079105 5442:0.40794429 5687:0.46137944 5734:0.28191751 6051:0.43079105 6478:0.26576468 6732:0.54467857 6810:0.25767857 6829:0.2557646 6868:0.3047643 6956:0.36777768 7042:0.40794429 7232:0.44480476 7829:0.44480476 8852:0.32668811 10882:0.46137944 14529:0.40794429 15831:0.44480476 17513:0.46137944 17852:0.5078181 20742:0.41865185 21644:0.46137944 21744:0.68003142 22169:0.44480476 23131:0.38179138 23960:0.54467857 26009:0.48166522 26223:0.5078181 28364:0.607692 28365:0.607692 28366:0.607692 28367:0.607692 28368:0.54467857 28369:0.607692 28370:0.607692 28371:0.607692 28372:0.607692 28373:1.0893571 28374:0.607692 28375:0.607692 28376:0.607692 28377:0.607692 28378:0.607692 28379:0.607692 28380:1.215384 28381:0.607692 28382:0.607692 28383:0.40794429 28384:0.48166522 28385:0.607692 28386:0.607692 28387:0.607692 28388:0.607692 28389:0.607692 28390:0.607692 28391:0.607692 28392:0.607692 28393:0.607692 28394:0.607692 28395:0.607692 28396:0.607692 28397:0.607692 28398:0.54467857 28399:0.607692 28400:0.607692 28401:0.607692 28402:0.607692 28403:0.607692 28404:0.607692 28405:0.607692 28406:0.607692 28407:0.5078181 28408:0.48166522 28409:0.5078181 28410:0.54467857 28411:0.607692 28412:0.5078181 28413:0.54467857 28414:0.607692 28415:1.215384 28416:0.607692 28417:0.607692 28418:0.607692 28419:0.607692 28420:0.607692 28421:0.607692 28422:0.607692 #
0.01083491262430375315362063304292 29:0.38214406 39:0.4390991 41:0.042292904 50:0.1650261 51:0.17932373 137:0.18704762 140:0.10045679 141:0.081561364 143:1.1320974 144:0.14678156 145:0.42796177 149:0.0037665025 150:0.060992021 151:0.053667638 152:0.058588453 156:0.062366977 157:0.078126378 161:0.010816006 163:0.099886127 164:0.010050336 165:0.38508967 170:0.40799576 171:0.40799576 173:0.084434569 174:0.36885262 188:0.12918963 197:0.41434601 213:0.44301325 221:0.34801665 227:0.10045679 230:0.24398257 241:1.2247761 267:0.29146013 318:0.053237021 319:0.047697272 320:0.19732955 322:0.15570004 324:0.17496316 325:0.49799123 332:0.1650261 420:0.67695737 423:0.25632322 504:0.3028948 530:0.40492344 531:0.19238415 537:0.1690505 557:0.34801665 568:0.11015839 572:0.20092815 587:0.79799992 624:0.25632322 653:0.29423413 654:0.16277632 732:0.11763849 767:0.30406025 768:0.096894078 773:0.74487835 863:0.50701678 1023:0.2273525 1031:0.2698316 1139:0.27341816 1140:0.1661644 1179:0.33073771 1213:0.49510512 1341:0.51336706 1343:0.37989429 1344:0.27101713 1345:0.21876001 1368:0.37989429 1486:0.40799576 1522:0.6143657 1692:0.23631054 1717:0.35427415 1814:0.24009506 1994:1.4500496 2058:0.99021024 2396:0.27341816 2432:0.49799123 2529:0.72502482 2604:0.34801665 2634:0.4598394 2635:0.36081839 2738:0.35007218 2867:0.30897474 2947:0.64105529 2961:0.5343104 3579:0.27463397 3760:0.33816051 4764:0.67695737 4776:0.48411068 4890:0.85592353 5269:0.52001274 5900:0.3014144 5926:0.65788144 6044:1.0400255 6179:0.65788144 6189:0.55886042 6687:0.52698278 6723:0.6260038 6729:0.56808025 7209:0.79799992 7851:0.34202176 8038:0.45544344 8090:0.61238807 8705:0.52001274 9156:0.48950216 9384:0.6260038 9453:0.79799992 9460:0.56808025 9462:0.57793635 9544:0.79799992 10020:0.61238807 10577:0.61238807 11307:0.6989789 11329:0.6989789 12270:0.85592353 13173:0.85592353 13225:0.6989789 14477:0.72502482 14610:0.49510512 19039:0.85592353 19042:0.58852321 20143:0.75690246 21195:0.85592353 24206:0.75690246 24355:0.85592353 25086:0.79799992 25087:0.72502482 25436:0.79799992 25444:0.79799992 27684:0.79799992 27759:0.85592353 28423:0.6989789 28424:0.95494455 28425:0.79799992 28426:0.72502482 28427:0.79799992 28428:0.72502482 28429:0.95494455 28430:0.95494455 28431:1.7118471 28432:1.9098891 28433:0.95494455 28434:0.95494455 28435:0.95494455 28436:0.85592353 28437:0.95494455 28438:0.95494455 28439:0.95494455 28440:0.95494455 28441:0.95494455 28442:0.95494455 28443:0.95494455 28444:0.95494455 28445:0.95494455 28446:0.85592353 28447:0.95494455 28448:0.75690246 28449:0.95494455 28450:0.95494455 28451:0.95494455 28452:0.85592353 28453:0.95494455 28454:0.85592353 28455:0.79799992 28456:0.85592353 28457:0.85592353 28458:0.85592353 28459:0.95494455 28460:0.75690246 28461:0.85592353 28462:0.95494455 28463:0.95494455 28464:0.95494455 28465:0.95494455 28466:0.95494455 28467:0.95494455 28468:0.85592353 28469:0.95494455 28470:0.95494455 28471:0.79799992 28472:0.95494455 28473:0.6989789 28474:0.95494455 #
-0.02768510807481603525070923410567 41:0.14802516 141:0.095154926 142:0.14104001 144:0.057081718 149:0.007323755 161:0.015773341 164:0.010050336 173:0.098506995 183:0.18289384 188:0.22608185 210:0.17497036 212:0.03790959 227:0.11719958 248:0.14066167 249:0.13401312 253:0.7303378 313:0.65200382 318:0.031054929 322:0.18165006 324:0.051030923 330:0.57108587 332:0.19253044 333:0.21067946 364:0.36787915 420:0.7897836 452:0.12628095 530:0.94482136 550:0.37171075 562:0.073860757 568:0.12851812 764:0.1558698 767:0.17736848 819:0.25911883 823:0.39013439 843:0.42357951 921:0.32183692 972:0.15908532 987:0.28350085 1294:0.27460986 1344:0.31618667 1352:0.24860914 1368:0.44321001 1453:0.34003681 1469:0.48340368 1600:0.45879769 1711:0.44026008 1801:0.43451238 1884:0.38376418 1890:0.39452061 2011:0.18604454 2055:0.53647929 2056:0.41837075 2162:0.36978394 2163:0.40841752 2165:0.69995087 2167:0.24494599 2195:0.47965822 2235:0.57762265 2472:0.59808755 2663:0.48723528 2836:0.33068857 2996:0.88305289 2997:0.52637517 3019:0.57762265 3020:0.52637517 3048:0.39231306 3051:0.60668153 3147:0.8154754 3579:0.32040629 3697:0.46546525 4515:0.41837075 4738:0.53135067 5137:0.69995087 5138:0.60668153 5276:0.93099993 5277:0.93099993 5278:1.114102 5279:0.93099993 5280:1.7661058 5281:0.59892821 5282:0.93099993 5283:0.88305289 5284:1.114102 5285:0.93099993 5286:1.114102 5287:1.114102 5288:0.69995087 5289:0.93099993 5290:0.84586233 5291:0.93099993 5292:0.6418997 5293:1.114102 5294:0.62336212 5295:0.99857742 5296:0.99857742 5297:0.84586233 5298:0.84586233 5299:1.114102 5300:1.114102 5301:0.99857742 5302:0.99857742 5303:0.59892821 5304:0.8154754 5305:0.88305289 5306:1.114102 5307:0.93099993 #
-0.01645594144021769733576832095423 11:0.22055326 12:0.26311105 13:0.71445274 16:0.20488177 41:0.04934172 50:0.19253044 137:0.21822222 139:0.61481327 140:0.11719958 142:0.14104001 144:0.22832687 149:0.0087885056 150:0.071157359 151:0.062612243 152:0.068353198 153:0.49928871 156:0.072761476 161:0.01892801 163:0.11653382 164:0.010050336 173:0.098506995 185:0.26720122 199:0.65200382 212:0.056864381 227:0.11719958 228:0.29410514 248:0.14066167 249:0.13401312 284:0.49928871 288:0.20559555 312:0.24404265 316:0.096264809 318:0.062109858 319:0.027823409 322:0.18165006 324:0.051030923 345:0.44321001 346:0.30156907 366:0.49928871 367:0.42095476 368:0.18414699 452:0.12628095 492:0.11889165 493:0.27139431 504:0.35337725 511:0.33844191 541:0.38586065 556:0.26928458 562:0.036930379 563:0.16969751 568:0.12851812 572:0.23441617 750:0.29655614 768:0.11304309 790:0.2724593 791:0.17497036 850:0.45879769 921:0.32183692 970:0.7897836 972:0.15908532 987:0.28350085 995:0.6418997 1031:0.31480354 1041:0.62336212 1173:0.52154392 1201:0.93099993 1294:0.27460986 1303:0.28350085 1311:0.6418997 1566:0.74789786 1691:0.67425907 1708:0.51228231 1726:0.30413321 1791:0.93099993 1885:0.6866104 2009:0.7897836 2027:0.44927129 2145:0.44321001 2162:0.36978394 2167:0.24494599 2258:0.50783759 2283:0.6418997 2346:0.39231306 2451:0.54723573 2472:0.29904377 2751:0.62336212 2954:0.53647929 3019:0.57762265 3340:0.26616922 3448:0.84586233 3678:0.71445274 3760:0.39452061 3865:0.67425907 3907:0.61481327 3998:0.6418997 4215:0.71445274 4352:0.88305289 4746:0.57762265 5256:0.56479579 5342:0.48340368 5736:0.8154754 5805:0.57108587 5865:0.6418997 5924:0.4317112 5925:0.58442634 6027:0.7897836 6028:0.76752836 6108:0.42357951 6463:0.88305289 6482:0.67425907 6483:0.7897836 6526:0.8154754 6569:0.61481327 6571:0.8154754 6673:0.93099993 6674:0.76752836 6675:0.93099993 6676:0.93099993 6677:0.8154754 6678:1.114102 6679:0.62336212 6680:0.55873454 6681:0.67425907 6682:0.99857742 6683:0.93099993 6684:0.93099993 6685:0.8154754 6686:0.74789786 6687:0.61481327 6688:1.114102 6689:1.114102 6690:1.114102 6691:1.114102 6692:1.114102 6693:1.114102 6694:0.7897836 6695:0.67425907 6696:1.114102 6697:0.93099993 6698:1.114102 6699:1.114102 6700:0.99857742 6701:0.93099993 6702:0.88305289 6703:1.114102 6704:1.114102 6705:1.114102 6706:1.114102 6707:0.88305289 6708:0.99857742 6709:0.7897836 6710:0.84586233 6711:0.99857742 6712:1.114102 6713:0.88305289 6714:1.114102 6715:1.114102 6716:1.114102 6717:0.63237333 6718:0.84586233 6719:0.93099993 6720:0.99857742 6721:1.114102 6722:0.99857742 6723:0.7303378 6724:0.7303378 6725:0.8154754 6726:0.7897836 6727:0.60668153 6728:1.114102 6729:0.66276026 6730:1.114102 6731:0.71445274 6732:0.99857742 6733:0.93099993 #
-0.0053894693657058406408011386190537 45:0.44321001 103:0.51228231 137:0.21822222 144:0.057081718 149:0.0029295019 150:0.071157359 152:0.054682557 157:0.27344233 161:0.012618673 163:0.058266908 164:0.0016750559 168:0.22690822 173:0.19701399 174:0.43032807 185:0.26720122 198:0.50094271 210:0.17497036 212:0.018954795 227:0.11719958 304:0.233568 316:0.096264809 318:0.062109858 320:0.4604356 338:0.12896918 358:0.23104906 368:0.18414699 456:0.27139431 537:0.19722559 543:0.13308461 547:0.16797632 562:0.036930379 624:0.59808755 628:0.34327316 732:0.068622455 756:0.38771695 768:0.11304309 815:0.27678853 1138:0.29410514 1139:0.31898785 1151:0.28813079 1211:0.16740651 1368:0.44321001 1429:0.17676571 1442:0.54177076 1449:0.44927129 1522:1.0751399 1685:0.40365532 1716:0.35512248 1750:0.49115703 1870:0.46209812 2624:0.6418997 2636:0.58442634 2810:0.44026008 2843:0.36413369 3325:0.66276026 3449:0.57108587 3880:0.76752836 3953:0.88305289 4142:0.8154754 4143:0.53647929 4198:0.4462131 4255:0.76752836 4267:0.53647929 4268:0.60668153 4780:0.51228231 4781:0.7897836 4975:0.88305289 5245:0.71445274 5269:0.60668153 5701:1.1688527 5926:0.76752836 6633:0.52637517 7240:0.7303378 7346:0.88305289 7448:0.7897836 7556:0.50350833 7851:0.39902538 8045:0.55288601 8698:0.88305289 8711:0.8154754 9186:0.8154754 9536:0.93099993 10256:0.93099993 10257:0.84586233 10297:0.74789786 10298:0.88305289 12559:0.8154754 13416:0.84586233 13497:0.71445274 14504:0.99857742 14530:0.88305289 14638:0.8154754 15423:0.99857742 15633:0.8154754 16313:0.84586233 17764:0.66276026 18078:0.88305289 22953:0.88305289 25071:1.114102 25072:1.114102 25073:1.114102 25074:1.114102 25075:1.114102 25076:0.99857742 25077:1.114102 25078:1.114102 25079:0.99857742 25080:1.114102 25081:1.114102 25082:1.114102 25083:1.114102 25084:1.114102 25085:1.114102 25086:0.93099993 25087:0.84586233 25088:1.114102 25089:1.114102 25090:1.114102 25091:1.114102 25092:1.114102 25093:1.114102 25094:1.114102 25095:0.99857742 25096:1.114102 25097:1.114102 25098:1.114102 25099:0.99857742 25100:0.99857742 25101:0.8154754 25102:1.114102 25103:1.114102 25104:1.114102 25105:1.114102 25106:1.114102 25107:1.114102 25108:1.114102 25109:1.114102 25110:1.114102 25111:1.114102 25112:1.114102 25113:1.114102 25114:1.114102 25115:1.114102 25116:1.114102 25117:1.114102 25118:0.93099993 25119:1.114102 25120:1.114102 #
-0.0089979932419870095605674009675568 10:0.28232244 16:0.24585812 29:0.26750085 41:0.059210066 50:0.23103653 137:0.26186666 140:0.1406395 144:0.06849806 149:0.0087885056 150:0.085388824 151:0.037567347 152:0.016404767 155:0.46816126 156:0.17462754 161:0.011356806 163:0.023306763 164:0.010050336 168:0.13614494 173:0.11820839 182:0.32387239 185:0.32064146 188:0.090432741 212:0.022745753 214:0.72801787 223:0.37942401 227:0.1406395 267:0.40804416 280:0.77027971 312:0.29285118 316:0.11551777 318:0.074531831 319:0.10016427 322:0.21798007 344:0.72801787 345:0.53185201 368:0.22097638 492:0.14266998 493:0.32567319 531:0.26933783 562:0.088632911 563:0.203637 565:0.47077566 596:0.92103404 732:0.082346946 742:0.57119405 750:0.35586739 754:0.39682627 764:0.18704374 769:0.61473876 845:0.5354557 864:0.68530303 920:0.40613028 972:0.19090238 985:0.27037859 989:0.41588831 1023:0.15914676 1052:0.31094259 1083:0.71871388 1087:0.92103404 1137:0.49598381 1139:0.38278541 1171:0.25548798 1179:0.46303278 1187:0.7824046 1302:0.25281534 1358:0.42405272 1429:0.21211885 1522:0.21502799 1550:0.44374073 1692:0.33083475 1813:0.48438638 1814:0.33613309 1821:0.70982349 1822:0.45803252 1894:0.45803252 1999:0.29722294 2051:0.54286397 2056:0.50204492 2066:0.69314718 2161:0.5354557 2162:0.44374073 2163:0.49010104 2167:0.29393518 2181:0.44605288 2184:0.73777586 2277:0.72801787 2527:0.59420794 2590:0.59420794 2610:0.63762081 2836:0.39682627 3465:0.45075899 3618:0.83994102 3759:0.65012491 3951:0.53185201 4642:0.79531229 4645:0.71871388 4738:0.63762081 5129:1.0596634 5680:0.85734332 5790:0.7824046 6313:0.73777586 6321:0.69314718 6415:1.1171999 6618:0.74803454 7851:0.47883046 9106:1.0150348 9163:1.0150348 11118:0.97857046 12632:0.89747745 13419:1.0596634 13687:0.92103404 14566:0.97857046 14638:0.97857046 16020:1.1171999 17367:1.1171999 17757:1.1171999 18437:1.1982929 18822:1.1171999 19220:1.0150348 19519:0.85734332 20977:1.1982929 23865:1.1171999 23907:1.0596634 23952:1.1171999 23953:1.3369223 23954:0.74803454 23955:1.3369223 23956:1.3369223 23957:1.1982929 23958:1.3369223 23959:1.1982929 23960:1.1982929 23961:1.1982929 23962:1.3369223 #
-0.0050759558678422364921822840244658 10:0.28232244 41:0.11842013 45:0.53185201 138:0.66346318 140:0.1406395 141:0.11418591 149:0.0070308046 150:0.085388824 153:0.59914643 161:0.011356806 163:0.093227051 164:0.010050336 173:0.23641679 174:0.51639366 182:0.16193619 185:0.32064146 188:0.090432741 210:0.20996442 212:0.090983011 227:0.281279 228:0.70585233 259:0.53912556 288:0.24671465 312:0.29285118 316:0.11551777 318:0.11179775 319:0.066776179 333:0.25281534 353:0.44605288 438:0.50514573 439:1.0229909 508:0.64377517 531:0.13466892 534:0.3862043 537:0.47334141 546:0.42614695 557:0.97444659 585:0.5354557 738:0.51277375 764:0.18704374 788:0.91115701 804:0.51474756 972:0.19090238 985:0.54075718 1050:0.35292616 1077:0.58938843 1085:0.89747745 1138:0.35292616 1343:1.063704 1345:0.61252803 1352:0.29833096 1353:0.44374073 1368:0.53185201 1522:0.64508396 1706:0.56268215 1990:0.58008444 1999:0.29722294 2009:0.94774032 2145:0.53185201 2183:0.46051702 2341:0.71871388 2360:0.82393247 2495:0.6094051 2734:0.51474756 2761:0.67048144 3031:0.73777586 3058:0.66346318 3099:0.79531229 3190:1.1171999 3264:0.70982349 3619:0.63165027 4220:0.79531229 4653:0.51474756 4775:0.64377517 5173:0.61473876 5253:0.94684947 5884:0.94774032 6397:0.7824046 6717:0.75884801 6796:0.60421002 6987:1.0150348 7740:0.92103404 8059:0.50204492 9109:1.1982929 9405:0.7824046 9498:1.0596634 9535:1.0150348 9537:1.3369223 9538:1.3369223 9539:1.3369223 9540:1.3369223 9541:1.0150348 9542:1.1982929 9543:1.0150348 9544:1.1171999 9545:1.0596634 9546:1.3369223 9547:0.92103404 9548:1.1982929 9549:1.3369223 9550:1.3369223 9551:1.0596634 9552:1.0596634 9553:0.71871388 9554:1.1982929 9555:0.94774032 9556:1.3369223 9557:1.3369223 9558:1.3369223 9559:1.3369223 9560:1.0150348 9561:1.1982929 9562:1.1171999 9563:1.3369223 9564:1.1171999 9565:1.1982929 9566:1.1982929 9567:1.0150348 9568:1.0150348 9569:0.70982349 9570:0.77027971 9571:1.3369223 9572:1.1982929 9573:1.1171999 9574:1.3369223 9575:1.3369223 9576:1.1982929 9577:1.1982929 9578:1.3369223 9579:1.3369223 9580:1.1982929 9581:0.94774032 9582:1.1982929 9583:1.0150348 9584:0.94774032 9585:0.82393247 9586:1.0150348 9587:0.70982349 9588:0.89747745 #
0.01334392983468112026113061574506 12:0.52622211 17:0.99034655 29:0.44583473 41:0.098683439 47:0.92419624 50:0.38506088 62:0.78904122 100:1.4957957 140:0.46879834 144:0.11416344 149:0.0058590039 150:0.14231472 151:0.062612243 152:0.027341278 154:0.63237333 156:0.2910459 161:0.012618673 163:0.077689208 164:0.010050336 174:0.43032807 175:0.48989198 183:0.36578768 198:0.50094271 200:0.69649732 208:0.79351556 312:0.4880853 313:1.3040076 314:1.3040076 316:0.19252962 318:0.062109858 319:0.055646818 320:0.4604356 338:0.25793836 347:0.7357583 362:1.2296265 364:0.7357583 365:1.1174691 368:0.36829397 385:0.75525701 386:0.85249245 404:0.7717213 513:0.17942749 514:0.7357583 531:0.22444819 562:0.073860757 654:0.37981144 655:0.97447056 768:0.22608618 1023:0.2652446 1058:0.5624665 1211:0.33481303 1358:0.70675451 1394:1.4289055 1395:1.4289055 1429:0.35353142 1442:1.0835415 1716:0.71024495 2011:0.37208909 2494:0.97447056 2518:1.4957957 2558:1.0245646 2743:0.68654633 2810:0.88052016 4535:1.3040076 4780:1.0245646 4781:1.5795672 6242:1.5350567 6317:1.0527503 6411:0.91112268 6618:1.2467242 8184:1.2837994 9829:1.6309508 9985:1.5350567 13231:1.6309508 15552:1.7661058 16963:1.4606756 17200:1.8619999 21930:1.9971548 27673:1.9971548 32274:1.9971548 32590:1.9971548 39822:2.228204 39823:2.228204 39824:2.228204 39825:2.228204 39826:2.228204 #
0.014144490514864950167495116772898 41:0.074012578 62:0.5917809 137:0.65466666 149:0.0087885056 151:0.046959184 152:0.041011918 156:0.10914221 161:0.014196008 164:0.010050336 173:0.1477605 174:0.32274604 183:0.27434078 188:0.22608185 212:0.056864381 227:0.52739811 229:0.56644279 230:0.4269695 316:0.14439721 318:0.046582393 319:0.041735113 332:0.28879565 435:0.56644279 470:0.97800577 486:1.0299156 491:1.4978662 505:0.34408602 527:0.76842344 554:0.72510552 561:1.0113885 654:0.28485858 768:0.16956465 790:0.40868893 791:0.26245552 855:0.54620051 991:0.38867825 1365:0.41683298 1814:0.42016634 1872:0.74893308 1922:0.8381018 2045:0.7752732 2123:0.66931963 2395:0.78956282 2507:1.1846753 2543:0.63536924 2555:0.93504322 2632:0.7139926 2633:1.0499263 2644:1.1512926 2738:0.61262631 5574:0.75526249 5937:0.86643398 8040:0.67390692 8377:0.88727939 9694:1.3964999 9695:1.2232131 12017:1.3964999 12318:1.1218468 12352:1.3245794 15046:1.2232131 15058:0.96284962 16133:1.0716791 20729:1.4978662 21482:1.4978662 21739:0.94856 29587:1.2687935 29929:1.3245794 29947:1.0716791 33299:1.3964999 33432:1.3245794 34586:1.6711529 34587:1.6711529 34588:1.6711529 34589:1.3964999 34590:1.6711529 34591:1.6711529 34592:1.2232131 34593:1.1512926 34594:1.4978662 34595:1.6711529 #
0.0058069752454772720004494424017594 41:0.04934172 44:0.23785272 49:0.7303378 64:0.13447933 85:0.6418997 144:0.057081718 147:0.42624623 149:0.0087885056 150:0.071157359 151:0.031306121 152:0.041011918 156:0.072761476 157:0.091147445 161:0.0063093365 164:0.0083752796 168:0.11345411 173:0.098506995 176:0.42357951 182:0.13494684 188:0.075360619 196:0.4289563 197:0.96680737 203:0.31898785 205:0.49517328 212:0.056864381 249:0.13401312 288:0.20559555 304:0.233568 318:0.062109858 324:0.20412369 338:0.12896918 347:0.36787915 358:0.23104906 360:0.59892821 372:0.74789786 492:0.11889165 506:0.44927129 513:0.26914123 515:0.2801109 541:0.38586065 552:0.25141034 560:0.17556666 562:0.11079113 568:0.12851812 572:0.23441617 643:0.6418997 659:0.50783759 819:0.25911883 940:0.53135067 972:0.15908532 1023:0.2652446 1024:0.6866104 1132:0.4289563 1153:0.31618667 1305:0.42624623 1345:0.25522003 1384:0.66276026 1428:0.57108587 1429:0.17676571 1529:0.37171075 1547:0.38376418 1708:0.51228231 1981:0.45556134 1999:0.24768579 2156:0.37762851 2338:0.40365532 2388:0.47241068 2472:0.29904377 2477:0.74789786 3140:0.57762265 3176:0.39902538 3185:0.30805498 3258:0.67425907 3317:0.30156907 3335:0.7897836 3342:0.88305289 3517:0.48723528 3653:0.60668153 3833:0.6866104 4147:0.59892821 4234:0.7303378 4825:0.59151959 5031:0.63237333 5050:0.99857742 5281:0.59892821 5440:0.62336212 5622:0.66276026 5862:0.76752836 6008:0.7303378 6391:0.74789786 6396:0.66276026 6522:0.63237333 6681:0.67425907 7659:0.46890178 7701:0.71445274 8105:1.0729586 8345:0.6418997 8954:0.95931643 10065:0.93099993 10500:0.99857742 10651:0.61481327 10865:0.76752836 11549:0.67425907 11723:0.93099993 12331:0.84586233 12346:0.88305289 12397:0.55288601 13316:0.7897836 13524:0.55288601 13570:0.55288601 14083:0.88305289 14462:0.88305289 14463:0.93099993 16525:0.7897836 17262:0.69995087 19195:0.69995087 19314:0.65200382 19712:0.6866104 19763:0.8154754 22597:0.6866104 22789:0.99857742 27121:0.88305289 27362:0.93099993 27563:0.93099993 34238:0.7303378 34348:1.114102 34349:1.114102 34350:1.114102 34351:1.114102 34352:1.114102 34353:1.114102 34354:0.99857742 34355:1.114102 34356:1.114102 34357:1.114102 34358:1.114102 34359:1.114102 34360:1.114102 34361:1.114102 34362:1.114102 34363:0.99857742 34364:1.114102 34365:1.114102 34366:1.114102 34367:1.114102 34368:1.114102 34369:1.114102 34370:0.99857742 34371:1.114102 34372:1.114102 34373:1.114102 34374:1.114102 34375:1.114102 34376:0.99857742 34377:1.114102 34378:1.114102 34379:1.114102 34380:1.114102 34381:1.114102 34382:1.114102 34383:1.114102 34384:1.114102 34385:1.114102 34386:1.114102 34387:0.99857742 34388:1.114102 34389:1.114102 34390:1.114102 34391:1.114102 34392:1.114102 34393:1.114102 34394:1.114102 #
0.0081425835530298945608151939268282 10:0.70580608 29:0.22291736 137:0.21822222 144:0.057081718 149:0.0087885056 150:0.28462943 152:0.041011918 161:0.015773341 163:0.077689208 164:0.0050251679 182:0.13494684 185:0.26720122 188:0.30144247 210:0.17497036 223:0.31618667 227:0.46879834 230:0.28464633 282:0.71445274 283:0.7897836 284:0.99857742 290:0.59892821 294:0.50350833 295:0.45879769 316:0.19252962 318:0.12421972 319:0.055646818 324:0.051030923 346:1.2062763 349:0.43736145 350:0.47599506 352:0.4289563 353:0.37171075 368:0.36829397 479:0.46890178 506:0.44927129 546:0.35512248 552:0.25141034 558:0.40601942 560:0.17556666 568:0.12851812 732:0.068622455 762:0.57108587 819:0.51823765 951:0.7897836 952:0.8154754 972:0.15908532 996:0.27353111 1026:0.54177076 1027:0.66276026 1038:0.54723573 1213:0.57762265 1415:0.31343177 1525:0.34994072 1594:0.58442634 1706:0.46890178 1788:0.74789786 1813:0.40365532 1880:0.54723573 1884:0.38376418 1981:0.45556134 1999:0.24768579 2040:0.51228231 2396:0.31898785 2426:0.48723528 2432:0.29049489 2442:0.57762265 2657:0.88305289 2658:0.76752836 2743:0.34327316 2981:0.66276026 3031:0.61481327 3099:0.66276026 3120:0.69995087 3121:0.59892821 3182:0.56479579 3619:0.52637517 3908:0.7303378 4394:0.8154754 4406:0.93099993 4533:0.57762265 4537:0.59151959 4770:0.99857742 4938:0.93099993 5689:0.47965822 5723:0.88305289 6144:0.93099993 6315:0.99857742 6431:0.34491521 7137:0.7897836 7211:0.69995087 7212:0.69995087 7258:0.58442634 8299:0.67425907 8348:0.74789786 9002:0.84586233 10216:0.6866104 11023:0.8154754 13029:1.8444397 13355:0.69995087 14339:0.76752836 15557:0.93099993 18626:0.84586233 23136:0.99857742 23141:0.88305289 27006:0.88305289 29852:0.88305289 30306:0.84586233 31210:1.114102 31211:1.114102 31212:1.114102 31213:1.114102 31214:1.114102 31215:1.114102 31216:1.114102 31217:0.99857742 31218:1.114102 31219:0.99857742 31220:1.114102 31221:1.114102 31222:1.114102 31223:1.114102 31224:1.114102 31225:1.114102 31226:1.114102 31227:1.114102 31228:1.114102 31229:1.114102 31230:1.114102 31231:1.114102 31232:1.114102 31233:1.114102 31234:1.114102 31235:1.114102 31236:1.114102 31237:1.114102 31238:1.114102 31239:1.114102 31240:1.114102 31241:1.114102 31242:1.114102 31243:1.114102 31244:1.114102 31245:1.114102 31246:1.114102 31247:1.114102 31248:0.8154754 31249:1.114102 31250:1.114102 31251:1.114102 31252:1.114102 31253:0.99857742 31254:1.114102 31255:1.114102 31256:1.114102 31257:1.114102 31258:1.114102 31259:1.114102 31260:1.114102 31261:1.114102 #
0.016428420338176239617888896304976 12:0.31573325 16:0.49171624 51:0.25105321 140:0.281279 142:0.084624007 144:0.06849806 149:0.0087885056 151:0.11270204 152:0.032809533 155:0.46816126 156:0.087313771 157:0.10937694 160:0.41789839 161:0.011356806 163:0.093227051 164:0.0020100672 185:0.32064146 188:0.090432741 228:0.35292616 229:0.45315424 248:0.16879402 312:0.29285118 316:0.11551777 318:0.037265915 320:0.82878411 324:0.061237108 333:0.50563067 489:1.0496675 500:0.74803454 501:1.0150348 543:0.15970154 560:0.42135999 563:0.203637 564:0.27329835 567:0.55451775 568:0.15422174 603:0.42198014 621:0.39501631 754:0.39682627 905:0.63165027 999:0.71871388 1006:1.0782511 1009:0.8764053 1015:0.31573325 1023:0.15914676 1107:0.6258527 1138:0.35292616 1243:0.72801787 1358:0.42405272 1361:0.5466736 1429:0.21211885 1435:0.38448757 1517:0.79531229 1525:0.41992885 1550:0.44374073 1579:1.0596634 1692:0.33083475 1993:0.35002756 2436:0.73777586 3340:0.31940308 3729:0.80911088 3854:0.4989914 4556:2.0300696 4644:0.58008444 5096:0.75884801 5204:1.0709114 5209:0.92103404 5265:0.8764053 5897:0.82393247 5924:0.51805341 6030:0.65668285 6081:1.0596634 6126:1.1982929 6135:0.83994102 6375:0.89747745 6454:0.51474756 6480:0.5668928 6481:0.6258527 7115:1.0596634 7116:0.73777586 7487:0.68530303 7897:0.83994102 7957:1.1982929 8040:0.53912556 8415:0.77027971 9219:0.70131159 9411:0.92103404 10914:0.97857046 11058:0.72801787 11814:0.70131159 11895:1.1171999 12145:1.1982929 12327:1.1171999 12771:0.92103404 12975:1.0596634 14497:0.8764053 14593:1.1982929 14940:0.79531229 15372:0.8764053 15772:1.0596634 18538:1.1982929 19126:1.0596634 21331:1.1982929 24470:1.0596634 34974:1.1982929 35272:1.1171999 37333:1.1982929 39587:1.3369223 39588:1.3369223 39589:1.3369223 39590:1.3369223 39591:1.3369223 39592:1.3369223 39593:1.1982929 39594:1.3369223 #
-0.0065286213502968697131034758740498 137:0.43644443 140:0.46879834 141:0.19030985 144:0.11416344 149:0.0029295019 150:0.14231472 152:0.082023837 154:0.63237333 161:0.01892801 164:0.0067002238 188:0.15072124 210:0.34994072 212:0.075819179 227:0.23439917 241:1.4289055 316:0.38505924 318:0.12421972 319:0.055646818 324:0.20412369 325:1.1619796 338:0.25793836 368:0.73658794 404:0.7717213 531:0.22444819 543:0.26616922 562:0.073860757 564:0.45549724 566:0.47225118 621:0.65836048 705:0.93780357 756:0.38771695 759:0.41696325 764:0.31173959 791:0.34994072 794:0.45063099 815:0.55357707 819:0.51823765 973:0.50094271 996:0.54706222 1114:1.1295916 1345:0.51044005 1352:0.49721828 1353:0.73956788 1401:1.0944715 1445:0.91759539 1529:0.74342149 1591:1.3040076 1640:0.78462613 1641:0.86902475 1704:0.73956788 1866:1.1295916 2147:0.89242619 2295:0.88052016 2563:0.92419624 2750:1.0336976 3024:1.2296265 3228:0.99034655 3264:1.1830392 3309:0.8579126 3317:0.60313815 3340:0.53233844 4051:1.3255205 4469:1.3255205 4561:1.1421717 4637:0.9309305 4789:1.1830392 4790:1.4606756 5053:1.6917247 5141:0.9309305 5233:1.8619999 5270:1.7661058 5867:1.2133631 6282:1.6917247 6317:1.0527503 6555:1.4606756 7277:1.0156752 7608:1.6917247 7609:1.6917247 7660:1.6917247 8184:1.2837994 8395:1.3732208 8514:1.9971548 10855:1.8619999 13117:1.7661058 13227:2.228204 13228:2.228204 13229:1.9971548 13230:1.6917247 13231:1.6309508 13232:2.228204 13233:2.228204 13234:1.8619999 13235:2.228204 13236:2.228204 13237:2.228204 13238:2.228204 13239:2.228204 13240:1.9971548 13241:1.9971548 13242:1.9971548 13243:2.228204 13244:2.228204 13245:1.8619999 13246:2.228204 13247:2.228204 13248:1.7661058 13249:1.6917247 13250:2.228204 13251:2.228204 13252:1.6917247 13253:2.228204 13254:2.228204 13255:1.9971548 13256:2.228204 13257:2.228204 13258:2.228204 13259:1.9971548 13260:1.6917247 13261:1.4957957 #
-0.030868350407564571630247840516859 15:0.26601693 41:0.065788962 44:0.15856849 137:0.14548148 141:0.06343662 142:0.094026677 144:0.076108955 146:0.22994347 149:0.0058590039 151:0.083482996 152:0.018227519 154:0.21079111 161:0.0084124487 163:0.012948202 164:0.010050336 173:0.065671332 174:0.14344269 182:0.089964554 209:0.28597087 212:0.050546117 227:0.078133054 248:0.18754891 288:0.1370637 316:0.064176537 319:0.018548939 322:0.12110004 324:0.068041235 338:0.085979454 347:0.49050555 362:0.40987548 452:0.1683746 492:0.079261102 513:0.059809163 526:0.22562793 528:0.29547334 534:0.21455795 553:0.22994347 560:0.11704444 562:0.098481007 654:0.25320762 736:0.12747528 768:0.15072413 790:0.18163952 972:0.10605688 984:0.18163952 987:0.18900056 1029:0.22994347 1131:0.44950604 1140:0.25847796 1153:0.21079111 1165:0.17952307 1211:0.11160435 1294:0.18307324 1365:0.1852591 1522:0.11945999 1797:0.26754951 1806:0.33567223 1981:0.30370757 1999:0.16512385 2011:0.12402969 2027:0.29951417 2326:0.30370757 2327:0.5887019 2328:0.42158222 2329:0.3015911 2414:0.37653053 2444:0.45774028 2470:0.20625533 2472:0.19936252 2493:0.34152153 2579:0.40987548 2726:0.26154205 3100:0.36118051 3185:0.20536998 3327:0.49859858 3642:0.33855841 3653:0.40445438 4147:0.39928547 4157:0.5887019 4319:0.38961753 4332:0.42158222 5281:0.39928547 5349:0.54365027 5622:0.44184017 5678:0.46663389 5951:0.33855841 6141:0.33011553 6189:0.43466923 6431:0.22994347 6495:0.40987548 7086:0.48689184 7460:0.47630182 7958:0.51168555 8040:0.29951417 8054:0.51168555 8573:0.5265224 8954:0.31977212 8985:0.48689184 9113:0.40445438 9145:0.5265224 9167:0.3509168 11012:0.5887019 11710:0.5887019 11988:0.66571826 12253:0.43466923 12696:0.48689184 13524:0.36859065 13570:0.36859065 13656:0.56390822 13657:0.44184017 13658:0.44184017 13664:0.44184017 13665:0.44184017 13770:0.62066662 14159:0.45774028 14289:0.5887019 14436:0.66571826 14437:0.74273461 14438:0.74273461 14439:0.74273461 14440:0.74273461 14441:0.74273461 14442:0.74273461 14443:0.74273461 14444:0.5887019 14445:0.74273461 14446:0.66571826 14447:0.62066662 14448:0.74273461 14449:0.74273461 14450:0.66571826 14451:0.74273461 14452:0.62066662 14453:0.74273461 14454:0.54365027 14455:0.5887019 14456:0.62066662 14457:0.56390822 14458:0.74273461 14459:0.74273461 14460:0.66571826 14461:0.56390822 14462:0.5887019 14463:0.62066662 14464:0.74273461 14465:0.74273461 14466:0.62066662 14467:0.62066662 14468:0.66571826 14469:0.74273461 14470:0.74273461 14471:0.74273461 14472:0.5887019 14473:0.56390822 14474:0.74273461 14475:0.74273461 14476:0.74273461 14477:0.56390822 14478:0.51168555 14479:0.74273461 14480:0.62066662 #
-0.031232647040204626620596428665522 11:0.22055326 41:0.04934172 50:0.19253044 140:0.23439917 149:0.0029295019 150:0.071157359 151:0.031306121 152:0.013670639 156:0.072761476 161:0.009464005 164:0.010050336 168:0.11345411 238:0.14261101 249:0.13401312 312:0.24404265 314:0.65200382 316:0.096264809 318:0.062109858 319:0.027823409 364:0.36787915 365:0.55873454 368:0.18414699 385:0.37762851 386:0.42624623 404:0.38586065 512:0.33221063 513:0.089713745 514:0.36787915 531:0.22444819 543:0.13308461 560:0.17556666 621:0.32918024 764:0.1558698 977:0.28464633 1023:0.1326223 1151:0.28813079 1171:0.21290666 1247:0.99857742 1302:0.21067946 1305:0.42624623 1328:0.52154392 1429:0.17676571 1441:0.8154754 1626:0.4289563 1716:0.35512248 1819:0.66276026 1893:0.58442634 2186:0.46890178 2300:0.93099993 2367:0.67425907 2396:0.31898785 2405:1.1295916 2424:0.55873454 2432:0.29049489 2590:0.49517328 2606:0.54723573 2731:0.39231306 2751:0.62336212 3002:0.67425907 3136:0.6866104 3185:0.30805498 4044:0.69995087 5605:0.88305289 5734:0.5168488 6116:0.74789786 6117:0.99857742 6513:0.52154392 6530:0.99857742 6571:0.8154754 6617:0.93099993 6807:1.114102 6808:0.93099993 6809:0.84586233 6810:0.47241068 6811:1.114102 6812:1.114102 6813:0.62336212 6814:1.114102 6815:1.114102 6816:0.99857742 6817:0.99857742 6818:0.99857742 6819:1.114102 6820:1.114102 6821:0.99857742 6822:0.7897836 6823:1.114102 6824:0.8154754 6825:0.8154754 6826:0.99857742 6827:0.8154754 6828:0.71445274 6829:0.46890178 6830:0.99857742 6831:1.114102 6832:0.74789786 6833:0.74789786 #
-0.0093900740043484087760106149289641 16:0.40976354 44:0.47570544 103:1.0245646 140:0.46879834 142:0.14104001 149:0.0058590039 151:0.062612243 161:0.0063093365 163:0.077689208 164:0.010050336 173:0.19701399 182:0.26989368 183:0.36578768 210:0.34994072 212:0.03790959 223:0.63237333 228:1.1764206 248:0.28132334 316:0.19252962 318:0.062109858 322:0.36330011 324:0.20412369 325:0.58098978 332:0.38506088 367:0.84190953 368:0.36829397 422:1.1421717 481:1.6309508 513:0.17942749 531:0.44889638 543:0.26616922 562:0.073860757 621:0.65836048 759:0.41696325 996:0.54706222 1023:0.2652446 1361:1.8222454 1550:0.73956788 1594:1.1688527 1692:0.55139124 1706:0.93780357 1848:1.2647467 1905:0.69649732 2011:0.37208909 2486:1.5350567 2544:1.2467242 2549:1.5350567 2583:1.5350567 2944:1.2647467 3997:0.99857742 4198:0.89242619 4315:1.4606756 4508:1.6309508 4653:0.8579126 4749:1.3485181 4778:1.2467242 5055:1.3732208 5342:0.96680737 5363:1.0729586 6768:0.94482136 7393:1.7661058 7602:1.5795672 8625:1.1978564 10384:1.4606756 11777:1.5795672 14942:1.6917247 15569:1.7661058 18648:1.6917247 18760:1.4606756 19997:1.6309508 22754:1.8619999 22755:1.6309508 22763:1.4289055 24151:1.9971548 24152:2.228204 24153:1.8619999 24154:2.228204 24155:2.228204 24156:2.228204 24157:2.228204 24158:2.228204 24159:2.228204 24160:2.228204 24161:2.228204 #
-0.015946511507644502841918310309666 10:0.11763435 41:0.074012578 137:0.10911111 140:0.11719958 142:0.035260003 144:0.028540859 145:0.24964435 149:0.0087885056 150:0.071157359 152:0.075188518 156:0.072761476 157:0.18229489 161:0.009464005 163:0.009711151 164:0.0075377519 174:0.10758202 188:0.26376218 212:0.047386985 221:0.20300971 227:0.23439917 229:0.56644279 230:0.4269695 248:0.070330836 284:0.24964435 288:0.10279778 316:0.14439721 318:0.046582393 319:0.055646818 320:0.1151089 322:0.18165006 324:0.20412369 332:0.28879565 346:0.15078454 371:0.17582506 486:0.3433052 505:0.11469533 527:0.25614116 547:0.08398816 550:0.18585537 560:0.17556666 568:0.12851812 624:0.29904377 628:0.17163658 732:0.034311228 738:0.10682786 756:0.19385847 764:0.23380469 767:0.17736848 769:0.25614116 775:0.309383 790:0.13622965 791:0.34994072 793:0.13569716 849:0.26823965 855:0.36413369 856:0.22619332 898:0.30740663 973:0.25047135 978:0.23872305 989:0.1732868 991:0.25911883 996:0.13676555 1011:0.24964435 1025:0.12665215 1026:0.27088538 1046:0.32094985 1117:0.2539188 1140:0.19385847 1196:0.15879069 1324:0.17933436 1344:0.31618667 1415:0.31343177 1449:0.22463565 1469:0.48340368 1525:0.17497036 1547:0.19188209 1604:0.26823965 1692:0.13784781 1694:0.21725619 1717:0.20665993 1814:0.42016634 1889:0.31618667 2040:0.25614116 2123:0.22310655 2181:0.18585537 2205:0.2823979 2235:0.28881133 2251:0.29221317 2258:0.2539188 2289:0.16922095 2396:0.31898785 2402:0.11428382 2416:0.34997544 2432:0.43574232 2596:0.38376418 2632:0.23799753 2662:0.28554294 2720:0.35722637 2750:0.2584244 2757:0.31618667 2810:0.22013004 2867:0.18023527 2945:0.23982911 2952:0.18206684 2981:0.33138013 3181:0.22463565 3182:0.2823979 3185:0.15402749 3243:0.30740663 3266:0.30334076 3317:0.15078454 3335:0.3948918 3516:0.23445089 3520:0.26823965 3613:0.27088538 3717:0.22310655 3764:0.26077196 4188:0.29221317 4268:0.30334076 4273:0.4077377 4409:0.3948918 4725:0.49928871 4774:0.38376418 4843:0.30740663 5082:0.32094985 5133:0.35722637 5138:0.30334076 5158:0.34997544 5204:0.22310655 5349:0.4077377 5412:0.35722637 5574:0.50350833 5594:0.3948918 5689:0.47965822 5708:0.31618667 5889:0.60668153 6037:0.22463565 6130:0.33138013 6343:0.37394893 6386:0.46549997 6463:0.44152644 6483:0.3948918 6487:0.46549997 6569:0.30740663 6670:0.32600191 6956:0.33712953 7008:0.38376418 7047:0.44152644 7464:0.4077377 7904:0.35722637 8535:0.44152644 8536:0.44152644 9156:0.57108587 9405:0.32600191 9630:0.37394893 10159:0.37394893 10160:0.33712953 10296:0.28881133 10567:0.2539188 10809:0.42293116 12246:0.44152644 13029:0.30740663 14290:0.46549997 14295:0.37394893 14732:0.4077377 14940:0.33138013 15058:0.32094985 15319:0.49928871 15375:0.31168106 15391:0.46549997 16133:0.35722637 16558:0.49928871 17272:0.49928871 17806:0.99857742 17990:0.42293116 18404:0.46549997 18604:0.3948918 19647:0.42293116 20533:0.49928871 20650:0.44152644 20882:0.37394893 21318:0.49928871 21710:0.38376418 21838:0.49928871 21981:0.4077377 23061:0.49928871 23908:0.46549997 24585:0.3651689 24626:0.28554294 24659:0.49928871 24660:0.557051 24661:0.557051 24662:0.557051 24663:0.557051 24664:0.557051 24665:0.49928871 24666:0.557051 24667:0.557051 24668:0.557051 24669:0.557051 24670:0.557051 24671:0.557051 24672:0.49928871 24673:0.557051 24674:0.46549997 24675:0.49928871 24676:0.557051 24677:0.49928871 24678:0.557051 24679:0.557051 24680:0.557051 24681:0.49928871 24682:0.557051 24683:0.557051 24684:0.557051 24685:0.557051 24686:0.557051 24687:0.557051 24688:0.557051 24689:0.49928871 24690:0.557051 24691:0.557051 24692:0.557051 24693:0.557051 24694:0.46549997 24695:0.49928871 24696:0.3948918 24697:0.557051 24698:0.557051 24699:0.49928871 24700:0.557051 24701:0.557051 24702:0.557051 24703:0.557051 24704:0.557051 24705:0.49928871 24706:0.557051 24707:0.557051 24708:0.557051 24709:0.557051 24710:0.557051 24711:0.557051 24712:0.557051 24713:0.557051 24714:0.557051 24715:0.557051 24716:0.557051 24717:0.49928871 24718:0.49928871 24719:0.557051 24720:0.557051 24721:0.557051 24722:0.49928871 24723:0.557051 24724:0.46549997 24725:0.557051 24726:0.557051 24727:0.557051 24728:0.557051 24729:0.557051 24730:0.557051 24731:0.557051 24732:0.49928871 24733:0.49928871 24734:0.557051 24735:0.49928871 24736:0.46549997 24737:0.3651689 24738:0.46549997 24739:0.49928871 24740:0.46549997 24741:0.3948918 24742:0.557051 24743:0.46549997 24744:0.557051 24745:0.557051 24746:0.557051 24747:0.557051 24748:0.49928871 24749:0.557051 24750:0.49928871 24751:0.557051 24752:0.557051 24753:0.557051 24754:0.49928871 24755:0.557051 24756:0.557051 24757:0.557051 24758:0.557051 24759:0.557051 24760:0.557051 24761:0.49928871 24762:0.3651689 24763:0.49928871 24764:0.42293116 24765:0.557051 24766:0.557051 24767:1.6711529 24768:0.46549997 24769:0.46549997 24770:0.557051 24771:0.557051 24772:0.557051 24773:0.49928871 24774:0.44152644 24775:0.557051 24776:0.49928871 24777:0.46549997 #
0.01914617559785889225332233820609 10:0.2352687 11:0.22055326 41:0.04934172 44:0.23785272 51:0.20921102 149:0.0058590039 150:0.21347207 151:0.062612243 156:0.072761476 161:0.009464005 163:0.038844604 164:0.010050336 173:0.19701399 188:0.15072124 212:0.03790959 238:0.14261101 244:0.7897836 245:0.99857742 248:0.14066167 267:0.68007362 319:0.027823409 324:0.15309277 327:0.69995087 371:0.35165012 505:0.22939067 511:0.33844191 531:0.11222409 653:0.34327316 656:0.40365532 732:0.068622455 750:0.29655614 767:0.17736848 970:0.7897836 1041:0.62336212 1052:0.25911883 1303:0.28350085 1318:0.41085067 1884:0.38376418 1890:0.39452061 2058:0.57762265 2145:0.44321001 2178:0.53647929 2396:0.31898785 2432:0.29049489 2502:0.76752836 2553:0.47965822 2604:0.40601942 2610:0.53135067 2734:0.4289563 3332:0.49928871 3483:0.48340368 3613:0.54177076 3672:0.76752836 3675:0.7303378 3843:0.63237333 3852:0.34824866 3888:0.6866104 4670:0.66276026 5777:0.71445274 6108:0.42357951 6360:0.49115703 6717:0.63237333 7691:0.6866104 8343:0.62336212 8596:0.8154754 8597:0.84586233 8641:0.8154754 9562:0.93099993 10958:0.7897836 11026:0.7897836 12609:0.48340368 16161:0.88305289 18586:0.84586233 18672:0.93099993 23425:0.7897836 25761:0.93099993 27738:0.93099993 27882:0.99857742 27922:0.7897836 28837:0.99857742 31759:0.93099993 33329:0.99857742 33348:0.99857742 39301:1.114102 39302:1.114102 39303:1.114102 39304:0.99857742 39305:1.114102 39306:1.114102 39307:1.114102 39308:1.114102 39309:1.114102 39310:1.114102 39311:1.114102 39312:1.114102 39313:1.114102 39314:1.114102 39315:1.114102 39316:1.114102 #
0.016170687581303185703651692506355 2:0.1721767 10:0.14116122 11:0.13233195 41:0.029605033 51:0.12552661 141:0.057092953 142:0.21156003 144:0.03424903 149:0.0061519542 150:0.042694412 151:0.13148572 152:0.032809533 156:0.043656886 157:0.054688469 161:0.009464005 163:0.058266908 164:0.010050336 168:0.068072468 182:0.16193619 183:0.10973631 205:0.29710397 212:0.045491505 259:0.26956278 260:0.37942401 261:0.32188758 288:0.24671465 312:0.14642559 318:0.018632958 319:0.016694045 321:0.1913927 333:0.25281534 334:0.29957321 338:0.23214452 364:0.22072749 439:0.51149547 452:0.30307427 458:0.55859995 492:0.14266998 513:0.21531299 515:0.16806655 526:0.20306514 527:0.30736938 537:0.2366707 548:0.5075174 553:0.20694911 562:0.17726582 566:0.14167535 572:0.14064971 573:0.37942401 653:0.20596389 654:0.11394343 725:0.25737378 732:0.041173473 733:0.31582513 767:0.21284217 768:0.067825854 788:0.68336773 791:0.10498221 824:0.28559703 978:0.14323384 987:0.17010051 996:0.16411866 1079:0.52983171 1135:0.20498827 1156:0.5075174 1165:0.32314152 1171:0.12774399 1216:0.35935694 1243:0.36400893 1298:0.34265152 1302:0.12640767 1345:0.15313201 1427:0.19661129 1435:0.19224378 1456:0.55859995 1486:0.28559703 1514:0.31292635 1532:0.37942401 1599:0.34265152 1685:0.24219319 1730:0.25102246 1774:0.31292635 1780:0.31010929 1781:0.2494957 1801:0.26070744 1819:0.39765614 1854:0.30736938 1867:0.28779492 1893:0.35065579 1945:0.23151639 1986:0.20794415 2011:0.11162672 2096:0.47387016 2144:0.2834464 2147:0.26772785 2167:0.14696759 2174:0.41196623 2195:0.28779492 2196:0.28779492 2289:0.20306514 2326:0.5466736 2341:0.71871388 2472:0.17942625 2485:0.28779492 2559:0.30736938 2997:0.63165027 3020:0.94747537 3161:0.29004222 3188:0.29004222 3202:0.47387016 3214:0.42867166 3235:0.41997051 3236:0.41997051 3297:0.35935694 3298:0.37401727 3321:0.23408063 3342:0.52983171 3427:0.55859995 3516:0.28134108 3536:0.19310215 3588:0.31010929 3591:0.52983171 3593:0.37401727 3642:0.30470255 3662:0.34265152 3725:0.3912023 3780:0.37942401 3834:0.48928523 3835:0.41997051 3836:0.38513985 3868:0.25737378 3892:0.36888793 3898:0.48928523 3935:0.41196623 4090:0.48928523 4198:0.26772785 4235:0.36888793 4276:0.48928523 4384:0.5075174 4515:0.25102246 4529:0.5075174 4530:0.5075174 4545:0.26415604 4586:0.37942401 4637:0.27927914 4831:0.55859995 5158:0.41997051 5392:0.3188104 5518:0.5075174 5565:0.41196623 5789:0.5075174 6121:0.36400893 6141:0.29710397 6147:0.3388775 6319:0.41997051 6499:0.46051702 6561:0.48928523 6565:0.31292635 6576:0.36400893 6638:0.29234117 6996:0.48928523 6997:0.55859995 7035:0.40455544 7485:0.41997051 7508:0.41997051 7659:0.28134108 7938:0.39765614 8039:0.27143198 8710:0.35491174 8954:0.28779492 8975:0.47387016 9147:0.2752786 10557:0.55859995 10771:0.47387016 11157:0.43820265 11587:0.41997051 12010:0.59914643 12044:0.48928523 12253:0.3912023 12372:0.47387016 12609:0.29004222 13342:0.59914643 13396:0.5075174 14889:0.48928523 16709:0.5075174 19553:0.5075174 19867:0.59914643 20590:0.55859995 21728:0.44873872 22979:0.55859995 24689:0.59914643 28591:0.59914643 29202:0.38513985 29516:0.66846114 29517:0.66846114 29518:0.66846114 29519:0.66846114 29520:0.66846114 29521:0.66846114 29522:0.66846114 29523:0.66846114 29524:0.59914643 29525:0.55859995 29526:0.66846114 29527:0.59914643 29528:0.66846114 29529:0.66846114 29530:0.66846114 29531:0.66846114 29532:0.66846114 29533:0.66846114 29534:0.66846114 29535:0.66846114 29536:0.66846114 29537:0.66846114 29538:0.59914643 29539:0.66846114 29540:0.66846114 29541:0.66846114 29542:0.66846114 29543:0.66846114 29544:0.66846114 29545:0.59914643 29546:0.66846114 29547:0.55859995 29548:0.59914643 29549:0.66846114 29550:0.66846114 29551:0.66846114 29552:0.66846114 29553:0.66846114 29554:0.66846114 29555:0.59914643 29556:0.66846114 29557:0.66846114 29558:0.66846114 29559:0.66846114 29560:0.66846114 29561:0.66846114 29562:0.66846114 29563:0.66846114 29564:0.66846114 29565:0.66846114 29566:0.66846114 29567:0.66846114 29568:0.55859995 29569:0.66846114 29570:0.66846114 #
0.015599630324041298748416473074485 41:0.074012578 140:0.17579938 149:0.0087885056 151:0.093918368 161:0.01892801 163:0.058266908 164:0.002512584 173:0.1477605 174:0.32274604 210:0.52491105 212:0.02843219 220:0.7752732 249:0.20101969 258:0.7752732 318:0.046582393 319:0.041735113 324:0.076546386 333:0.31601918 337:0.58846962 369:0.51490974 423:0.44856566 531:0.33667228 537:0.29583839 768:0.3391293 1025:0.37995642 1199:0.8381018 1353:0.55467588 1365:0.41683298 1368:0.66481501 1692:0.41354346 1801:0.65176857 1868:1.0299156 2209:1.0955067 2470:0.46407449 3581:1.0955067 3704:1.2687935 3852:0.52237296 3951:0.66481501 4080:0.96284962 4087:0.88727939 4247:0.85662878 4746:0.86643398 6264:1.4978662 6265:1.1846753 6318:1.1846753 6360:0.73673552 6569:0.92221987 6806:1.3964999 7180:1.3245794 7196:1.2232131 7860:1.3245794 8566:0.82085359 8703:0.91002232 8710:0.88727939 9682:0.82085359 9734:1.1512926 13497:1.0716791 14678:1.1846753 17764:0.99414039 20537:1.0499263 20588:1.0499263 27908:1.3964999 28559:1.2687935 32473:1.6711529 32474:1.6711529 32475:1.6711529 32476:1.6711529 32477:1.4978662 32478:1.4978662 32479:1.6711529 32480:1.6711529 32481:1.4978662 32482:1.6711529 32483:1.6711529 32484:1.6711529 32485:1.4978662 32486:1.6711529 32487:1.6711529 #
0.029884191116607089488965698365064 41:0.088815093 64:0.16137519 144:0.03424903 149:0.0052731037 150:0.042694412 152:0.016404767 161:0.015142408 163:0.069920287 164:0.010050336 168:0.068072468 182:0.16193619 188:0.22608185 212:0.045491505 238:0.08556661 248:0.084397011 249:0.16081575 268:0.36400893 284:0.29957321 292:0.34265152 293:0.3388775 294:0.30210501 295:0.2752786 304:0.1401408 308:0.52983171 316:0.11551777 318:0.11179775 319:0.033388089 321:0.1913927 324:0.030618554 332:0.11551826 337:0.23538783 341:0.35491174 346:0.3618829 351:0.33173159 352:0.25737378 353:0.22302644 358:0.13862944 361:0.43820265 368:0.11048819 429:0.31582513 493:0.1628366 505:0.1376344 526:0.20306514 534:0.19310215 562:0.022158228 563:0.1018185 568:0.077110872 732:0.082346946 748:0.36966595 767:0.10642108 768:0.067825854 784:0.21737522 794:0.13518929 819:0.31094259 937:0.5075174 977:0.1707878 978:0.14323384 1011:0.29957321 1029:0.41389823 1031:0.18888211 1052:0.1554713 1139:0.1913927 1141:0.3912023 1168:0.25414771 1205:0.29234117 1211:0.40177566 1415:0.37611812 1451:0.34657359 1488:0.34657359 1522:0.10751399 1599:0.34265152 1880:0.32834142 1884:0.23025851 1890:0.23671237 1993:0.17501378 1999:0.29722294 2082:0.27927914 2155:0.20402208 2167:0.14696759 2184:0.36888793 2350:0.42867166 2635:0.25257286 2640:0.40455544 2644:0.46051702 2830:0.25737378 2997:0.94747537 3020:0.94747537 3031:0.36888793 3051:0.36400893 3105:0.47387016 3121:0.35935694 3147:0.97857046 3178:0.40455544 3194:0.48928523 3195:0.42867166 3201:0.52983171 3204:0.35935694 3898:0.48928523 4223:0.29710397 4545:0.26415604 4644:0.29004222 4719:0.30736938 4775:0.32188758 6368:0.48928523 6422:0.41196623 6905:0.31582513 7421:0.32834142 7851:0.23941523 7958:0.46051702 7961:0.38513985 8040:0.26956278 8303:0.48928523 8404:0.47387016 8938:0.3912023 9147:0.2752786 9456:0.39765614 9587:0.35491174 10809:0.5075174 12083:0.46051702 12228:0.44873872 12298:0.31010929 12508:0.5075174 13071:0.41196623 14237:0.5075174 14535:0.52983171 14871:0.41997051 15391:0.55859995 15560:0.55859995 17224:0.52983171 18663:0.55859995 19254:0.42867166 20840:0.46051702 20860:0.37401727 25884:0.52983171 26136:1.0596634 26271:0.59914643 27007:0.48928523 27731:0.52983171 27854:0.55859995 29187:0.55859995 29677:0.59914643 29702:0.66846114 29703:0.66846114 29704:0.55859995 29705:0.66846114 29706:0.66846114 29707:0.66846114 29708:0.66846114 29709:0.66846114 29710:0.52983171 29711:0.52983171 29712:0.66846114 29713:0.66846114 29714:0.59914643 29715:0.66846114 29716:0.66846114 29717:0.66846114 29718:0.66846114 29719:0.66846114 29720:0.55859995 29721:0.59914643 29722:0.66846114 29723:0.66846114 29724:0.59914643 29725:0.66846114 29726:0.66846114 29727:0.66846114 29728:0.59914643 29729:0.44873872 #
0.0099157257204249525661676756271845 10:0.14116122 41:0.029605033 62:0.23671237 142:0.042312004 144:0.03424903 149:0.0087885056 150:0.042694412 152:0.02460715 153:0.29957321 156:0.087313771 157:0.16406541 161:0.0056784032 163:0.046613526 164:0.0050251679 168:0.068072468 180:0.19054882 182:0.080968097 183:0.21947262 188:0.22608185 203:0.1913927 210:0.10498221 212:0.056864381 230:0.34157559 238:0.08556661 248:0.084397011 262:0.35491174 263:0.55859995 264:0.52983171 265:0.52983171 266:0.5075174 267:0.20402208 292:0.34265152 293:0.3388775 304:0.1401408 316:0.057758883 318:0.055898875 319:0.033388089 324:0.09185566 332:0.11551826 335:0.3388775 336:0.46051702 339:0.43820265 349:0.26241687 351:0.33173159 358:0.13862944 361:0.43820265 366:0.29957321 367:0.25257286 492:0.21400496 504:0.21202636 513:0.053828247 538:0.17646308 543:0.079850771 562:0.088632911 565:0.23538783 568:0.15422174 572:0.14064971 579:0.21099007 628:0.20596389 732:0.12352042 736:0.11472774 750:0.35586739 756:0.11631508 793:0.1628366 973:0.15028282 987:0.17010051 1052:0.1554713 1134:0.31010929 1139:0.1913927 1151:0.34575695 1255:0.1913927 1427:0.19661129 1487:0.52983171 1513:0.36400893 1515:0.3912023 1522:0.10751399 1677:0.29469422 1679:0.23671237 1687:0.44873872 1726:0.36495987 1774:0.31292635 1883:0.26070744 1884:0.23025851 1885:0.41196623 1895:0.31292635 2103:0.37942401 2409:0.18888211 2472:0.17942625 2843:0.2184802 3022:0.21737522 3178:0.40455544 3338:0.47387016 3483:0.29004222 3497:0.41196623 3516:0.28134108 3640:0.55859995 3658:0.47387016 3812:0.48928523 3855:0.43820265 4198:0.5354557 4429:0.39765614 4454:0.5075174 4553:0.48928523 4571:0.47387016 4749:0.80911088 4778:0.74803454 4846:0.52983171 4936:0.3188104 5401:0.47387016 5625:0.52983171 5626:0.52983171 5627:0.59914643 5661:0.59914643 5698:0.36400893 5707:0.38513985 5711:0.74803454 5712:1.0596634 5805:0.68530303 5918:0.5075174 5933:0.37942401 5936:0.5075174 5937:0.34657359 6111:0.48928523 6488:0.5075174 6702:0.52983171 6833:0.44873872 6868:0.33524072 6924:0.43820265 7208:0.46051702 7508:0.41997051 7527:0.37942401 7553:0.32188758 7847:0.44873872 7851:0.23941523 7902:0.41196623 8040:0.26956278 8302:0.59914643 8595:0.55859995 9305:0.63165027 10715:0.3912023 10879:0.52983171 11664:0.46051702 11705:0.40455544 11913:0.37401727 12224:0.32188758 13036:0.52983171 13261:0.44873872 13326:0.52983171 13509:0.59914643 13568:0.47387016 13701:0.52983171 13807:0.47387016 14099:0.59914643 14239:0.59914643 14404:0.5075174 15500:0.52983171 15669:0.55859995 15984:0.43820265 16632:0.5075174 17047:0.5075174 17262:0.41997051 17278:0.48928523 18612:0.55859995 19728:0.41997051 21226:0.52983171 21623:0.5075174 21744:0.74803454 23943:0.44873872 27678:0.59914643 28302:0.43820265 28705:0.59914643 28790:0.59914643 29359:0.48928523 29972:0.55859995 29973:0.66846114 29974:0.66846114 29975:0.66846114 29976:0.59914643 29977:0.66846114 29978:0.66846114 29979:0.59914643 29980:0.52983171 29981:0.55859995 29982:0.66846114 29983:0.66846114 29984:0.66846114 29985:0.66846114 29986:0.66846114 29987:0.66846114 29988:0.59914643 29989:0.66846114 29990:0.66846114 29991:0.66846114 29992:0.66846114 29993:0.66846114 29994:0.66846114 29995:0.66846114 29996:0.66846114 29997:0.59914643 29998:0.66846114 29999:0.66846114 30000:0.66846114 30001:0.66846114 30002:0.66846114 30003:0.66846114 30004:0.66846114 30005:0.66846114 30006:0.66846114 30007:0.66846114 30008:0.66846114 30009:0.66846114 30010:0.66846114 30011:0.66846114 30012:0.66846114 30013:0.66846114 30014:0.66846114 30015:0.66846114 30016:0.59914643 30017:0.66846114 30018:0.66846114 30019:0.66846114 30020:0.66846114 30021:0.66846114 30022:0.66846114 30023:0.66846114 30024:0.66846114 30025:0.66846114 30026:0.66846114 30027:0.66846114 30028:0.43820265 30029:0.66846114 30030:0.66846114 30031:0.66846114 30032:0.66846114 30033:0.66846114 30034:0.66846114 30035:0.66846114 30036:0.66846114 30037:0.66846114 30038:0.66846114 30039:0.66846114 30040:0.59914643 30041:0.66846114 30042:0.66846114 30043:0.66846114 30044:0.59914643 30045:0.59914643 30046:0.66846114 30047:0.66846114 30048:0.55859995 30049:0.59914643 30050:0.66846114 30051:0.66846114 30052:0.59914643 #
-0.0052411412796970566901899601930381 2:0.24596673 11:0.18904565 12:0.22552375 41:0.042292904 48:0.79799992 49:0.6260038 64:0.11526799 140:0.20091358 141:0.081561364 142:0.12089144 149:0.007533005 150:0.060992021 151:0.053667638 152:0.058588453 157:0.15625276 161:0.01892801 163:0.066590749 164:0.010050336 176:0.36306813 183:0.15676615 203:0.27341816 205:0.84886849 212:0.081234835 221:0.34801665 248:0.12056715 319:0.071545906 320:0.19732955 322:0.15570004 324:0.087481581 330:0.48950216 332:0.1650261 346:0.25848776 349:0.37488124 371:0.3014144 452:0.21648163 456:0.2326237 505:0.19662057 515:0.24009506 534:0.27586022 538:0.25209013 547:0.1439797 560:0.15048571 562:0.12661844 566:0.20239337 568:0.22031678 579:0.3014144 654:0.32555264 659:0.43528935 707:0.64105529 732:0.058819246 736:0.16389678 748:0.26404712 756:0.3323288 768:0.19378816 782:0.25525314 791:0.14997458 792:0.35860351 796:0.50701678 940:0.45544344 989:0.29706308 1050:0.25209013 1052:0.22210185 1080:1.2520076 1132:0.36767682 1135:1.1713616 1165:0.23081537 1211:0.1434913 1303:0.24300073 1333:0.61238807 1449:0.38508967 1522:0.15359142 1529:0.31860921 1604:0.4598394 1630:0.49510512 1694:0.74487835 1708:0.4390991 1718:0.36767682 1836:0.72502482 1854:0.4390991 1872:0.42796177 2255:0.6260038 2277:0.52001274 2287:0.4789153 2402:0.1959151 2604:0.34801665 2997:0.90235746 3020:0.90235746 3188:0.41434601 3192:0.58852321 3213:0.52001274 3228:0.42443424 3325:0.56808025 3342:0.75690246 3425:0.75690246 3653:0.52001274 3861:0.65788144 4254:0.64105529 4604:0.72502482 4653:0.73535365 4696:0.61238807 4925:0.85592353 5082:0.55019975 5204:0.38246837 5400:0.64105529 5405:0.49510512 5443:0.95494455 5444:0.85592353 5445:0.95494455 5446:0.64105529 5447:0.95494455 5448:0.95494455 5449:0.67695737 5450:0.85592353 5451:0.95494455 5452:0.95494455 5453:0.95494455 5454:0.72502482 5455:0.95494455 5456:0.95494455 5457:0.95494455 5458:0.75690246 5459:0.85592353 5460:0.95494455 5461:0.95494455 5462:0.95494455 5463:0.95494455 5464:0.95494455 5465:0.95494455 5466:0.95494455 5467:0.95494455 5468:0.95494455 5469:0.95494455 5470:0.79799992 5471:0.6989789 5472:0.95494455 5473:0.55886042 5474:0.95494455 5475:0.67695737 5476:0.95494455 5477:0.95494455 5478:0.95494455 5479:0.95494455 5480:0.85592353 5481:0.95494455 5482:0.95494455 5483:0.95494455 5484:0.6989789 5485:0.95494455 5486:0.95494455 5487:0.95494455 5488:0.95494455 5489:0.95494455 5490:0.95494455 5491:0.85592353 5492:0.67695737 5493:0.75690246 5494:0.95494455 5495:0.95494455 5496:0.79799992 5497:0.56808025 5498:0.85592353 5499:0.75690246 5500:0.85592353 5501:0.95494455 5502:0.95494455 5503:0.95494455 5504:0.79799992 5505:0.79799992 5506:0.95494455 5507:0.95494455 5508:0.95494455 5509:0.95494455 5510:0.95494455 5511:0.95494455 5512:0.95494455 5513:0.85592353 5514:0.95494455 5515:0.95494455 5516:0.95494455 5517:0.95494455 5518:0.72502482 5519:0.95494455 5520:0.95494455 5521:0.59995788 5522:0.79799992 5523:0.65788144 5524:0.6989789 5525:0.79799992 5526:0.95494455 5527:0.95494455 5528:0.95494455 5529:0.95494455 5530:0.95494455 5531:0.85592353 5532:0.95494455 5533:0.95494455 5534:0.95494455 5535:0.95494455 5536:0.95494455 5537:0.95494455 5538:0.85592353 5539:0.79799992 5540:0.95494455 5541:0.95494455 5542:0.95494455 5543:0.95494455 5544:0.79799992 5545:0.72502482 5546:0.79799992 5547:0.55886042 5548:0.65788144 5549:0.85592353 5550:0.95494455 5551:0.95494455 5552:0.95494455 5553:0.95494455 5554:0.64105529 5555:0.72502482 5556:0.95494455 5557:0.95494455 5558:0.95494455 5559:0.85592353 5560:1.5138049 5561:0.72502482 5562:0.79799992 5563:0.72502482 5564:0.6260038 5565:0.58852321 5566:0.95494455 5567:0.65788144 5568:0.85592353 5569:0.95494455 5570:0.6989789 5571:0.95494455 5572:0.95494455 5573:0.95494455 #
-0.011436042767362394542707271227755 2:0.34435341 56:0.4872233 140:0.281279 141:0.22837181 142:0.084624007 144:0.06849806 149:0.0070308046 150:0.085388824 152:0.032809533 161:0.011356806 163:0.023306763 164:0.010050336 168:0.27228987 183:0.21947262 188:0.090432741 212:0.022745753 229:0.45315424 248:0.33758804 316:0.11551777 319:0.13355236 320:0.27626136 324:0.18371132 371:0.42198014 452:0.15153714 492:0.14266998 505:0.27526879 517:0.42198014 562:0.13294937 563:0.203637 568:0.15422174 732:0.082346946 753:0.73777586 754:0.39682627 767:0.21284217 778:0.50204492 972:0.19090238 973:0.30056563 1015:0.31573325 1050:0.35292616 1111:0.65012491 1168:0.50829542 1196:0.38109764 1344:0.37942401 1415:0.37611812 1469:0.58008444 1516:0.39501631 1640:0.47077566 1737:0.63165027 1813:0.48438638 1855:0.79003263 1856:0.53185201 1906:0.53185201 1918:0.60421002 2181:0.44605288 2240:0.58008444 2285:0.55855829 2402:0.27428114 2518:0.89747745 2547:0.97857046 2548:0.83994102 2558:0.61473876 2563:0.55451775 2997:0.63165027 3020:0.63165027 3146:0.77027971 3188:0.58008444 3213:0.72801787 3595:0.82393247 3596:1.3369223 3597:1.1982929 3598:1.0596634 3599:1.3369223 3600:1.3369223 3601:1.3369223 3602:2.6738446 3603:1.3369223 3604:1.3369223 3605:1.3369223 3606:1.3369223 3607:1.3369223 3608:1.3369223 3609:1.3369223 3610:1.1171999 3611:1.3369223 3612:1.3369223 3613:0.65012491 3614:0.92103404 3615:1.1982929 3616:0.94774032 3617:0.75884801 3618:0.83994102 3619:0.63165027 3620:0.94774032 3621:1.3369223 3622:1.3369223 3623:0.8764053 3624:1.1982929 3625:1.3369223 3626:1.3369223 3627:1.3369223 3628:1.1982929 3629:1.1982929 3630:1.3369223 3631:0.94774032 3632:1.0596634 3633:1.3369223 3634:1.3369223 3635:1.3369223 3636:1.3369223 3637:1.3369223 3638:1.3369223 3639:1.3369223 3640:1.1171999 3641:0.85734332 3642:0.6094051 3643:1.3369223 3644:2.6738446 3645:0.83994102 3646:1.3369223 3647:1.1982929 3648:1.0150348 3649:1.3369223 3650:0.92103404 3651:1.0150348 3652:1.3369223 3653:0.72801787 3654:1.3369223 3655:1.3369223 3656:1.1171999 3657:1.1982929 3658:0.94774032 #
-0.0045391822996363340864123259166263 141:0.095154926 142:0.14104001 149:0.0029295019 150:0.21347207 151:0.093918368 152:0.068353198 160:0.34824866 161:0.009464005 163:0.019422302 164:0.010050336 168:0.45381644 173:0.098506995 185:0.26720122 188:0.15072124 212:0.056864381 238:0.14261101 258:0.5168488 288:0.20559555 304:0.70070398 318:0.062109858 319:0.027823409 324:0.051030923 328:0.33221063 333:0.42135891 338:0.25793836 358:0.69314718 375:0.49517328 452:0.12628095 492:0.11889165 525:0.59892821 544:0.61481327 547:0.50392896 552:0.25141034 557:0.40601942 560:0.17556666 562:0.14772151 563:0.16969751 564:0.22774862 568:0.51407248 653:0.34327316 732:0.068622455 738:0.21365573 747:0.46546525 759:0.20848162 767:0.17736848 775:0.309383 842:0.56479579 857:0.7897836 941:0.71445274 992:0.56479579 996:0.27353111 1023:0.2652446 1031:0.31480354 1050:0.29410514 1058:0.5624665 1165:0.26928458 1168:0.42357951 1173:0.52154392 1303:0.28350085 1318:0.82170135 1330:0.76752836 1444:0.49115703 1522:0.89594996 1568:1.1209803 1683:0.69995087 1694:0.43451238 1718:0.4289563 1855:0.32918024 1856:0.44321001 1905:0.34824866 1906:0.44321001 2156:0.37762851 2159:0.5168488 2162:0.36978394 2178:0.53647929 2180:0.36978394 2279:0.5168488 2386:0.55873454 2547:0.8154754 2548:0.69995087 2563:0.92419624 2908:0.37171075 3121:0.59892821 3133:1.0430878 3314:0.66276026 3336:0.37964875 3672:0.76752836 3843:0.63237333 4149:0.63237333 4319:0.58442634 4370:0.99857742 4670:1.3255205 4776:0.56479579 4881:0.71445274 4908:0.50350833 5066:0.66276026 5067:0.6866104 5082:0.6418997 5096:0.63237333 5183:0.7897836 5260:0.84586233 5703:0.69995087 5849:0.52154392 6108:0.42357951 6482:0.67425907 6585:0.88305289 7036:0.84586233 7190:0.55288601 7239:0.99857742 7588:0.88305289 9147:0.45879769 9190:0.66276026 9400:0.63237333 10485:0.8154754 10567:0.50783759 10594:0.67425907 11048:0.99857742 11169:0.7897836 11278:0.7303378 12331:0.84586233 12600:0.76752836 13502:1.114102 13503:1.114102 13504:0.99857742 13505:0.99857742 13506:1.114102 13507:1.114102 13508:1.114102 13509:0.99857742 13510:0.99857742 13511:1.114102 13512:1.114102 13513:1.114102 13514:1.114102 13515:1.114102 13516:1.114102 13517:0.93099993 13518:1.114102 13519:0.99857742 13520:1.114102 13521:1.114102 13522:1.114102 13523:1.114102 13524:0.55288601 13525:1.114102 13526:0.99857742 13527:1.114102 13528:1.114102 13529:1.114102 13530:1.114102 13531:1.114102 13532:1.114102 13533:1.114102 13534:1.114102 13535:0.99857742 13536:1.114102 13537:1.114102 13538:1.114102 13539:0.99857742 13540:1.114102 13541:0.93099993 13542:1.114102 13543:0.84586233 13544:0.8154754 13545:0.93099993 13546:0.99857742 13547:1.114102 13548:1.114102 13549:0.99857742 13550:1.114102 13551:1.114102 13552:1.114102 13553:1.114102 13554:0.99857742 13555:1.114102 13556:1.114102 13557:0.99857742 13558:1.114102 13559:1.114102 13560:1.114102 13561:0.99857742 13562:1.114102 13563:1.114102 13564:0.88305289 13565:1.114102 13566:0.99857742 13567:1.114102 13568:0.7897836 13569:0.99857742 13570:0.55288601 13571:0.93099993 13572:0.88305289 13573:0.99857742 #
-0.022379470110855184672438156212593 10:0.17645152 41:0.14802516 64:0.10085949 137:0.16366667 141:0.071366191 142:0.052890006 144:0.085622579 149:0.0087885056 150:0.16010405 152:0.030758938 155:0.29260078 160:0.26118648 161:0.016562009 163:0.058266908 164:0.0087940441 168:0.085090585 173:0.073880248 178:0.34657359 188:0.16956139 199:0.48900288 210:0.13122776 212:0.014216095 227:0.26369905 230:0.21348475 267:0.25502759 284:0.37446654 304:0.17517599 318:0.023291197 322:0.13623755 324:0.038273193 332:0.28879565 346:0.2261768 358:0.1732868 452:0.094710715 492:0.089168735 495:0.32802108 496:0.33928996 508:0.40235949 512:0.24915798 541:0.28939548 553:0.25868639 560:0.13167499 562:0.055395566 563:0.12727313 564:0.17081146 572:0.17581214 654:0.14242929 716:0.47428 738:0.1602418 750:0.22241712 754:0.24801642 757:0.38087821 768:0.084782325 921:0.2413777 977:0.21348475 994:0.46110994 1025:0.18997821 1031:0.23610264 1050:0.22057885 1111:0.40632805 1352:0.18645686 1435:0.24030472 1475:0.53583956 1529:0.27878305 1600:0.34409827 1626:0.32171723 1657:0.5609234 1716:0.26634187 2040:0.38421172 2167:0.1837095 2472:0.22428283 2761:0.4190509 2810:0.33019507 2848:0.46752161 2853:0.66228968 2854:0.69824994 3048:0.29423481 3204:0.44919616 3317:0.2261768 3516:0.35167634 3705:0.48142481 3728:0.51495779 3852:0.26118648 4148:0.52496314 4399:0.33695346 4780:0.38421172 5097:0.59233767 5266:0.37763125 5683:0.4190509 5766:0.52496314 6120:0.59233767 6135:0.52496314 6416:0.66228968 7210:0.46752161 7258:0.43831974 7774:0.54775333 8268:0.51495779 8269:0.54775333 8270:0.83557647 8271:0.83557647 8272:0.83557647 8273:0.83557647 8274:0.66228968 8275:0.61160654 8276:0.61160654 8277:0.74893308 8278:0.83557647 8279:0.69824994 8280:0.57564628 8281:0.74893308 8282:0.83557647 8283:0.61160654 8284:0.83557647 8285:0.83557647 8286:0.83557647 8287:0.83557647 8288:0.61160654 8289:0.83557647 8290:0.83557647 8291:0.83557647 8292:0.83557647 8293:0.83557647 8294:0.63439673 8295:0.66228968 8296:0.69824994 8297:0.69824994 8298:0.43831974 8299:0.50569427 8300:0.59233767 8301:0.74893308 8302:0.74893308 8303:0.61160654 8304:0.83557647 8305:0.74893308 8306:0.83557647 8307:0.83557647 8308:0.83557647 8309:0.53583956 8310:0.51495779 8311:0.57564628 8312:0.57564628 8313:0.74893308 8314:0.74893308 8315:0.83557647 8316:0.59233767 8317:0.69824994 8318:0.57564628 8319:0.83557647 8320:0.57564628 #
-0.018989157978957203060099701019681 10:0.28232244 11:0.2646639 29:0.26750085 50:0.23103653 51:0.25105321 64:0.16137519 137:0.26186666 149:0.0087885056 150:0.25616649 151:0.11270204 152:0.065619066 156:0.087313771 161:0.0075712041 163:0.093227051 164:0.010050336 168:0.40843481 173:0.11820839 188:0.18086548 189:0.35292616 205:0.59420794 227:0.1406395 229:0.45315424 230:0.34157559 304:0.56056321 312:0.29285118 316:0.11551777 318:0.074531831 319:0.033388089 338:0.15476301 353:0.44605288 358:0.55451775 456:0.32567319 513:0.10765649 515:0.33613309 547:0.20157158 562:0.13294937 566:0.28335071 568:0.30844349 654:0.22788686 748:0.36966595 768:0.13565171 793:0.32567319 818:0.61473876 972:0.19090238 1023:0.15914676 1025:0.30396515 1058:0.33747989 1135:0.40997654 1152:0.94774032 1168:0.50829542 1211:0.20088783 1345:0.30626401 1415:0.37611812 1522:0.21502799 1568:0.44839209 1716:0.42614695 1738:0.64377517 1802:0.92103404 1813:0.48438638 1814:0.33613309 1855:0.39501631 1856:0.53185201 1862:0.67048144 1867:0.57558984 1889:0.75884801 1906:0.53185201 2186:0.56268215 2396:0.38278541 2432:0.34859386 2444:0.82393247 2470:0.3712596 2502:0.92103404 2553:0.57558984 2810:0.52831209 3031:0.73777586 3044:0.70982349 3058:0.66346318 3075:0.94774032 3122:0.75884801 3317:0.72376579 3536:0.3862043 3540:0.92103404 3578:0.89747745 3760:0.47342473 4002:0.97857046 4198:0.5354557 4509:1.1982929 4778:0.74803454 4780:0.61473876 5368:0.7824046 5574:0.60421002 5643:0.73777586 6480:0.5668928 6485:0.75884801 6576:0.72801787 7277:0.6094051 7286:0.82393247 7899:0.97857046 7900:1.0596634 8139:1.1982929 8294:1.0150348 9685:0.70131159 9878:0.80911088 10112:0.65668285 10274:0.63762081 10872:0.85734332 11191:1.3369223 11192:1.1982929 11193:1.0596634 11194:1.3369223 11195:1.3369223 11196:1.3369223 11197:1.1982929 11198:1.1982929 11199:1.1171999 11200:1.3369223 11201:1.3369223 11202:0.97857046 11203:1.0150348 11204:1.1982929 11205:1.0596634 11206:1.3369223 11207:1.1982929 11208:1.1982929 11209:0.97857046 11210:0.89747745 11211:0.85734332 11212:1.1982929 11213:1.3369223 11214:1.1171999 11215:1.1982929 11216:0.65668285 #
0.0043074172239088263924866595289132 63:1.1688527 64:0.26895866 142:0.14104001 149:0.0058590039 151:0.062612243 152:0.027341278 161:0.012618673 163:0.038844604 164:0.010050336 183:0.36578768 188:0.15072124 207:0.8747229 227:0.23439917 228:0.58821028 233:0.80731064 318:0.062109858 319:0.055646818 324:0.10206185 452:0.2525619 541:0.7717213 552:0.50282067 562:0.073860757 628:0.68654633 732:0.13724491 756:0.38771695 764:0.31173959 768:0.22608618 794:0.45063099 820:1.2837994 977:1.1385853 978:0.47744611 1444:0.98231405 1638:0.74342149 1807:1.0729586 2315:0.57392234 2388:0.94482136 2402:0.45713526 2750:1.0336976 3181:0.89854258 3257:1.1421717 3407:1.5795672 5342:0.96680737 7538:1.1421717 8081:1.6309508 8298:1.1688527 8716:1.9971548 9113:1.2133631 9405:1.3040076 9547:1.5350567 11153:1.6309508 11715:1.1174691 11716:1.0729586 11852:1.0627013 12051:1.1552453 19608:1.9971548 23519:1.5795672 31696:1.9971548 31710:1.9971548 34119:1.8619999 34231:2.228204 34232:2.228204 34233:2.228204 34234:2.228204 34235:2.228204 34236:2.228204 34237:2.228204 #
0.029020369511621183639116239305622 10:0.10082944 11:0.28356847 12:0.11276188 17:0.21221712 29:0.095536016 41:0.042292904 44:0.20387377 47:0.19804205 50:0.082513049 51:0.089661866 64:0.11526799 140:0.30137035 141:0.040780682 142:0.030222861 144:0.048927188 147:0.36535391 149:0.0050220033 150:0.18297607 151:0.12075219 152:0.05272961 154:0.27101713 156:0.062366977 161:0.010816006 163:0.091562286 164:0.010050336 168:0.097246379 173:0.12665185 175:0.10497686 180:0.1361063 182:0.057834357 184:0.34948945 185:0.22902963 188:0.032297406 198:0.10734487 212:0.0081234835 222:0.21221712 227:0.050228395 238:0.12223802 248:0.060283575 304:0.10010057 316:0.041256346 318:0.02661851 319:0.059621591 324:0.065611191 325:0.49799123 338:0.055272505 347:0.31532499 358:0.099021025 376:0.37845123 377:0.6260038 385:0.32368159 452:0.054120407 456:0.2326237 479:0.20095791 480:0.22150663 492:0.050953563 500:0.2671552 505:0.098310284 506:0.19254483 508:0.4598394 512:0.14237599 513:0.076897494 514:0.31532499 522:0.26349139 527:0.21954955 537:0.08452525 538:0.12604506 547:0.1439797 553:0.1478208 555:0.16908026 558:0.17400832 560:0.075242855 562:0.047481917 564:0.097606555 565:0.16813417 567:0.3960841 579:0.1507072 585:0.19123419 598:0.18868288 604:0.21049586 605:0.23695114 646:0.28896818 732:0.058819246 736:0.081948392 738:0.091566741 743:0.18153407 746:0.20246172 750:0.12709549 756:0.083082199 759:0.17869852 763:0.25668353 782:0.12762657 790:0.11676826 791:0.074987292 792:0.17930175 978:0.10230988 985:0.096563779 1023:0.2273525 1034:0.26000637 1041:0.2671552 1066:0.39899996 1127:0.18267696 1128:0.32894072 1130:0.28404012 1140:0.2492466 1165:0.11540768 1171:0.091245711 1177:0.33847868 1178:0.32894072 1211:0.1434913 1302:0.090291195 1303:0.12150037 1304:0.42796177 1308:0.27101713 1311:0.27509987 1366:0.18153407 1375:0.19387999 1396:0.28896818 1429:0.075756729 1435:0.13731699 1443:0.65293407 1486:0.20399788 1501:0.19804205 1507:0.22150663 1522:0.076795712 1528:0.17713708 1568:0.16014004 1616:0.39899996 1622:0.32052764 1662:0.33847868 1689:0.17400832 1692:0.11815527 1704:0.15847883 1707:0.2345296 1814:0.24009506 1821:0.25350839 1822:0.16358304 1867:0.20556781 1894:0.16358304 1944:0.16720045 1945:0.16536885 1986:0.14853154 1993:0.12500985 1999:0.10615105 2001:0.37845123 2027:0.19254483 2074:0.27943021 2144:0.20246172 2147:0.19123419 2155:0.14573006 2178:0.2299197 2338:0.17299514 2383:0.23218746 2402:0.097957551 2424:0.23945765 2470:0.13259271 2604:0.17400832 2952:0.15605728 2953:0.22351883 3120:0.29997894 3182:0.48411068 3196:0.21578929 3218:0.27509987 3317:0.38773167 3332:0.42796177 3470:0.21398088 3536:0.13793011 3723:0.30619404 3767:0.29997894 3828:0.37845123 3852:0.14924942 3856:0.2942616 3887:0.25350839 3891:0.26000637 4261:0.37845123 4307:0.29997894 4354:0.25350839 4394:0.34948945 4438:0.37845123 4469:0.85212034 4521:0.24755256 4533:0.49510512 4561:0.73425323 4754:0.27943021 4849:0.39899996 4892:0.33847868 5270:0.37845123 5407:0.34948945 5578:0.33847868 5663:0.33847868 5684:0.23218746 5689:0.20556781 5748:0.36251241 5750:0.32052764 5781:0.39899996 5805:0.24475108 5813:0.30619404 5849:0.22351883 5900:0.1507072 6028:0.32894072 6130:0.28404012 6235:0.5343104 6246:0.42796177 6314:0.33847868 6371:0.25668353 6385:0.32894072 6495:0.52698278 6571:0.34948945 6617:0.39899996 6619:0.32052764 6697:0.39899996 6775:0.37845123 6795:0.20881511 6804:0.45117873 6805:0.30619404 6813:0.2671552 6827:0.34948945 6919:0.27943021 6945:0.39899996 7063:0.37845123 7105:0.3130019 7142:0.39899996 7458:0.28404012 7487:0.24475108 7551:0.28404012 7795:0.33847868 7796:0.32052764 7905:0.24755256 8063:0.39899996 8153:0.26000637 8170:0.26000637 8185:0.37845123 8452:0.37845123 8478:0.33847868 8700:0.32894072 9331:0.32052764 9370:0.28404012 9399:0.30619404 9400:0.27101713 9716:0.34948945 9757:0.25668353 9844:0.27509987 10271:0.27101713 10421:0.39899996 10424:0.36251241 10522:0.3130019 10587:0.42796177 10604:0.32052764 10790:0.42796177 10897:0.3130019 11045:0.32894072 11155:0.39899996 11431:0.33847868 11526:0.37845123 11622:0.36251241 11781:0.36251241 11787:0.33847868 11840:0.27101713 11868:0.34948945 12109:0.42796177 12284:0.32894072 12546:0.26349139 12615:0.39899996 12772:0.39899996 12830:0.27509987 13456:0.39899996 13742:0.39899996 14572:0.42796177 15130:0.2671552 16010:0.32894072 16344:0.34948945 16523:0.39899996 16544:0.39899996 17295:0.39899996 18312:0.39899996 18391:0.32894072 18650:0.34948945 18750:0.39899996 19416:0.36251241 19647:0.36251241 19648:0.39899996 20381:0.39899996 20883:0.30619404 21288:0.39899996 21320:0.39899996 22100:0.36251241 22981:0.37845123 23455:0.36251241 23695:0.32894072 24388:0.39899996 25149:0.37845123 25258:0.39899996 25949:0.42796177 25950:0.42796177 26374:0.42796177 26915:0.42796177 27002:0.42796177 27156:0.42796177 28090:0.42796177 28494:0.42796177 28853:0.36251241 30213:0.42796177 30306:0.36251241 30740:0.42796177 30768:0.47747228 30769:0.47747228 30770:0.47747228 30771:0.39899996 30772:0.47747228 30773:0.47747228 30774:0.36251241 30775:0.47747228 30776:0.47747228 30777:0.47747228 30778:0.47747228 30779:0.47747228 30780:0.47747228 30781:0.47747228 30782:0.47747228 30783:0.47747228 30784:0.47747228 30785:0.42796177 30786:0.47747228 30787:0.47747228 30788:0.47747228 30789:0.47747228 30790:0.47747228 30791:0.47747228 30792:0.47747228 30793:0.47747228 30794:0.47747228 30795:0.47747228 30796:0.47747228 30797:0.42796177 30798:0.47747228 30799:0.47747228 30800:0.47747228 30801:0.47747228 30802:0.47747228 30803:0.47747228 30804:0.47747228 30805:0.47747228 30806:0.47747228 30807:0.47747228 30808:0.47747228 30809:0.47747228 30810:0.47747228 30811:0.47747228 30812:0.47747228 30813:0.39899996 30814:0.47747228 30815:0.47747228 30816:0.47747228 30817:0.47747228 30818:0.47747228 30819:0.47747228 30820:0.47747228 30821:0.47747228 30822:0.42796177 30823:0.47747228 30824:0.47747228 30825:0.47747228 30826:0.47747228 30827:0.47747228 30828:0.47747228 30829:0.47747228 30830:0.42796177 30831:0.47747228 30832:0.42796177 30833:0.39899996 30834:0.42796177 30835:0.47747228 30836:0.47747228 30837:0.42796177 30838:0.47747228 30839:0.47747228 30840:0.47747228 30841:0.47747228 30842:0.47747228 30843:0.47747228 30844:0.47747228 30845:0.42796177 30846:0.36251241 #
